svm_type c_svc
kernel_type rbf
gamma 8
nr_class 5
total_sv 4505
rho -11.9713 -1.29967 1.52724 4.33213 0.863984 26.8167 0.923927 -4.23132 -3.00374 2.08015
label 1 2 3 4 5
nr_sv 1249 480 629 1476 671
SV
0 32768 32768 32768 1:-0.333333 2:-0.999997 3:-0.999995 4:-0.999996 5:-1 6:-1 7:-1 8:-1 9:-1 10:-1 11:-1 
0 32768 32768 32768 1:-0.333333 2:-0.999997 3:-0.999996 4:-0.999997 5:-1 6:-1 7:-1 8:-1 9:-1 10:-1 11:-1 
0 32768 32768 0 1:-0.333333 2:-0.999997 3:-0.999997 4:-0.999998 5:-1 6:-1 7:-1 8:-1 9:-1 10:-1 11:-1 
0 32768 32768 32768 1:-0.333333 2:-0.999997 3:-0.999995 4:-0.999996 5:-1 6:-1 7:-1 8:-1 9:-1 10:-1 11:-1 
0 32768 32768 32768 1:-0.333333 2:-0.999997 3:-0.999996 4:-0.999997 5:-1 6:-1 7:-1 8:-1 9:-1 10:-1 11:-1 
0 0 32768 32768 1:-0.333333 2:-0.999997 3:-0.999995 4:-0.999995 5:-1 6:-1 7:-1 8:-1 9:-1 10:-1 11:-1 
0 32768 32768 32768 1:-0.333333 2:-0.999997 3:-0.999995 4:-0.999996 5:-1 6:-1 7:-1 8:-1 9:-1 10:-1 11:-1 
0 32768 32768 32768 1:-0.333333 2:-0.999997 3:-0.999995 4:-0.999996 5:-1 6:-1 7:-1 8:-1 9:-1 10:-1 11:-1 
0 0 32768 32768 1:-0.333333 2:-0.999997 3:-0.999994 4:-0.999995 5:-1 6:-1 7:-1 8:-1 9:-1 10:-1 11:-1 
0 32768 32768 32768 1:-0.333333 2:-0.999997 3:-0.999995 4:-0.999996 5:-1 6:-1 7:-1 8:-1 9:-1 10:-1 11:-1 
0 32768 32768 32768 1:-0.333333 2:-0.999997 3:-0.999995 4:-0.999996 5:-1 6:-1 7:-1 8:-1 9:-1 10:-1 11:-1 
0 32768 32768 32768 1:-0.333333 2:-0.999997 3:-0.999995 4:-0.999996 5:-1 6:-1 7:-1 8:-1 9:-1 10:-1 11:-1 
0 0 32768 32768 1:-0.333333 2:-0.999997 3:-0.999994 4:-0.999995 5:-1 6:-1 7:-1 8:-1 9:-1 10:-1 11:-1 
0 0 32768 32768 1:-0.333333 2:-0.999997 3:-0.999994 4:-0.999994 5:-1 6:-1 7:-1 8:-1 9:-1 10:-1 11:-1 
0 0 32768 32768 1:-0.333333 2:-0.999997 3:-0.999994 4:-0.999995 5:-1 6:-1 7:-1 8:-1 9:-1 10:-1 11:-1 
0 0 32768 32768 1:-0.333333 2:-0.999997 3:-0.999994 4:-0.999995 5:-1 6:-1 7:-1 8:-1 9:-1 10:-1 11:-1 
0 32630.29814649161 32768 32768 1:-0.333333 2:-0.999997 3:-0.999994 4:-0.999995 5:-1 6:-1 7:-1 8:-1 9:-1 10:-1 11:-1 
0 32768 32768 32768 1:-0.333333 2:-0.999997 3:-0.999994 4:-0.999995 5:-1 6:-1 7:-1 8:-1 9:-1 10:-1 11:-1 
0 32768 32768 32768 1:-0.333333 2:-0.999997 3:-0.999994 4:-0.999995 5:-1 6:-1 7:-1 8:-1 9:-1 10:-1 11:-1 
0 32768 32768 32768 1:-0.333333 2:-0.999997 3:-0.999994 4:-0.999995 5:-1 6:-1 7:-1 8:-1 9:-1 10:-1 11:-1 
0 32768 32768 32768 1:-0.333333 2:-0.999997 3:-0.999994 4:-0.999995 5:-1 6:-1 7:-1 8:-1 9:-1 10:-1 11:-1 
0 0 32768 32768 1:-0.333333 2:-0.999997 3:-0.999993 4:-0.999994 5:-1 6:-1 7:-1 8:-1 9:-1 10:-1 11:-1 
0 0 32768 32768 1:-0.333333 2:-0.999997 3:-0.999993 4:-0.999993 5:-1 6:-1 7:-1 8:-1 9:-1 10:-1 11:-1 
0 0 32768 32768 1:-0.333333 2:-0.999997 3:-0.999994 4:-0.999994 5:-1 6:-1 7:-1 8:-1 9:-1 10:-1 11:-1 
0 0 32768 32768 1:-0.333333 2:-0.999997 3:-0.999993 4:-0.999994 5:-1 6:-1 7:-1 8:-1 9:-1 10:-1 11:-1 
0 0 32768 32768 1:-0.333333 2:-0.999997 3:-0.999993 4:-0.999994 5:-1 6:-1 7:-1 8:-1 9:-1 10:-1 11:-1 
0 0 32768 32768 1:-0.333333 2:-0.999997 3:-0.999993 4:-0.999993 5:-1 6:-1 7:-1 8:-1 9:-1 10:-1 11:-1 
0 0 32768 32768 1:-0.333333 2:-0.999997 3:-0.999993 4:-0.999993 5:-1 6:-1 7:-1 8:-1 9:-1 10:-1 11:-1 
0 0 32768 32768 1:-0.333333 2:-0.999997 3:-0.999993 4:-0.999993 5:-1 6:-1 7:-1 8:-1 9:-1 10:-1 11:-1 
0 0 32768 32768 1:-0.333333 2:-0.999997 3:-0.999993 4:-0.999993 5:-1 6:-1 7:-1 8:-1 9:-1 10:-1 11:-1 
0 0 32768 32768 1:-0.333333 2:-0.999997 3:-0.999993 4:-0.999993 5:-1 6:-1 7:-1 8:-1 9:-1 10:-1 11:-1 
0 0 32768 32768 1:-0.333333 2:-0.999997 3:-0.999993 4:-0.999994 5:-1 6:-1 7:-1 8:-1 9:-1 10:-1 11:-1 
0 0 32768 32768 1:-0.333333 2:-0.999997 3:-0.999993 4:-0.999993 5:-1 6:-1 7:-1 8:-1 9:-1 10:-1 11:-1 
0 0 32768 32768 1:-0.333333 2:-0.999997 3:-0.999993 4:-0.999993 5:-1 6:-1 7:-1 8:-1 9:-1 10:-1 11:-1 
0 0 32768 32768 1:-0.333333 2:-0.999997 3:-0.999993 4:-0.999993 5:-1 6:-1 7:-1 8:-1 9:-1 10:-1 11:-1 
0 0 32768 32768 1:-0.333333 2:-0.999997 3:-0.999993 4:-0.999994 5:-1 6:-1 7:-1 8:-1 9:-1 10:-1 11:-1 
0 0 32768 32768 1:-0.333333 2:-0.999997 3:-0.999993 4:-0.999994 5:-1 6:-1 7:-1 8:-1 9:-1 10:-1 11:-1 
0 0 32768 32768 1:-0.333333 2:-0.999997 3:-0.999993 4:-0.999994 5:-1 6:-1 7:-1 8:-1 9:-1 10:-1 11:-1 
0 0 32768 32768 1:-0.333333 2:-0.999997 3:-0.999994 4:-0.999994 5:-1 6:-1 7:-1 8:-1 9:-1 10:-1 11:-1 
0 0 32768 32768 1:-0.333333 2:-0.999997 3:-0.999994 4:-0.999994 5:-1 6:-1 7:-1 8:-1 9:-1 10:-1 11:-1 
0 0 32768 32768 1:-0.333333 2:-0.999997 3:-0.999993 4:-0.999994 5:-1 6:-1 7:-1 8:-1 9:-1 10:-1 11:-1 
0 32739.5936982515 32768 32768 1:-0.333333 2:-0.999997 3:-0.999994 4:-0.999995 5:-1 6:-1 7:-1 8:-1 9:-1 10:-1 11:-1 
0 0 32768 32768 1:-0.333333 2:-0.999997 3:-0.999993 4:-0.999994 5:-1 6:-1 7:-1 8:-1 9:-1 10:-1 11:-1 
0 0 32768 32768 1:-0.333333 2:-0.999997 3:-0.999994 4:-0.999994 5:-1 6:-1 7:-1 8:-1 9:-1 10:-1 11:-1 
0 0 32768 32768 1:-0.333333 2:-0.999997 3:-0.999994 4:-0.999994 5:-1 6:-1 7:-1 8:-1 9:-1 10:-1 11:-1 
0 0 32768 32768 1:-0.333333 2:-0.999997 3:-0.999993 4:-0.999993 5:-1 6:-1 7:-1 8:-1 9:-1 10:-1 11:-1 
0 0 32768 32768 1:-0.333333 2:-0.999997 3:-0.999992 4:-0.999991 5:-1 6:-1 7:-1 8:-1 9:-1 10:-1 11:-1 
0 0 32768 32768 1:-0.333333 2:-0.999997 3:-0.999993 4:-0.999994 5:-1 6:-1 7:-1 8:-1 9:-1 10:-1 11:-1 
0 0 32768 32768 1:-0.333333 2:-0.999997 3:-0.999993 4:-0.999994 5:-1 6:-1 7:-1 8:-1 9:-1 10:-1 11:-1 
0 0 32768 32768 1:-0.333333 2:-0.999997 3:-0.999993 4:-0.999994 5:-1 6:-1 7:-1 8:-1 9:-1 10:-1 11:-1 
0 0 32768 32768 1:-0.333333 2:-0.999997 3:-0.999993 4:-0.999994 5:-1 6:-1 7:-1 8:-1 9:-1 10:-1 11:-1 
0 0 32768 32768 1:-0.333333 2:-0.999997 3:-0.999993 4:-0.999994 5:-1 6:-1 7:-1 8:-1 9:-1 10:-1 11:-1 
0 0 32768 32768 1:-0.333333 2:-0.999997 3:-0.999993 4:-0.999994 5:-1 6:-1 7:-1 8:-1 9:-1 10:-1 11:-1 
0 0 32768 32768 1:-0.333333 2:-0.999997 3:-0.999995 4:-0.999995 5:-1 6:-1 7:-1 8:-1 9:-1 10:-1 11:-1 
0 32768 32768 0 2:-0.999997 3:-0.999993 4:-0.999993 5:-0.999934 6:-0.999932 7:-1 8:-1 9:-1 10:-1 11:-1 
0 32768 32768 0 2:-0.999997 3:-0.999993 4:-0.999993 5:-0.999929 6:-0.999928 7:-1 8:-1 9:-1 10:-1 11:-1 
0 32768 32768 0 2:-0.999997 3:-0.999993 4:-0.999993 5:-0.999931 6:-0.999929 7:-1 8:-1 9:-1 10:-1 11:-1 
0 32768 32768 0 2:-0.999997 3:-0.999993 4:-0.999994 5:-0.999933 6:-0.999931 7:-1 8:-1 9:-1 10:-1 11:-1 
0 32768 32768 0 2:-0.999997 3:-0.999993 4:-0.999992 5:-0.999922 6:-0.999925 7:-1 8:-1 9:-1 10:-1 11:-1 
0 32768 32768 0 2:-0.999997 3:-0.999993 4:-0.999993 5:-0.999933 6:-0.999929 7:-1 8:-1 9:-1 10:-1 11:-1 
0 32768 32768 0 2:-0.999997 3:-0.999993 4:-0.999993 5:-0.999929 6:-0.999924 7:-1 8:-1 9:-1 10:-1 11:-1 
0 32768 32768 0 2:-0.999997 3:-0.999993 4:-0.999992 5:-0.999926 6:-0.999921 7:-1 8:-1 9:-1 10:-1 11:-1 
0 32768 0 0 2:-0.999997 3:-0.999993 4:-0.999992 5:-0.999924 6:-0.99992 7:-1 8:-1 9:-1 10:-1 11:-1 
0 32768 0 0 2:-0.999997 3:-0.999993 4:-0.999992 5:-0.999922 6:-0.99992 7:-1 8:-1 9:-1 10:-1 11:-1 
0 32768 32768 0 2:-0.999997 3:-0.999993 4:-0.999993 5:-0.999918 6:-0.999922 7:-1 8:-1 9:-1 10:-1 11:-1 
0 32768 0 0 2:-0.999997 3:-0.999992 4:-0.999993 5:-0.999914 6:-0.99992 7:-1 8:-1 9:-1 10:-1 11:-1 
0 32768 0 0 2:-0.999997 3:-0.999992 4:-0.999993 5:-0.999916 6:-0.99992 7:-1 8:-1 9:-1 10:-1 11:-1 
0 32768 0 0 2:-0.999997 3:-0.999993 4:-0.999992 5:-0.999922 6:-0.99992 7:-1 8:-1 9:-1 10:-1 11:-1 
0 32768 0 0 2:-0.999997 3:-0.999993 4:-0.999993 5:-0.999922 6:-0.99992 7:-1 8:-1 9:-1 10:-1 11:-1 
0 32768 0 0 2:-0.999997 3:-0.999993 4:-0.999993 5:-0.999924 6:-0.99992 7:-1 8:-1 9:-1 10:-1 11:-1 
0 32768 0 0 2:-0.999997 3:-0.999993 4:-0.999992 5:-0.99992 6:-0.999918 7:-1 8:-1 9:-1 10:-1 11:-1 
0 32768 0 0 2:-0.999997 3:-0.999992 4:-0.999993 5:-0.999915 6:-0.999918 7:-1 8:-1 9:-1 10:-1 11:-1 
0 32768 0 0 2:-0.999997 3:-0.999993 4:-0.999993 5:-0.999917 6:-0.999918 7:-1 8:-1 9:-1 10:-1 11:-1 
0 32768 0 0 2:-0.999997 3:-0.999992 4:-0.999993 5:-0.999916 6:-0.999919 7:-1 8:-1 9:-1 10:-1 11:-1 
0 32768 0 0 2:-0.999997 3:-0.999992 4:-0.999993 5:-0.999916 6:-0.999918 7:-1 8:-1 9:-1 10:-1 11:-1 
0 32768 0 0 2:-0.999997 3:-0.999992 4:-0.999993 5:-0.999914 6:-0.999915 7:-1 8:-1 9:-1 10:-1 11:-1 
0 32768 0 0 2:-0.999997 3:-0.999992 4:-0.999992 5:-0.999916 6:-0.999916 7:-1 8:-1 9:-1 10:-1 11:-1 
0 32768 0 0 2:-0.999997 3:-0.999992 4:-0.999992 5:-0.999916 6:-0.999914 7:-1 8:-1 9:-1 10:-1 11:-1 
0 32768 0 0 2:-0.999997 3:-0.999992 4:-0.999993 5:-0.999914 6:-0.999914 7:-1 8:-1 9:-1 10:-1 11:-1 
0 32768 0 0 2:-0.999997 3:-0.999993 4:-0.999992 5:-0.999916 6:-0.999912 7:-1 8:-1 9:-1 10:-1 11:-1 
0 32768 0 0 2:-0.999997 3:-0.999993 4:-0.999992 5:-0.99992 6:-0.999914 7:-1 8:-1 9:-1 10:-1 11:-1 
0 32768 0 0 2:-0.999997 3:-0.999993 4:-0.999992 5:-0.999917 6:-0.999914 7:-1 8:-1 9:-1 10:-1 11:-1 
0 32768 0 0 2:-0.999997 3:-0.999993 4:-0.999993 5:-0.999916 6:-0.999911 7:-1 8:-1 9:-1 10:-1 11:-1 
0 32768 0 0 2:-0.999997 3:-0.999993 4:-0.999992 5:-0.999912 6:-0.999908 7:-1 8:-1 9:-1 10:-1 11:-1 
0 32768 0 0 2:-0.999997 3:-0.999993 4:-0.999992 5:-0.999912 6:-0.999906 7:-1 8:-1 9:-1 10:-1 11:-1 
0 32768 0 0 2:-0.999997 3:-0.999993 4:-0.999992 5:-0.999911 6:-0.999907 7:-1 8:-1 9:-1 10:-1 11:-1 
0 32768 0 0 2:-0.999997 3:-0.999992 4:-0.999992 5:-0.999913 6:-0.999908 7:-1 8:-1 9:-1 10:-1 11:-1 
0 32768 0 0 2:-0.999997 3:-0.999992 4:-0.999992 5:-0.999912 6:-0.999908 7:-1 8:-1 9:-1 10:-1 11:-1 
0 32768 0 0 2:-0.999997 3:-0.999992 4:-0.999992 5:-0.99991 6:-0.999906 7:-1 8:-1 9:-1 10:-1 11:-1 
0 32768 0 0 2:-0.999997 3:-0.999992 4:-0.999992 5:-0.999907 6:-0.999902 7:-1 8:-1 9:-1 10:-1 11:-1 
0 32768 0 0 2:-0.999997 3:-0.999992 4:-0.999992 5:-0.999906 6:-0.999899 7:-1 8:-1 9:-1 10:-1 11:-1 
0 32768 0 0 2:-0.999285 3:-0.999963 4:-0.999975 5:-0.999835 6:-0.999896 7:-1 8:-1 9:-1 10:-1 11:-1 
0 32768 0 0 2:-0.999997 3:-0.999992 4:-0.999992 5:-0.999902 6:-0.999896 7:-1 8:-1 9:-1 10:-1 11:-1 
0 32768 0 0 2:-0.999997 3:-0.999992 4:-0.999992 5:-0.999902 6:-0.999896 7:-1 8:-1 9:-1 10:-1 11:-1 
0 32768 0 0 2:-0.999997 3:-0.999992 4:-0.999992 5:-0.999905 6:-0.999898 7:-1 8:-1 9:-1 10:-1 11:-1 
0 32768 0 0 2:-0.999997 3:-0.999992 4:-0.999992 5:-0.999904 6:-0.999899 7:-1 8:-1 9:-1 10:-1 11:-1 
0 32768 0 0 2:-0.999997 3:-0.999992 4:-0.999992 5:-0.999905 6:-0.999899 7:-1 8:-1 9:-1 10:-1 11:-1 
0 32768 0 0 2:-0.999997 3:-0.999992 4:-0.999992 5:-0.99991 6:-0.999907 7:-1 8:-1 9:-1 10:-1 11:-1 
0 32768 0 0 2:-0.999997 3:-0.999992 4:-0.999992 5:-0.999907 6:-0.999902 7:-1 8:-1 9:-1 10:-1 11:-1 
0 32768 0 0 2:-0.999997 3:-0.999992 4:-0.999992 5:-0.999909 6:-0.999902 7:-1 8:-1 9:-1 10:-1 11:-1 
0 32768 0 0 2:-0.999997 3:-0.999992 4:-0.999992 5:-0.999909 6:-0.999902 7:-1 8:-1 9:-1 10:-1 11:-1 
0 32768 32768 0 2:-0.999997 3:-0.999993 4:-0.999993 5:-0.999919 6:-0.99993 7:-1 8:-1 9:-1 10:-1 11:-1 
0 32768 32768 0 2:-0.999997 3:-0.999992 4:-0.999993 5:-0.999915 6:-0.999928 7:-1 8:-1 9:-1 10:-1 11:-1 
0 32768 32768 0 2:-0.999997 3:-0.999992 4:-0.999992 5:-0.999927 6:-0.999939 7:-1 8:-1 9:-1 10:-1 11:-1 
0 32768 32768 0 2:-0.999997 3:-0.999992 4:-0.999992 5:-0.999928 6:-0.99994 7:-1 8:-1 9:-1 10:-1 11:-1 
0 32768 32768 0 2:-0.999997 3:-0.999992 4:-0.999992 5:-0.999928 6:-0.999941 7:-1 8:-1 9:-1 10:-1 11:-1 
0 32768 0 0 2:-0.999997 3:-0.999992 4:-0.999992 5:-0.999904 6:-0.999901 7:-1 8:-1 9:-1 10:-1 11:-1 
0 32768 0 0 2:-0.999997 3:-0.999992 4:-0.999992 5:-0.999908 6:-0.999901 7:-1 8:-1 9:-1 10:-1 11:-1 
0 32768 32768 0 2:-0.999997 3:-0.999992 4:-0.999992 5:-0.999926 6:-0.99994 7:-1 8:-1 9:-1 10:-1 11:-1 
0 32768 28211.17958844315 0 2:-0.999997 3:-0.999992 4:-0.999992 5:-0.999908 6:-0.999901 7:-1 8:-1 9:-1 10:-1 11:-1 
0 32768 0 0 2:-0.999997 3:-0.999992 4:-0.999992 5:-0.999913 6:-0.999914 7:-1 8:-1 9:-1 10:-1 11:-1 
0 32768 0 0 2:-0.999997 3:-0.999994 4:-0.999995 5:-0.999944 6:-0.99995 7:-1 8:-1 9:-1 10:-1 11:-1 
0 32768 0 0 2:-0.999997 3:-0.999994 4:-0.999995 5:-0.999944 6:-0.99995 7:-1 8:-1 9:-1 10:-1 11:-1 
0 32768 32768 0 2:-0.999997 3:-0.999992 4:-0.999994 5:-0.99993 6:-0.999934 7:-1 8:-1 9:-1 10:-1 11:-1 
0 32768 32768 0 2:-0.999997 3:-0.999995 4:-0.999995 5:-0.999953 6:-0.999983 7:-1 8:-1 9:-1 10:-1 11:-1 
0 0 32768 32768 1:-0.333333 2:-0.999997 3:-0.999993 4:-0.999994 5:-1 6:-1 7:-1 8:-1 9:-1 10:-1 11:-1 
0 0 32768 32768 1:-0.333333 2:-0.999997 3:-0.999993 4:-0.999993 5:-1 6:-1 7:-1 8:-1 9:-1 10:-1 11:-1 
0 0 32768 32768 1:-0.333333 2:-0.999997 3:-0.999992 4:-0.999993 5:-1 6:-1 7:-1 8:-1 9:-1 10:-1 11:-1 
0 0 32768 32768 1:-0.333333 2:-0.999997 3:-0.999992 4:-0.999993 5:-1 6:-1 7:-1 8:-1 9:-1 10:-1 11:-1 
0 32768 0 0 2:-0.999997 3:-0.999992 4:-0.999992 5:-0.999924 6:-0.99992 7:-1 8:-1 9:-1 10:-1 11:-1 
0 32768 0 0 2:-0.999997 3:-0.999992 4:-0.999992 5:-0.999918 6:-0.99992 7:-1 8:-1 9:-1 10:-1 11:-1 
0 32768 0 0 2:-0.999997 3:-0.999992 4:-0.999992 5:-0.999915 6:-0.99992 7:-1 8:-1 9:-1 10:-1 11:-1 
0 32768 0 0 2:-0.999967 3:-0.999983 4:-0.999983 5:-0.999899 6:-0.999895 7:-1 8:-1 9:-1 10:-1 11:-1 
0 32768 32768 0 2:-0.999997 3:-0.999992 4:-0.999992 5:-0.999903 6:-0.999898 7:-1 8:-1 9:-1 10:-1 11:-1 
0 32768 0 0 2:-0.999997 3:-0.999992 4:-0.999992 5:-0.999905 6:-0.999903 7:-1 8:-1 9:-1 10:-1 11:-1 
0 32768 0 0 2:-0.999997 3:-0.999992 4:-0.999992 5:-0.999904 6:-0.999904 7:-1 8:-1 9:-1 10:-1 11:-1 
0 32768 0 0 2:-0.999997 3:-0.999992 4:-0.999992 5:-0.999904 6:-0.999899 7:-1 8:-1 9:-1 10:-1 11:-1 
0 32768 32768 0 2:-0.999997 3:-0.999992 4:-0.999992 5:-0.999903 6:-0.999898 7:-1 8:-1 9:-1 10:-1 11:-1 
0 32768 32768 0 2:-0.999997 3:-0.999992 4:-0.999992 5:-0.999904 6:-0.999897 7:-1 8:-1 9:-1 10:-1 11:-1 
0 32768 0 0 2:-0.999997 3:-0.999992 4:-0.999992 5:-0.999905 6:-0.999904 7:-1 8:-1 9:-1 10:-1 11:-1 
0 32768 0 0 2:-0.999964 3:-0.999979 4:-0.999982 5:-0.999899 6:-0.999895 7:-1 8:-1 9:-1 10:-1 11:-1 
0 32768 0 0 2:-0.999964 3:-0.999973 4:-0.999978 5:-0.9999 6:-0.999895 7:-1 8:-1 9:-1 10:-1 11:-1 
0 32768 0 0 2:-0.999964 3:-0.99997 4:-0.999979 5:-0.9999 6:-0.999895 7:-1 8:-1 9:-1 10:-1 11:-1 
0 32768 0 0 2:-0.999964 3:-0.999968 4:-0.999979 5:-0.9999 6:-0.999895 7:-1 8:-1 9:-1 10:-1 11:-1 
0 32768 0 0 2:-0.999997 3:-0.999992 4:-0.999992 5:-0.999907 6:-0.999901 7:-1 8:-1 9:-1 10:-1 11:-1 
0 32768 0 0 2:-0.999997 3:-0.999992 4:-0.999992 5:-0.999907 6:-0.999901 7:-1 8:-1 9:-1 10:-1 11:-1 
0 32768 0 0 2:-0.999997 3:-0.999992 4:-0.999992 5:-0.999906 6:-0.999901 7:-1 8:-1 9:-1 10:-1 11:-1 
0 32768 0 0 2:-0.999997 3:-0.999992 4:-0.999992 5:-0.999906 6:-0.9999 7:-1 8:-1 9:-1 10:-1 11:-1 
0 0 32768 0 2:-0.992809 3:-0.991921 4:-0.996308 5:-0.999125 6:-0.99963 7:-1 8:-1 9:-1 10:-1 11:-1 
0 32768 0 0 2:-0.999997 3:-0.999992 4:-0.999992 5:-0.999915 6:-0.999913 7:-1 8:-1 9:-1 10:-1 11:-1 
0 32768 32768 0 2:-0.999967 3:-0.999972 4:-0.999985 5:-0.999901 6:-0.999895 7:-1 8:-1 9:-1 10:-1 11:-1 
0 32768 0 0 2:-0.999997 3:-0.999992 4:-0.999992 5:-0.999905 6:-0.9999 7:-1 8:-1 9:-1 10:-1 11:-1 
0 32768 0 0 2:-0.999997 3:-0.999992 4:-0.999992 5:-0.999905 6:-0.9999 7:-1 8:-1 9:-1 10:-1 11:-1 
0 32768 0 0 2:-0.999997 3:-0.999992 4:-0.999992 5:-0.999906 6:-0.9999 7:-1 8:-1 9:-1 10:-1 11:-1 
0 32768 0 0 2:-0.999997 3:-0.999992 4:-0.999992 5:-0.999907 6:-0.9999 7:-1 8:-1 9:-1 10:-1 11:-1 
0 32768 0 0 2:-0.998569 3:-0.999923 4:-0.999963 5:-0.999816 6:-0.999895 7:-1 8:-1 9:-1 10:-1 11:-1 
0 32768 0 0 2:-0.998569 3:-0.999924 4:-0.999963 5:-0.999824 6:-0.999895 7:-1 8:-1 9:-1 10:-1 11:-1 
0 0 32768 32768 1:-0.333333 2:-0.999997 3:-0.999993 4:-0.999992 5:-1 6:-1 7:-1 8:-1 9:-1 10:-1 11:-1 
0 0 32768 32768 1:-0.333333 2:-0.999997 3:-0.999993 4:-0.999992 5:-1 6:-1 7:-1 8:-1 9:-1 10:-1 11:-1 
0 0 32768 32768 1:-0.333333 2:-0.999997 3:-0.999993 4:-0.999992 5:-1 6:-1 7:-1 8:-1 9:-1 10:-1 11:-1 
0 0 32768 32768 1:-0.333333 2:-0.999997 3:-0.999993 4:-0.999992 5:-1 6:-1 7:-1 8:-1 9:-1 10:-1 11:-1 
0 0 32768 32768 1:-0.333333 2:-0.999997 3:-0.999992 4:-0.999992 5:-1 6:-1 7:-1 8:-1 9:-1 10:-1 11:-1 
0 0 32768 32768 1:-0.333333 2:-0.999997 3:-0.999992 4:-0.999992 5:-1 6:-1 7:-1 8:-1 9:-1 10:-1 11:-1 
0 0 32768 32768 1:-0.333333 2:-0.999997 3:-0.999992 4:-0.999992 5:-1 6:-1 7:-1 8:-1 9:-1 10:-1 11:-1 
0 0 32768 32768 1:-0.333333 2:-0.999997 3:-0.999992 4:-0.999992 5:-1 6:-1 7:-1 8:-1 9:-1 10:-1 11:-1 
0 0 32768 32768 1:-0.333333 2:-0.999997 3:-0.999992 4:-0.999992 5:-1 6:-1 7:-1 8:-1 9:-1 10:-1 11:-1 
0 0 32768 32768 1:-0.333333 2:-0.999997 3:-0.999993 4:-0.999992 5:-1 6:-1 7:-1 8:-1 9:-1 10:-1 11:-1 
0 0 32768 32768 1:-0.333333 2:-0.999997 3:-0.999993 4:-0.999992 5:-1 6:-1 7:-1 8:-1 9:-1 10:-1 11:-1 
0 0 32768 32768 1:-0.333333 2:-0.999997 3:-0.999992 4:-0.999992 5:-1 6:-1 7:-1 8:-1 9:-1 10:-1 11:-1 
0 0 32768 32768 1:-0.333333 2:-0.999997 3:-0.999992 4:-0.999992 5:-1 6:-1 7:-1 8:-1 9:-1 10:-1 11:-1 
0 0 32768 32768 1:-0.333333 2:-0.999997 3:-0.999992 4:-0.999992 5:-1 6:-1 7:-1 8:-1 9:-1 10:-1 11:-1 
0 0 32768 32768 1:-0.333333 2:-0.999997 3:-0.999992 4:-0.999992 5:-1 6:-1 7:-1 8:-1 9:-1 10:-1 11:-1 
0 0 32768 32768 1:-0.333333 2:-0.999997 3:-0.999992 4:-0.999992 5:-1 6:-1 7:-1 8:-1 9:-1 10:-1 11:-1 
0 0 32768 32768 1:-0.333333 2:-0.999997 3:-0.999992 4:-0.999992 5:-1 6:-1 7:-1 8:-1 9:-1 10:-1 11:-1 
0 0 32768 32768 1:-0.333333 2:-0.999997 3:-0.999992 4:-0.999992 5:-1 6:-1 7:-1 8:-1 9:-1 10:-1 11:-1 
0 0 32768 32768 1:-0.333333 2:-0.999997 3:-0.999992 4:-0.999992 5:-1 6:-1 7:-1 8:-1 9:-1 10:-1 11:-1 
0 0 32768 32768 1:-0.333333 2:-0.999997 3:-0.999993 4:-0.999992 5:-1 6:-1 7:-1 8:-1 9:-1 10:-1 11:-1 
0 0 32768 32768 1:-0.333333 2:-0.999997 3:-0.999993 4:-0.999992 5:-1 6:-1 7:-1 8:-1 9:-1 10:-1 11:-1 
0 0 32768 32768 1:-0.333333 2:-0.999997 3:-0.999993 4:-0.999992 5:-1 6:-1 7:-1 8:-1 9:-1 10:-1 11:-1 
0 0 32768 32768 1:-0.333333 2:-0.999997 3:-0.999993 4:-0.999992 5:-1 6:-1 7:-1 8:-1 9:-1 10:-1 11:-1 
0 0 32768 32768 1:-0.333333 2:-0.999997 3:-0.999993 4:-0.999992 5:-1 6:-1 7:-1 8:-1 9:-1 10:-1 11:-1 
0 0 32768 32768 1:-0.333333 2:-0.999997 3:-0.999993 4:-0.999992 5:-1 6:-1 7:-1 8:-1 9:-1 10:-1 11:-1 
0 0 32768 32768 1:-0.333333 2:-0.999997 3:-0.999993 4:-0.999992 5:-1 6:-1 7:-1 8:-1 9:-1 10:-1 11:-1 
0 0 32768 32768 1:-0.333333 2:-0.999997 3:-0.999993 4:-0.999992 5:-1 6:-1 7:-1 8:-1 9:-1 10:-1 11:-1 
0 0 24060.2804879685 0 1:-0.333333 2:-0.999997 3:-0.999993 4:-0.999992 5:-1 6:-1 7:0.645398 8:0.645398 9:-1 10:-1 11:-1 
0 0 32749.16440112408 0 1:-0.333333 2:-0.999997 3:-0.999993 4:-0.999992 5:-1 6:-1 7:0.645398 8:0.645398 9:-1 10:-1 11:-1 
0 32768 0 0 2:-0.999997 3:-0.999992 4:-0.999992 5:-0.999911 6:-0.999916 7:-1 8:-1 9:-1 10:-1 11:-1 
0 0 32768 0 2:-0.996389 3:-0.994862 4:-0.995388 5:-0.999579 6:-0.999645 7:-1 8:-1 9:-1 10:-1 11:-1 
0 0 21874.67908166684 0 2:-0.996389 3:-0.994862 4:-0.995388 5:-0.999649 6:-0.999709 7:-1 8:-1 9:-1 10:-1 11:-1 
0 0 7956.856130618367 0 2:-0.996389 3:-0.994862 4:-0.995388 5:-0.999594 6:-0.999659 7:-1 8:-1 9:-1 10:-1 11:-1 
0 32768 0 0 2:-0.999997 3:-0.999992 4:-0.999992 5:-0.999906 6:-0.9999 7:-1 8:-1 9:-1 10:-1 11:-1 
0 0 0 9.382203172320658 2:-0.995158 3:-0.99054 4:-0.990961 5:-0.999601 6:-0.999612 7:-1 8:-1 9:-1 10:-1 11:-1 
0 32768 0 0 2:-0.999997 3:-0.999992 4:-0.999991 5:-0.999901 6:-0.999893 7:-1 8:-1 9:-1 10:-1 11:-1 
0 22488.9660612871 209.1177032005467 0 2:-0.999997 3:-0.999994 4:-0.999995 5:-0.999968 6:-0.999972 7:0.883086 8:0.883086 9:0.930249 10:-1 11:-1 
0 32767.98683330598 0 0 2:-0.999997 3:-0.999994 4:-0.999997 5:-0.999968 6:-0.999969 7:0.883086 8:0.883086 9:0.930249 10:-1 11:-1 
0 997.7718793618367 801.3161927877609 0 2:-0.979279 3:-0.999729 4:-0.999843 5:-0.999549 6:-0.999665 7:0.883086 8:0.883086 9:0.930249 10:-1 11:-1 
0 32768 0 0 2:-0.999997 3:-0.999992 4:-0.999992 5:-0.999947 6:-0.999972 7:-1 8:-1 9:-1 10:-1 11:-1 
0 32768 32768 0 2:-0.999997 3:-0.999992 4:-0.999997 5:-0.999969 6:-0.999979 7:-1 8:-1 9:-1 10:-1 11:-1 
0 32768 32768 0 2:-0.999997 3:-0.999992 4:-0.999997 5:-0.999965 6:-0.99998 7:-1 8:-1 9:-1 10:-1 11:-1 
0 32768 32768 0 2:-0.999997 3:-0.999997 4:-0.999997 5:-0.999975 6:-0.99998 7:-1 8:-1 9:-1 10:-1 11:-1 
0 32768 0 0 2:-0.999997 3:-0.999992 4:-0.999992 5:-0.99995 6:-0.999954 7:-1 8:-1 9:-1 10:-1 11:-1 
0 32768 32768 0 2:-0.999997 3:-0.999996 4:-0.999996 5:-0.999978 6:-0.999979 7:-1 8:-1 9:-1 10:-1 11:-1 
0 32768 0 0 2:-0.999997 3:-0.999992 4:-0.999992 5:-0.99995 6:-0.999948 7:-1 8:-1 9:-1 10:-1 11:-1 
0 32768 0 0 2:-0.999997 3:-0.999992 4:-0.999992 5:-0.999952 6:-0.999952 7:-1 8:-1 9:-1 10:-1 11:-1 
0 32768 0 0 2:-0.999997 3:-0.999992 4:-0.999992 5:-0.999951 6:-0.999957 7:-1 8:-1 9:-1 10:-1 11:-1 
0 32768 32768 0 2:-0.999997 3:-0.999992 4:-0.999992 5:-0.999951 6:-0.999963 7:-1 8:-1 9:-1 10:-1 11:-1 
0 32768 0 0 2:-0.999997 3:-0.999992 4:-0.999992 5:-0.999954 6:-0.999968 7:-1 8:-1 9:-1 10:-1 11:-1 
0 32768 0 0 2:-0.999997 3:-0.999992 4:-0.999992 5:-0.999953 6:-0.999962 7:-1 8:-1 9:-1 10:-1 11:-1 
0 32768 0 0 2:-0.999997 3:-0.999992 4:-0.999992 5:-0.999953 6:-0.999959 7:-1 8:-1 9:-1 10:-1 11:-1 
0 32768 32768 0 2:-0.999997 3:-0.999997 4:-0.999997 5:-0.999977 6:-0.999977 7:-1 8:-1 9:-1 10:-1 11:-1 
0 32768 0 0 2:-0.999997 3:-0.999994 4:-0.999994 5:-0.999933 6:-0.999959 7:-1 8:-1 9:-1 10:-1 11:-1 
0 32768 32768 0 2:-0.999997 3:-0.999992 4:-0.999992 5:-0.999962 6:-0.999963 7:-1 8:-1 9:-1 10:-1 11:-1 
0 32768 32768 0 2:-0.999997 3:-0.999992 4:-0.999992 5:-0.999961 6:-0.999966 7:-1 8:-1 9:-1 10:-1 11:-1 
0 32768 0 0 2:-0.999997 3:-0.999992 4:-0.999992 5:-0.99996 6:-0.99996 7:-1 8:-1 9:-1 10:-1 11:-1 
0 32768 32768 0 2:-0.999997 3:-0.999992 4:-0.999992 5:-0.99996 6:-0.999958 7:-1 8:-1 9:-1 10:-1 11:-1 
0 32768 32768 0 2:-0.999997 3:-0.999992 4:-0.999992 5:-0.99996 6:-0.999958 7:-1 8:-1 9:-1 10:-1 11:-1 
0 32768 32768 32768 1:-0.333333 2:-0.999998 3:-0.999997 4:-0.999998 5:-1 6:-1 7:-1 8:-1 9:-1 10:-1 11:-1 
0 32768 32768 32768 1:-0.333333 2:-0.999998 3:-0.999997 4:-0.999998 5:-1 6:-1 7:-1 8:-1 9:-1 10:-1 11:-1 
0 32768 32768 0 1:-0.333333 2:-0.999997 3:-0.999997 4:-0.999997 5:-1 6:-1 7:-1 8:-1 9:-1 10:-1 11:-1 
32768 0 32768 32768 1:-1 2:-1 3:-1 4:-1 5:-1 6:-1 7:-1 8:-1 9:-1 10:-1 11:-1 
0 0 32768 32768 1:-0.333333 2:-0.999693 3:-0.999633 4:-0.999999 5:-1 6:-1 7:-1 8:-1 9:-1 10:-1 11:-1 
0 32768 32768 32768 1:-0.333333 2:-0.999693 3:-0.999639 4:-0.999999 5:-1 6:-1 7:-1 8:-1 9:-1 10:-1 11:-1 
0 0 32768 32768 1:-0.333333 2:-0.999693 3:-0.999634 4:-0.999999 5:-1 6:-1 7:-1 8:-1 9:-1 10:-1 11:-1 
0 0 32768 32768 1:-0.333333 2:-0.999693 3:-0.999634 4:-0.999999 5:-1 6:-1 7:-1 8:-1 9:-1 10:-1 11:-1 
0 0 32768 32768 1:-0.333333 2:-0.999693 3:-0.999635 4:-0.999999 5:-1 6:-1 7:-1 8:-1 9:-1 10:-1 11:-1 
0 0 32768 32768 1:-0.333333 2:-0.99968 3:-0.999635 4:-0.999999 5:-1 6:-1 7:-1 8:-1 9:-1 10:-1 11:-1 
0 32768 0 32768 1:-0.666667 2:-0.999998 3:-1 4:-1 5:-1 6:-1 7:-1 8:-1 9:-1 10:-1 11:-1 
0 32768 32768 0 2:-0.999997 3:-0.999993 4:-0.999993 5:-0.99992 6:-0.999952 7:-1 8:-1 9:-1 10:-1 11:-1 
0 32768 32768 0 2:-0.999997 3:-0.999993 4:-0.999993 5:-0.99992 6:-0.999952 7:-1 8:-1 9:-1 10:-1 11:-1 
0 32768 32768 0 2:-0.999997 3:-0.999992 4:-0.999992 5:-0.999978 6:-0.999988 7:-1 8:-1 9:-1 10:-1 11:-1 
0 32768 32768 0 2:-0.999997 3:-0.999992 4:-0.999992 5:-0.999978 6:-0.999989 7:-1 8:-1 9:-1 10:-1 11:-1 
0 32768 32768 0 2:-0.999826 3:-0.999786 4:-0.999974 5:-0.999902 6:-0.999954 7:-1 8:-1 9:-1 10:-1 11:-1 
0 32768 32768 32768 1:-0.333333 2:-0.999997 3:-0.999996 4:-0.999996 5:-1 6:-1 7:-1 8:-1 9:-1 10:-1 11:-1 
0 0 32768 32768 1:-0.333333 2:-0.999965 3:-0.999992 4:-0.999992 5:-1 6:-1 7:-1 8:-1 9:-1 10:-1 11:-1 
0 0 32768 32768 1:-0.333333 2:-0.999997 3:-0.999992 4:-0.999992 5:-1 6:-1 7:-1 8:-1 9:-1 10:-1 11:-1 
0 32768 32768 0 2:-0.999821 3:-0.999974 4:-0.999992 5:-0.999906 6:-0.999901 7:-1 8:-1 9:-1 10:-1 11:-1 
0 32768 32768 0 2:-0.999819 3:-0.999975 4:-0.999992 5:-0.999906 6:-0.999901 7:-1 8:-1 9:-1 10:-1 11:-1 
0 32768 32768 0 2:-0.999817 3:-0.999879 4:-0.999976 5:-0.999903 6:-0.999946 7:-1 8:-1 9:-1 10:-1 11:-1 
0 32768 32768 0 2:-0.999815 3:-0.999866 4:-0.999981 5:-0.999903 6:-0.999947 7:-1 8:-1 9:-1 10:-1 11:-1 
0 32768 32768 0 2:-0.999397 3:-0.999546 4:-0.999929 5:-0.999903 6:-0.999933 7:-1 8:-1 9:-1 10:-1 11:-1 
0 32768 32768 0 2:-0.999588 3:-0.999541 4:-0.999924 5:-0.999903 6:-0.999917 7:-1 8:-1 9:-1 10:-1 11:-1 
0 32768 32768 0 2:-0.999384 3:-0.999538 4:-0.999917 5:-0.999903 6:-0.999934 7:-1 8:-1 9:-1 10:-1 11:-1 
0 32768 32768 0 2:-0.999371 3:-0.999539 4:-0.99991 5:-0.999903 6:-0.999935 7:-1 8:-1 9:-1 10:-1 11:-1 
0 32768 32768 0 2:-0.999354 3:-0.999518 4:-0.999879 5:-0.999903 6:-0.999938 7:-1 8:-1 9:-1 10:-1 11:-1 
0 32768 32768 0 2:-0.999416 3:-0.99951 4:-0.999873 5:-0.999903 6:-0.999931 7:-1 8:-1 9:-1 10:-1 11:-1 
0 32768 32768 0 2:-0.999397 3:-0.999509 4:-0.999867 5:-0.999903 6:-0.999933 7:-1 8:-1 9:-1 10:-1 11:-1 
0 1.022694185542549 1.812241946004561 4.353728510373795 2:-0.994319 3:-0.998265 4:-0.998258 5:-0.999348 6:-0.999895 7:-0.358644 8:-0.358644 9:-0.34258 10:-1 11:-1 
0 32768 0 0 2:-0.994319 3:-0.998266 4:-0.998257 5:-0.999336 6:-0.999895 7:-1 8:-1 9:-1 10:-1 11:-1 
0 32760.54442716068 0 0 2:-0.994319 3:-0.998269 4:-0.998255 5:-0.999331 6:-0.999895 7:-1 8:-1 9:-1 10:-1 11:-1 
0 0 32768 32768 1:-0.333333 2:-0.999997 3:-0.999995 4:-0.999995 5:-1 6:-1 7:-1 8:-1 9:-1 10:-1 11:-1 
0 0 32768 32768 1:-0.333333 2:-0.999997 3:-0.999995 4:-0.999995 5:-1 6:-1 7:-1 8:-1 9:-1 10:-1 11:-1 
0 0 32768 32768 1:-0.333333 2:-0.999997 3:-0.999995 4:-0.999995 5:-1 6:-1 7:-1 8:-1 9:-1 10:-1 11:-1 
0 0 32768 32768 1:-0.333333 2:-0.999997 3:-0.999995 4:-0.999995 5:-1 6:-1 7:-1 8:-1 9:-1 10:-1 11:-1 
0 0 84.39058482371486 0 1:-0.333333 2:-0.999993 3:-0.999992 4:-0.999998 5:-1 6:-1 7:-0.959318 8:-0.959318 9:-1 10:-1 11:-1 
0 0 32768 32768 1:-0.333333 2:-0.999997 3:-0.999995 4:-0.999995 5:-1 6:-1 7:-1 8:-1 9:-1 10:-1 11:-1 
0 0 32768 32768 1:-0.333333 2:-0.999997 3:-0.999995 4:-0.999995 5:-1 6:-1 7:-1 8:-1 9:-1 10:-1 11:-1 
0 0 32768 32768 1:-0.333333 2:-0.999997 3:-0.999995 4:-0.999995 5:-1 6:-1 7:-1 8:-1 9:-1 10:-1 11:-1 
0 0 32768 32768 1:-0.333333 2:-0.999997 3:-0.999995 4:-0.999995 5:-1 6:-1 7:-1 8:-1 9:-1 10:-1 11:-1 
0 3337.254575779495 3665.100631762474 418.336795264615 1:-0.333333 2:-0.999997 3:-0.999998 4:-0.999999 5:-1 6:-1 7:0.170479 8:0.170479 9:-1 10:-1 11:-1 
0 0 32768 32768 1:-0.333333 2:-0.999997 3:-0.999995 4:-0.999995 5:-1 6:-1 7:-1 8:-1 9:-1 10:-1 11:-1 
0 0 386.1948818629271 32768 1:-0.333333 2:-0.999996 3:-0.999992 4:-0.999999 5:-1 6:-1 7:-0.120338 8:-0.120338 9:-1 10:-1 11:-1 
0 0 32768 32768 1:-0.333333 2:-0.999997 3:-0.999995 4:-0.999995 5:-1 6:-1 7:-1 8:-1 9:-1 10:-1 11:-1 
0 32768 32768 32768 1:-0.333333 2:-0.999993 3:-0.999992 4:-0.999999 5:-1 6:-1 7:-1 8:-1 9:-1 10:-1 11:-1 
0 32768 32768 0 2:-0.999797 3:-0.999915 4:-0.999973 5:-0.999903 6:-0.999932 7:-1 8:-1 9:-1 10:-1 11:-1 
0 32768 0 0 2:-0.993985 3:-0.999562 4:-0.999903 5:-0.999732 6:-0.999895 7:-1 8:-1 9:-1 10:-1 11:-1 
0 32768 28396.03125432874 0 2:-0.993985 3:-0.999575 4:-0.999914 5:-0.999737 6:-0.999895 7:-1 8:-1 9:-1 10:-1 11:-1 
0 32768 32768 0 2:-0.999997 3:-0.999994 4:-0.999995 5:-0.999941 6:-0.999988 7:-1 8:-1 9:-1 10:-1 11:-1 
0 32768 0 0 2:-0.99093 3:-0.999562 4:-0.999972 5:-0.999842 6:-0.999895 7:-1 8:-1 9:-1 10:-1 11:-1 
0 14514.6021995576 0 0 2:-0.99093 3:-0.999569 4:-0.999972 5:-0.999744 6:-0.999895 7:-1 8:-1 9:-1 10:-1 11:-1 
0 32768 0 0 2:-0.99093 3:-0.999579 4:-0.999968 5:-0.999682 6:-0.999895 7:-1 8:-1 9:-1 10:-1 11:-1 
0 32768 0 0 2:-0.99093 3:-0.999588 4:-0.999959 5:-0.999689 6:-0.999895 7:-1 8:-1 9:-1 10:-1 11:-1 
0 32768 0 0 2:-0.99093 3:-0.999608 4:-0.999942 5:-0.999704 6:-0.999895 7:-1 8:-1 9:-1 10:-1 11:-1 
0 32768 0 0 2:-0.99093 3:-0.999614 4:-0.999938 5:-0.999708 6:-0.999895 7:-1 8:-1 9:-1 10:-1 11:-1 
0 32768 32768 0 2:-0.999997 3:-0.999994 4:-0.999995 5:-0.999944 6:-0.999987 7:-1 8:-1 9:-1 10:-1 11:-1 
0 32768 32768 0 2:-0.999997 3:-0.999992 4:-0.999992 5:-0.999987 6:-0.999996 7:-1 8:-1 9:-1 10:-1 11:-1 
0 32768 32768 0 2:-0.999997 3:-0.999992 4:-0.999992 5:-0.999986 6:-0.999996 7:-1 8:-1 9:-1 10:-1 11:-1 
0 32768 32768 0 2:-0.999997 3:-0.999992 4:-0.999992 5:-0.999985 6:-0.999996 7:-1 8:-1 9:-1 10:-1 11:-1 
0 32768 32768 0 2:-0.999997 3:-0.999992 4:-0.999992 5:-0.999985 6:-0.999996 7:-1 8:-1 9:-1 10:-1 11:-1 
0 32768 32768 0 2:-0.999997 3:-0.999992 4:-0.999992 5:-0.999984 6:-0.999996 7:-1 8:-1 9:-1 10:-1 11:-1 
0 32768 32768 0 2:-0.999997 3:-0.999992 4:-0.999992 5:-0.999982 6:-0.999996 7:-1 8:-1 9:-1 10:-1 11:-1 
0 32768 32768 0 2:-0.999997 3:-0.999992 4:-0.999992 5:-0.999981 6:-0.999996 7:-1 8:-1 9:-1 10:-1 11:-1 
0 32768 32768 0 2:-0.999997 3:-0.999992 4:-0.999992 5:-0.99998 6:-0.999995 7:-1 8:-1 9:-1 10:-1 11:-1 
0 32768 32768 0 2:-0.999997 3:-0.999992 4:-0.999992 5:-0.999978 6:-0.999993 7:-1 8:-1 9:-1 10:-1 11:-1 
0 32768 32768 0 2:-0.999997 3:-0.999992 4:-0.999992 5:-0.999977 6:-0.999992 7:-1 8:-1 9:-1 10:-1 11:-1 
0 32768 32768 0 2:-0.999997 3:-0.999992 4:-0.999992 5:-0.999975 6:-0.99999 7:-1 8:-1 9:-1 10:-1 11:-1 
0 32768 32768 0 2:-0.999997 3:-0.999992 4:-0.999992 5:-0.999974 6:-0.999989 7:-1 8:-1 9:-1 10:-1 11:-1 
0 32768 32768 0 2:-0.999997 3:-0.999992 4:-0.999992 5:-0.999973 6:-0.999987 7:-1 8:-1 9:-1 10:-1 11:-1 
0 32768 32768 0 2:-0.999997 3:-0.999992 4:-0.999992 5:-0.999972 6:-0.999986 7:-1 8:-1 9:-1 10:-1 11:-1 
0 32768 32768 0 2:-0.999997 3:-0.999992 4:-0.999992 5:-0.999971 6:-0.999984 7:-1 8:-1 9:-1 10:-1 11:-1 
0 32768 32768 0 2:-0.999997 3:-0.999992 4:-0.999992 5:-0.99997 6:-0.999983 7:-1 8:-1 9:-1 10:-1 11:-1 
0 32768 32768 0 2:-0.999997 3:-0.999992 4:-0.999992 5:-0.999969 6:-0.999981 7:-1 8:-1 9:-1 10:-1 11:-1 
0 32768 32768 0 2:-0.999997 3:-0.999992 4:-0.999992 5:-0.999968 6:-0.99998 7:-1 8:-1 9:-1 10:-1 11:-1 
0 32768 32768 0 2:-0.999997 3:-0.999992 4:-0.999992 5:-0.999967 6:-0.999979 7:-1 8:-1 9:-1 10:-1 11:-1 
0 32768 32768 0 2:-0.999997 3:-0.999992 4:-0.999992 5:-0.999966 6:-0.999977 7:-1 8:-1 9:-1 10:-1 11:-1 
0 32768 32768 0 2:-0.999997 3:-0.999992 4:-0.999992 5:-0.999966 6:-0.999976 7:-1 8:-1 9:-1 10:-1 11:-1 
0 32768 32768 0 2:-0.999997 3:-0.999992 4:-0.999992 5:-0.999965 6:-0.999975 7:-1 8:-1 9:-1 10:-1 11:-1 
0 32768 32768 0 2:-0.999997 3:-0.999992 4:-0.999992 5:-0.999964 6:-0.999974 7:-1 8:-1 9:-1 10:-1 11:-1 
0 32768 32768 0 2:-0.999997 3:-0.999992 4:-0.999992 5:-0.999963 6:-0.999973 7:-1 8:-1 9:-1 10:-1 11:-1 
0 32768 32768 0 2:-0.999997 3:-0.999992 4:-0.999992 5:-0.999962 6:-0.999972 7:-1 8:-1 9:-1 10:-1 11:-1 
0 32768 32768 0 2:-0.999997 3:-0.999992 4:-0.999992 5:-0.999961 6:-0.999971 7:-1 8:-1 9:-1 10:-1 11:-1 
0 32768 32768 0 2:-0.999997 3:-0.999993 4:-0.999992 5:-0.999961 6:-0.99997 7:-1 8:-1 9:-1 10:-1 11:-1 
0 32768 32768 0 2:-0.999997 3:-0.999993 4:-0.999992 5:-0.99996 6:-0.999969 7:-1 8:-1 9:-1 10:-1 11:-1 
0 32768 32768 0 2:-0.999997 3:-0.999993 4:-0.999992 5:-0.999959 6:-0.999968 7:-1 8:-1 9:-1 10:-1 11:-1 
0 32768 32768 0 2:-0.999997 3:-0.999993 4:-0.999992 5:-0.999958 6:-0.999967 7:-1 8:-1 9:-1 10:-1 11:-1 
0 32768 0 0 2:-0.999997 3:-0.999993 4:-0.999992 5:-0.999957 6:-0.999966 7:-1 8:-1 9:-1 10:-1 11:-1 
0 32768 0 0 2:-0.999997 3:-0.999993 4:-0.999992 5:-0.999957 6:-0.999966 7:-1 8:-1 9:-1 10:-1 11:-1 
0 32768 0 0 2:-0.999997 3:-0.999993 4:-0.999992 5:-0.999956 6:-0.999965 7:-1 8:-1 9:-1 10:-1 11:-1 
0 32768 0 0 2:-0.999997 3:-0.999993 4:-0.999992 5:-0.999955 6:-0.999964 7:-1 8:-1 9:-1 10:-1 11:-1 
0 32768 0 0 2:-0.999997 3:-0.999993 4:-0.999992 5:-0.999955 6:-0.999963 7:-1 8:-1 9:-1 10:-1 11:-1 
0 32768 0 0 2:-0.999997 3:-0.999993 4:-0.999992 5:-0.999954 6:-0.999962 7:-1 8:-1 9:-1 10:-1 11:-1 
0 32768 0 0 2:-0.999997 3:-0.999993 4:-0.999992 5:-0.999954 6:-0.999962 7:-1 8:-1 9:-1 10:-1 11:-1 
0 32768 32768 0 2:-0.999997 3:-0.999993 4:-0.999992 5:-0.999953 6:-0.999961 7:-1 8:-1 9:-1 10:-1 11:-1 
0 32768 0 0 2:-0.999997 3:-0.999993 4:-0.999992 5:-0.999953 6:-0.99996 7:-1 8:-1 9:-1 10:-1 11:-1 
0 32768 0 0 2:-0.999997 3:-0.999993 4:-0.999993 5:-0.999952 6:-0.99996 7:-1 8:-1 9:-1 10:-1 11:-1 
0 32768 0 0 2:-0.999997 3:-0.999993 4:-0.999993 5:-0.999952 6:-0.999959 7:-1 8:-1 9:-1 10:-1 11:-1 
0 32768 0 0 2:-0.999997 3:-0.999993 4:-0.999993 5:-0.999951 6:-0.999958 7:-1 8:-1 9:-1 10:-1 11:-1 
0 32768 0 0 2:-0.999997 3:-0.999993 4:-0.999993 5:-0.999951 6:-0.999957 7:-1 8:-1 9:-1 10:-1 11:-1 
0 32768 0 0 2:-0.999997 3:-0.999993 4:-0.999993 5:-0.99995 6:-0.999957 7:-1 8:-1 9:-1 10:-1 11:-1 
0 32768 0 0 2:-0.999997 3:-0.999993 4:-0.999993 5:-0.999949 6:-0.999956 7:-1 8:-1 9:-1 10:-1 11:-1 
0 32768 0 0 2:-0.999997 3:-0.999993 4:-0.999993 5:-0.999949 6:-0.999955 7:-1 8:-1 9:-1 10:-1 11:-1 
0 32768 0 0 2:-0.999997 3:-0.999993 4:-0.999993 5:-0.999948 6:-0.999955 7:-1 8:-1 9:-1 10:-1 11:-1 
0 32768 0 0 2:-0.999997 3:-0.999993 4:-0.999993 5:-0.999947 6:-0.999954 7:-1 8:-1 9:-1 10:-1 11:-1 
0 32768 0 0 2:-0.999997 3:-0.999993 4:-0.999993 5:-0.999946 6:-0.999953 7:-1 8:-1 9:-1 10:-1 11:-1 
0 32768 0 0 2:-0.999997 3:-0.999993 4:-0.999993 5:-0.999946 6:-0.999952 7:-1 8:-1 9:-1 10:-1 11:-1 
0 32768 0 0 2:-0.999997 3:-0.999993 4:-0.999993 5:-0.999945 6:-0.999952 7:-1 8:-1 9:-1 10:-1 11:-1 
0 32768 0 0 2:-0.999997 3:-0.999993 4:-0.999993 5:-0.999945 6:-0.999951 7:-1 8:-1 9:-1 10:-1 11:-1 
0 32768 0 0 2:-0.999997 3:-0.999993 4:-0.999993 5:-0.999944 6:-0.999951 7:-1 8:-1 9:-1 10:-1 11:-1 
0 32768 0 0 2:-0.999997 3:-0.999993 4:-0.999993 5:-0.999943 6:-0.99995 7:-1 8:-1 9:-1 10:-1 11:-1 
0 32768 0 0 2:-0.999997 3:-0.999993 4:-0.999993 5:-0.999943 6:-0.99995 7:-1 8:-1 9:-1 10:-1 11:-1 
0 32768 0 0 2:-0.999997 3:-0.999994 4:-0.999993 5:-0.999942 6:-0.999949 7:-1 8:-1 9:-1 10:-1 11:-1 
0 32768 0 0 2:-0.999997 3:-0.999994 4:-0.999993 5:-0.999942 6:-0.999949 7:-1 8:-1 9:-1 10:-1 11:-1 
0 32768 0 0 2:-0.999997 3:-0.999994 4:-0.999993 5:-0.999942 6:-0.999948 7:-1 8:-1 9:-1 10:-1 11:-1 
0 32768 0 0 2:-0.999997 3:-0.999994 4:-0.999993 5:-0.999941 6:-0.999948 7:-1 8:-1 9:-1 10:-1 11:-1 
0 32768 0 0 2:-0.999997 3:-0.999994 4:-0.999993 5:-0.999941 6:-0.999948 7:-1 8:-1 9:-1 10:-1 11:-1 
0 32768 0 0 2:-0.999997 3:-0.999994 4:-0.999993 5:-0.999941 6:-0.999948 7:-1 8:-1 9:-1 10:-1 11:-1 
0 32768 0 0 2:-0.999997 3:-0.999994 4:-0.999993 5:-0.999941 6:-0.999948 7:-1 8:-1 9:-1 10:-1 11:-1 
0 32768 0 0 2:-0.999997 3:-0.999994 4:-0.999993 5:-0.999941 6:-0.999948 7:-1 8:-1 9:-1 10:-1 11:-1 
0 32768 0 0 2:-0.999997 3:-0.999994 4:-0.999993 5:-0.999941 6:-0.999948 7:-1 8:-1 9:-1 10:-1 11:-1 
0 32768 0 0 2:-0.999997 3:-0.999994 4:-0.999993 5:-0.999942 6:-0.999948 7:-1 8:-1 9:-1 10:-1 11:-1 
0 32768 0 0 2:-0.999997 3:-0.999994 4:-0.999993 5:-0.999942 6:-0.999949 7:-1 8:-1 9:-1 10:-1 11:-1 
0 32768 0 0 2:-0.999997 3:-0.999994 4:-0.999993 5:-0.999943 6:-0.99995 7:-1 8:-1 9:-1 10:-1 11:-1 
0 32768 0 0 2:-0.999997 3:-0.999993 4:-0.999993 5:-0.999943 6:-0.99995 7:-1 8:-1 9:-1 10:-1 11:-1 
0 32768 0 0 2:-0.999997 3:-0.999993 4:-0.999993 5:-0.999944 6:-0.999951 7:-1 8:-1 9:-1 10:-1 11:-1 
0 32768 0 0 2:-0.999997 3:-0.999993 4:-0.999993 5:-0.999945 6:-0.999952 7:-1 8:-1 9:-1 10:-1 11:-1 
0 32768 0 0 2:-0.999997 3:-0.999993 4:-0.999993 5:-0.999946 6:-0.999954 7:-1 8:-1 9:-1 10:-1 11:-1 
0 32768 0 0 2:-0.999997 3:-0.999993 4:-0.999993 5:-0.999947 6:-0.999955 7:-1 8:-1 9:-1 10:-1 11:-1 
0 32768 0 0 2:-0.999997 3:-0.999993 4:-0.999993 5:-0.999949 6:-0.999956 7:-1 8:-1 9:-1 10:-1 11:-1 
0 32768 0 0 2:-0.999997 3:-0.999993 4:-0.999993 5:-0.99995 6:-0.999958 7:-1 8:-1 9:-1 10:-1 11:-1 
0 32768 0 0 2:-0.999997 3:-0.999993 4:-0.999993 5:-0.999951 6:-0.99996 7:-1 8:-1 9:-1 10:-1 11:-1 
0 32768 26178.70882002073 0 2:-0.999997 3:-0.999993 4:-0.999993 5:-0.999953 6:-0.999962 7:-1 8:-1 9:-1 10:-1 11:-1 
0 32768 0 0 2:-0.999997 3:-0.999993 4:-0.999992 5:-0.999954 6:-0.999964 7:-1 8:-1 9:-1 10:-1 11:-1 
0 32768 0 0 2:-0.999997 3:-0.999993 4:-0.999992 5:-0.999956 6:-0.999966 7:-1 8:-1 9:-1 10:-1 11:-1 
0 32768 32768 0 2:-0.999997 3:-0.999993 4:-0.999992 5:-0.999958 6:-0.999969 7:-1 8:-1 9:-1 10:-1 11:-1 
0 32768 32768 0 2:-0.999997 3:-0.999993 4:-0.999992 5:-0.999959 6:-0.999971 7:-1 8:-1 9:-1 10:-1 11:-1 
0 32768 32768 0 2:-0.999997 3:-0.999992 4:-0.999992 5:-0.999961 6:-0.999974 7:-1 8:-1 9:-1 10:-1 11:-1 
0 32768 32768 0 2:-0.999997 3:-0.999992 4:-0.999992 5:-0.999963 6:-0.999977 7:-1 8:-1 9:-1 10:-1 11:-1 
0 32768 32768 0 2:-0.999997 3:-0.999992 4:-0.999992 5:-0.999965 6:-0.99998 7:-1 8:-1 9:-1 10:-1 11:-1 
0 32768 32768 0 2:-0.999997 3:-0.999992 4:-0.999992 5:-0.999967 6:-0.999984 7:-1 8:-1 9:-1 10:-1 11:-1 
0 32768 32768 0 2:-0.999997 3:-0.999992 4:-0.999992 5:-0.999969 6:-0.999987 7:-1 8:-1 9:-1 10:-1 11:-1 
0 32768 32768 0 2:-0.999997 3:-0.999992 4:-0.999992 5:-0.999971 6:-0.99999 7:-1 8:-1 9:-1 10:-1 11:-1 
0 32768 32768 0 2:-0.999997 3:-0.999992 4:-0.999992 5:-0.999974 6:-0.999993 7:-1 8:-1 9:-1 10:-1 11:-1 
0 32768 32768 0 2:-0.999997 3:-0.999992 4:-0.999992 5:-0.999975 6:-0.999996 7:-1 8:-1 9:-1 10:-1 11:-1 
0 32768 32768 0 2:-0.999997 3:-0.999992 4:-0.999992 5:-0.999977 6:-0.999996 7:-1 8:-1 9:-1 10:-1 11:-1 
0 32768 32768 0 2:-0.999997 3:-0.999992 4:-0.999992 5:-0.999979 6:-0.999996 7:-1 8:-1 9:-1 10:-1 11:-1 
0 32768 32768 0 2:-0.999997 3:-0.999992 4:-0.999992 5:-0.999981 6:-0.999996 7:-1 8:-1 9:-1 10:-1 11:-1 
0 32768 32768 0 2:-0.999997 3:-0.999992 4:-0.999992 5:-0.999983 6:-0.999995 7:-1 8:-1 9:-1 10:-1 11:-1 
0 32768 32768 0 2:-0.999997 3:-0.999992 4:-0.999992 5:-0.999971 6:-0.999996 7:-1 8:-1 9:-1 10:-1 11:-1 
0 32768 32768 0 2:-0.999997 3:-0.999992 4:-0.999992 5:-0.99997 6:-0.999996 7:-1 8:-1 9:-1 10:-1 11:-1 
0 32768 32768 0 2:-0.999997 3:-0.999992 4:-0.999992 5:-0.99997 6:-0.999996 7:-1 8:-1 9:-1 10:-1 11:-1 
0 32768 32768 0 2:-0.999997 3:-0.999992 4:-0.999992 5:-0.999969 6:-0.999996 7:-1 8:-1 9:-1 10:-1 11:-1 
0 32768 32768 0 2:-0.999997 3:-0.999992 4:-0.999992 5:-0.999969 6:-0.999996 7:-1 8:-1 9:-1 10:-1 11:-1 
0 32768 32768 0 2:-0.999997 3:-0.999992 4:-0.999992 5:-0.999968 6:-0.999996 7:-1 8:-1 9:-1 10:-1 11:-1 
0 32768 32768 0 2:-0.999997 3:-0.999992 4:-0.999992 5:-0.999968 6:-0.999996 7:-1 8:-1 9:-1 10:-1 11:-1 
0 32768 32768 0 2:-0.999997 3:-0.999992 4:-0.999992 5:-0.999967 6:-0.999996 7:-1 8:-1 9:-1 10:-1 11:-1 
0 32768 32768 0 2:-0.999997 3:-0.999992 4:-0.999992 5:-0.999967 6:-0.999996 7:-1 8:-1 9:-1 10:-1 11:-1 
0 32768 32768 0 2:-0.999997 3:-0.999992 4:-0.999992 5:-0.999966 6:-0.999996 7:-1 8:-1 9:-1 10:-1 11:-1 
0 32768 32768 0 2:-0.999997 3:-0.999992 4:-0.999992 5:-0.999966 6:-0.999996 7:-1 8:-1 9:-1 10:-1 11:-1 
0 32768 32768 0 2:-0.999997 3:-0.999992 4:-0.999992 5:-0.999966 6:-0.999996 7:-1 8:-1 9:-1 10:-1 11:-1 
0 32768 32768 0 2:-0.999997 3:-0.999992 4:-0.999992 5:-0.999965 6:-0.999996 7:-1 8:-1 9:-1 10:-1 11:-1 
0 32768 32768 0 2:-0.999997 3:-0.999992 4:-0.999992 5:-0.999965 6:-0.999996 7:-1 8:-1 9:-1 10:-1 11:-1 
0 32768 32768 0 2:-0.999997 3:-0.999992 4:-0.999992 5:-0.999965 6:-0.999996 7:-1 8:-1 9:-1 10:-1 11:-1 
0 32768 32768 0 2:-0.999997 3:-0.999992 4:-0.999992 5:-0.999964 6:-0.999995 7:-1 8:-1 9:-1 10:-1 11:-1 
0 32768 32768 0 2:-0.999997 3:-0.999992 4:-0.999992 5:-0.999964 6:-0.999995 7:-1 8:-1 9:-1 10:-1 11:-1 
0 32768 32768 0 2:-0.999997 3:-0.999992 4:-0.999992 5:-0.999964 6:-0.999995 7:-1 8:-1 9:-1 10:-1 11:-1 
0 32768 32768 0 2:-0.999997 3:-0.999992 4:-0.999992 5:-0.999964 6:-0.999995 7:-1 8:-1 9:-1 10:-1 11:-1 
0 32768 32768 0 2:-0.999997 3:-0.999992 4:-0.999992 5:-0.999963 6:-0.999994 7:-1 8:-1 9:-1 10:-1 11:-1 
0 32768 32768 0 2:-0.999997 3:-0.999992 4:-0.999992 5:-0.999963 6:-0.999994 7:-1 8:-1 9:-1 10:-1 11:-1 
0 32768 32768 0 2:-0.999997 3:-0.999992 4:-0.999992 5:-0.999963 6:-0.999993 7:-1 8:-1 9:-1 10:-1 11:-1 
0 32768 32768 0 2:-0.999997 3:-0.999992 4:-0.999992 5:-0.999963 6:-0.999993 7:-1 8:-1 9:-1 10:-1 11:-1 
0 32768 32768 0 2:-0.999997 3:-0.999992 4:-0.999992 5:-0.999963 6:-0.999992 7:-1 8:-1 9:-1 10:-1 11:-1 
0 32768 32768 0 2:-0.999997 3:-0.999992 4:-0.999992 5:-0.999962 6:-0.999992 7:-1 8:-1 9:-1 10:-1 11:-1 
0 32768 32768 0 2:-0.999997 3:-0.999992 4:-0.999992 5:-0.999962 6:-0.999992 7:-1 8:-1 9:-1 10:-1 11:-1 
0 32768 32768 0 2:-0.999997 3:-0.999992 4:-0.999992 5:-0.999962 6:-0.999991 7:-1 8:-1 9:-1 10:-1 11:-1 
0 32768 32768 0 2:-0.999997 3:-0.999992 4:-0.999992 5:-0.999962 6:-0.99999 7:-1 8:-1 9:-1 10:-1 11:-1 
0 32768 32768 0 2:-0.999997 3:-0.999992 4:-0.999992 5:-0.999962 6:-0.99999 7:-1 8:-1 9:-1 10:-1 11:-1 
0 32768 32768 0 2:-0.999997 3:-0.999992 4:-0.999992 5:-0.999962 6:-0.999989 7:-1 8:-1 9:-1 10:-1 11:-1 
0 32768 32768 0 2:-0.999997 3:-0.999992 4:-0.999992 5:-0.999962 6:-0.999988 7:-1 8:-1 9:-1 10:-1 11:-1 
0 32768 32768 0 2:-0.999997 3:-0.999992 4:-0.999992 5:-0.999962 6:-0.999988 7:-1 8:-1 9:-1 10:-1 11:-1 
0 32768 32768 0 2:-0.999997 3:-0.999992 4:-0.999992 5:-0.999962 6:-0.999987 7:-1 8:-1 9:-1 10:-1 11:-1 
0 32768 32768 0 2:-0.999997 3:-0.999992 4:-0.999992 5:-0.999962 6:-0.999987 7:-1 8:-1 9:-1 10:-1 11:-1 
0 32768 32768 0 2:-0.999997 3:-0.999992 4:-0.999992 5:-0.999963 6:-0.999987 7:-1 8:-1 9:-1 10:-1 11:-1 
0 0 0 2.247789704302964 2:-0.972881 3:-0.999544 4:-0.999859 5:-0.998999 6:-0.999644 7:0.847913 8:0.847913 9:0.894196 10:-1 11:-1 
0 5126.187197909237 0 0 2:-0.999853 3:-0.999841 4:-0.999856 5:-0.999904 6:-0.9999 7:0.949319 8:0.949319 9:0.998141 10:-1 11:-1 
0 0 0 2.016890756124008 2:-0.999854 3:-0.999848 4:-0.999857 5:-0.999904 6:-0.999901 7:0.949379 8:0.949379 9:0.998202 10:-1 11:-1 
0 0 0 1.524955669472003 2:-0.999869 3:-0.999882 4:-0.999967 5:-0.999901 6:-0.999893 7:0.949377 8:0.949377 9:0.9982 10:-1 11:-1 
0 0 11602.58152718838 0 2:-0.999814 3:-0.999812 4:-0.999992 5:-0.999904 6:-0.999896 7:0.858111 8:0.858111 9:0.904649 10:-1 11:-1 
0 0 0 3.201192886463768 2:-0.999828 3:-0.999661 4:-0.999751 5:-0.999905 6:-0.999928 7:-0.559109 8:-0.559109 9:-0.548066 10:-1 11:-1 
0 0 32768 32768 1:-0.333333 2:-0.999997 3:-0.999995 4:-0.999995 5:-1 6:-1 7:-1 8:-1 9:-1 10:-1 11:-1 
0 32768 32768 32768 1:-0.333333 2:-0.999997 3:-0.999996 4:-0.999996 5:-1 6:-1 7:-1 8:-1 9:-1 10:-1 11:-1 
0 32768 32768 32768 1:-0.333333 2:-0.999997 3:-0.999996 4:-0.999996 5:-1 6:-1 7:-1 8:-1 9:-1 10:-1 11:-1 
0 32768 32768 32768 1:-0.333333 2:-0.999997 3:-0.999996 4:-0.999996 5:-1 6:-1 7:-1 8:-1 9:-1 10:-1 11:-1 
0 32768 32768 32768 1:-0.333333 2:-0.999997 3:-0.999996 4:-0.999997 5:-1 6:-1 7:-1 8:-1 9:-1 10:-1 11:-1 
0 32768 32768 32768 1:-0.333333 2:-0.999997 3:-0.999996 4:-0.999997 5:-1 6:-1 7:-1 8:-1 9:-1 10:-1 11:-1 
0 32768 32768 32768 1:-0.333333 2:-0.999997 3:-0.999996 4:-0.999997 5:-1 6:-1 7:-1 8:-1 9:-1 10:-1 11:-1 
0 32768 32768 32768 1:-0.333333 2:-0.999997 3:-0.999996 4:-0.999997 5:-1 6:-1 7:-1 8:-1 9:-1 10:-1 11:-1 
0 32768 32768 32768 1:-0.333333 2:-0.999997 3:-0.999996 4:-0.999997 5:-1 6:-1 7:-1 8:-1 9:-1 10:-1 11:-1 
0 32768 32768 32768 1:-0.333333 2:-0.999997 3:-0.999996 4:-0.999997 5:-1 6:-1 7:-1 8:-1 9:-1 10:-1 11:-1 
0 32768 32768 32768 1:-0.333333 2:-0.999997 3:-0.999996 4:-0.999997 5:-1 6:-1 7:-1 8:-1 9:-1 10:-1 11:-1 
0 32768 32768 32768 1:-0.333333 2:-0.999997 3:-0.999996 4:-0.999997 5:-1 6:-1 7:-1 8:-1 9:-1 10:-1 11:-1 
0 32768 32768 32768 1:-0.333333 2:-0.999997 3:-0.999996 4:-0.999997 5:-1 6:-1 7:-1 8:-1 9:-1 10:-1 11:-1 
0 32768 32768 32768 1:-0.333333 2:-0.999997 3:-0.999996 4:-0.999997 5:-1 6:-1 7:-1 8:-1 9:-1 10:-1 11:-1 
0 32768 32768 32768 1:-0.333333 2:-0.999997 3:-0.999996 4:-0.999997 5:-1 6:-1 7:-1 8:-1 9:-1 10:-1 11:-1 
0 32768 32768 32768 1:-0.333333 2:-0.999997 3:-0.999996 4:-0.999997 5:-1 6:-1 7:-1 8:-1 9:-1 10:-1 11:-1 
0 32768 32768 32768 1:-0.333333 2:-0.999997 3:-0.999996 4:-0.999997 5:-1 6:-1 7:-1 8:-1 9:-1 10:-1 11:-1 
0 32768 32768 32768 1:-0.333333 2:-0.999997 3:-0.999996 4:-0.999997 5:-1 6:-1 7:-1 8:-1 9:-1 10:-1 11:-1 
0 32768 32768 32768 1:-0.333333 2:-0.999997 3:-0.999996 4:-0.999997 5:-1 6:-1 7:-1 8:-1 9:-1 10:-1 11:-1 
0 32768 32768 32768 1:-0.333333 2:-0.999997 3:-0.999996 4:-0.999997 5:-1 6:-1 7:-1 8:-1 9:-1 10:-1 11:-1 
0 32768 32768 32768 1:-0.333333 2:-0.999997 3:-0.999996 4:-0.999997 5:-1 6:-1 7:-1 8:-1 9:-1 10:-1 11:-1 
0 32768 32768 32768 1:-0.333333 2:-0.999997 3:-0.999996 4:-0.999997 5:-1 6:-1 7:-1 8:-1 9:-1 10:-1 11:-1 
0 32768 32768 32768 1:-0.333333 2:-0.999997 3:-0.999996 4:-0.999997 5:-1 6:-1 7:-1 8:-1 9:-1 10:-1 11:-1 
0 32768 32768 32768 1:-0.333333 2:-0.999997 3:-0.999996 4:-0.999997 5:-1 6:-1 7:-1 8:-1 9:-1 10:-1 11:-1 
0 32768 32768 32768 1:-0.333333 2:-0.999997 3:-0.999996 4:-0.999997 5:-1 6:-1 7:-1 8:-1 9:-1 10:-1 11:-1 
0 32768 32768 32768 1:-0.333333 2:-0.999997 3:-0.999996 4:-0.999997 5:-1 6:-1 7:-1 8:-1 9:-1 10:-1 11:-1 
0 32768 32768 32768 1:-0.333333 2:-0.999997 3:-0.999996 4:-0.999997 5:-1 6:-1 7:-1 8:-1 9:-1 10:-1 11:-1 
0 32768 32768 32768 1:-0.333333 2:-0.999997 3:-0.999996 4:-0.999997 5:-1 6:-1 7:-1 8:-1 9:-1 10:-1 11:-1 
0 32768 32768 32768 1:-0.333333 2:-0.999997 3:-0.999996 4:-0.999997 5:-1 6:-1 7:-1 8:-1 9:-1 10:-1 11:-1 
0 32768 32768 32768 1:-0.333333 2:-0.999997 3:-0.999996 4:-0.999997 5:-1 6:-1 7:-1 8:-1 9:-1 10:-1 11:-1 
0 32768 32768 32768 1:-0.333333 2:-0.999997 3:-0.999996 4:-0.999997 5:-1 6:-1 7:-1 8:-1 9:-1 10:-1 11:-1 
0 32768 32768 32768 1:-0.333333 2:-0.999997 3:-0.999996 4:-0.999997 5:-1 6:-1 7:-1 8:-1 9:-1 10:-1 11:-1 
0 32768 32768 32768 1:-0.333333 2:-0.999997 3:-0.999996 4:-0.999997 5:-1 6:-1 7:-1 8:-1 9:-1 10:-1 11:-1 
0 32768 32768 32768 1:-0.333333 2:-0.999997 3:-0.999996 4:-0.999997 5:-1 6:-1 7:-1 8:-1 9:-1 10:-1 11:-1 
0 32768 32768 32768 1:-0.333333 2:-0.999997 3:-0.999996 4:-0.999997 5:-1 6:-1 7:-1 8:-1 9:-1 10:-1 11:-1 
0 32768 32768 32768 1:-0.333333 2:-0.999997 3:-0.999996 4:-0.999998 5:-1 6:-1 7:-1 8:-1 9:-1 10:-1 11:-1 
0 32768 32768 32768 1:-0.333333 2:-0.999997 3:-0.999996 4:-0.999998 5:-1 6:-1 7:-1 8:-1 9:-1 10:-1 11:-1 
0 32768 32768 32768 1:-0.333333 2:-0.999997 3:-0.999996 4:-0.999998 5:-1 6:-1 7:-1 8:-1 9:-1 10:-1 11:-1 
0 32768 32768 32768 1:-0.333333 2:-0.999997 3:-0.999996 4:-0.999998 5:-1 6:-1 7:-1 8:-1 9:-1 10:-1 11:-1 
0 32768 32768 32768 1:-0.333333 2:-0.999997 3:-0.999996 4:-0.999998 5:-1 6:-1 7:-1 8:-1 9:-1 10:-1 11:-1 
0 32768 32768 32768 1:-0.333333 2:-0.999997 3:-0.999996 4:-0.999998 5:-1 6:-1 7:-1 8:-1 9:-1 10:-1 11:-1 
0 32768 32768 32768 1:-0.333333 2:-0.999997 3:-0.999996 4:-0.999998 5:-1 6:-1 7:-1 8:-1 9:-1 10:-1 11:-1 
0 32768 32768 32768 1:-0.333333 2:-0.999997 3:-0.999996 4:-0.999998 5:-1 6:-1 7:-1 8:-1 9:-1 10:-1 11:-1 
0 32768 32768 0 1:-0.333333 2:-0.999997 3:-0.999997 4:-0.999998 5:-1 6:-1 7:-1 8:-1 9:-1 10:-1 11:-1 
0 32768 32768 0 1:-0.333333 2:-0.999997 3:-0.999997 4:-0.999999 5:-1 6:-1 7:-1 8:-1 9:-1 10:-1 11:-1 
0 32768 32768 9245.96848180539 1:-0.333333 2:-0.999997 3:-0.999997 4:-0.999999 5:-1 6:-1 7:-1 8:-1 9:-1 10:-1 11:-1 
0 32768 32768 32768 1:-0.333333 2:-0.999997 3:-0.999997 4:-0.999999 5:-1 6:-1 7:-1 8:-1 9:-1 10:-1 11:-1 
0 32768 32768 32768 1:-0.333333 2:-0.999997 3:-0.999997 4:-0.999999 5:-1 6:-1 7:-1 8:-1 9:-1 10:-1 11:-1 
0 32768 32768 32768 1:-0.333333 2:-0.999997 3:-0.999997 4:-0.999999 5:-1 6:-1 7:-1 8:-1 9:-1 10:-1 11:-1 
0 32768 32768 32768 1:-0.333333 2:-0.999997 3:-0.999997 4:-0.999999 5:-1 6:-1 7:-1 8:-1 9:-1 10:-1 11:-1 
0 32768 32768 32768 1:-0.333333 2:-0.999997 3:-0.999997 4:-1 5:-1 6:-1 7:-1 8:-1 9:-1 10:-1 11:-1 
0 32768 32768 0 1:-0.333333 2:-0.999997 3:-0.999998 4:-1 5:-1 6:-1 7:-1 8:-1 9:-1 10:-1 11:-1 
0 32768 32768 0 1:-0.333333 2:-0.999997 3:-0.999998 4:-1 5:-1 6:-1 7:-1 8:-1 9:-1 10:-1 11:-1 
0 32768 32768 0 1:-0.333333 2:-0.999997 3:-0.999998 4:-1 5:-1 6:-1 7:-1 8:-1 9:-1 10:-1 11:-1 
0 32768 32768 0 1:-0.333333 2:-0.999997 3:-0.999998 4:-1 5:-1 6:-1 7:-1 8:-1 9:-1 10:-1 11:-1 
0 32768 32768 0 1:-0.333333 2:-0.999997 3:-0.999998 4:-1 5:-1 6:-1 7:-1 8:-1 9:-1 10:-1 11:-1 
0 0 0 4.31022679803637 2:-0.999997 3:-0.999993 4:-0.999995 5:-0.999962 6:-0.999966 7:-0.599607 8:-0.599607 9:-0.589579 10:-1 11:-1 
0 0.5074052229874123 4.35115040108882 0 2:-0.999997 3:-0.999995 4:-0.999995 5:-0.999961 6:-0.999964 7:-0.599727 8:-0.599727 9:-0.589702 10:-1 11:-1 
0 0 4.209128265391367 0 1:-0.666667 2:-0.999997 3:-1 4:-1 5:-1 6:-1 7:-1 8:-1 9:-1 10:-1 11:-1 
0 0 32768 0 1:-0.666667 2:-0.999997 3:-1 4:-1 5:-1 6:-1 7:-1 8:-1 9:-1 10:-1 11:-1 
0 0 32768 0 1:-0.666667 2:-0.999997 3:-1 4:-1 5:-1 6:-1 7:-1 8:-1 9:-1 10:-1 11:-1 
0 0 32768 0 1:-0.666667 2:-0.999997 3:-1 4:-1 5:-1 6:-1 7:-1 8:-1 9:-1 10:-1 11:-1 
0 0 32768 0 1:-0.666667 2:-0.999997 3:-1 4:-1 5:-1 6:-1 7:-1 8:-1 9:-1 10:-1 11:-1 
0 0 32768 0 1:-0.666667 2:-0.999997 3:-1 4:-1 5:-1 6:-1 7:-1 8:-1 9:-1 10:-1 11:-1 
0 0 32768 0 1:-0.666667 2:-0.999997 3:-1 4:-1 5:-1 6:-1 7:-1 8:-1 9:-1 10:-1 11:-1 
0 0 0 0.417733345966519 2:-0.999759 3:-0.999503 4:-0.999794 5:-0.999901 6:-0.999914 7:-0.53225 8:-0.53225 9:-0.520535 10:-1 11:-1 
0 32768 32768 0 1:-0.333333 2:-0.999997 3:-0.999999 4:-1 5:-1 6:-1 7:-1 8:-1 9:-1 10:-1 11:-1 
0 32768 32768 0 1:-0.333333 2:-0.999997 3:-0.999999 4:-1 5:-1 6:-1 7:-1 8:-1 9:-1 10:-1 11:-1 
0 32768 32768 0 1:-0.333333 2:-0.999997 3:-0.999999 4:-1 5:-1 6:-1 7:-1 8:-1 9:-1 10:-1 11:-1 
0 32768 32768 0 1:-0.333333 2:-0.999997 3:-0.999999 4:-1 5:-1 6:-1 7:-1 8:-1 9:-1 10:-1 11:-1 
0 0 32768 0 1:-0.666667 2:-0.999997 3:-1 4:-1 5:-1 6:-1 7:-1 8:-1 9:-1 10:-1 11:-1 
0 0 32768 0 1:-0.666667 2:-0.999997 3:-1 4:-1 5:-1 6:-1 7:-1 8:-1 9:-1 10:-1 11:-1 
0 0 32768 0 1:-0.666667 2:-0.999997 3:-1 4:-1 5:-1 6:-1 7:-1 8:-1 9:-1 10:-1 11:-1 
0 0 32768 0 1:-0.666667 2:-0.999997 3:-1 4:-1 5:-1 6:-1 7:-1 8:-1 9:-1 10:-1 11:-1 
0 32768 32768 0 1:-0.333333 2:-0.999997 3:-0.999999 4:-1 5:-1 6:-1 7:-1 8:-1 9:-1 10:-1 11:-1 
0 32768 32768 0 1:-0.333333 2:-0.999997 3:-0.999999 4:-1 5:-1 6:-1 7:-1 8:-1 9:-1 10:-1 11:-1 
0 32768 32768 0 1:-0.333333 2:-0.999997 3:-0.999999 4:-1 5:-1 6:-1 7:-1 8:-1 9:-1 10:-1 11:-1 
0 32768 32768 0 1:-0.333333 2:-0.999997 3:-0.999999 4:-1 5:-1 6:-1 7:-1 8:-1 9:-1 10:-1 11:-1 
0 32768 32768 0 1:-0.333333 2:-0.999997 3:-0.999998 4:-0.999999 5:-1 6:-1 7:-1 8:-1 9:-1 10:-1 11:-1 
0 32768 32768 0 1:-0.333333 2:-0.999997 3:-0.999998 4:-0.999999 5:-1 6:-1 7:-1 8:-1 9:-1 10:-1 11:-1 
0 0 32768 0 1:-0.666667 2:-0.999997 3:-1 4:-1 5:-1 6:-1 7:-1 8:-1 9:-1 10:-1 11:-1 
0 32768 32768 0 1:-0.333333 2:-0.999997 3:-0.999998 4:-0.999999 5:-1 6:-1 7:-1 8:-1 9:-1 10:-1 11:-1 
0 0 32768 0 1:-0.666667 2:-0.999997 3:-1 4:-1 5:-1 6:-1 7:-1 8:-1 9:-1 10:-1 11:-1 
0 0 32768 0 1:-0.666667 2:-0.999997 3:-1 4:-1 5:-1 6:-1 7:-1 8:-1 9:-1 10:-1 11:-1 
0 32768 32768 0 1:-0.333333 2:-0.999997 3:-0.999998 4:-0.999999 5:-1 6:-1 7:-1 8:-1 9:-1 10:-1 11:-1 
0 0 32768 0 1:-0.666667 2:-0.999997 3:-1 4:-1 5:-1 6:-1 7:-1 8:-1 9:-1 10:-1 11:-1 
0 0 32768 0 1:-0.666667 2:-0.999997 3:-1 4:-1 5:-1 6:-1 7:-1 8:-1 9:-1 10:-1 11:-1 
0 0 32768 0 1:-0.666667 2:-0.999997 3:-1 4:-1 5:-1 6:-1 7:-1 8:-1 9:-1 10:-1 11:-1 
0 0 32768 0 1:-0.666667 2:-0.999997 3:-1 4:-1 5:-1 6:-1 7:-1 8:-1 9:-1 10:-1 11:-1 
0 0 32768 0 1:-0.666667 2:-0.999997 3:-1 4:-1 5:-1 6:-1 7:-1 8:-1 9:-1 10:-1 11:-1 
0 0 32768 0 1:-0.666667 2:-0.999997 3:-1 4:-1 5:-1 6:-1 7:-1 8:-1 9:-1 10:-1 11:-1 
0 0 32768 0 1:-0.666667 2:-0.999997 3:-1 4:-1 5:-1 6:-1 7:-1 8:-1 9:-1 10:-1 11:-1 
0 0 32768 0 1:-0.666667 2:-0.999997 3:-1 4:-1 5:-1 6:-1 7:-1 8:-1 9:-1 10:-1 11:-1 
0 0 32768 0 1:-0.666667 2:-0.999997 3:-1 4:-1 5:-1 6:-1 7:-1 8:-1 9:-1 10:-1 11:-1 
0 0 32768 0 1:-0.666667 2:-0.999997 3:-1 4:-1 5:-1 6:-1 7:-1 8:-1 9:-1 10:-1 11:-1 
0 0 32768 0 1:-0.666667 2:-0.999997 3:-1 4:-1 5:-1 6:-1 7:-1 8:-1 9:-1 10:-1 11:-1 
0 0 32768 0 1:-0.666667 2:-0.999997 3:-1 4:-1 5:-1 6:-1 7:-1 8:-1 9:-1 10:-1 11:-1 
0 0 32768 0 1:-0.666667 2:-0.999997 3:-1 4:-1 5:-1 6:-1 7:-1 8:-1 9:-1 10:-1 11:-1 
0 0 32768 0 1:-0.666667 2:-0.999997 3:-1 4:-1 5:-1 6:-1 7:-1 8:-1 9:-1 10:-1 11:-1 
0 0 32768 0 1:-0.666667 2:-0.999997 3:-1 4:-1 5:-1 6:-1 7:-1 8:-1 9:-1 10:-1 11:-1 
0 0 32768 0 1:-0.666667 2:-0.999997 3:-1 4:-1 5:-1 6:-1 7:-1 8:-1 9:-1 10:-1 11:-1 
0 0 32768 0 1:-0.666667 2:-0.999997 3:-1 4:-1 5:-1 6:-1 7:-1 8:-1 9:-1 10:-1 11:-1 
0 0 32768 0 1:-0.666667 2:-0.999997 3:-1 4:-1 5:-1 6:-1 7:-1 8:-1 9:-1 10:-1 11:-1 
0 0 32768 0 1:-0.666667 2:-0.999997 3:-1 4:-1 5:-1 6:-1 7:-1 8:-1 9:-1 10:-1 11:-1 
0 0 32768 0 1:-0.666667 2:-0.999997 3:-1 4:-1 5:-1 6:-1 7:-1 8:-1 9:-1 10:-1 11:-1 
0 0 32768 0 1:-0.666667 2:-0.999997 3:-1 4:-1 5:-1 6:-1 7:-1 8:-1 9:-1 10:-1 11:-1 
0 0 32768 0 1:-0.666667 2:-0.999997 3:-1 4:-1 5:-1 6:-1 7:-1 8:-1 9:-1 10:-1 11:-1 
0 0 32768 0 1:-0.666667 2:-0.999997 3:-1 4:-1 5:-1 6:-1 7:-1 8:-1 9:-1 10:-1 11:-1 
0 0 32768 0 1:-0.666667 2:-0.999997 3:-1 4:-1 5:-1 6:-1 7:-1 8:-1 9:-1 10:-1 11:-1 
0 0 32768 0 1:-0.666667 2:-0.999997 3:-1 4:-1 5:-1 6:-1 7:-1 8:-1 9:-1 10:-1 11:-1 
0 0 32768 0 1:-0.666667 2:-0.999997 3:-1 4:-1 5:-1 6:-1 7:-1 8:-1 9:-1 10:-1 11:-1 
0 0 32768 0 1:-0.666667 2:-0.999997 3:-1 4:-1 5:-1 6:-1 7:-1 8:-1 9:-1 10:-1 11:-1 
0 32768 32768 0 1:-0.333333 2:-0.999997 3:-0.999998 4:-0.999999 5:-1 6:-1 7:-1 8:-1 9:-1 10:-1 11:-1 
0 32768 32768 0 1:-0.333333 2:-0.999997 3:-0.999998 4:-0.999999 5:-1 6:-1 7:-1 8:-1 9:-1 10:-1 11:-1 
0 32768 32768 0 1:-0.333333 2:-0.999997 3:-0.999998 4:-0.999999 5:-1 6:-1 7:-1 8:-1 9:-1 10:-1 11:-1 
0 32768 32768 0 1:-0.333333 2:-0.999997 3:-0.999998 4:-0.999999 5:-1 6:-1 7:-1 8:-1 9:-1 10:-1 11:-1 
0 32768 32768 0 1:-0.333333 2:-0.999997 3:-0.999998 4:-0.999999 5:-1 6:-1 7:-1 8:-1 9:-1 10:-1 11:-1 
0 32768 32768 0 1:-0.333333 2:-0.999997 3:-0.999998 4:-0.999999 5:-1 6:-1 7:-1 8:-1 9:-1 10:-1 11:-1 
0 32768 32768 0 1:-0.333333 2:-0.999997 3:-0.999998 4:-0.999999 5:-1 6:-1 7:-1 8:-1 9:-1 10:-1 11:-1 
0 32768 32768 0 1:-0.333333 2:-0.999997 3:-0.999998 4:-0.999999 5:-1 6:-1 7:-1 8:-1 9:-1 10:-1 11:-1 
0 32768 32768 0 1:-0.333333 2:-0.999997 3:-0.999998 4:-0.999999 5:-1 6:-1 7:-1 8:-1 9:-1 10:-1 11:-1 
0 32768 32768 0 1:-0.333333 2:-0.999997 3:-0.999998 4:-0.999999 5:-1 6:-1 7:-1 8:-1 9:-1 10:-1 11:-1 
0 32768 32768 0 1:-0.333333 2:-0.999997 3:-0.999998 4:-0.999999 5:-1 6:-1 7:-1 8:-1 9:-1 10:-1 11:-1 
0 32768 32768 0 1:-0.333333 2:-0.999997 3:-0.999998 4:-0.999999 5:-1 6:-1 7:-1 8:-1 9:-1 10:-1 11:-1 
0 0 32768 0 1:-0.666667 2:-0.999997 3:-1 4:-1 5:-1 6:-1 7:-1 8:-1 9:-1 10:-1 11:-1 
0 0 32768 0 1:-0.666667 2:-0.999997 3:-1 4:-1 5:-1 6:-1 7:-1 8:-1 9:-1 10:-1 11:-1 
0 0 32768 0 1:-0.666667 2:-0.999997 3:-1 4:-1 5:-1 6:-1 7:-1 8:-1 9:-1 10:-1 11:-1 
0 0 32768 0 1:-0.666667 2:-0.999997 3:-1 4:-1 5:-1 6:-1 7:-1 8:-1 9:-1 10:-1 11:-1 
0 0 32768 0 1:-0.666667 2:-0.999997 3:-1 4:-1 5:-1 6:-1 7:-1 8:-1 9:-1 10:-1 11:-1 
0 0 32768 0 1:-0.666667 2:-0.999997 3:-1 4:-1 5:-1 6:-1 7:-1 8:-1 9:-1 10:-1 11:-1 
0 0 32768 0 1:-0.666667 2:-0.999997 3:-1 4:-1 5:-1 6:-1 7:-1 8:-1 9:-1 10:-1 11:-1 
0 0 32768 0 1:-0.666667 2:-0.999997 3:-1 4:-1 5:-1 6:-1 7:-1 8:-1 9:-1 10:-1 11:-1 
0 0 32768 0 1:-0.666667 2:-0.999997 3:-1 4:-1 5:-1 6:-1 7:-1 8:-1 9:-1 10:-1 11:-1 
0 0 32768 0 1:-0.666667 2:-0.999997 3:-1 4:-1 5:-1 6:-1 7:-1 8:-1 9:-1 10:-1 11:-1 
0 0 32768 0 1:-0.666667 2:-0.999997 3:-1 4:-1 5:-1 6:-1 7:-1 8:-1 9:-1 10:-1 11:-1 
0 0 32768 0 1:-0.666667 2:-0.999997 3:-1 4:-1 5:-1 6:-1 7:-1 8:-1 9:-1 10:-1 11:-1 
0 0 32768 0 1:-0.666667 2:-0.999997 3:-1 4:-1 5:-1 6:-1 7:-1 8:-1 9:-1 10:-1 11:-1 
0 0 32768 0 1:-0.666667 2:-0.999997 3:-1 4:-1 5:-1 6:-1 7:-1 8:-1 9:-1 10:-1 11:-1 
0 0 32768 0 1:-0.666667 2:-0.999997 3:-1 4:-1 5:-1 6:-1 7:-1 8:-1 9:-1 10:-1 11:-1 
0 0 32768 0 1:-0.666667 2:-0.999997 3:-1 4:-1 5:-1 6:-1 7:-1 8:-1 9:-1 10:-1 11:-1 
0 0 32768 0 1:-0.666667 2:-0.999997 3:-1 4:-1 5:-1 6:-1 7:-1 8:-1 9:-1 10:-1 11:-1 
0 0 32768 0 1:-0.666667 2:-0.999997 3:-1 4:-1 5:-1 6:-1 7:-1 8:-1 9:-1 10:-1 11:-1 
0 0 32768 0 1:-0.666667 2:-0.999997 3:-1 4:-1 5:-1 6:-1 7:-1 8:-1 9:-1 10:-1 11:-1 
0 0 32768 0 1:-0.666667 2:-0.999997 3:-1 4:-1 5:-1 6:-1 7:-1 8:-1 9:-1 10:-1 11:-1 
0 0 32768 0 1:-0.666667 2:-0.999997 3:-1 4:-1 5:-1 6:-1 7:-1 8:-1 9:-1 10:-1 11:-1 
0 0 32768 0 1:-0.666667 2:-0.999997 3:-1 4:-1 5:-1 6:-1 7:-1 8:-1 9:-1 10:-1 11:-1 
0 0 32768 0 1:-0.666667 2:-0.999997 3:-1 4:-1 5:-1 6:-1 7:-1 8:-1 9:-1 10:-1 11:-1 
0 0 32768 0 1:-0.666667 2:-0.999997 3:-1 4:-1 5:-1 6:-1 7:-1 8:-1 9:-1 10:-1 11:-1 
0 0 32768 0 1:-0.666667 2:-0.999997 3:-1 4:-1 5:-1 6:-1 7:-1 8:-1 9:-1 10:-1 11:-1 
0 0 32768 0 1:-0.666667 2:-0.999997 3:-1 4:-1 5:-1 6:-1 7:-1 8:-1 9:-1 10:-1 11:-1 
0 0 32768 0 1:-0.666667 2:-0.999997 3:-1 4:-1 5:-1 6:-1 7:-1 8:-1 9:-1 10:-1 11:-1 
0 0 32768 0 1:-0.666667 2:-0.999997 3:-1 4:-1 5:-1 6:-1 7:-1 8:-1 9:-1 10:-1 11:-1 
0 0 32768 0 1:-0.666667 2:-0.999997 3:-1 4:-1 5:-1 6:-1 7:-1 8:-1 9:-1 10:-1 11:-1 
0 0 32768 0 1:-0.666667 2:-0.999997 3:-1 4:-1 5:-1 6:-1 7:-1 8:-1 9:-1 10:-1 11:-1 
0 0 32768 0 1:-0.666667 2:-0.999997 3:-1 4:-1 5:-1 6:-1 7:-1 8:-1 9:-1 10:-1 11:-1 
0 0 32768 0 1:-0.666667 2:-0.999997 3:-1 4:-1 5:-1 6:-1 7:-1 8:-1 9:-1 10:-1 11:-1 
0 0 32768 0 1:-0.666667 2:-0.999997 3:-1 4:-1 5:-1 6:-1 7:-1 8:-1 9:-1 10:-1 11:-1 
0 0 32768 0 1:-0.666667 2:-0.999997 3:-1 4:-1 5:-1 6:-1 7:-1 8:-1 9:-1 10:-1 11:-1 
0 0 32768 0 1:-0.666667 2:-0.999997 3:-1 4:-1 5:-1 6:-1 7:-1 8:-1 9:-1 10:-1 11:-1 
0 32768 32768 28083.12122118533 1:-0.333333 2:-0.999997 3:-0.999997 4:-0.999999 5:-1 6:-1 7:-1 8:-1 9:-1 10:-1 11:-1 
0 32768 32768 0 1:-0.333333 2:-0.999997 3:-0.999997 4:-0.999999 5:-1 6:-1 7:-1 8:-1 9:-1 10:-1 11:-1 
0 32768 32768 0 1:-0.333333 2:-0.999997 3:-0.999997 4:-0.999999 5:-1 6:-1 7:-1 8:-1 9:-1 10:-1 11:-1 
0 32768 32768 0 1:-0.333333 2:-0.999997 3:-0.999997 4:-0.999998 5:-1 6:-1 7:-1 8:-1 9:-1 10:-1 11:-1 
0 32768 32768 0 1:-0.333333 2:-0.999997 3:-0.999997 4:-0.999998 5:-1 6:-1 7:-1 8:-1 9:-1 10:-1 11:-1 
0 32768 32768 0 1:-0.333333 2:-0.999997 3:-0.999997 4:-0.999998 5:-1 6:-1 7:-1 8:-1 9:-1 10:-1 11:-1 
0 32768 32768 0 1:-0.333333 2:-0.999997 3:-0.999997 4:-0.999998 5:-1 6:-1 7:-1 8:-1 9:-1 10:-1 11:-1 
0 32768 32768 0 1:-0.333333 2:-0.999997 3:-0.999997 4:-0.999998 5:-1 6:-1 7:-1 8:-1 9:-1 10:-1 11:-1 
0 32768 32768 0 1:-0.333333 2:-0.999997 3:-0.999997 4:-0.999998 5:-1 6:-1 7:-1 8:-1 9:-1 10:-1 11:-1 
0 32768 32768 0 1:-0.333333 2:-0.999997 3:-0.999997 4:-0.999998 5:-1 6:-1 7:-1 8:-1 9:-1 10:-1 11:-1 
0 32768 32768 0 1:-0.333333 2:-0.999997 3:-0.999997 4:-0.999998 5:-1 6:-1 7:-1 8:-1 9:-1 10:-1 11:-1 
0 32768 32768 0 1:-0.333333 2:-0.999997 3:-0.999997 4:-0.999998 5:-1 6:-1 7:-1 8:-1 9:-1 10:-1 11:-1 
0 32768 32768 0 1:-0.333333 2:-0.999997 3:-0.999997 4:-0.999998 5:-1 6:-1 7:-1 8:-1 9:-1 10:-1 11:-1 
0 32768 32768 0 1:-0.333333 2:-0.999997 3:-0.999997 4:-0.999998 5:-1 6:-1 7:-1 8:-1 9:-1 10:-1 11:-1 
0 32768 32768 0 1:-0.333333 2:-0.999997 3:-0.999997 4:-0.999998 5:-1 6:-1 7:-1 8:-1 9:-1 10:-1 11:-1 
0 32768 32768 0 1:-0.333333 2:-0.999997 3:-0.999997 4:-0.999998 5:-1 6:-1 7:-1 8:-1 9:-1 10:-1 11:-1 
0 32768 32768 0 1:-0.333333 2:-0.999997 3:-0.999997 4:-0.999998 5:-1 6:-1 7:-1 8:-1 9:-1 10:-1 11:-1 
0 32768 32768 0 1:-0.333333 2:-0.999997 3:-0.999997 4:-0.999998 5:-1 6:-1 7:-1 8:-1 9:-1 10:-1 11:-1 
0 32768 32768 0 1:-0.333333 2:-0.999997 3:-0.999997 4:-0.999998 5:-1 6:-1 7:-1 8:-1 9:-1 10:-1 11:-1 
0 32768 32768 0 1:-0.333333 2:-0.999997 3:-0.999997 4:-0.999998 5:-1 6:-1 7:-1 8:-1 9:-1 10:-1 11:-1 
0 32768 32768 0 1:-0.333333 2:-0.999997 3:-0.999997 4:-0.999998 5:-1 6:-1 7:-1 8:-1 9:-1 10:-1 11:-1 
0 32768 32768 0 1:-0.333333 2:-0.999997 3:-0.999997 4:-0.999998 5:-1 6:-1 7:-1 8:-1 9:-1 10:-1 11:-1 
0 32768 32768 0 1:-0.333333 2:-0.999997 3:-0.999997 4:-0.999998 5:-1 6:-1 7:-1 8:-1 9:-1 10:-1 11:-1 
0 32768 32768 0 1:-0.333333 2:-0.999997 3:-0.999997 4:-0.999998 5:-1 6:-1 7:-1 8:-1 9:-1 10:-1 11:-1 
0 32768 32768 0 1:-0.333333 2:-0.999997 3:-0.999997 4:-0.999998 5:-1 6:-1 7:-1 8:-1 9:-1 10:-1 11:-1 
0 32768 32768 0 1:-0.333333 2:-0.999997 3:-0.999997 4:-0.999998 5:-1 6:-1 7:-1 8:-1 9:-1 10:-1 11:-1 
0 32768 32768 0 1:-0.333333 2:-0.999997 3:-0.999997 4:-0.999998 5:-1 6:-1 7:-1 8:-1 9:-1 10:-1 11:-1 
0 32768 32768 0 1:-0.333333 2:-0.999997 3:-0.999997 4:-0.999998 5:-1 6:-1 7:-1 8:-1 9:-1 10:-1 11:-1 
0 32768 32768 0 1:-0.333333 2:-0.999997 3:-0.999997 4:-0.999998 5:-1 6:-1 7:-1 8:-1 9:-1 10:-1 11:-1 
0 32768 32768 0 1:-0.333333 2:-0.999997 3:-0.999997 4:-0.999998 5:-1 6:-1 7:-1 8:-1 9:-1 10:-1 11:-1 
0 0 32768 0 1:-0.666667 2:-0.999997 3:-1 4:-1 5:-1 6:-1 7:-1 8:-1 9:-1 10:-1 11:-1 
0 0 32768 0 1:-0.666667 2:-0.999997 3:-1 4:-1 5:-1 6:-1 7:-1 8:-1 9:-1 10:-1 11:-1 
0 0 32768 0 1:-0.666667 2:-0.999997 3:-1 4:-1 5:-1 6:-1 7:-1 8:-1 9:-1 10:-1 11:-1 
0 0 32768 0 1:-0.666667 2:-0.999997 3:-1 4:-1 5:-1 6:-1 7:-1 8:-1 9:-1 10:-1 11:-1 
0 0 32768 0 1:-0.666667 2:-0.999997 3:-1 4:-1 5:-1 6:-1 7:-1 8:-1 9:-1 10:-1 11:-1 
0 0 32768 0 1:-0.666667 2:-0.999997 3:-1 4:-1 5:-1 6:-1 7:-1 8:-1 9:-1 10:-1 11:-1 
0 0 32768 0 1:-0.666667 2:-0.999997 3:-1 4:-1 5:-1 6:-1 7:-1 8:-1 9:-1 10:-1 11:-1 
0 0 32768 0 1:-0.666667 2:-0.999997 3:-1 4:-1 5:-1 6:-1 7:-1 8:-1 9:-1 10:-1 11:-1 
0 0 32768 0 1:-0.666667 2:-0.999997 3:-1 4:-1 5:-1 6:-1 7:-1 8:-1 9:-1 10:-1 11:-1 
0 0 32768 0 1:-0.666667 2:-0.999997 3:-1 4:-1 5:-1 6:-1 7:-1 8:-1 9:-1 10:-1 11:-1 
0 0 32768 0 1:-0.666667 2:-0.999997 3:-1 4:-1 5:-1 6:-1 7:-1 8:-1 9:-1 10:-1 11:-1 
0 0 32768 0 1:-0.666667 2:-0.999997 3:-1 4:-1 5:-1 6:-1 7:-1 8:-1 9:-1 10:-1 11:-1 
0 0 32768 0 1:-0.666667 2:-0.999997 3:-1 4:-1 5:-1 6:-1 7:-1 8:-1 9:-1 10:-1 11:-1 
0 0 32768 0 1:-0.666667 2:-0.999997 3:-1 4:-1 5:-1 6:-1 7:-1 8:-1 9:-1 10:-1 11:-1 
0 0 32768 0 1:-0.666667 2:-0.999997 3:-1 4:-1 5:-1 6:-1 7:-1 8:-1 9:-1 10:-1 11:-1 
0 0 32768 0 1:-0.666667 2:-0.999997 3:-1 4:-1 5:-1 6:-1 7:-1 8:-1 9:-1 10:-1 11:-1 
0 0 32768 0 1:-0.666667 2:-0.999997 3:-1 4:-1 5:-1 6:-1 7:-1 8:-1 9:-1 10:-1 11:-1 
0 0 32768 0 1:-0.666667 2:-0.999997 3:-1 4:-1 5:-1 6:-1 7:-1 8:-1 9:-1 10:-1 11:-1 
0 0 32768 0 1:-0.666667 2:-0.999997 3:-1 4:-1 5:-1 6:-1 7:-1 8:-1 9:-1 10:-1 11:-1 
0 0 32768 0 1:-0.666667 2:-0.999997 3:-1 4:-1 5:-1 6:-1 7:-1 8:-1 9:-1 10:-1 11:-1 
0 0 32768 0 1:-0.666667 2:-0.999997 3:-1 4:-1 5:-1 6:-1 7:-1 8:-1 9:-1 10:-1 11:-1 
0 0 32768 0 1:-0.666667 2:-0.999997 3:-1 4:-1 5:-1 6:-1 7:-1 8:-1 9:-1 10:-1 11:-1 
0 0 32768 0 1:-0.666667 2:-0.999997 3:-1 4:-1 5:-1 6:-1 7:-1 8:-1 9:-1 10:-1 11:-1 
0 0 32768 0 1:-0.666667 2:-0.999997 3:-1 4:-1 5:-1 6:-1 7:-1 8:-1 9:-1 10:-1 11:-1 
0 0 32768 0 1:-0.666667 2:-0.999997 3:-1 4:-1 5:-1 6:-1 7:-1 8:-1 9:-1 10:-1 11:-1 
0 0 32768 0 1:-0.666667 2:-0.999997 3:-1 4:-1 5:-1 6:-1 7:-1 8:-1 9:-1 10:-1 11:-1 
0 0 32768 0 1:-0.666667 2:-0.999997 3:-1 4:-1 5:-1 6:-1 7:-1 8:-1 9:-1 10:-1 11:-1 
0 32768 32768 0 1:-0.333333 2:-0.999997 3:-0.999998 4:-0.999998 5:-1 6:-1 7:-1 8:-1 9:-1 10:-1 11:-1 
0 32768 32768 0 1:-0.333333 2:-0.999997 3:-0.999998 4:-0.999998 5:-1 6:-1 7:-1 8:-1 9:-1 10:-1 11:-1 
0 32768 32768 0 1:-0.333333 2:-0.999997 3:-0.999998 4:-0.999998 5:-1 6:-1 7:-1 8:-1 9:-1 10:-1 11:-1 
0 32768 32768 0 1:-0.333333 2:-0.999997 3:-0.999998 4:-0.999998 5:-1 6:-1 7:-1 8:-1 9:-1 10:-1 11:-1 
0 32768 32768 0 1:-0.333333 2:-0.999997 3:-0.999998 4:-0.999998 5:-1 6:-1 7:-1 8:-1 9:-1 10:-1 11:-1 
0 32768 32768 0 1:-0.333333 2:-0.999997 3:-0.999998 4:-0.999998 5:-1 6:-1 7:-1 8:-1 9:-1 10:-1 11:-1 
0 32768 32768 0 1:-0.333333 2:-0.999997 3:-0.999998 4:-0.999999 5:-1 6:-1 7:-1 8:-1 9:-1 10:-1 11:-1 
0 32768 32768 0 1:-0.333333 2:-0.999997 3:-0.999998 4:-0.999999 5:-1 6:-1 7:-1 8:-1 9:-1 10:-1 11:-1 
0 32768 32768 0 1:-0.333333 2:-0.999997 3:-0.999998 4:-0.999999 5:-1 6:-1 7:-1 8:-1 9:-1 10:-1 11:-1 
0 0 32768 0 1:-0.666667 2:-0.999997 3:-1 4:-1 5:-1 6:-1 7:-1 8:-1 9:-1 10:-1 11:-1 
0 0 32768 0 1:-0.666667 2:-0.999997 3:-1 4:-1 5:-1 6:-1 7:-1 8:-1 9:-1 10:-1 11:-1 
0 0 32768 0 1:-0.666667 2:-0.999997 3:-1 4:-1 5:-1 6:-1 7:-1 8:-1 9:-1 10:-1 11:-1 
0 0 32768 0 1:-0.666667 2:-0.999997 3:-1 4:-1 5:-1 6:-1 7:-1 8:-1 9:-1 10:-1 11:-1 
0 0 32768 0 1:-0.666667 2:-0.999997 3:-1 4:-1 5:-1 6:-1 7:-1 8:-1 9:-1 10:-1 11:-1 
0 0 32768 0 1:-0.666667 2:-0.999997 3:-1 4:-1 5:-1 6:-1 7:-1 8:-1 9:-1 10:-1 11:-1 
0 0 32768 0 1:-0.666667 2:-0.999997 3:-1 4:-1 5:-1 6:-1 7:-1 8:-1 9:-1 10:-1 11:-1 
0 0 32768 0 1:-0.666667 2:-0.999997 3:-1 4:-1 5:-1 6:-1 7:-1 8:-1 9:-1 10:-1 11:-1 
0 0 32768 0 1:-0.666667 2:-0.999997 3:-1 4:-1 5:-1 6:-1 7:-1 8:-1 9:-1 10:-1 11:-1 
0 0 32768 0 1:-0.666667 2:-0.999997 3:-1 4:-1 5:-1 6:-1 7:-1 8:-1 9:-1 10:-1 11:-1 
0 0 32768 0 1:-0.666667 2:-0.999997 3:-1 4:-1 5:-1 6:-1 7:-1 8:-1 9:-1 10:-1 11:-1 
0 0 32768 0 1:-0.666667 2:-0.999997 3:-1 4:-1 5:-1 6:-1 7:-1 8:-1 9:-1 10:-1 11:-1 
0 0 32768 0 1:-0.666667 2:-0.999997 3:-1 4:-1 5:-1 6:-1 7:-1 8:-1 9:-1 10:-1 11:-1 
0 0 32768 0 1:-0.666667 2:-0.999997 3:-1 4:-1 5:-1 6:-1 7:-1 8:-1 9:-1 10:-1 11:-1 
0 0 32768 0 1:-0.666667 2:-0.999997 3:-1 4:-1 5:-1 6:-1 7:-1 8:-1 9:-1 10:-1 11:-1 
0 0 32768 0 1:-0.666667 2:-0.999997 3:-1 4:-1 5:-1 6:-1 7:-1 8:-1 9:-1 10:-1 11:-1 
0 0 32768 0 1:-0.666667 2:-0.999997 3:-1 4:-1 5:-1 6:-1 7:-1 8:-1 9:-1 10:-1 11:-1 
0 0 32768 0 1:-0.666667 2:-0.999997 3:-1 4:-1 5:-1 6:-1 7:-1 8:-1 9:-1 10:-1 11:-1 
0 0 32768 0 1:-0.666667 2:-0.999997 3:-1 4:-1 5:-1 6:-1 7:-1 8:-1 9:-1 10:-1 11:-1 
0 0 32768 0 1:-0.666667 2:-0.999997 3:-1 4:-1 5:-1 6:-1 7:-1 8:-1 9:-1 10:-1 11:-1 
0 0 32768 0 1:-0.666667 2:-0.999997 3:-1 4:-1 5:-1 6:-1 7:-1 8:-1 9:-1 10:-1 11:-1 
0 0 32768 0 1:-0.666667 2:-0.999997 3:-1 4:-1 5:-1 6:-1 7:-1 8:-1 9:-1 10:-1 11:-1 
0 0 32768 0 1:-0.666667 2:-0.999997 3:-1 4:-1 5:-1 6:-1 7:-1 8:-1 9:-1 10:-1 11:-1 
0 0 32768 0 1:-0.666667 2:-0.999997 3:-1 4:-1 5:-1 6:-1 7:-1 8:-1 9:-1 10:-1 11:-1 
0 0 32768 0 1:-0.666667 2:-0.999997 3:-1 4:-1 5:-1 6:-1 7:-1 8:-1 9:-1 10:-1 11:-1 
0 0 32768 0 1:-0.666667 2:-0.999997 3:-1 4:-1 5:-1 6:-1 7:-1 8:-1 9:-1 10:-1 11:-1 
0 0 32768 0 1:-0.666667 2:-0.999997 3:-1 4:-1 5:-1 6:-1 7:-1 8:-1 9:-1 10:-1 11:-1 
0 0 32768 0 1:-0.666667 2:-0.999997 3:-1 4:-1 5:-1 6:-1 7:-1 8:-1 9:-1 10:-1 11:-1 
0 0 32768 0 1:-0.666667 2:-0.999997 3:-1 4:-1 5:-1 6:-1 7:-1 8:-1 9:-1 10:-1 11:-1 
0 0 32768 0 1:-0.666667 2:-0.999997 3:-1 4:-1 5:-1 6:-1 7:-1 8:-1 9:-1 10:-1 11:-1 
0 0 32768 0 1:-0.666667 2:-0.999997 3:-1 4:-1 5:-1 6:-1 7:-1 8:-1 9:-1 10:-1 11:-1 
0 0 32768 0 1:-0.666667 2:-0.999997 3:-1 4:-1 5:-1 6:-1 7:-1 8:-1 9:-1 10:-1 11:-1 
0 0 32768 0 1:-0.666667 2:-0.999997 3:-1 4:-1 5:-1 6:-1 7:-1 8:-1 9:-1 10:-1 11:-1 
0 0 32768 0 1:-0.666667 2:-0.999997 3:-1 4:-1 5:-1 6:-1 7:-1 8:-1 9:-1 10:-1 11:-1 
0 0 32768 0 1:-0.666667 2:-0.999997 3:-1 4:-1 5:-1 6:-1 7:-1 8:-1 9:-1 10:-1 11:-1 
0 0 32768 0 1:-0.666667 2:-0.999997 3:-1 4:-1 5:-1 6:-1 7:-1 8:-1 9:-1 10:-1 11:-1 
0 0 32768 0 1:-0.666667 2:-0.999997 3:-1 4:-1 5:-1 6:-1 7:-1 8:-1 9:-1 10:-1 11:-1 
0 0 32768 0 1:-0.666667 2:-0.999997 3:-1 4:-1 5:-1 6:-1 7:-1 8:-1 9:-1 10:-1 11:-1 
0 0 32768 0 1:-0.666667 2:-0.999997 3:-1 4:-1 5:-1 6:-1 7:-1 8:-1 9:-1 10:-1 11:-1 
0 0 32768 0 1:-0.666667 2:-0.999997 3:-1 4:-1 5:-1 6:-1 7:-1 8:-1 9:-1 10:-1 11:-1 
0 0 32768 0 1:-0.666667 2:-0.999997 3:-1 4:-1 5:-1 6:-1 7:-1 8:-1 9:-1 10:-1 11:-1 
0 0 32768 0 1:-0.666667 2:-0.999997 3:-1 4:-1 5:-1 6:-1 7:-1 8:-1 9:-1 10:-1 11:-1 
0 0 32768 0 1:-0.666667 2:-0.999997 3:-1 4:-1 5:-1 6:-1 7:-1 8:-1 9:-1 10:-1 11:-1 
0 0 32768 0 1:-0.666667 2:-0.999997 3:-1 4:-1 5:-1 6:-1 7:-1 8:-1 9:-1 10:-1 11:-1 
0 0 32768 0 1:-0.666667 2:-0.999997 3:-1 4:-1 5:-1 6:-1 7:-1 8:-1 9:-1 10:-1 11:-1 
0 0 32768 0 1:-0.666667 2:-0.999997 3:-1 4:-1 5:-1 6:-1 7:-1 8:-1 9:-1 10:-1 11:-1 
0 32768 32768 0 1:-0.333333 2:-0.999997 3:-1 4:-1 5:-1 6:-1 7:-1 8:-1 9:-1 10:-1 11:-1 
0 32768 32768 0 1:-0.333333 2:-0.999997 3:-0.999999 4:-1 5:-1 6:-1 7:-1 8:-1 9:-1 10:-1 11:-1 
0 32768 32768 0 1:-0.333333 2:-0.999997 3:-0.999999 4:-1 5:-1 6:-1 7:-1 8:-1 9:-1 10:-1 11:-1 
0 32768 32768 0 1:-0.333333 2:-0.999997 3:-0.999999 4:-1 5:-1 6:-1 7:-1 8:-1 9:-1 10:-1 11:-1 
0 32768 32768 0 1:-0.333333 2:-0.999997 3:-0.999999 4:-1 5:-1 6:-1 7:-1 8:-1 9:-1 10:-1 11:-1 
0 32768 32768 0 1:-0.333333 2:-0.999997 3:-0.999999 4:-1 5:-1 6:-1 7:-1 8:-1 9:-1 10:-1 11:-1 
0 32768 32768 0 1:-0.333333 2:-0.999997 3:-0.999999 4:-1 5:-1 6:-1 7:-1 8:-1 9:-1 10:-1 11:-1 
0 32768 32768 0 1:-0.333333 2:-0.999997 3:-0.999999 4:-0.999999 5:-1 6:-1 7:-1 8:-1 9:-1 10:-1 11:-1 
0 32768 32768 0 1:-0.333333 2:-0.999997 3:-0.999999 4:-0.999999 5:-1 6:-1 7:-1 8:-1 9:-1 10:-1 11:-1 
0 32768 32768 0 1:-0.333333 2:-0.999997 3:-0.999998 4:-0.999999 5:-1 6:-1 7:-1 8:-1 9:-1 10:-1 11:-1 
0 32768 32768 0 1:-0.333333 2:-0.999997 3:-0.999998 4:-0.999999 5:-1 6:-1 7:-1 8:-1 9:-1 10:-1 11:-1 
0 32768 32768 0 1:-0.333333 2:-0.999997 3:-0.999998 4:-0.999999 5:-1 6:-1 7:-1 8:-1 9:-1 10:-1 11:-1 
0 32768 32768 0 1:-0.333333 2:-0.999997 3:-0.999998 4:-0.999999 5:-1 6:-1 7:-1 8:-1 9:-1 10:-1 11:-1 
0 32768 32768 0 1:-0.333333 2:-0.999997 3:-0.999998 4:-0.999999 5:-1 6:-1 7:-1 8:-1 9:-1 10:-1 11:-1 
0 32768 32768 0 1:-0.333333 2:-0.999997 3:-0.999998 4:-0.999998 5:-1 6:-1 7:-1 8:-1 9:-1 10:-1 11:-1 
0 32768 32768 0 1:-0.333333 2:-0.999997 3:-0.999998 4:-0.999998 5:-1 6:-1 7:-1 8:-1 9:-1 10:-1 11:-1 
0 32768 32768 0 1:-0.333333 2:-0.999997 3:-0.999998 4:-0.999998 5:-1 6:-1 7:-1 8:-1 9:-1 10:-1 11:-1 
0 32768 32768 0 1:-0.333333 2:-0.999997 3:-0.999998 4:-0.999998 5:-1 6:-1 7:-1 8:-1 9:-1 10:-1 11:-1 
0 32768 32768 0 1:-0.333333 2:-0.999997 3:-0.999998 4:-0.999998 5:-1 6:-1 7:-1 8:-1 9:-1 10:-1 11:-1 
0 32768 32768 0 1:-0.333333 2:-0.999997 3:-0.999998 4:-0.999998 5:-1 6:-1 7:-1 8:-1 9:-1 10:-1 11:-1 
0 32768 32768 0 1:-0.333333 2:-0.999997 3:-0.999997 4:-0.999997 5:-1 6:-1 7:-1 8:-1 9:-1 10:-1 11:-1 
0 32768 32768 0 1:-0.333333 2:-0.999997 3:-0.999997 4:-0.999997 5:-1 6:-1 7:-1 8:-1 9:-1 10:-1 11:-1 
0 32768 32768 0 1:-0.333333 2:-0.999997 3:-0.999997 4:-0.999997 5:-1 6:-1 7:-1 8:-1 9:-1 10:-1 11:-1 
0 32768 32768 0 1:-0.333333 2:-0.999997 3:-0.999997 4:-0.999997 5:-1 6:-1 7:-1 8:-1 9:-1 10:-1 11:-1 
0 32768 32768 0 1:-0.333333 2:-0.999997 3:-0.999997 4:-0.999997 5:-1 6:-1 7:-1 8:-1 9:-1 10:-1 11:-1 
0 32768 32768 0 1:-0.333333 2:-0.999997 3:-0.999997 4:-0.999997 5:-1 6:-1 7:-1 8:-1 9:-1 10:-1 11:-1 
0 32768 32768 0 1:-0.333333 2:-0.999997 3:-0.999997 4:-0.999997 5:-1 6:-1 7:-1 8:-1 9:-1 10:-1 11:-1 
0 32768 32768 0 1:-0.333333 2:-0.999997 3:-0.999997 4:-0.999997 5:-1 6:-1 7:-1 8:-1 9:-1 10:-1 11:-1 
0 32768 32768 0 1:-0.333333 2:-0.999997 3:-0.999997 4:-0.999996 5:-1 6:-1 7:-1 8:-1 9:-1 10:-1 11:-1 
0 32768 32768 32768 1:-0.333333 2:-0.999997 3:-0.999996 4:-0.999996 5:-1 6:-1 7:-1 8:-1 9:-1 10:-1 11:-1 
0 32768 32768 32768 1:-0.333333 2:-0.999997 3:-0.999996 4:-0.999996 5:-1 6:-1 7:-1 8:-1 9:-1 10:-1 11:-1 
0 32768 32768 32768 1:-0.333333 2:-0.999997 3:-0.999996 4:-0.999996 5:-1 6:-1 7:-1 8:-1 9:-1 10:-1 11:-1 
0 32768 32768 32768 1:-0.333333 2:-0.999997 3:-0.999996 4:-0.999996 5:-1 6:-1 7:-1 8:-1 9:-1 10:-1 11:-1 
0 32768 32768 32768 1:-0.333333 2:-0.999997 3:-0.999996 4:-0.999996 5:-1 6:-1 7:-1 8:-1 9:-1 10:-1 11:-1 
0 32768 32768 32768 1:-0.333333 2:-0.999997 3:-0.999996 4:-0.999996 5:-1 6:-1 7:-1 8:-1 9:-1 10:-1 11:-1 
0 32768 32768 32768 1:-0.333333 2:-0.999997 3:-0.999996 4:-0.999996 5:-1 6:-1 7:-1 8:-1 9:-1 10:-1 11:-1 
0 32768 32768 32768 1:-0.333333 2:-0.999997 3:-0.999996 4:-0.999996 5:-1 6:-1 7:-1 8:-1 9:-1 10:-1 11:-1 
0 386.8866100769685 0 5.145160488964308 2:-0.999842 3:-0.999893 4:-0.999886 5:-0.999903 6:-0.99992 7:0.515609 8:0.515609 9:0.553568 10:-1 11:-1 
0 0 1642.158686681486 0 2:-0.999839 3:-0.999889 4:-0.999885 5:-0.999904 6:-0.999921 7:0.515609 8:0.515609 9:0.553568 10:-1 11:-1 
0 32768 32768 0 1:-0.333333 2:-0.999997 3:-0.999998 4:-0.999999 5:-1 6:-1 7:-1 8:-1 9:-1 10:-1 11:-1 
0 32768 32768 0 1:-0.333333 2:-0.999997 3:-0.999998 4:-0.999999 5:-1 6:-1 7:-1 8:-1 9:-1 10:-1 11:-1 
0 32768 32768 0 1:-0.333333 2:-0.999997 3:-0.999998 4:-0.999999 5:-1 6:-1 7:-1 8:-1 9:-1 10:-1 11:-1 
0 32768 32768 0 1:-0.333333 2:-0.999997 3:-0.999998 4:-0.999999 5:-1 6:-1 7:-1 8:-1 9:-1 10:-1 11:-1 
0 32768 32768 0 1:-0.333333 2:-0.999997 3:-0.999998 4:-0.999999 5:-1 6:-1 7:-1 8:-1 9:-1 10:-1 11:-1 
0 32768 32768 0 1:-0.333333 2:-0.999997 3:-0.999998 4:-0.999999 5:-1 6:-1 7:-1 8:-1 9:-1 10:-1 11:-1 
0 32768 32768 0 1:-0.333333 2:-0.999997 3:-0.999998 4:-0.999999 5:-1 6:-1 7:-1 8:-1 9:-1 10:-1 11:-1 
0 0 32768 0 1:-0.666667 2:-0.999997 3:-1 4:-1 5:-1 6:-1 7:-1 8:-1 9:-1 10:-1 11:-1 
0 0 32768 0 1:-0.666667 2:-0.999997 3:-1 4:-1 5:-1 6:-1 7:-1 8:-1 9:-1 10:-1 11:-1 
0 0 32768 0 1:-0.666667 2:-0.999997 3:-1 4:-1 5:-1 6:-1 7:-1 8:-1 9:-1 10:-1 11:-1 
0 0 32768 0 1:-0.666667 2:-0.999997 3:-1 4:-1 5:-1 6:-1 7:-1 8:-1 9:-1 10:-1 11:-1 
0 0 32768 0 1:-0.666667 2:-0.999997 3:-1 4:-1 5:-1 6:-1 7:-1 8:-1 9:-1 10:-1 11:-1 
0 0 32768 0 1:-0.666667 2:-0.999997 3:-1 4:-1 5:-1 6:-1 7:-1 8:-1 9:-1 10:-1 11:-1 
0 0 32768 0 1:-0.666667 2:-0.999997 3:-1 4:-1 5:-1 6:-1 7:-1 8:-1 9:-1 10:-1 11:-1 
0 0 32768 0 1:-0.666667 2:-0.999997 3:-1 4:-1 5:-1 6:-1 7:-1 8:-1 9:-1 10:-1 11:-1 
0 0 32768 0 1:-0.666667 2:-0.999997 3:-1 4:-1 5:-1 6:-1 7:-1 8:-1 9:-1 10:-1 11:-1 
0 0 32768 0 1:-0.666667 2:-0.999997 3:-1 4:-1 5:-1 6:-1 7:-1 8:-1 9:-1 10:-1 11:-1 
0 0 32768 0 1:-0.666667 2:-0.999997 3:-1 4:-1 5:-1 6:-1 7:-1 8:-1 9:-1 10:-1 11:-1 
0 0 32768 0 1:-0.666667 2:-0.999997 3:-1 4:-1 5:-1 6:-1 7:-1 8:-1 9:-1 10:-1 11:-1 
0 0 32768 0 1:-0.666667 2:-0.999997 3:-1 4:-1 5:-1 6:-1 7:-1 8:-1 9:-1 10:-1 11:-1 
0 0 32768 0 1:-0.666667 2:-0.999997 3:-1 4:-1 5:-1 6:-1 7:-1 8:-1 9:-1 10:-1 11:-1 
0 0 32768 0 1:-0.666667 2:-0.999997 3:-1 4:-1 5:-1 6:-1 7:-1 8:-1 9:-1 10:-1 11:-1 
0 0 32768 0 1:-0.666667 2:-0.999997 3:-1 4:-1 5:-1 6:-1 7:-1 8:-1 9:-1 10:-1 11:-1 
0 0 32768 0 1:-0.666667 2:-0.999997 3:-1 4:-1 5:-1 6:-1 7:-1 8:-1 9:-1 10:-1 11:-1 
0 0 32768 0 1:-0.666667 2:-0.999997 3:-1 4:-1 5:-1 6:-1 7:-1 8:-1 9:-1 10:-1 11:-1 
0 0 32768 0 1:-0.666667 2:-0.999997 3:-1 4:-1 5:-1 6:-1 7:-1 8:-1 9:-1 10:-1 11:-1 
0 0 32768 0 1:-0.666667 2:-0.999997 3:-1 4:-1 5:-1 6:-1 7:-1 8:-1 9:-1 10:-1 11:-1 
0 0 32768 0 1:-0.666667 2:-0.999997 3:-1 4:-1 5:-1 6:-1 7:-1 8:-1 9:-1 10:-1 11:-1 
0 0 32768 0 1:-0.666667 2:-0.999997 3:-1 4:-1 5:-1 6:-1 7:-1 8:-1 9:-1 10:-1 11:-1 
0 0 32768 0 1:-0.666667 2:-0.999997 3:-1 4:-1 5:-1 6:-1 7:-1 8:-1 9:-1 10:-1 11:-1 
0 0 32768 0 1:-0.666667 2:-0.999997 3:-1 4:-1 5:-1 6:-1 7:-1 8:-1 9:-1 10:-1 11:-1 
0 0 32768 0 1:-0.666667 2:-0.999997 3:-1 4:-1 5:-1 6:-1 7:-1 8:-1 9:-1 10:-1 11:-1 
0 0 32768 0 1:-0.666667 2:-0.999997 3:-1 4:-1 5:-1 6:-1 7:-1 8:-1 9:-1 10:-1 11:-1 
0 0 32768 0 1:-0.666667 2:-0.999997 3:-1 4:-1 5:-1 6:-1 7:-1 8:-1 9:-1 10:-1 11:-1 
0 0 32768 0 1:-0.666667 2:-0.999997 3:-1 4:-1 5:-1 6:-1 7:-1 8:-1 9:-1 10:-1 11:-1 
0 0 32768 0 1:-0.666667 2:-0.999997 3:-1 4:-1 5:-1 6:-1 7:-1 8:-1 9:-1 10:-1 11:-1 
0 0 32768 0 1:-0.666667 2:-0.999997 3:-1 4:-1 5:-1 6:-1 7:-1 8:-1 9:-1 10:-1 11:-1 
0 0 32768 0 1:-0.666667 2:-0.999997 3:-1 4:-1 5:-1 6:-1 7:-1 8:-1 9:-1 10:-1 11:-1 
0 0 32768 0 1:-0.666667 2:-0.999997 3:-1 4:-1 5:-1 6:-1 7:-1 8:-1 9:-1 10:-1 11:-1 
0 0 32768 0 1:-0.666667 2:-0.999997 3:-1 4:-1 5:-1 6:-1 7:-1 8:-1 9:-1 10:-1 11:-1 
0 0 32768 0 1:-0.666667 2:-0.999997 3:-1 4:-1 5:-1 6:-1 7:-1 8:-1 9:-1 10:-1 11:-1 
0 0 32768 0 1:-0.666667 2:-0.999997 3:-1 4:-1 5:-1 6:-1 7:-1 8:-1 9:-1 10:-1 11:-1 
0 0 32768 0 1:-0.666667 2:-0.999997 3:-1 4:-1 5:-1 6:-1 7:-1 8:-1 9:-1 10:-1 11:-1 
0 0 32768 0 1:-0.666667 2:-0.999997 3:-1 4:-1 5:-1 6:-1 7:-1 8:-1 9:-1 10:-1 11:-1 
0 0 32768 0 1:-0.666667 2:-0.999997 3:-1 4:-1 5:-1 6:-1 7:-1 8:-1 9:-1 10:-1 11:-1 
0 0 32768 0 1:-0.666667 2:-0.999997 3:-1 4:-1 5:-1 6:-1 7:-1 8:-1 9:-1 10:-1 11:-1 
0 0 32768 0 1:-0.666667 2:-0.999997 3:-1 4:-1 5:-1 6:-1 7:-1 8:-1 9:-1 10:-1 11:-1 
0 0 32768 0 1:-0.666667 2:-0.999997 3:-1 4:-1 5:-1 6:-1 7:-1 8:-1 9:-1 10:-1 11:-1 
0 0 32768 0 1:-0.666667 2:-0.999997 3:-1 4:-1 5:-1 6:-1 7:-1 8:-1 9:-1 10:-1 11:-1 
0 0 32768 0 1:-0.666667 2:-0.999997 3:-1 4:-1 5:-1 6:-1 7:-1 8:-1 9:-1 10:-1 11:-1 
0 0 32768 0 1:-0.666667 2:-0.999997 3:-1 4:-1 5:-1 6:-1 7:-1 8:-1 9:-1 10:-1 11:-1 
0 0 32768 0 1:-0.666667 2:-0.999997 3:-1 4:-1 5:-1 6:-1 7:-1 8:-1 9:-1 10:-1 11:-1 
0 0 32768 0 1:-0.666667 2:-0.999997 3:-1 4:-1 5:-1 6:-1 7:-1 8:-1 9:-1 10:-1 11:-1 
0 0 32768 0 1:-0.666667 2:-0.999997 3:-1 4:-1 5:-1 6:-1 7:-1 8:-1 9:-1 10:-1 11:-1 
0 0 32768 0 1:-0.666667 2:-0.999997 3:-1 4:-1 5:-1 6:-1 7:-1 8:-1 9:-1 10:-1 11:-1 
0 0 32768 0 1:-0.666667 2:-0.999997 3:-1 4:-1 5:-1 6:-1 7:-1 8:-1 9:-1 10:-1 11:-1 
0 0 32768 0 1:-0.666667 2:-0.999997 3:-1 4:-1 5:-1 6:-1 7:-1 8:-1 9:-1 10:-1 11:-1 
0 0 32768 0 1:-0.666667 2:-0.999997 3:-1 4:-1 5:-1 6:-1 7:-1 8:-1 9:-1 10:-1 11:-1 
0 0 32768 0 1:-0.666667 2:-0.999997 3:-1 4:-1 5:-1 6:-1 7:-1 8:-1 9:-1 10:-1 11:-1 
0 0 32768 0 1:-0.666667 2:-0.999997 3:-1 4:-1 5:-1 6:-1 7:-1 8:-1 9:-1 10:-1 11:-1 
0 0 32768 0 1:-0.666667 2:-0.999997 3:-1 4:-1 5:-1 6:-1 7:-1 8:-1 9:-1 10:-1 11:-1 
0 0 32768 0 1:-0.666667 2:-0.999997 3:-1 4:-1 5:-1 6:-1 7:-1 8:-1 9:-1 10:-1 11:-1 
0 0 32768 0 1:-0.666667 2:-0.999997 3:-1 4:-1 5:-1 6:-1 7:-1 8:-1 9:-1 10:-1 11:-1 
0 0 32768 0 1:-0.666667 2:-0.999997 3:-1 4:-1 5:-1 6:-1 7:-1 8:-1 9:-1 10:-1 11:-1 
0 0 32768 0 1:-0.666667 2:-0.999997 3:-1 4:-1 5:-1 6:-1 7:-1 8:-1 9:-1 10:-1 11:-1 
0 0 32768 0 1:-0.666667 2:-0.999997 3:-1 4:-1 5:-1 6:-1 7:-1 8:-1 9:-1 10:-1 11:-1 
0 0 32768 0 1:-0.666667 2:-0.999997 3:-1 4:-1 5:-1 6:-1 7:-1 8:-1 9:-1 10:-1 11:-1 
0 0 32768 0 1:-0.666667 2:-0.999997 3:-1 4:-1 5:-1 6:-1 7:-1 8:-1 9:-1 10:-1 11:-1 
0 0 32768 0 1:-0.666667 2:-0.999997 3:-1 4:-1 5:-1 6:-1 7:-1 8:-1 9:-1 10:-1 11:-1 
0 0 32768 0 1:-0.666667 2:-0.999997 3:-1 4:-1 5:-1 6:-1 7:-1 8:-1 9:-1 10:-1 11:-1 
32740.48710890189 0 32768 0 1:-0.666667 2:-0.999997 3:-1 4:-1 5:-1 6:-1 7:-1 8:-1 9:-1 10:-1 11:-1 
32768 0 32768 0 1:-0.666667 2:-0.999997 3:-1 4:-1 5:-1 6:-1 7:-1 8:-1 9:-1 10:-1 11:-1 
32768 0 32768 0 1:-0.666667 2:-0.999997 3:-1 4:-1 5:-1 6:-1 7:-1 8:-1 9:-1 10:-1 11:-1 
32768 0 32768 0 1:-0.666667 2:-0.999997 3:-1 4:-1 5:-1 6:-1 7:-1 8:-1 9:-1 10:-1 11:-1 
32768 0 32768 0 1:-0.666667 2:-0.999997 3:-1 4:-1 5:-1 6:-1 7:-1 8:-1 9:-1 10:-1 11:-1 
32768 0 32768 0 1:-0.666667 2:-0.999997 3:-1 4:-1 5:-1 6:-1 7:-1 8:-1 9:-1 10:-1 11:-1 
32768 0 32768 0 1:-0.666667 2:-0.999997 3:-1 4:-1 5:-1 6:-1 7:-1 8:-1 9:-1 10:-1 11:-1 
32768 0 32768 0 1:-0.666667 2:-0.999997 3:-1 4:-1 5:-1 6:-1 7:-1 8:-1 9:-1 10:-1 11:-1 
32768 0 32768 0 1:-0.666667 2:-0.999997 3:-1 4:-1 5:-1 6:-1 7:-1 8:-1 9:-1 10:-1 11:-1 
32768 0 32768 0 1:-0.666667 2:-0.999997 3:-1 4:-1 5:-1 6:-1 7:-1 8:-1 9:-1 10:-1 11:-1 
32768 0 32768 0 1:-0.666667 2:-0.999997 3:-1 4:-1 5:-1 6:-1 7:-1 8:-1 9:-1 10:-1 11:-1 
32768 0 32768 0 1:-0.666667 2:-0.999997 3:-1 4:-1 5:-1 6:-1 7:-1 8:-1 9:-1 10:-1 11:-1 
32768 0 32768 0 1:-0.666667 2:-0.999997 3:-1 4:-1 5:-1 6:-1 7:-1 8:-1 9:-1 10:-1 11:-1 
32768 0 32768 0 1:-0.666667 2:-0.999997 3:-1 4:-1 5:-1 6:-1 7:-1 8:-1 9:-1 10:-1 11:-1 
32768 0 32768 0 1:-0.666667 2:-0.999997 3:-1 4:-1 5:-1 6:-1 7:-1 8:-1 9:-1 10:-1 11:-1 
32768 0 32768 0 1:-0.666667 2:-0.999997 3:-1 4:-1 5:-1 6:-1 7:-1 8:-1 9:-1 10:-1 11:-1 
32768 0 32768 0 1:-0.666667 2:-0.999997 3:-1 4:-1 5:-1 6:-1 7:-1 8:-1 9:-1 10:-1 11:-1 
32768 0 32768 0 1:-0.666667 2:-0.999997 3:-1 4:-1 5:-1 6:-1 7:-1 8:-1 9:-1 10:-1 11:-1 
32768 0 32768 0 1:-0.666667 2:-0.999997 3:-1 4:-1 5:-1 6:-1 7:-1 8:-1 9:-1 10:-1 11:-1 
32768 0 32768 0 1:-0.666667 2:-0.999997 3:-1 4:-1 5:-1 6:-1 7:-1 8:-1 9:-1 10:-1 11:-1 
0 0 32768 32768 1:-0.333333 2:-0.999997 3:-0.999992 4:-0.999992 5:-1 6:-1 7:-1 8:-1 9:-1 10:-1 11:-1 
0 0 32768 32768 1:-0.333333 2:-0.999997 3:-0.999992 4:-0.999992 5:-1 6:-1 7:-1 8:-1 9:-1 10:-1 11:-1 
0 0 32768 32768 1:-0.333333 2:-0.999997 3:-0.999992 4:-0.999992 5:-1 6:-1 7:-1 8:-1 9:-1 10:-1 11:-1 
0 0 32768 32768 1:-0.333333 2:-0.999997 3:-0.999992 4:-0.999992 5:-1 6:-1 7:-1 8:-1 9:-1 10:-1 11:-1 
0 0 32768 32768 1:-0.333333 2:-0.999997 3:-0.999992 4:-0.999992 5:-1 6:-1 7:-1 8:-1 9:-1 10:-1 11:-1 
0 0 32768 32768 1:-0.333333 2:-0.999997 3:-0.999992 4:-0.999992 5:-1 6:-1 7:-1 8:-1 9:-1 10:-1 11:-1 
0 0 32768 32768 1:-0.333333 2:-0.999997 3:-0.999992 4:-0.999992 5:-1 6:-1 7:-1 8:-1 9:-1 10:-1 11:-1 
0 0 32768 32768 1:-0.333333 2:-0.999997 3:-0.999992 4:-0.999992 5:-1 6:-1 7:-1 8:-1 9:-1 10:-1 11:-1 
0 0 32768 32768 1:-0.333333 2:-0.999997 3:-0.999992 4:-0.999992 5:-1 6:-1 7:-1 8:-1 9:-1 10:-1 11:-1 
0 0 32768 32768 1:-0.333333 2:-0.999997 3:-0.999992 4:-0.999992 5:-1 6:-1 7:-1 8:-1 9:-1 10:-1 11:-1 
0 0 32768 32768 1:-0.333333 2:-0.999997 3:-0.999992 4:-0.999992 5:-1 6:-1 7:-1 8:-1 9:-1 10:-1 11:-1 
0 0 32768 32768 1:-0.333333 2:-0.999997 3:-0.999992 4:-0.999992 5:-1 6:-1 7:-1 8:-1 9:-1 10:-1 11:-1 
0 0 32768 32768 1:-0.333333 2:-0.999997 3:-0.999992 4:-0.999992 5:-1 6:-1 7:-1 8:-1 9:-1 10:-1 11:-1 
0 0 32768 32768 1:-0.333333 2:-0.999997 3:-0.999992 4:-0.999992 5:-1 6:-1 7:-1 8:-1 9:-1 10:-1 11:-1 
0 0 32768 32768 1:-0.333333 2:-0.999997 3:-0.999992 4:-0.999992 5:-1 6:-1 7:-1 8:-1 9:-1 10:-1 11:-1 
0 0 32768 32768 1:-0.333333 2:-0.999997 3:-0.999992 4:-0.999992 5:-1 6:-1 7:-1 8:-1 9:-1 10:-1 11:-1 
0 0 32768 32768 1:-0.333333 2:-0.999997 3:-0.999992 4:-0.999992 5:-1 6:-1 7:-1 8:-1 9:-1 10:-1 11:-1 
0 0 32768 32768 1:-0.333333 2:-0.999997 3:-0.999992 4:-0.999992 5:-1 6:-1 7:-1 8:-1 9:-1 10:-1 11:-1 
32768 0 32768 0 1:-0.666667 2:-0.999997 3:-1 4:-1 5:-1 6:-1 7:-1 8:-1 9:-1 10:-1 11:-1 
32768 0 32768 0 1:-0.666667 2:-0.999997 3:-1 4:-1 5:-1 6:-1 7:-1 8:-1 9:-1 10:-1 11:-1 
32768 0 32768 0 1:-0.666667 2:-0.999997 3:-1 4:-1 5:-1 6:-1 7:-1 8:-1 9:-1 10:-1 11:-1 
32768 0 32768 0 1:-0.666667 2:-0.999997 3:-1 4:-1 5:-1 6:-1 7:-1 8:-1 9:-1 10:-1 11:-1 
32768 0 32768 0 1:-0.666667 2:-0.999997 3:-1 4:-1 5:-1 6:-1 7:-1 8:-1 9:-1 10:-1 11:-1 
32768 0 32768 0 1:-0.666667 2:-0.999997 3:-1 4:-1 5:-1 6:-1 7:-1 8:-1 9:-1 10:-1 11:-1 
32768 0 32768 0 1:-0.666667 2:-0.999997 3:-1 4:-1 5:-1 6:-1 7:-1 8:-1 9:-1 10:-1 11:-1 
32768 0 32768 0 1:-0.666667 2:-0.999997 3:-1 4:-1 5:-1 6:-1 7:-1 8:-1 9:-1 10:-1 11:-1 
32768 0 32768 0 1:-0.666667 2:-0.999997 3:-1 4:-1 5:-1 6:-1 7:-1 8:-1 9:-1 10:-1 11:-1 
32768 0 32768 0 1:-0.666667 2:-0.999997 3:-1 4:-1 5:-1 6:-1 7:-1 8:-1 9:-1 10:-1 11:-1 
32768 0 32768 0 1:-0.666667 2:-0.999997 3:-1 4:-1 5:-1 6:-1 7:-1 8:-1 9:-1 10:-1 11:-1 
32768 0 32768 0 1:-0.666667 2:-0.999997 3:-1 4:-1 5:-1 6:-1 7:-1 8:-1 9:-1 10:-1 11:-1 
32768 0 32768 0 1:-0.666667 2:-0.999997 3:-1 4:-1 5:-1 6:-1 7:-1 8:-1 9:-1 10:-1 11:-1 
32768 0 32768 0 1:-0.666667 2:-0.999997 3:-1 4:-1 5:-1 6:-1 7:-1 8:-1 9:-1 10:-1 11:-1 
32768 0 32768 0 1:-0.666667 2:-0.999997 3:-1 4:-1 5:-1 6:-1 7:-1 8:-1 9:-1 10:-1 11:-1 
32768 0 32768 0 1:-0.666667 2:-0.999997 3:-1 4:-1 5:-1 6:-1 7:-1 8:-1 9:-1 10:-1 11:-1 
32768 0 32768 0 1:-0.666667 2:-0.999997 3:-1 4:-1 5:-1 6:-1 7:-1 8:-1 9:-1 10:-1 11:-1 
32768 0 32768 0 1:-0.666667 2:-0.999997 3:-1 4:-1 5:-1 6:-1 7:-1 8:-1 9:-1 10:-1 11:-1 
32768 0 32768 0 1:-0.666667 2:-0.999997 3:-1 4:-1 5:-1 6:-1 7:-1 8:-1 9:-1 10:-1 11:-1 
32768 0 32768 0 1:-0.666667 2:-0.999997 3:-1 4:-1 5:-1 6:-1 7:-1 8:-1 9:-1 10:-1 11:-1 
32768 0 32768 0 1:-0.666667 2:-0.999997 3:-1 4:-1 5:-1 6:-1 7:-1 8:-1 9:-1 10:-1 11:-1 
32768 0 32768 0 1:-0.666667 2:-0.999997 3:-1 4:-1 5:-1 6:-1 7:-1 8:-1 9:-1 10:-1 11:-1 
32768 0 32768 0 1:-0.666667 2:-0.999997 3:-1 4:-1 5:-1 6:-1 7:-1 8:-1 9:-1 10:-1 11:-1 
32768 0 32768 0 1:-0.666667 2:-0.999997 3:-1 4:-1 5:-1 6:-1 7:-1 8:-1 9:-1 10:-1 11:-1 
32768 0 32768 0 1:-0.666667 2:-0.999997 3:-1 4:-1 5:-1 6:-1 7:-1 8:-1 9:-1 10:-1 11:-1 
32768 0 32768 0 1:-0.666667 2:-0.999997 3:-1 4:-1 5:-1 6:-1 7:-1 8:-1 9:-1 10:-1 11:-1 
32768 0 32768 0 1:-0.666667 2:-0.999997 3:-1 4:-1 5:-1 6:-1 7:-1 8:-1 9:-1 10:-1 11:-1 
32768 0 32768 0 1:-0.666667 2:-0.999997 3:-1 4:-1 5:-1 6:-1 7:-1 8:-1 9:-1 10:-1 11:-1 
32768 0 32768 0 1:-0.666667 2:-0.999997 3:-1 4:-1 5:-1 6:-1 7:-1 8:-1 9:-1 10:-1 11:-1 
32768 0 32768 0 1:-0.666667 2:-0.999997 3:-1 4:-1 5:-1 6:-1 7:-1 8:-1 9:-1 10:-1 11:-1 
32768 0 32768 0 1:-0.666667 2:-0.999997 3:-1 4:-1 5:-1 6:-1 7:-1 8:-1 9:-1 10:-1 11:-1 
32768 0 32768 0 1:-0.666667 2:-0.999997 3:-1 4:-1 5:-1 6:-1 7:-1 8:-1 9:-1 10:-1 11:-1 
32768 0 32768 0 1:-0.666667 2:-0.999997 3:-1 4:-1 5:-1 6:-1 7:-1 8:-1 9:-1 10:-1 11:-1 
32768 0 32768 0 1:-0.666667 2:-0.999997 3:-1 4:-1 5:-1 6:-1 7:-1 8:-1 9:-1 10:-1 11:-1 
32768 0 32768 0 1:-0.666667 2:-0.999997 3:-1 4:-1 5:-1 6:-1 7:-1 8:-1 9:-1 10:-1 11:-1 
32768 0 32768 4.066146790423498 1:-0.666667 2:-0.999997 3:-1 4:-1 5:-1 6:-1 7:-1 8:-1 9:-1 10:-1 11:-1 
32768 0 32768 32768 1:-0.666667 2:-0.999997 3:-1 4:-1 5:-1 6:-1 7:-1 8:-1 9:-1 10:-1 11:-1 
32768 0 32768 32768 1:-0.666667 2:-0.999997 3:-1 4:-1 5:-1 6:-1 7:-1 8:-1 9:-1 10:-1 11:-1 
32768 0 32768 32768 1:-0.666667 2:-0.999997 3:-1 4:-1 5:-1 6:-1 7:-1 8:-1 9:-1 10:-1 11:-1 
32768 0 32768 32768 1:-0.666667 2:-0.999997 3:-1 4:-1 5:-1 6:-1 7:-1 8:-1 9:-1 10:-1 11:-1 
32768 0 32768 32768 1:-0.666667 2:-0.999997 3:-1 4:-1 5:-1 6:-1 7:-1 8:-1 9:-1 10:-1 11:-1 
32768 0 32768 32768 1:-0.666667 2:-0.999997 3:-1 4:-1 5:-1 6:-1 7:-1 8:-1 9:-1 10:-1 11:-1 
32768 0 32768 32768 1:-0.666667 2:-0.999997 3:-1 4:-1 5:-1 6:-1 7:-1 8:-1 9:-1 10:-1 11:-1 
32768 0 32768 32768 1:-0.666667 2:-0.999997 3:-1 4:-1 5:-1 6:-1 7:-1 8:-1 9:-1 10:-1 11:-1 
32768 0 32768 32768 1:-0.666667 2:-0.999997 3:-1 4:-1 5:-1 6:-1 7:-1 8:-1 9:-1 10:-1 11:-1 
32768 0 32768 32768 1:-0.666667 2:-0.999997 3:-1 4:-1 5:-1 6:-1 7:-1 8:-1 9:-1 10:-1 11:-1 
32768 0 32768 32768 1:-0.666667 2:-0.999997 3:-1 4:-1 5:-1 6:-1 7:-1 8:-1 9:-1 10:-1 11:-1 
32768 0 32768 32768 1:-0.666667 2:-0.999997 3:-1 4:-1 5:-1 6:-1 7:-1 8:-1 9:-1 10:-1 11:-1 
32768 0 32768 32768 1:-0.666667 2:-0.999997 3:-1 4:-1 5:-1 6:-1 7:-1 8:-1 9:-1 10:-1 11:-1 
32768 0 32768 32768 1:-0.666667 2:-0.999997 3:-1 4:-1 5:-1 6:-1 7:-1 8:-1 9:-1 10:-1 11:-1 
32768 0 32768 32768 1:-0.666667 2:-0.999997 3:-1 4:-1 5:-1 6:-1 7:-1 8:-1 9:-1 10:-1 11:-1 
32768 0 32768 32768 1:-0.666667 2:-0.999997 3:-1 4:-1 5:-1 6:-1 7:-1 8:-1 9:-1 10:-1 11:-1 
32768 0 32768 32768 1:-0.666667 2:-0.999997 3:-1 4:-1 5:-1 6:-1 7:-1 8:-1 9:-1 10:-1 11:-1 
32768 0 32768 32768 1:-0.666667 2:-0.999997 3:-1 4:-1 5:-1 6:-1 7:-1 8:-1 9:-1 10:-1 11:-1 
32768 0 32768 32768 1:-0.666667 2:-0.999997 3:-1 4:-1 5:-1 6:-1 7:-1 8:-1 9:-1 10:-1 11:-1 
32768 0 32768 32768 1:-0.666667 2:-0.999997 3:-1 4:-1 5:-1 6:-1 7:-1 8:-1 9:-1 10:-1 11:-1 
32768 0 32768 32768 1:-0.666667 2:-0.999997 3:-1 4:-1 5:-1 6:-1 7:-1 8:-1 9:-1 10:-1 11:-1 
32768 0 32768 32768 1:-0.666667 2:-0.999997 3:-1 4:-1 5:-1 6:-1 7:-1 8:-1 9:-1 10:-1 11:-1 
32768 0 32768 32768 1:-0.666667 2:-0.999997 3:-1 4:-1 5:-1 6:-1 7:-1 8:-1 9:-1 10:-1 11:-1 
32768 0 32768 32768 1:-0.666667 2:-0.999997 3:-1 4:-1 5:-1 6:-1 7:-1 8:-1 9:-1 10:-1 11:-1 
32768 0 32768 32768 1:-0.666667 2:-0.999997 3:-1 4:-1 5:-1 6:-1 7:-1 8:-1 9:-1 10:-1 11:-1 
32768 0 32768 32768 1:-0.666667 2:-0.999997 3:-1 4:-1 5:-1 6:-1 7:-1 8:-1 9:-1 10:-1 11:-1 
32768 0 32768 32768 1:-0.666667 2:-0.999997 3:-1 4:-1 5:-1 6:-1 7:-1 8:-1 9:-1 10:-1 11:-1 
32768 0 32768 32768 1:-0.666667 2:-0.999997 3:-1 4:-1 5:-1 6:-1 7:-1 8:-1 9:-1 10:-1 11:-1 
32768 0 32768 32768 1:-0.666667 2:-0.999997 3:-1 4:-1 5:-1 6:-1 7:-1 8:-1 9:-1 10:-1 11:-1 
32768 0 32768 32768 1:-0.666667 2:-0.999997 3:-1 4:-1 5:-1 6:-1 7:-1 8:-1 9:-1 10:-1 11:-1 
32768 0 32768 32768 1:-0.666667 2:-0.999997 3:-1 4:-1 5:-1 6:-1 7:-1 8:-1 9:-1 10:-1 11:-1 
32768 0 32768 32768 1:-0.666667 2:-0.999997 3:-1 4:-1 5:-1 6:-1 7:-1 8:-1 9:-1 10:-1 11:-1 
32768 0 32768 32768 1:-0.666667 2:-0.999997 3:-1 4:-1 5:-1 6:-1 7:-1 8:-1 9:-1 10:-1 11:-1 
32768 0 32768 32768 1:-0.666667 2:-0.999997 3:-1 4:-1 5:-1 6:-1 7:-1 8:-1 9:-1 10:-1 11:-1 
32768 0 32767.99715316612 32768 1:-0.666667 2:-0.999997 3:-1 4:-1 5:-1 6:-1 7:-1 8:-1 9:-1 10:-1 11:-1 
32768 0 32768 32768 1:-0.666667 2:-0.999997 3:-1 4:-1 5:-1 6:-1 7:-1 8:-1 9:-1 10:-1 11:-1 
32768 0 32768 32768 1:-0.666667 2:-0.999997 3:-1 4:-1 5:-1 6:-1 7:-1 8:-1 9:-1 10:-1 11:-1 
32768 0 32768 32768 1:-0.666667 2:-0.999997 3:-1 4:-1 5:-1 6:-1 7:-1 8:-1 9:-1 10:-1 11:-1 
32768 0 32768 32768 1:-0.666667 2:-0.999997 3:-1 4:-1 5:-1 6:-1 7:-1 8:-1 9:-1 10:-1 11:-1 
32768 0 32768 32768 1:-0.666667 2:-0.999997 3:-1 4:-1 5:-1 6:-1 7:-1 8:-1 9:-1 10:-1 11:-1 
32768 0 32768 32768 1:-0.666667 2:-0.999997 3:-1 4:-1 5:-1 6:-1 7:-1 8:-1 9:-1 10:-1 11:-1 
32768 0 32768 32768 1:-0.666667 2:-0.999997 3:-1 4:-1 5:-1 6:-1 7:-1 8:-1 9:-1 10:-1 11:-1 
32768 0 32768 32768 1:-0.666667 2:-0.999997 3:-1 4:-1 5:-1 6:-1 7:-1 8:-1 9:-1 10:-1 11:-1 
32768 0 32768 32768 1:-0.666667 2:-0.999997 3:-1 4:-1 5:-1 6:-1 7:-1 8:-1 9:-1 10:-1 11:-1 
32768 0 32768 32768 1:-0.666667 2:-0.999997 3:-1 4:-1 5:-1 6:-1 7:-1 8:-1 9:-1 10:-1 11:-1 
32768 0 32768 32768 1:-0.666667 2:-0.999997 3:-1 4:-1 5:-1 6:-1 7:-1 8:-1 9:-1 10:-1 11:-1 
32768 0 32768 32768 1:-0.666667 2:-0.999997 3:-1 4:-1 5:-1 6:-1 7:-1 8:-1 9:-1 10:-1 11:-1 
32768 0 32768 32768 1:-0.666667 2:-0.999997 3:-1 4:-1 5:-1 6:-1 7:-1 8:-1 9:-1 10:-1 11:-1 
32768 0 32768 32768 1:-0.666667 2:-0.999997 3:-1 4:-1 5:-1 6:-1 7:-1 8:-1 9:-1 10:-1 11:-1 
32768 0 32768 32768 1:-0.666667 2:-0.999997 3:-1 4:-1 5:-1 6:-1 7:-1 8:-1 9:-1 10:-1 11:-1 
32768 0 32768 32768 1:-0.666667 2:-0.999997 3:-1 4:-1 5:-1 6:-1 7:-1 8:-1 9:-1 10:-1 11:-1 
32768 0 32768 32768 1:-0.666667 2:-0.999997 3:-1 4:-1 5:-1 6:-1 7:-1 8:-1 9:-1 10:-1 11:-1 
32768 0 32768 32768 1:-0.666667 2:-0.999997 3:-1 4:-1 5:-1 6:-1 7:-1 8:-1 9:-1 10:-1 11:-1 
32768 0 32768 32768 1:-0.666667 2:-0.999997 3:-1 4:-1 5:-1 6:-1 7:-1 8:-1 9:-1 10:-1 11:-1 
32768 0 32768 32768 1:-0.666667 2:-0.999997 3:-1 4:-1 5:-1 6:-1 7:-1 8:-1 9:-1 10:-1 11:-1 
32768 0 32768 32768 1:-0.666667 2:-0.999997 3:-1 4:-1 5:-1 6:-1 7:-1 8:-1 9:-1 10:-1 11:-1 
32768 0 32768 32768 1:-0.666667 2:-0.999997 3:-1 4:-1 5:-1 6:-1 7:-1 8:-1 9:-1 10:-1 11:-1 
32768 0 32768 32768 1:-0.666667 2:-0.999997 3:-1 4:-1 5:-1 6:-1 7:-1 8:-1 9:-1 10:-1 11:-1 
32768 0 32768 32768 1:-0.666667 2:-0.999997 3:-1 4:-1 5:-1 6:-1 7:-1 8:-1 9:-1 10:-1 11:-1 
32768 0 32768 32768 1:-0.666667 2:-0.999997 3:-1 4:-1 5:-1 6:-1 7:-1 8:-1 9:-1 10:-1 11:-1 
32768 0 32768 32768 1:-0.666667 2:-0.999997 3:-1 4:-1 5:-1 6:-1 7:-1 8:-1 9:-1 10:-1 11:-1 
32768 0 32768 32768 1:-0.666667 2:-0.999997 3:-1 4:-1 5:-1 6:-1 7:-1 8:-1 9:-1 10:-1 11:-1 
32768 0 32768 32768 1:-0.666667 2:-0.999997 3:-1 4:-1 5:-1 6:-1 7:-1 8:-1 9:-1 10:-1 11:-1 
32768 0 32768 32768 1:-0.666667 2:-0.999997 3:-1 4:-1 5:-1 6:-1 7:-1 8:-1 9:-1 10:-1 11:-1 
32768 0 32768 32768 1:-0.666667 2:-0.999997 3:-1 4:-1 5:-1 6:-1 7:-1 8:-1 9:-1 10:-1 11:-1 
32768 0 32768 32768 1:-0.666667 2:-0.999997 3:-1 4:-1 5:-1 6:-1 7:-1 8:-1 9:-1 10:-1 11:-1 
32768 0 32768 32768 1:-0.666667 2:-0.999997 3:-1 4:-1 5:-1 6:-1 7:-1 8:-1 9:-1 10:-1 11:-1 
32768 0 32768 32768 1:-0.666667 2:-0.999997 3:-1 4:-1 5:-1 6:-1 7:-1 8:-1 9:-1 10:-1 11:-1 
32768 0 32768 32768 1:-0.666667 2:-0.999997 3:-1 4:-1 5:-1 6:-1 7:-1 8:-1 9:-1 10:-1 11:-1 
32768 0 32768 32768 1:-0.666667 2:-0.999997 3:-1 4:-1 5:-1 6:-1 7:-1 8:-1 9:-1 10:-1 11:-1 
32768 0 32768 32768 1:-0.666667 2:-0.999997 3:-1 4:-1 5:-1 6:-1 7:-1 8:-1 9:-1 10:-1 11:-1 
32768 0 32768 32768 1:-0.666667 2:-0.999997 3:-1 4:-1 5:-1 6:-1 7:-1 8:-1 9:-1 10:-1 11:-1 
32768 0 32768 32768 1:-0.666667 2:-0.999997 3:-1 4:-1 5:-1 6:-1 7:-1 8:-1 9:-1 10:-1 11:-1 
32768 0 32768 32768 1:-0.666667 2:-0.999997 3:-1 4:-1 5:-1 6:-1 7:-1 8:-1 9:-1 10:-1 11:-1 
32768 0 32768 32768 1:-0.666667 2:-0.999997 3:-1 4:-1 5:-1 6:-1 7:-1 8:-1 9:-1 10:-1 11:-1 
32768 0 32768 32768 1:-0.666667 2:-0.999997 3:-1 4:-1 5:-1 6:-1 7:-1 8:-1 9:-1 10:-1 11:-1 
32768 0 32768 32768 1:-0.666667 2:-0.999997 3:-1 4:-1 5:-1 6:-1 7:-1 8:-1 9:-1 10:-1 11:-1 
32768 0 32768 32768 1:-0.666667 2:-0.999997 3:-1 4:-1 5:-1 6:-1 7:-1 8:-1 9:-1 10:-1 11:-1 
32768 0 32768 32768 1:-0.666667 2:-0.999997 3:-1 4:-1 5:-1 6:-1 7:-1 8:-1 9:-1 10:-1 11:-1 
32768 0 32768 32768 1:-0.666667 2:-0.999997 3:-1 4:-1 5:-1 6:-1 7:-1 8:-1 9:-1 10:-1 11:-1 
32768 0 32768 32768 1:-0.666667 2:-0.999997 3:-1 4:-1 5:-1 6:-1 7:-1 8:-1 9:-1 10:-1 11:-1 
32768 0 32768 32768 1:-0.666667 2:-0.999997 3:-1 4:-1 5:-1 6:-1 7:-1 8:-1 9:-1 10:-1 11:-1 
32768 0 32768 32768 1:-0.666667 2:-0.999997 3:-1 4:-1 5:-1 6:-1 7:-1 8:-1 9:-1 10:-1 11:-1 
32768 0 32768 32768 1:-0.666667 2:-0.999997 3:-1 4:-1 5:-1 6:-1 7:-1 8:-1 9:-1 10:-1 11:-1 
32768 0 32768 32768 1:-0.666667 2:-0.999997 3:-1 4:-1 5:-1 6:-1 7:-1 8:-1 9:-1 10:-1 11:-1 
32768 0 32768 32768 1:-0.666667 2:-0.999997 3:-1 4:-1 5:-1 6:-1 7:-1 8:-1 9:-1 10:-1 11:-1 
32768 0 32768 32768 1:-0.666667 2:-0.999997 3:-1 4:-1 5:-1 6:-1 7:-1 8:-1 9:-1 10:-1 11:-1 
32768 0 32768 32768 1:-0.666667 2:-0.999997 3:-1 4:-1 5:-1 6:-1 7:-1 8:-1 9:-1 10:-1 11:-1 
32768 0 32768 32768 1:-0.666667 2:-0.999997 3:-1 4:-1 5:-1 6:-1 7:-1 8:-1 9:-1 10:-1 11:-1 
32768 0 32768 32768 1:-0.666667 2:-0.999997 3:-1 4:-1 5:-1 6:-1 7:-1 8:-1 9:-1 10:-1 11:-1 
32768 0 32768 32768 1:-0.666667 2:-0.999997 3:-1 4:-1 5:-1 6:-1 7:-1 8:-1 9:-1 10:-1 11:-1 
32768 0 32768 32768 1:-0.666667 2:-0.999997 3:-1 4:-1 5:-1 6:-1 7:-1 8:-1 9:-1 10:-1 11:-1 
32768 0 32768 32768 1:-0.666667 2:-0.999997 3:-1 4:-1 5:-1 6:-1 7:-1 8:-1 9:-1 10:-1 11:-1 
32768 0 32768 32768 1:-0.666667 2:-0.999997 3:-1 4:-1 5:-1 6:-1 7:-1 8:-1 9:-1 10:-1 11:-1 
32768 0 32768 32768 1:-0.666667 2:-0.999997 3:-1 4:-1 5:-1 6:-1 7:-1 8:-1 9:-1 10:-1 11:-1 
32768 0 32768 32768 1:-0.666667 2:-0.999997 3:-1 4:-1 5:-1 6:-1 7:-1 8:-1 9:-1 10:-1 11:-1 
32768 0 32768 32768 1:-0.666667 2:-0.999997 3:-1 4:-1 5:-1 6:-1 7:-1 8:-1 9:-1 10:-1 11:-1 
32768 0 32768 32768 1:-0.666667 2:-0.999997 3:-1 4:-1 5:-1 6:-1 7:-1 8:-1 9:-1 10:-1 11:-1 
32768 0 32768 32768 1:-0.666667 2:-0.999997 3:-1 4:-1 5:-1 6:-1 7:-1 8:-1 9:-1 10:-1 11:-1 
32768 0 32768 32768 1:-0.666667 2:-0.999997 3:-1 4:-1 5:-1 6:-1 7:-1 8:-1 9:-1 10:-1 11:-1 
32768 0 32768 32768 1:-0.666667 2:-0.999997 3:-1 4:-1 5:-1 6:-1 7:-1 8:-1 9:-1 10:-1 11:-1 
32768 0 32768 32768 1:-0.666667 2:-0.999997 3:-1 4:-1 5:-1 6:-1 7:-1 8:-1 9:-1 10:-1 11:-1 
32768 0 32768 32768 1:-0.666667 2:-0.999997 3:-1 4:-1 5:-1 6:-1 7:-1 8:-1 9:-1 10:-1 11:-1 
32768 0 32768 32768 1:-0.666667 2:-0.999997 3:-1 4:-1 5:-1 6:-1 7:-1 8:-1 9:-1 10:-1 11:-1 
32768 0 32768 32768 1:-0.666667 2:-0.999997 3:-1 4:-1 5:-1 6:-1 7:-1 8:-1 9:-1 10:-1 11:-1 
32768 0 32768 32768 1:-0.666667 2:-0.999997 3:-1 4:-1 5:-1 6:-1 7:-1 8:-1 9:-1 10:-1 11:-1 
32768 0 32768 32768 1:-0.666667 2:-0.999997 3:-1 4:-1 5:-1 6:-1 7:-1 8:-1 9:-1 10:-1 11:-1 
32768 0 32768 32768 1:-0.666667 2:-0.999997 3:-1 4:-1 5:-1 6:-1 7:-1 8:-1 9:-1 10:-1 11:-1 
32768 0 32768 32768 1:-0.666667 2:-0.999997 3:-1 4:-1 5:-1 6:-1 7:-1 8:-1 9:-1 10:-1 11:-1 
32768 0 32768 32768 1:-0.666667 2:-0.999997 3:-1 4:-1 5:-1 6:-1 7:-1 8:-1 9:-1 10:-1 11:-1 
32768 0 32768 32768 1:-0.666667 2:-0.999997 3:-1 4:-1 5:-1 6:-1 7:-1 8:-1 9:-1 10:-1 11:-1 
32768 0 32768 32768 1:-0.666667 2:-0.999997 3:-1 4:-1 5:-1 6:-1 7:-1 8:-1 9:-1 10:-1 11:-1 
32768 0 32768 32768 1:-0.666667 2:-0.999997 3:-1 4:-1 5:-1 6:-1 7:-1 8:-1 9:-1 10:-1 11:-1 
32768 0 32768 32768 1:-0.666667 2:-0.999997 3:-1 4:-1 5:-1 6:-1 7:-1 8:-1 9:-1 10:-1 11:-1 
32768 0 32768 32768 1:-0.666667 2:-0.999997 3:-1 4:-1 5:-1 6:-1 7:-1 8:-1 9:-1 10:-1 11:-1 
32768 0 32768 32768 1:-0.666667 2:-0.999997 3:-1 4:-1 5:-1 6:-1 7:-1 8:-1 9:-1 10:-1 11:-1 
32768 0 32768 32768 1:-0.666667 2:-0.999997 3:-1 4:-1 5:-1 6:-1 7:-1 8:-1 9:-1 10:-1 11:-1 
32768 0 32768 32768 1:-0.666667 2:-0.999997 3:-1 4:-1 5:-1 6:-1 7:-1 8:-1 9:-1 10:-1 11:-1 
32768 0 32768 32768 1:-0.666667 2:-0.999997 3:-1 4:-1 5:-1 6:-1 7:-1 8:-1 9:-1 10:-1 11:-1 
32768 0 32768 32768 1:-0.666667 2:-0.999997 3:-1 4:-1 5:-1 6:-1 7:-1 8:-1 9:-1 10:-1 11:-1 
32768 0 32768 32768 1:-0.666667 2:-0.999997 3:-1 4:-1 5:-1 6:-1 7:-1 8:-1 9:-1 10:-1 11:-1 
32768 0 32768 32768 1:-0.666667 2:-0.999997 3:-1 4:-1 5:-1 6:-1 7:-1 8:-1 9:-1 10:-1 11:-1 
32768 0 32768 32768 1:-0.666667 2:-0.999997 3:-1 4:-1 5:-1 6:-1 7:-1 8:-1 9:-1 10:-1 11:-1 
32768 0 32768 32768 1:-0.666667 2:-0.999997 3:-1 4:-1 5:-1 6:-1 7:-1 8:-1 9:-1 10:-1 11:-1 
32768 0 32768 32768 1:-0.666667 2:-0.999997 3:-1 4:-1 5:-1 6:-1 7:-1 8:-1 9:-1 10:-1 11:-1 
32768 0 32768 32768 1:-0.666667 2:-0.999997 3:-1 4:-1 5:-1 6:-1 7:-1 8:-1 9:-1 10:-1 11:-1 
32768 0 32768 32768 1:-0.666667 2:-0.999997 3:-1 4:-1 5:-1 6:-1 7:-1 8:-1 9:-1 10:-1 11:-1 
32768 0 32768 32768 1:-0.666667 2:-0.999997 3:-1 4:-1 5:-1 6:-1 7:-1 8:-1 9:-1 10:-1 11:-1 
32768 0 32768 32768 1:-0.666667 2:-0.999997 3:-1 4:-1 5:-1 6:-1 7:-1 8:-1 9:-1 10:-1 11:-1 
32768 0 32768 32768 1:-0.666667 2:-0.999997 3:-1 4:-1 5:-1 6:-1 7:-1 8:-1 9:-1 10:-1 11:-1 
32768 0 32768 32768 1:-0.666667 2:-0.999997 3:-1 4:-1 5:-1 6:-1 7:-1 8:-1 9:-1 10:-1 11:-1 
32768 0 32768 32768 1:-0.666667 2:-0.999997 3:-1 4:-1 5:-1 6:-1 7:-1 8:-1 9:-1 10:-1 11:-1 
32768 0 32768 32768 1:-0.666667 2:-0.999997 3:-1 4:-1 5:-1 6:-1 7:-1 8:-1 9:-1 10:-1 11:-1 
32768 0 32768 32768 1:-0.666667 2:-0.999997 3:-1 4:-1 5:-1 6:-1 7:-1 8:-1 9:-1 10:-1 11:-1 
32768 0 32768 32768 1:-0.666667 2:-0.999997 3:-1 4:-1 5:-1 6:-1 7:-1 8:-1 9:-1 10:-1 11:-1 
32768 0 32768 32768 1:-0.666667 2:-0.999997 3:-1 4:-1 5:-1 6:-1 7:-1 8:-1 9:-1 10:-1 11:-1 
32768 0 32768 32768 1:-0.666667 2:-0.999997 3:-1 4:-1 5:-1 6:-1 7:-1 8:-1 9:-1 10:-1 11:-1 
32768 0 32768 32768 1:-0.666667 2:-0.999997 3:-1 4:-1 5:-1 6:-1 7:-1 8:-1 9:-1 10:-1 11:-1 
32768 0 32768 32768 1:-0.666667 2:-0.999997 3:-1 4:-1 5:-1 6:-1 7:-1 8:-1 9:-1 10:-1 11:-1 
32768 0 32768 32768 1:-0.666667 2:-0.999997 3:-1 4:-1 5:-1 6:-1 7:-1 8:-1 9:-1 10:-1 11:-1 
32768 0 32768 32768 1:-0.666667 2:-0.999997 3:-1 4:-1 5:-1 6:-1 7:-1 8:-1 9:-1 10:-1 11:-1 
32768 0 32768 32768 1:-0.666667 2:-0.999997 3:-1 4:-1 5:-1 6:-1 7:-1 8:-1 9:-1 10:-1 11:-1 
32768 0 32768 32768 1:-0.666667 2:-0.999997 3:-1 4:-1 5:-1 6:-1 7:-1 8:-1 9:-1 10:-1 11:-1 
32768 0 32768 32768 1:-0.666667 2:-0.999997 3:-1 4:-1 5:-1 6:-1 7:-1 8:-1 9:-1 10:-1 11:-1 
32768 0 32768 32768 1:-0.666667 2:-0.999997 3:-1 4:-1 5:-1 6:-1 7:-1 8:-1 9:-1 10:-1 11:-1 
32768 0 32768 32768 1:-0.666667 2:-0.999997 3:-1 4:-1 5:-1 6:-1 7:-1 8:-1 9:-1 10:-1 11:-1 
32768 0 32768 32768 1:-0.666667 2:-0.999997 3:-1 4:-1 5:-1 6:-1 7:-1 8:-1 9:-1 10:-1 11:-1 
32768 0 32768 32768 1:-0.666667 2:-0.999997 3:-1 4:-1 5:-1 6:-1 7:-1 8:-1 9:-1 10:-1 11:-1 
32768 0 32768 32768 1:-0.666667 2:-0.999997 3:-1 4:-1 5:-1 6:-1 7:-1 8:-1 9:-1 10:-1 11:-1 
32768 0 32768 32768 1:-0.666667 2:-0.999997 3:-1 4:-1 5:-1 6:-1 7:-1 8:-1 9:-1 10:-1 11:-1 
32768 0 32768 32768 1:-0.666667 2:-0.999997 3:-1 4:-1 5:-1 6:-1 7:-1 8:-1 9:-1 10:-1 11:-1 
32768 0 32768 32768 1:-0.666667 2:-0.999997 3:-1 4:-1 5:-1 6:-1 7:-1 8:-1 9:-1 10:-1 11:-1 
32768 0 32768 32768 1:-0.666667 2:-0.999997 3:-1 4:-1 5:-1 6:-1 7:-1 8:-1 9:-1 10:-1 11:-1 
32768 0 32768 32768 1:-0.666667 2:-0.999997 3:-1 4:-1 5:-1 6:-1 7:-1 8:-1 9:-1 10:-1 11:-1 
32768 0 32768 32768 1:-0.666667 2:-0.999997 3:-1 4:-1 5:-1 6:-1 7:-1 8:-1 9:-1 10:-1 11:-1 
32768 0 32768 32768 1:-0.666667 2:-0.999997 3:-1 4:-1 5:-1 6:-1 7:-1 8:-1 9:-1 10:-1 11:-1 
32768 0 32768 32768 1:-0.666667 2:-0.999997 3:-1 4:-1 5:-1 6:-1 7:-1 8:-1 9:-1 10:-1 11:-1 
32768 0 32768 32768 1:-0.666667 2:-0.999997 3:-1 4:-1 5:-1 6:-1 7:-1 8:-1 9:-1 10:-1 11:-1 
32768 0 32768 32768 1:-0.666667 2:-0.999997 3:-1 4:-1 5:-1 6:-1 7:-1 8:-1 9:-1 10:-1 11:-1 
32768 0 32768 32768 1:-0.666667 2:-0.999997 3:-1 4:-1 5:-1 6:-1 7:-1 8:-1 9:-1 10:-1 11:-1 
32768 0 32768 32768 1:-0.666667 2:-0.999997 3:-1 4:-1 5:-1 6:-1 7:-1 8:-1 9:-1 10:-1 11:-1 
32768 0 32768 32768 1:-0.666667 2:-0.999997 3:-1 4:-1 5:-1 6:-1 7:-1 8:-1 9:-1 10:-1 11:-1 
32768 0 32768 32768 1:-0.666667 2:-0.999997 3:-1 4:-1 5:-1 6:-1 7:-1 8:-1 9:-1 10:-1 11:-1 
32768 0 32768 32768 1:-0.666667 2:-0.999997 3:-1 4:-1 5:-1 6:-1 7:-1 8:-1 9:-1 10:-1 11:-1 
32768 0 32768 32768 1:-0.666667 2:-0.999997 3:-1 4:-1 5:-1 6:-1 7:-1 8:-1 9:-1 10:-1 11:-1 
32768 0 32768 32768 1:-0.666667 2:-0.999997 3:-1 4:-1 5:-1 6:-1 7:-1 8:-1 9:-1 10:-1 11:-1 
32768 0 32768 32768 1:-0.666667 2:-0.999997 3:-1 4:-1 5:-1 6:-1 7:-1 8:-1 9:-1 10:-1 11:-1 
32768 0 32768 32768 1:-0.666667 2:-0.999997 3:-1 4:-1 5:-1 6:-1 7:-1 8:-1 9:-1 10:-1 11:-1 
32768 0 32768 32768 1:-0.666667 2:-0.999997 3:-1 4:-1 5:-1 6:-1 7:-1 8:-1 9:-1 10:-1 11:-1 
32768 0 32768 32768 1:-0.666667 2:-0.999997 3:-1 4:-1 5:-1 6:-1 7:-1 8:-1 9:-1 10:-1 11:-1 
32768 0 32768 32768 1:-0.666667 2:-0.999997 3:-1 4:-1 5:-1 6:-1 7:-1 8:-1 9:-1 10:-1 11:-1 
32768 0 32768 32768 1:-0.666667 2:-0.999997 3:-1 4:-1 5:-1 6:-1 7:-1 8:-1 9:-1 10:-1 11:-1 
32768 0 32768 32768 1:-0.666667 2:-0.999997 3:-1 4:-1 5:-1 6:-1 7:-1 8:-1 9:-1 10:-1 11:-1 
32768 0 32768 32768 1:-0.666667 2:-0.999997 3:-1 4:-1 5:-1 6:-1 7:-1 8:-1 9:-1 10:-1 11:-1 
32768 0 32768 32768 1:-0.666667 2:-0.999997 3:-1 4:-1 5:-1 6:-1 7:-1 8:-1 9:-1 10:-1 11:-1 
32768 0 32768 32768 1:-0.666667 2:-0.999997 3:-1 4:-1 5:-1 6:-1 7:-1 8:-1 9:-1 10:-1 11:-1 
32768 0 32768 32768 1:-0.666667 2:-0.999997 3:-1 4:-1 5:-1 6:-1 7:-1 8:-1 9:-1 10:-1 11:-1 
32768 0 32768 32768 1:-0.666667 2:-0.999997 3:-1 4:-1 5:-1 6:-1 7:-1 8:-1 9:-1 10:-1 11:-1 
32768 0 32768 32768 1:-0.666667 2:-0.999997 3:-1 4:-1 5:-1 6:-1 7:-1 8:-1 9:-1 10:-1 11:-1 
32768 0 32768 32768 1:-0.666667 2:-0.999997 3:-1 4:-1 5:-1 6:-1 7:-1 8:-1 9:-1 10:-1 11:-1 
32768 0 32768 32768 1:-0.666667 2:-0.999997 3:-1 4:-1 5:-1 6:-1 7:-1 8:-1 9:-1 10:-1 11:-1 
