svm_type c_svc
kernel_type rbf
gamma 0.0078125
nr_class 5
total_sv 15975
rho 0 0.501868 1 0.419139 -0.460312 1 1 -1.16306 -0.10918 0.419139
label 1 2 3 4 5
nr_sv 4885 935 1561 6189 2405
SV
0 0 2 0 1:-0.666667 
0 0 2 0 1:-0.666667 
0 0 2 0 1:-0.666667 
0 0 2 0 1:-0.666667 
0 0 2 0 1:-0.666667 
0 0 2 0 1:-0.666667 
0 0 2 0 1:-0.666667 
0 0 2 0 1:-0.666667 
0 0 2 0 1:-0.666667 
0 0 2 0 1:-0.666667 
0 0 2 0 1:-0.666667 
0 0 2 0 1:-0.666667 
0 0 2 0 1:-0.666667 
0 0 2 0 1:-0.666667 
0 0 2 0 1:-0.666667 
0 0 2 0 1:-0.666667 
0 0 2 0 1:-0.666667 
0 0 2 0 1:-0.666667 
0 0 2 0 1:-0.666667 
0 0 2 0 1:-0.666667 
0 0 2 0 1:-0.666667 
0 0 2 0 1:-0.666667 
0 0 2 0 1:-0.666667 
0 0 2 0 1:-0.666667 
0 0 2 0 1:-0.666667 
0 0 2 0 1:-0.666667 
0 0 2 0 1:-0.666667 
0 0 2 0 1:-0.666667 
0 0 2 0 1:-0.666667 
0 0 2 0 1:-0.666667 
0 0 2 0 1:-0.666667 
0 0 2 0 1:-0.666667 
0 0 2 0 1:-0.666667 
0 0 2 0 1:-0.666667 
0 0 2 0 1:-0.666667 
0 0 2 0 1:-0.666667 
0 0 2 0 1:-0.666667 
0 0 2 0 1:-0.666667 
0 0 2 0 1:-0.666667 
0 0 2 0 1:-0.666667 
0 0 2 0 1:-0.666667 
0 0 2 0 1:-0.666667 
0 0 2 0 1:-0.666667 
0 0 2 0 1:-0.666667 
0 0 2 0 1:-0.666667 
0 0 2 0 1:-0.666667 
0 0 2 0 1:-0.666667 
0 0 2 0 1:-0.666667 
0 0 2 0 1:-0.666667 
0 0 2 0 1:-0.666667 
0 0 2 0 1:-0.666667 
0 0 2 0 1:-0.666667 
0 0 2 0 1:-0.666667 
0 0 2 0 1:-0.666667 
0 0 2 0 1:-0.666667 
0 0 2 0 1:-0.666667 
0 0 2 0 1:-0.666667 
0 0 2 0 1:-0.666667 
0 0 2 0 1:-0.666667 
0 0 2 0 1:-0.666667 
0 0 2 0 1:-0.666667 
0 0 2 0 1:-0.666667 
0 0 2 0 1:-0.666667 
0 0 2 0 1:-0.666667 
0 0 2 0 1:-0.666667 
0 0 2 0 1:-0.666667 
0 0 2 0 1:-0.666667 
0 0 2 0 1:-0.666667 
0 0 2 0 1:-0.666667 
0 0 2 0 1:-0.666667 
0 0 2 0 1:-0.666667 
0 0 2 0 1:-0.666667 
0 0 2 0 1:-0.666667 
0 0 2 0 1:-0.666667 
0 0 2 0 1:-0.666667 
0 0 2 0 1:-0.666667 
0 0 2 0 1:-0.666667 
0 0 2 0 1:-0.666667 
0 0 2 0 1:-0.666667 
0 0 2 0 1:-0.666667 
0 0 2 0 1:-0.666667 
0 0 2 0 1:-0.666667 
0 0 2 0 1:-0.666667 
0 0 2 0 1:-0.666667 
0 0 2 0 1:-0.666667 
0 0 2 0 1:-0.666667 
0 0 2 0 1:-0.666667 
0 0 2 0 1:-0.666667 
0 0 2 0 1:-0.666667 
0 0 2 0 1:-0.666667 
0 0 2 0 1:-0.666667 
0 0 2 0 1:-0.666667 
0 0 2 0 1:-0.666667 
0 0 2 0 1:-0.666667 
0 0 2 0 1:-0.666667 
0 0 2 0 1:-0.666667 
0 0 2 0 1:-0.666667 
0 0 2 0 1:-0.666667 
0 0 2 0 1:-0.666667 
0 0 2 0 1:-0.666667 
0 0 2 0 1:-0.666667 
0 0 2 0 1:-0.666667 
0 0 2 0 1:-0.666667 
0 0 2 0 1:-0.666667 
0 0 2 0 1:-0.666667 
0 0 2 0 1:-0.666667 
0 0 2 0 1:-0.666667 
0 0 2 0 1:-0.666667 
0 0 2 0 1:-0.666667 
0 0 2 0 1:-0.666667 
0 0 2 0 1:-0.666667 
0 0 2 0 1:-0.666667 
0 0 2 0 1:-0.666667 
0 0 2 0 1:-0.666667 
0 0 2 0 1:-0.666667 
0 0 2 0 1:-0.666667 
0 0 2 0 1:-0.666667 
0 0 2 0 1:-0.666667 
0 0 2 0 1:-0.666667 
0 0 2 0 1:-0.666667 
0 0 2 0 1:-0.666667 
0 0 2 0 1:-0.666667 
0 0 2 0 1:-0.666667 
0 0 2 0 1:-0.666667 
0 0 2 0 1:-0.666667 
0 0 2 0 1:-0.666667 
0 0 2 0 1:-0.666667 
0 0 2 0 1:-0.666667 
0 0 2 0 1:-0.666667 
0 0 2 0 1:-0.666667 
0 0 2 0 1:-0.666667 
0 0 2 0 1:-0.666667 
0 0 2 0 1:-0.666667 
0 0 2 0 1:-0.666667 
0 0 2 0 1:-0.666667 
0 0 2 0 1:-0.666667 
0 0 2 0 1:-0.666667 
0 0 2 0 1:-0.666667 
0 0 2 0 1:-0.666667 
0 0 2 0 1:-0.666667 
0 0 2 0 1:-0.666667 
0 0 2 0 1:-0.666667 
0 0 2 0 1:-0.666667 
0 0 2 0 1:-0.666667 
0 0 2 0 1:-0.666667 
0 0 2 0 1:-0.666667 
0 0 2 0 1:-0.666667 
0 0 2 0 1:-0.666667 
0 0 2 0 1:-0.666667 
0 0 2 0 1:-0.666667 
0 0 2 0 1:-0.666667 
0 0 2 0 1:-0.666667 
0 0 2 0 1:-0.666667 
0 0 2 0 1:-0.666667 
0 0 2 0 1:-0.666667 
0 0 2 0 1:-0.666667 
0 0 2 0 1:-0.666667 
0 0 2 0 1:-0.666667 
0 0 2 0 1:-0.666667 
0 0 2 0 1:-0.666667 
0 0 2 0 1:-0.666667 
0 0 2 0 1:-0.666667 
0 0 2 0 1:-0.666667 
0 0 2 0 1:-0.666667 
0 0 2 0 1:-0.666667 
0 0 2 0 1:-0.666667 
0 0 2 0 1:-0.666667 
0 0 2 0 1:-0.666667 
0 0 2 0 1:-0.666667 
0 0 2 0 1:-0.666667 
0 0 2 0 1:-0.666667 
0 0 2 0 1:-0.666667 
0 0 2 0 1:-0.666667 
0 0 2 0 1:-0.666667 
0 0 2 0 1:-0.666667 
0 0 2 0 1:-0.666667 
0 0 2 0 1:-0.666667 
0 0 2 0 1:-0.666667 
0 0 2 0 1:-0.666667 
0 0 2 0 1:-0.666667 
0 0 2 0 1:-0.666667 
0 0 2 0 1:-0.666667 
0 0 2 0 1:-0.666667 
0 0 2 0 1:-0.666667 
0 0 2 0 1:-0.666667 
0 0 2 0 1:-0.666667 
0 0 2 0 1:-0.666667 
0 0 2 0 1:-0.666667 
0 0 2 0 1:-0.666667 
0 0 2 0 1:-0.666667 
0 0 2 0 1:-0.666667 
0 0 2 0 1:-0.666667 
0 0 2 0 1:-0.666667 
0 0 2 0 1:-0.666667 
0 0 2 0 1:-0.666667 
0 0 2 0 1:-0.666667 
0 0 2 0 1:-0.666667 
0 0 2 0 1:-0.666667 
0 0 2 0 1:-0.666667 
0 0 2 0 1:-0.666667 
0 0 2 0 1:-0.666667 
0 0 2 0 1:-0.666667 
0 0 2 0 1:-0.666667 
0 0 2 0 1:-0.666667 
0 0 2 0 1:-0.666667 
0 0 2 0 1:-0.666667 
0 0 2 0 1:-0.666667 
0 0 2 0 1:-0.666667 
0 0 2 0 1:-0.666667 
0 0 2 0 1:-0.666667 
0 0 2 0 1:-0.666667 
0 0 2 0 1:-0.666667 
0 0 2 0 1:-0.666667 
0 0 2 0 1:-0.666667 
0 0 2 0 1:-0.666667 
0 0 2 0 1:-0.666667 
0 0 2 0 1:-0.666667 
0 0 2 0 1:-0.666667 
0 0 2 0 1:-0.666667 
0 0 2 0 1:-0.666667 
0 0 2 0 1:-0.666667 
0 0 2 0 1:-0.666667 
0 0 2 0 1:-0.666667 
0 0 2 0 1:-0.666667 
0 0 2 0 1:-0.666667 
0 0 2 0 1:-0.666667 
0 0 2 0 1:-0.666667 
0 0 2 0 1:-0.666667 
0 0 2 0 1:-0.666667 
0 0 2 0 1:-0.666667 
0 0 2 0 1:-0.666667 
0 0 2 0 1:-0.666667 
0 0 2 0 1:-0.666667 
0 0 2 0 1:-0.666667 
0 0 2 0 1:-0.666667 
0 0 2 0 1:-0.666667 
0 0 2 0 1:-0.666667 
0 0 2 0 1:-0.666667 
0 0 2 0 1:-0.666667 
0 0 2 0 1:-0.666667 
0 0 2 0 1:-0.666667 
0 0 2 0 1:-0.666667 
0 0 2 0 1:-0.666667 
0 0 2 0 1:-0.666667 
0 0 2 0 1:-0.666667 
0 0 2 0 1:-0.666667 
0 0 2 0 1:-0.666667 
0 0 2 0 1:-0.666667 
0 0 2 0 1:-0.666667 
0 0 2 0 1:-0.666667 
0 0 2 0 1:-0.666667 
0 0 2 0 1:-0.666667 
0 0 2 0 1:-0.666667 
0 0 2 0 1:-0.666667 
0 0 2 0 1:-0.666667 
0 2 2 0 1:-0.333333 
0 2 2 0 1:-0.333333 
0 2 2 0 1:-0.333333 
0 2 2 0 1:-0.333333 
0 2 2 0 1:-0.333333 
0 2 2 0 1:-0.333333 
0 2 2 0 1:-0.333333 
0 2 2 0 1:-0.333333 
0 2 2 0 1:-0.333333 
0 2 2 0 1:-0.333333 
0 2 2 0 1:-0.333333 
0 2 2 0 1:-0.333333 
0 2 2 0 1:-0.333333 
0 0 2 0 1:-0.666667 
0 0 2 0 1:-0.666667 
0 0 2 0 1:-0.666667 
0 0 2 0 1:-0.666667 
0 0 2 0 1:-0.666667 
0 0 2 0 1:-0.666667 
0 0 2 0 1:-0.666667 
0 0 2 0 1:-0.666667 
0 0 2 0 1:-0.666667 
0 2 2 0 1:-0.333333 
0 2 2 0 1:-0.333333 
0 2 2 0 1:-0.333333 
0 2 2 0 1:-0.333333 
0 2 2 0 1:-0.333333 
0 2 2 0 1:-0.333333 
0 2 2 0 1:-0.333333 
0 2 2 0 1:-0.333333 
0 2 2 0 1:-0.333333 
0 2 2 0 1:-0.333333 
0 2 2 0 1:-0.333333 
0 2 2 0 1:-0.333333 
0 2 2 0 1:-0.333333 
0 0 2 0 1:-0.666667 
0 2 2 0 1:-0.333333 
0 2 2 0 1:-0.333333 
0 2 2 0 1:-0.333333 
0 2 2 0 1:-0.333333 
0 2 2 0 1:-0.333333 
0 2 2 0 1:-0.333333 
0 0 2 0 1:-0.666667 
0 2 2 0 1:-0.333333 
0 2 2 0 1:-0.333333 
0 2 2 0 1:-0.333333 
0 2 2 0 1:-0.333333 
0 2 2 0 1:-0.333333 
0 2 2 0 1:-0.333333 
0 0 2 0 1:-0.666667 
0 0 2 0 1:-0.666667 
0 0 2 0 1:-0.666667 
0 0 2 0 1:-0.666667 
0 0 2 0 1:-0.666667 
0 0 2 0 1:-0.666667 
0 0 2 0 1:-0.666667 
0 0 2 0 1:-0.666667 
0 0 2 0 1:-0.666667 
0 0 2 0 1:-0.666667 
0 0 2 0 1:-0.666667 
0 0 2 0 1:-0.666667 
0 0 2 0 1:-0.666667 
0 0 2 0 1:-0.666667 
0 0 2 0 1:-0.666667 
0 0 2 0 1:-0.666667 
0 0 2 0 1:-0.666667 
0 0 2 0 1:-0.666667 
0 0 2 0 1:-0.666667 
0 0 2 0 1:-0.666667 
0 0 2 0 1:-0.666667 
0 0 2 0 1:-0.666667 
0 0 2 0 1:-0.666667 
0 0 2 0 1:-0.666667 
0 0 2 0 1:-0.666667 
0 0 2 0 1:-0.666667 
0 2 2 0 1:-0.333333 
0 2 2 0 1:-0.333333 
0 2 2 0 1:-0.333333 
0 2 2 0 1:-0.333333 
0 2 2 0 1:-0.333333 
0 0 2 0 1:-0.666667 
0 2 2 0 1:-0.333333 
0 0 2 0 1:-0.666667 
0 2 2 0 1:-0.333333 
0 0 2 0 1:-0.666667 
0 0 2 0 1:-0.666667 
0 0 2 0 1:-0.666667 
0 0 2 0 1:-0.666667 
0 0 2 0 1:-0.666667 
0 2 2 0 1:-0.333333 
0 0 2 0 1:-0.666667 
0 0 2 0 1:-0.666667 
0 0 2 0 1:-0.666667 
0 0 2 0 1:-0.666667 
0 2 2 0 1:-0.333333 
0 0 2 0 1:-0.666667 
0 0 2 0 1:-0.666667 
0 0 2 0 1:-0.666667 
0 2 2 0 1:-0.333333 
0 0 2 0 1:-0.666667 
0 0 2 0 1:-0.666667 
0 0 2 0 1:-0.666667 
0 0 2 0 1:-0.666667 
0 0 2 0 1:-0.666667 
0 2 2 0 1:-0.333333 
0 0 2 0 1:-0.666667 
0 0 2 0 1:-0.666667 
0 0 2 0 1:-0.666667 
0 0 2 0 1:-0.666667 
0 0 2 0 1:-0.666667 
0 0 2 0 1:-0.666667 
0 0 2 0 1:-0.666667 
0 0 2 0 1:-0.666667 
0 0 2 0 1:-0.666667 
0 0 2 0 1:-0.666667 
0 0 2 0 1:-0.666667 
0 0 2 0 1:-0.666667 
0 0 2 0 1:-0.666667 
0 0 2 0 1:-0.666667 
0 0 2 0 1:-0.666667 
0 0 2 0 1:-0.666667 
0 0 2 0 1:-0.666667 
0 0 2 0 1:-0.666667 
0 0 2 0 1:-0.666667 
0 0 2 0 1:-0.666667 
0 0 2 0 1:-0.666667 
0 0 2 0 1:-0.666667 
0 0 2 0 1:-0.666667 
0 0 2 0 1:-0.666667 
0 0 2 0 1:-0.666667 
0 0 2 0 1:-0.666667 
0 0 2 0 1:-0.666667 
0 0 2 0 1:-0.666667 
0 0 2 0 1:-0.666667 
0 0 2 0 1:-0.666667 
0 0 2 0 1:-0.666667 
0 0 2 0 1:-0.666667 
0 0 2 0 1:-0.666667 
0 0 2 0 1:-0.666667 
0 0 2 0 1:-0.666667 
0 0 2 0 1:-0.666667 
0 0 2 0 1:-0.666667 
0 0 2 0 1:-0.666667 
0 0 2 0 1:-0.666667 
0 0 2 0 1:-0.666667 
0 0 2 0 1:-0.666667 
0 0 2 0 1:-0.666667 
0 0 2 0 1:-0.666667 
0 0 2 0 1:-0.666667 
0 0 2 0 1:-0.666667 
0 0 2 0 1:-0.666667 
0 0 2 0 1:-0.666667 
0 0 2 0 1:-0.666667 
0 0 2 0 1:-0.666667 
0 0 2 0 1:-0.666667 
0 0 2 0 1:-0.666667 
0 0 2 0 1:-0.666667 
0 0 2 0 1:-0.666667 
0 0 2 0 1:-0.666667 
0 0 2 0 1:-0.666667 
0 0 2 0 1:-0.666667 
0 0 2 0 1:-0.666667 
0 0 2 0 1:-0.666667 
0 0 2 0 1:-0.666667 
0 0 2 0 1:-0.666667 
0 0 2 0 1:-0.666667 
0 0 2 0 1:-0.666667 
0 0 2 0 1:-0.666667 
0 0 2 0 1:-0.666667 
0 0 2 0 1:-0.666667 
0 0 2 0 1:-0.666667 
0 0 2 0 1:-0.666667 
0 0 2 0 1:-0.666667 
0 0 2 0 1:-0.666667 
0 0 2 0 1:-0.666667 
0 0 2 0 1:-0.666667 
0 0 2 0 1:-0.666667 
0 0 2 0 1:-0.666667 
0 2 2 0 1:-0.333333 
0 2 2 0 1:-0.333333 
0 2 2 0 1:-0.333333 
0 2 2 0 1:-0.333333 
0 2 2 0 1:-0.333333 
0 0 2 0 1:-0.666667 
0 0 2 0 1:-0.666667 
0 2 2 0 1:-0.333333 
0 2 2 0 1:-0.333333 
0 0 2 0 1:-0.666667 
0 0 2 0 1:-0.666667 
0 2 2 0 1:-0.333333 
0 2 2 0 1:-0.333333 
0 2 2 0 1:-0.333333 
0 0 2 0 1:-0.666667 
0 0 2 0 1:-0.666667 
0 0 2 0 1:-0.666667 
0 0 2 0 1:-0.666667 
0 0 2 0 1:-0.666667 
0 0 2 0 1:-0.666667 
0 0 2 0 1:-0.666667 
0 0 2 0 1:-0.666667 
0 0 2 0 1:-0.666667 
0 0 2 0 1:-0.666667 
0 0 2 0 1:-0.666667 
0 0 2 0 1:-0.666667 
0 0 2 0 1:-0.666667 
0 0 2 0 1:-0.666667 
0 0 2 0 1:-0.666667 
0 0 2 0 1:-0.666667 
0 0 2 0 1:-0.666667 
0 0 2 0 1:-0.666667 
0 0 2 0 1:-0.666667 
0 0 2 0 1:-0.666667 
0 0 2 0 1:-0.666667 
0 0 2 0 1:-0.666667 
0 0 2 0 1:-0.666667 
0 0 2 0 1:-0.666667 
0 0 2 0 1:-0.666667 
0 0 2 0 1:-0.666667 
0 0 2 0 1:-0.666667 
0 0 2 0 1:-0.666667 
0 0 2 0 1:-0.666667 
0 0 2 0 1:-0.666667 
0 0 2 0 1:-0.666667 
0 0 2 0 1:-0.666667 
0 0 2 0 1:-0.666667 
0 0 2 0 1:-0.666667 
0 0 2 0 1:-0.666667 
0 0 2 0 1:-0.666667 
0 0 2 0 1:-0.666667 
0 0 2 0 1:-0.666667 
0 0 2 0 1:-0.666667 
0 0 2 0 1:-0.666667 
0 0 2 0 1:-0.666667 
0 0 2 0 1:-0.666667 
0 0 2 0 1:-0.666667 
0 0 2 0 1:-0.666667 
0 0 2 0 1:-0.666667 
0 0 2 0 1:-0.666667 
0 0 2 0 1:-0.666667 
0 0 2 0 1:-0.666667 
0 0 2 0 1:-0.666667 
0 0 2 0 1:-0.666667 
0 0 2 0 1:-0.666667 
0 0 2 0 1:-0.666667 
0 0 2 0 1:-0.666667 
0 0 2 0 1:-0.666667 
0 0 2 0 1:-0.666667 
0 0 2 0 1:-0.666667 
0 0 2 0 1:-0.666667 
0 0 2 0 1:-0.666667 
0 0 2 0 1:-0.666667 
0 0 2 0 1:-0.666667 
0 0 2 0 1:-0.666667 
0 0 2 0 1:-0.666667 
0 0 2 0 1:-0.666667 
0 0 2 0 1:-0.666667 
0 0 2 0 1:-0.666667 
0 0 2 0 1:-0.666667 
0 0 2 0 1:-0.666667 
0 0 2 0 1:-0.666667 
0 0 2 0 1:-0.666667 
0 0 2 0 1:-0.666667 
0 0 2 0 1:-0.666667 
0 0 2 0 1:-0.666667 
0 0 2 0 1:-0.666667 
0 0 2 0 1:-0.666667 
0 0 2 0 1:-0.666667 
0 0 2 0 1:-0.666667 
0 0 2 0 1:-0.666667 
0 0 2 0 1:-0.666667 
0 0 2 0 1:-0.666667 
0 0 2 0 1:-0.666667 
0 0 2 0 1:-0.666667 
0 0 2 0 1:-0.666667 
0 0 2 0 1:-0.666667 
0 0 2 0 1:-0.666667 
0 0 2 0 1:-0.666667 
0 0 2 0 1:-0.666667 
0 0 2 0 1:-0.666667 
0 0 2 0 1:-0.666667 
0 0 2 0 1:-0.666667 
0 0 2 0 1:-0.666667 
0 0 2 0 1:-0.666667 
0 0 2 0 1:-0.666667 
0 0 2 0 1:-0.666667 
0 0 2 0 1:-0.666667 
0 0 2 0 1:-0.666667 
0 0 2 0 1:-0.666667 
0 0 2 0 1:-0.666667 
0 0 2 0 1:-0.666667 
0 0 2 0 1:-0.666667 
0 0 2 0 1:-0.666667 
0 0 2 0 1:-0.666667 
0 0 2 0 1:-0.666667 
0 0 2 0 1:-0.666667 
0 0 2 0 1:-0.666667 
0 0 2 0 1:-0.666667 
0 0 2 0 1:-0.666667 
0 0 2 0 1:-0.666667 
0 0 2 0 1:-0.666667 
0 0 2 0 1:-0.666667 
0 0 2 0 1:-0.666667 
0 0 2 0 1:-0.666667 
0 0 2 0 1:-0.666667 
0 0 2 0 1:-0.666667 
0 0 2 0 1:-0.666667 
0 0 2 0 1:-0.666667 
0 0 2 0 1:-0.666667 
0 0 2 0 1:-0.666667 
0 0 2 0 1:-0.666667 
0 0 2 0 1:-0.666667 
0 0 2 0 1:-0.666667 
0 0 2 0 1:-0.666667 
0 0 2 0 1:-0.666667 
0 0 2 0 1:-0.666667 
0 0 2 0 1:-0.666667 
0 0 2 0 1:-0.666667 
0 0 2 0 1:-0.666667 
0 0 2 0 1:-0.666667 
0 0 2 0 1:-0.666667 
0 0 2 0 1:-0.666667 
0 0 2 0 1:-0.666667 
0 0 2 0 1:-0.666667 
0 0 2 0 1:-0.666667 
0 0 2 0 1:-0.666667 
0 0 2 0 1:-0.666667 
0 0 2 0 1:-0.666667 
0 0 2 0 1:-0.666667 
0 0 2 0 1:-0.666667 
0 0 2 0 1:-0.666667 
0 0 2 0 1:-0.666667 
0 0 2 0 1:-0.666667 
0 0 2 0 1:-0.666667 
0 0 2 0 1:-0.666667 
0 0 2 0 1:-0.666667 
0 0 2 0 1:-0.666667 
0 0 2 0 1:-0.666667 
0 0 2 0 1:-0.666667 
0 0 2 0 1:-0.666667 
0 0 2 0 1:-0.666667 
0 0 2 0 1:-0.666667 
0 0 2 0 1:-0.666667 
0 0 2 0 1:-0.666667 
0 0 2 0 1:-0.666667 
0 0 2 0 1:-0.666667 
0 0 2 0 1:-0.666667 
0 0 2 0 1:-0.666667 
0 0 2 0 1:-0.666667 
0 0 2 0 1:-0.666667 
0 0 2 0 1:-0.666667 
0 0 2 0 1:-0.666667 
0 0 2 0 1:-0.666667 
0 0 2 0 1:-0.666667 
0 0 2 0 1:-0.666667 
0 0 2 0 1:-0.666667 
0 0 2 0 1:-0.666667 
0 2 2 0 1:-0.333333 
0 2 2 0 1:-0.333333 
0 2 2 0 1:-0.333333 
0 2 2 0 1:-0.333333 
0 2 2 0 1:-0.333333 
0 2 2 0 1:-0.333333 
0 2 2 0 1:-0.333333 
0 2 2 0 1:-0.333333 
0 2 2 0 1:-0.333333 
0 2 2 0 1:-0.333333 
0 2 2 0 1:-0.333333 
0 2 2 0 1:-0.333333 
0 2 2 0 1:-0.333333 
0 2 2 0 1:-0.333333 
0 2 2 0 1:-0.333333 
0 2 2 0 1:-0.333333 
0 2 2 0 1:-0.333333 
0 2 2 0 1:-0.333333 
0 2 2 0 1:-0.333333 
0 2 2 0 1:-0.333333 
0 2 2 0 1:-0.333333 
0 2 2 0 1:-0.333333 
0 2 2 0 1:-0.333333 
0 2 2 0 1:-0.333333 
0 2 2 0 1:-0.333333 
0 2 2 0 1:-0.333333 
0 2 2 0 1:-0.333333 
0 0 2 0 1:-0.666667 
0 0 2 0 1:-0.666667 
0 0 2 0 1:-0.666667 
0 0 2 0 1:-0.666667 
0 0 2 0 1:-0.666667 
0 0 2 0 1:-0.666667 
0 0 2 0 1:-0.666667 
0 0 2 0 1:-0.666667 
0 0 2 0 1:-0.666667 
0 0 2 0 1:-0.666667 
0 0 2 0 1:-0.666667 
0 0 2 0 1:-0.666667 
0 0 2 0 1:-0.666667 
0 0 2 0 1:-0.666667 
0 0 2 0 1:-0.666667 
0 0 2 0 1:-0.666667 
0 0 2 0 1:-0.666667 
0 0 2 0 1:-0.666667 
0 0 2 0 1:-0.666667 
0 0 2 0 1:-0.666667 
0 0 2 0 1:-0.666667 
0 0 2 0 1:-0.666667 
0 0 2 0 1:-0.666667 
0 0 2 0 1:-0.666667 
0 0 2 0 1:-0.666667 
0 0 2 0 1:-0.666667 
0 0 2 0 1:-0.666667 
0 0 2 0 1:-0.666667 
0 0 2 0 1:-0.666667 
0 0 2 0 1:-0.666667 
0 0 2 0 1:-0.666667 
0 0 2 0 1:-0.666667 
0 0 2 0 1:-0.666667 
0 0 2 0 1:-0.666667 
0 0 2 0 1:-0.666667 
0 0 2 0 1:-0.666667 
0 0 2 0 1:-0.666667 
0 0 2 0 1:-0.666667 
0 0 2 0 1:-0.666667 
0 0 2 0 1:-0.666667 
0 0 2 0 1:-0.666667 
0 0 2 0 1:-0.666667 
0 0 2 0 1:-0.666667 
0 0 2 0 1:-0.666667 
0 0 2 0 1:-0.666667 
0 0 2 0 1:-0.666667 
0 0 2 0 1:-0.666667 
0 0 2 0 1:-0.666667 
0 0 2 0 1:-0.666667 
0 0 2 0 1:-0.666667 
0 0 2 0 1:-0.666667 
0 0 2 0 1:-0.666667 
0 0 2 0 1:-0.666667 
0 0 2 0 1:-0.666667 
0 0 2 0 1:-0.666667 
0 0 2 0 1:-0.666667 
0 0 2 0 1:-0.666667 
0 0 2 0 1:-0.666667 
0 0 2 0 1:-0.666667 
0 0 2 0 1:-0.666667 
0 0 2 0 1:-0.666667 
0 0 2 0 1:-0.666667 
0 0 2 0 1:-0.666667 
0 0 2 0 1:-0.666667 
0 0 2 0 1:-0.666667 
0 0 2 0 1:-0.666667 
0 0 2 0 1:-0.666667 
0 0 2 0 1:-0.666667 
0 0 2 0 1:-0.666667 
0 0 2 0 1:-0.666667 
0 0 2 0 1:-0.666667 
0 0 2 0 1:-0.666667 
2 0 2 2 1:-1 
2 0 2 2 1:-1 
2 0 2 2 1:-1 
0 0 2 0 1:-0.666667 
2 0 2 2 1:-1 
2 0 2 2 1:-1 
2 0 2 2 1:-1 
2 0 2 2 1:-1 
2 0 2 2 1:-1 
2 0 2 2 1:-1 
2 0 2 2 1:-1 
2 0 2 2 1:-1 
2 0 2 2 1:-1 
2 0 2 2 1:-1 
2 0 2 2 1:-1 
2 0 2 2 1:-1 
2 0 2 2 1:-1 
2 0 2 2 1:-1 
2 0 2 2 1:-1 
2 0 2 2 1:-1 
2 0 2 2 1:-1 
2 0 2 2 1:-1 
2 0 2 2 1:-1 
2 0 2 2 1:-1 
2 0 2 2 1:-1 
0 0 2 0 1:-0.666667 
0 0 2 0 1:-0.666667 
0 0 2 0 1:-0.666667 
0 0 2 0 1:-0.666667 
0 0 2 0 1:-0.666667 
0 0 2 0 1:-0.666667 
0 0 2 0 1:-0.666667 
0 0 2 0 1:-0.666667 
0 0 2 0 1:-0.666667 
0 0 2 0 1:-0.666667 
0 0 2 0 1:-0.666667 
0 0 2 0 1:-0.666667 
0 0 2 0 1:-0.666667 
0 0 2 0 1:-0.666667 
0 0 2 0 1:-0.666667 
0 0 2 0 1:-0.666667 
0 0 2 0 1:-0.666667 
0 0 2 0 1:-0.666667 
0 0 2 0 1:-0.666667 
0 0 2 0 1:-0.666667 
0 0 2 0 1:-0.666667 
0 0 2 0 1:-0.666667 
0 0 2 0 1:-0.666667 
0 0 2 0 1:-0.666667 
0 0 2 0 1:-0.666667 
0 0 2 0 1:-0.666667 
0 0 2 0 1:-0.666667 
0 0 2 0 1:-0.666667 
0 0 2 0 1:-0.666667 
0 0 2 0 1:-0.666667 
0 0 2 0 1:-0.666667 
0 0 2 0 1:-0.666667 
0 0 2 0 1:-0.666667 
0 0 2 0 1:-0.666667 
0 0 2 0 1:-0.666667 
0 0 2 0 1:-0.666667 
0 0 2 0 1:-0.666667 
0 0 2 0 1:-0.666667 
0 0 2 0 1:-0.666667 
0 0 2 0 1:-0.666667 
0 0 2 0 1:-0.666667 
0 0 2 0 1:-0.666667 
0 0 2 0 1:-0.666667 
0 0 2 0 1:-0.666667 
0 0 2 0 1:-0.666667 
0 0 2 0 1:-0.666667 
0 0 2 0 1:-0.666667 
0 0 2 0 1:-0.666667 
0 0 2 0 1:-0.666667 
0 0 2 0 1:-0.666667 
0 0 2 0 1:-0.666667 
0 0 2 0 1:-0.666667 
0 0 2 0 1:-0.666667 
0 0 2 0 1:-0.666667 
0 0 2 0 1:-0.666667 
0 0 2 0 1:-0.666667 
0 0 2 0 1:-0.666667 
0 0 2 0 1:-0.666667 
0 0 2 0 1:-0.666667 
0 0 2 0 1:-0.666667 
0 0 2 0 1:-0.666667 
0 0 2 0 1:-0.666667 
0 0 2 0 1:-0.666667 
0 0 2 0 1:-0.666667 
0 0 2 0 1:-0.666667 
0 0 2 0 1:-0.666667 
0 0 2 0 1:-0.666667 
0 0 2 0 1:-0.666667 
0 0 2 0 1:-0.666667 
0 0 2 0 1:-0.666667 
0 0 2 0 1:-0.666667 
0 0 2 0 1:-0.666667 
0 0 2 0 1:-0.666667 
0 0 2 0 1:-0.666667 
0 0 2 0 1:-0.666667 
0 0 2 0 1:-0.666667 
0 0 2 0 1:-0.666667 
0 0 2 0 1:-0.666667 
0 0 2 0 1:-0.666667 
0 0 2 0 1:-0.666667 
0 0 2 0 1:-0.666667 
0 0 2 0 1:-0.666667 
0 0 2 0 1:-0.666667 
0 0 2 0 1:-0.666667 
0 0 2 0 1:-0.666667 
0 0 2 0 1:-0.666667 
0 0 2 0 1:-0.666667 
0 0 2 0 1:-0.666667 
0 0 2 0 1:-0.666667 
0 0 2 0 1:-0.666667 
0 0 2 0 1:-0.666667 
0 0 2 0 1:-0.666667 
0 0 2 0 1:-0.666667 
0 0 2 0 1:-0.666667 
0 0 2 0 1:-0.666667 
0 0 2 0 1:-0.666667 
0 0 2 0 1:-0.666667 
0 0 2 0 1:-0.666667 
0 0 2 0 1:-0.666667 
0 0 2 0 1:-0.666667 
0 0 2 0 1:-0.666667 
0 0 2 0 1:-0.666667 
0 0 2 0 1:-0.666667 
0 0 2 0 1:-0.666667 
0 0 2 0 1:-0.666667 
0 0 2 0 1:-0.666667 
0 0 2 0 1:-0.666667 
0 0 2 0 1:-0.666667 
0 0 2 0 1:-0.666667 
0 0 2 0 1:-0.666667 
0 0 2 0 1:-0.666667 
0 0 2 0 1:-0.666667 
0 0 2 0 1:-0.666667 
0 0 2 0 1:-0.666667 
0 0 2 0 1:-0.666667 
0 0 2 0 1:-0.666667 
0 0 2 0 1:-0.666667 
0 0 2 0 1:-0.666667 
0 0 2 0 1:-0.666667 
0 0 2 0 1:-0.666667 
0 0 2 0 1:-0.666667 
0 0 2 0 1:-0.666667 
0 0 2 0 1:-0.666667 
0 0 2 0 1:-0.666667 
0 0 2 0 1:-0.666667 
0 0 2 0 1:-0.666667 
0 0 2 0 1:-0.666667 
0 0 2 0 1:-0.666667 
0 0 2 0 1:-0.666667 
0 0 2 0 1:-0.666667 
0 0 2 0 1:-0.666667 
0 0 2 0 1:-0.666667 
0 0 2 0 1:-0.666667 
0 0 2 0 1:-0.666667 
0 0 2 0 1:-0.666667 
0 0 2 0 1:-0.666667 
0 0 2 0 1:-0.666667 
0 0 2 0 1:-0.666667 
0 0 2 0 1:-0.666667 
0 0 2 0 1:-0.666667 
0 0 2 0 1:-0.666667 
0 0 2 0 1:-0.666667 
0 0 2 0 1:-0.666667 
0 0 2 0 1:-0.666667 
0 0 2 0 1:-0.666667 
0 0 2 0 1:-0.666667 
0 0 2 0 1:-0.666667 
0 0 2 0 1:-0.666667 
0 0 2 0 1:-0.666667 
0 0 2 0 1:-0.666667 
0 2 2 0 1:-0.333333 
0 2 2 0 1:-0.333333 
0 2 2 0 1:-0.333333 
0 2 2 0 1:-0.333333 
0 2 2 0 1:-0.333333 
0 2 2 0 1:-0.333333 
0 2 2 0 1:-0.333333 
0 0 2 0 1:-0.666667 
0 0 2 0 1:-0.666667 
0 0 2 0 1:-0.666667 
0 0 2 0 1:-0.666667 
0 0 2 0 1:-0.666667 
0 0 2 0 1:-0.666667 
0 0 2 0 1:-0.666667 
0 0 2 0 1:-0.666667 
0 0 2 0 1:-0.666667 
0 0 2 0 1:-0.666667 
0 0 2 0 1:-0.666667 
0 0 2 0 1:-0.666667 
0 0 2 0 1:-0.666667 
0 0 2 0 1:-0.666667 
0 0 2 0 1:-0.666667 
0 0 2 0 1:-0.666667 
0 0 2 0 1:-0.666667 
0 0 2 0 1:-0.666667 
0 0 2 0 1:-0.666667 
0 0 2 0 1:-0.666667 
0 0 2 0 1:-0.666667 
0 0 2 0 1:-0.666667 
0 0 2 0 1:-0.666667 
0 0 2 0 1:-0.666667 
0 0 2 0 1:-0.666667 
0 0 2 0 1:-0.666667 
0 0 2 0 1:-0.666667 
0 0 2 0 1:-0.666667 
0 0 2 0 1:-0.666667 
0 0 2 0 1:-0.666667 
0 0 2 0 1:-0.666667 
0 0 2 0 1:-0.666667 
0 0 2 0 1:-0.666667 
0 0 2 0 1:-0.666667 
0 0 2 0 1:-0.666667 
0 0 2 0 1:-0.666667 
0 0 2 0 1:-0.666667 
0 0 2 0 1:-0.666667 
0 0 2 0 1:-0.666667 
0 0 2 0 1:-0.666667 
0 0 2 0 1:-0.666667 
0 0 2 0 1:-0.666667 
0 0 2 0 1:-0.666667 
0 0 2 0 1:-0.666667 
0 0 2 0 1:-0.666667 
0 0 2 0 1:-0.666667 
0 0 2 0 1:-0.666667 
0 0 2 0 1:-0.666667 
0 0 2 0 1:-0.666667 
0 0 2 0 1:-0.666667 
0 0 2 0 1:-0.666667 
0 0 2 0 1:-0.666667 
0 0 2 0 1:-0.666667 
0 0 2 0 1:-0.666667 
0 0 2 0 1:-0.666667 
0 0 2 0 1:-0.666667 
0 0 2 0 1:-0.666667 
0 0 2 0 1:-0.666667 
0 0 2 0 1:-0.666667 
0 0 2 0 1:-0.666667 
0 0 2 0 1:-0.666667 
0 0 2 0 1:-0.666667 
0 0 2 0 1:-0.666667 
0 0 2 0 1:-0.666667 
0 0 2 0 1:-0.666667 
0 0 2 0 1:-0.666667 
0 0 2 0 1:-0.666667 
0 0 2 0 1:-0.666667 
2 0 2 2 1:-1 
0 0 2 0 1:-0.666667 
0 0 2 0 1:-0.666667 
0 0 2 0 1:-0.666667 
0 0 2 0 1:-0.666667 
0 0 2 0 1:-0.666667 
0 0 2 0 1:-0.666667 
0 0 2 0 1:-0.666667 
0 0 2 0 1:-0.666667 
0 0 2 0 1:-0.666667 
0 0 2 0 1:-0.666667 
0 0 2 0 1:-0.666667 
0 0 2 0 1:-0.666667 
0 0 2 0 1:-0.666667 
0 0 2 0 1:-0.666667 
0 0 2 0 1:-0.666667 
0 0 2 0 1:-0.666667 
0 0 2 0 1:-0.666667 
0 0 2 0 1:-0.666667 
0 0 2 0 1:-0.666667 
0 0 2 0 1:-0.666667 
0 0 2 0 1:-0.666667 
0 0 2 0 1:-0.666667 
0 0 2 0 1:-0.666667 
0 0 2 0 1:-0.666667 
0 0 2 0 1:-0.666667 
0 0 2 0 1:-0.666667 
0 0 2 0 1:-0.666667 
0 0 2 0 1:-0.666667 
0 0 2 0 1:-0.666667 
0 0 2 0 1:-0.666667 
0 0 2 0 1:-0.666667 
0 0 2 0 1:-0.666667 
0 0 2 0 1:-0.666667 
0 0 2 0 1:-0.666667 
0 0 2 0 1:-0.666667 
0 0 2 0 1:-0.666667 
0 0 2 0 1:-0.666667 
0 0 2 0 1:-0.666667 
0 0 2 0 1:-0.666667 
0 0 2 0 1:-0.666667 
0 0 2 0 1:-0.666667 
0 0 2 0 1:-0.666667 
0 0 2 0 1:-0.666667 
0 0 2 0 1:-0.666667 
0 0 2 0 1:-0.666667 
0 0 2 0 1:-0.666667 
0 0 2 0 1:-0.666667 
0 0 2 0 1:-0.666667 
0 0 2 0 1:-0.666667 
0 0 2 0 1:-0.666667 
0 0 2 0 1:-0.666667 
0 0 2 0 1:-0.666667 
0 0 2 0 1:-0.666667 
0 0 2 0 1:-0.666667 
0 0 2 0 1:-0.666667 
0 0 2 0 1:-0.666667 
0 0 2 0 1:-0.666667 
0 0 2 0 1:-0.666667 
0 0 2 0 1:-0.666667 
0 0 2 0 1:-0.666667 
0 0 2 0 1:-0.666667 
0 0 2 0 1:-0.666667 
2 0 2 2 1:-1 
2 0 2 2 1:-1 
2 0 2 2 1:-1 
2 0 2 2 1:-1 
2 0 2 2 1:-1 
2 0 2 2 1:-1 
2 0 2 2 1:-1 
2 0 2 2 1:-1 
2 0 2 2 1:-1 
2 0 2 2 1:-1 
2 0 2 2 1:-1 
2 0 2 2 1:-1 
2 0 2 2 1:-1 
2 0 2 2 1:-1 
2 0 2 2 1:-1 
2 0 2 2 1:-1 
2 0 2 2 1:-1 
2 0 2 2 1:-1 
2 0 2 2 1:-1 
2 0 2 2 1:-1 
2 0 2 2 1:-1 
2 0 2 2 1:-1 
2 0 2 2 1:-1 
2 0 2 2 1:-1 
2 0 2 2 1:-1 
2 0 2 2 1:-1 
2 0 2 2 1:-1 
2 0 2 2 1:-1 
2 0 2 2 1:-1 
0 0 2 0 1:-0.666667 
0 0 2 0 1:-0.666667 
0 0 2 0 1:-0.666667 
0 0 2 0 1:-0.666667 
0 0 2 0 1:-0.666667 
0 0 2 0 1:-0.666667 
0 0 2 0 1:-0.666667 
0 0 2 0 1:-0.666667 
0 0 2 0 1:-0.666667 
0 0 2 0 1:-0.666667 
0 0 2 0 1:-0.666667 
0 0 2 0 1:-0.666667 
0 0 2 0 1:-0.666667 
0 0 2 0 1:-0.666667 
0 0 2 0 1:-0.666667 
0 0 2 0 1:-0.666667 
0 0 2 0 1:-0.666667 
0 0 2 0 1:-0.666667 
0 0 2 0 1:-0.666667 
0 0 2 0 1:-0.666667 
0 0 2 0 1:-0.666667 
0 0 2 0 1:-0.666667 
0 0 2 0 1:-0.666667 
0 0 2 0 1:-0.666667 
0 0 2 0 1:-0.666667 
0 0 2 0 1:-0.666667 
0 0 2 0 1:-0.666667 
0 0 2 0 1:-0.666667 
0 2 2 0 1:-0.333333 
0 2 2 0 1:-0.333333 
0 0 2 0 1:-0.666667 
0 0 2 0 1:-0.666667 
0 0 2 0 1:-0.666667 
0 0 2 0 1:-0.666667 
0 0 2 0 1:-0.666667 
0 0 2 0 1:-0.666667 
0 2 2 0 1:-0.333333 
0 2 2 0 1:-0.333333 
0 0 2 0 1:-0.666667 
0 2 2 0 1:-0.333333 
0 0 2 0 1:-0.666667 
0 0 2 0 1:-0.666667 
0 2 2 0 1:-0.333333 
0 2 2 0 1:-0.333333 
0 2 2 0 1:-0.333333 
0 0 2 0 1:-0.666667 
0 0 2 0 1:-0.666667 
0 0 2 0 1:-0.666667 
0 0 2 0 1:-0.666667 
0 0 2 0 1:-0.666667 
0 2 2 0 1:-0.333333 
0 2 2 0 1:-0.333333 
0 0 2 0 1:-0.666667 
0 0 2 0 1:-0.666667 
0 2 2 0 1:-0.333333 
0 2 2 0 1:-0.333333 
0 2 2 0 1:-0.333333 
0 2 2 0 1:-0.333333 
0 2 2 0 1:-0.333333 
0 2 2 0 1:-0.333333 
0 0 2 0 1:-0.666667 
0 2 2 0 1:-0.333333 
0 2 2 0 1:-0.333333 
0 0 2 0 1:-0.666667 
0 0 2 0 1:-0.666667 
0 0 2 0 1:-0.666667 
0 2 2 0 1:-0.333333 
0 2 2 0 1:-0.333333 
0 2 2 0 1:-0.333333 
0 2 2 0 1:-0.333333 
0 0 2 0 1:-0.666667 
0 2 2 0 1:-0.333333 
0 2 2 0 1:-0.333333 
0 2 2 0 1:-0.333333 
0 0 2 0 1:-0.666667 
0 2 2 0 1:-0.333333 
0 2 2 0 1:-0.333333 
0 0 2 0 1:-0.666667 
0 0 2 0 1:-0.666667 
0 0 2 0 1:-0.666667 
0 0 2 0 1:-0.666667 
0 0 2 0 1:-0.666667 
0 0 2 0 1:-0.666667 
0 0 2 0 1:-0.666667 
0 0 2 0 1:-0.666667 
0 0 2 0 1:-0.666667 
0 0 2 0 1:-0.666667 
0 0 2 0 1:-0.666667 
0 0 2 0 1:-0.666667 
0 0 2 0 1:-0.666667 
0 0 2 0 1:-0.666667 
0 0 2 0 1:-0.666667 
0 0 2 0 1:-0.666667 
0 0 2 0 1:-0.666667 
0 0 2 0 1:-0.666667 
0 0 2 0 1:-0.666667 
0 0 2 0 1:-0.666667 
0 0 2 0 1:-0.666667 
0 0 2 0 1:-0.666667 
0 0 2 0 1:-0.666667 
0 0 2 0 1:-0.666667 
0 0 2 0 1:-0.666667 
0 0 2 0 1:-0.666667 
0 0 2 0 1:-0.666667 
0 0 2 0 1:-0.666667 
0 0 2 0 1:-0.666667 
0 0 2 0 1:-0.666667 
0 0 2 0 1:-0.666667 
0 0 2 0 1:-0.666667 
0 0 2 0 1:-0.666667 
0 0 2 0 1:-0.666667 
0 0 2 0 1:-0.666667 
0 0 2 0 1:-0.666667 
0 0 2 0 1:-0.666667 
0 0 2 0 1:-0.666667 
0 0 2 0 1:-0.666667 
0 0 2 0 1:-0.666667 
0 0 2 0 1:-0.666667 
0 0 2 0 1:-0.666667 
0 0 2 0 1:-0.666667 
0 0 2 0 1:-0.666667 
0 0 2 0 1:-0.666667 
0 0 2 0 1:-0.666667 
0 0 2 0 1:-0.666667 
0 0 2 0 1:-0.666667 
0 0 2 0 1:-0.666667 
0 0 2 0 1:-0.666667 
0 0 2 0 1:-0.666667 
0 0 2 0 1:-0.666667 
0 0 2 0 1:-0.666667 
0 0 2 0 1:-0.666667 
0 0 2 0 1:-0.666667 
0 0 2 0 1:-0.666667 
0 0 2 0 1:-0.666667 
0 0 2 0 1:-0.666667 
0 0 2 0 1:-0.666667 
0 0 2 0 1:-0.666667 
0 0 2 0 1:-0.666667 
0 0 2 0 1:-0.666667 
0 0 2 0 1:-0.666667 
0 0 2 0 1:-0.666667 
0 0 2 0 1:-0.666667 
0 0 2 0 1:-0.666667 
0 0 2 0 1:-0.666667 
0 0 2 0 1:-0.666667 
0 0 2 0 1:-0.666667 
0 0 2 0 1:-0.666667 
0 0 2 0 1:-0.666667 
0 0 2 0 1:-0.666667 
0 0 2 0 1:-0.666667 
0 0 2 0 1:-0.666667 
0 0 2 0 1:-0.666667 
0 0 2 0 1:-0.666667 
0 0 2 0 1:-0.666667 
0 0 2 0 1:-0.666667 
0 0 2 0 1:-0.666667 
0 0 2 0 1:-0.666667 
0 0 2 0 1:-0.666667 
0 0 2 0 1:-0.666667 
0 0 2 0 1:-0.666667 
0 0 2 0 1:-0.666667 
0 0 2 0 1:-0.666667 
0 0 2 0 1:-0.666667 
0 0 2 0 1:-0.666667 
0 0 2 0 1:-0.666667 
0 0 2 0 1:-0.666667 
0 0 2 0 1:-0.666667 
0 0 2 0 1:-0.666667 
0 0 2 0 1:-0.666667 
0 0 2 0 1:-0.666667 
0 0 2 0 1:-0.666667 
0 0 2 0 1:-0.666667 
0 0 2 0 1:-0.666667 
0 0 2 0 1:-0.666667 
0 0 2 0 1:-0.666667 
0 0 2 0 1:-0.666667 
0 0 2 0 1:-0.666667 
0 0 2 0 1:-0.666667 
0 0 2 0 1:-0.666667 
0 0 2 0 1:-0.666667 
0 0 2 0 1:-0.666667 
0 0 2 0 1:-0.666667 
0 0 2 0 1:-0.666667 
0 0 2 0 1:-0.666667 
0 0 2 0 1:-0.666667 
0 0 2 0 1:-0.666667 
0 0 2 0 1:-0.666667 
0 0 2 0 1:-0.666667 
0 0 2 0 1:-0.666667 
0 0 2 0 1:-0.666667 
0 0 2 0 1:-0.666667 
0 0 2 0 1:-0.666667 
0 0 2 0 1:-0.666667 
0 0 2 0 1:-0.666667 
0 0 2 0 1:-0.666667 
0 0 2 0 1:-0.666667 
0 0 2 0 1:-0.666667 
0 0 2 0 1:-0.666667 
0 0 2 0 1:-0.666667 
0 0 2 0 1:-0.666667 
0 0 2 0 1:-0.666667 
0 0 2 0 1:-0.666667 
0 0 2 0 1:-0.666667 
0 0 2 0 1:-0.666667 
0 0 2 0 1:-0.666667 
0 0 2 0 1:-0.666667 
0 0 2 0 1:-0.666667 
0 0 2 0 1:-0.666667 
0 0 2 0 1:-0.666667 
0 0 2 0 1:-0.666667 
0 0 2 0 1:-0.666667 
0 0 2 0 1:-0.666667 
0 0 2 0 1:-0.666667 
0 0 2 0 1:-0.666667 
0 0 2 0 1:-0.666667 
0 0 2 0 1:-0.666667 
0 0 2 0 1:-0.666667 
0 0 2 0 1:-0.666667 
0 0 2 0 1:-0.666667 
0 0 2 0 1:-0.666667 
0 0 2 0 1:-0.666667 
0 0 2 0 1:-0.666667 
0 0 2 0 1:-0.666667 
0 0 2 0 1:-0.666667 
0 0 2 0 1:-0.666667 
0 0 2 0 1:-0.666667 
0 0 2 0 1:-0.666667 
0 0 2 0 1:-0.666667 
0 0 2 0 1:-0.666667 
0 0 2 0 1:-0.666667 
0 0 2 0 1:-0.666667 
0 0 2 0 1:-0.666667 
0 0 2 0 1:-0.666667 
0 0 2 0 1:-0.666667 
0 0 2 0 1:-0.666667 
0 0 2 0 1:-0.666667 
0 0 2 0 1:-0.666667 
0 0 2 0 1:-0.666667 
0 0 2 0 1:-0.666667 
0 0 2 0 1:-0.666667 
0 0 2 0 1:-0.666667 
0 0 2 0 1:-0.666667 
0 0 2 0 1:-0.666667 
0 0 2 0 1:-0.666667 
0 0 2 0 1:-0.666667 
0 0 2 0 1:-0.666667 
0 0 2 0 1:-0.666667 
0 0 2 0 1:-0.666667 
0 0 2 0 1:-0.666667 
0 0 2 0 1:-0.666667 
0 0 2 0 1:-0.666667 
0 0 2 0 1:-0.666667 
0 0 2 0 1:-0.666667 
0 0 2 0 1:-0.666667 
0 0 2 0 1:-0.666667 
0 0 2 0 1:-0.666667 
0 0 2 0 1:-0.666667 
0 0 2 0 1:-0.666667 
0 0 2 0 1:-0.666667 
0 0 2 0 1:-0.666667 
0 0 2 0 1:-0.666667 
0 0 2 0 1:-0.666667 
0 0 2 0 1:-0.666667 
0 0 2 0 1:-0.666667 
0 0 2 0 1:-0.666667 
0 0 2 0 1:-0.666667 
0 0 2 0 1:-0.666667 
0 0 2 0 1:-0.666667 
0 0 2 0 1:-0.666667 
0 0 2 0 1:-0.666667 
0 0 2 0 1:-0.666667 
0 0 2 0 1:-0.666667 
0 0 2 0 1:-0.666667 
0 0 2 0 1:-0.666667 
0 0 2 0 1:-0.666667 
0 0 2 0 1:-0.666667 
0 0 2 0 1:-0.666667 
0 0 2 0 1:-0.666667 
0 0 2 0 1:-0.666667 
0 0 2 0 1:-0.666667 
0 0 2 0 1:-0.666667 
0 0 2 0 1:-0.666667 
0 0 2 0 1:-0.666667 
0 0 2 0 1:-0.666667 
0 0 2 0 1:-0.666667 
0 0 2 0 1:-0.666667 
0 0 2 0 1:-0.666667 
0 0 2 0 1:-0.666667 
0 0 2 0 1:-0.666667 
0 0 2 0 1:-0.666667 
0 0 2 0 1:-0.666667 
0 0 2 0 1:-0.666667 
0 0 2 0 1:-0.666667 
0 0 2 0 1:-0.666667 
0 0 2 0 1:-0.666667 
0 0 2 0 1:-0.666667 
0 0 2 0 1:-0.666667 
0 0 2 0 1:-0.666667 
0 0 2 0 1:-0.666667 
0 0 2 0 1:-0.666667 
0 0 2 0 1:-0.666667 
0 0 2 0 1:-0.666667 
0 0 2 0 1:-0.666667 
0 0 2 0 1:-0.666667 
0 0 2 0 1:-0.666667 
0 0 2 0 1:-0.666667 
0 0 2 0 1:-0.666667 
0 0 2 0 1:-0.666667 
0 0 2 0 1:-0.666667 
0 0 2 0 1:-0.666667 
0 0 2 0 1:-0.666667 
0 0 2 0 1:-0.666667 
0 0 2 0 1:-0.666667 
0 0 2 0 1:-0.666667 
0 0 2 0 1:-0.666667 
0 0 2 0 1:-0.666667 
0 0 2 0 1:-0.666667 
0 0 2 0 1:-0.666667 
0 0 2 0 1:-0.666667 
0 0 2 0 1:-0.666667 
0 0 2 0 1:-0.666667 
0 0 2 0 1:-0.666667 
0 0 2 0 1:-0.666667 
0 0 2 0 1:-0.666667 
0 0 2 0 1:-0.666667 
0 0 2 0 1:-0.666667 
0 0 2 0 1:-0.666667 
0 0 2 0 1:-0.666667 
0 0 2 0 1:-0.666667 
0 0 2 0 1:-0.666667 
0 0 2 0 1:-0.666667 
0 0 2 0 1:-0.666667 
0 0 2 0 1:-0.666667 
0 0 2 0 1:-0.666667 
0 0 2 0 1:-0.666667 
0 0 2 0 1:-0.666667 
0 0 2 0 1:-0.666667 
0 0 2 0 1:-0.666667 
0 0 2 0 1:-0.666667 
0 0 2 0 1:-0.666667 
0 0 2 0 1:-0.666667 
0 0 2 0 1:-0.666667 
0 0 2 0 1:-0.666667 
0 0 2 0 1:-0.666667 
0 0 2 0 1:-0.666667 
0 0 2 0 1:-0.666667 
0 0 2 0 1:-0.666667 
0 0 2 0 1:-0.666667 
0 0 2 0 1:-0.666667 
0 0 2 0 1:-0.666667 
0 0 2 0 1:-0.666667 
0 0 2 0 1:-0.666667 
0 0 2 0 1:-0.666667 
0 0 2 0 1:-0.666667 
0 0 2 0 1:-0.666667 
0 0 2 0 1:-0.666667 
0 0 2 0 1:-0.666667 
0 0 2 0 1:-0.666667 
0 0 2 0 1:-0.666667 
0 0 2 0 1:-0.666667 
0 0 2 0 1:-0.666667 
0 0 2 0 1:-0.666667 
0 0 2 0 1:-0.666667 
0 0 2 0 1:-0.666667 
0 0 2 0 1:-0.666667 
0 0 2 0 1:-0.666667 
0 0 2 0 1:-0.666667 
0 0 2 0 1:-0.666667 
0 0 2 0 1:-0.666667 
0 0 2 0 1:-0.666667 
0 0 2 0 1:-0.666667 
0 0 2 0 1:-0.666667 
0 0 2 0 1:-0.666667 
0 0 2 0 1:-0.666667 
0 0 2 0 1:-0.666667 
0 0 2 0 1:-0.666667 
0 0 2 0 1:-0.666667 
0 0 2 0 1:-0.666667 
0 0 2 0 1:-0.666667 
0 0 2 0 1:-0.666667 
0 0 2 0 1:-0.666667 
0 0 2 0 1:-0.666667 
0 0 2 0 1:-0.666667 
0 0 2 0 1:-0.666667 
0 0 2 0 1:-0.666667 
0 0 2 0 1:-0.666667 
0 0 2 0 1:-0.666667 
0 0 2 0 1:-0.666667 
0 0 2 0 1:-0.666667 
0 0 2 0 1:-0.666667 
0 0 2 0 1:-0.666667 
0 0 2 0 1:-0.666667 
0 0 2 0 1:-0.666667 
0 0 2 0 1:-0.666667 
0 0 2 0 1:-0.666667 
0 0 2 0 1:-0.666667 
0 0 2 0 1:-0.666667 
0 0 2 0 1:-0.666667 
0 0 2 0 1:-0.666667 
0 0 2 0 1:-0.666667 
0 0 2 0 1:-0.666667 
0 0 2 0 1:-0.666667 
0 0 2 0 1:-0.666667 
0 0 2 0 1:-0.666667 
0 0 2 0 1:-0.666667 
0 0 2 0 1:-0.666667 
0 0 2 0 1:-0.666667 
0 0 2 0 1:-0.666667 
0 0 2 0 1:-0.666667 
0 0 2 0 1:-0.666667 
0 0 2 0 1:-0.666667 
0 0 2 0 1:-0.666667 
0 0 2 0 1:-0.666667 
0 0 2 0 1:-0.666667 
0 0 2 0 1:-0.666667 
0 0 2 0 1:-0.666667 
0 0 2 0 1:-0.666667 
0 0 2 0 1:-0.666667 
0 0 2 0 1:-0.666667 
0 0 2 0 1:-0.666667 
0 0 2 0 1:-0.666667 
0 0 2 0 1:-0.666667 
0 0 2 0 1:-0.666667 
0 0 2 0 1:-0.666667 
0 0 2 0 1:-0.666667 
0 0 2 0 1:-0.666667 
0 0 2 0 1:-0.666667 
0 0 2 0 1:-0.666667 
0 0 2 0 1:-0.666667 
0 0 2 0 1:-0.666667 
0 0 2 0 1:-0.666667 
0 0 2 0 1:-0.666667 
0 0 2 0 1:-0.666667 
0 0 2 0 1:-0.666667 
0 0 2 0 1:-0.666667 
0 0 2 0 1:-0.666667 
0 0 2 0 1:-0.666667 
0 0 2 0 1:-0.666667 
0 0 2 0 1:-0.666667 
0 0 2 0 1:-0.666667 
0 0 2 0 1:-0.666667 
0 0 2 0 1:-0.666667 
0 0 2 0 1:-0.666667 
0 0 2 0 1:-0.666667 
0 0 2 0 1:-0.666667 
0 0 2 0 1:-0.666667 
0 0 2 0 1:-0.666667 
0 0 2 0 1:-0.666667 
0 0 2 0 1:-0.666667 
0 0 2 0 1:-0.666667 
0 0 2 0 1:-0.666667 
0 0 2 0 1:-0.666667 
0 0 2 0 1:-0.666667 
0 0 2 0 1:-0.666667 
0 0 2 0 1:-0.666667 
0 0 2 0 1:-0.666667 
0 0 2 0 1:-0.666667 
0 0 2 0 1:-0.666667 
0 0 2 0 1:-0.666667 
0 0 2 0 1:-0.666667 
0 0 2 0 1:-0.666667 
0 0 2 0 1:-0.666667 
0 0 2 0 1:-0.666667 
0 0 2 0 1:-0.666667 
0 0 2 0 1:-0.666667 
0 0 2 0 1:-0.666667 
0 0 2 0 1:-0.666667 
0 0 2 0 1:-0.666667 
0 0 2 0 1:-0.666667 
0 0 2 0 1:-0.666667 
0 0 2 0 1:-0.666667 
0 0 2 0 1:-0.666667 
0 0 2 0 1:-0.666667 
0 0 2 0 1:-0.666667 
0 0 2 0 1:-0.666667 
0 0 2 0 1:-0.666667 
0 0 2 0 1:-0.666667 
0 0 2 0 1:-0.666667 
0 0 2 0 1:-0.666667 
0 0 2 0 1:-0.666667 
0 0 2 0 1:-0.666667 
0 0 2 0 1:-0.666667 
0 0 2 0 1:-0.666667 
0 0 2 0 1:-0.666667 
0 0 2 0 1:-0.666667 
0 0 2 0 1:-0.666667 
0 0 2 0 1:-0.666667 
0 0 2 0 1:-0.666667 
0 0 2 0 1:-0.666667 
0 0 2 0 1:-0.666667 
0 0 2 0 1:-0.666667 
0 0 2 0 1:-0.666667 
0 0 2 0 1:-0.666667 
0 0 2 0 1:-0.666667 
0 0 2 0 1:-0.666667 
0 0 2 0 1:-0.666667 
0 0 2 0 1:-0.666667 
0 0 2 0 1:-0.666667 
0 0 2 0 1:-0.666667 
0 0 2 0 1:-0.666667 
0 0 2 0 1:-0.666667 
0 0 2 0 1:-0.666667 
0 0 2 0 1:-0.666667 
0 0 2 0 1:-0.666667 
0 0 2 0 1:-0.666667 
0 0 2 0 1:-0.666667 
0 0 2 0 1:-0.666667 
0 0 2 0 1:-0.666667 
0 0 2 0 1:-0.666667 
0 0 2 0 1:-0.666667 
0 0 2 0 1:-0.666667 
0 0 2 0 1:-0.666667 
0 0 2 0 1:-0.666667 
0 0 2 0 1:-0.666667 
0 0 2 0 1:-0.666667 
0 0 2 0 1:-0.666667 
0 0 2 0 1:-0.666667 
0 0 2 0 1:-0.666667 
0 0 2 0 1:-0.666667 
0 0 2 0 1:-0.666667 
0 0 2 0 1:-0.666667 
0 0 2 0 1:-0.666667 
0 0 2 0 1:-0.666667 
0 0 2 0 1:-0.666667 
0 0 2 0 1:-0.666667 
0 0 2 0 1:-0.666667 
0 0 2 0 1:-0.666667 
0 0 2 0 1:-0.666667 
0 0 2 0 1:-0.666667 
0 0 2 0 1:-0.666667 
0 0 2 0 1:-0.666667 
0 0 2 0 1:-0.666667 
0 0 2 0 1:-0.666667 
0 0 2 0 1:-0.666667 
0 0 2 0 1:-0.666667 
0 0 2 0 1:-0.666667 
0 0 2 0 1:-0.666667 
0 0 2 0 1:-0.666667 
0 0 2 0 1:-0.666667 
0 0 2 0 1:-0.666667 
0 0 2 0 1:-0.666667 
0 0 2 0 1:-0.666667 
0 0 2 0 1:-0.666667 
0 0 2 0 1:-0.666667 
0 0 2 0 1:-0.666667 
0 0 2 0 1:-0.666667 
0 0 2 0 1:-0.666667 
0 0 2 0 1:-0.666667 
0 0 2 0 1:-0.666667 
0 0 2 0 1:-0.666667 
0 0 2 0 1:-0.666667 
0 0 2 0 1:-0.666667 
0 0 2 0 1:-0.666667 
0 0 2 0 1:-0.666667 
0 0 2 0 1:-0.666667 
0 0 2 0 1:-0.666667 
0 0 2 0 1:-0.666667 
0 0 2 0 1:-0.666667 
0 0 2 0 1:-0.666667 
0 0 2 0 1:-0.666667 
0 0 2 0 1:-0.666667 
0 0 2 0 1:-0.666667 
0 0 2 0 1:-0.666667 
0 0 2 0 1:-0.666667 
0 0 2 0 1:-0.666667 
0 0 2 0 1:-0.666667 
0 0 2 0 1:-0.666667 
0 0 2 0 1:-0.666667 
0 0 2 0 1:-0.666667 
0 0 2 0 1:-0.666667 
0 0 2 0 1:-0.666667 
0 0 2 0 1:-0.666667 
0 0 2 0 1:-0.666667 
0 0 2 0 1:-0.666667 
0 0 2 0 1:-0.666667 
0 0 2 0 1:-0.666667 
0 0 2 0 1:-0.666667 
0 0 2 0 1:-0.666667 
0 0 2 0 1:-0.666667 
0 0 2 0 1:-0.666667 
0 0 2 0 1:-0.666667 
0 0 2 0 1:-0.666667 
0 0 2 0 1:-0.666667 
0 0 2 0 1:-0.666667 
0 0 2 0 1:-0.666667 
0 0 2 0 1:-0.666667 
0 0 2 0 1:-0.666667 
0 0 2 0 1:-0.666667 
0 0 2 0 1:-0.666667 
0 0 2 0 1:-0.666667 
0 0 2 0 1:-0.666667 
0 0 2 0 1:-0.666667 
0 0 2 0 1:-0.666667 
0 0 2 0 1:-0.666667 
0 0 2 0 1:-0.666667 
0 0 2 0 1:-0.666667 
0 0 2 0 1:-0.666667 
0 0 2 0 1:-0.666667 
0 0 2 0 1:-0.666667 
0 0 2 0 1:-0.666667 
0 0 2 0 1:-0.666667 
0 0 2 0 1:-0.666667 
0 0 2 0 1:-0.666667 
0 0 2 0 1:-0.666667 
0 0 2 0 1:-0.666667 
0 0 2 0 1:-0.666667 
0 0 2 0 1:-0.666667 
0 0 2 0 1:-0.666667 
0 0 2 0 1:-0.666667 
0 0 2 0 1:-0.666667 
0 0 2 0 1:-0.666667 
0 0 2 0 1:-0.666667 
0 0 2 0 1:-0.666667 
0 0 2 0 1:-0.666667 
0 0 2 0 1:-0.666667 
0 0 2 0 1:-0.666667 
0 0 2 0 1:-0.666667 
0 0 2 0 1:-0.666667 
0 0 2 0 1:-0.666667 
0 0 2 0 1:-0.666667 
0 0 2 0 1:-0.666667 
0 0 2 0 1:-0.666667 
0 0 2 0 1:-0.666667 
0 0 2 0 1:-0.666667 
0 0 2 0 1:-0.666667 
0 0 2 0 1:-0.666667 
0 0 2 0 1:-0.666667 
0 0 2 0 1:-0.666667 
0 0 2 0 1:-0.666667 
0 0 2 0 1:-0.666667 
0 0 2 0 1:-0.666667 
0 0 2 0 1:-0.666667 
0 0 2 0 1:-0.666667 
0 0 2 0 1:-0.666667 
0 0 2 0 1:-0.666667 
0 0 2 0 1:-0.666667 
0 0 2 0 1:-0.666667 
0 0 2 0 1:-0.666667 
0 0 2 0 1:-0.666667 
0 0 2 0 1:-0.666667 
0 0 2 0 1:-0.666667 
0 0 2 0 1:-0.666667 
0 0 2 0 1:-0.666667 
0 0 2 0 1:-0.666667 
0 0 2 0 1:-0.666667 
0 0 2 0 1:-0.666667 
0 0 2 0 1:-0.666667 
0 0 2 0 1:-0.666667 
0 0 2 0 1:-0.666667 
0 0 2 0 1:-0.666667 
0 0 2 0 1:-0.666667 
0 0 2 0 1:-0.666667 
0 0 2 0 1:-0.666667 
0 0 2 0 1:-0.666667 
0 0 2 0 1:-0.666667 
0 0 2 0 1:-0.666667 
0 0 2 0 1:-0.666667 
0 0 2 0 1:-0.666667 
0 0 2 0 1:-0.666667 
0 0 2 0 1:-0.666667 
0 0 2 0 1:-0.666667 
0 0 2 0 1:-0.666667 
0 0 2 0 1:-0.666667 
0 0 2 0 1:-0.666667 
0 0 2 0 1:-0.666667 
0 0 2 0 1:-0.666667 
0 0 2 0 1:-0.666667 
0 0 2 0 1:-0.666667 
0 0 2 0 1:-0.666667 
0 0 2 0 1:-0.666667 
0 0 2 0 1:-0.666667 
0 0 2 0 1:-0.666667 
0 0 2 0 1:-0.666667 
0 0 2 0 1:-0.666667 
0 0 2 0 1:-0.666667 
0 0 2 0 1:-0.666667 
0 0 2 0 1:-0.666667 
0 0 2 0 1:-0.666667 
0 0 2 0 1:-0.666667 
0 0 2 0 1:-0.666667 
0 0 2 0 1:-0.666667 
0 0 2 0 1:-0.666667 
0 0 2 0 1:-0.666667 
0 0 2 0 1:-0.666667 
0 0 2 0 1:-0.666667 
0 0 2 0 1:-0.666667 
0 0 2 0 1:-0.666667 
0 0 2 0 1:-0.666667 
0 0 2 0 1:-0.666667 
0 0 2 0 1:-0.666667 
0 0 2 0 1:-0.666667 
0 0 2 0 1:-0.666667 
0 0 2 0 1:-0.666667 
0 0 2 0 1:-0.666667 
0 0 2 0 1:-0.666667 
0 0 2 0 1:-0.666667 
0 0 2 0 1:-0.666667 
0 0 2 0 1:-0.666667 
0 0 2 0 1:-0.666667 
0 0 2 0 1:-0.666667 
0 0 2 0 1:-0.666667 
0 0 2 0 1:-0.666667 
0 0 2 0 1:-0.666667 
0 0 2 0 1:-0.666667 
0 0 2 0 1:-0.666667 
0 0 2 0 1:-0.666667 
0 0 2 0 1:-0.666667 
0 0 2 0 1:-0.666667 
0 0 2 0 1:-0.666667 
0 0 2 0 1:-0.666667 
0 0 2 0 1:-0.666667 
0 0 2 0 1:-0.666667 
0 0 2 0 1:-0.666667 
0 0 2 0 1:-0.666667 
0 0 2 0 1:-0.666667 
0 0 2 0 1:-0.666667 
0 0 2 0 1:-0.666667 
0 0 2 0 1:-0.666667 
0 0 2 0 1:-0.666667 
0 0 2 0 1:-0.666667 
0 0 2 0 1:-0.666667 
0 0 2 0 1:-0.666667 
0 0 2 0 1:-0.666667 
0 0 2 0 1:-0.666667 
0 0 2 0 1:-0.666667 
0 0 2 0 1:-0.666667 
0 0 2 0 1:-0.666667 
0 0 2 0 1:-0.666667 
0 0 2 0 1:-0.666667 
0 0 2 0 1:-0.666667 
0 0 2 0 1:-0.666667 
0 0 2 0 1:-0.666667 
0 0 2 0 1:-0.666667 
0 0 2 0 1:-0.666667 
0 0 2 0 1:-0.666667 
0 0 2 0 1:-0.666667 
0 0 2 0 1:-0.666667 
0 0 2 0 1:-0.666667 
0 0 2 0 1:-0.666667 
0 0 2 0 1:-0.666667 
0 0 2 0 1:-0.666667 
0 0 2 0 1:-0.666667 
0 0 2 0 1:-0.666667 
0 0 2 0 1:-0.666667 
0 0 2 0 1:-0.666667 
0 0 2 0 1:-0.666667 
0 0 2 0 1:-0.666667 
0 0 2 0 1:-0.666667 
0 0 2 0 1:-0.666667 
0 0 2 0 1:-0.666667 
0 0 2 0 1:-0.666667 
0 0 2 0 1:-0.666667 
0 0 2 0 1:-0.666667 
0 0 2 0 1:-0.666667 
0 0 2 0 1:-0.666667 
0 0 2 0 1:-0.666667 
0 0 2 0 1:-0.666667 
0 0 2 0 1:-0.666667 
0 0 2 0 1:-0.666667 
0 0 2 0 1:-0.666667 
0 0 2 0 1:-0.666667 
0 0 2 0 1:-0.666667 
0 0 2 0 1:-0.666667 
0 0 2 0 1:-0.666667 
0 0 2 0 1:-0.666667 
0 0 2 0 1:-0.666667 
0 0 2 0 1:-0.666667 
0 0 2 0 1:-0.666667 
0 0 2 0 1:-0.666667 
0 0 2 0 1:-0.666667 
0 0 2 0 1:-0.666667 
0 0 2 0 1:-0.666667 
0 0 2 0 1:-0.666667 
0 0 2 0 1:-0.666667 
0 0 2 0 1:-0.666667 
0 0 2 0 1:-0.666667 
0 0 2 0 1:-0.666667 
0 0 2 0 1:-0.666667 
0 0 2 0 1:-0.666667 
0 0 2 0 1:-0.666667 
0 0 2 0 1:-0.666667 
0 0 2 0 1:-0.666667 
0 0 2 0 1:-0.666667 
0 0 2 0 1:-0.666667 
0 0 2 0 1:-0.666667 
0 0 2 0 1:-0.666667 
0 0 2 0 1:-0.666667 
0 0 2 0 1:-0.666667 
0 0 2 0 1:-0.666667 
0 0 2 0 1:-0.666667 
0 0 2 0 1:-0.666667 
0 0 2 0 1:-0.666667 
0 0 2 0 1:-0.666667 
0 0 2 0 1:-0.666667 
0 0 2 0 1:-0.666667 
0 0 2 0 1:-0.666667 
0 0 2 0 1:-0.666667 
0 0 2 0 1:-0.666667 
0 0 2 0 1:-0.666667 
0 0 2 0 1:-0.666667 
0 0 2 0 1:-0.666667 
0 0 2 0 1:-0.666667 
0 0 2 0 1:-0.666667 
0 0 2 0 1:-0.666667 
0 0 2 0 1:-0.666667 
0 0 2 0 1:-0.666667 
0 0 2 0 1:-0.666667 
0 0 2 0 1:-0.666667 
0 0 2 0 1:-0.666667 
0 0 2 0 1:-0.666667 
0 0 2 0 1:-0.666667 
0 0 2 0 1:-0.666667 
0 0 2 0 1:-0.666667 
0 0 2 0 1:-0.666667 
0 0 2 0 1:-0.666667 
0 0 2 0 1:-0.666667 
0 0 2 0 1:-0.666667 
0 0 2 0 1:-0.666667 
0 0 2 0 1:-0.666667 
0 0 2 0 1:-0.666667 
0 0 2 0 1:-0.666667 
0 0 2 0 1:-0.666667 
0 0 2 0 1:-0.666667 
0 0 2 0 1:-0.666667 
0 0 2 0 1:-0.666667 
0 0 2 0 1:-0.666667 
0 0 2 0 1:-0.666667 
0 0 2 0 1:-0.666667 
0 0 2 0 1:-0.666667 
0 0 2 0 1:-0.666667 
0 0 2 0 1:-0.666667 
0 0 2 0 1:-0.666667 
0 0 2 0 1:-0.666667 
0 0 2 0 1:-0.666667 
0 0 2 0 1:-0.666667 
0 0 2 0 1:-0.666667 
0 0 2 0 1:-0.666667 
0 0 2 0 1:-0.666667 
0 0 2 0 1:-0.666667 
0 0 2 0 1:-0.666667 
0 0 2 0 1:-0.666667 
0 0 2 0 1:-0.666667 
0 0 2 0 1:-0.666667 
0 0 2 0 1:-0.666667 
0 0 2 0 1:-0.666667 
0 0 2 0 1:-0.666667 
0 0 2 0 1:-0.666667 
0 0 2 0 1:-0.666667 
0 0 2 0 1:-0.666667 
0 0 2 0 1:-0.666667 
0 0 2 0 1:-0.666667 
0 0 2 0 1:-0.666667 
0 0 2 0 1:-0.666667 
0 0 2 0 1:-0.666667 
0 0 2 0 1:-0.666667 
0 0 2 0 1:-0.666667 
0 0 2 0 1:-0.666667 
0 0 2 0 1:-0.666667 
0 0 2 0 1:-0.666667 
0 0 2 0 1:-0.666667 
0 0 2 0 1:-0.666667 
0 0 2 0 1:-0.666667 
0 0 2 0 1:-0.666667 
0 0 2 0 1:-0.666667 
0 0 2 0 1:-0.666667 
0 0 2 0 1:-0.666667 
0 0 2 0 1:-0.666667 
0 0 2 0 1:-0.666667 
0 0 2 0 1:-0.666667 
0 0 2 0 1:-0.666667 
0 0 2 0 1:-0.666667 
0 0 2 0 1:-0.666667 
0 0 2 0 1:-0.666667 
0 0 2 0 1:-0.666667 
0 0 2 0 1:-0.666667 
0 0 2 0 1:-0.666667 
0 0 2 0 1:-0.666667 
0 0 2 0 1:-0.666667 
0 0 2 0 1:-0.666667 
0 0 2 0 1:-0.666667 
0 0 2 0 1:-0.666667 
0 0 2 0 1:-0.666667 
0 0 2 0 1:-0.666667 
0 0 2 0 1:-0.666667 
0 0 2 0 1:-0.666667 
0 0 2 0 1:-0.666667 
0 0 2 0 1:-0.666667 
0 0 2 0 1:-0.666667 
0 0 2 0 1:-0.666667 
0 0 2 0 1:-0.666667 
0 0 2 0 1:-0.666667 
0 0 2 0 1:-0.666667 
0 0 2 0 1:-0.666667 
0 0 2 0 1:-0.666667 
0 0 2 0 1:-0.666667 
0 0 2 0 1:-0.666667 
0 0 2 0 1:-0.666667 
0 0 2 0 1:-0.666667 
0 0 2 0 1:-0.666667 
0 0 2 0 1:-0.666667 
0 0 2 0 1:-0.666667 
0 0 2 0 1:-0.666667 
0 0 2 0 1:-0.666667 
0 0 2 0 1:-0.666667 
0 0 2 0 1:-0.666667 
0 0 2 0 1:-0.666667 
0 0 2 0 1:-0.666667 
0 0 2 0 1:-0.666667 
0 0 2 0 1:-0.666667 
0 0 2 0 1:-0.666667 
0 0 2 0 1:-0.666667 
0 0 2 0 1:-0.666667 
0 0 2 0 1:-0.666667 
0 0 2 0 1:-0.666667 
0 0 2 0 1:-0.666667 
0 0 2 0 1:-0.666667 
0 0 2 0 1:-0.666667 
0 0 2 0 1:-0.666667 
0 0 2 0 1:-0.666667 
0 0 2 0 1:-0.666667 
0 0 2 0 1:-0.666667 
0 0 2 0 1:-0.666667 
0 0 2 0 1:-0.666667 
0 0 2 0 1:-0.666667 
0 0 2 0 1:-0.666667 
0 0 2 0 1:-0.666667 
0 0 2 0 1:-0.666667 
0 0 2 0 1:-0.666667 
0 0 2 0 1:-0.666667 
0 0 2 0 1:-0.666667 
0 0 2 0 1:-0.666667 
0 0 2 0 1:-0.666667 
0 0 2 0 1:-0.666667 
0 0 2 0 1:-0.666667 
0 0 2 0 1:-0.666667 
0 0 2 0 1:-0.666667 
0 0 2 0 1:-0.666667 
0 0 2 0 1:-0.666667 
0 0 2 0 1:-0.666667 
0 0 2 0 1:-0.666667 
0 0 2 0 1:-0.666667 
0 0 2 0 1:-0.666667 
0 0 2 0 1:-0.666667 
0 0 2 0 1:-0.666667 
0 0 2 0 1:-0.666667 
0 0 2 0 1:-0.666667 
0 0 2 0 1:-0.666667 
0 0 2 0 1:-0.666667 
0 0 2 0 1:-0.666667 
0 0 2 0 1:-0.666667 
0 0 2 0 1:-0.666667 
0 0 2 0 1:-0.666667 
0 0 2 0 1:-0.666667 
0 0 2 0 1:-0.666667 
0 0 2 0 1:-0.666667 
0 0 2 0 1:-0.666667 
0 0 2 0 1:-0.666667 
0 0 2 0 1:-0.666667 
0 0 2 0 1:-0.666667 
0 0 2 0 1:-0.666667 
0 0 2 0 1:-0.666667 
0 0 2 0 1:-0.666667 
0 0 2 0 1:-0.666667 
0 0 2 0 1:-0.666667 
0 0 2 0 1:-0.666667 
0 0 2 0 1:-0.666667 
0 0 2 0 1:-0.666667 
0 0 2 0 1:-0.666667 
0 0 2 0 1:-0.666667 
0 0 2 0 1:-0.666667 
0 0 2 0 1:-0.666667 
0 0 2 0 1:-0.666667 
0 0 2 0 1:-0.666667 
0 0 2 0 1:-0.666667 
0 0 2 0 1:-0.666667 
0 0 2 0 1:-0.666667 
0 0 2 0 1:-0.666667 
0 0 2 0 1:-0.666667 
0 0 2 0 1:-0.666667 
0 0 2 0 1:-0.666667 
0 0 2 0 1:-0.666667 
0 0 2 0 1:-0.666667 
0 0 2 0 1:-0.666667 
0 0 2 0 1:-0.666667 
0 0 2 0 1:-0.666667 
0 0 2 0 1:-0.666667 
0 0 2 0 1:-0.666667 
0 0 2 0 1:-0.666667 
0 0 2 0 1:-0.666667 
0 0 2 0 1:-0.666667 
0 0 2 0 1:-0.666667 
0 0 2 0 1:-0.666667 
0 0 2 0 1:-0.666667 
0 0 2 0 1:-0.666667 
0 0 2 0 1:-0.666667 
0 0 2 0 1:-0.666667 
0 0 2 0 1:-0.666667 
0 0 2 0 1:-0.666667 
0 0 2 0 1:-0.666667 
0 0 2 0 1:-0.666667 
0 0 2 0 1:-0.666667 
0 0 2 0 1:-0.666667 
0 0 2 0 1:-0.666667 
0 0 2 0 1:-0.666667 
0 0 2 0 1:-0.666667 
0 0 2 0 1:-0.666667 
0 0 2 0 1:-0.666667 
0 0 2 0 1:-0.666667 
0 0 2 0 1:-0.666667 
0 0 2 0 1:-0.666667 
0 0 2 0 1:-0.666667 
0 0 2 0 1:-0.666667 
0 0 2 0 1:-0.666667 
0 0 2 0 1:-0.666667 
0 0 2 0 1:-0.666667 
0 0 2 0 1:-0.666667 
0 0 2 0 1:-0.666667 
0 0 2 0 1:-0.666667 
0 0 2 0 1:-0.666667 
0 0 2 0 1:-0.666667 
0 0 2 0 1:-0.666667 
0 0 2 0 1:-0.666667 
0 0 2 0 1:-0.666667 
0 0 2 0 1:-0.666667 
0 0 2 0 1:-0.666667 
0 0 2 0 1:-0.666667 
0 0 2 0 1:-0.666667 
0 0 2 0 1:-0.666667 
0 0 2 0 1:-0.666667 
0 0 2 0 1:-0.666667 
0 0 2 0 1:-0.666667 
0 0 2 0 1:-0.666667 
0 0 2 0 1:-0.666667 
0 0 2 0 1:-0.666667 
0 0 2 0 1:-0.666667 
0 0 2 0 1:-0.666667 
0 0 2 0 1:-0.666667 
0 0 2 0 1:-0.666667 
0 0 2 0 1:-0.666667 
0 0 2 0 1:-0.666667 
0 0 2 0 1:-0.666667 
0 0 2 0 1:-0.666667 
0 0 2 0 1:-0.666667 
0 0 2 0 1:-0.666667 
0 0 2 0 1:-0.666667 
0 0 2 0 1:-0.666667 
0 0 2 0 1:-0.666667 
0 0 2 0 1:-0.666667 
0 0 2 0 1:-0.666667 
0 0 2 0 1:-0.666667 
0 0 2 0 1:-0.666667 
0 0 2 0 1:-0.666667 
0 0 2 0 1:-0.666667 
0 0 2 0 1:-0.666667 
0 0 2 0 1:-0.666667 
0 0 2 0 1:-0.666667 
0 0 2 0 1:-0.666667 
0 0 2 0 1:-0.666667 
0 0 2 0 1:-0.666667 
0 0 2 0 1:-0.666667 
0 0 2 0 1:-0.666667 
0 0 2 0 1:-0.666667 
0 0 2 0 1:-0.666667 
0 0 2 0 1:-0.666667 
0 0 2 0 1:-0.666667 
0 0 2 0 1:-0.666667 
0 0 2 0 1:-0.666667 
0 0 2 0 1:-0.666667 
0 0 2 0 1:-0.666667 
0 0 2 0 1:-0.666667 
0 0 2 0 1:-0.666667 
0 0 2 0 1:-0.666667 
0 0 2 0 1:-0.666667 
0 0 2 0 1:-0.666667 
0 0 2 0 1:-0.666667 
0 0 2 0 1:-0.666667 
0 0 2 0 1:-0.666667 
0 0 2 0 1:-0.666667 
0 0 2 0 1:-0.666667 
0 0 2 0 1:-0.666667 
0 0 2 0 1:-0.666667 
0 0 2 0 1:-0.666667 
0 0 2 0 1:-0.666667 
0 0 2 0 1:-0.666667 
0 0 2 0 1:-0.666667 
0 0 2 0 1:-0.666667 
0 0 2 0 1:-0.666667 
0 0 2 0 1:-0.666667 
0 0 2 0 1:-0.666667 
0 0 2 0 1:-0.666667 
0 0 2 0 1:-0.666667 
0 0 2 0 1:-0.666667 
0 0 2 0 1:-0.666667 
0 0 2 0 1:-0.666667 
0 0 2 0 1:-0.666667 
0 0 2 0 1:-0.666667 
0 0 2 0 1:-0.666667 
0 0 2 0 1:-0.666667 
0 0 2 0 1:-0.666667 
0 0 2 0 1:-0.666667 
0 0 2 0 1:-0.666667 
0 0 2 0 1:-0.666667 
0 0 2 0 1:-0.666667 
0 0 2 0 1:-0.666667 
0 0 2 0 1:-0.666667 
0 0 2 0 1:-0.666667 
0 0 2 0 1:-0.666667 
0 0 2 0 1:-0.666667 
0 0 2 0 1:-0.666667 
0 0 2 0 1:-0.666667 
0 0 2 0 1:-0.666667 
0 0 2 0 1:-0.666667 
0 0 2 0 1:-0.666667 
0 0 2 0 1:-0.666667 
0 0 2 0 1:-0.666667 
0 0 2 0 1:-0.666667 
0 0 2 0 1:-0.666667 
0 0 2 0 1:-0.666667 
0 0 2 0 1:-0.666667 
0 0 2 0 1:-0.666667 
0 0 2 0 1:-0.666667 
0 0 2 0 1:-0.666667 
0 0 2 0 1:-0.666667 
0 0 2 0 1:-0.666667 
0 0 2 0 1:-0.666667 
0 0 2 0 1:-0.666667 
0 0 2 0 1:-0.666667 
0 0 2 0 1:-0.666667 
0 0 2 0 1:-0.666667 
0 0 2 0 1:-0.666667 
0 0 2 0 1:-0.666667 
0 0 2 0 1:-0.666667 
0 0 2 0 1:-0.666667 
0 0 2 0 1:-0.666667 
0 0 2 0 1:-0.666667 
0 0 2 0 1:-0.666667 
0 0 2 0 1:-0.666667 
0 0 2 0 1:-0.666667 
0 0 2 0 1:-0.666667 
0 0 2 0 1:-0.666667 
0 0 2 0 1:-0.666667 
0 0 2 0 1:-0.666667 
0 0 2 0 1:-0.666667 
0 0 2 0 1:-0.666667 
0 0 2 0 1:-0.666667 
0 0 2 0 1:-0.666667 
0 0 2 0 1:-0.666667 
0 0 2 0 1:-0.666667 
0 0 2 0 1:-0.666667 
0 0 2 0 1:-0.666667 
0 0 2 0 1:-0.666667 
0 0 2 0 1:-0.666667 
0 0 2 0 1:-0.666667 
0 0 2 0 1:-0.666667 
0 0 2 0 1:-0.666667 
0 0 2 0 1:-0.666667 
0 0 2 0 1:-0.666667 
0 0 2 0 1:-0.666667 
0 0 2 0 1:-0.666667 
0 0 2 0 1:-0.666667 
0 0 2 0 1:-0.666667 
0 0 2 0 1:-0.666667 
0 0 2 0 1:-0.666667 
0 0 2 0 1:-0.666667 
0 0 2 0 1:-0.666667 
0 0 2 0 1:-0.666667 
0 0 2 0 1:-0.666667 
0 0 2 0 1:-0.666667 
0 0 2 0 1:-0.666667 
0 0 2 0 1:-0.666667 
0 0 2 0 1:-0.666667 
0 0 2 0 1:-0.666667 
0 0 2 0 1:-0.666667 
0 0 2 0 1:-0.666667 
0 0 2 0 1:-0.666667 
0 0 2 0 1:-0.666667 
0 0 2 0 1:-0.666667 
0 0 2 0 1:-0.666667 
0 0 2 0 1:-0.666667 
0 0 2 0 1:-0.666667 
0 0 2 0 1:-0.666667 
0 0 2 0 1:-0.666667 
0 0 2 0 1:-0.666667 
0 0 2 0 1:-0.666667 
0 0 2 0 1:-0.666667 
0 0 2 0 1:-0.666667 
0 0 2 0 1:-0.666667 
0 0 2 0 1:-0.666667 
0 0 2 0 1:-0.666667 
0 0 2 0 1:-0.666667 
0 0 2 0 1:-0.666667 
0 0 2 0 1:-0.666667 
0 0 2 0 1:-0.666667 
0 0 2 0 1:-0.666667 
0 0 2 0 1:-0.666667 
0 0 2 0 1:-0.666667 
0 0 2 0 1:-0.666667 
0 0 2 0 1:-0.666667 
0 0 2 0 1:-0.666667 
0 0 2 0 1:-0.666667 
0 0 2 0 1:-0.666667 
0 0 2 0 1:-0.666667 
0 0 2 0 1:-0.666667 
0 0 2 0 1:-0.666667 
0 0 2 0 1:-0.666667 
0 0 2 0 1:-0.666667 
0 0 2 0 1:-0.666667 
0 0 2 0 1:-0.666667 
0 0 2 0 1:-0.666667 
0 0 2 0 1:-0.666667 
0 0 2 0 1:-0.666667 
0 0 2 0 1:-0.666667 
0 0 2 0 1:-0.666667 
0 0 2 0 1:-0.666667 
0 0 2 0 1:-0.666667 
0 0 2 0 1:-0.666667 
0 0 2 0 1:-0.666667 
0 0 2 0 1:-0.666667 
0 0 2 0 1:-0.666667 
0 0 2 0 1:-0.666667 
0 0 2 0 1:-0.666667 
0 0 2 0 1:-0.666667 
0 0 2 0 1:-0.666667 
0 0 2 0 1:-0.666667 
0 0 2 0 1:-0.666667 
0 0 2 0 1:-0.666667 
0 0 2 0 1:-0.666667 
0 0 2 0 1:-0.666667 
0 0 2 0 1:-0.666667 
0 0 2 0 1:-0.666667 
0 0 2 0 1:-0.666667 
0 0 2 0 1:-0.666667 
0 0 2 0 1:-0.666667 
0 0 2 0 1:-0.666667 
0 0 2 0 1:-0.666667 
0 0 2 0 1:-0.666667 
0 0 2 0 1:-0.666667 
0 0 2 0 1:-0.666667 
0 0 2 0 1:-0.666667 
0 0 2 0 1:-0.666667 
0 0 2 0 1:-0.666667 
0 0 2 0 1:-0.666667 
0 0 2 0 1:-0.666667 
0 0 2 0 1:-0.666667 
0 0 2 0 1:-0.666667 
0 0 2 0 1:-0.666667 
0 0 2 0 1:-0.666667 
0 0 2 0 1:-0.666667 
0 0 2 0 1:-0.666667 
0 0 2 0 1:-0.666667 
0 0 2 0 1:-0.666667 
0 0 2 0 1:-0.666667 
0 0 2 0 1:-0.666667 
0 0 2 0 1:-0.666667 
0 0 2 0 1:-0.666667 
0 0 2 0 1:-0.666667 
0 0 2 0 1:-0.666667 
0 0 2 0 1:-0.666667 
0 0 2 0 1:-0.666667 
0 0 2 0 1:-0.666667 
0 0 2 0 1:-0.666667 
0 0 2 0 1:-0.666667 
0 0 2 0 1:-0.666667 
0 0 2 0 1:-0.666667 
0 0 2 0 1:-0.666667 
0 0 2 0 1:-0.666667 
0 0 2 0 1:-0.666667 
0 0 2 0 1:-0.666667 
0 0 2 0 1:-0.666667 
0 0 2 0 1:-0.666667 
0 0 2 0 1:-0.666667 
0 0 2 0 1:-0.666667 
0 0 2 0 1:-0.666667 
0 0 2 0 1:-0.666667 
0 0 2 0 1:-0.666667 
0 0 2 0 1:-0.666667 
0 0 2 0 1:-0.666667 
0 0 2 0 1:-0.666667 
0 0 2 0 1:-0.666667 
0 0 2 0 1:-0.666667 
0 0 2 0 1:-0.666667 
0 0 2 0 1:-0.666667 
0 0 2 0 1:-0.666667 
0 0 2 0 1:-0.666667 
0 0 2 0 1:-0.666667 
0 0 2 0 1:-0.666667 
0 0 2 0 1:-0.666667 
0 0 2 0 1:-0.666667 
0 0 2 0 1:-0.666667 
0 0 2 0 1:-0.666667 
0 0 2 0 1:-0.666667 
0 0 2 0 1:-0.666667 
0 0 2 0 1:-0.666667 
0 0 2 0 1:-0.666667 
0 0 2 0 1:-0.666667 
0 0 2 0 1:-0.666667 
0 0 2 0 1:-0.666667 
0 0 2 0 1:-0.666667 
0 0 2 0 1:-0.666667 
0 0 2 0 1:-0.666667 
0 0 2 0 1:-0.666667 
0 0 2 0 1:-0.666667 
0 0 2 0 1:-0.666667 
0 0 2 0 1:-0.666667 
0 0 2 0 1:-0.666667 
0 0 2 0 1:-0.666667 
0 0 2 0 1:-0.666667 
0 0 2 0 1:-0.666667 
0 0 2 0 1:-0.666667 
0 0 2 0 1:-0.666667 
0 0 2 0 1:-0.666667 
0 0 2 0 1:-0.666667 
0 0 2 0 1:-0.666667 
0 0 2 0 1:-0.666667 
0 0 2 0 1:-0.666667 
0 0 2 0 1:-0.666667 
0 0 2 0 1:-0.666667 
0 0 2 0 1:-0.666667 
0 0 2 0 1:-0.666667 
0 0 2 0 1:-0.666667 
0 0 2 0 1:-0.666667 
0 0 2 0 1:-0.666667 
0 0 2 0 1:-0.666667 
0 0 2 0 1:-0.666667 
0 0 2 0 1:-0.666667 
0 0 2 0 1:-0.666667 
0 0 2 0 1:-0.666667 
0 0 2 0 1:-0.666667 
0 0 2 0 1:-0.666667 
0 0 2 0 1:-0.666667 
0 0 2 0 1:-0.666667 
0 0 2 0 1:-0.666667 
0 0 2 0 1:-0.666667 
0 0 2 0 1:-0.666667 
0 0 2 0 1:-0.666667 
0 0 2 0 1:-0.666667 
0 0 2 0 1:-0.666667 
0 0 2 0 1:-0.666667 
0 0 2 0 1:-0.666667 
0 0 2 0 1:-0.666667 
0 0 2 0 1:-0.666667 
0 0 2 0 1:-0.666667 
0 0 2 0 1:-0.666667 
0 0 2 0 1:-0.666667 
0 0 2 0 1:-0.666667 
0 0 2 0 1:-0.666667 
0 0 2 0 1:-0.666667 
0 0 2 0 1:-0.666667 
0 0 2 0 1:-0.666667 
0 0 2 0 1:-0.666667 
0 0 2 0 1:-0.666667 
0 0 2 0 1:-0.666667 
0 0 2 0 1:-0.666667 
0 0 2 0 1:-0.666667 
0 0 2 0 1:-0.666667 
0 0 2 0 1:-0.666667 
0 0 2 0 1:-0.666667 
0 0 2 0 1:-0.666667 
0 0 2 0 1:-0.666667 
0 0 2 0 1:-0.666667 
0 0 2 0 1:-0.666667 
0 0 2 0 1:-0.666667 
0 0 2 0 1:-0.666667 
0 0 2 0 1:-0.666667 
0 0 2 0 1:-0.666667 
0 0 2 0 1:-0.666667 
0 0 2 0 1:-0.666667 
0 0 2 0 1:-0.666667 
0 0 2 0 1:-0.666667 
0 0 2 0 1:-0.666667 
0 0 2 0 1:-0.666667 
0 0 2 0 1:-0.666667 
0 0 2 0 1:-0.666667 
0 0 2 0 1:-0.666667 
0 0 2 0 1:-0.666667 
0 0 2 0 1:-0.666667 
0 0 2 0 1:-0.666667 
0 0 2 0 1:-0.666667 
0 0 2 0 1:-0.666667 
0 0 2 0 1:-0.666667 
0 0 2 0 1:-0.666667 
0 0 2 0 1:-0.666667 
0 0 2 0 1:-0.666667 
0 0 2 0 1:-0.666667 
0 0 2 0 1:-0.666667 
0 0 2 0 1:-0.666667 
0 0 2 0 1:-0.666667 
0 0 2 0 1:-0.666667 
0 0 2 0 1:-0.666667 
0 0 2 0 1:-0.666667 
0 0 2 0 1:-0.666667 
0 0 2 0 1:-0.666667 
0 0 2 0 1:-0.666667 
0 0 2 0 1:-0.666667 
0 0 2 0 1:-0.666667 
0 0 2 0 1:-0.666667 
0 0 2 0 1:-0.666667 
0 0 2 0 1:-0.666667 
0 0 2 0 1:-0.666667 
0 0 2 0 1:-0.666667 
0 0 2 0 1:-0.666667 
0 0 2 0 1:-0.666667 
0 0 2 0 1:-0.666667 
0 0 2 0 1:-0.666667 
0 0 2 0 1:-0.666667 
0 0 2 0 1:-0.666667 
0 0 2 0 1:-0.666667 
0 0 2 0 1:-0.666667 
0 0 2 0 1:-0.666667 
0 0 2 0 1:-0.666667 
0 0 2 0 1:-0.666667 
0 0 2 0 1:-0.666667 
0 0 2 0 1:-0.666667 
0 0 2 0 1:-0.666667 
0 0 2 0 1:-0.666667 
0 0 2 0 1:-0.666667 
0 0 2 0 1:-0.666667 
0 0 2 0 1:-0.666667 
0 0 2 0 1:-0.666667 
0 0 2 0 1:-0.666667 
0 0 2 0 1:-0.666667 
0 0 2 0 1:-0.666667 
0 0 2 0 1:-0.666667 
0 0 2 0 1:-0.666667 
0 0 2 0 1:-0.666667 
0 0 2 0 1:-0.666667 
0 0 2 0 1:-0.666667 
0 0 2 0 1:-0.666667 
0 0 2 0 1:-0.666667 
0 0 2 0 1:-0.666667 
0 0 2 0 1:-0.666667 
0 2 2 0 1:-0.333333 
0 0 2 0 1:-0.666667 
0 0 2 0 1:-0.666667 
0 0 2 0 1:-0.666667 
0 0 2 0 1:-0.666667 
0 2 2 0 1:-0.333333 
0 0 2 0 1:-0.666667 
0 0 2 0 1:-0.666667 
0 0 2 0 1:-0.666667 
0 2 2 0 1:-0.333333 
0 0 2 0 1:-0.666667 
0 0 2 0 1:-0.666667 
0 0 2 0 1:-0.666667 
0 2 2 0 1:-0.333333 
0 0 2 0 1:-0.666667 
0 0 2 0 1:-0.666667 
0 0 2 0 1:-0.666667 
0 0 2 0 1:-0.666667 
0 0 2 0 1:-0.666667 
0 0 2 0 1:-0.666667 
0 0 2 0 1:-0.666667 
0 0 2 0 1:-0.666667 
0 0 2 0 1:-0.666667 
0 0 2 0 1:-0.666667 
0 0 2 0 1:-0.666667 
0 0 2 0 1:-0.666667 
0 0 2 0 1:-0.666667 
0 0 2 0 1:-0.666667 
0 0 2 0 1:-0.666667 
0 0 2 0 1:-0.666667 
0 0 2 0 1:-0.666667 
0 0 2 0 1:-0.666667 
0 0 2 0 1:-0.666667 
0 0 2 0 1:-0.666667 
0 0 2 0 1:-0.666667 
0 0 2 0 1:-0.666667 
0 0 2 0 1:-0.666667 
0 0 2 0 1:-0.666667 
0 0 2 0 1:-0.666667 
0 0 2 0 1:-0.666667 
0 0 2 0 1:-0.666667 
0 0 2 0 1:-0.666667 
0 0 2 0 1:-0.666667 
0 0 2 0 1:-0.666667 
0 0 2 0 1:-0.666667 
0 0 2 0 1:-0.666667 
0 0 2 0 1:-0.666667 
0 0 2 0 1:-0.666667 
0 0 2 0 1:-0.666667 
0 0 2 0 1:-0.666667 
0 0 2 0 1:-0.666667 
0 0 2 0 1:-0.666667 
0 0 2 0 1:-0.666667 
0 0 2 0 1:-0.666667 
0 0 2 0 1:-0.666667 
0 0 2 0 1:-0.666667 
0 0 2 0 1:-0.666667 
0 0 2 0 1:-0.666667 
0 0 2 0 1:-0.666667 
0 0 2 0 1:-0.666667 
0 0 2 0 1:-0.666667 
0 0 2 0 1:-0.666667 
0 0 2 0 1:-0.666667 
0 0 2 0 1:-0.666667 
0 0 2 0 1:-0.666667 
0 0 2 0 1:-0.666667 
0 0 2 0 1:-0.666667 
0 0 2 0 1:-0.666667 
0 0 2 0 1:-0.666667 
0 0 2 0 1:-0.666667 
0 0 2 0 1:-0.666667 
0 0 2 0 1:-0.666667 
0 0 2 0 1:-0.666667 
0 0 2 0 1:-0.666667 
0 0 2 0 1:-0.666667 
0 0 2 0 1:-0.666667 
0 0 2 0 1:-0.666667 
0 0 2 0 1:-0.666667 
0 0 2 0 1:-0.666667 
0 0 2 0 1:-0.666667 
0 0 2 0 1:-0.666667 
0 0 2 0 1:-0.666667 
0 0 2 0 1:-0.666667 
0 0 2 0 1:-0.666667 
0 0 2 0 1:-0.666667 
0 0 2 0 1:-0.666667 
0 0 2 0 1:-0.666667 
0 0 2 0 1:-0.666667 
0 0 2 0 1:-0.666667 
0 0 2 0 1:-0.666667 
0 0 2 0 1:-0.666667 
0 0 2 0 1:-0.666667 
0 0 2 0 1:-0.666667 
0 0 2 0 1:-0.666667 
0 0 2 0 1:-0.666667 
0 0 2 0 1:-0.666667 
0 0 2 0 1:-0.666667 
0 0 2 0 1:-0.666667 
0 0 2 0 1:-0.666667 
0 0 2 0 1:-0.666667 
0 0 2 0 1:-0.666667 
0 0 2 0 1:-0.666667 
0 0 2 0 1:-0.666667 
0 0 2 0 1:-0.666667 
0 0 2 0 1:-0.666667 
0 0 2 0 1:-0.666667 
0 0 2 0 1:-0.666667 
0 0 2 0 1:-0.666667 
0 0 2 0 1:-0.666667 
0 0 2 0 1:-0.666667 
0 0 2 0 1:-0.666667 
0 0 2 0 1:-0.666667 
0 0 2 0 1:-0.666667 
0 0 2 0 1:-0.666667 
0 0 2 0 1:-0.666667 
0 0 2 0 1:-0.666667 
0 0 2 0 1:-0.666667 
0 0 2 0 1:-0.666667 
0 0 2 0 1:-0.666667 
0 0 2 0 1:-0.666667 
0 0 2 0 1:-0.666667 
0 0 2 0 1:-0.666667 
0 0 2 0 1:-0.666667 
0 0 2 0 1:-0.666667 
0 0 2 0 1:-0.666667 
0 0 2 0 1:-0.666667 
0 0 2 0 1:-0.666667 
0 0 2 0 1:-0.666667 
0 0 2 0 1:-0.666667 
0 0 2 0 1:-0.666667 
0 0 2 0 1:-0.666667 
0 0 2 0 1:-0.666667 
0 0 2 0 1:-0.666667 
0 0 2 0 1:-0.666667 
0 0 2 0 1:-0.666667 
0 0 2 0 1:-0.666667 
0 0 2 0 1:-0.666667 
0 0 2 0 1:-0.666667 
0 0 2 0 1:-0.666667 
0 0 2 0 1:-0.666667 
0 0 2 0 1:-0.666667 
0 0 2 0 1:-0.666667 
0 0 2 0 1:-0.666667 
0 0 2 0 1:-0.666667 
0 0 2 0 1:-0.666667 
0 0 2 0 1:-0.666667 
0 0 2 0 1:-0.666667 
0 0 2 0 1:-0.666667 
0 0 2 0 1:-0.666667 
0 0 2 0 1:-0.666667 
0 0 2 0 1:-0.666667 
0 0 2 0 1:-0.666667 
0 0 2 0 1:-0.666667 
0 0 2 0 1:-0.666667 
0 0 2 0 1:-0.666667 
0 0 2 0 1:-0.666667 
0 0 2 0 1:-0.666667 
0 0 2 0 1:-0.666667 
0 0 2 0 1:-0.666667 
0 0 2 0 1:-0.666667 
0 0 2 0 1:-0.666667 
0 0 2 0 1:-0.666667 
0 0 2 0 1:-0.666667 
0 0 2 0 1:-0.666667 
0 0 2 0 1:-0.666667 
0 0 2 0 1:-0.666667 
0 0 2 0 1:-0.666667 
0 0 2 0 1:-0.666667 
0 0 2 0 1:-0.666667 
0 0 2 0 1:-0.666667 
0 0 2 0 1:-0.666667 
0 0 2 0 1:-0.666667 
0 0 2 0 1:-0.666667 
0 0 2 0 1:-0.666667 
0 0 2 0 1:-0.666667 
0 0 2 0 1:-0.666667 
0 0 2 0 1:-0.666667 
0 0 2 0 1:-0.666667 
0 0 2 0 1:-0.666667 
0 0 2 0 1:-0.666667 
0 0 2 0 1:-0.666667 
0 0 2 0 1:-0.666667 
0 0 2 0 1:-0.666667 
0 0 2 0 1:-0.666667 
0 0 2 0 1:-0.666667 
0 0 2 0 1:-0.666667 
0 0 2 0 1:-0.666667 
0 0 2 0 1:-0.666667 
0 0 2 0 1:-0.666667 
0 0 2 0 1:-0.666667 
0 0 2 0 1:-0.666667 
0 0 2 0 1:-0.666667 
0 0 2 0 1:-0.666667 
0 0 2 0 1:-0.666667 
0 0 2 0 1:-0.666667 
0 0 2 0 1:-0.666667 
0 0 2 0 1:-0.666667 
0 0 2 0 1:-0.666667 
0 0 2 0 1:-0.666667 
0 0 2 0 1:-0.666667 
0 0 2 0 1:-0.666667 
0 0 2 0 1:-0.666667 
0 0 2 0 1:-0.666667 
0 0 2 0 1:-0.666667 
0 0 2 0 1:-0.666667 
0 0 2 0 1:-0.666667 
0 0 2 0 1:-0.666667 
0 0 2 0 1:-0.666667 
0 0 2 0 1:-0.666667 
0 0 2 0 1:-0.666667 
0 0 2 0 1:-0.666667 
0 0 2 0 1:-0.666667 
0 0 2 0 1:-0.666667 
0 0 2 0 1:-0.666667 
0 0 2 0 1:-0.666667 
0 0 2 0 1:-0.666667 
0 0 2 0 1:-0.666667 
0 0 2 0 1:-0.666667 
0 0 2 0 1:-0.666667 
0 0 2 0 1:-0.666667 
0 0 2 0 1:-0.666667 
0 0 2 0 1:-0.666667 
0 0 2 0 1:-0.666667 
0 0 2 0 1:-0.666667 
0 0 2 0 1:-0.666667 
0 0 2 0 1:-0.666667 
0 0 2 0 1:-0.666667 
0 0 2 0 1:-0.666667 
0 0 2 0 1:-0.666667 
0 0 2 0 1:-0.666667 
0 0 2 0 1:-0.666667 
0 0 2 0 1:-0.666667 
0 0 2 0 1:-0.666667 
0 0 2 0 1:-0.666667 
0 0 2 0 1:-0.666667 
0 0 2 0 1:-0.666667 
0 0 2 0 1:-0.666667 
0 0 2 0 1:-0.666667 
0 0 2 0 1:-0.666667 
0 0 2 0 1:-0.666667 
0 0 2 0 1:-0.666667 
0 0 2 0 1:-0.666667 
0 0 2 0 1:-0.666667 
0 0 2 0 1:-0.666667 
0 0 2 0 1:-0.666667 
0 0 2 0 1:-0.666667 
0 0 2 0 1:-0.666667 
0 0 2 0 1:-0.666667 
0 0 2 0 1:-0.666667 
0 0 2 0 1:-0.666667 
0 0 2 0 1:-0.666667 
0 0 2 0 1:-0.666667 
0 0 2 0 1:-0.666667 
0 0 2 0 1:-0.666667 
0 0 2 0 1:-0.666667 
0 0 2 0 1:-0.666667 
0 0 2 0 1:-0.666667 
0 0 2 0 1:-0.666667 
0 0 2 0 1:-0.666667 
0 0 2 0 1:-0.666667 
0 0 2 0 1:-0.666667 
0 0 2 0 1:-0.666667 
0 0 2 0 1:-0.666667 
0 0 2 0 1:-0.666667 
0 0 2 0 1:-0.666667 
0 0 2 0 1:-0.666667 
0 0 2 0 1:-0.666667 
0 0 2 0 1:-0.666667 
0 0 2 0 1:-0.666667 
0 0 2 0 1:-0.666667 
0 0 2 0 1:-0.666667 
0 0 2 0 1:-0.666667 
0 0 2 0 1:-0.666667 
0 0 2 0 1:-0.666667 
0 0 2 0 1:-0.666667 
0 0 2 0 1:-0.666667 
0 0 2 0 1:-0.666667 
0 0 2 0 1:-0.666667 
0 0 2 0 1:-0.666667 
0 0 2 0 1:-0.666667 
0 0 2 0 1:-0.666667 
0 0 2 0 1:-0.666667 
0 0 2 0 1:-0.666667 
0 0 2 0 1:-0.666667 
0 0 2 0 1:-0.666667 
0 0 2 0 1:-0.666667 
0 0 2 0 1:-0.666667 
0 0 2 0 1:-0.666667 
0 0 2 0 1:-0.666667 
0 0 2 0 1:-0.666667 
0 0 2 0 1:-0.666667 
0 0 2 0 1:-0.666667 
0 0 2 0 1:-0.666667 
0 0 2 0 1:-0.666667 
0 0 2 0 1:-0.666667 
0 0 2 0 1:-0.666667 
0 0 2 0 1:-0.666667 
0 0 2 0 1:-0.666667 
0 0 2 0 1:-0.666667 
0 0 2 0 1:-0.666667 
0 0 2 0 1:-0.666667 
0 0 2 0 1:-0.666667 
0 0 2 0 1:-0.666667 
0 0 2 0 1:-0.666667 
0 0 2 0 1:-0.666667 
0 0 2 0 1:-0.666667 
0 0 2 0 1:-0.666667 
0 0 2 0 1:-0.666667 
0 0 2 0 1:-0.666667 
0 0 2 0 1:-0.666667 
0 0 2 0 1:-0.666667 
0 0 2 0 1:-0.666667 
0 0 2 0 1:-0.666667 
0 0 2 0 1:-0.666667 
0 0 2 0 1:-0.666667 
0 0 2 0 1:-0.666667 
0 0 2 0 1:-0.666667 
0 0 2 0 1:-0.666667 
0 0 2 0 1:-0.666667 
0 0 2 0 1:-0.666667 
0 0 2 0 1:-0.666667 
0 0 2 0 1:-0.666667 
0 0 2 0 1:-0.666667 
0 0 2 0 1:-0.666667 
0 0 2 0 1:-0.666667 
0 0 2 0 1:-0.666667 
0 0 2 0 1:-0.666667 
0 0 2 0 1:-0.666667 
0 0 2 0 1:-0.666667 
0 0 2 0 1:-0.666667 
0 0 2 0 1:-0.666667 
0 0 2 0 1:-0.666667 
0 0 2 0 1:-0.666667 
0 0 2 0 1:-0.666667 
0 0 2 0 1:-0.666667 
0 0 2 0 1:-0.666667 
0 0 2 0 1:-0.666667 
0 0 2 0 1:-0.666667 
0 0 2 0 1:-0.666667 
0 0 2 0 1:-0.666667 
0 0 2 0 1:-0.666667 
0 0 2 0 1:-0.666667 
0 0 2 0 1:-0.666667 
0 0 2 0 1:-0.666667 
0 0 2 0 1:-0.666667 
0 0 2 0 1:-0.666667 
0 0 2 0 1:-0.666667 
0 0 2 0 1:-0.666667 
0 0 2 0 1:-0.666667 
0 0 2 0 1:-0.666667 
0 0 2 0 1:-0.666667 
0 0 2 0 1:-0.666667 
0 0 2 0 1:-0.666667 
0 0 2 0 1:-0.666667 
0 0 2 0 1:-0.666667 
0 0 2 0 1:-0.666667 
0 0 2 0 1:-0.666667 
0 0 2 0 1:-0.666667 
0 0 2 0 1:-0.666667 
0 0 2 0 1:-0.666667 
0 0 2 0 1:-0.666667 
0 0 2 0 1:-0.666667 
0 0 2 0 1:-0.666667 
0 0 2 0 1:-0.666667 
0 0 2 0 1:-0.666667 
0 0 2 0 1:-0.666667 
0 0 2 0 1:-0.666667 
0 0 2 0 1:-0.666667 
0 0 2 0 1:-0.666667 
0 0 2 0 1:-0.666667 
0 0 2 0 1:-0.666667 
0 0 2 0 1:-0.666667 
0 0 2 0 1:-0.666667 
0 0 2 0 1:-0.666667 
0 0 2 0 1:-0.666667 
0 0 2 0 1:-0.666667 
0 0 2 0 1:-0.666667 
0 0 2 0 1:-0.666667 
0 0 2 0 1:-0.666667 
0 0 2 0 1:-0.666667 
0 0 2 0 1:-0.666667 
0 0 2 0 1:-0.666667 
0 0 2 0 1:-0.666667 
0 0 2 0 1:-0.666667 
0 0 2 0 1:-0.666667 
0 0 2 0 1:-0.666667 
0 0 2 0 1:-0.666667 
0 0 2 0 1:-0.666667 
0 0 2 0 1:-0.666667 
0 2 2 0 1:-0.333333 
0 2 2 0 1:-0.333333 
0 2 2 0 1:-0.333333 
0 2 2 0 1:-0.333333 
0 2 2 0 1:-0.333333 
0 0 2 0 1:-0.666667 
0 2 2 0 1:-0.333333 
0 2 2 0 1:-0.333333 
0 2 2 0 1:-0.333333 
0 2 2 0 1:-0.333333 
0 2 2 0 1:-0.333333 
0 2 2 0 1:-0.333333 
0 2 2 0 1:-0.333333 
0 0 2 0 1:-0.666667 
0 0 2 0 1:-0.666667 
0 0 2 0 1:-0.666667 
0 2 2 0 1:-0.333333 
0 2 2 0 1:-0.333333 
0 2 2 0 1:-0.333333 
0 2 2 0 1:-0.333333 
0 2 2 0 1:-0.333333 
0 2 2 0 1:-0.333333 
0 2 2 0 1:-0.333333 
0 2 2 0 1:-0.333333 
0 0 2 0 1:-0.666667 
0 2 2 0 1:-0.333333 
0 2 2 0 1:-0.333333 
0 0 2 0 1:-0.666667 
0 0 2 0 1:-0.666667 
0 2 2 0 1:-0.333333 
0 2 2 0 1:-0.333333 
0 2 2 0 1:-0.333333 
0 0 2 0 1:-0.666667 
0 2 2 0 1:-0.333333 
0 0 2 0 1:-0.666667 
0 0 2 0 1:-0.666667 
0 0 2 0 1:-0.666667 
0 2 2 0 1:-0.333333 
0 2 2 0 1:-0.333333 
0 2 2 0 1:-0.333333 
0 2 2 0 1:-0.333333 
0 0 2 0 1:-0.666667 
0 2 2 0 1:-0.333333 
0 2 2 0 1:-0.333333 
0 2 2 0 1:-0.333333 
0 2 2 0 1:-0.333333 
0 2 2 0 1:-0.333333 
0 0 2 0 1:-0.666667 
2 0 2 2 1:-1 
0 0 2 0 1:-0.666667 
0 2 2 0 1:-0.333333 
0 2 2 0 1:-0.333333 
0 2 2 0 1:-0.333333 
0 2 2 0 1:-0.333333 
0 2 2 0 1:-0.333333 
0 2 2 0 1:-0.333333 
0 2 2 0 1:-0.333333 
0 2 2 0 
0 2 2 0 
0 2 2 0 
0 2 2 0 
0 2 2 0 1:-0.333333 
0 2 2 0 
0 2 2 0 
0 2 2 0 
0 2 2 0 
0 2 2 0 
0 2 2 0 
0 2 2 0 
0 2 2 0 
0 2 2 0 
0 2 2 0 1:-0.333333 
0 2 2 0 
0 2 2 0 
0 2 2 0 
0 2 2 0 
0 2 2 0 
0 2 2 0 1:-0.333333 
0 2 2 0 
0 2 2 0 
0 2 2 0 
0 2 2 0 
0 2 2 0 
0 2 2 0 
0 2 2 0 
0 2 2 0 
0 2 2 0 
0 2 2 0 1:-0.333333 
0 2 2 0 
0 2 2 0 
0 2 2 0 1:-0.333333 
0 2 2 0 
0 2 2 0 
0 2 2 0 
0 0 2 0 1:-0.666667 
0 2 2 0 
0 2 2 0 1:-0.333333 
0 2 2 0 
0 2 2 0 
0 0 2 0 1:-0.666667 
0 2 2 0 
0 2 2 0 
0 2 2 0 1:-0.333333 
2 0 2 2 1:-1 
0 2 2 0 
2 0 2 2 1:-1 
0 2 2 0 
0 2 2 0 1:-0.333333 
0 0 2 0 1:-0.666667 
0 2 2 0 1:-0.333333 
0 2 2 0 1:-0.333333 
2 0 2 2 1:-1 
0 0 2 0 1:-0.666667 
0 2 2 0 1:-0.333333 
0 2 2 0 
0 0 2 0 1:-0.666667 
0 2 2 0 1:-0.333333 
0 2 2 0 1:-0.333333 
0 2 2 0 1:-0.333333 
0 2 2 0 1:-0.333333 
0 2 2 0 1:-0.333333 
0 0 2 0 1:-0.666667 
0 2 2 0 1:-0.333333 
0 2 2 0 1:-0.333333 
0 2 2 0 1:-0.333333 
0 2 2 0 1:-0.333333 
0 2 2 0 
0 2 2 0 1:-0.333333 
0 2 2 0 
0 2 2 0 
0 2 2 0 
0 2 2 0 
0 2 2 0 1:-0.333333 
0 2 2 0 1:-0.333333 
0 2 2 0 1:-0.333333 
0 2 2 0 1:-0.333333 
0 2 2 0 1:-0.333333 
0 2 2 0 
0 2 2 0 1:-0.333333 
0 2 2 0 1:-0.333333 
0 2 2 0 1:-0.333333 
2 0 2 2 1:-1 
0 2 2 0 
0 2 2 0 1:-0.333333 
0 2 2 0 
0 2 2 0 1:-0.333333 
0 2 2 0 1:-0.333333 
0 2 2 0 1:-0.333333 
0 0 2 0 1:-0.666667 
0 0 2 0 1:-0.666667 
0 2 2 0 1:-0.333333 
0 0 2 0 1:-0.666667 
0 0 2 0 1:-0.666667 
0 0 2 0 1:-0.666667 
0 0 2 0 1:-0.666667 
0 0 2 0 1:-0.666667 
2 0 2 2 1:-1 
0 0 2 0 1:-0.666667 
0 0 2 0 1:-0.666667 
0 0 2 0 1:-0.666667 
0 0 2 0 1:-0.666667 
0 0 2 0 1:-0.666667 
0 0 2 0 1:-0.666667 
0 0 2 0 1:-0.666667 
0 0 2 0 1:-0.666667 
0 0 2 0 1:-0.666667 
0 0 2 0 1:-0.666667 
0 0 2 0 1:-0.666667 
0 0 2 0 1:-0.666667 
0 0 2 0 1:-0.666667 
0 0 2 0 1:-0.666667 
0 0 2 0 1:-0.666667 
0 0 2 0 1:-0.666667 
0 0 2 0 1:-0.666667 
2 0 2 2 1:-1 
0 0 2 0 1:-0.666667 
0 0 2 0 1:-0.666667 
0 0 2 0 1:-0.666667 
0 0 2 0 1:-0.666667 
0 0 2 0 1:-0.666667 
0 0 2 0 1:-0.666667 
0 0 2 0 1:-0.666667 
0 0 2 0 1:-0.666667 
0 0 2 0 1:-0.666667 
0 0 2 0 1:-0.666667 
0 0 2 0 1:-0.666667 
0 0 2 0 1:-0.666667 
0 0 2 0 1:-0.666667 
0 0 2 0 1:-0.666667 
0 0 2 0 1:-0.666667 
0 0 2 0 1:-0.666667 
0 0 2 0 1:-0.666667 
0 0 2 0 1:-0.666667 
0 0 2 0 1:-0.666667 
0 0 2 0 1:-0.666667 
0 0 2 0 1:-0.666667 
0 0 2 0 1:-0.666667 
0 0 2 0 1:-0.666667 
0 0 2 0 1:-0.666667 
0 0 2 0 1:-0.666667 
0 0 2 0 1:-0.666667 
0 0 2 0 1:-0.666667 
0 0 2 0 1:-0.666667 
0 0 2 0 1:-0.666667 
0 0 2 0 1:-0.666667 
0 0 2 0 1:-0.666667 
0 0 2 0 1:-0.666667 
0 0 2 0 1:-0.666667 
0 0 2 0 1:-0.666667 
0 0 2 0 1:-0.666667 
0 0 2 0 1:-0.666667 
0 0 2 0 1:-0.666667 
0 0 2 0 1:-0.666667 
0 0 2 0 1:-0.666667 
0 0 2 0 1:-0.666667 
0 0 2 0 1:-0.666667 
0 0 2 0 1:-0.666667 
0 0 2 0 1:-0.666667 
0 0 2 0 1:-0.666667 
0 0 2 0 1:-0.666667 
0 0 2 0 1:-0.666667 
0 0 2 0 1:-0.666667 
0 0 2 0 1:-0.666667 
0 0 2 0 1:-0.666667 
0 0 2 0 1:-0.666667 
0 0 2 0 1:-0.666667 
0 0 2 0 1:-0.666667 
0 0 2 0 1:-0.666667 
0 0 2 0 1:-0.666667 
0 0 2 0 1:-0.666667 
0 0 2 0 1:-0.666667 
0 0 2 0 1:-0.666667 
0 0 2 0 1:-0.666667 
0 0 2 0 1:-0.666667 
0 0 2 0 1:-0.666667 
0 0 2 0 1:-0.666667 
0 0 2 0 1:-0.666667 
0 0 2 0 1:-0.666667 
0 0 2 0 1:-0.666667 
0 0 2 0 1:-0.666667 
0 0 2 0 1:-0.666667 
0 0 2 0 1:-0.666667 
0 0 2 0 1:-0.666667 
0 0 2 0 1:-0.666667 
0 0 2 0 1:-0.666667 
0 0 2 0 1:-0.666667 
0 0 2 0 1:-0.666667 
0 0 2 0 1:-0.666667 
0 0 2 0 1:-0.666667 
0 0 2 0 1:-0.666667 
0 0 2 0 1:-0.666667 
0 0 2 0 1:-0.666667 
0 0 2 0 1:-0.666667 
0 0 2 0 1:-0.666667 
0 0 2 0 1:-0.666667 
0 0 2 0 1:-0.666667 
0 0 2 0 1:-0.666667 
0 0 2 0 1:-0.666667 
0 0 2 0 1:-0.666667 
0 0 2 0 1:-0.666667 
0 0 2 0 1:-0.666667 
0 0 2 0 1:-0.666667 
0 0 2 0 1:-0.666667 
0 0 2 0 1:-0.666667 
0 0 2 0 1:-0.666667 
0 0 2 0 1:-0.666667 
2 0 2 2 1:-1 
0 0 2 0 1:-0.666667 
0 2 2 0 1:-0.333333 
2 0 2 2 1:-1 
2 0 2 2 1:-1 
2 0 2 2 1:-1 
2 0 2 2 1:-1 
2 0 2 2 1:-1 
0 0 2 0 1:-0.666667 
2 0 2 2 1:-1 
2 0 2 2 1:-1 
0 2 2 0 1:-0.333333 
2 0 2 2 1:-1 
0 0 2 0 1:-0.666667 
0 2 2 0 
0 0 2 0 1:-0.666667 
0 0 2 0 1:-0.666667 
0 0 2 0 1:-0.666667 
0 0 2 0 1:-0.666667 
0 2 2 0 1:-0.333333 
0 0 2 0 1:-0.666667 
0 2 2 0 1:-0.333333 
0 0 2 0 1:-0.666667 
0 0 2 0 1:-0.666667 
0 0 2 0 1:-0.666667 
0 0 2 0 1:-0.666667 
0 0 2 0 1:-0.666667 
0 0 2 0 1:-0.666667 
0 0 2 0 1:-0.666667 
0 2 2 0 1:-0.333333 
0 2 2 0 1:-0.333333 
0 0 2 0 1:-0.666667 
0 0 2 0 1:-0.666667 
0 0 2 0 1:-0.666667 
0 0 2 0 1:-0.666667 
2 0 2 2 1:-1 
0 2 2 0 1:-0.333333 
0 0 2 0 1:-0.666667 
2 0 2 2 1:-1 
2 0 2 2 1:-1 
0 0 2 0 1:-0.666667 
2 0 2 2 1:-1 
2 0 2 2 1:-1 
2 0 2 2 1:-1 
2 0 2 2 1:-1 
0 0 2 0 1:-0.666667 
0 0 2 0 1:-0.666667 
0 0 2 0 1:-0.666667 
0 0 2 0 1:-0.666667 
0 0 2 0 1:-0.666667 
0 0 2 0 1:-0.666667 
0 0 2 0 1:-0.666667 
0 0 2 0 1:-0.666667 
0 0 2 0 1:-0.666667 
0 0 2 0 1:-0.666667 
0 0 2 0 1:-0.666667 
0 0 2 0 1:-0.666667 
0 2 2 0 
0 0 2 0 1:-0.666667 
0 2 2 0 
0 0 2 0 1:-0.666667 
0 0 2 0 1:-0.666667 
0 0 2 0 1:-0.666667 
0 2 2 0 1:-0.333333 
0 2 2 0 1:-0.333333 
0 0 2 0 1:-0.666667 
0 2 2 0 1:-0.333333 
0 2 2 0 1:-0.333333 
0 0 2 0 1:-0.666667 
0 2 2 0 1:-0.333333 
0 2 2 0 1:-0.333333 
0 0 2 0 1:-0.666667 
0 0 2 0 1:-0.666667 
0 0 2 0 1:-0.666667 
0 2 2 0 1:-0.333333 
0 2 2 0 1:-0.333333 
0 2 2 0 1:-0.333333 
0 2 2 0 1:-0.333333 
0 0 2 0 1:-0.666667 
0 0 2 0 1:-0.666667 
0 0 2 0 1:-0.666667 
0 0 2 0 1:-0.666667 
0 2 2 0 1:-0.333333 
0 2 2 0 1:-0.333333 
0 2 2 0 1:-0.333333 
0 0 2 0 1:-0.666667 
0 0 2 0 1:-0.666667 
0 0 2 0 1:-0.666667 
0 0 2 0 1:-0.666667 
0 0 2 0 1:-0.666667 
0 2 2 0 1:-0.333333 
0 2 2 0 1:-0.333333 
0 2 2 0 1:-0.333333 
0 2 2 0 1:-0.333333 
0 0 2 0 1:-0.666667 
0 2 2 0 1:-0.333333 
0 2 2 0 1:-0.333333 
0 2 2 0 1:-0.333333 
0 2 2 0 1:-0.333333 
0 0 2 0 1:-0.666667 
0 2 2 0 1:-0.333333 
0 0 2 0 1:-0.666667 
0 2 2 0 1:-0.333333 
0 0 2 0 1:-0.666667 
0 2 2 0 1:-0.333333 
0 0 2 0 1:-0.666667 
0 0 2 0 1:-0.666667 
0 2 2 0 1:-0.333333 
0 0 2 0 1:-0.666667 
0 0 2 0 1:-0.666667 
0 0 2 0 1:-0.666667 
0 0 2 0 1:-0.666667 
0 0 2 0 1:-0.666667 
0 0 2 0 1:-0.666667 
0 0 2 0 1:-0.666667 
0 0 2 0 1:-0.666667 
0 2 2 0 1:-0.333333 
0 0 2 0 1:-0.666667 
0 0 2 0 1:-0.666667 
0 0 2 0 1:-0.666667 
0 0 2 0 1:-0.666667 
0 0 2 0 1:-0.666667 
0 0 2 0 1:-0.666667 
0 0 2 0 1:-0.666667 
0 0 2 0 1:-0.666667 
0 0 2 0 1:-0.666667 
0 0 2 0 1:-0.666667 
0 0 2 0 1:-0.666667 
0 0 2 0 1:-0.666667 
0 0 2 0 1:-0.666667 
0 0 2 0 1:-0.666667 
0 0 2 0 1:-0.666667 
0 0 2 0 1:-0.666667 
0 0 2 0 1:-0.666667 
0 0 2 0 1:-0.666667 
0 0 2 0 1:-0.666667 
0 0 2 0 1:-0.666667 
0 0 2 0 1:-0.666667 
0 0 2 0 1:-0.666667 
0 0 2 0 1:-0.666667 
0 0 2 0 1:-0.666667 
0 0 2 0 1:-0.666667 
0 0 2 0 1:-0.666667 
0 0 2 0 1:-0.666667 
0 0 2 0 1:-0.666667 
0 0 2 0 1:-0.666667 
0 0 2 0 1:-0.666667 
0 0 2 0 1:-0.666667 
0 0 2 0 1:-0.666667 
0 0 2 0 1:-0.666667 
0 0 2 0 1:-0.666667 
0 0 2 0 1:-0.666667 
0 0 2 0 1:-0.666667 
0 0 2 0 1:-0.666667 
0 0 2 0 1:-0.666667 
0 0 2 0 1:-0.666667 
0 0 2 0 1:-0.666667 
0 0 2 0 1:-0.666667 
0 0 2 0 1:-0.666667 
0 0 2 0 1:-0.666667 
0 0 2 0 1:-0.666667 
0 0 2 0 1:-0.666667 
0 0 2 0 1:-0.666667 
0 0 2 0 1:-0.666667 
0 0 2 0 1:-0.666667 
0 0 2 0 1:-0.666667 
0 0 2 0 1:-0.666667 
0 0 2 0 1:-0.666667 
0 0 2 0 1:-0.666667 
0 0 2 0 1:-0.666667 
0 0 2 0 1:-0.666667 
0 0 2 0 1:-0.666667 
0 0 2 0 1:-0.666667 
0 0 2 0 1:-0.666667 
0 0 2 0 1:-0.666667 
0 0 2 0 1:-0.666667 
0 0 2 0 1:-0.666667 
0 0 2 0 1:-0.666667 
0 0 2 0 1:-0.666667 
0 0 2 0 1:-0.666667 
0 0 2 0 1:-0.666667 
0 0 2 0 1:-0.666667 
0 0 2 0 1:-0.666667 
0 0 2 0 1:-0.666667 
0 0 2 0 1:-0.666667 
0 0 2 0 1:-0.666667 
0 0 2 0 1:-0.666667 
0 0 2 0 1:-0.666667 
0 0 2 0 1:-0.666667 
0 0 2 0 1:-0.666667 
0 0 2 0 1:-0.666667 
0 0 2 0 1:-0.666667 
0 0 2 0 1:-0.666667 
0 0 2 0 1:-0.666667 
0 0 2 0 1:-0.666667 
0 0 2 0 1:-0.666667 
0 0 2 0 1:-0.666667 
0 0 2 0 1:-0.666667 
0 0 2 0 1:-0.666667 
0 0 2 0 1:-0.666667 
0 0 2 0 1:-0.666667 
0 0 2 0 1:-0.666667 
0 0 2 0 1:-0.666667 
0 0 2 0 1:-0.666667 
0 0 2 0 1:-0.666667 
0 0 2 0 1:-0.666667 
0 0 2 0 1:-0.666667 
0 0 2 0 1:-0.666667 
0 0 2 0 1:-0.666667 
0 0 2 0 1:-0.666667 
0 0 2 0 1:-0.666667 
0 0 2 0 1:-0.666667 
0 0 2 0 1:-0.666667 
0 0 2 0 1:-0.666667 
0 0 2 0 1:-0.666667 
0 0 2 0 1:-0.666667 
0 0 2 0 1:-0.666667 
0 0 2 0 1:-0.666667 
0 0 2 0 1:-0.666667 
0 0 2 0 1:-0.666667 
0 0 2 0 1:-0.666667 
0 0 2 0 1:-0.666667 
0 0 2 0 1:-0.666667 
0 0 2 0 1:-0.666667 
0 0 2 0 1:-0.666667 
0 0 2 0 1:-0.666667 
0 0 2 0 1:-0.666667 
0 0 2 0 1:-0.666667 
0 0 2 0 1:-0.666667 
0 0 2 0 1:-0.666667 
0 0 2 0 1:-0.666667 
0 0 2 0 1:-0.666667 
0 0 2 0 1:-0.666667 
0 0 2 0 1:-0.666667 
0 0 2 0 1:-0.666667 
0 0 2 0 1:-0.666667 
0 0 2 0 1:-0.666667 
0 0 2 0 1:-0.666667 
0 0 2 0 1:-0.666667 
0 0 2 0 1:-0.666667 
0 0 2 0 1:-0.666667 
0 0 2 0 1:-0.666667 
0 0 2 0 1:-0.666667 
0 0 2 0 1:-0.666667 
0 0 2 0 1:-0.666667 
0 0 2 0 1:-0.666667 
0 0 2 0 1:-0.666667 
0 0 2 0 1:-0.666667 
0 0 2 0 1:-0.666667 
0 0 2 0 1:-0.666667 
0 0 2 0 1:-0.666667 
0 0 2 0 1:-0.666667 
0 0 2 0 1:-0.666667 
0 0 2 0 1:-0.666667 
0 0 2 1.738751116301436 1:-0.666667 
0 0 2 2 1:-0.666667 
0 0 2 2 1:-0.666667 
0 0 2 2 1:-0.666667 
0 0 2 2 1:-0.666667 
0 0 2 2 1:-0.666667 
0 0 2 2 1:-0.666667 
0 0 2 2 1:-0.666667 
0 0 2 2 1:-0.666667 
0 0 2 2 1:-0.666667 
0 0 2 2 1:-0.666667 
0 0 2 2 1:-0.666667 
0 0 2 2 1:-0.666667 
0 0 2 2 1:-0.666667 
0 0 2 2 1:-0.666667 
0 0 2 2 1:-0.666667 
0 0 2 2 1:-0.666667 
0 0 2 2 1:-0.666667 
0 0 2 2 1:-0.666667 
0 0 2 2 1:-0.666667 
0 0 2 2 1:-0.666667 
0 0 2 2 1:-0.666667 
0 0 2 2 1:-0.666667 
0 0 2 2 1:-0.666667 
0 0 2 2 1:-0.666667 
0 0 2 2 1:-0.666667 
0 0 2 2 1:-0.666667 
0 0 2 2 1:-0.666667 
0 0 2 2 1:-0.666667 
0 0 2 2 1:-0.666667 
0 0 2 2 1:-0.666667 
0 0 2 2 1:-0.666667 
0 0 2 2 1:-0.666667 
0 0 2 2 1:-0.666667 
0 0 2 2 1:-0.666667 
0 0 2 2 1:-0.666667 
0 0 2 2 1:-0.666667 
0 0 2 2 1:-0.666667 
0 0 2 2 1:-0.666667 
0 0 2 2 1:-0.666667 
0 0 2 2 1:-0.666667 
0 0 2 2 1:-0.666667 
0 0 2 2 1:-0.666667 
0 0 2 2 1:-0.666667 
0 0 2 2 1:-0.666667 
0 0 2 2 1:-0.666667 
0 0 2 2 1:-0.666667 
0 0 2 2 1:-0.666667 
0 0 2 2 1:-0.666667 
0 0 2 2 1:-0.666667 
0 0 2 2 1:-0.666667 
0 0 2 2 1:-0.666667 
0 0 2 2 1:-0.666667 
0 0 2 2 1:-0.666667 
0 0 2 2 1:-0.666667 
0 0 2 2 1:-0.666667 
0 0 2 2 1:-0.666667 
0 0 2 2 1:-0.666667 
0 0 2 2 1:-0.666667 
0 0 2 2 1:-0.666667 
0 0 2 2 1:-0.666667 
0 0 2 2 1:-0.666667 
0 0 2 2 1:-0.666667 
0 0 2 2 1:-0.666667 
0 0 2 2 1:-0.666667 
0 0 2 2 1:-0.666667 
0 0 2 2 1:-0.666667 
0 0 2 2 1:-0.666667 
0 0 2 2 1:-0.666667 
0 0 2 2 1:-0.666667 
0 0 2 2 1:-0.666667 
0 0 2 2 1:-0.666667 
0 0 2 2 1:-0.666667 
0 0 2 2 1:-0.666667 
0 0 2 2 1:-0.666667 
0 0 2 2 1:-0.666667 
0 0 2 2 1:-0.666667 
0 0 2 2 1:-0.666667 
0 0 2 2 1:-0.666667 
0 0 2 2 1:-0.666667 
0 0 2 2 1:-0.666667 
0 0 2 2 1:-0.666667 
0 0 2 2 1:-0.666667 
0 0 2 2 1:-0.666667 
0 0 2 2 1:-0.666667 
0 0 2 2 1:-0.666667 
0 0 2 2 1:-0.666667 
0 0 2 2 1:-0.666667 
0 0 2 2 1:-0.666667 
0 0 2 2 1:-0.666667 
0 0 2 2 1:-0.666667 
0 0 2 2 1:-0.666667 
0 0 2 2 1:-0.666667 
0 0 2 2 1:-0.666667 
0 0 2 2 1:-0.666667 
0 0 2 2 1:-0.666667 
0 0 2 2 1:-0.666667 
0 0 2 2 1:-0.666667 
0 0 2 2 1:-0.666667 
0 0 2 2 1:-0.666667 
0 0 2 2 1:-0.666667 
0 0 2 2 1:-0.666667 
0 0 2 2 1:-0.666667 
0 0 2 2 1:-0.666667 
0 0 2 2 1:-0.666667 
0 0 2 2 1:-0.666667 
0 0 2 2 1:-0.666667 
0 0 2 2 1:-0.666667 
0 0 2 2 1:-0.666667 
0 0 2 2 1:-0.666667 
0 0 2 2 1:-0.666667 
0 0 2 2 1:-0.666667 
0 0 2 2 1:-0.666667 
0 0 2 2 1:-0.666667 
0 0 2 2 1:-0.666667 
0 0 2 2 1:-0.666667 
0 0 2 2 1:-0.666667 
0 0 2 2 1:-0.666667 
0 0 2 2 1:-0.666667 
0 0 2 2 1:-0.666667 
0 0 2 2 1:-0.666667 
0 2 2 0 1:-0.333333 
0 0 2 2 1:-0.666667 
0 0 2 2 1:-0.666667 
0 0 2 2 1:-0.666667 
0 0 2 2 1:-0.666667 
0 0 2 2 1:-0.666667 
0 0 2 2 1:-0.666667 
0 0 2 2 1:-0.666667 
0 0 2 2 1:-0.666667 
0 0 2 2 1:-0.666667 
0 0 2 2 1:-0.666667 
0 0 2 2 1:-0.666667 
0 0 2 2 1:-0.666667 
0 0 2 2 1:-0.666667 
0 0 2 2 1:-0.666667 
0 0 2 2 1:-0.666667 
0 0 2 2 1:-0.666667 
0 0 2 2 1:-0.666667 
0 0 2 2 1:-0.666667 
0 0 2 2 1:-0.666667 
0 0 2 2 1:-0.666667 
0 0 2 2 1:-0.666667 
0 0 2 2 1:-0.666667 
0 0 2 2 1:-0.666667 
0 0 2 2 1:-0.666667 
0 0 2 2 1:-0.666667 
0 0 2 2 1:-0.666667 
0 0 2 2 1:-0.666667 
0 0 2 2 1:-0.666667 
0 0 2 2 1:-0.666667 
0 0 2 2 1:-0.666667 
0 0 2 2 1:-0.666667 
0 0 2 2 1:-0.666667 
0 0 2 2 1:-0.666667 
0 0 2 2 1:-0.666667 
0 0 2 2 1:-0.666667 
0 0 2 2 1:-0.666667 
0 0 2 2 1:-0.666667 
0 0 2 2 1:-0.666667 
0 0 2 2 1:-0.666667 
0 0 2 2 1:-0.666667 
0 0 2 2 1:-0.666667 
0 0 2 2 1:-0.666667 
0 0 2 2 1:-0.666667 
0 0 2 2 1:-0.666667 
0 0 2 2 1:-0.666667 
0 0 2 2 1:-0.666667 
0 0 2 2 1:-0.666667 
0 0 2 2 1:-0.666667 
0 0 2 2 1:-0.666667 
0 0 2 2 1:-0.666667 
0 0 2 2 1:-0.666667 
0 0 2 2 1:-0.666667 
0 0 2 2 1:-0.666667 
0 0 2 2 1:-0.666667 
0 0 2 2 1:-0.666667 
0 0 2 2 1:-0.666667 
0 0 2 2 1:-0.666667 
0 0 2 2 1:-0.666667 
0 0 2 2 1:-0.666667 
0 0 2 2 1:-0.666667 
0 0 2 2 1:-0.666667 
0 0 2 2 1:-0.666667 
0 0 2 2 1:-0.666667 
0 0 2 2 1:-0.666667 
0 0 2 2 1:-0.666667 
0 0 2 2 1:-0.666667 
0 0 2 2 1:-0.666667 
0 0 2 2 1:-0.666667 
0 0 2 2 1:-0.666667 
0 0 2 2 1:-0.666667 
0 0 2 2 1:-0.666667 
0 0 2 2 1:-0.666667 
0 0 2 2 1:-0.666667 
0 0 2 2 1:-0.666667 
0 0 2 2 1:-0.666667 
0 0 2 2 1:-0.666667 
0 0 2 2 1:-0.666667 
0 0 2 2 1:-0.666667 
0 0 2 2 1:-0.666667 
0 0 2 2 1:-0.666667 
0 0 2 2 1:-0.666667 
0 0 2 2 1:-0.666667 
0 0 2 2 1:-0.666667 
0 0 2 2 1:-0.666667 
0 0 2 2 1:-0.666667 
0 0 2 2 1:-0.666667 
0 0 2 2 1:-0.666667 
0 0 2 2 1:-0.666667 
0 0 2 2 1:-0.666667 
0 0 2 2 1:-0.666667 
0 0 2 2 1:-0.666667 
0 0 2 2 1:-0.666667 
0 0 2 2 1:-0.666667 
0 0 2 2 1:-0.666667 
0 0 2 2 1:-0.666667 
0 0 2 2 1:-0.666667 
0 0 2 2 1:-0.666667 
0 0 2 2 1:-0.666667 
0 0 2 2 1:-0.666667 
0 0 2 2 1:-0.666667 
0 2 2 0 1:-0.333333 
0 0 2 2 1:-0.666667 
0 2 2 0 1:-0.333333 
0 2 2 0 1:-0.333333 
0 2 2 0 1:-0.333333 
0 0 2 2 1:-0.666667 
0 0 2 2 1:-0.666667 
0 2 2 0 1:-0.333333 
0 2 2 0 1:-0.333333 
0 2 2 0 1:-0.333333 
0 0 2 2 1:-0.666667 
0 2 2 0 1:-0.333333 
0 2 2 0 1:-0.333333 
0 2 2 0 1:-0.333333 
0 2 2 0 1:-0.333333 
0 2 2 0 1:-0.333333 
0 0 2 2 1:-0.666667 
0 0 2 2 1:-0.666667 
0 0 2 2 1:-0.666667 
0 0 2 2 1:-0.666667 
0 0 2 2 1:-0.666667 
0 0 2 2 1:-0.666667 
0 0 2 2 1:-0.666667 
0 0 2 2 1:-0.666667 
0 0 2 2 1:-0.666667 
0 0 2 2 1:-0.666667 
0 0 2 2 1:-0.666667 
0 0 2 2 1:-0.666667 
0 0 2 2 1:-0.666667 
0 0 2 2 1:-0.666667 
0 0 2 2 1:-0.666667 
0 0 2 2 1:-0.666667 
0 0 2 2 1:-0.666667 
0 0 2 2 1:-0.666667 
0 0 2 2 1:-0.666667 
0 0 2 2 1:-0.666667 
0 0 2 2 1:-0.666667 
0 0 2 2 1:-0.666667 
0 0 2 2 1:-0.666667 
0 0 2 2 1:-0.666667 
0 0 2 2 1:-0.666667 
0 0 2 2 1:-0.666667 
0 0 2 2 1:-0.666667 
0 0 2 2 1:-0.666667 
0 0 2 2 1:-0.666667 
0 0 2 2 1:-0.666667 
0 0 2 2 1:-0.666667 
0 0 2 2 1:-0.666667 
0 0 2 2 1:-0.666667 
0 0 2 2 1:-0.666667 
0 0 2 2 1:-0.666667 
0 0 2 2 1:-0.666667 
0 0 2 2 1:-0.666667 
0 0 2 2 1:-0.666667 
0 0 2 2 1:-0.666667 
0 0 2 2 1:-0.666667 
0 0 2 2 1:-0.666667 
0 0 2 2 1:-0.666667 
0 0 2 2 1:-0.666667 
0 0 2 2 1:-0.666667 
0 0 2 2 1:-0.666667 
0 0 2 2 1:-0.666667 
0 0 2 2 1:-0.666667 
0 0 2 2 1:-0.666667 
0 0 2 2 1:-0.666667 
0 0 2 2 1:-0.666667 
0 0 2 2 1:-0.666667 
0 0 2 2 1:-0.666667 
0 0 2 2 1:-0.666667 
0 0 2 2 1:-0.666667 
0 0 2 2 1:-0.666667 
0 0 2 2 1:-0.666667 
0 0 2 2 1:-0.666667 
0 0.4626588482107544 2 2 1:-0.666667 
0 2 2 2 1:-0.666667 
0 2 2 2 1:-0.666667 
0 2 2 2 1:-0.666667 
0 2 2 2 1:-0.666667 
0 2 2 2 1:-0.666667 
0 2 2 2 1:-0.666667 
0 2 2 2 1:-0.666667 
0 2 2 2 1:-0.666667 
0 2 2 2 1:-0.666667 
0 2 2 2 1:-0.666667 
0 2 2 2 1:-0.666667 
0 2 2 2 1:-0.666667 
0 2 2 2 1:-0.666667 
0 2 2 2 1:-0.666667 
0 2 2 2 1:-0.666667 
0 2 2 2 1:-0.666667 
0 2 2 2 1:-0.666667 
0 2 2 2 1:-0.666667 
0 2 2 2 1:-0.666667 
0 2 2 2 1:-0.666667 
0 2 2 2 1:-0.666667 
0 2 2 2 1:-0.666667 
0 2 2 2 1:-0.666667 
0 2 2 2 1:-0.666667 
0 2 2 2 1:-0.666667 
0 2 2 2 1:-0.666667 
0 2 2 2 1:-0.666667 
0 2 2 0 1:-0.333333 
0 2 2 2 1:-0.666667 
0 2 2 2 1:-0.666667 
0 2 2 2 1:-0.666667 
0 2 2 2 1:-0.666667 
0 2 2 2 1:-0.666667 
0 2 2 2 1:-0.666667 
0 2 2 2 1:-0.666667 
0 2 2 2 1:-0.666667 
0 2 2 2 1:-0.666667 
0 2 2 2 1:-0.666667 
0 2 2 2 1:-0.666667 
0 2 2 2 1:-0.666667 
0 2 2 2 1:-0.666667 
0 2 2 2 1:-0.666667 
0 2 2 2 1:-0.666667 
0 2 2 2 1:-0.666667 
0 2 2 2 1:-0.666667 
0 2 2 2 1:-0.666667 
0 2 2 2 1:-0.666667 
0 2 2 2 1:-0.666667 
0 2 2 2 1:-0.666667 
0 2 2 2 1:-0.666667 
0 2 2 2 1:-0.666667 
2 0 2 2 1:-1 
2 0 2 2 1:-1 
2 0 2 2 1:-1 
0 2 2 2 1:-0.666667 
0 2 2 2 1:-0.666667 
0 2 2 2 1:-0.666667 
0 2 2 2 1:-0.666667 
0 2 2 2 1:-0.666667 
0 2 2 2 1:-0.666667 
0 2 2 2 1:-0.666667 
0 2 2 2 1:-0.666667 
0 2 2 2 1:-0.666667 
0 2 2 2 1:-0.666667 
0 2 2 2 1:-0.666667 
0 2 2 2 1:-0.666667 
0 2 2 2 1:-0.666667 
0 2 2 2 1:-0.666667 
0 2 2 2 1:-0.666667 
0 2 2 2 1:-0.666667 
0 2 2 2 1:-0.666667 
0 2 2 2 1:-0.666667 
0 2 2 2 1:-0.666667 
0 2 2 2 1:-0.666667 
0 2 2 2 1:-0.666667 
0 2 2 2 1:-0.666667 
0 2 2 2 1:-0.666667 
0 2 2 2 1:-0.666667 
0 2 2 2 1:-0.666667 
0 2 2 2 1:-0.666667 
0 2 2 2 1:-0.666667 
0 2 2 2 1:-0.666667 
0 2 2 2 1:-0.666667 
0 2 2 0 1:-0.333333 
0 2 2 0 1:-0.333333 
0 2 2 0 1:-0.333333 
0 2 2 0 1:-0.333333 
0 2 2 2 1:-0.666667 
0 2 2 2 1:-0.666667 
0 2 2 2 1:-0.666667 
0 2 2 0 1:-0.333333 
0 2 2 0 1:-0.333333 
0 2 2 2 1:-0.666667 
0 2 2 2 1:-0.666667 
0 2 2 0 1:-0.333333 
0 2 2 2 1:-0.666667 
0 2 2 2 1:-0.666667 
0 2 2 2 1:-0.666667 
0 2 2 2 1:-0.666667 
0 2 2 2 1:-0.666667 
0 2 2 2 1:-0.666667 
0 2 2 2 1:-0.666667 
0 2 2 2 1:-0.666667 
0 2 2 2 1:-0.666667 
0 2 2 2 1:-0.666667 
0 2 2 2 1:-0.666667 
0 2 2 2 1:-0.666667 
0 2 2 2 1:-0.666667 
0 2 2 2 1:-0.666667 
0 2 2 2 1:-0.666667 
0 2 2 2 1:-0.666667 
0 2 2 2 1:-0.666667 
0 2 2 2 1:-0.666667 
0 2 2 2 1:-0.666667 
0 2 2 2 1:-0.666667 
0 2 2 2 1:-0.666667 
0 2 2 2 1:-0.666667 
0 2 2 2 1:-0.666667 
0 2 2 2 1:-0.666667 
0 2 2 2 1:-0.666667 
0 2 2 2 1:-0.666667 
0 2 2 2 1:-0.666667 
0 2 2 2 1:-0.666667 
0 2 2 2 1:-0.666667 
0 2 2 2 1:-0.666667 
0 2 2 2 1:-0.666667 
0 2 2 2 1:-0.666667 
0 2 2 2 1:-0.666667 
0 2 2 2 1:-0.666667 
0 2 2 2 1:-0.666667 
0 2 2 2 1:-0.666667 
0 2 2 2 1:-0.666667 
0 2 2 2 1:-0.666667 
0 2 2 2 1:-0.666667 
0 2 2 2 1:-0.666667 
0 2 2 2 1:-0.666667 
0 2 2 2 1:-0.666667 
0 2 2 2 1:-0.666667 
0 2 2 2 1:-0.666667 
0 2 2 2 1:-0.666667 
0 2 2 2 1:-0.666667 
0 2 2 2 1:-0.666667 
0 2 2 2 1:-0.666667 
0 2 2 2 1:-0.666667 
0 2 2 2 1:-0.666667 
0 2 2 2 1:-0.666667 
0 2 2 0 1:-0.333333 
0 2 2 2 1:-0.666667 
0 2 2 2 1:-0.666667 
0 2 2 2 1:-0.666667 
0 2 2 0 1:-0.333333 
0 2 2 2 1:-0.666667 
0 2 2 2 1:-0.666667 
0 2 2 2 1:-0.666667 
0 2 2 2 1:-0.666667 
0 2 2 2 1:-0.666667 
0 2 2 2 1:-0.666667 
0 2 2 2 1:-0.666667 
0 2 2 2 1:-0.666667 
0 2 2 2 1:-0.666667 
0 2 2 2 1:-0.666667 
0 2 2 2 1:-0.666667 
0 2 2 2 1:-0.666667 
0 2 2 2 1:-0.666667 
0 2 2 2 1:-0.666667 
0 2 2 2 1:-0.666667 
0 2 2 2 1:-0.666667 
0 2 2 2 1:-0.666667 
0 2 2 2 1:-0.666667 
0 2 2 2 1:-0.666667 
0 2 2 2 1:-0.666667 
0 2 2 2 1:-0.666667 
0 2 2 2 1:-0.666667 
0 2 2 2 1:-0.666667 
0 2 2 2 1:-0.666667 
0 2 2 2 1:-0.666667 
0 2 2 2 1:-0.666667 
0 2 2 2 1:-0.666667 
0 2 2 2 1:-0.666667 
0 2 2 2 1:-0.666667 
0 2 2 2 1:-0.666667 
0 2 2 2 1:-0.666667 
0 2 2 2 1:-0.666667 
0 2 2 2 1:-0.666667 
0 2 2 2 1:-0.666667 
0 2 2 2 1:-0.666667 
0 2 2 2 1:-0.666667 
0 2 2 2 1:-0.666667 
0 2 2 2 1:-0.666667 
0 2 2 2 1:-0.666667 
0 2 2 2 1:-0.666667 
0 2 2 2 1:-0.666667 
0 2 2 2 1:-0.666667 
0 2 2 2 1:-0.666667 
0 2 2 2 1:-0.666667 
0 2 2 2 1:-0.666667 
0 2 2 2 1:-0.666667 
0 2 2 2 1:-0.666667 
0 2 2 2 1:-0.666667 
0 2 2 0 1:-0.333333 
0 2 2 2 1:-0.666667 
0 2 2 2 1:-0.666667 
0 2 2 2 1:-0.666667 
0 2 2 2 1:-0.666667 
0 2 2 2 1:-0.666667 
0 2 2 2 1:-0.666667 
0 2 2 2 1:-0.666667 
0 2 2 2 1:-0.666667 
0 2 2 2 1:-0.666667 
0 2 2 2 1:-0.666667 
0 2 2 2 1:-0.666667 
0 2 2 2 1:-0.666667 
0 2 2 2 1:-0.666667 
0 2 2 2 1:-0.666667 
0 2 2 2 1:-0.666667 
0 2 2 2 1:-0.666667 
0 2 2 2 1:-0.666667 
0 2 2 2 1:-0.666667 
0 2 2 2 1:-0.666667 
0 2 2 2 1:-0.666667 
0 2 2 2 1:-0.666667 
0 2 2 2 1:-0.666667 
0 2 2 2 1:-0.666667 
0 2 2 2 1:-0.666667 
0 2 2 2 1:-0.666667 
0 2 2 2 1:-0.666667 
0 2 2 2 1:-0.666667 
0 2 2 2 1:-0.666667 
0 2 2 2 1:-0.666667 
0 2 2 2 1:-0.666667 
0 2 2 2 1:-0.666667 
0 2 2 2 1:-0.666667 
0 2 2 2 1:-0.666667 
0 2 2 2 1:-0.666667 
0 2 2 2 1:-0.666667 
0 2 2 2 1:-0.666667 
0 2 2 2 1:-0.666667 
2 0 2 2 1:-1 
0 2 2 2 1:-0.666667 
0 2 2 2 1:-0.666667 
0 2 2 2 1:-0.666667 
0 2 2 2 1:-0.666667 
0 2 2 2 1:-0.666667 
0 2 2 2 1:-0.666667 
0 2 2 2 1:-0.666667 
0 2 2 2 1:-0.666667 
2 0 2 2 1:-1 
0 2 2 2 1:-0.666667 
0 2 2 2 1:-0.666667 
0 2 2 2 1:-0.666667 
2 0 2 2 1:-1 
2 0 2 2 1:-1 
0 2 2 2 1:-0.666667 
2 0 2 2 1:-1 
0 2 2 2 1:-0.666667 
0 2 2 2 1:-0.666667 
2 0 2 2 1:-1 
0 2 2 2 1:-0.666667 
0 2 2 2 1:-0.666667 
0 2 2 2 1:-0.666667 
0 2 2 2 1:-0.666667 
0 2 2 2 1:-0.666667 
2 0 2 2 1:-1 
2 0 2 2 1:-1 
0 2 2 2 1:-0.666667 
0 2 2 2 1:-0.666667 
0 2 2 2 1:-0.666667 
2 0 2 2 1:-1 
2 0 2 2 1:-1 
0 2 2 2 1:-0.666667 
2 0 2 2 1:-1 
0 2 2 2 1:-0.666667 
0 2 2 2 1:-0.666667 
2 0 2 2 1:-1 
2 0 2 2 1:-1 
0 2 2 2 1:-0.666667 
0 2 2 2 1:-0.666667 
0 2 2 2 1:-0.666667 
0 2 2 2 1:-0.666667 
2 0 2 2 1:-1 
2 0 2 2 1:-1 
2 0 2 2 1:-1 
2 0 2 2 1:-1 
2 0 2 2 1:-1 
2 0 2 2 1:-1 
0 2 2 2 1:-0.666667 
0 2 2 2 1:-0.666667 
0 2 2 2 1:-0.666667 
0 2 2 2 1:-0.666667 
0 2 2 2 1:-0.666667 
0 2 2 2 1:-0.666667 
0 2 2 2 1:-0.666667 
0 2 2 2 1:-0.666667 
0 2 2 2 1:-0.666667 
0 2 2 2 1:-0.666667 
0 2 2 2 1:-0.666667 
2 0 2 2 1:-1 
0 2 2 2 1:-0.666667 
2 0 2 2 1:-1 
0 2 2 2 1:-0.666667 
0 2 2 2 1:-0.666667 
2 0 2 2 1:-1 
0 2 2 2 1:-0.666667 
2 0 2 2 1:-1 
2 0 2 2 1:-1 
0 2 2 2 1:-0.666667 
2 0 2 2 1:-1 
0 2 2 2 1:-0.666667 
2 0 2 2 1:-1 
2 0 2 2 1:-1 
0 2 2 2 1:-0.666667 
0 2 2 2 1:-0.666667 
0 2 2 2 1:-0.666667 
2 0 2 2 1:-1 
2 0 2 2 1:-1 
2 0 2 2 1:-1 
0 2 2 2 1:-0.666667 
0 2 2 2 1:-0.666667 
0 2 2 2 1:-0.666667 
0 2 2 2 1:-0.666667 
0 2 2 2 1:-0.666667 
2 0 2 2 1:-1 
0 2 2 2 1:-0.666667 
0 2 2 2 1:-0.666667 
2 0 2 2 1:-1 
0 2 2 2 1:-0.666667 
2 0 2 2 1:-1 
0 2 2 2 1:-0.666667 
0 2 2 2 1:-0.666667 
0 2 2 2 1:-0.666667 
2 0 2 2 1:-1 
2 0 2 2 1:-1 
2 0 2 2 1:-1 
2 0 2 2 1:-1 
0 2 2 2 1:-0.666667 
0 2 2 2 1:-0.666667 
0 2 2 2 1:-0.666667 
0 2 2 2 1:-0.666667 
2 0 2 2 1:-1 
0 2 2 2 1:-0.666667 
2 0 2 2 1:-1 
0 2 2 2 1:-0.666667 
2 0 2 2 1:-1 
2 0 2 2 1:-1 
2 0 2 2 1:-1 
2 0 2 2 1:-1 
2 0 2 2 1:-1 
0 2 2 2 1:-0.666667 
0 2 2 2 1:-0.666667 
0 2 2 2 1:-0.666667 
0 2 2 2 1:-0.666667 
0 2 2 2 1:-0.666667 
0 2 2 2 1:-0.666667 
2 0 2 2 1:-1 
2 0 2 2 1:-1 
2 0 2 2 1:-1 
2 0 2 2 1:-1 
2 0 2 2 1:-1 
0 2 2 2 1:-0.666667 
0 2 2 2 1:-0.666667 
2 0 2 2 1:-1 
2 0 2 2 1:-1 
0 2 2 2 1:-0.666667 
2 0 2 2 1:-1 
0 2 2 2 1:-0.666667 
0 2 2 0 1:-0.333333 
0 2 2 0 1:-0.333333 
0 2 2 0 1:-0.333333 
0 2 2 0 1:-0.333333 
0 2 2 0 1:-0.333333 
0 2 2 0 1:-0.333333 
0 2 2 2 1:-0.666667 
0 2 2 2 1:-0.666667 
0 2 2 0 1:-0.333333 
0 2 2 2 1:-0.666667 
0 2 2 0 1:-0.333333 
0 2 2 0 1:-0.333333 
0 2 2 2 1:-0.666667 
0 2 2 0 1:-0.333333 
0 2 2 0 1:-0.333333 
0 2 2 0 1:-0.333333 
0 2 2 0 1:-0.333333 
0 2 2 0 1:-0.333333 
0 2 2 0 1:-0.333333 
0 2 2 2 1:-0.666667 
0 2 2 2 1:-0.666667 
0 2 2 2 1:-0.666667 
0 2 2 2 1:-0.666667 
0 2 2 2 1:-0.666667 
0 2 2 2 1:-0.666667 
0 2 2 2 1:-0.666667 
0 2 2 2 1:-0.666667 
0 2 2 2 1:-0.666667 
0 2 2 2 1:-0.666667 
0 2 2 2 1:-0.666667 
0 2 2 0 1:-0.333333 
0 2 2 2 1:-0.666667 
0 2 2 2 1:-0.666667 
0 2 2 2 1:-0.666667 
0 2 2 2 1:-0.666667 
0 2 2 2 1:-0.666667 
0 2 2 2 1:-0.666667 
0 2 2 2 1:-0.666667 
0 2 2 2 1:-0.666667 
0 2 2 2 1:-0.666667 
0 2 2 2 1:-0.666667 
0 2 2 2 1:-0.666667 
0 2 2 2 1:-0.666667 
0 2 2 2 1:-0.666667 
0 2 2 2 1:-0.666667 
0 2 2 2 1:-0.666667 
0 2 2 2 1:-0.666667 
0 2 2 2 1:-0.666667 
0 2 2 2 1:-0.666667 
0 2 2 2 1:-0.666667 
2 2 2 2 1:-0.666667 
2 2 2 2 1:-0.666667 
2 2 2 2 1:-0.666667 
2 2 2 2 1:-0.666667 
2 2 2 2 1:-0.666667 
2 2 2 2 1:-0.666667 
2 2 2 2 1:-0.666667 
2 2 2 2 1:-0.666667 
2 2 2 2 1:-0.666667 
2 2 2 2 1:-0.666667 
2 2 2 2 1:-0.666667 
2 2 2 2 1:-0.666667 
2 2 2 2 1:-0.666667 
2 2 2 2 1:-0.666667 
2 2 2 2 1:-0.666667 
2 2 2 2 1:-0.666667 
2 2 2 2 1:-0.666667 
2 2 2 2 1:-0.666667 
2 2 2 2 1:-0.666667 
2 2 2 2 1:-0.666667 
2 2 2 2 1:-0.666667 
2 2 2 2 1:-0.666667 
2 2 2 2 1:-0.666667 
2 2 2 2 1:-0.666667 
2 2 2 2 1:-0.666667 
2 2 2 2 1:-0.666667 
2 2 2 2 1:-0.666667 
2 2 2 2 1:-0.666667 
2 2 2 2 1:-0.666667 
2 2 2 2 1:-0.666667 
2 2 2 2 1:-0.666667 
2 2 2 2 1:-0.666667 
2 2 2 2 1:-0.666667 
2 2 2 2 1:-0.666667 
2 2 2 2 1:-0.666667 
2 2 2 2 1:-0.666667 
2 2 2 2 1:-0.666667 
2 2 2 2 1:-0.666667 
2 2 2 2 1:-0.666667 
2 2 2 2 1:-0.666667 
2 2 2 2 1:-0.666667 
2 2 2 2 1:-0.666667 
2 2 2 2 1:-0.666667 
2 2 2 2 1:-0.666667 
2 2 2 2 1:-0.666667 
2 2 2 2 1:-0.666667 
2 2 2 2 1:-0.666667 
2 2 2 2 1:-0.666667 
2 2 2 2 1:-0.666667 
2 2 2 2 1:-0.666667 
2 2 2 2 1:-0.666667 
2 2 2 2 1:-0.666667 
2 2 2 2 1:-0.666667 
2 2 2 2 1:-0.666667 
2 2 2 2 1:-0.666667 
2 2 2 2 1:-0.666667 
2 2 2 2 1:-0.666667 
2 2 2 2 1:-0.666667 
2 2 2 2 1:-0.666667 
2 2 2 2 1:-0.666667 
2 2 2 2 1:-0.666667 
2 2 2 2 1:-0.666667 
2 2 2 2 1:-0.666667 
2 2 2 2 1:-0.666667 
2 2 2 2 1:-0.666667 
2 2 2 2 1:-0.666667 
2 2 2 2 1:-0.666667 
2 2 2 2 1:-0.666667 
2 2 2 2 1:-0.666667 
2 2 2 2 1:-0.666667 
2 2 2 2 1:-0.666667 
2 2 2 2 1:-0.666667 
2 2 2 2 1:-0.666667 
2 2 2 2 1:-0.666667 
2 2 2 2 1:-0.666667 
2 2 2 2 1:-0.666667 
2 2 2 2 1:-0.666667 
2 2 2 2 1:-0.666667 
2 2 2 2 1:-0.666667 
2 2 2 2 1:-0.666667 
2 2 2 2 1:-0.666667 
2 2 2 2 1:-0.666667 
2 2 2 2 1:-0.666667 
2 2 2 2 1:-0.666667 
2 2 2 2 1:-0.666667 
2 2 2 2 1:-0.666667 
2 2 2 2 1:-0.666667 
2 2 2 2 1:-0.666667 
2 2 2 2 1:-0.666667 
2 2 2 2 1:-0.666667 
2 2 2 2 1:-0.666667 
2 2 2 2 1:-0.666667 
2 2 2 2 1:-0.666667 
2 2 2 2 1:-0.666667 
2 2 2 2 1:-0.666667 
2 2 2 2 1:-0.666667 
2 2 2 2 1:-0.666667 
2 2 2 2 1:-0.666667 
2 2 2 2 1:-0.666667 
2 2 2 2 1:-0.666667 
2 2 2 2 1:-0.666667 
2 2 2 2 1:-0.666667 
2 2 2 2 1:-0.666667 
2 2 2 2 1:-0.666667 
2 2 2 2 1:-0.666667 
2 2 2 2 1:-0.666667 
2 2 2 2 1:-0.666667 
2 2 2 2 1:-0.666667 
2 2 2 2 1:-0.666667 
2 2 2 2 1:-0.666667 
2 2 2 2 1:-0.666667 
2 2 2 2 1:-0.666667 
2 2 2 2 1:-0.666667 
2 2 2 2 1:-0.666667 
2 2 2 2 1:-0.666667 
2 2 2 2 1:-0.666667 
2 2 2 2 1:-0.666667 
2 2 2 2 1:-0.666667 
2 2 2 2 1:-0.666667 
2 2 2 2 1:-0.666667 
2 2 2 2 1:-0.666667 
2 2 2 2 1:-0.666667 
2 2 2 2 1:-0.666667 
2 2 2 2 1:-0.666667 
2 2 2 2 1:-0.666667 
2 2 2 2 1:-0.666667 
2 2 2 2 1:-0.666667 
2 2 2 2 1:-0.666667 
2 2 2 2 1:-0.666667 
2 2 2 2 1:-0.666667 
2 2 2 2 1:-0.666667 
2 2 2 2 1:-0.666667 
2 2 2 2 1:-0.666667 
2 2 2 2 1:-0.666667 
2 2 2 2 1:-0.666667 
2 2 2 2 1:-0.666667 
2 2 2 2 1:-0.666667 
2 2 2 2 1:-0.666667 
2 2 2 2 1:-0.666667 
2 2 2 2 1:-0.666667 
2 2 2 2 1:-0.666667 
2 2 2 2 1:-0.666667 
2 2 2 2 1:-0.666667 
2 2 2 2 1:-0.666667 
2 2 2 2 1:-0.666667 
2 2 2 2 1:-0.666667 
2 2 2 2 1:-0.666667 
2 2 2 2 1:-0.666667 
2 2 2 2 1:-0.666667 
2 2 2 2 1:-0.666667 
2 2 2 2 1:-0.666667 
2 2 2 2 1:-0.666667 
2 2 2 2 1:-0.666667 
2 2 2 2 1:-0.666667 
2 2 2 2 1:-0.666667 
2 2 2 2 1:-0.666667 
2 2 2 2 1:-0.666667 
2 2 2 2 1:-0.666667 
2 2 2 2 1:-0.666667 
2 2 2 2 1:-0.666667 
2 2 2 2 1:-0.666667 
2 2 2 2 1:-0.666667 
2 2 2 2 1:-0.666667 
2 2 2 2 1:-0.666667 
2 2 2 2 1:-0.666667 
2 2 2 2 1:-0.666667 
2 2 2 2 1:-0.666667 
2 2 2 2 1:-0.666667 
2 2 2 2 1:-0.666667 
2 2 2 2 1:-0.666667 
2 2 2 2 1:-0.666667 
2 2 2 2 1:-0.666667 
2 2 2 2 1:-0.666667 
2 2 2 2 1:-0.666667 
2 2 2 2 1:-0.666667 
2 2 2 2 1:-0.666667 
2 2 2 2 1:-0.666667 
2 2 2 2 1:-0.666667 
2 2 2 2 1:-0.666667 
2 2 2 2 1:-0.666667 
2 2 2 2 1:-0.666667 
2 2 2 2 1:-0.666667 
2 2 2 2 1:-0.666667 
2 2 2 2 1:-0.666667 
2 2 2 2 1:-0.666667 
2 2 2 2 1:-0.666667 
2 2 2 2 1:-0.666667 
2 2 2 2 1:-0.666667 
2 2 2 2 1:-0.666667 
2 2 2 2 1:-0.666667 
2 2 2 2 1:-0.666667 
2 2 2 2 1:-0.666667 
2 2 2 2 1:-0.666667 
2 2 2 2 1:-0.666667 
2 2 2 2 1:-0.666667 
2 2 2 2 1:-0.666667 
2 2 2 2 1:-0.666667 
2 2 2 2 1:-0.666667 
2 2 2 2 1:-0.666667 
2 2 2 2 1:-0.666667 
2 2 2 2 1:-0.666667 
2 2 2 2 1:-0.666667 
2 2 2 2 1:-0.666667 
2 2 2 2 1:-0.666667 
2 2 2 2 1:-0.666667 
2 2 2 2 1:-0.666667 
2 2 2 2 1:-0.666667 
2 2 2 2 1:-0.666667 
2 2 2 2 1:-0.666667 
2 2 2 2 1:-0.666667 
0 2 2 0 1:-0.333333 
2 2 2 2 1:-0.666667 
2 2 2 2 1:-0.666667 
2 2 2 2 1:-0.666667 
2 2 2 2 1:-0.666667 
2 2 2 2 1:-0.666667 
2 2 2 2 1:-0.666667 
0 2 2 0 1:-0.333333 
2 2 2 2 1:-0.666667 
2 2 2 2 1:-0.666667 
2 2 2 2 1:-0.666667 
0 2 2 0 1:-0.333333 
2 2 2 2 1:-0.666667 
2 2 2 2 1:-0.666667 
2 2 2 2 1:-0.666667 
2 2 2 2 1:-0.666667 
2 2 2 2 1:-0.666667 
2 2 2 2 1:-0.666667 
2 2 2 2 1:-0.666667 
2 2 2 2 1:-0.666667 
2 2 2 2 1:-0.666667 
2 2 2 2 1:-0.666667 
2 2 2 2 1:-0.666667 
2 2 2 2 1:-0.666667 
2 2 2 2 1:-0.666667 
2 2 2 2 1:-0.666667 
2 2 2 2 1:-0.666667 
2 2 2 2 1:-0.666667 
2 2 2 2 1:-0.666667 
2 2 2 2 1:-0.666667 
2 2 2 2 1:-0.666667 
2 2 2 2 1:-0.666667 
2 2 2 2 1:-0.666667 
2 2 2 2 1:-0.666667 
2 2 2 2 1:-0.666667 
2 2 2 2 1:-0.666667 
2 2 2 2 1:-0.666667 
2 2 2 2 1:-0.666667 
2 0 2 2 1:-1 
2 2 2 2 1:-0.666667 
2 2 2 2 1:-0.666667 
2 2 2 2 1:-0.666667 
2 2 2 2 1:-0.666667 
2 2 2 2 1:-0.666667 
2 2 2 2 1:-0.666667 
2 0 2 2 1:-1 
2 2 2 2 1:-0.666667 
2 2 2 2 1:-0.666667 
2 0 2 2 1:-1 
2 0 2 2 1:-1 
2 2 2 2 1:-0.666667 
2 2 2 2 1:-0.666667 
2 0 2 2 1:-1 
2 2 2 2 1:-0.666667 
2 2 2 2 1:-0.666667 
2 0 2 2 1:-1 
2 2 2 2 1:-0.666667 
2 2 2 2 1:-0.666667 
2 2 2 2 1:-0.666667 
2 2 2 2 1:-0.666667 
2 2 2 2 1:-0.666667 
2 2 2 2 1:-0.666667 
2 2 2 2 1:-0.666667 
2 2 2 2 1:-0.666667 
2 2 2 2 1:-0.666667 
2 2 2 2 1:-0.666667 
2 2 2 2 1:-0.666667 
2 2 2 2 1:-0.666667 
2 2 2 2 1:-0.666667 
2 2 2 2 1:-0.666667 
2 2 2 2 1:-0.666667 
2 2 2 2 1:-0.666667 
2 2 2 2 1:-0.666667 
2 2 2 2 1:-0.666667 
2 2 2 2 1:-0.666667 
2 2 2 2 1:-0.666667 
2 2 2 2 1:-0.666667 
2 2 2 2 1:-0.666667 
2 2 2 2 1:-0.666667 
2 2 2 2 1:-0.666667 
2 2 2 2 1:-0.666667 
2 2 2 2 1:-0.666667 
2 2 2 2 1:-0.666667 
2 2 2 2 1:-0.666667 
2 2 2 2 1:-0.666667 
2 2 2 2 1:-0.666667 
2 2 2 2 1:-0.666667 
2 2 2 2 1:-0.666667 
2 2 2 2 1:-0.666667 
2 2 2 2 1:-0.666667 
2 2 2 2 1:-0.666667 
2 2 2 2 1:-0.666667 
2 2 2 2 1:-0.666667 
2 2 2 2 1:-0.666667 
2 2 2 2 1:-0.666667 
2 2 2 2 1:-0.666667 
2 2 2 2 1:-0.666667 
2 2 2 2 1:-0.666667 
2 2 2 2 1:-0.666667 
2 2 2 2 1:-0.666667 
2 2 2 2 1:-0.666667 
0 2 2 0 1:-0.333333 
2 2 2 2 1:-0.666667 
0 2 2 0 1:-0.333333 
2 2 2 2 1:-0.666667 
2 2 2 2 1:-0.666667 
2 2 2 2 1:-0.666667 
0 2 2 0 1:-0.333333 
0 2 2 0 1:-0.333333 
2 2 2 2 1:-0.666667 
2 2 2 2 1:-0.666667 
2 2 2 2 1:-0.666667 
2 2 2 2 1:-0.666667 
2 2 2 2 1:-0.666667 
2 2 2 2 1:-0.666667 
2 2 2 2 1:-0.666667 
2 2 2 2 1:-0.666667 
2 2 2 2 1:-0.666667 
2 2 2 2 1:-0.666667 
2 2 2 2 1:-0.666667 
2 2 2 2 1:-0.666667 
2 2 2 2 1:-0.666667 
2 2 2 2 1:-0.666667 
2 2 2 2 1:-0.666667 
2 2 2 2 1:-0.666667 
2 2 2 2 1:-0.666667 
2 2 2 2 1:-0.666667 
2 2 2 2 1:-0.666667 
2 2 2 2 1:-0.666667 
2 2 2 2 1:-0.666667 
2 2 2 2 1:-0.666667 
2 2 2 2 1:-0.666667 
2 2 2 2 1:-0.666667 
2 2 2 2 1:-0.666667 
2 2 2 2 1:-0.666667 
2 2 2 2 1:-0.666667 
2 2 2 2 1:-0.666667 
2 2 2 2 1:-0.666667 
2 2 2 2 1:-0.666667 
2 2 2 2 1:-0.666667 
2 2 2 2 1:-0.666667 
2 2 2 2 1:-0.666667 
2 2 2 2 1:-0.666667 
2 2 2 2 1:-0.666667 
2 2 2 2 1:-0.666667 
2 2 2 2 1:-0.666667 
2 2 2 2 1:-0.666667 
2 2 2 2 1:-0.666667 
2 2 2 2 1:-0.666667 
2 2 2 2 1:-0.666667 
2 2 2 2 1:-0.666667 
2 2 2 2 1:-0.666667 
2 2 2 2 1:-0.666667 
2 2 2 2 1:-0.666667 
2 2 2 2 1:-0.666667 
2 2 2 2 1:-0.666667 
2 2 2 2 1:-0.666667 
2 2 2 2 1:-0.666667 
2 2 2 2 1:-0.666667 
2 2 2 2 1:-0.666667 
2 2 2 2 1:-0.666667 
2 2 2 2 1:-0.666667 
2 2 2 2 1:-0.666667 
2 2 2 2 1:-0.666667 
2 2 2 2 1:-0.666667 
2 2 2 2 1:-0.666667 
2 2 2 2 1:-0.666667 
2 2 2 2 1:-0.666667 
2 2 2 2 1:-0.666667 
2 2 2 2 1:-0.666667 
2 2 2 2 1:-0.666667 
2 2 2 2 1:-0.666667 
2 2 2 2 1:-0.666667 
2 2 2 2 1:-0.666667 
2 2 2 2 1:-0.666667 
2 2 2 2 1:-0.666667 
2 0 2 2 1:-1 
2 2 2 2 1:-0.666667 
2 2 2 2 1:-0.666667 
2 2 2 2 1:-0.666667 
2 2 2 2 1:-0.666667 
2 2 2 2 1:-0.666667 
2 2 2 2 1:-0.666667 
2 2 2 2 1:-0.666667 
2 2 2 2 1:-0.666667 
2 2 2 2 1:-0.666667 
2 2 2 2 1:-0.666667 
2 2 2 2 1:-0.666667 
2 2 2 2 1:-0.666667 
2 2 2 2 1:-0.666667 
2 2 2 2 1:-0.666667 
2 2 2 2 1:-0.666667 
2 2 2 2 1:-0.666667 
2 2 2 2 1:-0.666667 
2 2 2 2 1:-0.666667 
2 2 2 2 1:-0.666667 
2 2 2 2 1:-0.666667 
2 2 2 2 1:-0.666667 
2 2 2 2 1:-0.666667 
2 2 2 2 1:-0.666667 
2 2 2 2 1:-0.666667 
2 2 2 2 1:-0.666667 
2 2 2 2 1:-0.666667 
2 2 2 2 1:-0.666667 
2 2 2 2 1:-0.666667 
2 2 2 2 1:-0.666667 
2 2 2 2 1:-0.666667 
2 2 2 2 1:-0.666667 
2 2 2 2 1:-0.666667 
2 2 2 2 1:-0.666667 
2 2 2 2 1:-0.666667 
2 2 2 2 1:-0.666667 
2 2 2 2 1:-0.666667 
2 2 2 2 1:-0.666667 
2 2 2 2 1:-0.666667 
2 2 2 2 1:-0.666667 
2 2 2 2 1:-0.666667 
2 2 2 2 1:-0.666667 
2 2 2 2 1:-0.666667 
2 2 2 2 1:-0.666667 
2 2 2 2 1:-0.666667 
2 2 2 2 1:-0.666667 
2 2 2 2 1:-0.666667 
2 2 2 2 1:-0.666667 
2 2 2 2 1:-0.666667 
2 2 2 2 1:-0.666667 
2 2 2 2 1:-0.666667 
2 2 2 2 1:-0.666667 
2 2 2 2 1:-0.666667 
2 2 2 2 1:-0.666667 
2 2 2 2 1:-0.666667 
2 2 2 2 1:-0.666667 
2 2 2 2 1:-0.666667 
2 2 2 2 1:-0.666667 
2 2 2 2 1:-0.666667 
2 2 2 2 1:-0.666667 
2 2 2 2 1:-0.666667 
2 2 2 2 1:-0.666667 
2 2 2 2 1:-0.666667 
2 2 2 2 1:-0.666667 
2 2 2 2 1:-0.666667 
2 2 2 2 1:-0.666667 
2 2 2 2 1:-0.666667 
2 0 2 2 1:-1 
2 2 2 2 1:-0.666667 
2 2 2 2 1:-0.666667 
2 2 2 2 1:-0.666667 
2 2 2 2 1:-0.666667 
2 2 2 2 1:-0.666667 
2 2 2 2 1:-0.666667 
2 2 2 2 1:-0.666667 
2 2 2 2 1:-0.666667 
2 2 2 2 1:-0.666667 
2 2 2 2 1:-0.666667 
2 2 2 2 1:-0.666667 
2 2 2 2 1:-0.666667 
2 2 2 2 1:-0.666667 
2 2 2 2 1:-0.666667 
2 2 2 2 1:-0.666667 
2 2 2 2 1:-0.666667 
2 2 2 2 1:-0.666667 
2 2 2 2 1:-0.666667 
2 2 2 2 1:-0.666667 
2 2 2 2 1:-0.666667 
2 2 2 2 1:-0.666667 
2 2 2 2 1:-0.666667 
2 2 2 2 1:-0.666667 
2 0 2 2 1:-1 
2 2 2 2 1:-0.666667 
2 2 2 2 1:-0.666667 
2 2 2 2 1:-0.666667 
2 2 2 2 1:-0.666667 
2 2 2 2 1:-0.666667 
2 2 2 2 1:-0.666667 
2 2 2 2 1:-0.666667 
2 2 2 2 1:-0.666667 
2 2 2 2 1:-0.666667 
2 2 2 2 1:-0.666667 
2 2 2 2 1:-0.666667 
2 2 2 2 1:-0.666667 
2 2 2 2 1:-0.666667 
2 2 2 2 1:-0.666667 
2 2 2 2 1:-0.666667 
2 2 2 2 1:-0.666667 
2 2 2 2 1:-0.666667 
2 2 2 2 1:-0.666667 
2 2 2 2 1:-0.666667 
2 2 2 2 1:-0.666667 
2 2 2 2 1:-0.666667 
2 2 2 2 1:-0.666667 
2 2 2 2 1:-0.666667 
2 2 2 2 1:-0.666667 
2 2 2 2 1:-0.666667 
2 2 2 2 1:-0.666667 
2 2 2 2 1:-0.666667 
2 2 2 2 1:-0.666667 
2 2 2 2 1:-0.666667 
2 2 2 2 1:-0.666667 
2 0 2 2 1:-1 
2 2 2 2 1:-0.666667 
2 2 2 2 1:-0.666667 
2 2 2 2 1:-0.666667 
2 2 2 2 1:-0.666667 
2 2 2 2 1:-0.666667 
2 2 2 2 1:-0.666667 
2 2 2 2 1:-0.666667 
2 0 2 2 1:-1 
2 2 2 2 1:-0.666667 
2 2 2 2 1:-0.666667 
2 2 2 2 1:-0.666667 
2 2 2 2 1:-0.666667 
2 0 2 2 1:-1 
2 2 2 2 1:-0.666667 
2 2 2 2 1:-0.666667 
2 2 2 2 1:-0.666667 
2 2 2 2 1:-0.666667 
2 0 2 2 1:-1 
2 2 2 2 1:-0.666667 
2 2 2 2 1:-0.666667 
2 2 2 2 1:-0.666667 
2 0 2 2 1:-1 
2 2 2 2 1:-0.666667 
2 0 2 2 1:-1 
2 2 2 2 1:-0.666667 
2 2 2 2 1:-0.666667 
2 2 2 2 1:-0.666667 
2 2 2 2 1:-0.666667 
2 2 2 2 1:-0.666667 
2 0 2 2 1:-1 
2 0 2 2 1:-1 
2 2 2 2 1:-0.666667 
2 2 2 2 1:-0.666667 
2 2 2 2 1:-0.666667 
2 2 2 2 1:-0.666667 
2 2 2 2 1:-0.666667 
2 2 2 2 1:-0.666667 
2 2 2 2 1:-0.666667 
0 2 2 0 1:-0.333333 
2 2 2 2 1:-0.666667 
0 2 2 0 1:-0.333333 
2 2 2 2 1:-0.666667 
2 2 2 2 1:-0.666667 
2 2 2 2 1:-0.666667 
2 2 2 2 1:-0.666667 
2 2 2 2 1:-0.666667 
0 2 2 0 1:-0.333333 
2 2 2 2 1:-0.666667 
2 2 2 2 1:-0.666667 
0 2 2 0 1:-0.333333 
2 2 2 2 1:-0.666667 
2 2 2 2 1:-0.666667 
2 2 2 2 1:-0.666667 
2 2 2 2 1:-0.666667 
2 2 2 2 1:-0.666667 
0 2 2 0 1:-0.333333 
0 2 2 0 1:-0.333333 
2 2 2 2 1:-0.666667 
2 2 2 2 1:-0.666667 
0 2 2 0 1:-0.333333 
2 2 2 2 1:-0.666667 
2 2 2 2 1:-0.666667 
2 2 2 2 1:-0.666667 
2 2 2 2 1:-0.666667 
2 2 2 2 1:-0.666667 
2 2 2 2 1:-0.666667 
2 2 2 2 1:-0.666667 
2 2 2 2 1:-0.666667 
2 2 2 2 1:-0.666667 
2 2 2 2 1:-0.666667 
2 2 2 2 1:-0.666667 
2 2 2 2 1:-0.666667 
2 2 2 2 1:-0.666667 
2 2 2 2 1:-0.666667 
2 2 2 2 1:-0.666667 
2 2 2 2 1:-0.666667 
2 2 2 2 1:-0.666667 
2 2 2 2 1:-0.666667 
2 2 2 2 1:-0.666667 
2 2 2 2 1:-0.666667 
2 2 2 2 1:-0.666667 
2 2 2 2 1:-0.666667 
2 2 2 2 1:-0.666667 
2 2 2 2 1:-0.666667 
2 2 2 2 1:-0.666667 
2 2 2 2 1:-0.666667 
2 2 2 2 1:-0.666667 
2 2 2 2 1:-0.666667 
2 2 2 2 1:-0.666667 
2 2 2 2 1:-0.666667 
2 2 2 2 1:-0.666667 
2 2 2 2 1:-0.666667 
2 2 2 2 1:-0.666667 
2 2 2 2 1:-0.666667 
2 2 2 2 1:-0.666667 
2 2 2 2 1:-0.666667 
2 2 2 2 1:-0.666667 
2 2 2 2 1:-0.666667 
2 2 2 2 1:-0.666667 
2 2 2 2 1:-0.666667 
2 0 2 2 1:-1 
2 0 2 2 1:-1 
2 0 2 2 1:-1 
2 0 2 2 1:-1 
2 0 2 2 1:-1 
2 0 2 2 1:-1 
2 0 2 2 1:-1 
2 0 2 2 1:-1 
2 0 2 2 1:-1 
2 0 2 2 1:-1 
2 0 2 2 1:-1 
2 0 2 2 1:-1 
2 0 2 2 1:-1 
2 0 2 2 1:-1 
2 0 2 2 1:-1 
2 0 2 2 1:-1 
2 0 2 2 1:-1 
2 0 2 2 1:-1 
2 0 2 2 1:-1 
2 0 2 2 1:-1 
2 0 2 2 1:-1 
2 0 2 2 1:-1 
2 0 2 2 1:-1 
2 0 2 2 1:-1 
2 0 2 2 1:-1 
2 0 2 2 1:-1 
2 0 2 2 1:-1 
2 0 2 2 1:-1 
2 0 2 2 1:-1 
2 0 2 2 1:-1 
2 0 2 2 1:-1 
2 0 2 2 1:-1 
2 0 2 2 1:-1 
2 0 2 2 1:-1 
2 0 2 2 1:-1 
2 0 2 2 1:-1 
2 0 2 2 1:-1 
2 0 2 2 1:-1 
2 0 2 2 1:-1 
2 0 2 2 1:-1 
2 0 2 2 1:-1 
2 0 2 2 1:-1 
2 0 2 2 1:-1 
2 0 2 2 1:-1 
2 0 2 2 1:-1 
2 0 2 2 1:-1 
2 0 2 2 1:-1 
2 0 2 2 1:-1 
2 0 2 2 1:-1 
2 0 2 2 1:-1 
2 2 2 2 1:-0.666667 
2 0 2 2 1:-1 
2 0 2 2 1:-1 
2 0 2 2 1:-1 
2 0 2 2 1:-1 
2 0 2 2 1:-1 
2 0 2 2 1:-1 
2 0 2 2 1:-1 
2 2 2 2 1:-0.666667 
2 2 2 2 1:-0.666667 
2 2 2 2 1:-0.666667 
2 2 2 2 1:-0.666667 
2 2 2 2 1:-0.666667 
2 0 2 2 1:-1 
2 0 2 2 1:-1 
2 2 2 2 1:-0.666667 
2 0 2 2 1:-1 
2 2 2 2 1:-0.666667 
2 0 2 2 1:-1 
2 2 2 2 1:-0.666667 
2 2 2 2 1:-0.666667 
2 2 2 2 1:-0.666667 
2 2 2 2 1:-0.666667 
2 0 2 2 1:-1 
2 0 2 2 1:-1 
2 2 2 2 1:-0.666667 
2 2 2 2 1:-0.666667 
2 2 2 2 1:-0.666667 
2 2 2 2 1:-0.666667 
2 2 2 2 1:-0.666667 
2 2 2 2 1:-0.666667 
2 0 2 2 1:-1 
2 0 2 2 1:-1 
2 2 2 2 1:-0.666667 
2 2 2 2 1:-0.666667 
2 2 2 2 1:-0.666667 
2 2 2 2 1:-0.666667 
2 2 2 2 1:-0.666667 
2 2 2 2 1:-0.666667 
2 0 2 2 1:-1 
2 2 2 2 1:-0.666667 
2 2 2 2 1:-0.666667 
2 2 2 2 1:-0.666667 
2 2 2 2 1:-0.666667 
2 2 2 2 1:-0.666667 
2 2 2 2 1:-0.666667 
2 2 2 2 1:-0.666667 
2 2 2 2 1:-0.666667 
2 2 2 2 1:-0.666667 
2 2 2 2 1:-0.666667 
2 2 2 2 1:-0.666667 
2 2 2 2 1:-0.666667 
2 2 2 2 1:-0.666667 
2 2 2 2 1:-0.666667 
2 2 2 2 1:-0.666667 
2 2 2 2 1:-0.666667 
2 2 2 2 1:-0.666667 
2 2 2 2 1:-0.666667 
2 2 2 2 1:-0.666667 
2 2 2 2 1:-0.666667 
2 2 2 2 1:-0.666667 
2 2 2 2 1:-0.666667 
2 2 2 2 1:-0.666667 
2 2 2 2 1:-0.666667 
2 2 2 2 1:-0.666667 
2 2 2 2 1:-0.666667 
2 2 2 2 1:-0.666667 
2 2 2 2 1:-0.666667 
2 2 2 2 1:-0.666667 
2 2 2 2 1:-0.666667 
2 2 2 2 1:-0.666667 
2 2 2 2 1:-0.666667 
2 2 2 2 1:-0.666667 
2 2 2 2 1:-0.666667 
2 2 2 2 1:-0.666667 
2 2 2 2 1:-0.666667 
2 2 2 2 1:-0.666667 
2 2 2 2 1:-0.666667 
2 2 2 2 1:-0.666667 
2 2 2 2 1:-0.666667 
2 2 2 2 1:-0.666667 
2 2 2 2 1:-0.666667 
2 2 2 2 1:-0.666667 
2 2 2 2 1:-0.666667 
2 2 2 2 1:-0.666667 
2 2 2 2 1:-0.666667 
2 2 2 2 1:-0.666667 
2 2 2 2 1:-0.666667 
2 2 2 2 1:-0.666667 
2 2 2 2 1:-0.666667 
