solver_type L2R_L2LOSS_SVC_DUAL
nr_class 10
label 1 2 3 4 5 6 7 8 9 10
nr_feature 11
bias -1
w
0.2266699577631351 -1.437767439726917 -0.3143516242962486 3.043787802483378 0.07510863477010803 -0.2074467158537321 -0.159097107413259 -0.5389976807645985 0.07429930299516174 1.327062969797564 
0 0 0 0 0 0 0 0 0 0 
0 0 0 0 0 0 0 0 0 0 
0 0 0 0 0 0 0 0 0 0 
0 0 0 0 0 0 0 0 0 0 
0 0 0 0 0 0 0 0 0 0 
1.366318907732373 0.2969683453858395 0.3395608049976103 1.771503832749859 3.437747257190437 -0.4822458972359654 -0.4545733699409178 0.3168410371535432 2.016314491888255 -0.4076344572750589 
-0.3518612879580679 0.2879239379715094 -0.07169593110819936 0.901454123191632 -1.396446822042144 0.5902853817665052 0.8064580350060309 0.5399436470471957 -0.6316227393681709 0.4055949619658452 
0.6301864733045981 0.2879239379715103 -0.3187169300097527 1.296741125467863 -0.835609390650251 0.7665916480544394 0.5251173406825893 0.1427269594969684 -0.1095059734414893 1.342980405910695 
-0.6338092076251638 0.2879239379715155 0.3074759799133582 -4.131574523057537 -0.2766824670925938 -0.005314844784703687 -0.07838962606536796 0.01608731106710761 -0.2818608829427935 1.579841461033045 
-0.3735124515592952 0.2879239379715149 1.020567836346046 0.3698052274123005 -0.1330426439374519 0.02231685575899152 0.01408342001121637 0.01608731106711036 -0.1776240617609255 -2.186151930980237 
