solver_type L2R_L2LOSS_SVC_DUAL
nr_class 10
label 1 2 3 4 5 6 7 8 9 10
nr_feature 11
bias -1
w
0.3066589261517568 -1.451683765142189 -0.3390295710987183 2.90760509662422 0.1337019094547421 -0.1288429190997062 -0.1398818410427745 -0.5820117935007113 0.1343606336753221 1.426374999200311 
0.1380727338828033 0.1226935438124891 0.05164754485042776 -0.005497331069456774 0.0347790123696637 -0.10605029842976 0.02124027331352763 0.02102676348523873 0.02873034528892192 0.00093848727781313 
-0.5129016413512564 0.119154132640621 0.02177149299771035 0.1285914814444609 -0.2617382932688126 -0.03969990697248539 -0.09259750909415396 0.1521701969141548 -0.3039404211776149 -0.1995098807843785 
-0.08694119862243607 0.1223227805461355 -0.002053205278224007 -0.03540090751433686 -0.04626143868329437 0.01832996319411205 0.001404031234516804 3.489316061542139e-05 -0.044006552221479 0.1639328908507946 
0.4160283049066285 0.1223227805461427 -0.08806200149973623 -0.165081287555448 0.09764321559790969 0.1023498467585564 0.06739636926393469 0.0194507442842352 0.2227511289733029 0.06252033432870693 
0.2215540475071411 0.1136650185903905 -0.003079377888299427 -0.1113534381830046 0.1208236347303156 0.02864184892406884 0.005272189975324991 0.01396111472446078 0.1431103683841911 0.0651981635488204 
0.8979292444575165 0.1981049972630524 0.3422983222843804 1.787494773510349 3.208558912199123 -0.4306951035052848 -0.5543425022350318 0.3250116181417661 1.796371280459682 -0.4211027871236028 
0.1351982523349657 0.1990750072492946 -0.06394873803512117 0.9082538478924194 -1.137297288711971 0.6303980629248855 0.884420858032849 0.4143890058330936 -0.3886390965403176 0.4254915247513696 
0.8429253043667368 0.199090640473176 -0.3051533839873343 1.311069628937563 -0.7182472484853737 0.7872628050753888 0.5492319901510098 0.07094372587520067 -0.003297144256770324 1.308350444736878 
-0.8805989185168737 0.1404340123220343 0.2948258298461422 -3.977621726528787 -0.3648897500610271 -0.1394576355610684 -0.1007056227674574 0.02098615492983364 -0.4017374058764516 1.511596083322411 
-0.5489430391144374 0.1393384380866812 1.050220362686838 0.3930087958984119 -0.1726747582958676 -0.04153285632285914 0.02088557109373554 0.02645252706646354 -0.2624473457974079 -2.230182935764567 
