solver_type L2R_L2LOSS_SVC_DUAL
nr_class 5
label 1 2 3 4 5
nr_feature 11
bias -1
w
-0.3668121622691784 -0.5691537309109906 2.709356713981065 -3.212867503391126 1.455092208592168 
0.2690110492666046 0.06272095810690186 -0.009070678052024611 -0.09923289046854075 -0.003100732663528392 
-0.6542728331520818 0.009928104479733251 0.148486592762175 0.730094094730495 -0.1939913193772175 
-0.158144443693689 0.001228462118623501 -0.02624291284487295 0.009259762948771823 0.1433166530719616 
0.6017319565173618 -0.09579597964170976 -0.1874481372506015 0.06445023822968428 0.1058413433495403 
0.2713167035037511 0.01555786798226677 -0.007453194710701104 0.06445023822968506 0.0491412621463208 
1.565703009063721 0.3002943775969353 1.97172875735549 0.09069519629628015 -0.4275239064612385 
-0.4427032912359337 -0.1299429642812899 1.005369235326787 0.1769736551871787 0.5584600351994472 
0.1999396662178159 -0.3669619072403639 0.8518804475538009 0.1512616454105366 1.201442183005369 
-1.134475955185704 0.3994551398428453 -5.187983990124364 0.06445023822968339 1.487445302563491 
-0.03897253310968442 1.065389411541572 1.51752067991998 0.06445023822968472 -2.241475061249946 
