solver_type L2R_L2LOSS_SVC_DUAL
nr_class 10
label 1 2 3 4 5 6 7 8 9 10
nr_feature 16
bias -1
w
-2.975294214762855 -1.455489694893682 -1.269810977780203 -0.6503079331504927 0.9990020523384192 1.643191904876188 0.09379716283975609 -0.7581138776081807 2.306388728880523 2.767204899652216 
-0.01024004862477372 0.01431782000462907 0.01431423849608035 0.01173930097869467 0.02235279416988169 -0.0225407180158349 0.01563254555845005 0.01328369262249398 0.002696329488450526 -0.01297148197413275 
0.1631683974703585 0.08902641268590786 -0.02444238214600662 -0.01025318765326695 -0.01563323993313172 -0.01514997477621305 -0.004725926083286729 0.02394218152878739 -0.08483777440540463 -0.0114388533787662 
0.03772882773661101 0.09522811962263913 0.028494751076007 0.0009869514752346748 -0.02820059688409037 -0.02194241207740328 0.002909084358941674 -0.009550110355255714 -0.006208220568533008 -0.01279861078892486 
0.1585683535123883 0.09522811962263913 -0.03867809005613357 0.1375946030713054 -0.4296966938940783 0.01663117853678407 0.032912638531173 0.03402248779097167 0.03998004483480094 0.05194196174986045 
0.09784031023283875 0.09211826916650501 0.01228482386459715 -0.007820805066957622 -0.4296966938940566 0.05891602890028083 -0.008876013669219092 0.02737186877596316 0.05960268918665799 -0.009497947806768265 
-1.31622808184568 0.1179062216271051 0.1070374210369091 1.221750877332964 2.947190811063373 0.4524502827113196 -0.9912916602777108 0.1870329352749514 1.412623180169471 -0.5219700031218668 
1.00354115534412 0.1227960680808468 -0.07512278058397938 -0.02452950941900064 -0.3186534194950968 0.506565385768204 0.9678483259773464 0.2764091004543149 0.3921411235134371 0.3466787493116545 
0.9427349510818337 0.1227987692080997 -0.1728835170307627 0.5819175568418845 -0.2988065262140283 0.5257464894980428 0.4599881382128212 -0.02240900924649312 0.4051652388016355 0.6323207921067372 
0.1429500803280812 0.09277466339829188 0.4985475901622697 0.3117834057802506 0.565913695880279 -0.3446972919020261 0.5823194452403697 0.02481814264495207 -0.4022977507812379 -0.7005584169893434 
0.1509402016240233 0.09157538320704181 0.6444035368833559 2.123375305610844 0.1243548924480761 -0.2423950942536647 -0.09639844526375139 0.03140548152724985 -0.3214393743864163 -0.8270434881897505 
0.09619046660535374 0.1275066058896078 -0.1253295788454908 -0.4921550912612567 0.3805103220896637 0.6609952468292012 0.6030789011821035 0.2588162738423987 0.5422918972214513 1.376860565848522 
2.232118345738773 0.1089896658384212 0.6202716307104167 0.4473382982613262 -0.2351304884341904 -1.012164184405997 -0.05917974054483885 0.08521859156794853 -0.5757298436335541 -0.8415582783972191 
-0.1561491175557596 0.08805508326376604 0.3777746832619616 1.157504755897549 -0.5442031238896792 -0.5994104821390547 -0.1800220838619722 0.1720966257583927 -1.180018013198945 -0.4843116500174975 
-0.0485006655779318 0.08773013562426735 0.05955478056228909 -3.248377608383586 -1.159706417799104 -0.6357275618443123 -0.4414766358827918 0.004199152819090449 -0.6450368133084546 0.9596333941152878 
0.4696267221601307 0.1228229778072445 0.3254356772598364 -0.5782705075640538 -0.4296966938941025 -0.08185408540774373 -0.2576069059430376 0.1110082660437712 -0.1991746266323828 -0.6118420610879586 
