solver_type L2R_L2LOSS_SVC_DUAL
nr_class 5
label 1 2 3 4 5
nr_feature 16
bias -1
w
-1.407728568398176 -1.43200822341254 -0.341689613148093 0.961469348601425 3.131981024118365 
-0.04309108577053057 0.00888482276976986 0.03125423297500107 -0.004938256335985366 -0.01004187274002123 
0.1256315570656347 -0.02494643814786355 0.015334172663022 -0.005288462691076974 -0.02087433611192955 
0.01380791108691923 0.02387684122391712 0.009257665458303116 -0.001113455101744564 -0.01641716521626198 
0.2716706891628622 -0.04801037136766578 0.1303558902965891 0.1718792439416533 0.06958550030932513 
0.1985338460634448 0.03150394826059663 0.1243838834247222 0.1388731402720734 -0.02316937251993072 
-0.4647696249088183 0.07361362446944754 1.354797244502895 0.5184785787739536 -0.3297718506210416 
0.596495939173591 -0.120183965528765 0.1640800897931092 0.2007260664826443 0.3781666666192532 
0.5446246870922941 -0.2262263325335018 0.1769576765635302 0.2154051791517984 0.507469585034004 
-0.03198147331427117 0.5315735899500779 0.1219076869771418 -0.3257146457643695 -0.6191188478155119 
0.01794075634236381 0.6693992956505704 2.245551917731435 0.02145358789166829 -0.7164489036413311 
0.03081945515376915 -0.1561575383168332 -0.5423882728947661 0.4810315100159251 1.393900540216876 
1.621031890664346 0.5279646435679685 0.2346231092732913 -1.436654291782657 -0.8584253308132482 
-0.8238188394861923 0.4090459305912619 1.058002556638131 -0.5787298594940622 -0.6992473178025453 
-0.3181021621855075 0.07534280417066858 -3.348187018078093 -1.256738598356256 0.7514455483102553 
0.4594878183463648 0.3314662868030245 -0.5970091161924995 0.3991558291838788 -0.7590829394734699 
