solver_type L2R_L2LOSS_SVC_DUAL
nr_class 10
label 1 2 3 4 5 6 7 8 9 10
nr_feature 21
bias -1
w
-2.878839812596365 -1.454750828511678 0.9330706090211381 -0.4534498889049521 2.170614514606555 1.651572793104895 0.1253584275542418 -0.8565872702170007 0.7592576075364459 0.3860723638524486 
-0.01437634081841764 0.01265366627540381 0.04593228432250186 0.01347075573428665 0.03815618033512472 -0.02404424924223203 0.01071423362285869 0.008500323164801276 -0.003789118097958837 -0.00637003335277584 
0.1585018666318598 0.07529852595894143 -0.01073707834164712 -0.01381629386181908 -0.02857799515614529 -0.02305031829539802 -0.001772586185611255 0.03316859332227028 -0.007541114698653168 -0.02719831371860729 
0.03636748983964561 0.07605868867085414 -0.03416072589858855 0.01157312930362041 -0.0383374455120523 -0.01668575048548079 0.002405568131080109 -0.009763598106729554 0.009956639413986276 -0.002768505719160163 
0.1069458989518728 0.07672372208934133 0.09776408457848587 -0.02434099486977632 -0.2174246466706665 0.0263885896071894 0.07783217289643077 0.01952353900626977 -0.0012718981181503 0.03850014056514009 
0.06562732787290587 0.07486007498772862 -0.01517741098932054 0.007866903250528145 -0.08711789553851006 0.05009776609278751 -0.007699144666432494 0.01016993985538034 0.002557180949850232 -0.03005778290676139 
-1.39594226449473 0.08858440557620126 0.6021876132592927 0.8710005553004101 2.92717296817157 0.4321025124539026 -1.005047917811606 0.1036474940687333 1.245729858736036 -0.5478149881816186 
0.8915691662411976 0.09325052854788762 0.6328320029859253 -0.2077590764128703 0.05431638898758044 0.5205576266568072 0.9579840147570844 0.2786985012156981 0.16078143420024 -0.170613582000353 
0.8286179668811484 0.0932523612648658 0.6202071857241016 0.582045151672924 0.0856662753094862 0.543988335104122 0.4566919363751727 0.01398291222630719 0.1671427320232769 -0.2359943720061441 
0.1210172046333672 0.08316375634877857 -0.2869424640115403 0.147105274583039 0.4310782144071003 -0.3828955112114786 0.5459306016250914 0.00804807065616471 -0.08373704901120062 -0.01714393185839043 
0.1260827912721804 0.08471937685661071 0.1132677793664685 2.933988938295928 0.4215983056262471 -0.3139572024902534 -0.06948089468298618 0.01907455159121955 -0.06828489274722906 -0.547906641001272 
-0.0193716122034476 0.0978301387950954 0.699240343324788 -0.1639963903528454 0.6381635610231422 0.6729373612084365 0.6289389433368224 0.2340665317611458 0.304646605794361 0.09830871029321112 
2.215083537108891 0.09752770210762787 -0.2830784965480364 0.3661459271410444 -0.3087228355406497 -1.088824075471951 -0.04852516569235244 0.04812121384658068 -0.4556472650979911 -0.1631017374147417 
-0.1828501568364699 0.07504857010096008 0.1060095101722653 1.271124555985893 -1.01632222103952 -0.6627900268605799 -0.1781178499837941 0.1892258211103328 -1.205940224277889 -0.2717412540043478 
-0.002978241426481719 0.07768978862699516 1.324578501810609 -4.065500196553458 -1.602628406491451 -0.3550066893403163 -0.4389682545632611 0.01929713980719934 -0.1732451556412484 0.4637614001416451 
0.3508885682664219 0.09326051412273073 0.4773563872639737 -0.6555588401556476 -1.031526906129989 -0.0408963046076341 -0.3600910171960096 0.1039470316958803 -0.008999444278399068 -0.5239081478260125 
-0.1675349640199541 0.03593696449929128 -1.390067894877953 -0.1029087162844738 -0.5326222245257074 0.2753363011199323 -0.0681764172947836 0.269777546499354 0.8149608990722532 -0.04746567846473648 
0.1635254844590825 -0.01201785905611152 -0.476984639163968 0.03913777548581805 -1.104845149659041 -0.2940624103928028 -0.001367980440093889 -0.1263735337388246 0.1107731931092032 0.391191266751766 
0.02102635442597647 0.07530209414316766 -0.7634600345029533 -0.9127248775350598 1.4317775709327 0.07885502895290961 0.004920344325480146 -0.1279736487494601 -0.1432767674558435 1.11282725300243 
0.2215450811108423 0.07714186875049409 -1.105185519697161 1.399610694237153 -0.5517523055993365 -0.172484539892581 -0.1171311657483967 0.09575262490069397 -0.2594533714215943 1.140627878262988 
0.3514501513696948 0.09326051412273273 0.06615136104703695 -0.0583132454269626 -0.08711789553851391 -0.000208710813651496 0.2045952593038579 0.1066841655380753 -0.02142947322769067 0.09571873732741429 
