solver_type L2R_L2LOSS_SVC_DUAL
nr_class 5
label 1 2 3 4 5
nr_feature 21
bias -1
w
-0.9366445545442263 1.218682291029578 -0.2481606932965791 0.8836559067207459 0.7121948432182266 
-0.03125926352893033 0.07105182526258659 0.02755003186546234 -0.00678823469248392 -0.003683609003349552 
0.1404666042948921 -0.04980786548329943 0.01867636806485547 -0.004493275484342339 -0.06530520837427842 
0.01211344793385621 -0.04415705688032799 0.01512357872417533 -0.02456949634904487 0.003332588545779234 
0.128915558083786 0.01978413000312823 -0.03395992423132538 0.1738794649278024 0.07662485681710274 
0.128843036482028 0.07353029491023745 0.1393166049068803 0.07378999709209573 -0.03996119218631237 
-0.4517631477326763 0.6383104968638358 1.004837299118004 0.4838191586695245 -0.4587759244009941 
0.5662627005148133 0.6247786931739105 -0.005719657739988501 0.2338590059610125 -0.1412672343735462 
0.5117487988921521 0.6024453764164335 0.1711830885050595 0.2468852327110994 -0.2564013901868364 
-0.05751444640610434 -0.1787063763620537 -0.1896211836248567 -0.246391202544519 0.002410373963276729 
0.038253894145763 0.01962455591698378 3.0640010391265 0.008652645681930136 -0.4940150872736092 
0.02364597497754818 0.7124759255797795 -0.1479420078019467 0.4931999514602686 0.1310536835813358 
1.52098581834642 -0.2520881775235424 0.1836868987705685 -1.628064891312276 -0.3271209213830302 
-0.9694803992568476 -0.1195364659026003 1.245538239408246 -0.5369360108357704 -0.4348332389091038 
-0.3006785203030099 1.311790567281693 -3.979528521662762 -0.7703254982670609 0.4248261343280375 
0.3272664046602154 0.3713159402107441 -0.7532395371805943 0.2160557837942334 -0.6285520831387631 
-0.4681747925894089 -1.302653223445445 0.1298110402854323 0.7280974062647479 0.1171186510784794 
0.1559820032403877 -0.4987210251314123 -0.1761807322926547 -0.5854316101882473 0.5345819253754729 
0.2002892820962073 -0.9331586592823553 -1.023237018652007 -0.1224014269617056 0.9223626681714451 
-0.05239873322377055 -1.075971073758928 1.357786724210712 -0.4655042069409636 1.056202175448824 
0.3313166562306837 0.2256026248941441 0.05807042140561219 0.3305195388008579 0.09116344071735533 
