svm_type c_svc
kernel_type rbf
gamma 8
nr_class 5
total_sv 6098
rho 1.11519 2.4697 7.21329 2.96001 0.422409 2.02144 5.17002 1.45146 1.01207 -0.747814
label 1 2 3 4 5
nr_sv 852 909 879 1741 1717
SV
0 0 0 8192 1:-0.666667 2:0.89073 3:-1 4:-1 5:-1 6:-1 7:-1 8:-1 9:-1 10:-1 11:-1 12:-0.904498 13:-1 14:-1 15:-1 16:-1 17:-1 18:-1 19:-1 20:-1 21:-1 
0 0 0 8192 1:-0.666667 2:0.88953 3:-1 4:-1 5:-1 6:-1 7:-1 8:-1 9:-1 10:-1 11:-1 12:-0.904414 13:-1 14:-1 15:-1 16:-1 17:-1 18:-1 19:-1 20:-1 21:-1 
0 0 0 8192 1:-0.666667 2:0.887732 3:-1 4:-1 5:-1 6:-1 7:-1 8:-1 9:-1 10:-1 11:-1 12:-0.904249 13:-1 14:-1 15:-1 16:-1 17:-1 18:-1 19:-1 20:-1 21:-1 
0 0 0 8192 1:-0.666667 2:0.885538 3:-1 4:-1 5:-1 6:-1 7:-1 8:-1 9:-1 10:-1 11:-1 12:-0.904095 13:-1 14:-1 15:-1 16:-1 17:-1 18:-1 19:-1 20:-1 21:-1 
0 0 0 8192 1:-0.666667 2:0.883264 3:-1 4:-1 5:-1 6:-1 7:-1 8:-1 9:-1 10:-1 11:-1 12:-0.903893 13:-1 14:-1 15:-1 16:-1 17:-1 18:-1 19:-1 20:-1 21:-1 
0 0 0 8192 1:-0.666667 2:0.88138 3:-1 4:-1 5:-1 6:-1 7:-1 8:-1 9:-1 10:-1 11:-1 12:-0.903528 13:-1 14:-1 15:-1 16:-1 17:-1 18:-1 19:-1 20:-1 21:-1 
0 0 0 8192 1:-0.666667 2:0.879616 3:-1 4:-1 5:-1 6:-1 7:-1 8:-1 9:-1 10:-1 11:-1 12:-0.903054 13:-1 14:-1 15:-1 16:-1 17:-1 18:-1 19:-1 20:-1 21:-1 
0 0 0 8192 1:-0.666667 2:0.878782 3:-1 4:-1 5:-1 6:-1 7:-1 8:-1 9:-1 10:-1 11:-1 12:-0.902813 13:-1 14:-1 15:-1 16:-1 17:-1 18:-1 19:-1 20:-1 21:-1 
0 0 0 8192 1:-0.666667 2:0.879036 3:-1 4:-1 5:-1 6:-1 7:-1 8:-1 9:-1 10:-1 11:-1 12:-0.902236 13:-1 14:-1 15:-1 16:-1 17:-1 18:-1 19:-1 20:-1 21:-1 
0 0 0 8192 1:-0.666667 2:0.879524 3:-1 4:-1 5:-1 6:-1 7:-1 8:-1 9:-1 10:-1 11:-1 12:-0.901925 13:-1 14:-1 15:-1 16:-1 17:-1 18:-1 19:-1 20:-1 21:-1 
0 0 0 8192 1:-0.666667 2:0.880168 3:-1 4:-1 5:-1 6:-1 7:-1 8:-1 9:-1 10:-1 11:-1 12:-0.901609 13:-1 14:-1 15:-1 16:-1 17:-1 18:-1 19:-1 20:-1 21:-1 
0 0 0 8192 1:-0.666667 2:0.881128 3:-1 4:-1 5:-1 6:-1 7:-1 8:-1 9:-1 10:-1 11:-1 12:-0.901124 13:-1 14:-1 15:-1 16:-1 17:-1 18:-1 19:-1 20:-1 21:-1 
0 0 0 8192 1:-0.666667 2:0.881812 3:-1 4:-1 5:-1 6:-1 7:-1 8:-1 9:-1 10:-1 11:-1 12:-0.900532 13:-1 14:-1 15:-1 16:-1 17:-1 18:-1 19:-1 20:-1 21:-1 
0 0 0 8192 1:-0.666667 2:0.87145 3:-1 4:-1 5:-1 6:-1 7:-1 8:-1 9:-1 10:-1 11:-1 12:-0.896169 13:-1 14:-1 15:-1 16:-1 17:-1 18:-1 19:-1 20:-1 21:-1 
0 0 0 8192 1:-0.666667 2:0.871142 3:-1 4:-1 5:-1 6:-1 7:-1 8:-1 9:-1 10:-1 11:-1 12:-0.896171 13:-1 14:-1 15:-1 16:-1 17:-1 18:-1 19:-1 20:-1 21:-1 
0 0 0 8192 1:-0.666667 2:0.871386 3:-1 4:-1 5:-1 6:-1 7:-1 8:-1 9:-1 10:-1 11:-1 12:-0.896274 13:-1 14:-1 15:-1 16:-1 17:-1 18:-1 19:-1 20:-1 21:-1 
0 0 0 8192 1:-0.666667 2:0.87131 3:-1 4:-1 5:-1 6:-1 7:-1 8:-1 9:-1 10:-1 11:-1 12:-0.896343 13:-1 14:-1 15:-1 16:-1 17:-1 18:-1 19:-1 20:-1 21:-1 
0 0 0 8192 1:-0.666667 2:0.870968 3:-1 4:-1 5:-1 6:-1 7:-1 8:-1 9:-1 10:-1 11:-1 12:-0.89627 13:-1 14:-1 15:-1 16:-1 17:-1 18:-1 19:-1 20:-1 21:-1 
0 0 0 8192 1:-0.666667 2:0.870844 3:-1 4:-1 5:-1 6:-1 7:-1 8:-1 9:-1 10:-1 11:-1 12:-0.896328 13:-1 14:-1 15:-1 16:-1 17:-1 18:-1 19:-1 20:-1 21:-1 
0 0 0 8192 1:-0.666667 2:0.870608 3:-1 4:-1 5:-1 6:-1 7:-1 8:-1 9:-1 10:-1 11:-1 12:-0.896338 13:-1 14:-1 15:-1 16:-1 17:-1 18:-1 19:-1 20:-1 21:-1 
0 0 0 8192 1:-0.666667 2:0.870848 3:-1 4:-1 5:-1 6:-1 7:-1 8:-1 9:-1 10:-1 11:-1 12:-0.896305 13:-1 14:-1 15:-1 16:-1 17:-1 18:-1 19:-1 20:-1 21:-1 
0 0 0 8192 1:-0.666667 2:0.871198 3:-1 4:-1 5:-1 6:-1 7:-1 8:-1 9:-1 10:-1 11:-1 12:-0.896258 13:-1 14:-1 15:-1 16:-1 17:-1 18:-1 19:-1 20:-1 21:-1 
0 0 0 3624.672332728938 1:-0.666667 2:0.871766 3:-1 4:-1 5:-1 6:-1 7:-1 8:-1 9:-1 10:-1 11:-1 12:-0.896323 13:-1 14:-1 15:-1 16:-1 17:-1 18:-1 19:-1 20:-1 21:-1 
0 0 0 8192 1:-0.666667 2:0.871792 3:-1 4:-1 5:-1 6:-1 7:-1 8:-1 9:-1 10:-1 11:-1 12:-0.896372 13:-1 14:-1 15:-1 16:-1 17:-1 18:-1 19:-1 20:-1 21:-1 
0 0 0 8192 1:-0.666667 2:0.857446 3:-1 4:-1 5:-1 6:-1 7:-1 8:-1 9:-1 10:-1 11:-1 12:-0.892359 13:-1 14:-1 15:-1 16:-1 17:-1 18:-1 19:-1 20:-1 21:-1 
0 0 0 8192 1:-0.666667 2:0.857764 3:-1 4:-1 5:-1 6:-1 7:-1 8:-1 9:-1 10:-1 11:-1 12:-0.892611 13:-1 14:-1 15:-1 16:-1 17:-1 18:-1 19:-1 20:-1 21:-1 
0 0 0 8192 1:-0.666667 2:0.858286 3:-1 4:-1 5:-1 6:-1 7:-1 8:-1 9:-1 10:-1 11:-1 12:-0.892824 13:-1 14:-1 15:-1 16:-1 17:-1 18:-1 19:-1 20:-1 21:-1 
0 0 0 8192 1:-0.666667 2:0.858828 3:-1 4:-1 5:-1 6:-1 7:-1 8:-1 9:-1 10:-1 11:-1 12:-0.893022 13:-1 14:-1 15:-1 16:-1 17:-1 18:-1 19:-1 20:-1 21:-1 
0 0 0 8192 1:-0.666667 2:0.859378 3:-1 4:-1 5:-1 6:-1 7:-1 8:-1 9:-1 10:-1 11:-1 12:-0.893153 13:-1 14:-1 15:-1 16:-1 17:-1 18:-1 19:-1 20:-1 21:-1 
0 0 0 8192 1:-0.666667 2:0.859772 3:-1 4:-1 5:-1 6:-1 7:-1 8:-1 9:-1 10:-1 11:-1 12:-0.893289 13:-1 14:-1 15:-1 16:-1 17:-1 18:-1 19:-1 20:-1 21:-1 
0 0 0 8192 1:-0.666667 2:0.860198 3:-1 4:-1 5:-1 6:-1 7:-1 8:-1 9:-1 10:-1 11:-1 12:-0.893339 13:-1 14:-1 15:-1 16:-1 17:-1 18:-1 19:-1 20:-1 21:-1 
0 0 0 8192 1:-0.666667 2:0.860466 3:-1 4:-1 5:-1 6:-1 7:-1 8:-1 9:-1 10:-1 11:-1 12:-0.893311 13:-1 14:-1 15:-1 16:-1 17:-1 18:-1 19:-1 20:-1 21:-1 
0 0 0 8192 1:-0.666667 2:0.860444 3:-1 4:-1 5:-1 6:-1 7:-1 8:-1 9:-1 10:-1 11:-1 12:-0.893162 13:-1 14:-1 15:-1 16:-1 17:-1 18:-1 19:-1 20:-1 21:-1 
0 0 0 8192 1:-0.666667 2:0.860444 3:-1 4:-1 5:-1 6:-1 7:-1 8:-1 9:-1 10:-1 11:-1 12:-0.89298 13:-1 14:-1 15:-1 16:-1 17:-1 18:-1 19:-1 20:-1 21:-1 
0 0 0 8192 1:-0.666667 2:0.860252 3:-1 4:-1 5:-1 6:-1 7:-1 8:-1 9:-1 10:-1 11:-1 12:-0.892866 13:-1 14:-1 15:-1 16:-1 17:-1 18:-1 19:-1 20:-1 21:-1 
0 0 0 4164.220835802628 1:-0.666667 2:0.861418 3:-1 4:-1 5:-1 6:-1 7:-1 8:-1 9:-1 10:-1 11:-1 12:-0.893189 13:-1 14:-1 15:-1 16:-1 17:-1 18:-1 19:-1 20:-1 21:-1 
0 0 0 8192 1:-0.666667 2:0.864022 3:-1 4:-1 5:-1 6:-1 7:-1 8:-1 9:-1 10:-1 11:-1 12:-0.894037 13:-1 14:-1 15:-1 16:-1 17:-1 18:-1 19:-1 20:-1 21:-1 
0 0 0 8192 1:-0.666667 2:0.864608 3:-1 4:-1 5:-1 6:-1 7:-1 8:-1 9:-1 10:-1 11:-1 12:-0.894338 13:-1 14:-1 15:-1 16:-1 17:-1 18:-1 19:-1 20:-1 21:-1 
0 0 0 8192 1:-0.666667 2:0.864834 3:-1 4:-1 5:-1 6:-1 7:-1 8:-1 9:-1 10:-1 11:-1 12:-0.894646 13:-1 14:-1 15:-1 16:-1 17:-1 18:-1 19:-1 20:-1 21:-1 
0 0 0 8192 1:-0.666667 2:0.865348 3:-1 4:-1 5:-1 6:-1 7:-1 8:-1 9:-1 10:-1 11:-1 12:-0.894898 13:-1 14:-1 15:-1 16:-1 17:-1 18:-1 19:-1 20:-1 21:-1 
0 0 0 8192 1:-0.666667 2:0.866264 3:-1 4:-1 5:-1 6:-1 7:-1 8:-1 9:-1 10:-1 11:-1 12:-0.89514 13:-1 14:-1 15:-1 16:-1 17:-1 18:-1 19:-1 20:-1 21:-1 
0 0 0 8192 1:-0.666667 2:0.867042 3:-1 4:-1 5:-1 6:-1 7:-1 8:-1 9:-1 10:-1 11:-1 12:-0.895538 13:-1 14:-1 15:-1 16:-1 17:-1 18:-1 19:-1 20:-1 21:-1 
0 0 0 8192 1:-0.666667 2:0.867806 3:-1 4:-1 5:-1 6:-1 7:-1 8:-1 9:-1 10:-1 11:-1 12:-0.895816 13:-1 14:-1 15:-1 16:-1 17:-1 18:-1 19:-1 20:-1 21:-1 
0 0 0 8192 1:-0.666667 2:0.868728 3:-1 4:-1 5:-1 6:-1 7:-1 8:-1 9:-1 10:-1 11:-1 12:-0.896056 13:-1 14:-1 15:-1 16:-1 17:-1 18:-1 19:-1 20:-1 21:-1 
0.2435299119637869 0 0 27.62103737403256 1:-0.333333 2:0.987434 3:0.897264 4:0.870597 5:-1 6:-1 7:-1 8:-1 9:-1 10:-1 11:-1 12:-0.820406 13:-0.846682 14:-0.873763 15:-1 16:-1 17:-1 18:-1 19:-1 20:-1 21:-1 
0 266.3473100253069 0 0 1:-0.333333 2:0.976824 3:0.870927 4:0.78511 5:-1 6:-1 7:-1 8:-1 9:-1 10:-1 11:-1 12:-0.8226 13:-0.848527 14:-0.874117 15:-1 16:-1 17:-1 18:-1 19:-1 20:-1 21:-1 
0 73.1443345822718 21.31223931130361 0.2582907311333319 1:-0.333333 2:0.921839 3:0.871726 4:0.632729 5:-1 6:-1 7:-1 8:-1 9:-1 10:-1 11:-1 12:-0.821833 13:-0.847644 14:-0.874537 15:-1 16:-1 17:-1 18:-1 19:-1 20:-1 21:-1 
0.8550386846214352 0 0 0 1:-0.333333 2:0.87228 3:0.831271 4:0.455158 5:-1 6:-1 7:-1 8:-1 9:-1 10:-1 11:-1 12:-0.822406 13:-0.848029 14:-0.874884 15:-1 16:-1 17:-1 18:-1 19:-1 20:-1 21:-1 
0 0 1.340772824876047 1.516335405522476 1:-0.333333 2:0.877188 3:0.836076 4:0.473775 5:-1 6:-1 7:-1 8:-1 9:-1 10:-1 11:-1 12:-0.820751 13:-0.846467 14:-0.877203 15:-1 16:-1 17:-1 18:-1 19:-1 20:-1 21:-1 
0 0 1.7688857300434 0 1:-0.333333 2:0.880308 3:0.815914 4:0.454291 5:-1 6:-1 7:-1 8:-1 9:-1 10:-1 11:-1 12:-0.819903 13:-0.845194 14:-0.878078 15:-1 16:-1 17:-1 18:-1 19:-1 20:-1 21:-1 
0 5.83822238316996 0 0 1:-0.333333 2:0.882402 3:0.727492 4:0.323994 5:-1 6:-1 7:-1 8:-1 9:-1 10:-1 11:-1 12:-0.819772 13:-0.846173 14:-0.878468 15:-1 16:-1 17:-1 18:-1 19:-1 20:-1 21:-1 
0 0 95.39092888972155 0 1:-0.333333 2:0.895725 3:0.305625 4:-0.144309 5:-1 6:-1 7:-1 8:-1 9:-1 10:-1 11:-1 12:-0.812935 13:-0.838577 14:-0.876969 15:-1 16:-1 17:-1 18:-1 19:-1 20:-1 21:-1 
0 0 178.5351702500228 0 1:-0.333333 2:0.897321 3:0.338552 4:-0.117007 5:-1 6:-1 7:-1 8:-1 9:-1 10:-1 11:-1 12:-0.812322 13:-0.838151 14:-0.876599 15:-1 16:-1 17:-1 18:-1 19:-1 20:-1 21:-1 
0 3.9660258019326 0 0 1:-0.333333 2:0.896925 3:0.413403 4:-0.0669508 5:-1 6:-1 7:-1 8:-1 9:-1 10:-1 11:-1 12:-0.811609 13:-0.838006 14:-0.875448 15:-1 16:-1 17:-1 18:-1 19:-1 20:-1 21:-1 
0.0567773598870647 1.267335047005592 0 0.6570109909730252 1:-0.333333 2:0.896957 3:0.468006 4:-0.0380997 5:-1 6:-1 7:-1 8:-1 9:-1 10:-1 11:-1 12:-0.810385 13:-0.837329 14:-0.875055 15:-1 16:-1 17:-1 18:-1 19:-1 20:-1 21:-1 
0.2686138515737378 0 0 0 1:-0.333333 2:0.896803 3:0.358564 4:-0.140184 5:-1 6:-1 7:-1 8:-1 9:-1 10:-1 11:-1 12:-0.810773 13:-0.837625 14:-0.874833 15:-1 16:-1 17:-1 18:-1 19:-1 20:-1 21:-1 
0.1437451984206679 3.056413086428816 0 1.983942287133573 1:-0.333333 2:0.897077 3:0.304983 4:-0.230968 5:-1 6:-1 7:-1 8:-1 9:-1 10:-1 11:-1 12:-0.810961 13:-0.837611 14:-0.874741 15:-1 16:-1 17:-1 18:-1 19:-1 20:-1 21:-1 
0 2.94906958096223 6.942870794217448 3.371837013960868 1:-0.333333 2:0.897401 3:-0.784276 4:-0.846196 5:-1 6:-1 7:-1 8:-1 9:-1 10:-1 11:-1 12:-0.811037 13:-0.83747 14:-0.874569 15:-1 16:-1 17:-1 18:-1 19:-1 20:-1 21:-1 
0.4042595557867336 0 7.405350542879932 0.2926530641278241 1:-0.333333 2:0.898179 3:-0.14839 4:-0.353876 5:-1 6:-1 7:-1 8:-1 9:-1 10:-1 11:-1 12:-0.811051 13:-0.837549 14:-0.874735 15:-1 16:-1 17:-1 18:-1 19:-1 20:-1 21:-1 
0.2333438277015109 0.6962254765731672 303.1199044459182 0 1:-0.333333 2:0.900949 3:0.0902254 4:-0.176392 5:-1 6:-1 7:-1 8:-1 9:-1 10:-1 11:-1 12:-0.810566 13:-0.838066 14:-0.873933 15:-1 16:-1 17:-1 18:-1 19:-1 20:-1 21:-1 
0.1652475737473235 2.543820071480147 31.72628111419177 0.06960378742914622 1:-0.333333 2:0.901383 3:-0.200556 4:-0.701685 5:-1 6:-1 7:-1 8:-1 9:-1 10:-1 11:-1 12:-0.810457 13:-0.838349 14:-0.874218 15:-1 16:-1 17:-1 18:-1 19:-1 20:-1 21:-1 
0.6794376978645691 1.80737759946645 1.016051554419728 1.641205193014322 1:-0.333333 2:0.938083 3:-0.441428 4:-0.486012 5:-1 6:-1 7:-1 8:-1 9:-1 10:-1 11:-1 12:-0.343297 13:-0.353886 14:-0.880274 15:-1 16:-1 17:-1 18:-1 19:-1 20:-1 21:-1 
0.7789562660830284 0.609739439016224 3.700213348926094 1.114590956439541 1:-0.333333 2:0.939671 3:-0.637184 4:-0.678755 5:-1 6:-1 7:-1 8:-1 9:-1 10:-1 11:-1 12:-0.344127 13:-0.355354 14:-0.880168 15:-1 16:-1 17:-1 18:-1 19:-1 20:-1 21:-1 
0.5067454824971191 0 0 0 1:-0.333333 2:0.940829 3:-0.00503058 4:-0.152822 5:-1 6:-1 7:-1 8:-1 9:-1 10:-1 11:-1 12:-0.344425 13:-0.356194 14:-0.880207 15:-1 16:-1 17:-1 18:-1 19:-1 20:-1 21:-1 
2.22558190282977 4.893669100667854 8.146902921524083 5.102265716081953 1:-0.333333 2:0.944069 3:-0.907004 4:-0.96788 5:-1 6:-1 7:-1 8:-1 9:-1 10:-1 11:-1 12:-0.344872 13:-0.357847 14:-0.880063 15:-1 16:-1 17:-1 18:-1 19:-1 20:-1 21:-1 
0.4562459194644403 1.292462700583007 5.647707015660887 0.8358247387330793 1:-0.333333 2:0.950627 3:-0.376972 4:-0.591277 5:-1 6:-1 7:-1 8:-1 9:-1 10:-1 11:-1 12:-0.350908 13:-0.367848 14:-0.877147 15:-1 16:-1 17:-1 18:-1 19:-1 20:-1 21:-1 
0 8192 0 0 1:-0.666667 2:0.951959 3:-1 4:-1 5:-1 6:-1 7:-1 8:-1 9:-1 10:-1 11:-1 12:-0.898683 13:-1 14:-1 15:-1 16:-1 17:-1 18:-1 19:-1 20:-1 21:-1 
0 8192 0 5504.004641540266 1:-0.666667 2:0.952051 3:-1 4:-1 5:-1 6:-1 7:-1 8:-1 9:-1 10:-1 11:-1 12:-0.898318 13:-1 14:-1 15:-1 16:-1 17:-1 18:-1 19:-1 20:-1 21:-1 
0 8192 0 8192 1:-0.666667 2:0.952937 3:-1 4:-1 5:-1 6:-1 7:-1 8:-1 9:-1 10:-1 11:-1 12:-0.897995 13:-1 14:-1 15:-1 16:-1 17:-1 18:-1 19:-1 20:-1 21:-1 
0 8192 0 8192 1:-0.666667 2:0.954937 3:-1 4:-1 5:-1 6:-1 7:-1 8:-1 9:-1 10:-1 11:-1 12:-0.897765 13:-1 14:-1 15:-1 16:-1 17:-1 18:-1 19:-1 20:-1 21:-1 
0.900677481027522 3.123560129753325 3.454670300113789 2.342524911927859 1:-0.333333 2:0.955007 3:-0.123246 4:-0.390842 5:-1 6:-1 7:-1 8:-1 9:-1 10:-1 11:-1 12:-0.35357 13:-0.371461 14:-0.875322 15:-1 16:-1 17:-1 18:-1 19:-1 20:-1 21:-1 
0 8192 0 8192 1:-0.666667 2:0.955229 3:-1 4:-1 5:-1 6:-1 7:-1 8:-1 9:-1 10:-1 11:-1 12:-0.897185 13:-1 14:-1 15:-1 16:-1 17:-1 18:-1 19:-1 20:-1 21:-1 
0 8192 0 0 1:-0.666667 2:0.952843 3:-1 4:-1 5:-1 6:-1 7:-1 8:-1 9:-1 10:-1 11:-1 12:-0.896861 13:-1 14:-1 15:-1 16:-1 17:-1 18:-1 19:-1 20:-1 21:-1 
1.415779199387538 1.404191535474297 5.7065733288656 2.459020113212263 1:-0.333333 2:0.940343 3:0.254263 4:-0.10577 5:-1 6:-1 7:-1 8:-1 9:-1 10:-1 11:-1 12:-0.357155 13:-0.376239 14:-0.872935 15:-1 16:-1 17:-1 18:-1 19:-1 20:-1 21:-1 
0 8192 0 0 1:-0.666667 2:0.834884 3:-1 4:-1 5:-1 6:-1 7:-1 8:-1 9:-1 10:-1 11:-1 12:-0.884782 13:-1 14:-1 15:-1 16:-1 17:-1 18:-1 19:-1 20:-1 21:-1 
0 0 8192 8192 1:-0.666667 2:0.773735 3:-1 4:-1 5:-1 6:-1 7:-1 8:-1 9:-1 10:-1 11:-1 12:-0.88676 13:-1 14:-1 15:-1 16:-1 17:-1 18:-1 19:-1 20:-1 21:-1 
0 0 8192 8192 1:-0.666667 2:0.765977 3:-1 4:-1 5:-1 6:-1 7:-1 8:-1 9:-1 10:-1 11:-1 12:-0.887613 13:-1 14:-1 15:-1 16:-1 17:-1 18:-1 19:-1 20:-1 21:-1 
0 0 8192 8192 1:-0.666667 2:0.759273 3:-1 4:-1 5:-1 6:-1 7:-1 8:-1 9:-1 10:-1 11:-1 12:-0.888369 13:-1 14:-1 15:-1 16:-1 17:-1 18:-1 19:-1 20:-1 21:-1 
1.687392873588257 1.713455348890791 0.6322844545605372 3.033671919956863 1:-0.333333 2:0.755155 3:-0.187856 4:-0.97182 5:-1 6:-1 7:-1 8:-1 9:-1 10:-1 11:-1 12:-0.815724 13:-0.838973 14:-0.865238 15:-1 16:-1 17:-1 18:-1 19:-1 20:-1 21:-1 
0 2.293604055320019 69.10999689747339 0.1609942041400984 1:-0.333333 2:0.770539 3:-0.0532698 4:-0.875899 5:-1 6:-1 7:-1 8:-1 9:-1 10:-1 11:-1 12:-0.813789 13:-0.839347 14:-0.869311 15:-1 16:-1 17:-1 18:-1 19:-1 20:-1 21:-1 
1791.384245684258 0 8192 8192 1:-0.666667 2:0.777999 3:-1 4:-1 5:-1 6:-1 7:-1 8:-1 9:-1 10:-1 11:-1 12:-0.892218 13:-1 14:-1 15:-1 16:-1 17:-1 18:-1 19:-1 20:-1 21:-1 
0 0 8192 8192 1:-0.666667 2:0.784851 3:-1 4:-1 5:-1 6:-1 7:-1 8:-1 9:-1 10:-1 11:-1 12:-0.891669 13:-1 14:-1 15:-1 16:-1 17:-1 18:-1 19:-1 20:-1 21:-1 
0.7582727407028774 6.887013396660746 13.91476285118273 1.613113888732098 1:-0.333333 2:0.792249 3:0.167628 4:-0.573524 5:-1 6:-1 7:-1 8:-1 9:-1 10:-1 11:-1 12:-0.816045 13:-0.841749 14:-0.867622 15:-1 16:-1 17:-1 18:-1 19:-1 20:-1 21:-1 
0.4364639342885158 0 1.177006977466075 0.1824273167361251 1:-0.333333 2:0.799307 3:0.288168 4:-0.394738 5:-1 6:-1 7:-1 8:-1 9:-1 10:-1 11:-1 12:-0.814169 13:-0.840256 14:-0.86722 15:-1 16:-1 17:-1 18:-1 19:-1 20:-1 21:-1 
0 0 8192 8192 1:-0.666667 2:0.806837 3:-1 4:-1 5:-1 6:-1 7:-1 8:-1 9:-1 10:-1 11:-1 12:-0.89077 13:-1 14:-1 15:-1 16:-1 17:-1 18:-1 19:-1 20:-1 21:-1 
0 708.0101248939382 8192 8192 1:-0.666667 2:0.815243 3:-1 4:-1 5:-1 6:-1 7:-1 8:-1 9:-1 10:-1 11:-1 12:-0.891207 13:-1 14:-1 15:-1 16:-1 17:-1 18:-1 19:-1 20:-1 21:-1 
0 0 0 8192 1:-0.666667 2:0.849036 3:-1 4:-1 5:-1 6:-1 7:-1 8:-1 9:-1 10:-1 11:-1 12:-0.894518 13:-1 14:-1 15:-1 16:-1 17:-1 18:-1 19:-1 20:-1 21:-1 
0 0 0 8192 1:-0.666667 2:0.856452 3:-1 4:-1 5:-1 6:-1 7:-1 8:-1 9:-1 10:-1 11:-1 12:-0.895463 13:-1 14:-1 15:-1 16:-1 17:-1 18:-1 19:-1 20:-1 21:-1 
0 0 0 8192 1:-0.666667 2:0.86311 3:-1 4:-1 5:-1 6:-1 7:-1 8:-1 9:-1 10:-1 11:-1 12:-0.896415 13:-1 14:-1 15:-1 16:-1 17:-1 18:-1 19:-1 20:-1 21:-1 
0 0 0 8192 1:-0.666667 2:0.869636 3:-1 4:-1 5:-1 6:-1 7:-1 8:-1 9:-1 10:-1 11:-1 12:-0.897271 13:-1 14:-1 15:-1 16:-1 17:-1 18:-1 19:-1 20:-1 21:-1 
0 0 0 8192 1:-0.666667 2:0.87538 3:-1 4:-1 5:-1 6:-1 7:-1 8:-1 9:-1 10:-1 11:-1 12:-0.897979 13:-1 14:-1 15:-1 16:-1 17:-1 18:-1 19:-1 20:-1 21:-1 
0 0 0 8192 1:-0.666667 2:0.867408 3:-1 4:-1 5:-1 6:-1 7:-1 8:-1 9:-1 10:-1 11:-1 12:-0.89546 13:-1 14:-1 15:-1 16:-1 17:-1 18:-1 19:-1 20:-1 21:-1 
0 0 0 8192 1:-0.666667 2:0.860694 3:-1 4:-1 5:-1 6:-1 7:-1 8:-1 9:-1 10:-1 11:-1 12:-0.895737 13:-1 14:-1 15:-1 16:-1 17:-1 18:-1 19:-1 20:-1 21:-1 
0 0 0 8192 1:-0.666667 2:0.856284 3:-1 4:-1 5:-1 6:-1 7:-1 8:-1 9:-1 10:-1 11:-1 12:-0.895972 13:-1 14:-1 15:-1 16:-1 17:-1 18:-1 19:-1 20:-1 21:-1 
0 0 0 8192 1:-0.666667 2:0.850708 3:-1 4:-1 5:-1 6:-1 7:-1 8:-1 9:-1 10:-1 11:-1 12:-0.896132 13:-1 14:-1 15:-1 16:-1 17:-1 18:-1 19:-1 20:-1 21:-1 
0 0 0 8192 1:-0.666667 2:0.852932 3:-1 4:-1 5:-1 6:-1 7:-1 8:-1 9:-1 10:-1 11:-1 12:-0.89623 13:-1 14:-1 15:-1 16:-1 17:-1 18:-1 19:-1 20:-1 21:-1 
0 0 0 8192 1:-0.666667 2:0.855984 3:-1 4:-1 5:-1 6:-1 7:-1 8:-1 9:-1 10:-1 11:-1 12:-0.896205 13:-1 14:-1 15:-1 16:-1 17:-1 18:-1 19:-1 20:-1 21:-1 
0 0 0 8192 1:-0.666667 2:0.85893 3:-1 4:-1 5:-1 6:-1 7:-1 8:-1 9:-1 10:-1 11:-1 12:-0.89604 13:-1 14:-1 15:-1 16:-1 17:-1 18:-1 19:-1 20:-1 21:-1 
0 0 0 8192 1:-0.666667 2:0.86112 3:-1 4:-1 5:-1 6:-1 7:-1 8:-1 9:-1 10:-1 11:-1 12:-0.895862 13:-1 14:-1 15:-1 16:-1 17:-1 18:-1 19:-1 20:-1 21:-1 
0 0 0 8192 1:-0.666667 2:0.86334 3:-1 4:-1 5:-1 6:-1 7:-1 8:-1 9:-1 10:-1 11:-1 12:-0.895619 13:-1 14:-1 15:-1 16:-1 17:-1 18:-1 19:-1 20:-1 21:-1 
0 0 0 8192 1:-0.666667 2:0.864896 3:-1 4:-1 5:-1 6:-1 7:-1 8:-1 9:-1 10:-1 11:-1 12:-0.895413 13:-1 14:-1 15:-1 16:-1 17:-1 18:-1 19:-1 20:-1 21:-1 
0 0 0 8192 1:-0.666667 2:0.866104 3:-1 4:-1 5:-1 6:-1 7:-1 8:-1 9:-1 10:-1 11:-1 12:-0.895185 13:-1 14:-1 15:-1 16:-1 17:-1 18:-1 19:-1 20:-1 21:-1 
0 0 0 8192 1:-0.666667 2:0.867054 3:-1 4:-1 5:-1 6:-1 7:-1 8:-1 9:-1 10:-1 11:-1 12:-0.895011 13:-1 14:-1 15:-1 16:-1 17:-1 18:-1 19:-1 20:-1 21:-1 
0 0 0 8192 1:-0.666667 2:0.87779 3:-1 4:-1 5:-1 6:-1 7:-1 8:-1 9:-1 10:-1 11:-1 12:-0.899006 13:-1 14:-1 15:-1 16:-1 17:-1 18:-1 19:-1 20:-1 21:-1 
0 0 0 8192 1:-0.666667 2:0.878174 3:-1 4:-1 5:-1 6:-1 7:-1 8:-1 9:-1 10:-1 11:-1 12:-0.899526 13:-1 14:-1 15:-1 16:-1 17:-1 18:-1 19:-1 20:-1 21:-1 
0 0 0 8192 1:-0.666667 2:0.878222 3:-1 4:-1 5:-1 6:-1 7:-1 8:-1 9:-1 10:-1 11:-1 12:-0.90029 13:-1 14:-1 15:-1 16:-1 17:-1 18:-1 19:-1 20:-1 21:-1 
0 0 0 8192 1:-0.666667 2:0.8779 3:-1 4:-1 5:-1 6:-1 7:-1 8:-1 9:-1 10:-1 11:-1 12:-0.900751 13:-1 14:-1 15:-1 16:-1 17:-1 18:-1 19:-1 20:-1 21:-1 
0 0 0 8192 1:-0.666667 2:0.878386 3:-1 4:-1 5:-1 6:-1 7:-1 8:-1 9:-1 10:-1 11:-1 12:-0.90137 13:-1 14:-1 15:-1 16:-1 17:-1 18:-1 19:-1 20:-1 21:-1 
0 0 0 8192 1:-0.666667 2:0.872734 3:-1 4:-1 5:-1 6:-1 7:-1 8:-1 9:-1 10:-1 11:-1 12:-0.902068 13:-1 14:-1 15:-1 16:-1 17:-1 18:-1 19:-1 20:-1 21:-1 
0 0 8192 8192 1:-0.666667 2:0.86605 3:-1 4:-1 5:-1 6:-1 7:-1 8:-1 9:-1 10:-1 11:-1 12:-0.902507 13:-1 14:-1 15:-1 16:-1 17:-1 18:-1 19:-1 20:-1 21:-1 
0 0 8192 8192 1:-0.666667 2:0.858834 3:-1 4:-1 5:-1 6:-1 7:-1 8:-1 9:-1 10:-1 11:-1 12:-0.902927 13:-1 14:-1 15:-1 16:-1 17:-1 18:-1 19:-1 20:-1 21:-1 
0 0 8192 8192 1:-0.666667 2:0.851006 3:-1 4:-1 5:-1 6:-1 7:-1 8:-1 9:-1 10:-1 11:-1 12:-0.902961 13:-1 14:-1 15:-1 16:-1 17:-1 18:-1 19:-1 20:-1 21:-1 
4556.514679901311 0 8192 8192 1:-0.666667 2:0.840504 3:-1 4:-1 5:-1 6:-1 7:-1 8:-1 9:-1 10:-1 11:-1 12:-0.902571 13:-1 14:-1 15:-1 16:-1 17:-1 18:-1 19:-1 20:-1 21:-1 
0.9586281315625133 0 10.14655994194773 1.605596238189413 1:-0.333333 2:0.830916 3:-0.334228 4:-0.497405 5:-1 6:-1 7:-1 8:-1 9:-1 10:-1 11:-1 12:-0.781982 13:-0.781896 14:-0.881244 15:-1 16:-1 17:-1 18:-1 19:-1 20:-1 21:-1 
0 0 10.29619158010173 0 1:-0.333333 2:0.711072 3:-0.239923 4:-0.427267 5:-1 6:-1 7:-1 8:-1 9:-1 10:-1 11:-1 12:-0.781333 13:-0.779251 14:-0.878329 15:-1 16:-1 17:-1 18:-1 19:-1 20:-1 21:-1 
0 0 12.18141485212435 0 1:-0.333333 2:0.698672 3:-0.194124 4:-0.38784 5:-1 6:-1 7:-1 8:-1 9:-1 10:-1 11:-1 12:-0.78109 13:-0.779607 14:-0.878398 15:-1 16:-1 17:-1 18:-1 19:-1 20:-1 21:-1 
0 3.495060425488653 0 0 1:-0.333333 2:0.681628 3:-0.00235174 4:-0.245511 5:-1 6:-1 7:-1 8:-1 9:-1 10:-1 11:-1 12:-0.778574 13:-0.780493 14:-0.878374 15:-1 16:-1 17:-1 18:-1 19:-1 20:-1 21:-1 
0 9.26570318358152 0 0 1:-0.333333 2:0.733752 3:0.0396735 4:-0.148301 5:-1 6:-1 7:-1 8:-1 9:-1 10:-1 11:-1 12:-0.773524 13:-0.778717 14:-0.873217 15:-1 16:-1 17:-1 18:-1 19:-1 20:-1 21:-1 
0.7228720641424141 0 52.37246237644005 0 1:-0.333333 2:0.74203 3:0.047584 4:-0.106362 5:-1 6:-1 7:-1 8:-1 9:-1 10:-1 11:-1 12:-0.773158 13:-0.77836 14:-0.872482 15:-1 16:-1 17:-1 18:-1 19:-1 20:-1 21:-1 
0 0 8192 8192 1:-0.666667 2:0.750675 3:-1 4:-1 5:-1 6:-1 7:-1 8:-1 9:-1 10:-1 11:-1 12:-0.894119 13:-1 14:-1 15:-1 16:-1 17:-1 18:-1 19:-1 20:-1 21:-1 
6333.79334217971 0 8192 8192 1:-0.666667 2:0.759859 3:-1 4:-1 5:-1 6:-1 7:-1 8:-1 9:-1 10:-1 11:-1 12:-0.893382 13:-1 14:-1 15:-1 16:-1 17:-1 18:-1 19:-1 20:-1 21:-1 
0 0 8192 8192 1:-0.666667 2:0.768713 3:-1 4:-1 5:-1 6:-1 7:-1 8:-1 9:-1 10:-1 11:-1 12:-0.892501 13:-1 14:-1 15:-1 16:-1 17:-1 18:-1 19:-1 20:-1 21:-1 
0 0 8192 8192 1:-0.666667 2:0.776853 3:-1 4:-1 5:-1 6:-1 7:-1 8:-1 9:-1 10:-1 11:-1 12:-0.891623 13:-1 14:-1 15:-1 16:-1 17:-1 18:-1 19:-1 20:-1 21:-1 
0 0 8192 8192 1:-0.666667 2:0.784909 3:-1 4:-1 5:-1 6:-1 7:-1 8:-1 9:-1 10:-1 11:-1 12:-0.890685 13:-1 14:-1 15:-1 16:-1 17:-1 18:-1 19:-1 20:-1 21:-1 
0 0 8192 8192 1:-0.666667 2:0.791623 3:-1 4:-1 5:-1 6:-1 7:-1 8:-1 9:-1 10:-1 11:-1 12:-0.889857 13:-1 14:-1 15:-1 16:-1 17:-1 18:-1 19:-1 20:-1 21:-1 
0 0 8192 8192 1:-0.666667 2:0.798293 3:-1 4:-1 5:-1 6:-1 7:-1 8:-1 9:-1 10:-1 11:-1 12:-0.889247 13:-1 14:-1 15:-1 16:-1 17:-1 18:-1 19:-1 20:-1 21:-1 
0 0 0 8192 1:-0.666667 2:0.805377 3:-1 4:-1 5:-1 6:-1 7:-1 8:-1 9:-1 10:-1 11:-1 12:-0.888666 13:-1 14:-1 15:-1 16:-1 17:-1 18:-1 19:-1 20:-1 21:-1 
0 0 0 8192 1:-0.666667 2:0.811581 3:-1 4:-1 5:-1 6:-1 7:-1 8:-1 9:-1 10:-1 11:-1 12:-0.888247 13:-1 14:-1 15:-1 16:-1 17:-1 18:-1 19:-1 20:-1 21:-1 
0 8192 0 8192 1:-0.666667 2:0.817863 3:-1 4:-1 5:-1 6:-1 7:-1 8:-1 9:-1 10:-1 11:-1 12:-0.887876 13:-1 14:-1 15:-1 16:-1 17:-1 18:-1 19:-1 20:-1 21:-1 
0 8192 0 8192 1:-0.666667 2:0.825166 3:-1 4:-1 5:-1 6:-1 7:-1 8:-1 9:-1 10:-1 11:-1 12:-0.887681 13:-1 14:-1 15:-1 16:-1 17:-1 18:-1 19:-1 20:-1 21:-1 
0 8192 0 0 1:-0.666667 2:0.83047 3:-1 4:-1 5:-1 6:-1 7:-1 8:-1 9:-1 10:-1 11:-1 12:-0.887648 13:-1 14:-1 15:-1 16:-1 17:-1 18:-1 19:-1 20:-1 21:-1 
0 5995.01243794432 0 0 1:-0.666667 2:0.837496 3:-1 4:-1 5:-1 6:-1 7:-1 8:-1 9:-1 10:-1 11:-1 12:-0.887949 13:-1 14:-1 15:-1 16:-1 17:-1 18:-1 19:-1 20:-1 21:-1 
0 7419.072061811201 0 0 1:-0.666667 2:0.84055 3:-1 4:-1 5:-1 6:-1 7:-1 8:-1 9:-1 10:-1 11:-1 12:-0.885484 13:-1 14:-1 15:-1 16:-1 17:-1 18:-1 19:-1 20:-1 21:-1 
0 8192 0 0 1:-0.666667 2:0.836656 3:-1 4:-1 5:-1 6:-1 7:-1 8:-1 9:-1 10:-1 11:-1 12:-0.88519 13:-1 14:-1 15:-1 16:-1 17:-1 18:-1 19:-1 20:-1 21:-1 
0 8192 0 0 1:-0.666667 2:0.832666 3:-1 4:-1 5:-1 6:-1 7:-1 8:-1 9:-1 10:-1 11:-1 12:-0.885018 13:-1 14:-1 15:-1 16:-1 17:-1 18:-1 19:-1 20:-1 21:-1 
0 8192 0 0 1:-0.666667 2:0.82994 3:-1 4:-1 5:-1 6:-1 7:-1 8:-1 9:-1 10:-1 11:-1 12:-0.884888 13:-1 14:-1 15:-1 16:-1 17:-1 18:-1 19:-1 20:-1 21:-1 
0 8057.913343866528 0 0 1:-0.666667 2:0.828228 3:-1 4:-1 5:-1 6:-1 7:-1 8:-1 9:-1 10:-1 11:-1 12:-0.884456 13:-1 14:-1 15:-1 16:-1 17:-1 18:-1 19:-1 20:-1 21:-1 
0 0 747.643482492442 8192 1:-0.666667 2:0.778427 3:-1 4:-1 5:-1 6:-1 7:-1 8:-1 9:-1 10:-1 11:-1 12:-0.886529 13:-1 14:-1 15:-1 16:-1 17:-1 18:-1 19:-1 20:-1 21:-1 
0 0 8192 8192 1:-0.666667 2:0.779037 3:-1 4:-1 5:-1 6:-1 7:-1 8:-1 9:-1 10:-1 11:-1 12:-0.887052 13:-1 14:-1 15:-1 16:-1 17:-1 18:-1 19:-1 20:-1 21:-1 
0 0 8192 8192 1:-0.666667 2:0.777045 3:-1 4:-1 5:-1 6:-1 7:-1 8:-1 9:-1 10:-1 11:-1 12:-0.887436 13:-1 14:-1 15:-1 16:-1 17:-1 18:-1 19:-1 20:-1 21:-1 
0 0 8192 8192 1:-0.666667 2:0.776227 3:-1 4:-1 5:-1 6:-1 7:-1 8:-1 9:-1 10:-1 11:-1 12:-0.887858 13:-1 14:-1 15:-1 16:-1 17:-1 18:-1 19:-1 20:-1 21:-1 
8192 0.01620496494260593 8192 8192 1:-1 2:-1 3:-1 4:-1 5:-1 6:-1 7:-1 8:-1 9:-1 10:-1 11:-1 12:-1 13:-1 14:-1 15:-1 16:-1 17:-1 18:-1 19:-1 20:-1 21:-1 
8192 0 8192 8192 1:-1 2:-1 3:-1 4:-1 5:-1 6:-1 7:-1 8:-1 9:-1 10:-1 11:-1 12:-1 13:-1 14:-1 15:-1 16:-1 17:-1 18:-1 19:-1 20:-1 21:-1 
8192 0 8192 8192 1:-1 2:-1 3:-1 4:-1 5:-1 6:-1 7:-1 8:-1 9:-1 10:-1 11:-1 12:-1 13:-1 14:-1 15:-1 16:-1 17:-1 18:-1 19:-1 20:-1 21:-1 
8192 0 8192 8192 1:-0.666667 2:0.785745 3:-1 4:-1 5:-1 6:-1 7:-1 8:-1 9:-1 10:-1 11:-1 12:-0.892668 13:-1 14:-1 15:-1 16:-1 17:-1 18:-1 19:-1 20:-1 21:-1 
8192 0.007451767342321104 8192 8192 1:-1 2:-1 3:-1 4:-1 5:-1 6:-1 7:-1 8:-1 9:-1 10:-1 11:-1 12:-1 13:-1 14:-1 15:-1 16:-1 17:-1 18:-1 19:-1 20:-1 21:-1 
8192 0 8192 8192 1:-1 2:-1 3:-1 4:-1 5:-1 6:-1 7:-1 8:-1 9:-1 10:-1 11:-1 12:-1 13:-1 14:-1 15:-1 16:-1 17:-1 18:-1 19:-1 20:-1 21:-1 
8192 0.7751111651726593 8192 8192 1:-1 2:-1 3:-1 4:-1 5:-1 6:-1 7:-1 8:-1 9:-1 10:-1 11:-1 12:-1 13:-1 14:-1 15:-1 16:-1 17:-1 18:-1 19:-1 20:-1 21:-1 
8192 0 8192 8192 1:-1 2:-1 3:-1 4:-1 5:-1 6:-1 7:-1 8:-1 9:-1 10:-1 11:-1 12:-1 13:-1 14:-1 15:-1 16:-1 17:-1 18:-1 19:-1 20:-1 21:-1 
8192 0 8192 8192 1:-1 2:-1 3:-1 4:-1 5:-1 6:-1 7:-1 8:-1 9:-1 10:-1 11:-1 12:-1 13:-1 14:-1 15:-1 16:-1 17:-1 18:-1 19:-1 20:-1 21:-1 
8192 0 8192 8192 1:-1 2:-1 3:-1 4:-1 5:-1 6:-1 7:-1 8:-1 9:-1 10:-1 11:-1 12:-1 13:-1 14:-1 15:-1 16:-1 17:-1 18:-1 19:-1 20:-1 21:-1 
8192 0 8192 8192 1:-1 2:-1 3:-1 4:-1 5:-1 6:-1 7:-1 8:-1 9:-1 10:-1 11:-1 12:-1 13:-1 14:-1 15:-1 16:-1 17:-1 18:-1 19:-1 20:-1 21:-1 
8192 0 8192 8192 1:-1 2:-1 3:-1 4:-1 5:-1 6:-1 7:-1 8:-1 9:-1 10:-1 11:-1 12:-1 13:-1 14:-1 15:-1 16:-1 17:-1 18:-1 19:-1 20:-1 21:-1 
8192 0 8192 8192 1:-1 2:-1 3:-1 4:-1 5:-1 6:-1 7:-1 8:-1 9:-1 10:-1 11:-1 12:-1 13:-1 14:-1 15:-1 16:-1 17:-1 18:-1 19:-1 20:-1 21:-1 
8192 0 8192 8192 1:-1 2:-1 3:-1 4:-1 5:-1 6:-1 7:-1 8:-1 9:-1 10:-1 11:-1 12:-1 13:-1 14:-1 15:-1 16:-1 17:-1 18:-1 19:-1 20:-1 21:-1 
8192 0 8192 8192 1:-1 2:-1 3:-1 4:-1 5:-1 6:-1 7:-1 8:-1 9:-1 10:-1 11:-1 12:-1 13:-1 14:-1 15:-1 16:-1 17:-1 18:-1 19:-1 20:-1 21:-1 
8192 0 8192 8192 1:-1 2:-1 3:-1 4:-1 5:-1 6:-1 7:-1 8:-1 9:-1 10:-1 11:-1 12:-1 13:-1 14:-1 15:-1 16:-1 17:-1 18:-1 19:-1 20:-1 21:-1 
8192 0 8192 8192 1:-1 2:-1 3:-1 4:-1 5:-1 6:-1 7:-1 8:-1 9:-1 10:-1 11:-1 12:-1 13:-1 14:-1 15:-1 16:-1 17:-1 18:-1 19:-1 20:-1 21:-1 
8192 0 8192 8192 1:-1 2:-1 3:-1 4:-1 5:-1 6:-1 7:-1 8:-1 9:-1 10:-1 11:-1 12:-1 13:-1 14:-1 15:-1 16:-1 17:-1 18:-1 19:-1 20:-1 21:-1 
8192 0 8192 8192 1:-1 2:-1 3:-1 4:-1 5:-1 6:-1 7:-1 8:-1 9:-1 10:-1 11:-1 12:-1 13:-1 14:-1 15:-1 16:-1 17:-1 18:-1 19:-1 20:-1 21:-1 
8192 0 8192 8192 1:-1 2:-1 3:-1 4:-1 5:-1 6:-1 7:-1 8:-1 9:-1 10:-1 11:-1 12:-1 13:-1 14:-1 15:-1 16:-1 17:-1 18:-1 19:-1 20:-1 21:-1 
8192 0 8192 8192 1:-1 2:-1 3:-1 4:-1 5:-1 6:-1 7:-1 8:-1 9:-1 10:-1 11:-1 12:-1 13:-1 14:-1 15:-1 16:-1 17:-1 18:-1 19:-1 20:-1 21:-1 
8192 0 8192 8192 1:-1 2:-1 3:-1 4:-1 5:-1 6:-1 7:-1 8:-1 9:-1 10:-1 11:-1 12:-1 13:-1 14:-1 15:-1 16:-1 17:-1 18:-1 19:-1 20:-1 21:-1 
8192 0 8192 8192 1:-1 2:-1 3:-1 4:-1 5:-1 6:-1 7:-1 8:-1 9:-1 10:-1 11:-1 12:-1 13:-1 14:-1 15:-1 16:-1 17:-1 18:-1 19:-1 20:-1 21:-1 
8192 0 8192 8192 1:-1 2:-1 3:-1 4:-1 5:-1 6:-1 7:-1 8:-1 9:-1 10:-1 11:-1 12:-1 13:-1 14:-1 15:-1 16:-1 17:-1 18:-1 19:-1 20:-1 21:-1 
8192 0 8192 8192 1:-1 2:-1 3:-1 4:-1 5:-1 6:-1 7:-1 8:-1 9:-1 10:-1 11:-1 12:-1 13:-1 14:-1 15:-1 16:-1 17:-1 18:-1 19:-1 20:-1 21:-1 
0 0 8192 0 1:-0.666667 2:0.463102 3:-1 4:-1 5:-1 6:-1 7:-1 8:-1 9:-1 10:-1 11:-1 12:-0.874924 13:-1 14:-1 15:-1 16:-1 17:-1 18:-1 19:-1 20:-1 21:-1 
0 0 8192 0 1:-0.666667 2:0.449876 3:-1 4:-1 5:-1 6:-1 7:-1 8:-1 9:-1 10:-1 11:-1 12:-0.87669 13:-1 14:-1 15:-1 16:-1 17:-1 18:-1 19:-1 20:-1 21:-1 
0 8192 8192 0 1:-0.666667 2:0.523793 3:-1 4:-1 5:-1 6:-1 7:-1 8:-1 9:-1 10:-1 11:-1 12:-0.878176 13:-1 14:-1 15:-1 16:-1 17:-1 18:-1 19:-1 20:-1 21:-1 
0 8192 8192 0 1:-0.666667 2:0.506549 3:-1 4:-1 5:-1 6:-1 7:-1 8:-1 9:-1 10:-1 11:-1 12:-0.87973 13:-1 14:-1 15:-1 16:-1 17:-1 18:-1 19:-1 20:-1 21:-1 
0 0 8192 0 1:-0.666667 2:0.493661 3:-1 4:-1 5:-1 6:-1 7:-1 8:-1 9:-1 10:-1 11:-1 12:-0.880956 13:-1 14:-1 15:-1 16:-1 17:-1 18:-1 19:-1 20:-1 21:-1 
0 0 8192 0 1:-0.666667 2:0.485031 3:-1 4:-1 5:-1 6:-1 7:-1 8:-1 9:-1 10:-1 11:-1 12:-0.881844 13:-1 14:-1 15:-1 16:-1 17:-1 18:-1 19:-1 20:-1 21:-1 
0 0 8192 7938.376566223974 1:-0.666667 2:0.478791 3:-1 4:-1 5:-1 6:-1 7:-1 8:-1 9:-1 10:-1 11:-1 12:-0.882921 13:-1 14:-1 15:-1 16:-1 17:-1 18:-1 19:-1 20:-1 21:-1 
0 0 8192 8192 1:-0.666667 2:0.480919 3:-1 4:-1 5:-1 6:-1 7:-1 8:-1 9:-1 10:-1 11:-1 12:-0.883843 13:-1 14:-1 15:-1 16:-1 17:-1 18:-1 19:-1 20:-1 21:-1 
0 0 8192 8192 1:-0.666667 2:0.479469 3:-1 4:-1 5:-1 6:-1 7:-1 8:-1 9:-1 10:-1 11:-1 12:-0.884829 13:-1 14:-1 15:-1 16:-1 17:-1 18:-1 19:-1 20:-1 21:-1 
0 0 8192 8192 1:-0.666667 2:0.485437 3:-1 4:-1 5:-1 6:-1 7:-1 8:-1 9:-1 10:-1 11:-1 12:-0.885295 13:-1 14:-1 15:-1 16:-1 17:-1 18:-1 19:-1 20:-1 21:-1 
0 0 8192 8192 1:-0.666667 2:0.491499 3:-1 4:-1 5:-1 6:-1 7:-1 8:-1 9:-1 10:-1 11:-1 12:-0.886028 13:-1 14:-1 15:-1 16:-1 17:-1 18:-1 19:-1 20:-1 21:-1 
0 5907.379650976748 8192 8192 1:-0.666667 2:0.519639 3:-1 4:-1 5:-1 6:-1 7:-1 8:-1 9:-1 10:-1 11:-1 12:-0.886826 13:-1 14:-1 15:-1 16:-1 17:-1 18:-1 19:-1 20:-1 21:-1 
0 8192 8192 8192 1:-0.666667 2:0.522593 3:-1 4:-1 5:-1 6:-1 7:-1 8:-1 9:-1 10:-1 11:-1 12:-0.886636 13:-1 14:-1 15:-1 16:-1 17:-1 18:-1 19:-1 20:-1 21:-1 
0 8192 8192 8192 1:-0.666667 2:0.542864 3:-1 4:-1 5:-1 6:-1 7:-1 8:-1 9:-1 10:-1 11:-1 12:-0.886458 13:-1 14:-1 15:-1 16:-1 17:-1 18:-1 19:-1 20:-1 21:-1 
0 8192 8192 8192 1:-0.666667 2:0.561746 3:-1 4:-1 5:-1 6:-1 7:-1 8:-1 9:-1 10:-1 11:-1 12:-0.886194 13:-1 14:-1 15:-1 16:-1 17:-1 18:-1 19:-1 20:-1 21:-1 
0 8192 8192 8192 1:-0.666667 2:0.574762 3:-1 4:-1 5:-1 6:-1 7:-1 8:-1 9:-1 10:-1 11:-1 12:-0.885574 13:-1 14:-1 15:-1 16:-1 17:-1 18:-1 19:-1 20:-1 21:-1 
0 8192 8192 6455.003636879215 1:-0.666667 2:0.589036 3:-1 4:-1 5:-1 6:-1 7:-1 8:-1 9:-1 10:-1 11:-1 12:-0.885152 13:-1 14:-1 15:-1 16:-1 17:-1 18:-1 19:-1 20:-1 21:-1 
0 8192 8192 0 1:-0.666667 2:0.596974 3:-1 4:-1 5:-1 6:-1 7:-1 8:-1 9:-1 10:-1 11:-1 12:-0.884475 13:-1 14:-1 15:-1 16:-1 17:-1 18:-1 19:-1 20:-1 21:-1 
0 8192 8192 0 1:-0.666667 2:0.608753 3:-1 4:-1 5:-1 6:-1 7:-1 8:-1 9:-1 10:-1 11:-1 12:-0.884194 13:-1 14:-1 15:-1 16:-1 17:-1 18:-1 19:-1 20:-1 21:-1 
0 8192 8192 0 1:-0.666667 2:0.614763 3:-1 4:-1 5:-1 6:-1 7:-1 8:-1 9:-1 10:-1 11:-1 12:-0.883534 13:-1 14:-1 15:-1 16:-1 17:-1 18:-1 19:-1 20:-1 21:-1 
0 8192 8192 0 1:-0.666667 2:0.605878 3:-1 4:-1 5:-1 6:-1 7:-1 8:-1 9:-1 10:-1 11:-1 12:-0.883103 13:-1 14:-1 15:-1 16:-1 17:-1 18:-1 19:-1 20:-1 21:-1 
0 8192 8192 0 1:-0.666667 2:0.597984 3:-1 4:-1 5:-1 6:-1 7:-1 8:-1 9:-1 10:-1 11:-1 12:-0.882456 13:-1 14:-1 15:-1 16:-1 17:-1 18:-1 19:-1 20:-1 21:-1 
0 8192 8192 0 1:-0.666667 2:0.607281 3:-1 4:-1 5:-1 6:-1 7:-1 8:-1 9:-1 10:-1 11:-1 12:-0.881459 13:-1 14:-1 15:-1 16:-1 17:-1 18:-1 19:-1 20:-1 21:-1 
0 8192 8192 0 1:-0.666667 2:0.631453 3:-1 4:-1 5:-1 6:-1 7:-1 8:-1 9:-1 10:-1 11:-1 12:-0.881264 13:-1 14:-1 15:-1 16:-1 17:-1 18:-1 19:-1 20:-1 21:-1 
0 8192 8192 0 1:-0.666667 2:0.641527 3:-1 4:-1 5:-1 6:-1 7:-1 8:-1 9:-1 10:-1 11:-1 12:-0.880584 13:-1 14:-1 15:-1 16:-1 17:-1 18:-1 19:-1 20:-1 21:-1 
0 8192 8192 0 1:-0.666667 2:0.653095 3:-1 4:-1 5:-1 6:-1 7:-1 8:-1 9:-1 10:-1 11:-1 12:-0.880078 13:-1 14:-1 15:-1 16:-1 17:-1 18:-1 19:-1 20:-1 21:-1 
0 8192 8192 0 1:-0.666667 2:0.661345 3:-1 4:-1 5:-1 6:-1 7:-1 8:-1 9:-1 10:-1 11:-1 12:-0.879419 13:-1 14:-1 15:-1 16:-1 17:-1 18:-1 19:-1 20:-1 21:-1 
0 8192 0 0 1:-0.666667 2:0.671415 3:-1 4:-1 5:-1 6:-1 7:-1 8:-1 9:-1 10:-1 11:-1 12:-0.878368 13:-1 14:-1 15:-1 16:-1 17:-1 18:-1 19:-1 20:-1 21:-1 
0 8192 0 0 1:-0.666667 2:0.676929 3:-1 4:-1 5:-1 6:-1 7:-1 8:-1 9:-1 10:-1 11:-1 12:-0.877943 13:-1 14:-1 15:-1 16:-1 17:-1 18:-1 19:-1 20:-1 21:-1 
0 8192 0 0 1:-0.666667 2:0.681702 3:-1 4:-1 5:-1 6:-1 7:-1 8:-1 9:-1 10:-1 11:-1 12:-0.877521 13:-1 14:-1 15:-1 16:-1 17:-1 18:-1 19:-1 20:-1 21:-1 
0 8192 0 0 1:-0.666667 2:0.685442 3:-1 4:-1 5:-1 6:-1 7:-1 8:-1 9:-1 10:-1 11:-1 12:-0.877294 13:-1 14:-1 15:-1 16:-1 17:-1 18:-1 19:-1 20:-1 21:-1 
0 8192 0 0 1:-0.666667 2:0.687688 3:-1 4:-1 5:-1 6:-1 7:-1 8:-1 9:-1 10:-1 11:-1 12:-0.877008 13:-1 14:-1 15:-1 16:-1 17:-1 18:-1 19:-1 20:-1 21:-1 
0 8192 0 0 1:-0.666667 2:0.686338 3:-1 4:-1 5:-1 6:-1 7:-1 8:-1 9:-1 10:-1 11:-1 12:-0.876278 13:-1 14:-1 15:-1 16:-1 17:-1 18:-1 19:-1 20:-1 21:-1 
0 8192 0 0 1:-0.666667 2:0.682006 3:-1 4:-1 5:-1 6:-1 7:-1 8:-1 9:-1 10:-1 11:-1 12:-0.875999 13:-1 14:-1 15:-1 16:-1 17:-1 18:-1 19:-1 20:-1 21:-1 
0 8192 0 0 1:-0.666667 2:0.681478 3:-1 4:-1 5:-1 6:-1 7:-1 8:-1 9:-1 10:-1 11:-1 12:-0.875769 13:-1 14:-1 15:-1 16:-1 17:-1 18:-1 19:-1 20:-1 21:-1 
0 8192 0 0 1:-0.666667 2:0.672871 3:-1 4:-1 5:-1 6:-1 7:-1 8:-1 9:-1 10:-1 11:-1 12:-0.875454 13:-1 14:-1 15:-1 16:-1 17:-1 18:-1 19:-1 20:-1 21:-1 
0 8192 8192 0 1:-0.666667 2:0.658389 3:-1 4:-1 5:-1 6:-1 7:-1 8:-1 9:-1 10:-1 11:-1 12:-0.875324 13:-1 14:-1 15:-1 16:-1 17:-1 18:-1 19:-1 20:-1 21:-1 
0 8192 4283.666825639957 0 1:-0.666667 2:0.658853 3:-1 4:-1 5:-1 6:-1 7:-1 8:-1 9:-1 10:-1 11:-1 12:-0.875308 13:-1 14:-1 15:-1 16:-1 17:-1 18:-1 19:-1 20:-1 21:-1 
0 8192 8192 0 1:-0.666667 2:0.650297 3:-1 4:-1 5:-1 6:-1 7:-1 8:-1 9:-1 10:-1 11:-1 12:-0.874704 13:-1 14:-1 15:-1 16:-1 17:-1 18:-1 19:-1 20:-1 21:-1 
0 8192 8192 0 1:-0.666667 2:0.639127 3:-1 4:-1 5:-1 6:-1 7:-1 8:-1 9:-1 10:-1 11:-1 12:-0.874335 13:-1 14:-1 15:-1 16:-1 17:-1 18:-1 19:-1 20:-1 21:-1 
0 8192 8192 0 1:-0.666667 2:0.626403 3:-1 4:-1 5:-1 6:-1 7:-1 8:-1 9:-1 10:-1 11:-1 12:-0.873792 13:-1 14:-1 15:-1 16:-1 17:-1 18:-1 19:-1 20:-1 21:-1 
0 8192 8192 0 1:-0.666667 2:0.625765 3:-1 4:-1 5:-1 6:-1 7:-1 8:-1 9:-1 10:-1 11:-1 12:-0.87307 13:-1 14:-1 15:-1 16:-1 17:-1 18:-1 19:-1 20:-1 21:-1 
0 8192 8192 0 1:-0.666667 2:0.610181 3:-1 4:-1 5:-1 6:-1 7:-1 8:-1 9:-1 10:-1 11:-1 12:-0.872671 13:-1 14:-1 15:-1 16:-1 17:-1 18:-1 19:-1 20:-1 21:-1 
0 8192 8192 0 1:-0.666667 2:0.585892 3:-1 4:-1 5:-1 6:-1 7:-1 8:-1 9:-1 10:-1 11:-1 12:-0.872245 13:-1 14:-1 15:-1 16:-1 17:-1 18:-1 19:-1 20:-1 21:-1 
0 8192 8192 0 1:-0.666667 2:0.560036 3:-1 4:-1 5:-1 6:-1 7:-1 8:-1 9:-1 10:-1 11:-1 12:-0.871961 13:-1 14:-1 15:-1 16:-1 17:-1 18:-1 19:-1 20:-1 21:-1 
0 8192 8192 0 1:-0.666667 2:0.537484 3:-1 4:-1 5:-1 6:-1 7:-1 8:-1 9:-1 10:-1 11:-1 12:-0.871679 13:-1 14:-1 15:-1 16:-1 17:-1 18:-1 19:-1 20:-1 21:-1 
0 8192 8192 0 1:-0.666667 2:0.512929 3:-1 4:-1 5:-1 6:-1 7:-1 8:-1 9:-1 10:-1 11:-1 12:-0.871134 13:-1 14:-1 15:-1 16:-1 17:-1 18:-1 19:-1 20:-1 21:-1 
0 0 8192 0 1:-0.666667 2:0.475283 3:-1 4:-1 5:-1 6:-1 7:-1 8:-1 9:-1 10:-1 11:-1 12:-0.870171 13:-1 14:-1 15:-1 16:-1 17:-1 18:-1 19:-1 20:-1 21:-1 
0 0 8192 0 1:-0.666667 2:0.466879 3:-1 4:-1 5:-1 6:-1 7:-1 8:-1 9:-1 10:-1 11:-1 12:-0.870002 13:-1 14:-1 15:-1 16:-1 17:-1 18:-1 19:-1 20:-1 21:-1 
0 0 8192 0 1:-0.666667 2:0.434936 3:-1 4:-1 5:-1 6:-1 7:-1 8:-1 9:-1 10:-1 11:-1 12:-0.869435 13:-1 14:-1 15:-1 16:-1 17:-1 18:-1 19:-1 20:-1 21:-1 
0 0 8192 0 1:-0.666667 2:0.391811 3:-1 4:-1 5:-1 6:-1 7:-1 8:-1 9:-1 10:-1 11:-1 12:-0.868715 13:-1 14:-1 15:-1 16:-1 17:-1 18:-1 19:-1 20:-1 21:-1 
0 0 8192 0 1:-0.666667 2:0.375393 3:-1 4:-1 5:-1 6:-1 7:-1 8:-1 9:-1 10:-1 11:-1 12:-0.868555 13:-1 14:-1 15:-1 16:-1 17:-1 18:-1 19:-1 20:-1 21:-1 
0 0 8192 0 1:-0.666667 2:0.367949 3:-1 4:-1 5:-1 6:-1 7:-1 8:-1 9:-1 10:-1 11:-1 12:-0.868073 13:-1 14:-1 15:-1 16:-1 17:-1 18:-1 19:-1 20:-1 21:-1 
0 0 8192 0 1:-0.666667 2:0.329203 3:-1 4:-1 5:-1 6:-1 7:-1 8:-1 9:-1 10:-1 11:-1 12:-0.868013 13:-1 14:-1 15:-1 16:-1 17:-1 18:-1 19:-1 20:-1 21:-1 
0 0 8192 0 1:-0.666667 2:0.324395 3:-1 4:-1 5:-1 6:-1 7:-1 8:-1 9:-1 10:-1 11:-1 12:-0.867939 13:-1 14:-1 15:-1 16:-1 17:-1 18:-1 19:-1 20:-1 21:-1 
0 8192 8192 0 1:-0.666667 2:0.304652 3:-1 4:-1 5:-1 6:-1 7:-1 8:-1 9:-1 10:-1 11:-1 12:-0.868049 13:-1 14:-1 15:-1 16:-1 17:-1 18:-1 19:-1 20:-1 21:-1 
0 8192 8192 362.3877262357896 1:-0.666667 2:0.261276 3:-1 4:-1 5:-1 6:-1 7:-1 8:-1 9:-1 10:-1 11:-1 12:-0.867529 13:-1 14:-1 15:-1 16:-1 17:-1 18:-1 19:-1 20:-1 21:-1 
0 8192 8192 0 1:-0.666667 2:0.321491 3:-1 4:-1 5:-1 6:-1 7:-1 8:-1 9:-1 10:-1 11:-1 12:-0.866984 13:-1 14:-1 15:-1 16:-1 17:-1 18:-1 19:-1 20:-1 21:-1 
0 2323.061610260982 8192 0 1:-0.666667 2:0.321979 3:-1 4:-1 5:-1 6:-1 7:-1 8:-1 9:-1 10:-1 11:-1 12:-0.866803 13:-1 14:-1 15:-1 16:-1 17:-1 18:-1 19:-1 20:-1 21:-1 
0 0 8192 0 1:-0.666667 2:0.334393 3:-1 4:-1 5:-1 6:-1 7:-1 8:-1 9:-1 10:-1 11:-1 12:-0.867026 13:-1 14:-1 15:-1 16:-1 17:-1 18:-1 19:-1 20:-1 21:-1 
0 0 8192 0 1:-0.666667 2:0.377079 3:-1 4:-1 5:-1 6:-1 7:-1 8:-1 9:-1 10:-1 11:-1 12:-0.866663 13:-1 14:-1 15:-1 16:-1 17:-1 18:-1 19:-1 20:-1 21:-1 
0 0 8192 0 1:-0.666667 2:0.359175 3:-1 4:-1 5:-1 6:-1 7:-1 8:-1 9:-1 10:-1 11:-1 12:-0.866602 13:-1 14:-1 15:-1 16:-1 17:-1 18:-1 19:-1 20:-1 21:-1 
0 0 8192 0 1:-0.666667 2:0.419816 3:-1 4:-1 5:-1 6:-1 7:-1 8:-1 9:-1 10:-1 11:-1 12:-0.866202 13:-1 14:-1 15:-1 16:-1 17:-1 18:-1 19:-1 20:-1 21:-1 
0 0 8192 0 1:-0.666667 2:0.397284 3:-1 4:-1 5:-1 6:-1 7:-1 8:-1 9:-1 10:-1 11:-1 12:-0.865842 13:-1 14:-1 15:-1 16:-1 17:-1 18:-1 19:-1 20:-1 21:-1 
0 0 8192 0 1:-0.666667 2:0.401646 3:-1 4:-1 5:-1 6:-1 7:-1 8:-1 9:-1 10:-1 11:-1 12:-0.866402 13:-1 14:-1 15:-1 16:-1 17:-1 18:-1 19:-1 20:-1 21:-1 
0 0 8192 0 1:-0.666667 2:0.409244 3:-1 4:-1 5:-1 6:-1 7:-1 8:-1 9:-1 10:-1 11:-1 12:-0.866738 13:-1 14:-1 15:-1 16:-1 17:-1 18:-1 19:-1 20:-1 21:-1 
0 0 8192 0 1:-0.666667 2:0.41655 3:-1 4:-1 5:-1 6:-1 7:-1 8:-1 9:-1 10:-1 11:-1 12:-0.86719 13:-1 14:-1 15:-1 16:-1 17:-1 18:-1 19:-1 20:-1 21:-1 
0 0 8192 0 1:-0.666667 2:0.422616 3:-1 4:-1 5:-1 6:-1 7:-1 8:-1 9:-1 10:-1 11:-1 12:-0.867654 13:-1 14:-1 15:-1 16:-1 17:-1 18:-1 19:-1 20:-1 21:-1 
0 0 8192 0 1:-0.666667 2:0.428576 3:-1 4:-1 5:-1 6:-1 7:-1 8:-1 9:-1 10:-1 11:-1 12:-0.867657 13:-1 14:-1 15:-1 16:-1 17:-1 18:-1 19:-1 20:-1 21:-1 
0 0 8192 0 1:-0.666667 2:0.421538 3:-1 4:-1 5:-1 6:-1 7:-1 8:-1 9:-1 10:-1 11:-1 12:-0.867785 13:-1 14:-1 15:-1 16:-1 17:-1 18:-1 19:-1 20:-1 21:-1 
0 0 8192 0 1:-0.666667 2:0.429524 3:-1 4:-1 5:-1 6:-1 7:-1 8:-1 9:-1 10:-1 11:-1 12:-0.867918 13:-1 14:-1 15:-1 16:-1 17:-1 18:-1 19:-1 20:-1 21:-1 
0 0 8192 0 1:-0.666667 2:0.440026 3:-1 4:-1 5:-1 6:-1 7:-1 8:-1 9:-1 10:-1 11:-1 12:-0.869053 13:-1 14:-1 15:-1 16:-1 17:-1 18:-1 19:-1 20:-1 21:-1 
0 0 8192 0 1:-0.666667 2:0.44972 3:-1 4:-1 5:-1 6:-1 7:-1 8:-1 9:-1 10:-1 11:-1 12:-0.868996 13:-1 14:-1 15:-1 16:-1 17:-1 18:-1 19:-1 20:-1 21:-1 
0 0 8192 0 1:-0.666667 2:0.451308 3:-1 4:-1 5:-1 6:-1 7:-1 8:-1 9:-1 10:-1 11:-1 12:-0.869077 13:-1 14:-1 15:-1 16:-1 17:-1 18:-1 19:-1 20:-1 21:-1 
0 0 8192 0 1:-0.666667 2:0.45842 3:-1 4:-1 5:-1 6:-1 7:-1 8:-1 9:-1 10:-1 11:-1 12:-0.869222 13:-1 14:-1 15:-1 16:-1 17:-1 18:-1 19:-1 20:-1 21:-1 
0 0 8192 0 1:-0.666667 2:0.467427 3:-1 4:-1 5:-1 6:-1 7:-1 8:-1 9:-1 10:-1 11:-1 12:-0.8691 13:-1 14:-1 15:-1 16:-1 17:-1 18:-1 19:-1 20:-1 21:-1 
0 0 8192 0 1:-0.666667 2:0.473061 3:-1 4:-1 5:-1 6:-1 7:-1 8:-1 9:-1 10:-1 11:-1 12:-0.8692 13:-1 14:-1 15:-1 16:-1 17:-1 18:-1 19:-1 20:-1 21:-1 
0 2332.184830708572 8192 0 1:-0.666667 2:0.482735 3:-1 4:-1 5:-1 6:-1 7:-1 8:-1 9:-1 10:-1 11:-1 12:-0.869597 13:-1 14:-1 15:-1 16:-1 17:-1 18:-1 19:-1 20:-1 21:-1 
0 8192 8192 0 1:-0.666667 2:0.489555 3:-1 4:-1 5:-1 6:-1 7:-1 8:-1 9:-1 10:-1 11:-1 12:-0.86961 13:-1 14:-1 15:-1 16:-1 17:-1 18:-1 19:-1 20:-1 21:-1 
0 8192 8192 0 1:-0.666667 2:0.485229 3:-1 4:-1 5:-1 6:-1 7:-1 8:-1 9:-1 10:-1 11:-1 12:-0.869158 13:-1 14:-1 15:-1 16:-1 17:-1 18:-1 19:-1 20:-1 21:-1 
0 8192 8192 0 1:-0.666667 2:0.515287 3:-1 4:-1 5:-1 6:-1 7:-1 8:-1 9:-1 10:-1 11:-1 12:-0.868829 13:-1 14:-1 15:-1 16:-1 17:-1 18:-1 19:-1 20:-1 21:-1 
0 8192 8192 0 1:-0.666667 2:0.517829 3:-1 4:-1 5:-1 6:-1 7:-1 8:-1 9:-1 10:-1 11:-1 12:-0.869267 13:-1 14:-1 15:-1 16:-1 17:-1 18:-1 19:-1 20:-1 21:-1 
0 8192 8192 0 1:-0.666667 2:0.516317 3:-1 4:-1 5:-1 6:-1 7:-1 8:-1 9:-1 10:-1 11:-1 12:-0.869572 13:-1 14:-1 15:-1 16:-1 17:-1 18:-1 19:-1 20:-1 21:-1 
0 8192 8192 0 1:-0.666667 2:0.516431 3:-1 4:-1 5:-1 6:-1 7:-1 8:-1 9:-1 10:-1 11:-1 12:-0.869886 13:-1 14:-1 15:-1 16:-1 17:-1 18:-1 19:-1 20:-1 21:-1 
0 8192 8192 0 1:-0.666667 2:0.499443 3:-1 4:-1 5:-1 6:-1 7:-1 8:-1 9:-1 10:-1 11:-1 12:-0.869241 13:-1 14:-1 15:-1 16:-1 17:-1 18:-1 19:-1 20:-1 21:-1 
0 0 8192 0 1:-0.666667 2:0.477655 3:-1 4:-1 5:-1 6:-1 7:-1 8:-1 9:-1 10:-1 11:-1 12:-0.868771 13:-1 14:-1 15:-1 16:-1 17:-1 18:-1 19:-1 20:-1 21:-1 
0 8192 8192 0 1:-0.666667 2:0.483291 3:-1 4:-1 5:-1 6:-1 7:-1 8:-1 9:-1 10:-1 11:-1 12:-0.869041 13:-1 14:-1 15:-1 16:-1 17:-1 18:-1 19:-1 20:-1 21:-1 
0 8192 8192 0 1:-0.666667 2:0.484869 3:-1 4:-1 5:-1 6:-1 7:-1 8:-1 9:-1 10:-1 11:-1 12:-0.8694 13:-1 14:-1 15:-1 16:-1 17:-1 18:-1 19:-1 20:-1 21:-1 
0 0 8192 0 1:-0.666667 2:0.467029 3:-1 4:-1 5:-1 6:-1 7:-1 8:-1 9:-1 10:-1 11:-1 12:-0.869011 13:-1 14:-1 15:-1 16:-1 17:-1 18:-1 19:-1 20:-1 21:-1 
0 0 8192 0 1:-0.666667 2:0.450638 3:-1 4:-1 5:-1 6:-1 7:-1 8:-1 9:-1 10:-1 11:-1 12:-0.868713 13:-1 14:-1 15:-1 16:-1 17:-1 18:-1 19:-1 20:-1 21:-1 
0 0 8192 0 1:-0.666667 2:0.45484 3:-1 4:-1 5:-1 6:-1 7:-1 8:-1 9:-1 10:-1 11:-1 12:-0.868328 13:-1 14:-1 15:-1 16:-1 17:-1 18:-1 19:-1 20:-1 21:-1 
0 0 8192 0 1:-0.666667 2:0.434634 3:-1 4:-1 5:-1 6:-1 7:-1 8:-1 9:-1 10:-1 11:-1 12:-0.867752 13:-1 14:-1 15:-1 16:-1 17:-1 18:-1 19:-1 20:-1 21:-1 
0 0 8192 0 1:-0.666667 2:0.418144 3:-1 4:-1 5:-1 6:-1 7:-1 8:-1 9:-1 10:-1 11:-1 12:-0.867443 13:-1 14:-1 15:-1 16:-1 17:-1 18:-1 19:-1 20:-1 21:-1 
0 0 8192 0 1:-0.666667 2:0.395798 3:-1 4:-1 5:-1 6:-1 7:-1 8:-1 9:-1 10:-1 11:-1 12:-0.866933 13:-1 14:-1 15:-1 16:-1 17:-1 18:-1 19:-1 20:-1 21:-1 
0 0 8192 0 1:-0.666667 2:0.395636 3:-1 4:-1 5:-1 6:-1 7:-1 8:-1 9:-1 10:-1 11:-1 12:-0.867144 13:-1 14:-1 15:-1 16:-1 17:-1 18:-1 19:-1 20:-1 21:-1 
0 0 8192 0 1:-0.666667 2:0.405348 3:-1 4:-1 5:-1 6:-1 7:-1 8:-1 9:-1 10:-1 11:-1 12:-0.867059 13:-1 14:-1 15:-1 16:-1 17:-1 18:-1 19:-1 20:-1 21:-1 
0 0 8192 0 1:-0.666667 2:0.409184 3:-1 4:-1 5:-1 6:-1 7:-1 8:-1 9:-1 10:-1 11:-1 12:-0.867078 13:-1 14:-1 15:-1 16:-1 17:-1 18:-1 19:-1 20:-1 21:-1 
0 0 8192 0 1:-0.666667 2:0.403848 3:-1 4:-1 5:-1 6:-1 7:-1 8:-1 9:-1 10:-1 11:-1 12:-0.866953 13:-1 14:-1 15:-1 16:-1 17:-1 18:-1 19:-1 20:-1 21:-1 
0 0 8192 0 1:-0.666667 2:0.400012 3:-1 4:-1 5:-1 6:-1 7:-1 8:-1 9:-1 10:-1 11:-1 12:-0.867056 13:-1 14:-1 15:-1 16:-1 17:-1 18:-1 19:-1 20:-1 21:-1 
0 0 8192 0 1:-0.666667 2:0.407654 3:-1 4:-1 5:-1 6:-1 7:-1 8:-1 9:-1 10:-1 11:-1 12:-0.867094 13:-1 14:-1 15:-1 16:-1 17:-1 18:-1 19:-1 20:-1 21:-1 
0 0 8192 0 1:-0.666667 2:0.413444 3:-1 4:-1 5:-1 6:-1 7:-1 8:-1 9:-1 10:-1 11:-1 12:-0.867138 13:-1 14:-1 15:-1 16:-1 17:-1 18:-1 19:-1 20:-1 21:-1 
0 0 8192 0 1:-0.666667 2:0.414852 3:-1 4:-1 5:-1 6:-1 7:-1 8:-1 9:-1 10:-1 11:-1 12:-0.867403 13:-1 14:-1 15:-1 16:-1 17:-1 18:-1 19:-1 20:-1 21:-1 
0 0 8192 0 1:-0.666667 2:0.416476 3:-1 4:-1 5:-1 6:-1 7:-1 8:-1 9:-1 10:-1 11:-1 12:-0.867567 13:-1 14:-1 15:-1 16:-1 17:-1 18:-1 19:-1 20:-1 21:-1 
0 0 8192 0 1:-0.666667 2:0.420722 3:-1 4:-1 5:-1 6:-1 7:-1 8:-1 9:-1 10:-1 11:-1 12:-0.867646 13:-1 14:-1 15:-1 16:-1 17:-1 18:-1 19:-1 20:-1 21:-1 
0 0 8192 0 1:-0.666667 2:0.424954 3:-1 4:-1 5:-1 6:-1 7:-1 8:-1 9:-1 10:-1 11:-1 12:-0.867677 13:-1 14:-1 15:-1 16:-1 17:-1 18:-1 19:-1 20:-1 21:-1 
0 0 8192 0 1:-0.666667 2:0.42741 3:-1 4:-1 5:-1 6:-1 7:-1 8:-1 9:-1 10:-1 11:-1 12:-0.867521 13:-1 14:-1 15:-1 16:-1 17:-1 18:-1 19:-1 20:-1 21:-1 
0 0 8192 0 1:-0.666667 2:0.427492 3:-1 4:-1 5:-1 6:-1 7:-1 8:-1 9:-1 10:-1 11:-1 12:-0.867342 13:-1 14:-1 15:-1 16:-1 17:-1 18:-1 19:-1 20:-1 21:-1 
0 0 8192 0 1:-0.666667 2:0.429806 3:-1 4:-1 5:-1 6:-1 7:-1 8:-1 9:-1 10:-1 11:-1 12:-0.867032 13:-1 14:-1 15:-1 16:-1 17:-1 18:-1 19:-1 20:-1 21:-1 
0 0 8192 0 1:-0.666667 2:0.433496 3:-1 4:-1 5:-1 6:-1 7:-1 8:-1 9:-1 10:-1 11:-1 12:-0.866716 13:-1 14:-1 15:-1 16:-1 17:-1 18:-1 19:-1 20:-1 21:-1 
0 0 8192 0 1:-0.666667 2:0.436266 3:-1 4:-1 5:-1 6:-1 7:-1 8:-1 9:-1 10:-1 11:-1 12:-0.86637 13:-1 14:-1 15:-1 16:-1 17:-1 18:-1 19:-1 20:-1 21:-1 
0 0 8192 0 1:-0.666667 2:0.435366 3:-1 4:-1 5:-1 6:-1 7:-1 8:-1 9:-1 10:-1 11:-1 12:-0.865933 13:-1 14:-1 15:-1 16:-1 17:-1 18:-1 19:-1 20:-1 21:-1 
0 0 8192 0 1:-0.666667 2:0.432736 3:-1 4:-1 5:-1 6:-1 7:-1 8:-1 9:-1 10:-1 11:-1 12:-0.865557 13:-1 14:-1 15:-1 16:-1 17:-1 18:-1 19:-1 20:-1 21:-1 
0 0 8192 0 1:-0.666667 2:0.433906 3:-1 4:-1 5:-1 6:-1 7:-1 8:-1 9:-1 10:-1 11:-1 12:-0.865105 13:-1 14:-1 15:-1 16:-1 17:-1 18:-1 19:-1 20:-1 21:-1 
0 0 8192 0 1:-0.666667 2:0.434228 3:-1 4:-1 5:-1 6:-1 7:-1 8:-1 9:-1 10:-1 11:-1 12:-0.865265 13:-1 14:-1 15:-1 16:-1 17:-1 18:-1 19:-1 20:-1 21:-1 
0 0 8192 0 1:-0.666667 2:0.430982 3:-1 4:-1 5:-1 6:-1 7:-1 8:-1 9:-1 10:-1 11:-1 12:-0.86508 13:-1 14:-1 15:-1 16:-1 17:-1 18:-1 19:-1 20:-1 21:-1 
0 0 8192 0 1:-0.666667 2:0.428308 3:-1 4:-1 5:-1 6:-1 7:-1 8:-1 9:-1 10:-1 11:-1 12:-0.864932 13:-1 14:-1 15:-1 16:-1 17:-1 18:-1 19:-1 20:-1 21:-1 
0 0 8192 0 1:-0.666667 2:0.433794 3:-1 4:-1 5:-1 6:-1 7:-1 8:-1 9:-1 10:-1 11:-1 12:-0.864892 13:-1 14:-1 15:-1 16:-1 17:-1 18:-1 19:-1 20:-1 21:-1 
0 0 8192 0 1:-0.666667 2:0.438602 3:-1 4:-1 5:-1 6:-1 7:-1 8:-1 9:-1 10:-1 11:-1 12:-0.864805 13:-1 14:-1 15:-1 16:-1 17:-1 18:-1 19:-1 20:-1 21:-1 
0 0 8192 0 1:-0.666667 2:0.44276 3:-1 4:-1 5:-1 6:-1 7:-1 8:-1 9:-1 10:-1 11:-1 12:-0.864843 13:-1 14:-1 15:-1 16:-1 17:-1 18:-1 19:-1 20:-1 21:-1 
0 0 8192 0 1:-0.666667 2:0.445444 3:-1 4:-1 5:-1 6:-1 7:-1 8:-1 9:-1 10:-1 11:-1 12:-0.864537 13:-1 14:-1 15:-1 16:-1 17:-1 18:-1 19:-1 20:-1 21:-1 
0 0 8192 0 1:-0.666667 2:0.449176 3:-1 4:-1 5:-1 6:-1 7:-1 8:-1 9:-1 10:-1 11:-1 12:-0.864485 13:-1 14:-1 15:-1 16:-1 17:-1 18:-1 19:-1 20:-1 21:-1 
0 0 8192 0 1:-0.666667 2:0.453864 3:-1 4:-1 5:-1 6:-1 7:-1 8:-1 9:-1 10:-1 11:-1 12:-0.864125 13:-1 14:-1 15:-1 16:-1 17:-1 18:-1 19:-1 20:-1 21:-1 
0 0 8192 0 1:-0.666667 2:0.458248 3:-1 4:-1 5:-1 6:-1 7:-1 8:-1 9:-1 10:-1 11:-1 12:-0.863662 13:-1 14:-1 15:-1 16:-1 17:-1 18:-1 19:-1 20:-1 21:-1 
0 0 8192 0 1:-0.666667 2:0.463518 3:-1 4:-1 5:-1 6:-1 7:-1 8:-1 9:-1 10:-1 11:-1 12:-0.863172 13:-1 14:-1 15:-1 16:-1 17:-1 18:-1 19:-1 20:-1 21:-1 
0 0 8192 0 1:-0.666667 2:0.467175 3:-1 4:-1 5:-1 6:-1 7:-1 8:-1 9:-1 10:-1 11:-1 12:-0.862312 13:-1 14:-1 15:-1 16:-1 17:-1 18:-1 19:-1 20:-1 21:-1 
0 1139.053925822739 8192 0 1:-0.666667 2:0.470619 3:-1 4:-1 5:-1 6:-1 7:-1 8:-1 9:-1 10:-1 11:-1 12:-0.861748 13:-1 14:-1 15:-1 16:-1 17:-1 18:-1 19:-1 20:-1 21:-1 
0 8192 8192 0 1:-0.666667 2:0.484803 3:-1 4:-1 5:-1 6:-1 7:-1 8:-1 9:-1 10:-1 11:-1 12:-0.860812 13:-1 14:-1 15:-1 16:-1 17:-1 18:-1 19:-1 20:-1 21:-1 
0 8192 8192 0 1:-0.666667 2:0.488933 3:-1 4:-1 5:-1 6:-1 7:-1 8:-1 9:-1 10:-1 11:-1 12:-0.86003 13:-1 14:-1 15:-1 16:-1 17:-1 18:-1 19:-1 20:-1 21:-1 
0 8192 8192 0 1:-0.666667 2:0.496419 3:-1 4:-1 5:-1 6:-1 7:-1 8:-1 9:-1 10:-1 11:-1 12:-0.859507 13:-1 14:-1 15:-1 16:-1 17:-1 18:-1 19:-1 20:-1 21:-1 
0 8192 8192 0 1:-0.666667 2:0.502137 3:-1 4:-1 5:-1 6:-1 7:-1 8:-1 9:-1 10:-1 11:-1 12:-0.859052 13:-1 14:-1 15:-1 16:-1 17:-1 18:-1 19:-1 20:-1 21:-1 
0 8192 8192 0 1:-0.666667 2:0.511559 3:-1 4:-1 5:-1 6:-1 7:-1 8:-1 9:-1 10:-1 11:-1 12:-0.858598 13:-1 14:-1 15:-1 16:-1 17:-1 18:-1 19:-1 20:-1 21:-1 
0 8192 8192 0 1:-0.666667 2:0.524155 3:-1 4:-1 5:-1 6:-1 7:-1 8:-1 9:-1 10:-1 11:-1 12:-0.858603 13:-1 14:-1 15:-1 16:-1 17:-1 18:-1 19:-1 20:-1 21:-1 
0 8192 8192 0 1:-0.666667 2:0.541894 3:-1 4:-1 5:-1 6:-1 7:-1 8:-1 9:-1 10:-1 11:-1 12:-0.858636 13:-1 14:-1 15:-1 16:-1 17:-1 18:-1 19:-1 20:-1 21:-1 
0 8192 8192 0 1:-0.666667 2:0.572748 3:-1 4:-1 5:-1 6:-1 7:-1 8:-1 9:-1 10:-1 11:-1 12:-0.858957 13:-1 14:-1 15:-1 16:-1 17:-1 18:-1 19:-1 20:-1 21:-1 
0 8192 8192 0 1:-0.666667 2:0.610369 3:-1 4:-1 5:-1 6:-1 7:-1 8:-1 9:-1 10:-1 11:-1 12:-0.858769 13:-1 14:-1 15:-1 16:-1 17:-1 18:-1 19:-1 20:-1 21:-1 
1.562450149128499 3.811780077835706 13.15054669124251 3.531725533269713 1:-0.333333 2:0.71536 3:0.688178 4:-0.0963743 5:-1 6:-1 7:-1 8:-1 9:-1 10:-1 11:-1 12:-0.759429 13:-0.781606 14:-0.843667 15:-1 16:-1 17:-1 18:-1 19:-1 20:-1 21:-1 
0 8192 0 0 1:-0.666667 2:0.665661 3:-1 4:-1 5:-1 6:-1 7:-1 8:-1 9:-1 10:-1 11:-1 12:-0.868529 13:-1 14:-1 15:-1 16:-1 17:-1 18:-1 19:-1 20:-1 21:-1 
0 8192 0 0 1:-0.666667 2:0.647537 3:-1 4:-1 5:-1 6:-1 7:-1 8:-1 9:-1 10:-1 11:-1 12:-0.866561 13:-1 14:-1 15:-1 16:-1 17:-1 18:-1 19:-1 20:-1 21:-1 
0 8192 8192 0 1:-0.666667 2:0.629703 3:-1 4:-1 5:-1 6:-1 7:-1 8:-1 9:-1 10:-1 11:-1 12:-0.864817 13:-1 14:-1 15:-1 16:-1 17:-1 18:-1 19:-1 20:-1 21:-1 
0 8192 8192 0 1:-0.666667 2:0.614799 3:-1 4:-1 5:-1 6:-1 7:-1 8:-1 9:-1 10:-1 11:-1 12:-0.863723 13:-1 14:-1 15:-1 16:-1 17:-1 18:-1 19:-1 20:-1 21:-1 
0 8192 8192 0 1:-0.666667 2:0.605086 3:-1 4:-1 5:-1 6:-1 7:-1 8:-1 9:-1 10:-1 11:-1 12:-0.863312 13:-1 14:-1 15:-1 16:-1 17:-1 18:-1 19:-1 20:-1 21:-1 
0 8192 8192 0 1:-0.666667 2:0.601064 3:-1 4:-1 5:-1 6:-1 7:-1 8:-1 9:-1 10:-1 11:-1 12:-0.863248 13:-1 14:-1 15:-1 16:-1 17:-1 18:-1 19:-1 20:-1 21:-1 
0 8192 8192 0 1:-0.666667 2:0.602194 3:-1 4:-1 5:-1 6:-1 7:-1 8:-1 9:-1 10:-1 11:-1 12:-0.863263 13:-1 14:-1 15:-1 16:-1 17:-1 18:-1 19:-1 20:-1 21:-1 
0 8192 8192 0 1:-0.666667 2:0.608723 3:-1 4:-1 5:-1 6:-1 7:-1 8:-1 9:-1 10:-1 11:-1 12:-0.863923 13:-1 14:-1 15:-1 16:-1 17:-1 18:-1 19:-1 20:-1 21:-1 
0 8192 8192 0 1:-0.666667 2:0.619681 3:-1 4:-1 5:-1 6:-1 7:-1 8:-1 9:-1 10:-1 11:-1 12:-0.864786 13:-1 14:-1 15:-1 16:-1 17:-1 18:-1 19:-1 20:-1 21:-1 
0 8192 8192 0 1:-0.666667 2:0.634031 3:-1 4:-1 5:-1 6:-1 7:-1 8:-1 9:-1 10:-1 11:-1 12:-0.865758 13:-1 14:-1 15:-1 16:-1 17:-1 18:-1 19:-1 20:-1 21:-1 
0 8192 0 0 1:-0.666667 2:0.650491 3:-1 4:-1 5:-1 6:-1 7:-1 8:-1 9:-1 10:-1 11:-1 12:-0.866747 13:-1 14:-1 15:-1 16:-1 17:-1 18:-1 19:-1 20:-1 21:-1 
0 4254.310061771484 0 0 1:-0.666667 2:0.667763 3:-1 4:-1 5:-1 6:-1 7:-1 8:-1 9:-1 10:-1 11:-1 12:-0.867801 13:-1 14:-1 15:-1 16:-1 17:-1 18:-1 19:-1 20:-1 21:-1 
8192 0 8192 8192 1:-1 2:-1 3:-1 4:-1 5:-1 6:-1 7:-1 8:-1 9:-1 10:-1 11:-1 12:-1 13:-1 14:-1 15:-1 16:-1 17:-1 18:-1 19:-1 20:-1 21:-1 
8192 0 8192 8192 1:-1 2:-1 3:-1 4:-1 5:-1 6:-1 7:-1 8:-1 9:-1 10:-1 11:-1 12:-1 13:-1 14:-1 15:-1 16:-1 17:-1 18:-1 19:-1 20:-1 21:-1 
8192 0 8192 8192 1:-1 2:-1 3:-1 4:-1 5:-1 6:-1 7:-1 8:-1 9:-1 10:-1 11:-1 12:-1 13:-1 14:-1 15:-1 16:-1 17:-1 18:-1 19:-1 20:-1 21:-1 
8192 0 8192 8192 1:-1 2:-1 3:-1 4:-1 5:-1 6:-1 7:-1 8:-1 9:-1 10:-1 11:-1 12:-1 13:-1 14:-1 15:-1 16:-1 17:-1 18:-1 19:-1 20:-1 21:-1 
8192 0 8192 8192 1:-1 2:-1 3:-1 4:-1 5:-1 6:-1 7:-1 8:-1 9:-1 10:-1 11:-1 12:-1 13:-1 14:-1 15:-1 16:-1 17:-1 18:-1 19:-1 20:-1 21:-1 
8192 0 8192 8192 1:-1 2:-1 3:-1 4:-1 5:-1 6:-1 7:-1 8:-1 9:-1 10:-1 11:-1 12:-1 13:-1 14:-1 15:-1 16:-1 17:-1 18:-1 19:-1 20:-1 21:-1 
8192 0 8192 8192 1:-1 2:-1 3:-1 4:-1 5:-1 6:-1 7:-1 8:-1 9:-1 10:-1 11:-1 12:-1 13:-1 14:-1 15:-1 16:-1 17:-1 18:-1 19:-1 20:-1 21:-1 
8192 0 8192 8192 1:-1 2:-1 3:-1 4:-1 5:-1 6:-1 7:-1 8:-1 9:-1 10:-1 11:-1 12:-1 13:-1 14:-1 15:-1 16:-1 17:-1 18:-1 19:-1 20:-1 21:-1 
8192 0 8192 8192 1:-1 2:-1 3:-1 4:-1 5:-1 6:-1 7:-1 8:-1 9:-1 10:-1 11:-1 12:-1 13:-1 14:-1 15:-1 16:-1 17:-1 18:-1 19:-1 20:-1 21:-1 
8192 1.981627075200771 8192 8192 1:-1 2:-1 3:-1 4:-1 5:-1 6:-1 7:-1 8:-1 9:-1 10:-1 11:-1 12:-1 13:-1 14:-1 15:-1 16:-1 17:-1 18:-1 19:-1 20:-1 21:-1 
8192 8192 8192 8192 1:-1 2:-1 3:-1 4:-1 5:-1 6:-1 7:-1 8:-1 9:-1 10:-1 11:-1 12:-1 13:-1 14:-1 15:-1 16:-1 17:-1 18:-1 19:-1 20:-1 21:-1 
8192 8192 8192 8192 1:-1 2:-1 3:-1 4:-1 5:-1 6:-1 7:-1 8:-1 9:-1 10:-1 11:-1 12:-1 13:-1 14:-1 15:-1 16:-1 17:-1 18:-1 19:-1 20:-1 21:-1 
8192 8192 8192 8192 1:-1 2:-1 3:-1 4:-1 5:-1 6:-1 7:-1 8:-1 9:-1 10:-1 11:-1 12:-1 13:-1 14:-1 15:-1 16:-1 17:-1 18:-1 19:-1 20:-1 21:-1 
8192 8192 8192 8192 1:-1 2:-1 3:-1 4:-1 5:-1 6:-1 7:-1 8:-1 9:-1 10:-1 11:-1 12:-1 13:-1 14:-1 15:-1 16:-1 17:-1 18:-1 19:-1 20:-1 21:-1 
8192 8192 8192 8192 1:-1 2:-1 3:-1 4:-1 5:-1 6:-1 7:-1 8:-1 9:-1 10:-1 11:-1 12:-1 13:-1 14:-1 15:-1 16:-1 17:-1 18:-1 19:-1 20:-1 21:-1 
8192 8192 8192 8192 1:-1 2:-1 3:-1 4:-1 5:-1 6:-1 7:-1 8:-1 9:-1 10:-1 11:-1 12:-1 13:-1 14:-1 15:-1 16:-1 17:-1 18:-1 19:-1 20:-1 21:-1 
8192 8192 8192 8192 1:-1 2:-1 3:-1 4:-1 5:-1 6:-1 7:-1 8:-1 9:-1 10:-1 11:-1 12:-1 13:-1 14:-1 15:-1 16:-1 17:-1 18:-1 19:-1 20:-1 21:-1 
8192 8192 8192 8192 1:-1 2:-1 3:-1 4:-1 5:-1 6:-1 7:-1 8:-1 9:-1 10:-1 11:-1 12:-1 13:-1 14:-1 15:-1 16:-1 17:-1 18:-1 19:-1 20:-1 21:-1 
8192 8192 8192 8192 1:-1 2:-1 3:-1 4:-1 5:-1 6:-1 7:-1 8:-1 9:-1 10:-1 11:-1 12:-1 13:-1 14:-1 15:-1 16:-1 17:-1 18:-1 19:-1 20:-1 21:-1 
8192 8192 8192 8192 1:-1 2:-1 3:-1 4:-1 5:-1 6:-1 7:-1 8:-1 9:-1 10:-1 11:-1 12:-1 13:-1 14:-1 15:-1 16:-1 17:-1 18:-1 19:-1 20:-1 21:-1 
8192 8192 8192 8192 1:-1 2:-1 3:-1 4:-1 5:-1 6:-1 7:-1 8:-1 9:-1 10:-1 11:-1 12:-1 13:-1 14:-1 15:-1 16:-1 17:-1 18:-1 19:-1 20:-1 21:-1 
8192 8192 8192 8192 1:-1 2:-1 3:-1 4:-1 5:-1 6:-1 7:-1 8:-1 9:-1 10:-1 11:-1 12:-1 13:-1 14:-1 15:-1 16:-1 17:-1 18:-1 19:-1 20:-1 21:-1 
8192 8192 8192 8192 1:-1 2:-1 3:-1 4:-1 5:-1 6:-1 7:-1 8:-1 9:-1 10:-1 11:-1 12:-1 13:-1 14:-1 15:-1 16:-1 17:-1 18:-1 19:-1 20:-1 21:-1 
8192 8192 8192 8192 1:-1 2:-1 3:-1 4:-1 5:-1 6:-1 7:-1 8:-1 9:-1 10:-1 11:-1 12:-1 13:-1 14:-1 15:-1 16:-1 17:-1 18:-1 19:-1 20:-1 21:-1 
8192 8192 8192 8192 1:-1 2:-1 3:-1 4:-1 5:-1 6:-1 7:-1 8:-1 9:-1 10:-1 11:-1 12:-1 13:-1 14:-1 15:-1 16:-1 17:-1 18:-1 19:-1 20:-1 21:-1 
8192 8192 8192 8192 1:-1 2:-1 3:-1 4:-1 5:-1 6:-1 7:-1 8:-1 9:-1 10:-1 11:-1 12:-1 13:-1 14:-1 15:-1 16:-1 17:-1 18:-1 19:-1 20:-1 21:-1 
8192 8192 8192 8192 1:-1 2:-1 3:-1 4:-1 5:-1 6:-1 7:-1 8:-1 9:-1 10:-1 11:-1 12:-1 13:-1 14:-1 15:-1 16:-1 17:-1 18:-1 19:-1 20:-1 21:-1 
8192 8192 8192 8192 1:-1 2:-1 3:-1 4:-1 5:-1 6:-1 7:-1 8:-1 9:-1 10:-1 11:-1 12:-1 13:-1 14:-1 15:-1 16:-1 17:-1 18:-1 19:-1 20:-1 21:-1 
8192 8192 8192 8192 1:-1 2:-1 3:-1 4:-1 5:-1 6:-1 7:-1 8:-1 9:-1 10:-1 11:-1 12:-1 13:-1 14:-1 15:-1 16:-1 17:-1 18:-1 19:-1 20:-1 21:-1 
8192 8192 8192 8192 1:-1 2:-1 3:-1 4:-1 5:-1 6:-1 7:-1 8:-1 9:-1 10:-1 11:-1 12:-1 13:-1 14:-1 15:-1 16:-1 17:-1 18:-1 19:-1 20:-1 21:-1 
0 8192 8192 0 1:-0.666667 2:0.635931 3:-1 4:-1 5:-1 6:-1 7:-1 8:-1 9:-1 10:-1 11:-1 12:-0.878281 13:-1 14:-1 15:-1 16:-1 17:-1 18:-1 19:-1 20:-1 21:-1 
0 8192 8192 0 1:-0.666667 2:0.649157 3:-1 4:-1 5:-1 6:-1 7:-1 8:-1 9:-1 10:-1 11:-1 12:-0.879806 13:-1 14:-1 15:-1 16:-1 17:-1 18:-1 19:-1 20:-1 21:-1 
0 8192 8192 0 1:-0.666667 2:0.663629 3:-1 4:-1 5:-1 6:-1 7:-1 8:-1 9:-1 10:-1 11:-1 12:-0.880814 13:-1 14:-1 15:-1 16:-1 17:-1 18:-1 19:-1 20:-1 21:-1 
0 8192 8192 0 1:-0.666667 2:0.677935 3:-1 4:-1 5:-1 6:-1 7:-1 8:-1 9:-1 10:-1 11:-1 12:-0.881375 13:-1 14:-1 15:-1 16:-1 17:-1 18:-1 19:-1 20:-1 21:-1 
0 8192 8192 0 1:-0.666667 2:0.691126 3:-1 4:-1 5:-1 6:-1 7:-1 8:-1 9:-1 10:-1 11:-1 12:-0.881651 13:-1 14:-1 15:-1 16:-1 17:-1 18:-1 19:-1 20:-1 21:-1 
0.1889571200659094 0 0 0.4641303861569682 1:-0.333333 2:0.805237 3:0.803008 4:0.381058 5:-1 6:-1 7:-1 8:-1 9:-1 10:-1 11:-1 12:-0.748928 13:-0.782868 14:-0.850177 15:-1 16:-1 17:-1 18:-1 19:-1 20:-1 21:-1 
0 0 30.91582273557023 0 1:-0.333333 2:0.918705 3:0.799923 4:0.56555 5:-1 6:-1 7:-1 8:-1 9:-1 10:-1 11:-1 12:-0.73782 13:-0.782985 14:-0.847885 15:-1 16:-1 17:-1 18:-1 19:-1 20:-1 21:-1 
0.1381623440112367 0 0 0 1:-0.333333 2:0.99437 3:0.79793 4:0.787301 5:-1 6:-1 7:-1 8:-1 9:-1 10:-1 11:-1 12:-0.741709 13:-0.787853 14:-0.847029 15:-1 16:-1 17:-1 18:-1 19:-1 20:-1 21:-1 
0 387.4029118658173 7.485489550425951 0 1:-0.333333 2:0.956931 3:0.794589 4:0.637887 5:-1 6:-1 7:-1 8:-1 9:-1 10:-1 11:-1 12:-0.739973 13:-0.789246 14:-0.84599 15:-1 16:-1 17:-1 18:-1 19:-1 20:-1 21:-1 
0 34.59491996716478 9.208351616208377 0 1:-0.333333 2:0.87069 3:0.793547 4:0.447549 5:-1 6:-1 7:-1 8:-1 9:-1 10:-1 11:-1 12:-0.742491 13:-0.791195 14:-0.84561 15:-1 16:-1 17:-1 18:-1 19:-1 20:-1 21:-1 
0 0 21.67070743575461 0.9553888847449109 1:-0.333333 2:0.791753 3:0.761749 4:0.258579 5:-1 6:-1 7:-1 8:-1 9:-1 10:-1 11:-1 12:-0.744296 13:-0.7929 14:-0.845287 15:-1 16:-1 17:-1 18:-1 19:-1 20:-1 21:-1 
0 22.00114641323076 8.859889313403867 0 1:-0.333333 2:0.789245 3:0.675436 4:0.120411 5:-1 6:-1 7:-1 8:-1 9:-1 10:-1 11:-1 12:-0.739588 13:-0.796391 14:-0.843926 15:-1 16:-1 17:-1 18:-1 19:-1 20:-1 21:-1 
0 4.006633794533172 0 0 1:-0.333333 2:0.789805 3:0.710487 4:0.13882 5:-1 6:-1 7:-1 8:-1 9:-1 10:-1 11:-1 12:-0.74342 13:-0.801631 14:-0.843837 15:-1 16:-1 17:-1 18:-1 19:-1 20:-1 21:-1 
0.3595177613002486 0 0 0 1:-0.333333 2:0.818391 3:0.801005 4:0.317798 5:-1 6:-1 7:-1 8:-1 9:-1 10:-1 11:-1 12:-0.759235 13:-0.807774 14:-0.846224 15:-1 16:-1 17:-1 18:-1 19:-1 20:-1 21:-1 
0 0 8192 0 1:-0.666667 2:0.517625 3:-1 4:-1 5:-1 6:-1 7:-1 8:-1 9:-1 10:-1 11:-1 12:-0.803052 13:-1 14:-1 15:-1 16:-1 17:-1 18:-1 19:-1 20:-1 21:-1 
0 0 8192 0 1:-0.666667 2:0.519453 3:-1 4:-1 5:-1 6:-1 7:-1 8:-1 9:-1 10:-1 11:-1 12:-0.803847 13:-1 14:-1 15:-1 16:-1 17:-1 18:-1 19:-1 20:-1 21:-1 
0 0 8192 0 1:-0.666667 2:0.521253 3:-1 4:-1 5:-1 6:-1 7:-1 8:-1 9:-1 10:-1 11:-1 12:-0.804382 13:-1 14:-1 15:-1 16:-1 17:-1 18:-1 19:-1 20:-1 21:-1 
0 0 8192 0 1:-0.666667 2:0.518341 3:-1 4:-1 5:-1 6:-1 7:-1 8:-1 9:-1 10:-1 11:-1 12:-0.802967 13:-1 14:-1 15:-1 16:-1 17:-1 18:-1 19:-1 20:-1 21:-1 
0 0 8192 0 1:-0.666667 2:0.514465 3:-1 4:-1 5:-1 6:-1 7:-1 8:-1 9:-1 10:-1 11:-1 12:-0.803522 13:-1 14:-1 15:-1 16:-1 17:-1 18:-1 19:-1 20:-1 21:-1 
0 0 8192 0 1:-0.666667 2:0.513699 3:-1 4:-1 5:-1 6:-1 7:-1 8:-1 9:-1 10:-1 11:-1 12:-0.802523 13:-1 14:-1 15:-1 16:-1 17:-1 18:-1 19:-1 20:-1 21:-1 
0 0 8192 0 1:-0.666667 2:0.514795 3:-1 4:-1 5:-1 6:-1 7:-1 8:-1 9:-1 10:-1 11:-1 12:-0.80435 13:-1 14:-1 15:-1 16:-1 17:-1 18:-1 19:-1 20:-1 21:-1 
0 0 8192 0 1:-0.666667 2:0.514589 3:-1 4:-1 5:-1 6:-1 7:-1 8:-1 9:-1 10:-1 11:-1 12:-0.803352 13:-1 14:-1 15:-1 16:-1 17:-1 18:-1 19:-1 20:-1 21:-1 
0 0 8192 0 1:-0.666667 2:0.513897 3:-1 4:-1 5:-1 6:-1 7:-1 8:-1 9:-1 10:-1 11:-1 12:-0.802522 13:-1 14:-1 15:-1 16:-1 17:-1 18:-1 19:-1 20:-1 21:-1 
0 0 596.6001862620172 0 1:-0.666667 2:0.513407 3:-1 4:-1 5:-1 6:-1 7:-1 8:-1 9:-1 10:-1 11:-1 12:-0.801926 13:-1 14:-1 15:-1 16:-1 17:-1 18:-1 19:-1 20:-1 21:-1 
0 0 2791.522364797503 0 1:-0.666667 2:0.676753 3:-1 4:-1 5:-1 6:-1 7:-1 8:-1 9:-1 10:-1 11:-1 12:-0.792064 13:-1 14:-1 15:-1 16:-1 17:-1 18:-1 19:-1 20:-1 21:-1 
0 0 8192 0 1:-0.666667 2:0.676587 3:-1 4:-1 5:-1 6:-1 7:-1 8:-1 9:-1 10:-1 11:-1 12:-0.791858 13:-1 14:-1 15:-1 16:-1 17:-1 18:-1 19:-1 20:-1 21:-1 
0 0 8192 0 1:-0.666667 2:0.529109 3:-1 4:-1 5:-1 6:-1 7:-1 8:-1 9:-1 10:-1 11:-1 12:-0.802832 13:-1 14:-1 15:-1 16:-1 17:-1 18:-1 19:-1 20:-1 21:-1 
0 0 8192 0 1:-0.666667 2:0.519383 3:-1 4:-1 5:-1 6:-1 7:-1 8:-1 9:-1 10:-1 11:-1 12:-0.802331 13:-1 14:-1 15:-1 16:-1 17:-1 18:-1 19:-1 20:-1 21:-1 
0 0 8192 0 1:-0.666667 2:0.229817 3:-1 4:-1 5:-1 6:-1 7:-1 8:-1 9:-1 10:-1 11:-1 12:-0.777385 13:-1 14:-1 15:-1 16:-1 17:-1 18:-1 19:-1 20:-1 21:-1 
0 0 8192 0 1:-0.666667 2:0.227925 3:-1 4:-1 5:-1 6:-1 7:-1 8:-1 9:-1 10:-1 11:-1 12:-0.777013 13:-1 14:-1 15:-1 16:-1 17:-1 18:-1 19:-1 20:-1 21:-1 
0 0 8192 0 1:-0.666667 2:0.226621 3:-1 4:-1 5:-1 6:-1 7:-1 8:-1 9:-1 10:-1 11:-1 12:-0.776673 13:-1 14:-1 15:-1 16:-1 17:-1 18:-1 19:-1 20:-1 21:-1 
0 0 1360.335030301457 0 1:-0.666667 2:0.226205 3:-1 4:-1 5:-1 6:-1 7:-1 8:-1 9:-1 10:-1 11:-1 12:-0.77635 13:-1 14:-1 15:-1 16:-1 17:-1 18:-1 19:-1 20:-1 21:-1 
0 8192 0 0 1:-0.666667 2:0.619987 3:-1 4:-1 5:-1 6:-1 7:-1 8:-1 9:-1 10:-1 11:-1 12:-0.770524 13:-1 14:-1 15:-1 16:-1 17:-1 18:-1 19:-1 20:-1 21:-1 
0 8192 0 0 1:-0.666667 2:0.622299 3:-1 4:-1 5:-1 6:-1 7:-1 8:-1 9:-1 10:-1 11:-1 12:-0.770511 13:-1 14:-1 15:-1 16:-1 17:-1 18:-1 19:-1 20:-1 21:-1 
0 8192 0 0 1:-0.666667 2:0.624271 3:-1 4:-1 5:-1 6:-1 7:-1 8:-1 9:-1 10:-1 11:-1 12:-0.770682 13:-1 14:-1 15:-1 16:-1 17:-1 18:-1 19:-1 20:-1 21:-1 
0 8192 0 0 1:-0.666667 2:0.624001 3:-1 4:-1 5:-1 6:-1 7:-1 8:-1 9:-1 10:-1 11:-1 12:-0.770986 13:-1 14:-1 15:-1 16:-1 17:-1 18:-1 19:-1 20:-1 21:-1 
0 8131.114201778484 0 0 1:-0.666667 2:0.623035 3:-1 4:-1 5:-1 6:-1 7:-1 8:-1 9:-1 10:-1 11:-1 12:-0.77118 13:-1 14:-1 15:-1 16:-1 17:-1 18:-1 19:-1 20:-1 21:-1 
0 8192 0 0 1:-0.666667 2:0.601152 3:-1 4:-1 5:-1 6:-1 7:-1 8:-1 9:-1 10:-1 11:-1 12:-0.767936 13:-1 14:-1 15:-1 16:-1 17:-1 18:-1 19:-1 20:-1 21:-1 
0 8192 0 0 1:-0.666667 2:0.590214 3:-1 4:-1 5:-1 6:-1 7:-1 8:-1 9:-1 10:-1 11:-1 12:-0.766686 13:-1 14:-1 15:-1 16:-1 17:-1 18:-1 19:-1 20:-1 21:-1 
0 4220.032335705324 0 0 1:-0.666667 2:0.56301 3:-1 4:-1 5:-1 6:-1 7:-1 8:-1 9:-1 10:-1 11:-1 12:-0.764137 13:-1 14:-1 15:-1 16:-1 17:-1 18:-1 19:-1 20:-1 21:-1 
0 8192 0 0 1:-0.666667 2:0.556282 3:-1 4:-1 5:-1 6:-1 7:-1 8:-1 9:-1 10:-1 11:-1 12:-0.763512 13:-1 14:-1 15:-1 16:-1 17:-1 18:-1 19:-1 20:-1 21:-1 
0 8192 0 0 1:-0.666667 2:0.549356 3:-1 4:-1 5:-1 6:-1 7:-1 8:-1 9:-1 10:-1 11:-1 12:-0.762654 13:-1 14:-1 15:-1 16:-1 17:-1 18:-1 19:-1 20:-1 21:-1 
0 8192 0 0 1:-0.666667 2:0.54131 3:-1 4:-1 5:-1 6:-1 7:-1 8:-1 9:-1 10:-1 11:-1 12:-0.762124 13:-1 14:-1 15:-1 16:-1 17:-1 18:-1 19:-1 20:-1 21:-1 
0 8192 0 0 1:-0.666667 2:0.532849 3:-1 4:-1 5:-1 6:-1 7:-1 8:-1 9:-1 10:-1 11:-1 12:-0.761529 13:-1 14:-1 15:-1 16:-1 17:-1 18:-1 19:-1 20:-1 21:-1 
0 8192 0 0 1:-0.666667 2:0.524195 3:-1 4:-1 5:-1 6:-1 7:-1 8:-1 9:-1 10:-1 11:-1 12:-0.761172 13:-1 14:-1 15:-1 16:-1 17:-1 18:-1 19:-1 20:-1 21:-1 
0 8192 0 0 1:-0.666667 2:0.515513 3:-1 4:-1 5:-1 6:-1 7:-1 8:-1 9:-1 10:-1 11:-1 12:-0.760697 13:-1 14:-1 15:-1 16:-1 17:-1 18:-1 19:-1 20:-1 21:-1 
0 8192 0 0 1:-0.666667 2:0.507199 3:-1 4:-1 5:-1 6:-1 7:-1 8:-1 9:-1 10:-1 11:-1 12:-0.760778 13:-1 14:-1 15:-1 16:-1 17:-1 18:-1 19:-1 20:-1 21:-1 
0 8192 0 0 1:-0.666667 2:0.496741 3:-1 4:-1 5:-1 6:-1 7:-1 8:-1 9:-1 10:-1 11:-1 12:-0.760501 13:-1 14:-1 15:-1 16:-1 17:-1 18:-1 19:-1 20:-1 21:-1 
0 8192 0 0 1:-0.666667 2:0.487607 3:-1 4:-1 5:-1 6:-1 7:-1 8:-1 9:-1 10:-1 11:-1 12:-0.760658 13:-1 14:-1 15:-1 16:-1 17:-1 18:-1 19:-1 20:-1 21:-1 
0 8192 0 0 1:-0.666667 2:0.479123 3:-1 4:-1 5:-1 6:-1 7:-1 8:-1 9:-1 10:-1 11:-1 12:-0.761024 13:-1 14:-1 15:-1 16:-1 17:-1 18:-1 19:-1 20:-1 21:-1 
0 8192 0 0 1:-0.666667 2:0.470553 3:-1 4:-1 5:-1 6:-1 7:-1 8:-1 9:-1 10:-1 11:-1 12:-0.761282 13:-1 14:-1 15:-1 16:-1 17:-1 18:-1 19:-1 20:-1 21:-1 
0 6497.143396772032 0 0 1:-0.666667 2:0.463236 3:-1 4:-1 5:-1 6:-1 7:-1 8:-1 9:-1 10:-1 11:-1 12:-0.762122 13:-1 14:-1 15:-1 16:-1 17:-1 18:-1 19:-1 20:-1 21:-1 
0 0 0 16.75988918760644 1:-0.666667 2:0.445644 3:-1 4:-1 5:-1 6:-1 7:-1 8:-1 9:-1 10:-1 11:-1 12:-0.765234 13:-1 14:-1 15:-1 16:-1 17:-1 18:-1 19:-1 20:-1 21:-1 
0 0 18.26203637517546 0 1:-0.333333 2:0.432848 3:-0.0810745 4:-0.604144 5:-1 6:-1 7:-1 8:-1 9:-1 10:-1 11:-1 12:-0.71244 13:-0.739727 14:-0.718291 15:-1 16:-1 17:-1 18:-1 19:-1 20:-1 21:-1 
1.343392774317178 6.141590864323685 10.49722906698875 2.309143494575118 1:-0.333333 2:0.427818 3:-0.244654 4:-0.365739 5:-1 6:-1 7:-1 8:-1 9:-1 10:-1 11:-1 12:-0.697487 13:-0.73237 14:-0.722055 15:-1 16:-1 17:-1 18:-1 19:-1 20:-1 21:-1 
1.335007704313291 5.65253266579482 4.297335138403879 2.500077516042732 1:-0.333333 2:0.41348 3:0.0610182 4:-0.620174 5:-1 6:-1 7:-1 8:-1 9:-1 10:-1 11:-1 12:-0.683184 13:-0.727481 14:-0.719244 15:-1 16:-1 17:-1 18:-1 19:-1 20:-1 21:-1 
0 0 0 51.95428515267457 1:-0.666667 2:0.403462 3:-1 4:-1 5:-1 6:-1 7:-1 8:-1 9:-1 10:-1 11:-1 12:-0.767129 13:-1 14:-1 15:-1 16:-1 17:-1 18:-1 19:-1 20:-1 21:-1 
0 6453.282306071556 0 0 1:-0.666667 2:0.348319 3:-1 4:-1 5:-1 6:-1 7:-1 8:-1 9:-1 10:-1 11:-1 12:-0.761453 13:-1 14:-1 15:-1 16:-1 17:-1 18:-1 19:-1 20:-1 21:-1 
0 4156.643002370133 0 0 1:-0.666667 2:0.180285 3:-1 4:-1 5:-1 6:-1 7:-1 8:-1 9:-1 10:-1 11:-1 12:-0.762486 13:-1 14:-1 15:-1 16:-1 17:-1 18:-1 19:-1 20:-1 21:-1 
0 8192 0 0 1:-0.666667 2:0.17842 3:-1 4:-1 5:-1 6:-1 7:-1 8:-1 9:-1 10:-1 11:-1 12:-0.762562 13:-1 14:-1 15:-1 16:-1 17:-1 18:-1 19:-1 20:-1 21:-1 
0 8192 0 0 1:-0.666667 2:0.177282 3:-1 4:-1 5:-1 6:-1 7:-1 8:-1 9:-1 10:-1 11:-1 12:-0.762712 13:-1 14:-1 15:-1 16:-1 17:-1 18:-1 19:-1 20:-1 21:-1 
0 8192 0 0 1:-0.666667 2:0.17692 3:-1 4:-1 5:-1 6:-1 7:-1 8:-1 9:-1 10:-1 11:-1 12:-0.762984 13:-1 14:-1 15:-1 16:-1 17:-1 18:-1 19:-1 20:-1 21:-1 
0 8192 1426.339481020591 0 1:-0.666667 2:0.178002 3:-1 4:-1 5:-1 6:-1 7:-1 8:-1 9:-1 10:-1 11:-1 12:-0.76339 13:-1 14:-1 15:-1 16:-1 17:-1 18:-1 19:-1 20:-1 21:-1 
0 8192 0 0 1:-0.666667 2:0.179471 3:-1 4:-1 5:-1 6:-1 7:-1 8:-1 9:-1 10:-1 11:-1 12:-0.763505 13:-1 14:-1 15:-1 16:-1 17:-1 18:-1 19:-1 20:-1 21:-1 
0 8192 0 0 1:-0.666667 2:0.180763 3:-1 4:-1 5:-1 6:-1 7:-1 8:-1 9:-1 10:-1 11:-1 12:-0.763682 13:-1 14:-1 15:-1 16:-1 17:-1 18:-1 19:-1 20:-1 21:-1 
0 8192 0 0 1:-0.666667 2:0.182985 3:-1 4:-1 5:-1 6:-1 7:-1 8:-1 9:-1 10:-1 11:-1 12:-0.763899 13:-1 14:-1 15:-1 16:-1 17:-1 18:-1 19:-1 20:-1 21:-1 
0 0 1890.890160542022 0 1:-0.666667 2:0.566066 3:-1 4:-1 5:-1 6:-1 7:-1 8:-1 9:-1 10:-1 11:-1 12:-0.80639 13:-1 14:-1 15:-1 16:-1 17:-1 18:-1 19:-1 20:-1 21:-1 
0 0 8192 0 1:-0.666667 2:0.56364 3:-1 4:-1 5:-1 6:-1 7:-1 8:-1 9:-1 10:-1 11:-1 12:-0.806244 13:-1 14:-1 15:-1 16:-1 17:-1 18:-1 19:-1 20:-1 21:-1 
0 0 8192 0 1:-0.666667 2:0.561502 3:-1 4:-1 5:-1 6:-1 7:-1 8:-1 9:-1 10:-1 11:-1 12:-0.80614 13:-1 14:-1 15:-1 16:-1 17:-1 18:-1 19:-1 20:-1 21:-1 
0 0 8192 0 1:-0.666667 2:0.558788 3:-1 4:-1 5:-1 6:-1 7:-1 8:-1 9:-1 10:-1 11:-1 12:-0.805904 13:-1 14:-1 15:-1 16:-1 17:-1 18:-1 19:-1 20:-1 21:-1 
0 0 8192 0 1:-0.666667 2:0.556102 3:-1 4:-1 5:-1 6:-1 7:-1 8:-1 9:-1 10:-1 11:-1 12:-0.80553 13:-1 14:-1 15:-1 16:-1 17:-1 18:-1 19:-1 20:-1 21:-1 
0 0 8192 0 1:-0.666667 2:0.553778 3:-1 4:-1 5:-1 6:-1 7:-1 8:-1 9:-1 10:-1 11:-1 12:-0.805275 13:-1 14:-1 15:-1 16:-1 17:-1 18:-1 19:-1 20:-1 21:-1 
0 0 8192 0 1:-0.666667 2:0.550674 3:-1 4:-1 5:-1 6:-1 7:-1 8:-1 9:-1 10:-1 11:-1 12:-0.804998 13:-1 14:-1 15:-1 16:-1 17:-1 18:-1 19:-1 20:-1 21:-1 
0 0 8192 0 1:-0.666667 2:0.547466 3:-1 4:-1 5:-1 6:-1 7:-1 8:-1 9:-1 10:-1 11:-1 12:-0.804635 13:-1 14:-1 15:-1 16:-1 17:-1 18:-1 19:-1 20:-1 21:-1 
0 0 8192 0 1:-0.666667 2:0.542826 3:-1 4:-1 5:-1 6:-1 7:-1 8:-1 9:-1 10:-1 11:-1 12:-0.80418 13:-1 14:-1 15:-1 16:-1 17:-1 18:-1 19:-1 20:-1 21:-1 
0 0 8192 0 1:-0.666667 2:0.538276 3:-1 4:-1 5:-1 6:-1 7:-1 8:-1 9:-1 10:-1 11:-1 12:-0.803807 13:-1 14:-1 15:-1 16:-1 17:-1 18:-1 19:-1 20:-1 21:-1 
0 0 8192 0 1:-0.666667 2:0.533177 3:-1 4:-1 5:-1 6:-1 7:-1 8:-1 9:-1 10:-1 11:-1 12:-0.803487 13:-1 14:-1 15:-1 16:-1 17:-1 18:-1 19:-1 20:-1 21:-1 
0 0 8192 0 1:-0.666667 2:0.527675 3:-1 4:-1 5:-1 6:-1 7:-1 8:-1 9:-1 10:-1 11:-1 12:-0.802965 13:-1 14:-1 15:-1 16:-1 17:-1 18:-1 19:-1 20:-1 21:-1 
0 0 8192 0 1:-0.666667 2:0.522547 3:-1 4:-1 5:-1 6:-1 7:-1 8:-1 9:-1 10:-1 11:-1 12:-0.802385 13:-1 14:-1 15:-1 16:-1 17:-1 18:-1 19:-1 20:-1 21:-1 
0.138718527488712 0.2760332657377185 0 0.2517744239876061 1:-0.333333 2:0.925795 3:-0.0484503 4:-0.363347 5:-1 6:-1 7:-1 8:-1 9:-1 10:-1 11:-1 12:0.262907 13:0.227342 14:-0.848346 15:-1 16:-1 17:-1 18:-1 19:-1 20:-1 21:-1 
0.8962334517211151 1.454668175581335 3.868456471790264 1.684726204498874 1:-0.333333 2:0.924217 3:-0.188018 4:-0.505188 5:-1 6:-1 7:-1 8:-1 9:-1 10:-1 11:-1 12:0.253706 13:0.220956 14:-0.852418 15:-1 16:-1 17:-1 18:-1 19:-1 20:-1 21:-1 
0 0 2.89284195242272 0 1:-0.333333 2:0.925055 3:0.248361 4:-0.0438911 5:-1 6:-1 7:-1 8:-1 9:-1 10:-1 11:-1 12:0.246684 13:0.212915 14:-0.851804 15:-1 16:-1 17:-1 18:-1 19:-1 20:-1 21:-1 
0.8023723030698448 1.278316840491553 3.308072269516383 1.511478112151585 1:-0.333333 2:0.925551 3:0.105466 4:-0.191819 5:-1 6:-1 7:-1 8:-1 9:-1 10:-1 11:-1 12:0.240676 13:0.206335 14:-0.852041 15:-1 16:-1 17:-1 18:-1 19:-1 20:-1 21:-1 
21.08520240859442 15.22320238490145 564.306172389122 1.914353906813216 1:-0.666667 2:0.199573 3:-1 4:-1 5:-1 6:-1 7:-1 8:-1 9:-1 10:-1 11:-1 12:0.156507 13:-1 14:-1 15:-1 16:-1 17:-1 18:-1 19:-1 20:-1 21:-1 
0 0 812.4279948302441 0 1:-0.666667 2:0.558662 3:-1 4:-1 5:-1 6:-1 7:-1 8:-1 9:-1 10:-1 11:-1 12:0.122546 13:-1 14:-1 15:-1 16:-1 17:-1 18:-1 19:-1 20:-1 21:-1 
0.3116342748115145 0.5919890578771558 0.4734750907628869 0.5745730760713412 1:-0.333333 2:0.916781 3:0.844637 4:0.626164 5:-1 6:-1 7:-1 8:-1 9:-1 10:-1 11:-1 12:0.174907 13:0.115822 14:-0.846366 15:-1 16:-1 17:-1 18:-1 19:-1 20:-1 21:-1 
23.15917776398724 0 22.0315917148495 8.014964398396856 1:-0.666667 2:0.724304 3:-1 4:-1 5:-1 6:-1 7:-1 8:-1 9:-1 10:-1 11:-1 12:0.0669276 13:-1 14:-1 15:-1 16:-1 17:-1 18:-1 19:-1 20:-1 21:-1 
0 16.11577286424669 274.0236507315111 0 1:-0.666667 2:0.538102 3:-1 4:-1 5:-1 6:-1 7:-1 8:-1 9:-1 10:-1 11:-1 12:0.0636194 13:-1 14:-1 15:-1 16:-1 17:-1 18:-1 19:-1 20:-1 21:-1 
8192 8192 8192 8192 1:-1 2:-1 3:-1 4:-1 5:-1 6:-1 7:-1 8:-1 9:-1 10:-1 11:-1 12:-1 13:-1 14:-1 15:-1 16:-1 17:-1 18:-1 19:-1 20:-1 21:-1 
0.6615356919372799 0.9688513990242656 3.655429172436267 1.246758912146457 1:-0.333333 2:0.893399 3:0.795466 4:0.497423 5:-1 6:-1 7:-1 8:-1 9:-1 10:-1 11:-1 12:0.199192 13:0.146703 14:-0.849147 15:-1 16:-1 17:-1 18:-1 19:-1 20:-1 21:-1 
0 0 28.55487667870235 0 1:-0.333333 2:0.885844 3:0.317973 4:0.206462 5:-1 6:-1 7:-1 8:-1 9:-1 10:-1 11:-1 12:-0.749043 13:-0.767478 14:-0.849193 15:-1 16:-1 17:-1 18:-1 19:-1 20:-1 21:-1 
0.6762200642523701 1.092670566710361 2.630820246528144 1.268621255392669 2:0.888934 3:0.746476 4:0.601271 5:0.310936 6:0.252565 7:0.224226 8:-1 9:-1 10:-1 11:-1 12:0.269764 13:0.260195 14:0.356489 15:-0.69261 16:-0.682955 17:-0.818826 18:-1 19:-1 20:-1 21:-1 
1.587908811250102 2.606873059912388 6.163676741757435 2.971436621389951 2:0.896637 3:0.741226 4:0.390275 5:0.328406 6:0.278203 7:0.0503257 8:-1 9:-1 10:-1 11:-1 12:0.277814 13:0.275459 14:0.375643 15:-0.701026 16:-0.686119 17:-0.815228 18:-1 19:-1 20:-1 21:-1 
1.040588614792632 2.002051264413082 4.046610410392582 1.947239406262448 1:-0.333333 2:0.742998 3:0.551949 4:0.338945 5:-1 6:-1 7:-1 8:-1 9:-1 10:-1 11:-1 12:0.281341 13:0.182574 14:-0.707897 15:-1 16:-1 17:-1 18:-1 19:-1 20:-1 21:-1 
0.8054950515232799 1.394682915055474 3.118939958762431 1.502836519891807 2:0.900165 3:0.752224 4:0.685983 5:0.417816 6:0.407404 7:0.405 8:-1 9:-1 10:-1 11:-1 12:0.285708 13:0.285019 14:0.388712 15:-0.703797 16:-0.687538 17:-0.81857 18:-1 19:-1 20:-1 21:-1 
0.08840401471217557 0 0.3508727233231934 0.1699471785637326 2:0.902161 3:0.767163 4:0.762046 5:0.515981 6:0.473123 7:0.471878 8:-1 9:-1 10:-1 11:-1 12:0.287753 13:0.290404 14:0.392575 15:-0.702831 16:-0.688462 17:-0.818107 18:-1 19:-1 20:-1 21:-1 
0.8121929364298143 1.449537253929372 3.152019490129532 1.519450031237089 2:0.904513 3:0.893743 4:0.704792 5:0.708857 6:0.466597 7:0.472392 8:-1 9:-1 10:-1 11:-1 12:0.293466 13:0.301492 14:0.400732 15:-0.698889 16:-0.690973 17:-0.814323 18:-1 19:-1 20:-1 21:-1 
0.8587336016910265 0 0 0.9074655200057086 1:-0.333333 2:0.906309 3:0.46039 4:0.415922 5:-1 6:-1 7:-1 8:-1 9:-1 10:-1 11:-1 12:-0.756294 13:-0.764531 14:-0.832031 15:-1 16:-1 17:-1 18:-1 19:-1 20:-1 21:-1 
0 10.6213917702616 10.15970198230057 0 1:-0.333333 2:0.907269 3:0.500215 4:0.419671 5:-1 6:-1 7:-1 8:-1 9:-1 10:-1 11:-1 12:-0.761469 13:-0.772213 14:-0.832095 15:-1 16:-1 17:-1 18:-1 19:-1 20:-1 21:-1 
0.4366340026801235 0.6842212375748534 1.69465545349734 0.8173567859259201 2:0.912151 3:0.755985 4:0.68326 5:0.663909 6:0.633314 7:0.44585 8:-1 9:-1 10:-1 11:-1 12:0.368295 13:0.402433 14:0.512062 15:-0.708534 16:-0.697896 17:-0.816487 18:-1 19:-1 20:-1 21:-1 
0.5185362665502379 1.402910402197123 2.013462609393788 0.9701806016476732 2:0.913799 3:0.869699 4:0.783473 5:0.742828 6:0.689025 7:0.701479 8:-1 9:-1 10:-1 11:-1 12:0.396525 13:0.438985 14:0.555562 15:-0.72176 16:-0.708472 17:-0.817319 18:-1 19:-1 20:-1 21:-1 
0.1860685733538319 0 13.92532608679159 0 1:-0.333333 2:0.914305 3:0.742029 4:0.681398 5:-1 6:-1 7:-1 8:-1 9:-1 10:-1 11:-1 12:-0.7744 13:-0.783627 14:-0.845238 15:-1 16:-1 17:-1 18:-1 19:-1 20:-1 21:-1 
0 1.568854725650273 771.3451433450288 1.595099618026564 1:-0.666667 2:0.901349 3:-1 4:-1 5:-1 6:-1 7:-1 8:-1 9:-1 10:-1 11:-1 12:0.439932 13:-1 14:-1 15:-1 16:-1 17:-1 18:-1 19:-1 20:-1 21:-1 
0.8051515585567128 1.973472055899177 3.121405458624337 1.506284240537209 2:0.988304 3:0.978309 4:0.963022 5:0.95784 6:0.922895 7:0.852021 8:-1 9:-1 10:-1 11:-1 12:0.444577 13:0.491938 14:0.613569 15:-0.713405 16:-0.687027 17:-0.806493 18:-1 19:-1 20:-1 21:-1 
1040.348770462239 220.3395763138833 7931.472927725509 0.3490862122804311 1:-0.666667 2:0.799603 3:-1 4:-1 5:-1 6:-1 7:-1 8:-1 9:-1 10:-1 11:-1 12:0.46839 13:-1 14:-1 15:-1 16:-1 17:-1 18:-1 19:-1 20:-1 21:-1 
0.2346243468032052 0.4292379378329635 0.9070023288325555 0.4374594271486943 2:0.913151 3:0.91027 4:0.8994 5:0.791803 6:0.718038 7:0.729286 8:-1 9:-1 10:-1 11:-1 12:0.473346 13:0.531702 14:0.65354 15:-0.715604 16:-0.688954 17:-0.796525 18:-1 19:-1 20:-1 21:-1 
8192 8192 8192 8192 1:-1 2:-1 3:-1 4:-1 5:-1 6:-1 7:-1 8:-1 9:-1 10:-1 11:-1 12:-1 13:-1 14:-1 15:-1 16:-1 17:-1 18:-1 19:-1 20:-1 21:-1 
1.426565927667194 2.339417788286372 5.538653283264349 2.670530351394686 2:0.901119 3:0.82895 4:0.692081 5:0.62341 6:0.293744 7:-0.204108 8:-1 9:-1 10:-1 11:-1 12:0.50064 13:0.547969 14:0.807688 15:-0.358854 16:-0.412465 17:-0.683092 18:-1 19:-1 20:-1 21:-1 
8192 8192 8192 8192 1:-1 2:-1 3:-1 4:-1 5:-1 6:-1 7:-1 8:-1 9:-1 10:-1 11:-1 12:-1 13:-1 14:-1 15:-1 16:-1 17:-1 18:-1 19:-1 20:-1 21:-1 
1.116054769837995 1.830308088097022 4.33208097341887 2.088596278031551 2:0.951983 3:0.902923 4:0.828536 5:0.453516 6:0.122606 7:-0.113882 8:-1 9:-1 10:-1 11:-1 12:0.508281 13:0.551471 14:0.692238 15:-0.357595 16:-0.388728 17:-0.78962 18:-1 19:-1 20:-1 21:-1 
0.1320893689735576 5.205129582809126 5.367115561846681 7.048591032334821 1:-0.333333 2:0.903027 3:0.0923901 4:-0.157132 5:-1 6:-1 7:-1 8:-1 9:-1 10:-1 11:-1 12:-0.479619 13:-0.549624 14:-0.833077 15:-1 16:-1 17:-1 18:-1 19:-1 20:-1 21:-1 
1.467158399857267 2.370151460820575 5.874135163887716 2.741400523045985 1:-0.333333 2:0.976852 3:0.909796 4:0.797756 5:-1 6:-1 7:-1 8:-1 9:-1 10:-1 11:-1 12:0.53308 13:0.490129 14:-0.844487 15:-1 16:-1 17:-1 18:-1 19:-1 20:-1 21:-1 
8192 8192 8192 8192 1:-1 2:-1 3:-1 4:-1 5:-1 6:-1 7:-1 8:-1 9:-1 10:-1 11:-1 12:-1 13:-1 14:-1 15:-1 16:-1 17:-1 18:-1 19:-1 20:-1 21:-1 
2.110553797309407 3.462605084771283 8.196367005956304 3.951559443752348 2:0.921071 3:0.506449 4:0.223674 5:0.122572 6:-0.0820802 7:-0.734063 8:-1 9:-1 10:-1 11:-1 12:0.554025 13:0.562041 14:0.769946 15:-0.361716 16:-0.39365 17:-0.818602 18:-1 19:-1 20:-1 21:-1 
0 0 3.028463752849119 0 1:-0.333333 2:0.924373 3:0.389288 4:0.103276 5:-1 6:-1 7:-1 8:-1 9:-1 10:-1 11:-1 12:0.55713 13:0.516196 14:-0.844997 15:-1 16:-1 17:-1 18:-1 19:-1 20:-1 21:-1 
1.633577760867178 2.679464737244417 6.34166701116632 3.058335154828208 1:-0.333333 2:0.239633 3:-0.0641852 4:-0.68395 5:-1 6:-1 7:-1 8:-1 9:-1 10:-1 11:-1 12:0.557709 13:0.56639 14:-0.382147 15:-1 16:-1 17:-1 18:-1 19:-1 20:-1 21:-1 
0.1922163879124728 0.369942112336394 0 0.3644795836482631 1:-0.333333 2:0.922497 3:0.922314 4:0.709167 5:-1 6:-1 7:-1 8:-1 9:-1 10:-1 11:-1 12:0.552139 13:0.505139 14:-0.837043 15:-1 16:-1 17:-1 18:-1 19:-1 20:-1 21:-1 
0.1562733818618476 0.1957368478145902 2.002903557812486 0.2907372631205676 1:-0.333333 2:0.920743 3:0.7706 4:0.50905 5:-1 6:-1 7:-1 8:-1 9:-1 10:-1 11:-1 12:0.542507 13:0.493087 14:-0.832605 15:-1 16:-1 17:-1 18:-1 19:-1 20:-1 21:-1 
0.1017921175016124 0 0 0 1:-0.333333 2:0.999748 3:0.926281 4:0.92342 5:-1 6:-1 7:-1 8:-1 9:-1 10:-1 11:-1 12:-0.77449 13:-0.767498 14:-0.833382 15:-1 16:-1 17:-1 18:-1 19:-1 20:-1 21:-1 
0.9945877389736307 0.531632875076916 3.866088669119966 1.863030304820517 2:0.987246 3:0.982012 4:0.961725 5:0.932311 6:0.885331 7:0.805811 8:-1 9:-1 10:-1 11:-1 12:0.519851 13:0.569 14:0.71729 15:-0.719295 16:-0.683415 17:-0.801936 18:-1 19:-1 20:-1 21:-1 
0 2.277090388316139 0 0 2:0.948213 3:0.926335 4:0.917899 5:0.916744 6:0.765689 7:0.768554 8:-1 9:-1 10:-1 11:-1 12:0.501728 13:0.55726 14:0.697687 15:-0.713605 16:-0.688289 17:-0.806324 18:-1 19:-1 20:-1 21:-1 
0 0.3778161812604542 0 0 2:0.996882 3:0.926503 4:0.916999 5:0.918861 6:0.898618 7:0.689854 8:-1 9:-1 10:-1 11:-1 12:0.478748 13:0.53347 14:0.663359 15:-0.710139 16:-0.682145 17:-0.80198 18:-1 19:-1 20:-1 21:-1 
0.1378092536877676 0.235760326823049 0.788776293921454 0.2596383743465097 1:-0.333333 2:0.945031 3:0.927017 4:0.75511 5:-1 6:-1 7:-1 8:-1 9:-1 10:-1 11:-1 12:0.463424 13:0.413823 14:-0.836471 15:-1 16:-1 17:-1 18:-1 19:-1 20:-1 21:-1 
0 0 1.999322320652937 0 1:-0.333333 2:0.978772 3:0.926881 4:0.92611 5:-1 6:-1 7:-1 8:-1 9:-1 10:-1 11:-1 12:-0.762905 13:-0.775328 14:-0.848765 15:-1 16:-1 17:-1 18:-1 19:-1 20:-1 21:-1 
0 2.623336562875028 0 0 2:0.985988 3:0.926307 4:0.926782 5:0.858853 6:0.829234 7:0.599299 8:-1 9:-1 10:-1 11:-1 12:0.439298 13:0.472648 14:0.603853 15:-0.70848 16:-0.695698 17:-0.821351 18:-1 19:-1 20:-1 21:-1 
0.4644839821554894 0 2.125117110276041 0 1:-0.333333 2:0.991822 3:0.927115 4:0.925418 5:-1 6:-1 7:-1 8:-1 9:-1 10:-1 11:-1 12:-0.762216 13:-0.774936 14:-0.853932 15:-1 16:-1 17:-1 18:-1 19:-1 20:-1 21:-1 
8192 8192 8192 8192 1:-1 2:-1 3:-1 4:-1 5:-1 6:-1 7:-1 8:-1 9:-1 10:-1 11:-1 12:-1 13:-1 14:-1 15:-1 16:-1 17:-1 18:-1 19:-1 20:-1 21:-1 
1.23186213687831 2.073061640387754 4.782666486399687 2.305631795070661 2:0.984724 3:0.926849 4:0.921143 5:0.68442 6:0.602331 7:0.332211 8:-1 9:-1 10:-1 11:-1 12:0.393346 13:0.434189 14:0.562413 15:-0.712966 16:-0.695597 17:-0.828255 18:-1 19:-1 20:-1 21:-1 
0.4548838457109584 3.673824089917037 1.771263790515415 0.854011647888417 2:0.948733 3:0.926211 4:0.900991 5:0.887981 6:0.850663 7:0.634504 8:-1 9:-1 10:-1 11:-1 12:0.379287 13:0.414801 14:0.54068 15:-0.713208 16:-0.698742 17:-0.828456 18:-1 19:-1 20:-1 21:-1 
0 53.31571526618248 0 0 1:-0.333333 2:0.931013 3:0.916778 4:0.878914 5:-1 6:-1 7:-1 8:-1 9:-1 10:-1 11:-1 12:-0.76489 13:-0.779603 14:-0.855108 15:-1 16:-1 17:-1 18:-1 19:-1 20:-1 21:-1 
8192 8192 8192 8192 1:-1 2:-1 3:-1 4:-1 5:-1 6:-1 7:-1 8:-1 9:-1 10:-1 11:-1 12:-1 13:-1 14:-1 15:-1 16:-1 17:-1 18:-1 19:-1 20:-1 21:-1 
8192 8191.815400808419 8192 8192 1:-1 2:-1 3:-1 4:-1 5:-1 6:-1 7:-1 8:-1 9:-1 10:-1 11:-1 12:-1 13:-1 14:-1 15:-1 16:-1 17:-1 18:-1 19:-1 20:-1 21:-1 
8192 8192 8192 8192 1:-1 2:-1 3:-1 4:-1 5:-1 6:-1 7:-1 8:-1 9:-1 10:-1 11:-1 12:-1 13:-1 14:-1 15:-1 16:-1 17:-1 18:-1 19:-1 20:-1 21:-1 
1.034850071245683 1.719130453161127 3.857239025728902 1.938596647703891 1:-0.333333 2:0.908683 3:0.545471 4:0.530973 5:-1 6:-1 7:-1 8:-1 9:-1 10:-1 11:-1 12:0.676726 13:0.674674 14:-0.833282 15:-1 16:-1 17:-1 18:-1 19:-1 20:-1 21:-1 
8192 8192 8192 8192 1:-1 2:-1 3:-1 4:-1 5:-1 6:-1 7:-1 8:-1 9:-1 10:-1 11:-1 12:-1 13:-1 14:-1 15:-1 16:-1 17:-1 18:-1 19:-1 20:-1 21:-1 
8192 8192 8192 8192 1:-1 2:-1 3:-1 4:-1 5:-1 6:-1 7:-1 8:-1 9:-1 10:-1 11:-1 12:-1 13:-1 14:-1 15:-1 16:-1 17:-1 18:-1 19:-1 20:-1 21:-1 
8192 8191.996364639322 8192 8192 1:-1 2:-1 3:-1 4:-1 5:-1 6:-1 7:-1 8:-1 9:-1 10:-1 11:-1 12:-1 13:-1 14:-1 15:-1 16:-1 17:-1 18:-1 19:-1 20:-1 21:-1 
8192 8191.906134461828 8192 8192 1:-1 2:-1 3:-1 4:-1 5:-1 6:-1 7:-1 8:-1 9:-1 10:-1 11:-1 12:-1 13:-1 14:-1 15:-1 16:-1 17:-1 18:-1 19:-1 20:-1 21:-1 
8192 8192 8192 8192 1:-1 2:-1 3:-1 4:-1 5:-1 6:-1 7:-1 8:-1 9:-1 10:-1 11:-1 12:-1 13:-1 14:-1 15:-1 16:-1 17:-1 18:-1 19:-1 20:-1 21:-1 
0 0 8192 8192 1:-0.666667 2:0.83593 3:-1 4:-1 5:-1 6:-1 7:-1 8:-1 9:-1 10:-1 11:-1 12:-0.896894 13:-1 14:-1 15:-1 16:-1 17:-1 18:-1 19:-1 20:-1 21:-1 
8192 8192 8192 8192 1:-1 2:-1 3:-1 4:-1 5:-1 6:-1 7:-1 8:-1 9:-1 10:-1 11:-1 12:-1 13:-1 14:-1 15:-1 16:-1 17:-1 18:-1 19:-1 20:-1 21:-1 
8192 8192 8192 8192 1:-1 2:-1 3:-1 4:-1 5:-1 6:-1 7:-1 8:-1 9:-1 10:-1 11:-1 12:-1 13:-1 14:-1 15:-1 16:-1 17:-1 18:-1 19:-1 20:-1 21:-1 
1.602745668508776 2.653470540315023 6.222671380391637 3.000064648414803 1:-0.333333 2:0.224881 3:-0.371416 4:-0.802654 5:-1 6:-1 7:-1 8:-1 9:-1 10:-1 11:-1 12:0.384258 13:0.23724 14:-0.539581 15:-1 16:-1 17:-1 18:-1 19:-1 20:-1 21:-1 
8192 8192 8192 8192 1:-1 2:-1 3:-1 4:-1 5:-1 6:-1 7:-1 8:-1 9:-1 10:-1 11:-1 12:-1 13:-1 14:-1 15:-1 16:-1 17:-1 18:-1 19:-1 20:-1 21:-1 
2.106897871089255 3.455621750650321 8.180107689490105 3.943565367490369 2:0.929517 3:0.887264 4:0.859028 5:0.062161 6:-0.486512 7:-0.62326 8:-1 9:-1 10:-1 11:-1 12:0.518779 13:0.330689 14:0.449783 15:-0.569935 16:-0.523103 17:-0.73499 18:-1 19:-1 20:-1 21:-1 
1055.72349323881 1826.76006885133 0 19.38352147440368 1:-0.666667 2:-0.372955 3:-1 4:-1 5:-1 6:-1 7:-1 8:-1 9:-1 10:-1 11:-1 12:-0.672554 13:-1 14:-1 15:-1 16:-1 17:-1 18:-1 19:-1 20:-1 21:-1 
7953.910861799181 890.0514100341583 0 0 1:-0.666667 2:-0.26744 3:-1 4:-1 5:-1 6:-1 7:-1 8:-1 9:-1 10:-1 11:-1 12:-0.682126 13:-1 14:-1 15:-1 16:-1 17:-1 18:-1 19:-1 20:-1 21:-1 
38.18621266582677 0 1722.513578376873 12.58394556088694 1:-0.666667 2:-0.350519 3:-1 4:-1 5:-1 6:-1 7:-1 8:-1 9:-1 10:-1 11:-1 12:0.305657 13:-1 14:-1 15:-1 16:-1 17:-1 18:-1 19:-1 20:-1 21:-1 
101.3968863359541 8192 0 75.43485501979603 1:-0.666667 2:-0.0109082 3:-1 4:-1 5:-1 6:-1 7:-1 8:-1 9:-1 10:-1 11:-1 12:-0.692846 13:-1 14:-1 15:-1 16:-1 17:-1 18:-1 19:-1 20:-1 21:-1 
0.8892586386252819 1.464371473591902 3.455352353811863 1.665282659301002 1:-0.333333 2:-0.0360285 3:-0.0616724 4:-0.656728 5:-1 6:-1 7:-1 8:-1 9:-1 10:-1 11:-1 12:0.432912 13:0.365303 14:-0.630534 15:-1 16:-1 17:-1 18:-1 19:-1 20:-1 21:-1 
0 8192 0 0 1:-0.666667 2:-0.0074301 3:-1 4:-1 5:-1 6:-1 7:-1 8:-1 9:-1 10:-1 11:-1 12:-0.696145 13:-1 14:-1 15:-1 16:-1 17:-1 18:-1 19:-1 20:-1 21:-1 
3.563921804215619 8192 2922.485384826718 0 1:-0.666667 2:-0.116672 3:-1 4:-1 5:-1 6:-1 7:-1 8:-1 9:-1 10:-1 11:-1 12:-0.697019 13:-1 14:-1 15:-1 16:-1 17:-1 18:-1 19:-1 20:-1 21:-1 
0 8192 0 0 1:-0.666667 2:-0.214913 3:-1 4:-1 5:-1 6:-1 7:-1 8:-1 9:-1 10:-1 11:-1 12:-0.697079 13:-1 14:-1 15:-1 16:-1 17:-1 18:-1 19:-1 20:-1 21:-1 
0 0 1768.564515192798 0 1:-0.666667 2:-0.41404 3:-1 4:-1 5:-1 6:-1 7:-1 8:-1 9:-1 10:-1 11:-1 12:-0.697913 13:-1 14:-1 15:-1 16:-1 17:-1 18:-1 19:-1 20:-1 21:-1 
1.718171720212543 2.843364514018388 6.670030779434641 3.216144423178561 1:-0.333333 2:-0.327701 3:-0.411915 4:-0.57243 5:-1 6:-1 7:-1 8:-1 9:-1 10:-1 11:-1 12:0.44179 13:0.391028 14:-0.627543 15:-1 16:-1 17:-1 18:-1 19:-1 20:-1 21:-1 
1.924767025243927 4.155150403618999 7.345218930011584 3.603007685633585 1:-0.333333 2:0.487599 3:0.33345 4:-0.256434 5:-1 6:-1 7:-1 8:-1 9:-1 10:-1 11:-1 12:0.864121 13:0.688506 14:-0.630394 15:-1 16:-1 17:-1 18:-1 19:-1 20:-1 21:-1 
0 0 110.2500028815824 0 1:-0.666667 2:-0.376045 3:-1 4:-1 5:-1 6:-1 7:-1 8:-1 9:-1 10:-1 11:-1 12:-0.694992 13:-1 14:-1 15:-1 16:-1 17:-1 18:-1 19:-1 20:-1 21:-1 
0 306.8259085239304 0 0 1:-0.666667 2:-0.232661 3:-1 4:-1 5:-1 6:-1 7:-1 8:-1 9:-1 10:-1 11:-1 12:-0.699393 13:-1 14:-1 15:-1 16:-1 17:-1 18:-1 19:-1 20:-1 21:-1 
8192 8191.997536950779 8192 8192 1:-1 2:-1 3:-1 4:-1 5:-1 6:-1 7:-1 8:-1 9:-1 10:-1 11:-1 12:-1 13:-1 14:-1 15:-1 16:-1 17:-1 18:-1 19:-1 20:-1 21:-1 
0.4500101248571052 0.7393462694909905 1.747101745576559 0.8426412092096173 1:-0.333333 2:-0.0155922 3:-0.235269 4:-0.49236 5:-1 6:-1 7:-1 8:-1 9:-1 10:-1 11:-1 12:0.453833 13:0.403306 14:-0.644093 15:-1 16:-1 17:-1 18:-1 19:-1 20:-1 21:-1 
211.7074952913989 3.345695581980439 8192 4.204577451910835 1:-0.666667 2:-0.102883 3:-1 4:-1 5:-1 6:-1 7:-1 8:-1 9:-1 10:-1 11:-1 12:0.355532 13:-1 14:-1 15:-1 16:-1 17:-1 18:-1 19:-1 20:-1 21:-1 
8192 8192 8192 8192 1:-1 2:-1 3:-1 4:-1 5:-1 6:-1 7:-1 8:-1 9:-1 10:-1 11:-1 12:-1 13:-1 14:-1 15:-1 16:-1 17:-1 18:-1 19:-1 20:-1 21:-1 
8192 8192 8192 8192 1:-1 2:-1 3:-1 4:-1 5:-1 6:-1 7:-1 8:-1 9:-1 10:-1 11:-1 12:-1 13:-1 14:-1 15:-1 16:-1 17:-1 18:-1 19:-1 20:-1 21:-1 
2.519544285077198 0 6346.162470322344 18.65130796300752 1:-0.666667 2:-0.722106 3:-1 4:-1 5:-1 6:-1 7:-1 8:-1 9:-1 10:-1 11:-1 12:-0.889791 13:-1 14:-1 15:-1 16:-1 17:-1 18:-1 19:-1 20:-1 21:-1 
8192 8192 8192 8192 1:-1 2:-1 3:-1 4:-1 5:-1 6:-1 7:-1 8:-1 9:-1 10:-1 11:-1 12:-1 13:-1 14:-1 15:-1 16:-1 17:-1 18:-1 19:-1 20:-1 21:-1 
8192 8191.876803586295 8192 8192 1:-1 2:-1 3:-1 4:-1 5:-1 6:-1 7:-1 8:-1 9:-1 10:-1 11:-1 12:-1 13:-1 14:-1 15:-1 16:-1 17:-1 18:-1 19:-1 20:-1 21:-1 
8192 8192 8192 8192 1:-1 2:-1 3:-1 4:-1 5:-1 6:-1 7:-1 8:-1 9:-1 10:-1 11:-1 12:-1 13:-1 14:-1 15:-1 16:-1 17:-1 18:-1 19:-1 20:-1 21:-1 
8192 8192 8192 8192 1:-1 2:-1 3:-1 4:-1 5:-1 6:-1 7:-1 8:-1 9:-1 10:-1 11:-1 12:-1 13:-1 14:-1 15:-1 16:-1 17:-1 18:-1 19:-1 20:-1 21:-1 
2.121717079602471 15.64153300434629 8192 0 1:-0.666667 2:-0.808453 3:-1 4:-1 5:-1 6:-1 7:-1 8:-1 9:-1 10:-1 11:-1 12:-0.863338 13:-1 14:-1 15:-1 16:-1 17:-1 18:-1 19:-1 20:-1 21:-1 
0 294.5329452580369 8192 0 1:-0.666667 2:-0.236639 3:-1 4:-1 5:-1 6:-1 7:-1 8:-1 9:-1 10:-1 11:-1 12:-0.862435 13:-1 14:-1 15:-1 16:-1 17:-1 18:-1 19:-1 20:-1 21:-1 
0 0 8192 0 1:-0.666667 2:0.393918 3:-1 4:-1 5:-1 6:-1 7:-1 8:-1 9:-1 10:-1 11:-1 12:-0.864908 13:-1 14:-1 15:-1 16:-1 17:-1 18:-1 19:-1 20:-1 21:-1 
1.570435985698046 2.575980640779498 6.098269665317076 2.940336503881189 2:0.947187 3:0.771892 4:0.718388 5:0.589895 6:-0.117464 7:-0.256225 8:-1 9:-1 10:-1 11:-1 12:0.523337 13:0.576036 14:0.738298 15:-0.507332 16:-0.484619 17:-0.820206 18:-1 19:-1 20:-1 21:-1 
2.112545990275437 3.465130548653912 8.202360258564704 3.954850830166745 2:0.940961 3:0.91884 4:0.742977 5:-0.55472 6:-0.78625 7:-0.987876 8:-1 9:-1 10:-1 11:-1 12:0.568411 13:0.604686 14:0.79192 15:-0.486705 16:-0.464372 17:-0.818582 18:-1 19:-1 20:-1 21:-1 
0.7955720067063845 1.409102919815816 2.54265643213459 1.491185513535632 1:-0.333333 2:0.933427 3:-0.149218 4:-0.218521 5:-1 6:-1 7:-1 8:-1 9:-1 10:-1 11:-1 12:0.545499 13:0.563672 14:-0.84966 15:-1 16:-1 17:-1 18:-1 19:-1 20:-1 21:-1 
1.843176460220993 3.032747800320457 7.122018624472929 3.448468475421341 1:-0.333333 2:0.9947 3:0.962424 4:0.930665 5:-1 6:-1 7:-1 8:-1 9:-1 10:-1 11:-1 12:0.0510271 13:0.0202551 14:-0.856693 15:-1 16:-1 17:-1 18:-1 19:-1 20:-1 21:-1 
0.3090035669382551 0.5405712046403075 0 0.5775716894603412 1:-0.333333 2:0.926987 3:-0.0240226 4:-0.0399508 5:-1 6:-1 7:-1 8:-1 9:-1 10:-1 11:-1 12:0.446698 13:0.472495 14:-0.857857 15:-1 16:-1 17:-1 18:-1 19:-1 20:-1 21:-1 
0.7764648103311633 1.312173369624614 0 1.453020100209735 1:-0.333333 2:0.925653 3:0.209185 4:0.175447 5:-1 6:-1 7:-1 8:-1 9:-1 10:-1 11:-1 12:0.453144 13:0.483741 14:-0.855575 15:-1 16:-1 17:-1 18:-1 19:-1 20:-1 21:-1 
0 0 3.086970995359919 0 1:-0.333333 2:0.928261 3:0.142406 4:0.110813 5:-1 6:-1 7:-1 8:-1 9:-1 10:-1 11:-1 12:0.42875 13:0.464614 14:-0.859853 15:-1 16:-1 17:-1 18:-1 19:-1 20:-1 21:-1 
0 0 6.720666887149005 0 1:-0.333333 2:0.928935 3:0.228215 4:0.170911 5:-1 6:-1 7:-1 8:-1 9:-1 10:-1 11:-1 12:0.417255 13:0.455201 14:-0.860423 15:-1 16:-1 17:-1 18:-1 19:-1 20:-1 21:-1 
0.03277076461335883 0 0 0.06027437710235137 1:-0.333333 2:0.927569 3:0.31537 4:0.241034 5:-1 6:-1 7:-1 8:-1 9:-1 10:-1 11:-1 12:0.401078 13:0.43887 14:-0.848805 15:-1 16:-1 17:-1 18:-1 19:-1 20:-1 21:-1 
0 0 8.269371367371541 0 1:-0.333333 2:0.928409 3:0.161372 4:0.120094 5:-1 6:-1 7:-1 8:-1 9:-1 10:-1 11:-1 12:0.492071 13:0.518136 14:-0.851179 15:-1 16:-1 17:-1 18:-1 19:-1 20:-1 21:-1 
0 8192 0 0 1:-0.666667 2:0.914845 3:-1 4:-1 5:-1 6:-1 7:-1 8:-1 9:-1 10:-1 11:-1 12:-0.840489 13:-1 14:-1 15:-1 16:-1 17:-1 18:-1 19:-1 20:-1 21:-1 
0 2495.556579125651 0 0 1:-0.666667 2:0.927667 3:-1 4:-1 5:-1 6:-1 7:-1 8:-1 9:-1 10:-1 11:-1 12:-0.837856 13:-1 14:-1 15:-1 16:-1 17:-1 18:-1 19:-1 20:-1 21:-1 
0 8192 0 0 1:-0.666667 2:0.930297 3:-1 4:-1 5:-1 6:-1 7:-1 8:-1 9:-1 10:-1 11:-1 12:-0.837036 13:-1 14:-1 15:-1 16:-1 17:-1 18:-1 19:-1 20:-1 21:-1 
0 8189.43077309333 0 0 1:-0.666667 2:0.934223 3:-1 4:-1 5:-1 6:-1 7:-1 8:-1 9:-1 10:-1 11:-1 12:-0.836528 13:-1 14:-1 15:-1 16:-1 17:-1 18:-1 19:-1 20:-1 21:-1 
1.004465743105915 0 0 5.372623237235211 1:-0.333333 2:0.989234 3:0.959979 4:0.909826 5:-1 6:-1 7:-1 8:-1 9:-1 10:-1 11:-1 12:-0.771641 13:-0.771146 14:-0.828099 15:-1 16:-1 17:-1 18:-1 19:-1 20:-1 21:-1 
0 5757.210475449798 0 0 1:-0.666667 2:0.863176 3:-1 4:-1 5:-1 6:-1 7:-1 8:-1 9:-1 10:-1 11:-1 12:-0.85088 13:-1 14:-1 15:-1 16:-1 17:-1 18:-1 19:-1 20:-1 21:-1 
0 8192 0 0 1:-0.666667 2:0.86248 3:-1 4:-1 5:-1 6:-1 7:-1 8:-1 9:-1 10:-1 11:-1 12:-0.850715 13:-1 14:-1 15:-1 16:-1 17:-1 18:-1 19:-1 20:-1 21:-1 
0 8192 0 0 1:-0.666667 2:0.861298 3:-1 4:-1 5:-1 6:-1 7:-1 8:-1 9:-1 10:-1 11:-1 12:-0.850902 13:-1 14:-1 15:-1 16:-1 17:-1 18:-1 19:-1 20:-1 21:-1 
0 0 17.41999941221205 0 1:-0.333333 2:0.86099 3:0.372656 4:0.0696144 5:-1 6:-1 7:-1 8:-1 9:-1 10:-1 11:-1 12:0.541578 13:0.583657 14:-0.818895 15:-1 16:-1 17:-1 18:-1 19:-1 20:-1 21:-1 
0 8192 0 0 1:-0.666667 2:0.856668 3:-1 4:-1 5:-1 6:-1 7:-1 8:-1 9:-1 10:-1 11:-1 12:-0.850327 13:-1 14:-1 15:-1 16:-1 17:-1 18:-1 19:-1 20:-1 21:-1 
8192 8192 8192 8192 1:-1 2:-1 3:-1 4:-1 5:-1 6:-1 7:-1 8:-1 9:-1 10:-1 11:-1 12:-1 13:-1 14:-1 15:-1 16:-1 17:-1 18:-1 19:-1 20:-1 21:-1 
8192 8192 8192 8192 1:-1 2:-1 3:-1 4:-1 5:-1 6:-1 7:-1 8:-1 9:-1 10:-1 11:-1 12:-1 13:-1 14:-1 15:-1 16:-1 17:-1 18:-1 19:-1 20:-1 21:-1 
8192 8192 8192 8192 1:-1 2:-1 3:-1 4:-1 5:-1 6:-1 7:-1 8:-1 9:-1 10:-1 11:-1 12:-1 13:-1 14:-1 15:-1 16:-1 17:-1 18:-1 19:-1 20:-1 21:-1 
0.5663844312386509 0 0 0 1:-0.333333 2:0.88522 3:0.285669 4:0.199962 5:-1 6:-1 7:-1 8:-1 9:-1 10:-1 11:-1 12:-0.684159 13:-0.716364 14:-0.81686 15:-1 16:-1 17:-1 18:-1 19:-1 20:-1 21:-1 
0.3860626665618239 17.10198237667283 0 1.891664250993158 1:-0.333333 2:0.883028 3:0.325313 4:0.262047 5:-1 6:-1 7:-1 8:-1 9:-1 10:-1 11:-1 12:-0.68427 13:-0.716357 14:-0.816194 15:-1 16:-1 17:-1 18:-1 19:-1 20:-1 21:-1 
0 8192 0 0 1:-0.666667 2:0.881266 3:-1 4:-1 5:-1 6:-1 7:-1 8:-1 9:-1 10:-1 11:-1 12:-0.848831 13:-1 14:-1 15:-1 16:-1 17:-1 18:-1 19:-1 20:-1 21:-1 
0 5.152175107713489 72.90784718695457 3.127519324306912 1:-0.333333 2:0.880818 3:0.236676 4:0.103623 5:-1 6:-1 7:-1 8:-1 9:-1 10:-1 11:-1 12:-0.686501 13:-0.719025 14:-0.816346 15:-1 16:-1 17:-1 18:-1 19:-1 20:-1 21:-1 
0 37.7283930256864 101.4594087232586 7.525634512094857 1:-0.333333 2:0.88053 3:0.0623626 4:-0.138051 5:-1 6:-1 7:-1 8:-1 9:-1 10:-1 11:-1 12:-0.685273 13:-0.717482 14:-0.816219 15:-1 16:-1 17:-1 18:-1 19:-1 20:-1 21:-1 
0 8192 0 0 1:-0.666667 2:0.880418 3:-1 4:-1 5:-1 6:-1 7:-1 8:-1 9:-1 10:-1 11:-1 12:-0.848733 13:-1 14:-1 15:-1 16:-1 17:-1 18:-1 19:-1 20:-1 21:-1 
0 8192 0 0 1:-0.666667 2:0.880132 3:-1 4:-1 5:-1 6:-1 7:-1 8:-1 9:-1 10:-1 11:-1 12:-0.848972 13:-1 14:-1 15:-1 16:-1 17:-1 18:-1 19:-1 20:-1 21:-1 
0 16.36830287879603 6.228233343952084 2.813746729998785 1:-0.333333 2:0.87942 3:-0.118596 4:-0.398112 5:-1 6:-1 7:-1 8:-1 9:-1 10:-1 11:-1 12:-0.685849 13:-0.718413 14:-0.816207 15:-1 16:-1 17:-1 18:-1 19:-1 20:-1 21:-1 
0 8192 0 0 1:-0.666667 2:0.878856 3:-1 4:-1 5:-1 6:-1 7:-1 8:-1 9:-1 10:-1 11:-1 12:-0.848907 13:-1 14:-1 15:-1 16:-1 17:-1 18:-1 19:-1 20:-1 21:-1 
0 8192 0 0 1:-0.666667 2:0.877902 3:-1 4:-1 5:-1 6:-1 7:-1 8:-1 9:-1 10:-1 11:-1 12:-0.848741 13:-1 14:-1 15:-1 16:-1 17:-1 18:-1 19:-1 20:-1 21:-1 
0 8192 0 0 1:-0.666667 2:0.87704 3:-1 4:-1 5:-1 6:-1 7:-1 8:-1 9:-1 10:-1 11:-1 12:-0.848729 13:-1 14:-1 15:-1 16:-1 17:-1 18:-1 19:-1 20:-1 21:-1 
0 8192 0 0 1:-0.666667 2:0.876388 3:-1 4:-1 5:-1 6:-1 7:-1 8:-1 9:-1 10:-1 11:-1 12:-0.848577 13:-1 14:-1 15:-1 16:-1 17:-1 18:-1 19:-1 20:-1 21:-1 
0 8192 0 0 1:-0.666667 2:0.87581 3:-1 4:-1 5:-1 6:-1 7:-1 8:-1 9:-1 10:-1 11:-1 12:-0.848622 13:-1 14:-1 15:-1 16:-1 17:-1 18:-1 19:-1 20:-1 21:-1 
0 8192 0 0 1:-0.666667 2:0.87495 3:-1 4:-1 5:-1 6:-1 7:-1 8:-1 9:-1 10:-1 11:-1 12:-0.8485 13:-1 14:-1 15:-1 16:-1 17:-1 18:-1 19:-1 20:-1 21:-1 
0 8192 8192 0 1:-0.666667 2:0.867254 3:-1 4:-1 5:-1 6:-1 7:-1 8:-1 9:-1 10:-1 11:-1 12:-0.837478 13:-1 14:-1 15:-1 16:-1 17:-1 18:-1 19:-1 20:-1 21:-1 
0 8192 0 0 1:-0.666667 2:0.866618 3:-1 4:-1 5:-1 6:-1 7:-1 8:-1 9:-1 10:-1 11:-1 12:-0.840059 13:-1 14:-1 15:-1 16:-1 17:-1 18:-1 19:-1 20:-1 21:-1 
0 8192 0 0 1:-0.666667 2:0.865978 3:-1 4:-1 5:-1 6:-1 7:-1 8:-1 9:-1 10:-1 11:-1 12:-0.841841 13:-1 14:-1 15:-1 16:-1 17:-1 18:-1 19:-1 20:-1 21:-1 
0 8192 0 0 1:-0.666667 2:0.86578 3:-1 4:-1 5:-1 6:-1 7:-1 8:-1 9:-1 10:-1 11:-1 12:-0.843434 13:-1 14:-1 15:-1 16:-1 17:-1 18:-1 19:-1 20:-1 21:-1 
0 8192 0 0 1:-0.666667 2:0.865726 3:-1 4:-1 5:-1 6:-1 7:-1 8:-1 9:-1 10:-1 11:-1 12:-0.844543 13:-1 14:-1 15:-1 16:-1 17:-1 18:-1 19:-1 20:-1 21:-1 
0 8192 0 0 1:-0.666667 2:0.865724 3:-1 4:-1 5:-1 6:-1 7:-1 8:-1 9:-1 10:-1 11:-1 12:-0.84532 13:-1 14:-1 15:-1 16:-1 17:-1 18:-1 19:-1 20:-1 21:-1 
0 8192 0 0 1:-0.666667 2:0.866004 3:-1 4:-1 5:-1 6:-1 7:-1 8:-1 9:-1 10:-1 11:-1 12:-0.846301 13:-1 14:-1 15:-1 16:-1 17:-1 18:-1 19:-1 20:-1 21:-1 
0 8192 0 0 1:-0.666667 2:0.866518 3:-1 4:-1 5:-1 6:-1 7:-1 8:-1 9:-1 10:-1 11:-1 12:-0.846962 13:-1 14:-1 15:-1 16:-1 17:-1 18:-1 19:-1 20:-1 21:-1 
0 8192 0 0 1:-0.666667 2:0.867198 3:-1 4:-1 5:-1 6:-1 7:-1 8:-1 9:-1 10:-1 11:-1 12:-0.847808 13:-1 14:-1 15:-1 16:-1 17:-1 18:-1 19:-1 20:-1 21:-1 
0 8192 0 0 1:-0.666667 2:0.867942 3:-1 4:-1 5:-1 6:-1 7:-1 8:-1 9:-1 10:-1 11:-1 12:-0.848411 13:-1 14:-1 15:-1 16:-1 17:-1 18:-1 19:-1 20:-1 21:-1 
0 8192 0 0 1:-0.666667 2:0.868816 3:-1 4:-1 5:-1 6:-1 7:-1 8:-1 9:-1 10:-1 11:-1 12:-0.848882 13:-1 14:-1 15:-1 16:-1 17:-1 18:-1 19:-1 20:-1 21:-1 
0 8192 0 0 1:-0.666667 2:0.86942 3:-1 4:-1 5:-1 6:-1 7:-1 8:-1 9:-1 10:-1 11:-1 12:-0.849181 13:-1 14:-1 15:-1 16:-1 17:-1 18:-1 19:-1 20:-1 21:-1 
0 8192 0 0 1:-0.666667 2:0.869898 3:-1 4:-1 5:-1 6:-1 7:-1 8:-1 9:-1 10:-1 11:-1 12:-0.849369 13:-1 14:-1 15:-1 16:-1 17:-1 18:-1 19:-1 20:-1 21:-1 
0 8192 0 0 1:-0.666667 2:0.870628 3:-1 4:-1 5:-1 6:-1 7:-1 8:-1 9:-1 10:-1 11:-1 12:-0.849597 13:-1 14:-1 15:-1 16:-1 17:-1 18:-1 19:-1 20:-1 21:-1 
0 8192 0 0 1:-0.666667 2:0.871258 3:-1 4:-1 5:-1 6:-1 7:-1 8:-1 9:-1 10:-1 11:-1 12:-0.849851 13:-1 14:-1 15:-1 16:-1 17:-1 18:-1 19:-1 20:-1 21:-1 
0 8192 0 0 1:-0.666667 2:0.871952 3:-1 4:-1 5:-1 6:-1 7:-1 8:-1 9:-1 10:-1 11:-1 12:-0.85022 13:-1 14:-1 15:-1 16:-1 17:-1 18:-1 19:-1 20:-1 21:-1 
0 5446.84607950487 0 0 1:-0.666667 2:0.872422 3:-1 4:-1 5:-1 6:-1 7:-1 8:-1 9:-1 10:-1 11:-1 12:-0.850444 13:-1 14:-1 15:-1 16:-1 17:-1 18:-1 19:-1 20:-1 21:-1 
1.070286898991121 2.183182487379775 5.004126336138924 2.004750300100574 1:-0.333333 2:0.87149 3:0.622927 4:0.112608 5:-1 6:-1 7:-1 8:-1 9:-1 10:-1 11:-1 12:0.490321 13:0.54865 14:-0.828087 15:-1 16:-1 17:-1 18:-1 19:-1 20:-1 21:-1 
0.6171650520390107 1.336695835746386 9.36560821600658 1.154677039990243 1:-0.333333 2:0.87812 3:0.205942 4:-0.235665 5:-1 6:-1 7:-1 8:-1 9:-1 10:-1 11:-1 12:0.449594 13:0.498981 14:-0.827927 15:-1 16:-1 17:-1 18:-1 19:-1 20:-1 21:-1 
1.38547341093859 2.209782126080182 5.378393341102788 2.593844575558926 1:-0.333333 2:0.955209 3:-0.601869 4:-0.992121 5:-1 6:-1 7:-1 8:-1 9:-1 10:-1 11:-1 12:0.979844 13:1 14:-0.808495 15:-1 16:-1 17:-1 18:-1 19:-1 20:-1 21:-1 
0 8192 0 0 1:-0.666667 2:0.97987 3:-1 4:-1 5:-1 6:-1 7:-1 8:-1 9:-1 10:-1 11:-1 12:-0.839463 13:-1 14:-1 15:-1 16:-1 17:-1 18:-1 19:-1 20:-1 21:-1 
0 8192 0 0 1:-0.666667 2:0.981048 3:-1 4:-1 5:-1 6:-1 7:-1 8:-1 9:-1 10:-1 11:-1 12:-0.839198 13:-1 14:-1 15:-1 16:-1 17:-1 18:-1 19:-1 20:-1 21:-1 
0 8192 0 0 1:-0.666667 2:0.982344 3:-1 4:-1 5:-1 6:-1 7:-1 8:-1 9:-1 10:-1 11:-1 12:-0.839104 13:-1 14:-1 15:-1 16:-1 17:-1 18:-1 19:-1 20:-1 21:-1 
8192 8191.926390756873 8192 8192 1:-1 2:-1 3:-1 4:-1 5:-1 6:-1 7:-1 8:-1 9:-1 10:-1 11:-1 12:-1 13:-1 14:-1 15:-1 16:-1 17:-1 18:-1 19:-1 20:-1 21:-1 
0 8192 0 0 1:-0.666667 2:0.982468 3:-1 4:-1 5:-1 6:-1 7:-1 8:-1 9:-1 10:-1 11:-1 12:-0.838628 13:-1 14:-1 15:-1 16:-1 17:-1 18:-1 19:-1 20:-1 21:-1 
0 8192 0 0 1:-0.666667 2:0.98277 3:-1 4:-1 5:-1 6:-1 7:-1 8:-1 9:-1 10:-1 11:-1 12:-0.838552 13:-1 14:-1 15:-1 16:-1 17:-1 18:-1 19:-1 20:-1 21:-1 
0 8192 0 0 1:-0.666667 2:0.982948 3:-1 4:-1 5:-1 6:-1 7:-1 8:-1 9:-1 10:-1 11:-1 12:-0.838463 13:-1 14:-1 15:-1 16:-1 17:-1 18:-1 19:-1 20:-1 21:-1 
0 8192 0 0 1:-0.666667 2:0.983206 3:-1 4:-1 5:-1 6:-1 7:-1 8:-1 9:-1 10:-1 11:-1 12:-0.838367 13:-1 14:-1 15:-1 16:-1 17:-1 18:-1 19:-1 20:-1 21:-1 
0 8192 0 0 1:-0.666667 2:0.983466 3:-1 4:-1 5:-1 6:-1 7:-1 8:-1 9:-1 10:-1 11:-1 12:-0.838184 13:-1 14:-1 15:-1 16:-1 17:-1 18:-1 19:-1 20:-1 21:-1 
0 8192 0 0 1:-0.666667 2:0.983832 3:-1 4:-1 5:-1 6:-1 7:-1 8:-1 9:-1 10:-1 11:-1 12:-0.838069 13:-1 14:-1 15:-1 16:-1 17:-1 18:-1 19:-1 20:-1 21:-1 
0 8192 0 0 1:-0.666667 2:0.98468 3:-1 4:-1 5:-1 6:-1 7:-1 8:-1 9:-1 10:-1 11:-1 12:-0.837968 13:-1 14:-1 15:-1 16:-1 17:-1 18:-1 19:-1 20:-1 21:-1 
0 8192 0 0 1:-0.666667 2:0.985188 3:-1 4:-1 5:-1 6:-1 7:-1 8:-1 9:-1 10:-1 11:-1 12:-0.837969 13:-1 14:-1 15:-1 16:-1 17:-1 18:-1 19:-1 20:-1 21:-1 
8192 8192 8192 8192 1:-1 2:-1 3:-1 4:-1 5:-1 6:-1 7:-1 8:-1 9:-1 10:-1 11:-1 12:-1 13:-1 14:-1 15:-1 16:-1 17:-1 18:-1 19:-1 20:-1 21:-1 
0 8192 0 0 1:-0.666667 2:0.985556 3:-1 4:-1 5:-1 6:-1 7:-1 8:-1 9:-1 10:-1 11:-1 12:-0.837465 13:-1 14:-1 15:-1 16:-1 17:-1 18:-1 19:-1 20:-1 21:-1 
0 8192 0 0 1:-0.666667 2:0.986294 3:-1 4:-1 5:-1 6:-1 7:-1 8:-1 9:-1 10:-1 11:-1 12:-0.837175 13:-1 14:-1 15:-1 16:-1 17:-1 18:-1 19:-1 20:-1 21:-1 
0 8192 5209.956800860673 0 1:-0.666667 2:0.987336 3:-1 4:-1 5:-1 6:-1 7:-1 8:-1 9:-1 10:-1 11:-1 12:-0.837492 13:-1 14:-1 15:-1 16:-1 17:-1 18:-1 19:-1 20:-1 21:-1 
8192 8192 8192 8192 1:-1 2:-1 3:-1 4:-1 5:-1 6:-1 7:-1 8:-1 9:-1 10:-1 11:-1 12:-1 13:-1 14:-1 15:-1 16:-1 17:-1 18:-1 19:-1 20:-1 21:-1 
8192 8192 8192 8192 1:-1 2:-1 3:-1 4:-1 5:-1 6:-1 7:-1 8:-1 9:-1 10:-1 11:-1 12:-1 13:-1 14:-1 15:-1 16:-1 17:-1 18:-1 19:-1 20:-1 21:-1 
0 8192 0 0 1:-0.666667 2:0.98603 3:-1 4:-1 5:-1 6:-1 7:-1 8:-1 9:-1 10:-1 11:-1 12:-0.836672 13:-1 14:-1 15:-1 16:-1 17:-1 18:-1 19:-1 20:-1 21:-1 
8192 8192 8192 8192 1:-1 2:-1 3:-1 4:-1 5:-1 6:-1 7:-1 8:-1 9:-1 10:-1 11:-1 12:-1 13:-1 14:-1 15:-1 16:-1 17:-1 18:-1 19:-1 20:-1 21:-1 
0 8192 0 0 1:-0.666667 2:0.986458 3:-1 4:-1 5:-1 6:-1 7:-1 8:-1 9:-1 10:-1 11:-1 12:-0.836702 13:-1 14:-1 15:-1 16:-1 17:-1 18:-1 19:-1 20:-1 21:-1 
0 8192 0 0 1:-0.666667 2:0.98434 3:-1 4:-1 5:-1 6:-1 7:-1 8:-1 9:-1 10:-1 11:-1 12:-0.83655 13:-1 14:-1 15:-1 16:-1 17:-1 18:-1 19:-1 20:-1 21:-1 
8192 8192 8192 8192 1:-1 2:-1 3:-1 4:-1 5:-1 6:-1 7:-1 8:-1 9:-1 10:-1 11:-1 12:-1 13:-1 14:-1 15:-1 16:-1 17:-1 18:-1 19:-1 20:-1 21:-1 
0 8192 0 0 1:-0.666667 2:0.982346 3:-1 4:-1 5:-1 6:-1 7:-1 8:-1 9:-1 10:-1 11:-1 12:-0.836108 13:-1 14:-1 15:-1 16:-1 17:-1 18:-1 19:-1 20:-1 21:-1 
0 8192 0 0 1:-0.666667 2:0.979552 3:-1 4:-1 5:-1 6:-1 7:-1 8:-1 9:-1 10:-1 11:-1 12:-0.835914 13:-1 14:-1 15:-1 16:-1 17:-1 18:-1 19:-1 20:-1 21:-1 
0 8192 0 0 1:-0.666667 2:0.980276 3:-1 4:-1 5:-1 6:-1 7:-1 8:-1 9:-1 10:-1 11:-1 12:-0.835848 13:-1 14:-1 15:-1 16:-1 17:-1 18:-1 19:-1 20:-1 21:-1 
0 8192 0 0 1:-0.666667 2:0.98099 3:-1 4:-1 5:-1 6:-1 7:-1 8:-1 9:-1 10:-1 11:-1 12:-0.835888 13:-1 14:-1 15:-1 16:-1 17:-1 18:-1 19:-1 20:-1 21:-1 
0 8192 0 0 1:-0.666667 2:0.981754 3:-1 4:-1 5:-1 6:-1 7:-1 8:-1 9:-1 10:-1 11:-1 12:-0.835759 13:-1 14:-1 15:-1 16:-1 17:-1 18:-1 19:-1 20:-1 21:-1 
8192 8192 8192 8192 1:-1 2:-1 3:-1 4:-1 5:-1 6:-1 7:-1 8:-1 9:-1 10:-1 11:-1 12:-1 13:-1 14:-1 15:-1 16:-1 17:-1 18:-1 19:-1 20:-1 21:-1 
8192 8192 8192 8192 1:-1 2:-1 3:-1 4:-1 5:-1 6:-1 7:-1 8:-1 9:-1 10:-1 11:-1 12:-1 13:-1 14:-1 15:-1 16:-1 17:-1 18:-1 19:-1 20:-1 21:-1 
0 8192 0 0 1:-0.666667 2:0.978594 3:-1 4:-1 5:-1 6:-1 7:-1 8:-1 9:-1 10:-1 11:-1 12:-0.834585 13:-1 14:-1 15:-1 16:-1 17:-1 18:-1 19:-1 20:-1 21:-1 
0 8192 0 0 1:-0.666667 2:0.974792 3:-1 4:-1 5:-1 6:-1 7:-1 8:-1 9:-1 10:-1 11:-1 12:-0.834584 13:-1 14:-1 15:-1 16:-1 17:-1 18:-1 19:-1 20:-1 21:-1 
8192 8192 8192 8192 1:-1 2:-1 3:-1 4:-1 5:-1 6:-1 7:-1 8:-1 9:-1 10:-1 11:-1 12:-1 13:-1 14:-1 15:-1 16:-1 17:-1 18:-1 19:-1 20:-1 21:-1 
8192 8192 8192 8192 1:-1 2:-1 3:-1 4:-1 5:-1 6:-1 7:-1 8:-1 9:-1 10:-1 11:-1 12:-1 13:-1 14:-1 15:-1 16:-1 17:-1 18:-1 19:-1 20:-1 21:-1 
0 690.8745915444644 0 8192 1:-0.666667 2:0.96933 3:-1 4:-1 5:-1 6:-1 7:-1 8:-1 9:-1 10:-1 11:-1 12:-0.833436 13:-1 14:-1 15:-1 16:-1 17:-1 18:-1 19:-1 20:-1 21:-1 
8192 8192 8192 8192 1:-1 2:-1 3:-1 4:-1 5:-1 6:-1 7:-1 8:-1 9:-1 10:-1 11:-1 12:-1 13:-1 14:-1 15:-1 16:-1 17:-1 18:-1 19:-1 20:-1 21:-1 
0 8192 0 8192 1:-0.666667 2:0.966618 3:-1 4:-1 5:-1 6:-1 7:-1 8:-1 9:-1 10:-1 11:-1 12:-0.83301 13:-1 14:-1 15:-1 16:-1 17:-1 18:-1 19:-1 20:-1 21:-1 
0 0 0 8192 1:-0.666667 2:0.963775 3:-1 4:-1 5:-1 6:-1 7:-1 8:-1 9:-1 10:-1 11:-1 12:-0.83314 13:-1 14:-1 15:-1 16:-1 17:-1 18:-1 19:-1 20:-1 21:-1 
8192 8192 8192 8192 1:-1 2:-1 3:-1 4:-1 5:-1 6:-1 7:-1 8:-1 9:-1 10:-1 11:-1 12:-1 13:-1 14:-1 15:-1 16:-1 17:-1 18:-1 19:-1 20:-1 21:-1 
8192 8192 8192 8192 1:-1 2:-1 3:-1 4:-1 5:-1 6:-1 7:-1 8:-1 9:-1 10:-1 11:-1 12:-1 13:-1 14:-1 15:-1 16:-1 17:-1 18:-1 19:-1 20:-1 21:-1 
