svm_type c_svc
kernel_type rbf
gamma 8
nr_class 10
total_sv 8062
rho -0.823333 0.302973 0.546288 -0.391258 0.947519 -0.512153 -0.516872 0.911013 1.5821 0.71118 0.999806 1.00041 0.954626 0.931589 0.431404 0.999875 0.999561 0.232392 -0.738512 0.331455 -0.776666 -0.542844 0.534092 0.789717 -0.986416 0.05642 -0.979901 -1.06532 0.354133 0.692416 0.767603 -0.25954 -0.0603731 1.03329 1.27855 -0.837497 -0.842251 0.39407 0.776479 0.016713 0.975801 0.971678 1.44808 1.25295 0.513609
label 1 2 3 4 5 6 7 8 9 10
nr_sv 557 97 332 887 621 925 809 614 1799 1421
SV
0 0 0 0 32 0 0 0 0 1:-0.6 2:0.919217 3:-1 4:-1 5:-1 6:-1 8:-1 9:-1 10:-1 11:-1 12:-1 
0 0 0 0 32 0 0 0 0 1:-0.6 2:0.919573 3:-1 4:-1 5:-1 6:-1 8:-1 9:-1 10:-1 11:-1 12:-1 
0 0 0 0 32 0 0 0 0 1:-0.6 2:0.919813 3:-1 4:-1 5:-1 6:-1 8:-1 9:-1 10:-1 11:-1 12:-1 
0 0 0 0 32 0 0 0 0 1:-0.6 2:0.919947 3:-1 4:-1 5:-1 6:-1 8:-1 9:-1 10:-1 11:-1 12:-1 
0 0 0 0 32 0 0 0 0 1:-0.6 2:0.920017 3:-1 4:-1 5:-1 6:-1 8:-1 9:-1 10:-1 11:-1 12:-1 
0 0 0 0 32 0 0 0 0 1:-0.6 2:0.920269 3:-1 4:-1 5:-1 6:-1 8:-1 9:-1 10:-1 11:-1 12:-1 
0 0 0 0 32 0 0 0 0 1:-0.6 2:0.920323 3:-1 4:-1 5:-1 6:-1 8:-1 9:-1 10:-1 11:-1 12:-1 
0 0 0 0 32 0 0 0 0 1:-0.6 2:0.920529 3:-1 4:-1 5:-1 6:-1 8:-1 9:-1 10:-1 11:-1 12:-1 
0 0 0 0 32 0 0 0 0 1:-0.6 2:0.920717 3:-1 4:-1 5:-1 6:-1 8:-1 9:-1 10:-1 11:-1 12:-1 
0 0 0 0 32 0 0 0 0 1:-0.6 2:0.920547 3:-1 4:-1 5:-1 6:-1 8:-1 9:-1 10:-1 11:-1 12:-1 
0 0 0 0 32 0 0 0 0 1:-0.6 2:0.920565 3:-1 4:-1 5:-1 6:-1 8:-1 9:-1 10:-1 11:-1 12:-1 
0 0 0 0 32 0 0 0 0 1:-0.6 2:0.920511 3:-1 4:-1 5:-1 6:-1 8:-1 9:-1 10:-1 11:-1 12:-1 
0 0 0 0 32 0 0 0 0 1:-0.6 2:0.920683 3:-1 4:-1 5:-1 6:-1 8:-1 9:-1 10:-1 11:-1 12:-1 
0 0 0 0 32 0 0 0 0 1:-0.6 2:0.920651 3:-1 4:-1 5:-1 6:-1 8:-1 9:-1 10:-1 11:-1 12:-1 
0 0 0 0 32 0 0 0 0 1:-0.6 2:0.920481 3:-1 4:-1 5:-1 6:-1 8:-1 9:-1 10:-1 11:-1 12:-1 
0 0 0 0 32 0 0 0 0 1:-0.6 2:0.920491 3:-1 4:-1 5:-1 6:-1 8:-1 9:-1 10:-1 11:-1 12:-1 
0 0 0 0 32 0 0 0 0 1:-0.6 2:0.920801 3:-1 4:-1 5:-1 6:-1 8:-1 9:-1 10:-1 11:-1 12:-1 
0 0 0 0 32 0 0 0 0 1:-0.6 2:0.921067 3:-1 4:-1 5:-1 6:-1 8:-1 9:-1 10:-1 11:-1 12:-1 
0 0 0 0 32 0 0 0 0 1:-0.6 2:0.920877 3:-1 4:-1 5:-1 6:-1 8:-1 9:-1 10:-1 11:-1 12:-1 
0 0 0 0 32 0 0 0 0 1:-0.6 2:0.920949 3:-1 4:-1 5:-1 6:-1 8:-1 9:-1 10:-1 11:-1 12:-1 
0 0 0 0 32 0 0 0 0 1:-0.6 2:0.920927 3:-1 4:-1 5:-1 6:-1 8:-1 9:-1 10:-1 11:-1 12:-1 
0 0 0 0 32 0 0 0 0 1:-0.6 2:0.921103 3:-1 4:-1 5:-1 6:-1 8:-1 9:-1 10:-1 11:-1 12:-1 
0 0 0 0 32 0 0 0 0 1:-0.6 2:0.920921 3:-1 4:-1 5:-1 6:-1 8:-1 9:-1 10:-1 11:-1 12:-1 
0 0 0 0 32 0 0 0 0 1:-0.6 2:0.920799 3:-1 4:-1 5:-1 6:-1 8:-1 9:-1 10:-1 11:-1 12:-1 
0 0 0 0 32 0 0 0 0 1:-0.6 2:0.920465 3:-1 4:-1 5:-1 6:-1 8:-1 9:-1 10:-1 11:-1 12:-1 
0 0 0 0 32 0 0 0 0 1:-0.6 2:0.920217 3:-1 4:-1 5:-1 6:-1 8:-1 9:-1 10:-1 11:-1 12:-1 
0 0 0 0 32 0 0 0 0 1:-0.6 2:0.919669 3:-1 4:-1 5:-1 6:-1 8:-1 9:-1 10:-1 11:-1 12:-1 
0 0 0 0 32 0 0 0 0 1:-0.6 2:0.919493 3:-1 4:-1 5:-1 6:-1 8:-1 9:-1 10:-1 11:-1 12:-1 
0 0 0 0 32 0 0 0 0 1:-0.6 2:0.919419 3:-1 4:-1 5:-1 6:-1 8:-1 9:-1 10:-1 11:-1 12:-1 
0 0 0 0 32 0 0 0 0 1:-0.6 2:0.919379 3:-1 4:-1 5:-1 6:-1 8:-1 9:-1 10:-1 11:-1 12:-1 
0 0 0 0 32 0 0 0 0 1:-0.6 2:0.919489 3:-1 4:-1 5:-1 6:-1 8:-1 9:-1 10:-1 11:-1 12:-1 
0 0 0 0 32 0 0 0 0 1:-0.6 2:0.919467 3:-1 4:-1 5:-1 6:-1 8:-1 9:-1 10:-1 11:-1 12:-1 
0 0 0 0 32 0 0 0 0 1:-0.6 2:0.919081 3:-1 4:-1 5:-1 6:-1 8:-1 9:-1 10:-1 11:-1 12:-1 
0 0 0 0 32 0 0 0 0 1:-0.6 2:0.919207 3:-1 4:-1 5:-1 6:-1 8:-1 9:-1 10:-1 11:-1 12:-1 
0 0 0 0 32 0 0 0 0 1:-0.6 2:0.918985 3:-1 4:-1 5:-1 6:-1 8:-1 9:-1 10:-1 11:-1 12:-1 
0 0 0 0 32 0 0 0 0 1:-0.6 2:0.918671 3:-1 4:-1 5:-1 6:-1 8:-1 9:-1 10:-1 11:-1 12:-1 
0 0 0 0 32 0 0 0 0 1:-0.6 2:0.918843 3:-1 4:-1 5:-1 6:-1 8:-1 9:-1 10:-1 11:-1 12:-1 
0 0 0 0 32 0 0 0 0 1:-0.6 2:0.918495 3:-1 4:-1 5:-1 6:-1 8:-1 9:-1 10:-1 11:-1 12:-1 
0 0 0 0 32 0 0 0 0 1:-0.6 2:0.918515 3:-1 4:-1 5:-1 6:-1 8:-1 9:-1 10:-1 11:-1 12:-1 
0 0 0 0 32 0 0 0 0 1:-0.6 2:0.918863 3:-1 4:-1 5:-1 6:-1 8:-1 9:-1 10:-1 11:-1 12:-1 
0 0 0 0 32 0 0 0 0 1:-0.6 2:0.918801 3:-1 4:-1 5:-1 6:-1 8:-1 9:-1 10:-1 11:-1 12:-1 
0 0 0 0 32 0 0 0 0 1:-0.6 2:0.918839 3:-1 4:-1 5:-1 6:-1 8:-1 9:-1 10:-1 11:-1 12:-1 
0 0 0 0 32 0 0 0 0 1:-0.6 2:0.918761 3:-1 4:-1 5:-1 6:-1 8:-1 9:-1 10:-1 11:-1 12:-1 
0 0 0 0 32 0 0 0 0 1:-0.6 2:0.918923 3:-1 4:-1 5:-1 6:-1 8:-1 9:-1 10:-1 11:-1 12:-1 
0 0 0 0 32 0 0 0 0 1:-0.6 2:0.918943 3:-1 4:-1 5:-1 6:-1 8:-1 9:-1 10:-1 11:-1 12:-1 
0 0 0 0 32 0 0 0 0 1:-0.6 2:0.918873 3:-1 4:-1 5:-1 6:-1 8:-1 9:-1 10:-1 11:-1 12:-1 
0 0 0 0 32 0 0 0 0 1:-0.6 2:0.919283 3:-1 4:-1 5:-1 6:-1 8:-1 9:-1 10:-1 11:-1 12:-1 
0 0 0 0 32 0 0 0 0 1:-0.6 2:0.919841 3:-1 4:-1 5:-1 6:-1 8:-1 9:-1 10:-1 11:-1 12:-1 
0 0 0 0 32 0 0 0 0 1:-0.6 2:0.920571 3:-1 4:-1 5:-1 6:-1 8:-1 9:-1 10:-1 11:-1 12:-1 
0 0 0 0 32 0 0 0 0 1:-0.6 2:0.920655 3:-1 4:-1 5:-1 6:-1 8:-1 9:-1 10:-1 11:-1 12:-1 
0 0 0 0 32 0 0 0 0 1:-0.6 2:0.920665 3:-1 4:-1 5:-1 6:-1 8:-1 9:-1 10:-1 11:-1 12:-1 
0 0 0 0 32 0 0 0 0 1:-0.6 2:0.920739 3:-1 4:-1 5:-1 6:-1 8:-1 9:-1 10:-1 11:-1 12:-1 
0 0 0 0 32 0 0 0 0 1:-0.6 2:0.920439 3:-1 4:-1 5:-1 6:-1 8:-1 9:-1 10:-1 11:-1 12:-1 
0 0 0 0 32 0 0 0 0 1:-0.6 2:0.920769 3:-1 4:-1 5:-1 6:-1 8:-1 9:-1 10:-1 11:-1 12:-1 
0 0 0 0 32 0 0 0 0 1:-0.6 2:0.921075 3:-1 4:-1 5:-1 6:-1 8:-1 9:-1 10:-1 11:-1 12:-1 
0 0 0 0 32 0 0 0 0 1:-0.6 2:0.922727 3:-1 4:-1 5:-1 6:-1 8:-1 9:-1 10:-1 11:-1 12:-1 
0 0 0 0 32 0 0 0 32 1:-0.6 2:0.924089 3:-1 4:-1 5:-1 6:-1 8:-1 9:-1 10:-1 11:-1 12:-1 
0 0 0 0 32 0 0 0 32 1:-0.6 2:0.924805 3:-1 4:-1 5:-1 6:-1 8:-1 9:-1 10:-1 11:-1 12:-1 
0 0 0 0 0.6815330296983424 0 0.03069891986782817 1.5300549282369 0 1:-0.2 2:0.925795 3:-0.0484503 4:-0.363347 5:-1 6:-1 8:0.867976 9:-0.800627 10:-1 11:-1 12:-1 
0.1361035999124259 1.105599734485208 2.344743609383189 0.4736825925578629 1.978771818654223 0.3764794224329776 1.590319587738529 3.536869474988519 16.79797339376339 1:-0.2 2:0.924217 3:-0.188018 4:-0.505188 5:-1 6:-1 8:0.871894 9:-0.804557 10:-1 11:-1 12:-1 
0 0 0 0 0 0 0 0 6.059819572351874 1:-0.2 2:0.925055 3:0.248361 4:-0.0438911 5:-1 6:-1 8:0.870042 9:-0.802639 10:-1 11:-1 12:-1 
0 0 0 0 0 0 0 0 10.58569536720645 1:-0.2 2:0.925551 3:0.105466 4:-0.191819 5:-1 6:-1 8:0.868902 9:-0.802 10:-1 11:-1 12:-1 
11.82206444918223 3.700650390080489 32 32 32 32 32 32 32 1:-0.6 2:0.199573 3:-1 4:-1 5:-1 6:-1 8:-1 9:-1 10:-1 11:-1 12:-1 
0 0 0 0 0 0 0 0 32 1:-0.2 2:0.924971 3:0.492564 4:0.209716 5:-1 6:-1 8:0.854652 9:-0.800373 10:-1 11:-1 12:-1 
0 0 0 0 2.295073770541538 0 0 0 0 1:-0.2 2:0.924995 3:0.299367 4:0.0110836 5:-1 6:-1 8:0.847515 9:-0.793079 10:-1 11:-1 12:-1 
0 0 0 0 0.5437089457539209 0 0 0 0.2790605206388335 1:-0.2 2:0.924975 3:0.367337 4:0.0886117 5:-1 6:-1 8:0.847261 9:-0.790298 10:-1 11:-1 12:-1 
0 32 32 32 32 32 32 32 32 1:-0.6 2:0.558662 3:-1 4:-1 5:-1 6:-1 8:-1 9:-1 10:-1 11:-1 12:-1 
0 0 0 0 32 0 0 0 32 1:-0.6 2:0.924437 3:-1 4:-1 5:-1 6:-1 8:-1 9:-1 10:-1 11:-1 12:-1 
0 0 0 0 32 0 0 0 32 1:-0.6 2:0.924513 3:-1 4:-1 5:-1 6:-1 8:-1 9:-1 10:-1 11:-1 12:-1 
0 0 0 0 0 0 0 0 18.11930876697708 1:-0.2 2:0.924005 3:0.534355 4:0.260446 5:-1 6:-1 8:0.840403 9:-0.787911 10:-1 11:-1 12:-1 
0 0 0 0 0 0 0.4765838225688741 0 0 1:-0.2 2:0.913323 3:0.420331 4:0.138772 5:-1 6:-1 8:0.839565 9:-0.783076 10:-1 11:-1 12:-1 
0 0 0 0 0 0 0 0 32 1:-0.2 2:0.914179 3:0.535792 4:0.268295 5:-1 6:-1 8:0.838517 9:-0.782973 10:-1 11:-1 12:-1 
0 0 0 0 0 0 0 0 24.5535551434975 1:-0.2 2:0.915205 3:0.654075 4:0.403335 5:-1 6:-1 8:0.838813 9:-0.785051 10:-1 11:-1 12:-1 
0 32 32 32 32 32 32 32 32 1:-0.6 2:0.655149 3:-1 4:-1 5:-1 6:-1 8:-1 9:-1 10:-1 11:-1 12:-1 
0 0 0 0 32 0 0 0 0 1:-0.6 2:0.915829 3:-1 4:-1 5:-1 6:-1 8:-1 9:-1 10:-1 11:-1 12:-1 
0 32 32 32 32 32 32 32 32 1:-0.6 2:0.659167 3:-1 4:-1 5:-1 6:-1 8:-1 9:-1 10:-1 11:-1 12:-1 
0 0.1410342870358727 0 0.2526397761723577 0 0 0 0 0 1:-0.2 2:0.916781 3:0.844637 4:0.626164 5:-1 6:-1 8:0.825441 9:-0.782897 10:-1 11:-1 12:-1 
0 0.5997405267355476 0 0 0 0 0 2.771893657868243 0 1:-0.2 2:0.917263 3:0.823022 4:0.602548 5:-1 6:-1 8:0.824865 9:-0.782533 10:-1 11:-1 12:-1 
25.59701092933821 32 32 32 32 32 32 32 32 1:-0.6 2:0.724304 3:-1 4:-1 5:-1 6:-1 8:-1 9:-1 10:-1 11:-1 12:-1 
0 32 32 32 28.85670355891099 32 32 32 32 1:-0.6 2:0.538102 3:-1 4:-1 5:-1 6:-1 8:-1 9:-1 10:-1 11:-1 12:-1 
0 32 32 32 32 32 32 32 32 1:-0.6 2:0.679274 3:-1 4:-1 5:-1 6:-1 8:-1 9:-1 10:-1 11:-1 12:-1 
0 32 32 32 32 32 32 32 32 1:-0.6 2:0.58899 3:-1 4:-1 5:-1 6:-1 8:-1 9:-1 10:-1 11:-1 12:-1 
0 0 0 0 32 0 0 0 0 1:-0.6 2:0.919255 3:-1 4:-1 5:-1 6:-1 8:-1 9:-1 10:-1 11:-1 12:-1 
0 32 32 32 32 32 32 32 32 1:-0.6 2:0.687468 3:-1 4:-1 5:-1 6:-1 8:-1 9:-1 10:-1 11:-1 12:-1 
32 32 32 32 32 32 32 32 32 1:-1 2:-1 3:-1 4:-1 5:-1 6:-1 8:-1 9:-1 10:-1 11:-1 12:-1 
0 0 3.599348294100162 0 0 0 0 0.6168878087961122 0 1:-0.2 2:0.910149 3:0.731117 4:0.471417 5:-1 6:-1 8:0.834277 9:-0.783502 10:-1 11:-1 12:-1 
0.02606193155103581 0 0 0.01734967430354658 1.768893537633473 0.07224393086780205 0 0 0 1:-0.2 2:0.893399 3:0.795466 4:0.497423 5:-1 6:-1 8:0.837975 9:-0.791143 10:-1 11:-1 12:-1 
0 0 0 0 0 0 0 6.477252765424448 0 1:-0.2 2:0.885844 3:0.317973 4:0.206462 5:-1 6:-1 8:0.780914 9:-0.00228425 10:-1 11:-1 12:-1 
0.03122433240286301 0.2417091660523637 0.2831895651203388 0.1119290353907647 1.329598703888821 0.08957560239110712 0.08681839851528146 0.3456871110451554 2.289043552041459 1:0.2 2:0.888934 3:0.746476 4:0.601271 5:0.306843 6:0.251218 8:0.90762 9:0.773683 10:-0.601238 11:-0.636335 12:-0.793049 
0.1172545108345724 0.8602751328995767 1.022271772993616 0.4026887211878359 1.228381911896984 0.3226554209983936 0.3206118087621208 1.264929082426682 1.945543892024233 1:0.2 2:0.896637 3:0.741226 4:0.390275 5:0.324259 6:0.276829 8:0.918563 9:0.787397 10:-0.614597 11:-0.642233 12:-0.790268 
0.08989260554576098 1.050811443287569 0.4116593267353056 0.4802641258393884 2.905678644227308 0.2482517790718121 0.7805005910075363 6.863492956491726 32 1:-0.2 2:0.742998 3:0.551949 4:0.338945 5:-1 6:-1 8:0.773946 9:-0.62151 10:-1 11:-1 12:-1 
0.02198229128762515 0.1520783673444635 0.1860677752541299 0.07259972452717929 0 0.05795483345615145 0.05926440340048587 0.2273261307895424 0.2955671269694787 1:0.2 2:0.900165 3:0.752224 4:0.685983 5:0.41339 6:0.405891 8:0.921075 9:0.793297 10:-0.620513 11:-0.646035 12:-0.795326 
0 0 0 0 0.1052473398810669 0 0 0 0 1:0.2 2:0.901241 3:0.761137 4:0.741292 5:0.479227 6:0.448667 8:0.923661 9:0.794254 10:-0.619906 11:-0.646952 12:-0.795026 
0.03019687345896038 0.2257830927466513 0.2656211393290558 0.1040796461411618 0.4553064195328472 0.08460440561476801 0.08268732968868509 0.3227689665834967 2.991796042148268 1:0.2 2:0.904513 3:0.893743 4:0.704792 5:0.703522 6:0.46502 8:0.934033 9:0.797973 10:-0.616542 11:-0.652026 12:-0.791791 
0.02338922064205635 0 0 0 0 0.08284618088758192 0.07444222439391572 0 0 1:-0.2 2:0.906309 3:0.46039 4:0.415922 5:-1 6:-1 8:0.85713 9:0.144315 10:-1 11:-1 12:-1 
0.09020838862295612 1.09319523184437 1.161313671274827 0.3901904324806592 1.245187308341899 0.2298903217391637 0.2336855430616214 2.716070431209005 2.880741392028283 1:-0.2 2:0.907269 3:0.500215 4:0.419671 5:-1 6:-1 8:0.835525 9:0.168696 10:-1 11:-1 12:-1 
0 0 0 0 0 0 0 0 1.73386971695798 1:0.2 2:0.909593 3:0.902207 4:0.730083 5:0.716167 6:0.592879 8:0.960823 9:0.821974 10:-0.643554 11:-0.671122 12:-0.795279 
0.07985528231289245 0.5926869869926177 0.7019573663836904 0.277124567159727 0.8721234712603088 0.2213985333379435 0.2186632841695693 0.8699348044734634 0 1:0.2 2:0.912151 3:0.755985 4:0.68326 5:0.658715 6:0.631558 8:0.970057 9:0.834731 10:-0.649121 11:-0.678426 12:-0.805471 
0 0 0 0 0 0 0 0 3.199498649358418 1:0.2 2:0.913459 3:0.79027 4:0.752363 5:0.746556 6:0.703643 8:0.974204 9:0.840042 10:-0.65326 11:-0.678129 12:-0.808529 
0 0 0 0 0 0 0 0 13.29414475747977 1:0.2 2:0.913799 3:0.869699 4:0.783473 5:0.737387 6:0.687209 8:0.980544 9:0.849359 10:-0.671816 11:-0.695957 12:-0.810268 
0 0.2510170713093275 0 0 0 0 0 0 0.1711556632882009 1:-0.2 2:0.914305 3:0.742029 4:0.681398 5:-1 6:-1 8:0.843489 9:0.138957 10:-1 11:-1 12:-1 
0 0 0 0 0 0 0 0 2.549446775299186 1:0.2 2:0.914311 3:0.882561 4:0.80211 5:0.786857 6:0.737948 8:0.980924 9:0.852014 10:-0.677119 11:-0.697947 12:-0.811595 
0.1499837216746107 1.107123578350114 1.313320672246274 0.5170374964137586 1.658634221361528 0.4142478055294122 0.4101685913958267 1.623427658904725 0 1:0.2 2:0.988304 3:0.978309 4:0.963022 5:0.951729 6:0.920828 8:0.985124 9:0.854513 10:-0.673205 11:-0.684448 12:-0.805709 
32 32 32 32 32 32 32 32 32 1:-0.6 2:0.799603 3:-1 4:-1 5:-1 6:-1 8:-1 9:-1 10:-1 11:-1 12:-1 
32 32 32 32 32 32 32 32 32 1:-1 2:-1 3:-1 4:-1 5:-1 6:-1 8:-1 9:-1 10:-1 11:-1 12:-1 
0.1030826690312593 0.7447794938010972 0.8997666622785574 0.3544448567456665 1.34620367452582 0.2842820581108969 0.2806029764661769 1.19497584277238 1.669783454776075 1:0.2 2:0.901119 3:0.82895 4:0.692081 5:0.618342 6:0.292354 8:0.982728 9:1 10:-0.296233 11:-0.429756 12:-0.693696 
32 32 32 32 32 32 32 32 32 1:-1 2:-1 3:-1 4:-1 5:-1 6:-1 8:-1 9:-1 10:-1 11:-1 12:-1 
0.08260292874233144 0.6562476555238258 0.7243124987837021 0.2850806013440974 1.416361805152971 0.2281838116663835 0.2267970001615656 0.9185821919815162 1.276620666010759 1:0.2 2:0.951983 3:0.902923 4:0.828536 5:0.448978 6:0.121399 8:0.977146 9:0.862782 10:-0.298424 11:-0.409721 12:-0.79769 
0.09656025424247883 0.7822980129483439 2.288348730284421 0.3666565605112677 4.715750720663324 0.2657649521870132 0.7442901334528476 7.984997276126423 8.660430887753121 1:-0.2 2:0.903027 3:0.0923901 4:-0.157132 5:-1 6:-1 8:0.663528 9:-0.467429 10:-1 11:-1 12:-1 
0 0 0 0 0 0 0 0 32 1:-0.2 2:0.976852 3:0.909796 4:0.797756 5:-1 6:-1 8:0.868256 9:-0.831583 10:-1 11:-1 12:-1 
0.03190115911329765 0 0 0.005941594717662401 0 0.07869851119906561 0.1527689829837754 0 0 1:-0.2 2:0.914207 3:0.913643 4:0.699225 5:-1 6:-1 8:0.871996 9:-0.835531 10:-1 11:-1 12:-1 
32 32 32 32 32 32 32 32 32 1:-1 2:-1 3:-1 4:-1 5:-1 6:-1 8:-1 9:-1 10:-1 11:-1 12:-1 
0 0 0 0 32 0 0 0 0 1:-0.6 2:0.916913 3:-1 4:-1 5:-1 6:-1 8:-1 9:-1 10:-1 11:-1 12:-1 
0 0 0 0 0 0 0 0 32 1:-0.2 2:0.919509 3:0.723885 4:0.462666 5:-1 6:-1 8:0.873706 9:-0.837695 10:-1 11:-1 12:-1 
0.1690029211295171 1.249422368334932 1.479098010460547 0.5820335399877723 2.608437529556797 0.4663626414052875 0.4618992287786779 1.830737380957761 2.482398913116841 1:0.2 2:0.921071 3:0.506449 4:0.223674 5:0.119068 6:-0.083067 8:0.932019 9:0.89097 10:-0.323446 11:-0.431711 12:-0.830695 
0 0 0 0 32 0 0 0 0 1:-0.6 2:0.922399 3:-1 4:-1 5:-1 6:-1 8:-1 9:-1 10:-1 11:-1 12:-1 
0 0 0 0 0 0 0 0 32 1:-0.2 2:0.924373 3:0.389288 4:0.103276 5:-1 6:-1 8:0.871576 9:-0.834728 10:-1 11:-1 12:-1 
0.1089059120385199 0.8234659570073175 1.211934799652844 0.4663961973130321 1.877768556899224 0.3006092773633749 0.3885588566144813 0.9840250730860074 8.004811959841499 1:-0.2 2:0.239633 3:-0.0641852 4:-0.68395 5:-1 6:-1 8:0.932817 9:-0.341461 10:-1 11:-1 12:-1 
0 0 0 0 0 0 0 0 32 1:-0.2 2:0.922167 3:0.753098 4:0.495504 5:-1 6:-1 8:0.870582 9:-0.833629 10:-1 11:-1 12:-1 
0 0 0 0 0 0 0 4.148642212827292 10.45711480337308 1:-0.2 2:0.921677 3:0.787599 4:0.544725 5:-1 6:-1 8:0.867432 9:-0.82974 10:-1 11:-1 12:-1 
0 0 0 0 32 0 0 0 0 1:-0.6 2:0.921163 3:-1 4:-1 5:-1 6:-1 8:-1 9:-1 10:-1 11:-1 12:-1 
0 0 0 0 0 0 0 1.37883636839152 0 1:-0.2 2:0.920743 3:0.7706 4:0.50905 5:-1 6:-1 8:0.860524 9:-0.819824 10:-1 11:-1 12:-1 
0.02022485705079747 0 0 0 0 0.06375567622145514 0.05064104716427552 0 0 1:-0.2 2:0.921931 3:0.866886 4:0.628537 5:-1 6:-1 8:0.859416 9:-0.818384 10:-1 11:-1 12:-1 
0.06401128037306382 0 0.5740003832097748 0.1625853427943143 0.4622684132615817 0.1711317305509617 0.1779628187511161 0 0 1:-0.2 2:0.999748 3:0.926281 4:0.92342 5:-1 6:-1 8:0.981704 9:0.226708 10:-1 11:-1 12:-1 
0 0 0 0 0 0 0 0 0.9764234582309873 1:0.2 2:0.948213 3:0.926335 4:0.917899 5:0.910761 6:0.763791 8:0.99318 9:0.876937 10:-0.685859 11:-0.697683 12:-0.81294 
0 0 0 0 0 0 0 0 12.28031214557891 1:0.2 2:0.985988 3:0.926307 4:0.926782 5:0.85305 6:0.827267 8:0.966643 9:0.85011 10:-0.66637 11:-0.692065 12:-0.819969 
0.03773103971909261 0 0.03246512649123771 0 0.366475620099722 0.1055745163723476 0.1106979857630244 0 0.003688239032517324 1:-0.2 2:0.991822 3:0.927115 4:0.925418 5:-1 6:-1 8:0.819281 9:0.019892 10:-1 11:-1 12:-1 
32 32 32 32 32 32 32 32 32 1:-1 2:-1 3:-1 4:-1 5:-1 6:-1 8:-1 9:-1 10:-1 11:-1 12:-1 
0.07578578578199709 0.5568649570961898 0.661056294108665 0.2601615439204389 0.7892098072317164 0.2085810728045315 0.2066368149417826 0.8176097709679396 14.79199225119486 1:0.2 2:0.984724 3:0.926849 4:0.921143 5:0.679162 6:0.600609 8:0.978446 9:0.861742 10:-0.66067 11:-0.681805 12:-0.82122 
0 0 0 0 0 0 0 0 1.34193444347923 1:0.2 2:0.948733 3:0.926211 4:0.900991 5:0.882087 6:0.848674 8:0.971598 9:0.854559 10:-0.657502 11:-0.681882 12:-0.819608 
0 32 0 0 32 0 0 32 32 1:-0.6 2:0.929281 3:-1 4:-1 5:-1 6:-1 8:-1 9:-1 10:-1 11:-1 12:-1 
0 32 0 0 32 0 0 32 32 1:-0.6 2:0.929419 3:-1 4:-1 5:-1 6:-1 8:-1 9:-1 10:-1 11:-1 12:-1 
0.07166101460849462 3.07254199497631 1.024047863151307 0.6190285952993165 1.248229861471184 0.1972921681758811 0.1901226178819133 1.537393928350517 2.508124999574044 1:-0.2 2:0.928695 3:0.841376 4:0.826929 5:-1 6:-1 8:0.806409 9:-0.0323862 10:-1 11:-1 12:-1 
0 32 0 0 32 0 0 32 32 1:-0.6 2:0.927645 3:-1 4:-1 5:-1 6:-1 8:-1 9:-1 10:-1 11:-1 12:-1 
0 32 0 0 32 0 0 0 32 1:-0.6 2:0.927529 3:-1 4:-1 5:-1 6:-1 8:-1 9:-1 10:-1 11:-1 12:-1 
0 32 0 0 32 0 0 0 32 1:-0.6 2:0.927379 3:-1 4:-1 5:-1 6:-1 8:-1 9:-1 10:-1 11:-1 12:-1 
0 32 0 0 32 0 0 0 32 1:-0.6 2:0.926975 3:-1 4:-1 5:-1 6:-1 8:-1 9:-1 10:-1 11:-1 12:-1 
0 0 0 0 32 0 0 0 32 1:-0.6 2:0.926365 3:-1 4:-1 5:-1 6:-1 8:-1 9:-1 10:-1 11:-1 12:-1 
32 32 32 32 32 32 32 32 32 1:-1 2:-1 3:-1 4:-1 5:-1 6:-1 8:-1 9:-1 10:-1 11:-1 12:-1 
0 0 0 0 32 0 0 0 32 1:-0.6 2:0.923881 3:-1 4:-1 5:-1 6:-1 8:-1 9:-1 10:-1 11:-1 12:-1 
0 0 0 0 32 0 0 0 0 1:-0.6 2:0.922757 3:-1 4:-1 5:-1 6:-1 8:-1 9:-1 10:-1 11:-1 12:-1 
0 0 0 0 32 0 0 0 0 1:-0.6 2:0.922409 3:-1 4:-1 5:-1 6:-1 8:-1 9:-1 10:-1 11:-1 12:-1 
0 0 0 0 32 0 0 0 0 1:-0.6 2:0.921923 3:-1 4:-1 5:-1 6:-1 8:-1 9:-1 10:-1 11:-1 12:-1 
0 0 0 0 32 0 0 0 0 1:-0.6 2:0.921817 3:-1 4:-1 5:-1 6:-1 8:-1 9:-1 10:-1 11:-1 12:-1 
0 0 0 0 32 0 0 0 0 1:-0.6 2:0.921589 3:-1 4:-1 5:-1 6:-1 8:-1 9:-1 10:-1 11:-1 12:-1 
0 0 0 0 32 0 0 0 0 1:-0.6 2:0.921967 3:-1 4:-1 5:-1 6:-1 8:-1 9:-1 10:-1 11:-1 12:-1 
0 0 0 0 32 0 0 0 0 1:-0.6 2:0.921857 3:-1 4:-1 5:-1 6:-1 8:-1 9:-1 10:-1 11:-1 12:-1 
0 0 0 0 32 0 0 0 0 1:-0.6 2:0.921907 3:-1 4:-1 5:-1 6:-1 8:-1 9:-1 10:-1 11:-1 12:-1 
0 0 0 0 32 0 0 0 0 1:-0.6 2:0.921781 3:-1 4:-1 5:-1 6:-1 8:-1 9:-1 10:-1 11:-1 12:-1 
0 0 0 0 32 0 0 0 0 1:-0.6 2:0.922009 3:-1 4:-1 5:-1 6:-1 8:-1 9:-1 10:-1 11:-1 12:-1 
0 0 0 0 32 0 0 0 0 1:-0.6 2:0.922095 3:-1 4:-1 5:-1 6:-1 8:-1 9:-1 10:-1 11:-1 12:-1 
0 0 0 0 32 0 0 0 0 1:-0.6 2:0.922477 3:-1 4:-1 5:-1 6:-1 8:-1 9:-1 10:-1 11:-1 12:-1 
0 0 0 0 32 0 0 0 0 1:-0.6 2:0.922863 3:-1 4:-1 5:-1 6:-1 8:-1 9:-1 10:-1 11:-1 12:-1 
0 0 0 0 32 0 0 0 32 1:-0.6 2:0.923273 3:-1 4:-1 5:-1 6:-1 8:-1 9:-1 10:-1 11:-1 12:-1 
0 0 0 0 32 0 0 0 32 1:-0.6 2:0.923547 3:-1 4:-1 5:-1 6:-1 8:-1 9:-1 10:-1 11:-1 12:-1 
0 0 0 0 32 0 0 0 32 1:-0.6 2:0.923755 3:-1 4:-1 5:-1 6:-1 8:-1 9:-1 10:-1 11:-1 12:-1 
32 32 32 32 32 32 32 32 32 1:-1 2:-1 3:-1 4:-1 5:-1 6:-1 8:-1 9:-1 10:-1 11:-1 12:-1 
0 0 0 0 32 0 0 0 0 1:-0.6 2:0.922895 3:-1 4:-1 5:-1 6:-1 8:-1 9:-1 10:-1 11:-1 12:-1 
0 0 0 0 32 0 0 0 0 1:-0.6 2:0.922905 3:-1 4:-1 5:-1 6:-1 8:-1 9:-1 10:-1 11:-1 12:-1 
0 0 0 0 32 0 0 0 32 1:-0.6 2:0.923081 3:-1 4:-1 5:-1 6:-1 8:-1 9:-1 10:-1 11:-1 12:-1 
0 0 0 0 32 0 0 0 18.06929608222645 1:-0.6 2:0.923039 3:-1 4:-1 5:-1 6:-1 8:-1 9:-1 10:-1 11:-1 12:-1 
0 0 0 0 32 0 0 0 0 1:-0.6 2:0.922897 3:-1 4:-1 5:-1 6:-1 8:-1 9:-1 10:-1 11:-1 12:-1 
0 0 0 0 32 0 0 0 32 1:-0.6 2:0.923073 3:-1 4:-1 5:-1 6:-1 8:-1 9:-1 10:-1 11:-1 12:-1 
0 0 0 0 32 0 0 0 0 1:-0.6 2:0.923025 3:-1 4:-1 5:-1 6:-1 8:-1 9:-1 10:-1 11:-1 12:-1 
0 0 0 0 32 0 0 0 0 1:-0.6 2:0.922941 3:-1 4:-1 5:-1 6:-1 8:-1 9:-1 10:-1 11:-1 12:-1 
0 0 0 0 32 0 0 0 0 1:-0.6 2:0.922607 3:-1 4:-1 5:-1 6:-1 8:-1 9:-1 10:-1 11:-1 12:-1 
0 0 0 0 32 0 0 0 0 1:-0.6 2:0.922013 3:-1 4:-1 5:-1 6:-1 8:-1 9:-1 10:-1 11:-1 12:-1 
0 0 0 0 32 0 0 0 0 1:-0.6 2:0.921103 3:-1 4:-1 5:-1 6:-1 8:-1 9:-1 10:-1 11:-1 12:-1 
0 0 0 0 32 0 0 0 0 1:-0.6 2:0.920981 3:-1 4:-1 5:-1 6:-1 8:-1 9:-1 10:-1 11:-1 12:-1 
0 0 0 0 32 0 0 0 0 1:-0.6 2:0.921567 3:-1 4:-1 5:-1 6:-1 8:-1 9:-1 10:-1 11:-1 12:-1 
0 0 0 0 32 0 0 0 0 1:-0.6 2:0.922591 3:-1 4:-1 5:-1 6:-1 8:-1 9:-1 10:-1 11:-1 12:-1 
0 0 0 0 32 0 0 0 32 1:-0.6 2:0.923547 3:-1 4:-1 5:-1 6:-1 8:-1 9:-1 10:-1 11:-1 12:-1 
0 0 0 0 32 0 0 0 32 1:-0.6 2:0.924115 3:-1 4:-1 5:-1 6:-1 8:-1 9:-1 10:-1 11:-1 12:-1 
0 0 0 0 32 0 0 0 32 1:-0.6 2:0.925381 3:-1 4:-1 5:-1 6:-1 8:-1 9:-1 10:-1 11:-1 12:-1 
0 0 0 0 32 0 0 0 32 1:-0.6 2:0.925673 3:-1 4:-1 5:-1 6:-1 8:-1 9:-1 10:-1 11:-1 12:-1 
0 0 0 0 32 0 0 0 32 1:-0.6 2:0.925531 3:-1 4:-1 5:-1 6:-1 8:-1 9:-1 10:-1 11:-1 12:-1 
0 0 0 0 32 0 0 0 32 1:-0.6 2:0.924843 3:-1 4:-1 5:-1 6:-1 8:-1 9:-1 10:-1 11:-1 12:-1 
0 0 0 0 32 0 0 0 32 1:-0.6 2:0.923531 3:-1 4:-1 5:-1 6:-1 8:-1 9:-1 10:-1 11:-1 12:-1 
0 0 0 0 32 0 0 0 0 1:-0.6 2:0.922795 3:-1 4:-1 5:-1 6:-1 8:-1 9:-1 10:-1 11:-1 12:-1 
0 0 0 0 32 0 0 0 0 1:-0.6 2:0.921615 3:-1 4:-1 5:-1 6:-1 8:-1 9:-1 10:-1 11:-1 12:-1 
0 0 0 0 32 0 0 0 0 1:-0.6 2:0.920907 3:-1 4:-1 5:-1 6:-1 8:-1 9:-1 10:-1 11:-1 12:-1 
0 0 0 0 32 0 0 0 0 1:-0.6 2:0.919489 3:-1 4:-1 5:-1 6:-1 8:-1 9:-1 10:-1 11:-1 12:-1 
0 0 0 0 32 0 0 0 0 1:-0.6 2:0.919125 3:-1 4:-1 5:-1 6:-1 8:-1 9:-1 10:-1 11:-1 12:-1 
0 0 0 0 32 0 0 0 0 1:-0.6 2:0.917831 3:-1 4:-1 5:-1 6:-1 8:-1 9:-1 10:-1 11:-1 12:-1 
0 0 0 0 32 0 0 0 0 1:-0.6 2:0.915919 3:-1 4:-1 5:-1 6:-1 8:-1 9:-1 10:-1 11:-1 12:-1 
0 0 0 0 32 0 0 0 0 1:-0.6 2:0.914135 3:-1 4:-1 5:-1 6:-1 8:-1 9:-1 10:-1 11:-1 12:-1 
0 0 0 0 32 0 0 0 0 1:-0.6 2:0.913829 3:-1 4:-1 5:-1 6:-1 8:-1 9:-1 10:-1 11:-1 12:-1 
0 0 0 0 32 0 0 0 0 1:-0.6 2:0.913369 3:-1 4:-1 5:-1 6:-1 8:-1 9:-1 10:-1 11:-1 12:-1 
0 0 0 0 32 0 0 0 0 1:-0.6 2:0.913399 3:-1 4:-1 5:-1 6:-1 8:-1 9:-1 10:-1 11:-1 12:-1 
0 0 0 0 32 0 0 0 0 1:-0.6 2:0.913721 3:-1 4:-1 5:-1 6:-1 8:-1 9:-1 10:-1 11:-1 12:-1 
0 0 0 0 32 0 0 0 0 1:-0.6 2:0.913287 3:-1 4:-1 5:-1 6:-1 8:-1 9:-1 10:-1 11:-1 12:-1 
0 0 0 0 32 0 0 0 0 1:-0.6 2:0.913287 3:-1 4:-1 5:-1 6:-1 8:-1 9:-1 10:-1 11:-1 12:-1 
0 0 0 0 32 0 0 0 0 1:-0.6 2:0.913377 3:-1 4:-1 5:-1 6:-1 8:-1 9:-1 10:-1 11:-1 12:-1 
0 0 0 0 32 0 0 0 0 1:-0.6 2:0.914309 3:-1 4:-1 5:-1 6:-1 8:-1 9:-1 10:-1 11:-1 12:-1 
0 0 0 0 32 0 0 0 0 1:-0.6 2:0.915523 3:-1 4:-1 5:-1 6:-1 8:-1 9:-1 10:-1 11:-1 12:-1 
0 0 0 0 32 0 0 0 0 1:-0.6 2:0.916427 3:-1 4:-1 5:-1 6:-1 8:-1 9:-1 10:-1 11:-1 12:-1 
0 0 0 0 32 0 0 0 0 1:-0.6 2:0.916623 3:-1 4:-1 5:-1 6:-1 8:-1 9:-1 10:-1 11:-1 12:-1 
0 0 0 0 32 0 0 0 0 1:-0.6 2:0.917947 3:-1 4:-1 5:-1 6:-1 8:-1 9:-1 10:-1 11:-1 12:-1 
0 0 0 0 32 0 0 0 0 1:-0.6 2:0.918911 3:-1 4:-1 5:-1 6:-1 8:-1 9:-1 10:-1 11:-1 12:-1 
0 0 0 0 32 0 0 0 0 1:-0.6 2:0.919841 3:-1 4:-1 5:-1 6:-1 8:-1 9:-1 10:-1 11:-1 12:-1 
0 0 0 0 32 0 0 0 0 1:-0.6 2:0.921761 3:-1 4:-1 5:-1 6:-1 8:-1 9:-1 10:-1 11:-1 12:-1 
0 0 0 0 32 0 0 0 32 1:-0.6 2:0.923285 3:-1 4:-1 5:-1 6:-1 8:-1 9:-1 10:-1 11:-1 12:-1 
0 0 0 0 32 0 0 0 32 1:-0.6 2:0.924089 3:-1 4:-1 5:-1 6:-1 8:-1 9:-1 10:-1 11:-1 12:-1 
0 0 0 0 32 0 0 0 32 1:-0.6 2:0.925281 3:-1 4:-1 5:-1 6:-1 8:-1 9:-1 10:-1 11:-1 12:-1 
0 0 0 0 32 0 0 0 32 1:-0.6 2:0.923987 3:-1 4:-1 5:-1 6:-1 8:-1 9:-1 10:-1 11:-1 12:-1 
0 0 0 0 32 0 0 0 32 1:-0.6 2:0.923047 3:-1 4:-1 5:-1 6:-1 8:-1 9:-1 10:-1 11:-1 12:-1 
0 0 0 0 32 0 0 0 0 1:-0.6 2:0.922301 3:-1 4:-1 5:-1 6:-1 8:-1 9:-1 10:-1 11:-1 12:-1 
0 0 0 0 32 0 0 0 0 1:-0.6 2:0.921707 3:-1 4:-1 5:-1 6:-1 8:-1 9:-1 10:-1 11:-1 12:-1 
0 0 0 0 32 0 0 0 0 1:-0.6 2:0.922067 3:-1 4:-1 5:-1 6:-1 8:-1 9:-1 10:-1 11:-1 12:-1 
0 0 0 0 32 0 0 0 0 1:-0.6 2:0.921735 3:-1 4:-1 5:-1 6:-1 8:-1 9:-1 10:-1 11:-1 12:-1 
0 0 0 0 32 0 0 0 0 1:-0.6 2:0.922595 3:-1 4:-1 5:-1 6:-1 8:-1 9:-1 10:-1 11:-1 12:-1 
0 0 0 0 32 0 0 0 32 1:-0.6 2:0.923773 3:-1 4:-1 5:-1 6:-1 8:-1 9:-1 10:-1 11:-1 12:-1 
0 0 0 0 32 0 0 0 0 1:-0.6 2:0.922535 3:-1 4:-1 5:-1 6:-1 8:-1 9:-1 10:-1 11:-1 12:-1 
0 0 0 0 32 0 0 0 0 1:-0.6 2:0.921485 3:-1 4:-1 5:-1 6:-1 8:-1 9:-1 10:-1 11:-1 12:-1 
0 0 0 0 32 0 0 0 0 1:-0.6 2:0.922321 3:-1 4:-1 5:-1 6:-1 8:-1 9:-1 10:-1 11:-1 12:-1 
0 0 0 0 32 0 0 0 0 1:-0.6 2:0.921979 3:-1 4:-1 5:-1 6:-1 8:-1 9:-1 10:-1 11:-1 12:-1 
0 0 0 0 32 0 0 0 0 1:-0.6 2:0.920667 3:-1 4:-1 5:-1 6:-1 8:-1 9:-1 10:-1 11:-1 12:-1 
0 0 0 0 32 0 0 0 0 1:-0.6 2:0.920447 3:-1 4:-1 5:-1 6:-1 8:-1 9:-1 10:-1 11:-1 12:-1 
0 0 0 0 32 0 0 0 0 1:-0.6 2:0.918901 3:-1 4:-1 5:-1 6:-1 8:-1 9:-1 10:-1 11:-1 12:-1 
0 0 0 0 32 0 0 0 0 1:-0.6 2:0.917531 3:-1 4:-1 5:-1 6:-1 8:-1 9:-1 10:-1 11:-1 12:-1 
0 0 0 0 32 0 0 0 0 1:-0.6 2:0.916537 3:-1 4:-1 5:-1 6:-1 8:-1 9:-1 10:-1 11:-1 12:-1 
0 0 0 0 32 0 0 0 0 1:-0.6 2:0.913263 3:-1 4:-1 5:-1 6:-1 8:-1 9:-1 10:-1 11:-1 12:-1 
0 0 0 0 32 0 0 0 0 1:-0.6 2:0.915187 3:-1 4:-1 5:-1 6:-1 8:-1 9:-1 10:-1 11:-1 12:-1 
0 32 0 0 32 0 0 0 32 1:-0.6 2:0.926731 3:-1 4:-1 5:-1 6:-1 8:-1 9:-1 10:-1 11:-1 12:-1 
0 32 32 32 32 32 0 32 32 1:-0.6 2:0.943679 3:-1 4:-1 5:-1 6:-1 8:-1 9:-1 10:-1 11:-1 12:-1 
0 32 32 32 32 32 0 32 32 1:-0.6 2:0.947307 3:-1 4:-1 5:-1 6:-1 8:-1 9:-1 10:-1 11:-1 12:-1 
0 32 32 32 32 32 0 32 32 1:-0.6 2:0.948163 3:-1 4:-1 5:-1 6:-1 8:-1 9:-1 10:-1 11:-1 12:-1 
32 32 32 32 32 32 32 32 32 1:-1 2:-1 3:-1 4:-1 5:-1 6:-1 8:-1 9:-1 10:-1 11:-1 12:-1 
0.07211619239078612 0.4853026876428997 2.272137247130071 0.2072594708911157 1.289790738565169 0.1971318698386924 0 5.696241108058754 32 1:-0.2 2:0.908683 3:0.545471 4:0.530973 5:-1 6:-1 8:0.919753 9:-0.834917 10:-1 11:-1 12:-1 
32 32 32 32 32 32 32 32 32 1:-1 2:-1 3:-1 4:-1 5:-1 6:-1 8:-1 9:-1 10:-1 11:-1 12:-1 
32 32 32 32 32 32 32 32 32 1:-1 2:-1 3:-1 4:-1 5:-1 6:-1 8:-1 9:-1 10:-1 11:-1 12:-1 
32 32 32 32 32 32 32 32 32 1:-1 2:-1 3:-1 4:-1 5:-1 6:-1 8:-1 9:-1 10:-1 11:-1 12:-1 
32 32 32 32 32 32 32 32 32 1:-1 2:-1 3:-1 4:-1 5:-1 6:-1 8:-1 9:-1 10:-1 11:-1 12:-1 
32 32 32 32 32 32 32 32 32 1:-1 2:-1 3:-1 4:-1 5:-1 6:-1 8:-1 9:-1 10:-1 11:-1 12:-1 
8.109118248278286 32 32 32 32 32 32 32 32 1:-0.6 2:0.83593 3:-1 4:-1 5:-1 6:-1 8:-1 9:-1 10:-1 11:-1 12:-1 
32 32 32 32 32 32 32 32 32 1:-1 2:-1 3:-1 4:-1 5:-1 6:-1 8:-1 9:-1 10:-1 11:-1 12:-1 
32 32 32 32 32 32 32 32 32 1:-1 2:-1 3:-1 4:-1 5:-1 6:-1 8:-1 9:-1 10:-1 11:-1 12:-1 
0.1216867943374443 0.9039253127335034 1.119392067866066 0.4342953025983441 6.192463530697832 0.3353500748482881 0.3401554892531669 3.254999840454214 1.688343322164912 1:-0.2 2:0.224881 3:-0.371416 4:-0.802654 5:-1 6:-1 8:0.717963 9:-0.447772 10:-1 11:-1 12:-1 
32 32 32 32 32 32 32 32 32 1:-1 2:-1 3:-1 4:-1 5:-1 6:-1 8:-1 9:-1 10:-1 11:-1 12:-1 
0 32 0 0 32 0 0 32 32 1:-0.6 2:0.935009 3:-1 4:-1 5:-1 6:-1 8:-1 9:-1 10:-1 11:-1 12:-1 
0.1752448642146212 1.314793362305015 1.530312557268728 0.6018276518678249 2.708295318884688 0.4826659699852186 0.4785246613119342 1.89123855959785 2.559290540722562 1:0.2 2:0.929517 3:0.887264 4:0.859028 5:0.0588453 6:-0.487064 8:0.684063 9:0.584859 10:-0.53357 11:-0.542665 12:-0.746917 
32 0 32 32 32 32 0 32 32 1:-0.6 2:-0.372955 3:-1 4:-1 5:-1 6:-1 8:-1 9:-1 10:-1 11:-1 12:-1 
0 0 32 32 32 32 0 32 32 1:-0.6 2:-0.26744 3:-1 4:-1 5:-1 6:-1 8:-1 9:-1 10:-1 11:-1 12:-1 
12.15359591136797 0 32 32 32 32 0 32 32 1:-0.6 2:-0.350519 3:-1 4:-1 5:-1 6:-1 8:-1 9:-1 10:-1 11:-1 12:-1 
0 0 32 32 32 32 9.483965678035332 32 32 1:-0.6 2:-0.256562 3:-1 4:-1 5:-1 6:-1 8:-1 9:-1 10:-1 11:-1 12:-1 
0 0 0 0 9.622552700120291 0 0 22.05529669375936 0 1:-0.2 2:-0.1746 3:-0.293784 4:-0.70476 5:-1 6:-1 8:0.828599 9:-0.569536 10:-1 11:-1 12:-1 
0 0 32 32 32 32 32 32 32 1:-0.6 2:-0.0109082 3:-1 4:-1 5:-1 6:-1 8:-1 9:-1 10:-1 11:-1 12:-1 
0.06626988996712939 0.4816717960373218 0.5921343362316216 0.2146866667452378 3.991470223434669 0.1832798196677309 0.152662804553124 1.114475639736538 1.199364244401546 1:-0.2 2:-0.0360285 3:-0.0616724 4:-0.656728 5:-1 6:-1 8:0.831415 9:-0.571908 10:-1 11:-1 12:-1 
0 0 32 32 32 32 32 32 32 1:-0.6 2:-0.0074301 3:-1 4:-1 5:-1 6:-1 8:-1 9:-1 10:-1 11:-1 12:-1 
21.24140267480482 0 32 32 5.168734221456496 32 32 32 32 1:-0.6 2:-0.116672 3:-1 4:-1 5:-1 6:-1 8:-1 9:-1 10:-1 11:-1 12:-1 
32 0 32 32 0 32 32 32 32 1:-0.6 2:-0.214913 3:-1 4:-1 5:-1 6:-1 8:-1 9:-1 10:-1 11:-1 12:-1 
0 0 32 32 32 32 0 32 32 1:-0.6 2:-0.324061 3:-1 4:-1 5:-1 6:-1 8:-1 9:-1 10:-1 11:-1 12:-1 
14.31371799776436 0.7395404610565677 32 32 32 32 32 32 32 1:-0.6 2:-0.41404 3:-1 4:-1 5:-1 6:-1 8:-1 9:-1 10:-1 11:-1 12:-1 
0 0 32 32 32 32 0 32 32 1:-0.6 2:-0.295446 3:-1 4:-1 5:-1 6:-1 8:-1 9:-1 10:-1 11:-1 12:-1 
0 0 32 2.306765046319704 21.57432498841447 32 32 32 32 1:-0.6 2:-0.250718 3:-1 4:-1 5:-1 6:-1 8:-1 9:-1 10:-1 11:-1 12:-1 
0.1437400741713719 1.061597809831557 1.199706204835429 0.4991143250223665 0 0.3970896171563486 0.3970026732183369 0 2.248114594022143 1:-0.2 2:-0.327701 3:-0.411915 4:-0.57243 5:-1 6:-1 8:0.854432 9:-0.571099 10:-1 11:-1 12:-1 
0.1462043228726531 1.067507125776396 1.772434402671401 0.5371762117504429 1.870783955856201 0.403869048460705 1.356940172665379 3.409460044495528 32 1:-0.2 2:0.487599 3:0.33345 4:-0.256434 5:-1 6:-1 8:0.741028 9:-0.670808 10:-1 11:-1 12:-1 
0 0 32 32 32 32 0 32 32 1:-0.6 2:-0.323717 3:-1 4:-1 5:-1 6:-1 8:-1 9:-1 10:-1 11:-1 12:-1 
32 0 32 32 32 32 15.84009514126907 32 32 1:-0.6 2:-0.376045 3:-1 4:-1 5:-1 6:-1 8:-1 9:-1 10:-1 11:-1 12:-1 
0 0 32 32 32 32 0 32 32 1:-0.6 2:-0.267266 3:-1 4:-1 5:-1 6:-1 8:-1 9:-1 10:-1 11:-1 12:-1 
9.043558832878992 0 32 32 0 32 32 32 32 1:-0.6 2:-0.232661 3:-1 4:-1 5:-1 6:-1 8:-1 9:-1 10:-1 11:-1 12:-1 
32 32 32 32 32 32 32 32 32 1:-1 2:-1 3:-1 4:-1 5:-1 6:-1 8:-1 9:-1 10:-1 11:-1 12:-1 
0.04165101402211435 0.3057632763575448 1.086579195978901 0.1318469292695057 0.5334317377232929 0.1146705186893871 0.1110537111271132 1.593037955446295 0 1:-0.2 2:-0.0155922 3:-0.235269 4:-0.49236 5:-1 6:-1 8:0.855304 9:-0.593552 10:-1 11:-1 12:-1 
0 0 32 32 32 32 32 32 32 1:-0.6 2:-0.102883 3:-1 4:-1 5:-1 6:-1 8:-1 9:-1 10:-1 11:-1 12:-1 
32 32 32 32 32 32 32 32 32 1:-1 2:-1 3:-1 4:-1 5:-1 6:-1 8:-1 9:-1 10:-1 11:-1 12:-1 
32 32 32 32 32 32 32 32 32 1:-1 2:-1 3:-1 4:-1 5:-1 6:-1 8:-1 9:-1 10:-1 11:-1 12:-1 
12.12817824800017 0 32 32 32 32 32 32 32 1:-0.6 2:-0.722106 3:-1 4:-1 5:-1 6:-1 8:-1 9:-1 10:-1 11:-1 12:-1 
32 32 32 32 32 32 32 32 32 1:-1 2:-1 3:-1 4:-1 5:-1 6:-1 8:-1 9:-1 10:-1 11:-1 12:-1 
32 32 32 32 32 32 32 32 32 1:-1 2:-1 3:-1 4:-1 5:-1 6:-1 8:-1 9:-1 10:-1 11:-1 12:-1 
32 32 32 32 32 32 32 32 32 1:-1 2:-1 3:-1 4:-1 5:-1 6:-1 8:-1 9:-1 10:-1 11:-1 12:-1 
32 32 32 32 32 32 32 32 32 1:-1 2:-1 3:-1 4:-1 5:-1 6:-1 8:-1 9:-1 10:-1 11:-1 12:-1 
32 1.291692296002153 32 32 32 32 32 32 32 1:-0.6 2:-0.808453 3:-1 4:-1 5:-1 6:-1 8:-1 9:-1 10:-1 11:-1 12:-1 
0 0 32 17.71880250417953 0 32 32 32 32 1:-0.6 2:-0.236639 3:-1 4:-1 5:-1 6:-1 8:-1 9:-1 10:-1 11:-1 12:-1 
22.79480726663588 32 32 32 0 32 32 32 32 1:-0.6 2:0.393918 3:-1 4:-1 5:-1 6:-1 8:-1 9:-1 10:-1 11:-1 12:-1 
32 32 32 32 32 32 32 32 32 1:-0.6 2:0.748766 3:-1 4:-1 5:-1 6:-1 8:-1 9:-1 10:-1 11:-1 12:-1 
0 0 0 0 0 0 0 32 32 1:-0.6 2:0.866064 3:-1 4:-1 5:-1 6:-1 8:-1 9:-1 10:-1 11:-1 12:-1 
0 0 0 0 32 0 0 0 0 1:-0.6 2:0.913833 3:-1 4:-1 5:-1 6:-1 8:-1 9:-1 10:-1 11:-1 12:-1 
0 32 0 0 32 32 0 32 32 1:-0.6 2:0.938171 3:-1 4:-1 5:-1 6:-1 8:-1 9:-1 10:-1 11:-1 12:-1 
0 32 32 32 32 32 0 32 32 1:-0.6 2:0.949933 3:-1 4:-1 5:-1 6:-1 8:-1 9:-1 10:-1 11:-1 12:-1 
32 32 32 32 32 32 28.99598584601426 32 32 1:-0.6 2:0.954965 3:-1 4:-1 5:-1 6:-1 8:-1 9:-1 10:-1 11:-1 12:-1 
32 32 32 32 32 32 32 32 32 1:-0.6 2:0.955437 3:-1 4:-1 5:-1 6:-1 8:-1 9:-1 10:-1 11:-1 12:-1 
32 32 32 32 32 32 0 32 32 1:-0.6 2:0.953587 3:-1 4:-1 5:-1 6:-1 8:-1 9:-1 10:-1 11:-1 12:-1 
32 32 32 32 32 32 0 32 32 1:-0.6 2:0.950609 3:-1 4:-1 5:-1 6:-1 8:-1 9:-1 10:-1 11:-1 12:-1 
0.1219137047589339 0.8936899746619853 1.065902198574274 0.419730658684613 1.389909160737257 0.3366931865812089 0.3329881066252409 1.301304340761434 1.824474059225679 1:0.2 2:0.947187 3:0.771892 4:0.718388 5:0.584932 6:-0.118413 8:0.988598 9:0.894571 10:-0.46727 11:-0.507237 12:-0.828811 
0 32 32 32 32 32 0 32 32 1:-0.6 2:0.943901 3:-1 4:-1 5:-1 6:-1 8:-1 9:-1 10:-1 11:-1 12:-1 
0.1754735855081561 1.297389280865926 1.539174668719066 0.6058492023388748 2.319041824209341 0.4856748411181846 0.4808791786016183 1.902165607939281 3.04458159244408 1:0.2 2:0.940961 3:0.91884 4:0.742977 5:-0.55611 6:-0.78648 8:0.966561 9:0.896891 10:-0.460919 11:-0.502599 12:-0.832229 
0 32 0 0 32 32 0 32 32 1:-0.6 2:0.938885 3:-1 4:-1 5:-1 6:-1 8:-1 9:-1 10:-1 11:-1 12:-1 
0 32 0 0 32 32 0 32 32 1:-0.6 2:0.936711 3:-1 4:-1 5:-1 6:-1 8:-1 9:-1 10:-1 11:-1 12:-1 
0 32 0 0 32 27.0081716046251 0 32 32 1:-0.6 2:0.935107 3:-1 4:-1 5:-1 6:-1 8:-1 9:-1 10:-1 11:-1 12:-1 
0.03413711758125436 0.1736533520778157 1.193610715756656 0.1078022107661458 1.514622348574747 0.09177789247738687 0 0.01371961768311569 26.11271251264454 1:-0.2 2:0.933427 3:-0.149218 4:-0.218521 5:-1 6:-1 8:0.944705 9:-0.838494 10:-1 11:-1 12:-1 
0 0 0 0 0 0 0 0 6.938986862885975 1:-0.2 2:0.932007 3:0.0196312 4:-0.0105813 5:-1 6:-1 8:0.944205 9:-0.835779 10:-1 11:-1 12:-1 
0 32 0 0 32 0 0 32 32 1:-0.6 2:0.930943 3:-1 4:-1 5:-1 6:-1 8:-1 9:-1 10:-1 11:-1 12:-1 
0.1388138692119869 1.114603651224195 1.276179811628113 0.4880802080657268 2.47113427095279 0.3862610100832096 0.3623658521832429 0.1231190641303381 17.0102048596925 1:-0.2 2:0.9947 3:0.962424 4:0.930665 5:-1 6:-1 8:0.86583 9:-0.77362 10:-1 11:-1 12:-1 
0 0 0 0 1.07091898912273 0 0 6.597214045439083 32 1:-0.2 2:0.928807 3:0.870821 4:0.822831 5:-1 6:-1 8:0.867834 9:-0.778407 10:-1 11:-1 12:-1 
0 32 0 0 32 0 0 32 32 1:-0.6 2:0.927763 3:-1 4:-1 5:-1 6:-1 8:-1 9:-1 10:-1 11:-1 12:-1 
0.05138491416110727 0.4312236912229751 0 0.1868755273323274 0.6302958311016793 0.1456609445368119 0 0.7507242762863333 0 1:-0.2 2:0.926987 3:-0.0240226 4:-0.0399508 5:-1 6:-1 8:0.956377 9:-0.836871 10:-1 11:-1 12:-1 
0 32 0 0 32 0 0 0 32 1:-0.6 2:0.926901 3:-1 4:-1 5:-1 6:-1 8:-1 9:-1 10:-1 11:-1 12:-1 
0 25.39868808065567 0 0 32 0 0 0 32 1:-0.6 2:0.926687 3:-1 4:-1 5:-1 6:-1 8:-1 9:-1 10:-1 11:-1 12:-1 
0 0 0 0 32 0 0 0 32 1:-0.6 2:0.926211 3:-1 4:-1 5:-1 6:-1 8:-1 9:-1 10:-1 11:-1 12:-1 
0 0 0 0 0 0 0 0 32 1:-0.2 2:0.925451 3:0.529046 4:0.4087 5:-1 6:-1 8:0.868418 9:-0.787762 10:-1 11:-1 12:-1 
0.07998758738739965 0.5567780653278916 0 0.2641505948121766 0 0.2198260379225364 0 0.08898865185519142 0 1:-0.2 2:0.925653 3:0.209185 4:0.175447 5:-1 6:-1 8:0.962575 9:-0.834988 10:-1 11:-1 12:-1 
0 32 0 0 32 0 0 32 32 1:-0.6 2:0.927693 3:-1 4:-1 5:-1 6:-1 8:-1 9:-1 10:-1 11:-1 12:-1 
0 32 0 0 32 0 0 0 32 1:-0.6 2:0.927305 3:-1 4:-1 5:-1 6:-1 8:-1 9:-1 10:-1 11:-1 12:-1 
0 32 0 0 32 0 0 0 32 1:-0.6 2:0.927425 3:-1 4:-1 5:-1 6:-1 8:-1 9:-1 10:-1 11:-1 12:-1 
0 32 0 0 32 0 0 32 32 1:-0.6 2:0.927893 3:-1 4:-1 5:-1 6:-1 8:-1 9:-1 10:-1 11:-1 12:-1 
0 0 7.724582928912477 0 0 0 0 0 0 1:-0.2 2:0.928261 3:0.142406 4:0.110813 5:-1 6:-1 8:0.970353 9:-0.837141 10:-1 11:-1 12:-1 
0 0 3.880586456344656 0 0 0 0 0 0 1:-0.2 2:0.928935 3:0.228215 4:0.170911 5:-1 6:-1 8:0.973568 9:-0.836488 10:-1 11:-1 12:-1 
0 32 0 0 32 0 0 32 32 1:-0.6 2:0.929513 3:-1 4:-1 5:-1 6:-1 8:-1 9:-1 10:-1 11:-1 12:-1 
0 32 0 0 32 0 0 32 32 1:-0.6 2:0.930311 3:-1 4:-1 5:-1 6:-1 8:-1 9:-1 10:-1 11:-1 12:-1 
0 32 0 0 32 0 0 32 32 1:-0.6 2:0.930527 3:-1 4:-1 5:-1 6:-1 8:-1 9:-1 10:-1 11:-1 12:-1 
0 32 0 0 32 0 0 32 32 1:-0.6 2:0.929931 3:-1 4:-1 5:-1 6:-1 8:-1 9:-1 10:-1 11:-1 12:-1 
0 32 0 0 32 0 0 32 32 1:-0.6 2:0.929005 3:-1 4:-1 5:-1 6:-1 8:-1 9:-1 10:-1 11:-1 12:-1 
0 0 0 0 0.399687268878333 0 0 0.9160018689085941 32 1:-0.2 2:0.927569 3:0.31537 4:0.241034 5:-1 6:-1 8:0.97395 9:-0.820833 10:-1 11:-1 12:-1 
0 32 0 0 32 0 0 32 32 1:-0.6 2:0.927833 3:-1 4:-1 5:-1 6:-1 8:-1 9:-1 10:-1 11:-1 12:-1 
0 0 0 0 0 0 0 0 2.385045532120498 1:-0.2 2:0.927651 3:0.251012 4:0.174157 5:-1 6:-1 8:0.972612 9:-0.81767 10:-1 11:-1 12:-1 
0 0 0 0 0 0 0 0 16.47831662554737 1:-0.2 2:0.928179 3:0.166539 4:0.102012 5:-1 6:-1 8:0.967379 9:-0.813494 10:-1 11:-1 12:-1 
0 32 0 0 32 0 0 0 32 1:-0.6 2:0.927345 3:-1 4:-1 5:-1 6:-1 8:-1 9:-1 10:-1 11:-1 12:-1 
0 0 0 0 0 0 0 0 32 1:-0.2 2:0.927353 3:0.141926 4:0.0782576 5:-1 6:-1 8:0.965871 9:-0.813328 10:-1 11:-1 12:-1 
0 32 0 0 32 0 0 0 32 1:-0.6 2:0.927399 3:-1 4:-1 5:-1 6:-1 8:-1 9:-1 10:-1 11:-1 12:-1 
0 32 0 0 32 0 0 0 32 1:-0.6 2:0.926903 3:-1 4:-1 5:-1 6:-1 8:-1 9:-1 10:-1 11:-1 12:-1 
0 0 0 0 32 0 0 0 32 1:-0.6 2:0.926131 3:-1 4:-1 5:-1 6:-1 8:-1 9:-1 10:-1 11:-1 12:-1 
0 0 0 0 32 0 0 0 32 1:-0.6 2:0.926283 3:-1 4:-1 5:-1 6:-1 8:-1 9:-1 10:-1 11:-1 12:-1 
0 0 0 0 32 0 0 0 32 1:-0.6 2:0.925959 3:-1 4:-1 5:-1 6:-1 8:-1 9:-1 10:-1 11:-1 12:-1 
0 0 0 0 32 0 0 0 32 1:-0.6 2:0.926111 3:-1 4:-1 5:-1 6:-1 8:-1 9:-1 10:-1 11:-1 12:-1 
0 0 0 0 32 0 0 0 32 1:-0.6 2:0.926233 3:-1 4:-1 5:-1 6:-1 8:-1 9:-1 10:-1 11:-1 12:-1 
0 0 0 0 32 0 0 0 32 1:-0.6 2:0.926541 3:-1 4:-1 5:-1 6:-1 8:-1 9:-1 10:-1 11:-1 12:-1 
0 32 0 0 32 0 0 0 32 1:-0.6 2:0.926985 3:-1 4:-1 5:-1 6:-1 8:-1 9:-1 10:-1 11:-1 12:-1 
0 32 0 0 32 0 0 0 32 1:-0.6 2:0.927497 3:-1 4:-1 5:-1 6:-1 8:-1 9:-1 10:-1 11:-1 12:-1 
0 32 0 0 32 0 0 32 32 1:-0.6 2:0.928027 3:-1 4:-1 5:-1 6:-1 8:-1 9:-1 10:-1 11:-1 12:-1 
0 32 0 0 32 0 0 32 32 1:-0.6 2:0.928587 3:-1 4:-1 5:-1 6:-1 8:-1 9:-1 10:-1 11:-1 12:-1 
0 32 0 0 32 0 0 32 32 1:-0.6 2:0.928249 3:-1 4:-1 5:-1 6:-1 8:-1 9:-1 10:-1 11:-1 12:-1 
0 32 0 0 32 0 0 12.63843725105851 32 1:-0.6 2:0.927565 3:-1 4:-1 5:-1 6:-1 8:-1 9:-1 10:-1 11:-1 12:-1 
0 32 0 0 32 0 0 0 32 1:-0.6 2:0.927023 3:-1 4:-1 5:-1 6:-1 8:-1 9:-1 10:-1 11:-1 12:-1 
0 32 0 0 32 0 0 0 32 1:-0.6 2:0.926953 3:-1 4:-1 5:-1 6:-1 8:-1 9:-1 10:-1 11:-1 12:-1 
0 0 0 0 32 0 0 0 32 1:-0.6 2:0.926513 3:-1 4:-1 5:-1 6:-1 8:-1 9:-1 10:-1 11:-1 12:-1 
0 0 0 0 32 0 0 0 32 1:-0.6 2:0.926049 3:-1 4:-1 5:-1 6:-1 8:-1 9:-1 10:-1 11:-1 12:-1 
0 0 0 0 32 0 0 0 32 1:-0.6 2:0.925227 3:-1 4:-1 5:-1 6:-1 8:-1 9:-1 10:-1 11:-1 12:-1 
0 0 0 0 32 0 0 0 32 1:-0.6 2:0.924629 3:-1 4:-1 5:-1 6:-1 8:-1 9:-1 10:-1 11:-1 12:-1 
0 0 0 0 32 0 0 0 32 1:-0.6 2:0.924211 3:-1 4:-1 5:-1 6:-1 8:-1 9:-1 10:-1 11:-1 12:-1 
0 0 0 0 32 0 0 0 32 1:-0.6 2:0.923805 3:-1 4:-1 5:-1 6:-1 8:-1 9:-1 10:-1 11:-1 12:-1 
0 0 0 0 32 0 0 0 32 1:-0.6 2:0.923299 3:-1 4:-1 5:-1 6:-1 8:-1 9:-1 10:-1 11:-1 12:-1 
0 0 0 0 32 0 0 0 0 1:-0.6 2:0.922333 3:-1 4:-1 5:-1 6:-1 8:-1 9:-1 10:-1 11:-1 12:-1 
0 0 0 0 32 0 0 0 0 1:-0.6 2:0.921911 3:-1 4:-1 5:-1 6:-1 8:-1 9:-1 10:-1 11:-1 12:-1 
0 0 0 0 32 0 0 0 0 1:-0.6 2:0.921039 3:-1 4:-1 5:-1 6:-1 8:-1 9:-1 10:-1 11:-1 12:-1 
0 0 0 0 32 0 0 0 0 1:-0.6 2:0.920227 3:-1 4:-1 5:-1 6:-1 8:-1 9:-1 10:-1 11:-1 12:-1 
0 0 0 0 32 0 0 0 0 1:-0.6 2:0.919665 3:-1 4:-1 5:-1 6:-1 8:-1 9:-1 10:-1 11:-1 12:-1 
0 0 0 0 32 0 0 0 0 1:-0.6 2:0.919487 3:-1 4:-1 5:-1 6:-1 8:-1 9:-1 10:-1 11:-1 12:-1 
0 0 0 0 32 0 0 0 0 1:-0.6 2:0.919745 3:-1 4:-1 5:-1 6:-1 8:-1 9:-1 10:-1 11:-1 12:-1 
0 0 0 0 32 0 0 0 0 1:-0.6 2:0.919899 3:-1 4:-1 5:-1 6:-1 8:-1 9:-1 10:-1 11:-1 12:-1 
0 0 0 0 32 0 0 0 0 1:-0.6 2:0.920067 3:-1 4:-1 5:-1 6:-1 8:-1 9:-1 10:-1 11:-1 12:-1 
0 0 0 0 32 0 0 0 0 1:-0.6 2:0.920143 3:-1 4:-1 5:-1 6:-1 8:-1 9:-1 10:-1 11:-1 12:-1 
0 0 0 0 32 0 0 0 0 1:-0.6 2:0.920121 3:-1 4:-1 5:-1 6:-1 8:-1 9:-1 10:-1 11:-1 12:-1 
0 0 0 0 32 0 0 0 0 1:-0.6 2:0.920011 3:-1 4:-1 5:-1 6:-1 8:-1 9:-1 10:-1 11:-1 12:-1 
0 0 0 0 32 0 0 0 0 1:-0.6 2:0.919833 3:-1 4:-1 5:-1 6:-1 8:-1 9:-1 10:-1 11:-1 12:-1 
0 0 0 0 32 0 0 0 0 1:-0.6 2:0.919901 3:-1 4:-1 5:-1 6:-1 8:-1 9:-1 10:-1 11:-1 12:-1 
0 0 0 0 32 0 0 0 0 1:-0.6 2:0.919801 3:-1 4:-1 5:-1 6:-1 8:-1 9:-1 10:-1 11:-1 12:-1 
0 0 0 0 32 0 0 0 0 1:-0.6 2:0.919581 3:-1 4:-1 5:-1 6:-1 8:-1 9:-1 10:-1 11:-1 12:-1 
0 0 0 0 32 0 0 0 0 1:-0.6 2:0.919609 3:-1 4:-1 5:-1 6:-1 8:-1 9:-1 10:-1 11:-1 12:-1 
0 0 0 0 32 0 0 0 0 1:-0.6 2:0.919825 3:-1 4:-1 5:-1 6:-1 8:-1 9:-1 10:-1 11:-1 12:-1 
0 0 0 0 32 0 0 0 0 1:-0.6 2:0.920005 3:-1 4:-1 5:-1 6:-1 8:-1 9:-1 10:-1 11:-1 12:-1 
0 0 0 0 32 0 0 0 0 1:-0.6 2:0.920301 3:-1 4:-1 5:-1 6:-1 8:-1 9:-1 10:-1 11:-1 12:-1 
0 0 0 0 32 0 0 0 0 1:-0.6 2:0.920889 3:-1 4:-1 5:-1 6:-1 8:-1 9:-1 10:-1 11:-1 12:-1 
0 0 0 0 32 0 0 0 0 1:-0.6 2:0.921183 3:-1 4:-1 5:-1 6:-1 8:-1 9:-1 10:-1 11:-1 12:-1 
0 0 0 0 32 0 0 0 0 1:-0.6 2:0.921573 3:-1 4:-1 5:-1 6:-1 8:-1 9:-1 10:-1 11:-1 12:-1 
0 0 0 0 32 0 0 0 0 1:-0.6 2:0.921599 3:-1 4:-1 5:-1 6:-1 8:-1 9:-1 10:-1 11:-1 12:-1 
0 0 0 0 32 0 0 0 0 1:-0.6 2:0.921823 3:-1 4:-1 5:-1 6:-1 8:-1 9:-1 10:-1 11:-1 12:-1 
0 0 0 0 32 0 0 0 0 1:-0.6 2:0.922195 3:-1 4:-1 5:-1 6:-1 8:-1 9:-1 10:-1 11:-1 12:-1 
0 0 0 0 32 0 0 0 0 1:-0.6 2:0.922695 3:-1 4:-1 5:-1 6:-1 8:-1 9:-1 10:-1 11:-1 12:-1 
0 0 0 0 32 0 0 0 32 1:-0.6 2:0.923059 3:-1 4:-1 5:-1 6:-1 8:-1 9:-1 10:-1 11:-1 12:-1 
0 0 0 0 32 0 0 0 32 1:-0.6 2:0.923325 3:-1 4:-1 5:-1 6:-1 8:-1 9:-1 10:-1 11:-1 12:-1 
0 0 0 0 32 0 0 0 32 1:-0.6 2:0.923779 3:-1 4:-1 5:-1 6:-1 8:-1 9:-1 10:-1 11:-1 12:-1 
0 0 0 0 32 0 0 0 32 1:-0.6 2:0.924119 3:-1 4:-1 5:-1 6:-1 8:-1 9:-1 10:-1 11:-1 12:-1 
0 0 0 0 32 0 0 0 32 1:-0.6 2:0.924299 3:-1 4:-1 5:-1 6:-1 8:-1 9:-1 10:-1 11:-1 12:-1 
0 0 0 0 32 0 0 0 32 1:-0.6 2:0.924705 3:-1 4:-1 5:-1 6:-1 8:-1 9:-1 10:-1 11:-1 12:-1 
0 0 0 0 32 0 0 0 32 1:-0.6 2:0.924951 3:-1 4:-1 5:-1 6:-1 8:-1 9:-1 10:-1 11:-1 12:-1 
0 0 0 0 32 0 0 0 32 1:-0.6 2:0.924925 3:-1 4:-1 5:-1 6:-1 8:-1 9:-1 10:-1 11:-1 12:-1 
0 0 0 0 32 0 0 0 32 1:-0.6 2:0.924927 3:-1 4:-1 5:-1 6:-1 8:-1 9:-1 10:-1 11:-1 12:-1 
0 0 0 0 32 0 0 0 32 1:-0.6 2:0.925043 3:-1 4:-1 5:-1 6:-1 8:-1 9:-1 10:-1 11:-1 12:-1 
0 0 0 0 32 0 0 0 32 1:-0.6 2:0.925107 3:-1 4:-1 5:-1 6:-1 8:-1 9:-1 10:-1 11:-1 12:-1 
0 0 0 0 32 0 0 0 32 1:-0.6 2:0.925467 3:-1 4:-1 5:-1 6:-1 8:-1 9:-1 10:-1 11:-1 12:-1 
0 0 0 0 32 0 0 0 32 1:-0.6 2:0.925597 3:-1 4:-1 5:-1 6:-1 8:-1 9:-1 10:-1 11:-1 12:-1 
0 0 0 0 32 0 0 0 32 1:-0.6 2:0.925755 3:-1 4:-1 5:-1 6:-1 8:-1 9:-1 10:-1 11:-1 12:-1 
0 0 0 0 32 0 0 0 32 1:-0.6 2:0.925975 3:-1 4:-1 5:-1 6:-1 8:-1 9:-1 10:-1 11:-1 12:-1 
0 0 0 0 32 0 0 0 32 1:-0.6 2:0.926127 3:-1 4:-1 5:-1 6:-1 8:-1 9:-1 10:-1 11:-1 12:-1 
0 0 0 0 32 0 0 0 32 1:-0.6 2:0.926157 3:-1 4:-1 5:-1 6:-1 8:-1 9:-1 10:-1 11:-1 12:-1 
0 0 0 0 32 0 0 0 32 1:-0.6 2:0.926137 3:-1 4:-1 5:-1 6:-1 8:-1 9:-1 10:-1 11:-1 12:-1 
0 0 0 0 32 0 0 0 32 1:-0.6 2:0.926213 3:-1 4:-1 5:-1 6:-1 8:-1 9:-1 10:-1 11:-1 12:-1 
0 0 0 0 32 0 0 0 32 1:-0.6 2:0.926269 3:-1 4:-1 5:-1 6:-1 8:-1 9:-1 10:-1 11:-1 12:-1 
0 0 0 0 32 0 0 0 32 1:-0.6 2:0.926275 3:-1 4:-1 5:-1 6:-1 8:-1 9:-1 10:-1 11:-1 12:-1 
0 0 0 0 32 0 0 0 32 1:-0.6 2:0.926341 3:-1 4:-1 5:-1 6:-1 8:-1 9:-1 10:-1 11:-1 12:-1 
0 0 0 0 32 0 0 0 32 1:-0.6 2:0.926289 3:-1 4:-1 5:-1 6:-1 8:-1 9:-1 10:-1 11:-1 12:-1 
0 0 0 0 32 0 0 0 32 1:-0.6 2:0.926125 3:-1 4:-1 5:-1 6:-1 8:-1 9:-1 10:-1 11:-1 12:-1 
0 0 0 0 32 0 0 0 32 1:-0.6 2:0.925829 3:-1 4:-1 5:-1 6:-1 8:-1 9:-1 10:-1 11:-1 12:-1 
0 0 0 0 32 0 0 0 32 1:-0.6 2:0.925385 3:-1 4:-1 5:-1 6:-1 8:-1 9:-1 10:-1 11:-1 12:-1 
0 0 0 0 32 0 0 0 32 1:-0.6 2:0.924969 3:-1 4:-1 5:-1 6:-1 8:-1 9:-1 10:-1 11:-1 12:-1 
0 0 0 0 32 0 0 0 32 1:-0.6 2:0.924591 3:-1 4:-1 5:-1 6:-1 8:-1 9:-1 10:-1 11:-1 12:-1 
0 0 0 0 32 0 0 0 32 1:-0.6 2:0.924389 3:-1 4:-1 5:-1 6:-1 8:-1 9:-1 10:-1 11:-1 12:-1 
0 0 0 0 32 0 0 0 32 1:-0.6 2:0.924145 3:-1 4:-1 5:-1 6:-1 8:-1 9:-1 10:-1 11:-1 12:-1 
0 0 0 0 32 0 0 0 32 1:-0.6 2:0.923925 3:-1 4:-1 5:-1 6:-1 8:-1 9:-1 10:-1 11:-1 12:-1 
0 0 0 0 32 0 0 0 32 1:-0.6 2:0.923857 3:-1 4:-1 5:-1 6:-1 8:-1 9:-1 10:-1 11:-1 12:-1 
0 0 0 0 32 0 0 0 32 1:-0.6 2:0.923775 3:-1 4:-1 5:-1 6:-1 8:-1 9:-1 10:-1 11:-1 12:-1 
0 0 0 0 32 0 0 0 32 1:-0.6 2:0.923279 3:-1 4:-1 5:-1 6:-1 8:-1 9:-1 10:-1 11:-1 12:-1 
0 0 0 0 32 0 0 0 32 1:-0.6 2:0.923475 3:-1 4:-1 5:-1 6:-1 8:-1 9:-1 10:-1 11:-1 12:-1 
0 0 0 0 32 0 0 0 0 1:-0.6 2:0.922969 3:-1 4:-1 5:-1 6:-1 8:-1 9:-1 10:-1 11:-1 12:-1 
0 0 0 0 32 0 0 0 0 1:-0.6 2:0.922405 3:-1 4:-1 5:-1 6:-1 8:-1 9:-1 10:-1 11:-1 12:-1 
0 0 0 0 32 0 0 0 0 1:-0.6 2:0.922005 3:-1 4:-1 5:-1 6:-1 8:-1 9:-1 10:-1 11:-1 12:-1 
0 0 0 0 32 0 0 0 0 1:-0.6 2:0.921187 3:-1 4:-1 5:-1 6:-1 8:-1 9:-1 10:-1 11:-1 12:-1 
0 0 0 0 32 0 0 0 0 1:-0.6 2:0.920455 3:-1 4:-1 5:-1 6:-1 8:-1 9:-1 10:-1 11:-1 12:-1 
0 0 0 0 32 0 0 0 0 1:-0.6 2:0.919773 3:-1 4:-1 5:-1 6:-1 8:-1 9:-1 10:-1 11:-1 12:-1 
0 0 0 0 32 0 0 0 0 1:-0.6 2:0.918895 3:-1 4:-1 5:-1 6:-1 8:-1 9:-1 10:-1 11:-1 12:-1 
0 0 0 0 32 0 0 0 0 1:-0.6 2:0.918083 3:-1 4:-1 5:-1 6:-1 8:-1 9:-1 10:-1 11:-1 12:-1 
0 0 0 0 32 0 0 0 0 1:-0.6 2:0.917123 3:-1 4:-1 5:-1 6:-1 8:-1 9:-1 10:-1 11:-1 12:-1 
0 0 0 0 32 0 0 0 0 1:-0.6 2:0.916023 3:-1 4:-1 5:-1 6:-1 8:-1 9:-1 10:-1 11:-1 12:-1 
0 0 0 0 32 0 0 0 0 1:-0.6 2:0.914673 3:-1 4:-1 5:-1 6:-1 8:-1 9:-1 10:-1 11:-1 12:-1 
0 0 0 0 32 0 0 0 0 1:-0.6 2:0.912865 3:-1 4:-1 5:-1 6:-1 8:-1 9:-1 10:-1 11:-1 12:-1 
0 0 0 0 32 0 0 0 0 1:-0.6 2:0.912165 3:-1 4:-1 5:-1 6:-1 8:-1 9:-1 10:-1 11:-1 12:-1 
0 0 0 0 32 0 0 0 0 1:-0.6 2:0.913893 3:-1 4:-1 5:-1 6:-1 8:-1 9:-1 10:-1 11:-1 12:-1 
0 0 0 0 32 0 0 0 0 1:-0.6 2:0.914845 3:-1 4:-1 5:-1 6:-1 8:-1 9:-1 10:-1 11:-1 12:-1 
0 0 0 0 32 0 0 0 0 1:-0.6 2:0.918781 3:-1 4:-1 5:-1 6:-1 8:-1 9:-1 10:-1 11:-1 12:-1 
0 0 0 0 32 0 0 0 0 1:-0.6 2:0.921547 3:-1 4:-1 5:-1 6:-1 8:-1 9:-1 10:-1 11:-1 12:-1 
0 0 0 0 32 0 0 0 0 1:-0.6 2:0.922765 3:-1 4:-1 5:-1 6:-1 8:-1 9:-1 10:-1 11:-1 12:-1 
0 32 0 0 32 0 0 0 32 1:-0.6 2:0.926787 3:-1 4:-1 5:-1 6:-1 8:-1 9:-1 10:-1 11:-1 12:-1 
0 32 0 0 32 0 0 32 32 1:-0.6 2:0.927667 3:-1 4:-1 5:-1 6:-1 8:-1 9:-1 10:-1 11:-1 12:-1 
0 32 0 0 32 0 0 32 32 1:-0.6 2:0.930297 3:-1 4:-1 5:-1 6:-1 8:-1 9:-1 10:-1 11:-1 12:-1 
0 32 0 0 32 0 0 32 32 1:-0.6 2:0.934223 3:-1 4:-1 5:-1 6:-1 8:-1 9:-1 10:-1 11:-1 12:-1 
0 0 0 0 0.1648478346663301 0 0 0.1564089983848729 2.976894949681081 1:-0.2 2:0.936991 3:0.154144 4:0.000103061 5:-1 6:-1 8:0.842973 9:-0.809481 10:-1 11:-1 12:-1 
0 32 0 0 32 32 0 32 32 1:-0.6 2:0.938745 3:-1 4:-1 5:-1 6:-1 8:-1 9:-1 10:-1 11:-1 12:-1 
0 32 32 32 32 32 0 32 32 1:-0.6 2:0.947507 3:-1 4:-1 5:-1 6:-1 8:-1 9:-1 10:-1 11:-1 12:-1 
0 32 32 32 32 32 0 32 32 1:-0.6 2:0.949143 3:-1 4:-1 5:-1 6:-1 8:-1 9:-1 10:-1 11:-1 12:-1 
0 32 32 32 32 32 0 32 32 1:-0.6 2:0.949841 3:-1 4:-1 5:-1 6:-1 8:-1 9:-1 10:-1 11:-1 12:-1 
0 32 32 32 32 32 0 32 32 1:-0.6 2:0.949079 3:-1 4:-1 5:-1 6:-1 8:-1 9:-1 10:-1 11:-1 12:-1 
29.60961299545915 32 32 32 32 32 0 32 32 1:-0.6 2:0.950587 3:-1 4:-1 5:-1 6:-1 8:-1 9:-1 10:-1 11:-1 12:-1 
32 32 32 32 32 32 0 32 32 1:-0.6 2:0.951121 3:-1 4:-1 5:-1 6:-1 8:-1 9:-1 10:-1 11:-1 12:-1 
0 32 32 32 32 32 0 32 32 1:-0.6 2:0.949741 3:-1 4:-1 5:-1 6:-1 8:-1 9:-1 10:-1 11:-1 12:-1 
0 32 32 32 32 32 0 32 32 1:-0.6 2:0.947983 3:-1 4:-1 5:-1 6:-1 8:-1 9:-1 10:-1 11:-1 12:-1 
0 32 32 32 32 32 0 32 32 1:-0.6 2:0.945419 3:-1 4:-1 5:-1 6:-1 8:-1 9:-1 10:-1 11:-1 12:-1 
0 32 32 4.553800242724457 32 32 0 32 32 1:-0.6 2:0.942921 3:-1 4:-1 5:-1 6:-1 8:-1 9:-1 10:-1 11:-1 12:-1 
0 32 29.04159636324302 0 32 32 0 32 32 1:-0.6 2:0.939683 3:-1 4:-1 5:-1 6:-1 8:-1 9:-1 10:-1 11:-1 12:-1 
0 32 0 0 32 32 0 32 32 1:-0.6 2:0.935355 3:-1 4:-1 5:-1 6:-1 8:-1 9:-1 10:-1 11:-1 12:-1 
0 32 0 0 32 0 0 32 32 1:-0.6 2:0.932125 3:-1 4:-1 5:-1 6:-1 8:-1 9:-1 10:-1 11:-1 12:-1 
0 32 0 0 32 0 0 32 32 1:-0.6 2:0.929235 3:-1 4:-1 5:-1 6:-1 8:-1 9:-1 10:-1 11:-1 12:-1 
0 0 0 0 32 0 0 0 32 1:-0.6 2:0.925341 3:-1 4:-1 5:-1 6:-1 8:-1 9:-1 10:-1 11:-1 12:-1 
0 0 0 0 32 0 0 0 0 1:-0.6 2:0.922139 3:-1 4:-1 5:-1 6:-1 8:-1 9:-1 10:-1 11:-1 12:-1 
0 0 0 0 32 0 0 0 0 1:-0.6 2:0.918569 3:-1 4:-1 5:-1 6:-1 8:-1 9:-1 10:-1 11:-1 12:-1 
0 0 0 0 32 0 0 0 0 1:-0.6 2:0.915677 3:-1 4:-1 5:-1 6:-1 8:-1 9:-1 10:-1 11:-1 12:-1 
0 0 0 0 32 0 0 0 0 1:-0.6 2:0.913079 3:-1 4:-1 5:-1 6:-1 8:-1 9:-1 10:-1 11:-1 12:-1 
0 0 0 0 0 0 0 32 0 1:-0.6 2:0.871644 3:-1 4:-1 5:-1 6:-1 8:-1 9:-1 10:-1 11:-1 12:-1 
0 0 0 0 0 0 0 21.82630687735365 0 1:-0.6 2:0.871872 3:-1 4:-1 5:-1 6:-1 8:-1 9:-1 10:-1 11:-1 12:-1 
0 0 0 0 0 0 0 32 0 1:-0.6 2:0.871494 3:-1 4:-1 5:-1 6:-1 8:-1 9:-1 10:-1 11:-1 12:-1 
0 0 0 0 0 0 0 32 0 1:-0.6 2:0.871758 3:-1 4:-1 5:-1 6:-1 8:-1 9:-1 10:-1 11:-1 12:-1 
0.06113222638298709 0.9431030376995941 0.5340727858067804 0.1659330969174846 0.5945815131987396 0.172009430935176 0.1711526867037311 3.532130823723755 1.32493065366676 1:-0.2 2:0.902135 3:0.798306 4:0.63406 5:-1 6:-1 8:0.924775 9:0.222664 10:-1 11:-1 12:-1 
0 0 0 0 0 0 0 1.124490173691254 0 1:-0.2 2:0.972296 3:0.95697 4:0.908976 5:-1 6:-1 8:0.931909 9:0.249663 10:-1 11:-1 12:-1 
0.03776906016198554 0.1913103586798104 0.3467267839932654 0.1464164601344956 0.601915626140793 0.10720066757052 0.09583524099622348 0.3620436869588156 1.51694944291174 1:-0.2 2:0.989234 3:0.959979 4:0.909826 5:-1 6:-1 8:0.926275 9:0.24981 10:-1 11:-1 12:-1 
0 0 0 0 32 0 0 0 0 1:-0.6 2:0.914275 3:-1 4:-1 5:-1 6:-1 8:-1 9:-1 10:-1 11:-1 12:-1 
0 0 0 0 32 0 0 0 0 1:-0.6 2:0.915723 3:-1 4:-1 5:-1 6:-1 8:-1 9:-1 10:-1 11:-1 12:-1 
0 0 0 0 32 0 0 0 0 1:-0.6 2:0.917135 3:-1 4:-1 5:-1 6:-1 8:-1 9:-1 10:-1 11:-1 12:-1 
0 0 0 0 32 0 0 0 0 1:-0.6 2:0.919447 3:-1 4:-1 5:-1 6:-1 8:-1 9:-1 10:-1 11:-1 12:-1 
0 0 0 0 32 0 0 0 0 1:-0.6 2:0.919997 3:-1 4:-1 5:-1 6:-1 8:-1 9:-1 10:-1 11:-1 12:-1 
0 0 0 0 32 0 0 0 0 1:-0.6 2:0.922271 3:-1 4:-1 5:-1 6:-1 8:-1 9:-1 10:-1 11:-1 12:-1 
0 0 0 0 32 0 0 0 32 1:-0.6 2:0.923757 3:-1 4:-1 5:-1 6:-1 8:-1 9:-1 10:-1 11:-1 12:-1 
0 0 0 0 32 0 0 0 32 1:-0.6 2:0.924227 3:-1 4:-1 5:-1 6:-1 8:-1 9:-1 10:-1 11:-1 12:-1 
0 0 0 0 32 0 0 0 32 1:-0.6 2:0.925141 3:-1 4:-1 5:-1 6:-1 8:-1 9:-1 10:-1 11:-1 12:-1 
0 0 0 0 32 0 0 0 32 1:-0.6 2:0.925063 3:-1 4:-1 5:-1 6:-1 8:-1 9:-1 10:-1 11:-1 12:-1 
0 0 0 0 32 0 0 0 32 1:-0.6 2:0.924851 3:-1 4:-1 5:-1 6:-1 8:-1 9:-1 10:-1 11:-1 12:-1 
0 0 0 0 32 0 0 0 32 1:-0.6 2:0.924335 3:-1 4:-1 5:-1 6:-1 8:-1 9:-1 10:-1 11:-1 12:-1 
0 0 0 0 32 0 0 0 32 1:-0.6 2:0.923319 3:-1 4:-1 5:-1 6:-1 8:-1 9:-1 10:-1 11:-1 12:-1 
0 0 0 0 32 0 0 0 0 1:-0.6 2:0.922119 3:-1 4:-1 5:-1 6:-1 8:-1 9:-1 10:-1 11:-1 12:-1 
0 0 0 0 32 0 0 0 0 1:-0.6 2:0.919919 3:-1 4:-1 5:-1 6:-1 8:-1 9:-1 10:-1 11:-1 12:-1 
0 0 0 0 32 0 0 0 0 1:-0.6 2:0.919133 3:-1 4:-1 5:-1 6:-1 8:-1 9:-1 10:-1 11:-1 12:-1 
0 0 0 0 32 0 0 0 0 1:-0.6 2:0.918315 3:-1 4:-1 5:-1 6:-1 8:-1 9:-1 10:-1 11:-1 12:-1 
0 0 0 0 32 0 0 0 0 1:-0.6 2:0.917545 3:-1 4:-1 5:-1 6:-1 8:-1 9:-1 10:-1 11:-1 12:-1 
0 0 0 0 32 0 0 0 0 1:-0.6 2:0.916833 3:-1 4:-1 5:-1 6:-1 8:-1 9:-1 10:-1 11:-1 12:-1 
0 0 0 0 32 0 0 0 0 1:-0.6 2:0.916241 3:-1 4:-1 5:-1 6:-1 8:-1 9:-1 10:-1 11:-1 12:-1 
0 0 0 0 32 0 0 0 0 1:-0.6 2:0.915417 3:-1 4:-1 5:-1 6:-1 8:-1 9:-1 10:-1 11:-1 12:-1 
0 0 0 0 32 0 0 0 0 1:-0.6 2:0.913731 3:-1 4:-1 5:-1 6:-1 8:-1 9:-1 10:-1 11:-1 12:-1 
0 0 0 0 32 0 0 0 0 1:-0.6 2:0.913139 3:-1 4:-1 5:-1 6:-1 8:-1 9:-1 10:-1 11:-1 12:-1 
0 0 0 0 0 0 0 32 0 1:-0.6 2:0.870938 3:-1 4:-1 5:-1 6:-1 8:-1 9:-1 10:-1 11:-1 12:-1 
0 0 0 0 0 0 0 32 0 1:-0.6 2:0.869502 3:-1 4:-1 5:-1 6:-1 8:-1 9:-1 10:-1 11:-1 12:-1 
0 0 0 0 0 0 0 32 0 1:-0.6 2:0.8686 3:-1 4:-1 5:-1 6:-1 8:-1 9:-1 10:-1 11:-1 12:-1 
0 0 0 0 0 0 0 32 32 1:-0.6 2:0.867676 3:-1 4:-1 5:-1 6:-1 8:-1 9:-1 10:-1 11:-1 12:-1 
0 0 0 0 0 0 0 32 32 1:-0.6 2:0.866964 3:-1 4:-1 5:-1 6:-1 8:-1 9:-1 10:-1 11:-1 12:-1 
0 0 0 0 0 0 0 32 32 1:-0.6 2:0.866278 3:-1 4:-1 5:-1 6:-1 8:-1 9:-1 10:-1 11:-1 12:-1 
0 0 0 0 0 0 0 32 32 1:-0.6 2:0.865464 3:-1 4:-1 5:-1 6:-1 8:-1 9:-1 10:-1 11:-1 12:-1 
0 0 0 0 0 0 0 32 32 1:-0.6 2:0.864836 3:-1 4:-1 5:-1 6:-1 8:-1 9:-1 10:-1 11:-1 12:-1 
0 0 0 0 0 0 0 32 32 1:-0.6 2:0.864012 3:-1 4:-1 5:-1 6:-1 8:-1 9:-1 10:-1 11:-1 12:-1 
0 0 0 0 0 0 0 32 32 1:-0.6 2:0.863176 3:-1 4:-1 5:-1 6:-1 8:-1 9:-1 10:-1 11:-1 12:-1 
0 0 0 0 0 0 0 32 32 1:-0.6 2:0.86248 3:-1 4:-1 5:-1 6:-1 8:-1 9:-1 10:-1 11:-1 12:-1 
0 0 0 0 0 0 0 32 32 1:-0.6 2:0.861892 3:-1 4:-1 5:-1 6:-1 8:-1 9:-1 10:-1 11:-1 12:-1 
0 0 0 0 0 9.824737259998974 0 32 32 1:-0.6 2:0.861298 3:-1 4:-1 5:-1 6:-1 8:-1 9:-1 10:-1 11:-1 12:-1 
0 0 32 0 0 0 0 0 1.409102119881875 1:-0.2 2:0.86099 3:0.372656 4:0.0696144 5:-1 6:-1 8:0.974574 9:-0.804949 10:-1 11:-1 12:-1 
0 0 0 0 0 32 0 32 32 1:-0.6 2:0.86037 3:-1 4:-1 5:-1 6:-1 8:-1 9:-1 10:-1 11:-1 12:-1 
0 0 0 0 0 32 0 32 32 1:-0.6 2:0.86025 3:-1 4:-1 5:-1 6:-1 8:-1 9:-1 10:-1 11:-1 12:-1 
0 0 0 0 0 32 0 32 32 1:-0.6 2:0.860628 3:-1 4:-1 5:-1 6:-1 8:-1 9:-1 10:-1 11:-1 12:-1 
0 0 0 0 0 32 0 32 32 1:-0.6 2:0.860334 3:-1 4:-1 5:-1 6:-1 8:-1 9:-1 10:-1 11:-1 12:-1 
0 0 32 32 0 32 32 32 32 1:-0.6 2:0.85437 3:-1 4:-1 5:-1 6:-1 8:-1 9:-1 10:-1 11:-1 12:-1 
0 32 32 32 32 32 32 32 32 1:-0.6 2:0.85098 3:-1 4:-1 5:-1 6:-1 8:-1 9:-1 10:-1 11:-1 12:-1 
0 32 32 32 32 32 32 32 32 1:-0.6 2:0.851636 3:-1 4:-1 5:-1 6:-1 8:-1 9:-1 10:-1 11:-1 12:-1 
0 22.09510910606075 32 32 32 32 32 32 32 1:-0.6 2:0.852554 3:-1 4:-1 5:-1 6:-1 8:-1 9:-1 10:-1 11:-1 12:-1 
0 0 32 32 32 32 32 32 32 1:-0.6 2:0.853108 3:-1 4:-1 5:-1 6:-1 8:-1 9:-1 10:-1 11:-1 12:-1 
0 0 32 32 32 32 32 32 32 1:-0.6 2:0.854038 3:-1 4:-1 5:-1 6:-1 8:-1 9:-1 10:-1 11:-1 12:-1 
0 0 3.469029691654772 32 0 32 32 32 32 1:-0.6 2:0.854876 3:-1 4:-1 5:-1 6:-1 8:-1 9:-1 10:-1 11:-1 12:-1 
0 0 0 32 0 32 32 32 32 1:-0.6 2:0.855864 3:-1 4:-1 5:-1 6:-1 8:-1 9:-1 10:-1 11:-1 12:-1 
0 0 0 0 0 32 32 32 32 1:-0.6 2:0.856668 3:-1 4:-1 5:-1 6:-1 8:-1 9:-1 10:-1 11:-1 12:-1 
0 0 32 32 22.97238038043532 32 32 32 32 1:-0.6 2:0.85405 3:-1 4:-1 5:-1 6:-1 8:-1 9:-1 10:-1 11:-1 12:-1 
0 0 32 32 0 32 32 32 32 1:-0.6 2:0.854448 3:-1 4:-1 5:-1 6:-1 8:-1 9:-1 10:-1 11:-1 12:-1 
0 0 0 32 0 32 32 32 32 1:-0.6 2:0.855404 3:-1 4:-1 5:-1 6:-1 8:-1 9:-1 10:-1 11:-1 12:-1 
0 0 0 18.97366818031729 0 32 32 32 32 1:-0.6 2:0.856622 3:-1 4:-1 5:-1 6:-1 8:-1 9:-1 10:-1 11:-1 12:-1 
0 0 0 32 0 32 32 32 32 1:-0.6 2:0.856372 3:-1 4:-1 5:-1 6:-1 8:-1 9:-1 10:-1 11:-1 12:-1 
0 0 0 0 0 32 32 32 32 1:-0.6 2:0.85667 3:-1 4:-1 5:-1 6:-1 8:-1 9:-1 10:-1 11:-1 12:-1 
0 0 0 0 0 32 32 32 32 1:-0.6 2:0.857424 3:-1 4:-1 5:-1 6:-1 8:-1 9:-1 10:-1 11:-1 12:-1 
0 0 0 32 0 32 32 32 32 1:-0.6 2:0.855686 3:-1 4:-1 5:-1 6:-1 8:-1 9:-1 10:-1 11:-1 12:-1 
0 0 0 32 0 32 32 32 32 1:-0.6 2:0.856582 3:-1 4:-1 5:-1 6:-1 8:-1 9:-1 10:-1 11:-1 12:-1 
0 0 0 0 0 32 6.996429267261543 32 32 1:-0.6 2:0.858086 3:-1 4:-1 5:-1 6:-1 8:-1 9:-1 10:-1 11:-1 12:-1 
32 32 32 32 32 32 32 32 32 1:-1 2:-1 3:-1 4:-1 5:-1 6:-1 8:-1 9:-1 10:-1 11:-1 12:-1 
32 32 32 32 32 32 32 32 32 1:-1 2:-1 3:-1 4:-1 5:-1 6:-1 8:-1 9:-1 10:-1 11:-1 12:-1 
32 32 32 32 32 32 32 32 32 1:-1 2:-1 3:-1 4:-1 5:-1 6:-1 8:-1 9:-1 10:-1 11:-1 12:-1 
0 0 0 0 0 0 0 32 32 1:-0.6 2:0.864312 3:-1 4:-1 5:-1 6:-1 8:-1 9:-1 10:-1 11:-1 12:-1 
0 0 0 0 0 0 0 32 32 1:-0.6 2:0.865414 3:-1 4:-1 5:-1 6:-1 8:-1 9:-1 10:-1 11:-1 12:-1 
0 0 0 0 0 0 0 32 32 1:-0.6 2:0.866196 3:-1 4:-1 5:-1 6:-1 8:-1 9:-1 10:-1 11:-1 12:-1 
0 0 0 0 0 32 0 32 32 1:-0.6 2:0.860042 3:-1 4:-1 5:-1 6:-1 8:-1 9:-1 10:-1 11:-1 12:-1 
0 0 0 0 0 32 0 32 32 1:-0.6 2:0.861178 3:-1 4:-1 5:-1 6:-1 8:-1 9:-1 10:-1 11:-1 12:-1 
0 0 0 0 0 0 0 32 32 1:-0.6 2:0.862136 3:-1 4:-1 5:-1 6:-1 8:-1 9:-1 10:-1 11:-1 12:-1 
0 0 0 0 0 0 0 32 32 1:-0.6 2:0.863402 3:-1 4:-1 5:-1 6:-1 8:-1 9:-1 10:-1 11:-1 12:-1 
0 0 0 0 0 32 0 32 32 1:-0.6 2:0.861002 3:-1 4:-1 5:-1 6:-1 8:-1 9:-1 10:-1 11:-1 12:-1 
0 0 0 0 0 0 0 32 32 1:-0.6 2:0.86273 3:-1 4:-1 5:-1 6:-1 8:-1 9:-1 10:-1 11:-1 12:-1 
0 0 0 0 0 0 0 32 0 1:-0.6 2:0.870508 3:-1 4:-1 5:-1 6:-1 8:-1 9:-1 10:-1 11:-1 12:-1 
0.05234272975850811 0.7142270011040289 0.8293609317264435 0.6321401493299266 0.8589050999723552 0.1492578876735744 0.1321021217775511 0 4.798323433032873 1:-0.2 2:0.883028 3:0.325313 4:0.262047 5:-1 6:-1 8:0.726771 9:-0.033442 10:-1 11:-1 12:-1 
0.07543471205119676 0.4060464326241052 9.469992136246454 0 1.185545083116381 0.2008396723709856 0.2565924035619847 0.04434061652170987 6.820175083407417 1:-0.2 2:0.880818 3:0.236676 4:0.103623 5:-1 6:-1 8:0.722701 9:-0.0273716 10:-1 11:-1 12:-1 
0.0438667461014954 0.1525931664474192 2.267964493002498 0.2090202854502168 0.5448662502837891 0.12683346238051 0 2.387033627314303 32 1:-0.2 2:0.88053 3:0.0623626 4:-0.138051 5:-1 6:-1 8:0.725397 9:-0.0304966 10:-1 11:-1 12:-1 
0.1424828505420553 1.613431279415285 2.496645194642909 0.554661547391613 2.126885403018687 0.3897064081661091 0.5440683807624423 3.502416992829505 17.81726448006454 1:-0.2 2:0.87942 3:-0.118596 4:-0.398112 5:-1 6:-1 8:0.722859 9:-0.0286575 10:-1 11:-1 12:-1 
0 0 0 0 0 0 0 32 32 1:-0.6 2:0.867254 3:-1 4:-1 5:-1 6:-1 8:-1 9:-1 10:-1 11:-1 12:-1 
0 0 0 0 0 0 0 32 32 1:-0.6 2:0.866618 3:-1 4:-1 5:-1 6:-1 8:-1 9:-1 10:-1 11:-1 12:-1 
0 0 0 0 0 0 0 32 32 1:-0.6 2:0.865978 3:-1 4:-1 5:-1 6:-1 8:-1 9:-1 10:-1 11:-1 12:-1 
0 0 0 0 0 0 0 32 32 1:-0.6 2:0.86578 3:-1 4:-1 5:-1 6:-1 8:-1 9:-1 10:-1 11:-1 12:-1 
0 0 0 0 0 0 0 32 32 1:-0.6 2:0.865726 3:-1 4:-1 5:-1 6:-1 8:-1 9:-1 10:-1 11:-1 12:-1 
0 0 0 0 0 0 0 32 32 1:-0.6 2:0.865724 3:-1 4:-1 5:-1 6:-1 8:-1 9:-1 10:-1 11:-1 12:-1 
0 0 0 0 0 0 0 32 32 1:-0.6 2:0.866004 3:-1 4:-1 5:-1 6:-1 8:-1 9:-1 10:-1 11:-1 12:-1 
0 0 0 0 0 0 0 32 32 1:-0.6 2:0.866518 3:-1 4:-1 5:-1 6:-1 8:-1 9:-1 10:-1 11:-1 12:-1 
0 0 0 0 0 0 0 32 32 1:-0.6 2:0.867198 3:-1 4:-1 5:-1 6:-1 8:-1 9:-1 10:-1 11:-1 12:-1 
0 0 0 0 0 0 0 32 32 1:-0.6 2:0.867942 3:-1 4:-1 5:-1 6:-1 8:-1 9:-1 10:-1 11:-1 12:-1 
0 0 0 0 0 0 0 32 0 1:-0.6 2:0.868816 3:-1 4:-1 5:-1 6:-1 8:-1 9:-1 10:-1 11:-1 12:-1 
0 0 0 0 0 0 0 32 0 1:-0.6 2:0.86942 3:-1 4:-1 5:-1 6:-1 8:-1 9:-1 10:-1 11:-1 12:-1 
0 0 0 0 0 0 0 32 0 1:-0.6 2:0.869898 3:-1 4:-1 5:-1 6:-1 8:-1 9:-1 10:-1 11:-1 12:-1 
0 0 0 0 0 0 0 32 0 1:-0.6 2:0.870628 3:-1 4:-1 5:-1 6:-1 8:-1 9:-1 10:-1 11:-1 12:-1 
0 0 0 0 0 0 0 32 0 1:-0.6 2:0.871258 3:-1 4:-1 5:-1 6:-1 8:-1 9:-1 10:-1 11:-1 12:-1 
0 0 0 0 0 0 0 32 0 1:-0.6 2:0.871852 3:-1 4:-1 5:-1 6:-1 8:-1 9:-1 10:-1 11:-1 12:-1 
0 0 0 0 0 0 0 32 0 1:-0.6 2:0.870554 3:-1 4:-1 5:-1 6:-1 8:-1 9:-1 10:-1 11:-1 12:-1 
0 0 0 0 0 0 0 32 0 1:-0.6 2:0.868972 3:-1 4:-1 5:-1 6:-1 8:-1 9:-1 10:-1 11:-1 12:-1 
0 0 0 0 0 0 0 32 32 1:-0.6 2:0.867382 3:-1 4:-1 5:-1 6:-1 8:-1 9:-1 10:-1 11:-1 12:-1 
0 0 0 0 0 0 0 32 32 1:-0.6 2:0.866398 3:-1 4:-1 5:-1 6:-1 8:-1 9:-1 10:-1 11:-1 12:-1 
0 0 0 0 0 0 0 32 32 1:-0.6 2:0.865232 3:-1 4:-1 5:-1 6:-1 8:-1 9:-1 10:-1 11:-1 12:-1 
0 0 0 0 0 0 0 32 32 1:-0.6 2:0.86519 3:-1 4:-1 5:-1 6:-1 8:-1 9:-1 10:-1 11:-1 12:-1 
0 0 0 0 0 0 0 32 32 1:-0.6 2:0.866212 3:-1 4:-1 5:-1 6:-1 8:-1 9:-1 10:-1 11:-1 12:-1 
0 0 0 0 0 0 0 32 32 1:-0.6 2:0.867698 3:-1 4:-1 5:-1 6:-1 8:-1 9:-1 10:-1 11:-1 12:-1 
0 0 0 0 0 0 0 32 0 1:-0.6 2:0.869642 3:-1 4:-1 5:-1 6:-1 8:-1 9:-1 10:-1 11:-1 12:-1 
0.09678216116373062 0.6558149776257221 6.929801608430711 0.3068741103629253 1.544618864171065 0.2681368709165582 0.9054417850188946 17.41848049422429 30.93937295322327 1:-0.2 2:0.87149 3:0.622927 4:0.112608 5:-1 6:-1 8:0.997332 9:-0.808481 10:-1 11:-1 12:-1 
0.05604878175718635 0.4052062366776544 7.325656279923021 0.1852204990498766 1.451269508336422 0.1531313478409515 0.5955889347265798 1.965317630290152 22.33002446725848 1:-0.2 2:0.87812 3:0.205942 4:-0.235665 5:-1 6:-1 8:0.987592 9:-0.802917 10:-1 11:-1 12:-1 
-0.002503979890047741 0 32 32 32 32 32 32 32 1:-1 2:-1 3:-1 4:-1 5:-1 6:-1 8:-1 9:-1 10:-1 11:-1 12:-1 
-0 0 32 32 32 32 32 32 32 1:-1 2:-1 3:-1 4:-1 5:-1 6:-1 8:-1 9:-1 10:-1 11:-1 12:-1 
-0 0 32 32 32 32 32 32 32 1:-1 2:-1 3:-1 4:-1 5:-1 6:-1 8:-1 9:-1 10:-1 11:-1 12:-1 
-0 0 32 32 32 32 32 32 32 1:-1 2:-1 3:-1 4:-1 5:-1 6:-1 8:-1 9:-1 10:-1 11:-1 12:-1 
-0 0 32 32 32 32 32 32 32 1:-1 2:-1 3:-1 4:-1 5:-1 6:-1 8:-1 9:-1 10:-1 11:-1 12:-1 
-0 1.387598555341378 32 32 32 32 32 32 32 1:-1 2:-1 3:-1 4:-1 5:-1 6:-1 8:-1 9:-1 10:-1 11:-1 12:-1 
-0 32 32 32 32 32 32 32 32 1:-1 2:-1 3:-1 4:-1 5:-1 6:-1 8:-1 9:-1 10:-1 11:-1 12:-1 
-0 32 32 32 32 32 32 32 32 1:-1 2:-1 3:-1 4:-1 5:-1 6:-1 8:-1 9:-1 10:-1 11:-1 12:-1 
-0 32 32 32 32 32 32 32 32 1:-1 2:-1 3:-1 4:-1 5:-1 6:-1 8:-1 9:-1 10:-1 11:-1 12:-1 
-0 32 32 32 32 32 32 32 32 1:-1 2:-1 3:-1 4:-1 5:-1 6:-1 8:-1 9:-1 10:-1 11:-1 12:-1 
-32 0.9391255774372775 32 32 32 32 32 32 32 1:-0.6 2:-0.45409 3:-1 4:-1 5:-1 6:-1 8:-1 9:-1 10:-1 11:-1 12:-1 
-0 32 32 32 32 32 32 32 32 1:-1 2:-1 3:-1 4:-1 5:-1 6:-1 8:-1 9:-1 10:-1 11:-1 12:-1 
-0 32 32 32 32 32 32 32 32 1:-1 2:-1 3:-1 4:-1 5:-1 6:-1 8:-1 9:-1 10:-1 11:-1 12:-1 
-0 32 32 32 32 32 32 32 32 1:-1 2:-1 3:-1 4:-1 5:-1 6:-1 8:-1 9:-1 10:-1 11:-1 12:-1 
-0 32 32 32 32 32 32 32 32 1:-1 2:-1 3:-1 4:-1 5:-1 6:-1 8:-1 9:-1 10:-1 11:-1 12:-1 
-32 32 32 32 32 32 32 32 32 1:-0.6 2:0.720396 3:-1 4:-1 5:-1 6:-1 8:-1 9:-1 10:-1 11:-1 12:-1 
-32 32 32 32 32 32 32 32 32 1:-0.6 2:0.862448 3:-1 4:-1 5:-1 6:-1 8:-1 9:-1 10:-1 11:-1 12:-1 
-0 32 32 32 32 32 32 32 32 1:-1 2:-1 3:-1 4:-1 5:-1 6:-1 8:-1 9:-1 10:-1 11:-1 12:-1 
-0 32 32 32 32 32 32 32 32 1:-1 2:-1 3:-1 4:-1 5:-1 6:-1 8:-1 9:-1 10:-1 11:-1 12:-1 
-0 32 32 32 32 32 32 32 32 1:-1 2:-1 3:-1 4:-1 5:-1 6:-1 8:-1 9:-1 10:-1 11:-1 12:-1 
-32 32 32 32 32 32 32 32 32 1:-0.6 2:0.84433 3:-1 4:-1 5:-1 6:-1 8:-1 9:-1 10:-1 11:-1 12:-1 
-0 32 32 32 32 32 32 32 32 1:-1 2:-1 3:-1 4:-1 5:-1 6:-1 8:-1 9:-1 10:-1 11:-1 12:-1 
-0 32 32 32 32 32 32 32 32 1:-1 2:-1 3:-1 4:-1 5:-1 6:-1 8:-1 9:-1 10:-1 11:-1 12:-1 
-0 32 32 32 32 32 32 32 32 1:-1 2:-1 3:-1 4:-1 5:-1 6:-1 8:-1 9:-1 10:-1 11:-1 12:-1 
-32 32 32 32 32 32 32 32 32 1:-0.6 2:0.838424 3:-1 4:-1 5:-1 6:-1 8:-1 9:-1 10:-1 11:-1 12:-1 
-0 32 32 32 32 32 32 32 32 1:-1 2:-1 3:-1 4:-1 5:-1 6:-1 8:-1 9:-1 10:-1 11:-1 12:-1 
-32 0.4657397279518422 32 32 32 32 32 32 32 1:-0.6 2:-0.395294 3:-1 4:-1 5:-1 6:-1 8:-1 9:-1 10:-1 11:-1 12:-1 
-32 24.4571044834344 32 32 32 32 32 32 32 1:-0.6 2:0.349401 3:-1 4:-1 5:-1 6:-1 8:-1 9:-1 10:-1 11:-1 12:-1 
-32 32 32 32 32 32 25.01449985136026 32 32 1:-0.6 2:0.997848 3:-1 4:-1 5:-1 6:-1 8:-1 9:-1 10:-1 11:-1 12:-1 
-0 32 32 32 32 32 32 32 32 1:-1 2:-1 3:-1 4:-1 5:-1 6:-1 8:-1 9:-1 10:-1 11:-1 12:-1 
-32 32 32 32 32 32 32 32 32 1:-0.6 2:0.820645 3:-1 4:-1 5:-1 6:-1 8:-1 9:-1 10:-1 11:-1 12:-1 
-32 0 32 32 32 32 32 32 32 1:-0.6 2:-0.790321 3:-1 4:-1 5:-1 6:-1 8:-1 9:-1 10:-1 11:-1 12:-1 
-32 0 32 32 32 32 32 32 32 1:-0.6 2:-0.110132 3:-1 4:-1 5:-1 6:-1 8:-1 9:-1 10:-1 11:-1 12:-1 
-0 32 32 32 32 32 32 32 32 1:-1 2:-1 3:-1 4:-1 5:-1 6:-1 8:-1 9:-1 10:-1 11:-1 12:-1 
-0 32 32 32 32 32 32 32 32 1:-1 2:-1 3:-1 4:-1 5:-1 6:-1 8:-1 9:-1 10:-1 11:-1 12:-1 
-0 32 32 32 32 32 32 32 32 1:-1 2:-1 3:-1 4:-1 5:-1 6:-1 8:-1 9:-1 10:-1 11:-1 12:-1 
-0 32 32 32 32 32 32 32 32 1:-1 2:-1 3:-1 4:-1 5:-1 6:-1 8:-1 9:-1 10:-1 11:-1 12:-1 
-32 0 32 32 32 32 32 32 32 1:-0.6 2:-0.271038 3:-1 4:-1 5:-1 6:-1 8:-1 9:-1 10:-1 11:-1 12:-1 
-0 32 32 32 32 32 32 32 32 1:-1 2:-1 3:-1 4:-1 5:-1 6:-1 8:-1 9:-1 10:-1 11:-1 12:-1 
-0 32 32 32 32 32 32 32 32 1:-1 2:-1 3:-1 4:-1 5:-1 6:-1 8:-1 9:-1 10:-1 11:-1 12:-1 
-0 32 32 32 32 32 32 32 32 1:-1 2:-1 3:-1 4:-1 5:-1 6:-1 8:-1 9:-1 10:-1 11:-1 12:-1 
-0 32 32 32 32 32 32 32 32 1:-1 2:-1 3:-1 4:-1 5:-1 6:-1 8:-1 9:-1 10:-1 11:-1 12:-1 
-32 32 32 32 32 32 32 32 32 1:-0.6 2:0.969106 3:-1 4:-1 5:-1 6:-1 8:-1 9:-1 10:-1 11:-1 12:-1 
-32 32 32 32 32 32 32 32 32 1:-0.6 2:0.990382 3:-1 4:-1 5:-1 6:-1 8:-1 9:-1 10:-1 11:-1 12:-1 
-32 32 32 32 32 32 32 32 32 1:-0.6 2:0.987364 3:-1 4:-1 5:-1 6:-1 8:-1 9:-1 10:-1 11:-1 12:-1 
-0 32 32 32 32 32 32 32 32 1:-1 2:-1 3:-1 4:-1 5:-1 6:-1 8:-1 9:-1 10:-1 11:-1 12:-1 
-0 32 32 32 32 32 32 32 32 1:-1 2:-1 3:-1 4:-1 5:-1 6:-1 8:-1 9:-1 10:-1 11:-1 12:-1 
-0 32 32 32 32 32 32 32 32 1:-1 2:-1 3:-1 4:-1 5:-1 6:-1 8:-1 9:-1 10:-1 11:-1 12:-1 
-0 32 32 32 32 32 32 32 32 1:-1 2:-1 3:-1 4:-1 5:-1 6:-1 8:-1 9:-1 10:-1 11:-1 12:-1 
-0 32 32 32 32 32 32 32 32 1:-1 2:-1 3:-1 4:-1 5:-1 6:-1 8:-1 9:-1 10:-1 11:-1 12:-1 
-0 32 32 32 32 32 32 32 32 1:-1 2:-1 3:-1 4:-1 5:-1 6:-1 8:-1 9:-1 10:-1 11:-1 12:-1 
-9.182728624190485 1.144619106551979 32 32 23.8137775520545 32 32 32 32 1:-0.6 2:-0.931576 3:-1 4:-1 5:-1 6:-1 8:-1 9:-1 10:-1 11:-1 12:-1 
-0 32 32 32 32 32 32 32 32 1:-1 2:-1 3:-1 4:-1 5:-1 6:-1 8:-1 9:-1 10:-1 11:-1 12:-1 
-0 32 32 32 32 32 32 32 32 1:-1 2:-1 3:-1 4:-1 5:-1 6:-1 8:-1 9:-1 10:-1 11:-1 12:-1 
-0 32 32 32 32 32 32 32 32 1:-1 2:-1 3:-1 4:-1 5:-1 6:-1 8:-1 9:-1 10:-1 11:-1 12:-1 
-0 32 32 32 32 32 32 32 32 1:-1 2:-1 3:-1 4:-1 5:-1 6:-1 8:-1 9:-1 10:-1 11:-1 12:-1 
-0 32 32 32 32 32 32 32 32 1:-1 2:-1 3:-1 4:-1 5:-1 6:-1 8:-1 9:-1 10:-1 11:-1 12:-1 
-0 32 32 32 32 32 32 32 32 1:-1 2:-1 3:-1 4:-1 5:-1 6:-1 8:-1 9:-1 10:-1 11:-1 12:-1 
-0 32 32 32 32 32 32 32 32 1:-1 2:-1 3:-1 4:-1 5:-1 6:-1 8:-1 9:-1 10:-1 11:-1 12:-1 
-0 32 32 32 32 32 32 32 32 1:-1 2:-1 3:-1 4:-1 5:-1 6:-1 8:-1 9:-1 10:-1 11:-1 12:-1 
-0 32 32 32 32 32 32 32 32 1:-1 2:-1 3:-1 4:-1 5:-1 6:-1 8:-1 9:-1 10:-1 11:-1 12:-1 
-0 32 32 32 32 32 32 32 32 1:-1 2:-1 3:-1 4:-1 5:-1 6:-1 8:-1 9:-1 10:-1 11:-1 12:-1 
-0 32 32 32 32 32 32 32 32 1:-1 2:-1 3:-1 4:-1 5:-1 6:-1 8:-1 9:-1 10:-1 11:-1 12:-1 
-0 32 32 32 32 32 32 32 32 1:-1 2:-1 3:-1 4:-1 5:-1 6:-1 8:-1 9:-1 10:-1 11:-1 12:-1 
-0 32 32 32 32 32 32 32 32 1:-1 2:-1 3:-1 4:-1 5:-1 6:-1 8:-1 9:-1 10:-1 11:-1 12:-1 
-0 32 32 32 32 32 32 32 32 1:-1 2:-1 3:-1 4:-1 5:-1 6:-1 8:-1 9:-1 10:-1 11:-1 12:-1 
-0 32 32 32 32 32 32 32 32 1:-1 2:-1 3:-1 4:-1 5:-1 6:-1 8:-1 9:-1 10:-1 11:-1 12:-1 
-0 32 32 32 32 32 32 32 32 1:-1 2:-1 3:-1 4:-1 5:-1 6:-1 8:-1 9:-1 10:-1 11:-1 12:-1 
-0 32 32 32 32 32 32 32 32 1:-1 2:-1 3:-1 4:-1 5:-1 6:-1 8:-1 9:-1 10:-1 11:-1 12:-1 
-1.219940728210272 32 32 32 32 32 32 32 32 1:-1 2:-1 3:-1 4:-1 5:-1 6:-1 8:-1 9:-1 10:-1 11:-1 12:-1 
-32 32 32 32 32 32 32 32 32 1:-1 2:-1 3:-1 4:-1 5:-1 6:-1 8:-1 9:-1 10:-1 11:-1 12:-1 
-32 32 32 32 32 32 32 32 32 1:-1 2:-1 3:-1 4:-1 5:-1 6:-1 8:-1 9:-1 10:-1 11:-1 12:-1 
-32 32 32 32 32 32 32 32 32 1:-1 2:-1 3:-1 4:-1 5:-1 6:-1 8:-1 9:-1 10:-1 11:-1 12:-1 
-32 32 32 32 32 32 32 32 32 1:-1 2:-1 3:-1 4:-1 5:-1 6:-1 8:-1 9:-1 10:-1 11:-1 12:-1 
-32 32 32 32 32 32 32 32 32 1:-1 2:-1 3:-1 4:-1 5:-1 6:-1 8:-1 9:-1 10:-1 11:-1 12:-1 
-32 0 32 32 32 32 32 32 32 1:-0.6 2:-0.280788 3:-1 4:-1 5:-1 6:-1 8:-1 9:-1 10:-1 11:-1 12:-1 
-32 32 32 32 32 32 32 32 32 1:-1 2:-1 3:-1 4:-1 5:-1 6:-1 8:-1 9:-1 10:-1 11:-1 12:-1 
-32 32 32 32 32 32 32 32 32 1:-1 2:-1 3:-1 4:-1 5:-1 6:-1 8:-1 9:-1 10:-1 11:-1 12:-1 
-32 32 32 32 32 32 32 32 32 1:-1 2:-1 3:-1 4:-1 5:-1 6:-1 8:-1 9:-1 10:-1 11:-1 12:-1 
-32 32 32 32 32 32 32 32 32 1:-1 2:-1 3:-1 4:-1 5:-1 6:-1 8:-1 9:-1 10:-1 11:-1 12:-1 
-32 32 32 32 32 32 32 32 32 1:-1 2:-1 3:-1 4:-1 5:-1 6:-1 8:-1 9:-1 10:-1 11:-1 12:-1 
-32 32 32 32 32 32 32 32 32 1:-1 2:-1 3:-1 4:-1 5:-1 6:-1 8:-1 9:-1 10:-1 11:-1 12:-1 
-32 32 32 32 32 32 32 32 32 1:-1 2:-1 3:-1 4:-1 5:-1 6:-1 8:-1 9:-1 10:-1 11:-1 12:-1 
-32 32 32 32 32 32 32 32 32 1:-1 2:-1 3:-1 4:-1 5:-1 6:-1 8:-1 9:-1 10:-1 11:-1 12:-1 
-32 32 32 32 32 32 32 32 32 1:-1 2:-1 3:-1 4:-1 5:-1 6:-1 8:-1 9:-1 10:-1 11:-1 12:-1 
-32 32 32 32 32 32 32 32 32 1:-1 2:-1 3:-1 4:-1 5:-1 6:-1 8:-1 9:-1 10:-1 11:-1 12:-1 
-32 32 32 32 32 32 32 32 32 1:-1 2:-1 3:-1 4:-1 5:-1 6:-1 8:-1 9:-1 10:-1 11:-1 12:-1 
-32 32 32 32 32 32 32 32 32 1:-1 2:-1 3:-1 4:-1 5:-1 6:-1 8:-1 9:-1 10:-1 11:-1 12:-1 
-32 32 32 32 32 32 32 32 32 1:-1 2:-1 3:-1 4:-1 5:-1 6:-1 8:-1 9:-1 10:-1 11:-1 12:-1 
-32 32 32 32 32 32 32 32 32 1:-1 2:-1 3:-1 4:-1 5:-1 6:-1 8:-1 9:-1 10:-1 11:-1 12:-1 
-32 32 32 32 32 32 32 32 32 1:-1 2:-1 3:-1 4:-1 5:-1 6:-1 8:-1 9:-1 10:-1 11:-1 12:-1 
-32 32 32 32 32 32 32 32 32 1:-1 2:-1 3:-1 4:-1 5:-1 6:-1 8:-1 9:-1 10:-1 11:-1 12:-1 
-32 32 32 32 32 32 32 32 32 1:-1 2:-1 3:-1 4:-1 5:-1 6:-1 8:-1 9:-1 10:-1 11:-1 12:-1 
-32 32 32 32 32 32 32 32 32 1:-1 2:-1 3:-1 4:-1 5:-1 6:-1 8:-1 9:-1 10:-1 11:-1 12:-1 
-32 32 32 32 32 32 32 32 32 1:-1 2:-1 3:-1 4:-1 5:-1 6:-1 8:-1 9:-1 10:-1 11:-1 12:-1 
-32 32 32 32 32 32 32 32 32 1:-1 2:-1 3:-1 4:-1 5:-1 6:-1 8:-1 9:-1 10:-1 11:-1 12:-1 
-32 31.98589890768426 32 32 32 32 32 32 32 1:-1 2:-1 3:-1 4:-1 5:-1 6:-1 8:-1 9:-1 10:-1 11:-1 12:-1 
-0 -0 0 0 0 0 0 0 1.450766295767175 1:0.2 2:0.97962 3:0.975558 4:0.911077 5:0.596952 6:0.448517 8:0.862566 9:0.393446 10:0.289115 11:-0.0749203 12:-0.346181 
-0.3732569679721441 -0.1510362171180562 0.6461334635256835 0.1372796915754441 0.7563251785704019 0.1170058038235507 0.2395318523341421 0.8194244319633682 0 1:0.2 2:0.998278 3:0.990317 4:0.981735 5:0.610192 6:0.502571 8:0.77236 9:0.371763 10:-0.0179851 11:-0.441732 12:-0.507774 
-0.181829048947187 -0.07379944225111357 0.3249148653056477 0.06642292608506316 0 0.05807970598872236 0.1191313312007894 0.3907765297734341 0.3381134957997998 1:0.6 2:0.982164 3:0.977483 4:0.975375 5:0.95234 6:0.922992 8:0.857222 9:0.555512 10:0.401394 11:0.404374 12:0.332181 
-0.1071119207611352 -0.04787260195570558 0.1857288556060654 0.0431543541370793 0.4344726870427001 0.03670183545302017 0.07197547772582472 0.2364955922184745 0.3699375554735463 1:0.6 2:0.98196 3:0.982124 4:0.975459 5:0.960489 6:0.922701 8:0.856326 9:0.553822 10:0.397602 11:0.313479 12:0.329745 
-32 -0 0 0 32 32 0 32 32 1:-0.6 2:0.933335 3:-1 4:-1 5:-1 6:-1 8:-1 9:-1 10:-1 11:-1 12:-1 
-0.428892664834268 -0.1776229895148741 0.7578062374737514 0.1604149234807225 0.821687341671131 0.1373381926678147 0.2813375574221569 0.9448217104733552 0 1:0.2 2:0.996702 3:0.996869 4:0.987419 5:0.985836 6:0.972973 8:0.475103 9:0.450471 10:-0.199494 11:-0.213863 12:-0.227788 
-0 -0 0 0 0 0 0 0 4.230786621590132 1:0.2 2:0.996628 3:0.997169 4:0.988707 5:0.987363 6:0.974836 8:0.509224 9:0.500678 10:-0.112121 11:-0.257292 12:-0.247715 
-0.02817981778996323 -0.01155147085282635 0.04863983446857529 0.01095201939324918 0.05405553079928233 0.00903726023157334 0.01828353506664246 0.05952642580018982 0 1:0.2 2:0.99685 3:0.997329 4:0.988841 5:0.987652 6:0.975887 8:0.52471 9:0.515134 10:-0.0812401 11:-0.266257 12:-0.261306 
-0.3342478906423796 -0.1393101499915428 0.591207053060118 0.1257290166036927 0.8024908661654342 0.1073760725384264 0.2202448400501349 0.8002144610140565 1.88146300715029 1:0.2 2:0.997198 3:0.969012 4:0.950386 5:0.766458 6:0.719425 8:0.827021 9:0.756961 10:0.494675 11:0.203553 12:-0.220955 
-0.05828152484429279 -0.02466729460976865 0.1051363417024157 0.02178419067462299 0.09777771505584296 0.01767430224759997 0.03853919447427791 0.1313565127746824 0 1:0.2 2:0.997922 3:0.997381 4:0.991275 5:0.98984 6:0.97903 8:0.625698 9:0.382184 10:-0.128173 11:-0.138578 12:-0.318845 
-0 -0 0 0 0 0 0 0 0.4304291979147711 1:0.6 2:0.99879 3:0.997193 4:0.992598 5:0.990317 6:0.979291 8:0.889404 9:0.740454 10:0.657695 11:0.443798 12:0.40682 
-0 -0 0 0 0 0 0 0 1.644358928153847 1:0.2 2:0.999572 3:0.996891 4:0.994885 5:0.734572 6:0.718868 8:0.6627 9:0.376115 10:0.320196 11:-0.187792 12:-0.415407 
-0.2424931286827454 -0.1002154277350025 0.4296969037633698 0.09091784366130891 0.2069878386856703 0.07759143782346671 0.1591549328747131 0.4992802173300362 0.379151178235751 1:0.6 2:0.999918 3:0.996823 4:0.995966 5:0.990238 6:0.977916 8:0.994264 9:0.690035 10:0.683697 11:0.405357 12:0.357073 
-0.2486889753873126 -0.1024724523105799 0.4397663552538033 0.09327032733665554 0.4294908167401463 0.0794946121918583 0.1625195520596632 0.524163145465013 1.116983927921545 1:0.2 2:0.979484 3:0.945853 4:0.871596 5:0.866555 6:0.790454 8:0.716101 9:0.606018 10:0.428111 11:0.232438 12:-0.438832 
-0 -0 0 0 0 0 0 0 1.764552810412026 1:0.2 2:0.999276 3:0.972293 4:0.96345 5:0.781285 6:0.764104 8:0.595501 9:0.294958 10:0.286169 11:-0.00132225 12:-0.560503 
-0.04042812810736201 -0.01620049634412647 0.07170824126852055 0.01549538717164679 0.08740506328045342 0.01466498821592747 0.02631974602304366 0.08350144456419711 0 1:0.2 2:0.997688 3:0.992009 4:0.988661 5:0.98768 6:0.980496 8:0.573599 9:0.233874 10:-0.0307436 11:-0.30602 12:-0.323791 
-0.07270176685066335 -0.03228447623688786 0.1275010425133838 0.02416254173896226 0 0.02654454890812533 0.04998286450398489 0 0 1:0.6 2:0.996678 3:0.992644 4:0.987364 5:0.985149 6:0.987178 8:0.876778 9:0.681455 10:0.261503 11:0.277548 12:-0.0869134 
-0.06996987203433916 -0.02620646091659099 0.1245077645651021 0.02870912149876491 0 0.01855613608914912 0.04333380443781729 0.2691089671945883 0.4970401371421673 1:0.6 2:0.998352 3:0.994836 4:0.987513 5:0.982108 6:0.961357 8:0.896584 9:0.69316 10:0.267415 11:0.236895 12:-0.0831761 
-0 -0 0 0 0.4776084124159998 0 0 0 0 1:0.6 2:0.999886 3:0.99435 4:0.993688 5:0.971557 6:0.951422 8:0.753352 9:0.670818 10:0.275145 11:0.214604 12:-0.0622123 
-0.1266913929528383 -0.05085760776649979 0.2227007265099086 0.04913363511923376 0 0.03928366898530448 0.08285639762724881 0.2501419820887797 0.9062146476064677 1:0.6 2:0.99709 3:0.994742 4:0.993732 5:0.971939 6:0.97606 8:0.720075 9:0.657093 10:0.253703 11:0.239152 12:-0.0527588 
-0.3279887378059616 -0.1364253753216233 0.5813642683719229 0.1222669201613931 0.6224638995915023 0.1051787857966729 0.2153624570841428 0.7177824114917266 0.1677626517479658 1:0.2 2:0.995182 3:0.966425 4:0.95923 5:0.489011 6:0.421616 8:0.637412 9:0.252748 10:0.241584 11:-0.0415967 12:-0.505846 
-0.7624499986409445 -0.2210416618220808 1.798644169957271 0 0.3226283380014465 0.1706124151853146 0.3970866377774127 2.528481263338386 4.993139872940487 1:-0.2 2:0.958395 3:0.450113 4:0.408624 5:-1 6:-1 8:0.436854 9:-0.338522 10:-1 11:-1 12:-1 
-0.01709603340493334 -0.005776927622261547 0.02769996562387476 0.008265649403476001 0.01841887838076453 0.006484684861791196 0.01126678336258155 0.05512220748228393 0 1:0.2 2:0.992406 3:0.958353 4:0.954007 5:0.442803 6:0.412369 8:0.628222 9:0.442321 10:0.162732 11:0.0680685 12:-0.387615 
-0.1121009430643041 -0.04753444827248478 0.1988613254937745 0.04013851209232302 0.237508211909167 0.03390777607960798 0.07277089824073008 0.2386202005960835 1.794182541546718 1:0.2 2:0.990574 3:0.972783 4:0.953342 5:0.466576 6:0.443564 8:0.67452 9:0.539319 10:0.171792 11:0.102055 12:-0.296628 
-0.3859977278574635 -0.1593851385672926 0.682778538750348 0.1449866865633817 0.7257727968381615 0.1251386369480265 0.2532889046286952 0.8521476616351953 0.5058537444859341 1:0.2 2:0.987776 3:0.988218 4:0.955157 5:0.518211 6:0.46238 8:0.666478 9:0.657185 10:0.269883 11:0.273939 12:-0.36937 
-0 -0 0 0 25.35751014781705 0 0 0 0 1:-0.2 2:0.988324 3:0.97953 4:0.950737 5:-1 6:-1 8:0.368525 9:0.00305542 10:-1 11:-1 12:-1 
-0 -0 0 0 0 0 0 0 32 1:0.2 2:0.98826 3:0.981628 4:0.97976 5:0.963195 6:0.96301 8:0.477905 9:0.373864 10:0.00656865 11:-0.17314 12:-0.228495 
-0 -0 0 0 0 0 0 0 7.703922474957862 1:0.2 2:0.987894 3:0.97972 4:0.979278 5:0.958932 6:0.960647 8:0.487895 9:0.365735 10:0.0118961 11:-0.172422 12:-0.234804 
-0.9518241484445282 -0.1462967456865081 4.948084996127839 0 2.032011627204075 0.1123978012753914 0.2986386723437163 32 6.891622548590633 1:-0.2 2:0.962109 3:0.660311 4:0.579984 5:-1 6:-1 8:0.800801 9:-0.40496 10:-1 11:-1 12:-1 
-0 -0 0 0 0 0 0 0 3.372073516816779 1:0.2 2:0.98264 3:0.977751 4:0.965135 5:0.741399 6:0.670282 8:0.820515 9:0.401144 10:0.0305156 11:-0.389184 12:-0.399377 
-0 -0 0 0 32 0 0 0 0 1:-0.2 2:0.944951 3:0.737235 4:0.463539 5:-1 6:-1 8:0.395206 9:0.286015 10:-1 11:-1 12:-1 
-0 -0 0 0 30.38565904045285 0 0 0 32 1:-0.2 2:0.97737 3:0.737753 4:0.590208 5:-1 6:-1 8:0.366471 9:0.00712325 10:-1 11:-1 12:-1 
-0.7197103111496134 -0.1832661594354866 0.8510862691272042 0 0 0.1414428224889612 0.2880049568340585 0.7229645837324081 0 1:-0.2 2:0.946819 3:0.717005 4:0.464832 5:-1 6:-1 8:0.458305 9:0.349784 10:-1 11:-1 12:-1 
-0 -0.06661836365399944 0.1203991208738788 0 12.83359769754477 0.0516280305455294 0.1082688437660521 0.5553025966672341 12.08583856046724 1:-0.2 2:0.967644 3:0.765414 4:0.583876 5:-1 6:-1 8:0.40563 9:0.355798 10:-1 11:-1 12:-1 
-0 -0 32 0 32 0 2.122819954890579 32 32 1:-0.6 2:0.565226 3:-1 4:-1 5:-1 6:-1 8:-1 9:-1 10:-1 11:-1 12:-1 
-0 -0 32 0 32 0 32 32 32 1:-0.6 2:0.541904 3:-1 4:-1 5:-1 6:-1 8:-1 9:-1 10:-1 11:-1 12:-1 
-0 -0 32 0 32 0 32 32 32 1:-0.6 2:0.541602 3:-1 4:-1 5:-1 6:-1 8:-1 9:-1 10:-1 11:-1 12:-1 
-0 -0 32 0 13.12094812828864 0 32 32 32 1:-0.6 2:0.540486 3:-1 4:-1 5:-1 6:-1 8:-1 9:-1 10:-1 11:-1 12:-1 
-0 -0 32 0 0 0 32 32 32 1:-0.6 2:0.538822 3:-1 4:-1 5:-1 6:-1 8:-1 9:-1 10:-1 11:-1 12:-1 
-0 -0 32 32 0 21.32085872067305 32 32 32 1:-0.6 2:0.525117 3:-1 4:-1 5:-1 6:-1 8:-1 9:-1 10:-1 11:-1 12:-1 
-0 -0 32 32 0 0 32 32 32 1:-0.6 2:0.527409 3:-1 4:-1 5:-1 6:-1 8:-1 9:-1 10:-1 11:-1 12:-1 
-0 -0 0.2752624491675003 2.136805444793351 0 0 0 0 3.054097115431258 1:-0.2 2:0.940673 3:0.751908 4:0.530843 5:-1 6:-1 8:0.67276 9:-0.00632382 10:-1 11:-1 12:-1 
-0 -0 32 0.4213118399801628 0 0 32 32 32 1:-0.6 2:0.530091 3:-1 4:-1 5:-1 6:-1 8:-1 9:-1 10:-1 11:-1 12:-1 
-0 -0 0 1.833348412374925 0 0 0 5.443101858690892 13.92762203720538 1:-0.2 2:0.909685 3:0.816472 4:0.528343 5:-1 6:-1 8:0.750538 9:-0.125553 10:-1 11:-1 12:-1 
-1.935026229427757 -0.2108093966572512 2.072036874443303 0 0 0.1628020819461957 0.3327360754256896 15.66276700803567 0 1:-0.2 2:0.870014 3:0.857191 4:0.509938 5:-1 6:-1 8:0.876872 9:-0.0526911 10:-1 11:-1 12:-1 
-32 -0 32 32 0 32 32 32 32 1:-0.6 2:0.512635 3:-1 4:-1 5:-1 6:-1 8:-1 9:-1 10:-1 11:-1 12:-1 
-0 -32 32 32 32 32 32 32 32 1:-1 2:-1 3:-1 4:-1 5:-1 6:-1 8:-1 9:-1 10:-1 11:-1 12:-1 
-3.670468050676421 -0 32 32 0 32 32 32 32 1:-0.6 2:0.515647 3:-1 4:-1 5:-1 6:-1 8:-1 9:-1 10:-1 11:-1 12:-1 
-32 -0 32 32 0 32 32 32 32 1:-0.6 2:0.495889 3:-1 4:-1 5:-1 6:-1 8:-1 9:-1 10:-1 11:-1 12:-1 
-0 -32 32 32 32 32 32 32 32 1:-1 2:-1 3:-1 4:-1 5:-1 6:-1 8:-1 9:-1 10:-1 11:-1 12:-1 
-0 -32 32 32 32 32 32 32 32 1:-1 2:-1 3:-1 4:-1 5:-1 6:-1 8:-1 9:-1 10:-1 11:-1 12:-1 
-0 -32 32 32 32 32 32 32 32 1:-1 2:-1 3:-1 4:-1 5:-1 6:-1 8:-1 9:-1 10:-1 11:-1 12:-1 
-0 -32 32 32 32 32 32 32 32 1:-1 2:-1 3:-1 4:-1 5:-1 6:-1 8:-1 9:-1 10:-1 11:-1 12:-1 
-0 -32 32 32 32 32 32 32 32 1:-1 2:-1 3:-1 4:-1 5:-1 6:-1 8:-1 9:-1 10:-1 11:-1 12:-1 
-0 -32 32 32 32 32 32 32 32 1:-1 2:-1 3:-1 4:-1 5:-1 6:-1 8:-1 9:-1 10:-1 11:-1 12:-1 
-0 -32 32 32 32 32 32 32 32 1:-1 2:-1 3:-1 4:-1 5:-1 6:-1 8:-1 9:-1 10:-1 11:-1 12:-1 
-0 -32 32 32 32 32 32 32 32 1:-1 2:-1 3:-1 4:-1 5:-1 6:-1 8:-1 9:-1 10:-1 11:-1 12:-1 
-0 -32 32 32 32 32 32 32 32 1:-1 2:-1 3:-1 4:-1 5:-1 6:-1 8:-1 9:-1 10:-1 11:-1 12:-1 
-0 -32 32 32 32 32 32 32 32 1:-1 2:-1 3:-1 4:-1 5:-1 6:-1 8:-1 9:-1 10:-1 11:-1 12:-1 
-0 -32 32 32 32 32 32 32 32 1:-1 2:-1 3:-1 4:-1 5:-1 6:-1 8:-1 9:-1 10:-1 11:-1 12:-1 
-0 -32 32 32 32 32 32 32 32 1:-1 2:-1 3:-1 4:-1 5:-1 6:-1 8:-1 9:-1 10:-1 11:-1 12:-1 
-0 -32 32 32 32 32 32 32 32 1:-1 2:-1 3:-1 4:-1 5:-1 6:-1 8:-1 9:-1 10:-1 11:-1 12:-1 
-0 -32 32 32 32 32 32 32 32 1:-1 2:-1 3:-1 4:-1 5:-1 6:-1 8:-1 9:-1 10:-1 11:-1 12:-1 
-0 -32 32 32 32 32 32 32 32 1:-1 2:-1 3:-1 4:-1 5:-1 6:-1 8:-1 9:-1 10:-1 11:-1 12:-1 
-0 -32 32 32 32 32 32 32 32 1:-1 2:-1 3:-1 4:-1 5:-1 6:-1 8:-1 9:-1 10:-1 11:-1 12:-1 
-0 -32 32 32 32 32 32 32 32 1:-1 2:-1 3:-1 4:-1 5:-1 6:-1 8:-1 9:-1 10:-1 11:-1 12:-1 
-0 -32 32 32 32 32 32 32 32 1:-1 2:-1 3:-1 4:-1 5:-1 6:-1 8:-1 9:-1 10:-1 11:-1 12:-1 
-0 -32 32 32 32 32 32 32 32 1:-1 2:-1 3:-1 4:-1 5:-1 6:-1 8:-1 9:-1 10:-1 11:-1 12:-1 
-0 -32 32 32 32 32 32 32 32 1:-1 2:-1 3:-1 4:-1 5:-1 6:-1 8:-1 9:-1 10:-1 11:-1 12:-1 
-0 -0 32 0 32 32 32 32 32 1:-0.6 2:0.691492 3:-1 4:-1 5:-1 6:-1 8:-1 9:-1 10:-1 11:-1 12:-1 
-32 -0 0 0 32 32 0 32 32 1:-0.6 2:0.913927 3:-1 4:-1 5:-1 6:-1 8:-1 9:-1 10:-1 11:-1 12:-1 
-32 -0 0 0 32 32 0 32 32 1:-0.6 2:0.927419 3:-1 4:-1 5:-1 6:-1 8:-1 9:-1 10:-1 11:-1 12:-1 
-32 -0 32 32 32 0 0 32 32 1:-0.6 2:0.9748 3:-1 4:-1 5:-1 6:-1 8:-1 9:-1 10:-1 11:-1 12:-1 
-32 -0 0 32 32 0 0 32 32 1:-0.6 2:0.979068 3:-1 4:-1 5:-1 6:-1 8:-1 9:-1 10:-1 11:-1 12:-1 
-0.6479800153392727 -0.2674540209954463 1.143026158649598 0.2422907768639076 1.24895955272654 0.2071373672949736 0.4239740155675205 1.42295165203931 1.664365177030403 1:0.2 2:0.984004 3:0.976827 4:0.950595 5:-0.250942 6:-0.408256 8:0.443811 9:0.343992 10:0.111655 11:-0.106815 12:-0.476221 
-32 -0 0 29.5818222352143 32 32 0 32 32 1:-0.6 2:0.912613 3:-1 4:-1 5:-1 6:-1 8:-1 9:-1 10:-1 11:-1 12:-1 
-0 -32 32 32 32 32 32 32 32 1:-1 2:-1 3:-1 4:-1 5:-1 6:-1 8:-1 9:-1 10:-1 11:-1 12:-1 
-32 -0 0 32 32 0 0 32 32 1:-0.6 2:0.979554 3:-1 4:-1 5:-1 6:-1 8:-1 9:-1 10:-1 11:-1 12:-1 
-0 -32 32 32 32 32 32 32 32 1:-1 2:-1 3:-1 4:-1 5:-1 6:-1 8:-1 9:-1 10:-1 11:-1 12:-1 
-0 -32 32 32 32 32 32 32 32 1:-1 2:-1 3:-1 4:-1 5:-1 6:-1 8:-1 9:-1 10:-1 11:-1 12:-1 
-0 -32 32 32 32 32 32 32 32 1:-1 2:-1 3:-1 4:-1 5:-1 6:-1 8:-1 9:-1 10:-1 11:-1 12:-1 
-0 -32 32 32 32 32 32 32 32 1:-1 2:-1 3:-1 4:-1 5:-1 6:-1 8:-1 9:-1 10:-1 11:-1 12:-1 
-32 -0 32 0 32 0 0 32 32 1:-0.6 2:0.974214 3:-1 4:-1 5:-1 6:-1 8:-1 9:-1 10:-1 11:-1 12:-1 
-32 -0 32 0 32 0 0 32 32 1:-0.6 2:0.970058 3:-1 4:-1 5:-1 6:-1 8:-1 9:-1 10:-1 11:-1 12:-1 
-32 -0 0.5704463620870692 20.27679028562419 32 0 0 32 32 1:-0.6 2:0.974808 3:-1 4:-1 5:-1 6:-1 8:-1 9:-1 10:-1 11:-1 12:-1 
-0 -32 32 32 32 32 32 32 32 1:-1 2:-1 3:-1 4:-1 5:-1 6:-1 8:-1 9:-1 10:-1 11:-1 12:-1 
-32 -0 32 0 32 26.1695882046973 16.0102837204698 32 32 1:-0.6 2:0.966248 3:-1 4:-1 5:-1 6:-1 8:-1 9:-1 10:-1 11:-1 12:-1 
-0 -32 32 32 32 32 32 32 32 1:-1 2:-1 3:-1 4:-1 5:-1 6:-1 8:-1 9:-1 10:-1 11:-1 12:-1 
-0 -32 32 32 32 32 32 32 32 1:-1 2:-1 3:-1 4:-1 5:-1 6:-1 8:-1 9:-1 10:-1 11:-1 12:-1 
-0 -32 32 32 32 32 32 32 32 1:-1 2:-1 3:-1 4:-1 5:-1 6:-1 8:-1 9:-1 10:-1 11:-1 12:-1 
-0 -32 32 32 32 32 32 32 32 1:-1 2:-1 3:-1 4:-1 5:-1 6:-1 8:-1 9:-1 10:-1 11:-1 12:-1 
-0 -32 32 32 32 32 32 32 32 1:-1 2:-1 3:-1 4:-1 5:-1 6:-1 8:-1 9:-1 10:-1 11:-1 12:-1 
-0 -32 32 32 32 32 32 32 32 1:-1 2:-1 3:-1 4:-1 5:-1 6:-1 8:-1 9:-1 10:-1 11:-1 12:-1 
-0 -32 32 32 32 32 32 32 32 1:-1 2:-1 3:-1 4:-1 5:-1 6:-1 8:-1 9:-1 10:-1 11:-1 12:-1 
-0 -32 32 32 32 32 32 32 32 1:-1 2:-1 3:-1 4:-1 5:-1 6:-1 8:-1 9:-1 10:-1 11:-1 12:-1 
-0 -32 32 32 32 32 32 32 32 1:-1 2:-1 3:-1 4:-1 5:-1 6:-1 8:-1 9:-1 10:-1 11:-1 12:-1 
-0 -32 32 32 32 32 32 32 32 1:-1 2:-1 3:-1 4:-1 5:-1 6:-1 8:-1 9:-1 10:-1 11:-1 12:-1 
-0 -32 32 32 32 32 32 32 32 1:-1 2:-1 3:-1 4:-1 5:-1 6:-1 8:-1 9:-1 10:-1 11:-1 12:-1 
-0 -32 32 32 32 32 32 32 32 1:-1 2:-1 3:-1 4:-1 5:-1 6:-1 8:-1 9:-1 10:-1 11:-1 12:-1 
-0 -32 32 32 32 32 32 32 32 1:-1 2:-1 3:-1 4:-1 5:-1 6:-1 8:-1 9:-1 10:-1 11:-1 12:-1 
-0 -32 32 32 32 32 32 32 32 1:-1 2:-1 3:-1 4:-1 5:-1 6:-1 8:-1 9:-1 10:-1 11:-1 12:-1 
-32 -0 32 32 32 32 32 32 32 1:-0.6 2:0.797351 3:-1 4:-1 5:-1 6:-1 8:-1 9:-1 10:-1 11:-1 12:-1 
-0.3363377638924784 -0 0 0 0 0 0 4.255496323520092 23.58948839814219 1:-0.2 2:0.859228 3:0.814187 4:0.792424 5:-1 6:-1 8:0.643046 9:-0.30826 10:-1 11:-1 12:-1 
-0 -0 32 0 32 0 32 32 32 1:-0.6 2:0.55773 3:-1 4:-1 5:-1 6:-1 8:-1 9:-1 10:-1 11:-1 12:-1 
-0 -0.04331321234690522 0 3.859457239339461 0 0.03318043653539409 0.07198582956924453 0 0.1438857148403161 1:-0.2 2:0.826514 3:0.79788 4:0.69769 5:-1 6:-1 8:0.577203 9:-0.3646 10:-1 11:-1 12:-1 
-32 -0 0 32 32 32 32 32 32 1:-0.6 2:0.86408 3:-1 4:-1 5:-1 6:-1 8:-1 9:-1 10:-1 11:-1 12:-1 
-32 -0 0 32 32 32 32 32 32 1:-0.6 2:0.86342 3:-1 4:-1 5:-1 6:-1 8:-1 9:-1 10:-1 11:-1 12:-1 
-32 -32 1.611093499551234 32 32 32 32 32 32 1:-0.6 2:0.849252 3:-1 4:-1 5:-1 6:-1 8:-1 9:-1 10:-1 11:-1 12:-1 
-32 -32 32 32 32 32 32 32 32 1:-0.6 2:0.838732 3:-1 4:-1 5:-1 6:-1 8:-1 9:-1 10:-1 11:-1 12:-1 
-0 -32 32 32 32 32 32 32 32 1:-1 2:-1 3:-1 4:-1 5:-1 6:-1 8:-1 9:-1 10:-1 11:-1 12:-1 
-32 -0 32 32 32 32 32 32 32 1:-0.6 2:0.815773 3:-1 4:-1 5:-1 6:-1 8:-1 9:-1 10:-1 11:-1 12:-1 
-32 -0 32 32 32 32 32 32 32 1:-0.6 2:0.795779 3:-1 4:-1 5:-1 6:-1 8:-1 9:-1 10:-1 11:-1 12:-1 
-32 -0 32 32 32 32 32 32 32 1:-0.6 2:0.785645 3:-1 4:-1 5:-1 6:-1 8:-1 9:-1 10:-1 11:-1 12:-1 
-32 -0 32 32 32 32 32 32 32 1:-0.6 2:0.762023 3:-1 4:-1 5:-1 6:-1 8:-1 9:-1 10:-1 11:-1 12:-1 
-0 -0 32 32 32 32 32 32 32 1:-0.6 2:0.716526 3:-1 4:-1 5:-1 6:-1 8:-1 9:-1 10:-1 11:-1 12:-1 
-0 -32 32 32 32 32 32 32 32 1:-1 2:-1 3:-1 4:-1 5:-1 6:-1 8:-1 9:-1 10:-1 11:-1 12:-1 
-0 -32 32 32 32 32 32 32 32 1:-1 2:-1 3:-1 4:-1 5:-1 6:-1 8:-1 9:-1 10:-1 11:-1 12:-1 
-0 -32 32 32 32 32 32 32 32 1:-1 2:-1 3:-1 4:-1 5:-1 6:-1 8:-1 9:-1 10:-1 11:-1 12:-1 
-0 -32 32 32 32 32 32 32 32 1:-1 2:-1 3:-1 4:-1 5:-1 6:-1 8:-1 9:-1 10:-1 11:-1 12:-1 
-0 -0 32 0 32 32 32 32 32 1:-0.6 2:0.702118 3:-1 4:-1 5:-1 6:-1 8:-1 9:-1 10:-1 11:-1 12:-1 
-0 -32 32 32 32 32 32 32 32 1:-1 2:-1 3:-1 4:-1 5:-1 6:-1 8:-1 9:-1 10:-1 11:-1 12:-1 
-1.014782170852319 -32 32 32 32 32 32 32 32 1:-1 2:-1 3:-1 4:-1 5:-1 6:-1 8:-1 9:-1 10:-1 11:-1 12:-1 
-32 -32 32 32 32 32 32 32 32 1:-1 2:-1 3:-1 4:-1 5:-1 6:-1 8:-1 9:-1 10:-1 11:-1 12:-1 
-0 -0 32 8.331142931875982 32 32 32 32 32 1:-0.6 2:0.708756 3:-1 4:-1 5:-1 6:-1 8:-1 9:-1 10:-1 11:-1 12:-1 
-32 -0 32 32 32 32 32 32 32 1:-0.6 2:0.760431 3:-1 4:-1 5:-1 6:-1 8:-1 9:-1 10:-1 11:-1 12:-1 
-32 -0 32 32 32 32 32 32 32 1:-0.6 2:0.785123 3:-1 4:-1 5:-1 6:-1 8:-1 9:-1 10:-1 11:-1 12:-1 
-32 -32 32 32 32 32 32 32 32 1:-1 2:-1 3:-1 4:-1 5:-1 6:-1 8:-1 9:-1 10:-1 11:-1 12:-1 
-32 -32 32 32 32 32 32 32 32 1:-1 2:-1 3:-1 4:-1 5:-1 6:-1 8:-1 9:-1 10:-1 11:-1 12:-1 
-32 -32 32 32 32 32 32 32 32 1:-1 2:-1 3:-1 4:-1 5:-1 6:-1 8:-1 9:-1 10:-1 11:-1 12:-1 
-32 -32 32 32 32 32 32 32 32 1:-1 2:-1 3:-1 4:-1 5:-1 6:-1 8:-1 9:-1 10:-1 11:-1 12:-1 
-32 -0 32 32 0 32 32 32 32 1:-0.6 2:0.481919 3:-1 4:-1 5:-1 6:-1 8:-1 9:-1 10:-1 11:-1 12:-1 
-32 -0 0 32 32 32 0 32 32 1:-0.6 2:0.888406 3:-1 4:-1 5:-1 6:-1 8:-1 9:-1 10:-1 11:-1 12:-1 
-1.974437395453127 -0.02034854443915827 0 0 5.341099345349613 0.01708593093847797 0.02520253378423343 0 32 1:-0.2 2:0.943269 3:0.839499 4:0.748322 5:-1 6:-1 8:0.580829 9:0.00818311 10:-1 11:-1 12:-1 
-0 -0 0 0 4.443711766323873 0 0 0 32 1:-0.2 2:0.933263 3:0.916208 4:0.706954 5:-1 6:-1 8:0.44062 9:0.10095 10:-1 11:-1 12:-1 
-0 -0 0 0 32 0 0.002513625490463798 0 2.795347049088137 1:-0.2 2:0.97665 3:0.893961 4:0.781766 5:-1 6:-1 8:0.456925 9:0.0779702 10:-1 11:-1 12:-1 
-0.1922414199223556 -0.0790739140798731 0.3406018859114646 0.07210328396035026 0.3738429508552517 0.06213795493068701 0.1264015487287109 0.4240525967153188 0 1:0.2 2:0.978582 3:0.88505 4:0.800123 5:0.778999 6:0.769062 8:0.466613 9:0.426585 10:0.069229 11:-0.112612 12:-0.285803 
-0 -0 0 0 0 0 0 0 6.927408303498115 1:0.2 2:0.964966 3:0.902053 4:0.874161 5:0.80324 6:0.762139 8:0.469005 9:0.403686 10:0.0459419 11:-0.163188 12:-0.241497 
-0 -0 0 0 0 0 0 0 15.16869141985615 1:0.2 2:0.96598 3:0.908313 4:0.895192 5:0.841994 6:0.774694 8:0.472537 9:0.390763 10:0.0252777 11:-0.136212 12:-0.259939 
-0 -0.02585431948267119 0.01650673381961769 0 22.03780118050081 0.01820210214586479 0.0422341681666681 0 0 1:-0.2 2:0.982756 3:0.942296 4:0.863249 5:-1 6:-1 8:0.470879 9:-0.0166196 10:-1 11:-1 12:-1 
-0 -0 0 0 0 0 0 0 32 1:-0.2 2:0.992304 3:0.959351 4:0.959624 5:-1 6:-1 8:0.292178 9:-0.0285909 10:-1 11:-1 12:-1 
-0 -0 0 0 0 0 0 0 32 1:-0.2 2:0.974008 3:0.899424 4:0.898692 5:-1 6:-1 8:0.353011 9:-0.166241 10:-1 11:-1 12:-1 
-0 -0 0 0 0 0 0 0 32 1:-0.2 2:0.996394 3:0.932917 4:0.904177 5:-1 6:-1 8:0.4065 9:-0.192808 10:-1 11:-1 12:-1 
-0 -0 0 0 0 0 0 0 13.76064981349562 1:0.2 2:0.997222 3:0.994 4:0.984389 5:0.958509 6:0.958501 8:0.388112 9:0.388 10:-0.156663 11:-0.226301 12:-0.281807 
-0.1540577558751904 -0.06692781634070349 0.2738117218498902 0.05690650623820687 0 0.05181111873439239 0.1016540334802473 0.3574109252635863 0.4498179535085844 1:0.6 2:0.995576 3:0.994232 4:0.986904 5:0.983186 6:0.965536 8:0.799697 9:0.568797 10:0.282684 11:0.17307 12:0.00286234 
-0 -0 0 0 2.563596095098398 0 0 0 0 1:0.6 2:0.995232 3:0.9935 4:0.986578 5:0.984003 6:0.965568 8:0.796941 9:0.571141 10:0.294005 11:0.175302 12:0.00870059 
-0.4855246514669723 -0.2016710807522621 0.8587149484411363 0.1823494042144093 0.9276164821561339 0.1554189587018751 0.3182590835051249 1.064080474252758 5.085041846639982 1:0.6 2:0.994112 3:0.991309 4:0.984857 5:0.985752 6:0.966734 8:0.99776 9:0.991438 10:0.975748 11:-0.687522 12:-0.77047 
-0 -0 0 0 0.006583119672772012 0 0 0 0 1:0.2 2:0.99865 3:0.996427 4:0.994701 5:0.795468 6:0.785276 8:0.439864 9:0.390604 10:-0.17729 11:-0.206272 12:-0.275529 
-0 -0 0 0 0 0 0 0 0.1484750244090981 1:0.2 2:0.987488 3:0.971971 4:0.971889 5:0.968655 6:0.972758 8:0.53976 9:0.425668 10:-0.156598 11:-0.171035 12:-0.187754 
-0.3980305212676498 -0.1643687632791539 0.7019039818607299 0.1484741112219789 0.7565924616872484 0.1282279971069578 0.2603493536979697 0.8691085353720754 0 1:0.2 2:0.982846 3:0.983375 4:0.982586 5:0.981905 6:0.972075 8:0.32012 9:0.227965 10:0.0446344 11:0.0127652 12:-0.67061 
-0 -0 0 0 0 0 0 0 32 1:-0.2 2:0.986652 3:0.978455 4:0.931465 5:-1 6:-1 8:0.281772 9:-0.0320451 10:-1 11:-1 12:-1 
-0 -0 0 0 0 0 0 0 32 1:-0.2 2:0.986406 3:0.977673 4:0.929986 5:-1 6:-1 8:0.307014 9:-0.055695 10:-1 11:-1 12:-1 
-0 -0 0 0 0 0 0 0 32 1:-0.2 2:0.985028 3:0.977139 4:0.927413 5:-1 6:-1 8:0.327503 9:-0.0785657 10:-1 11:-1 12:-1 
-0 -0 0 0 0 0 0 0 6.898091259814357 1:-0.2 2:0.982662 3:0.976419 4:0.923362 5:-1 6:-1 8:0.343315 9:-0.0969689 10:-1 11:-1 12:-1 
-0 -0 0 0 14.37275854752949 0 0 0 0 1:-0.2 2:0.928823 3:0.725215 4:0.439326 5:-1 6:-1 8:0.443705 9:0.253529 10:-1 11:-1 12:-1 
-0 -0 0 0 0 0 0 0 11.71964198023213 1:0.2 2:0.985506 3:0.978591 4:0.930459 5:0.733615 6:0.633758 8:0.842553 9:0.462099 10:0.265755 11:-0.121656 12:-0.173 
-0 -0 0 0 0.8738687995432213 0 0 0 0 1:0.6 2:0.977864 3:0.978399 4:0.9729 5:0.964602 6:0.967471 8:0.762966 9:0.675009 10:0.466327 11:0.249534 12:0.0378666 
-0.2096042358049822 -0.08693049584867554 0.3708414969410587 0.07850378163811983 0.1374889088962871 0.06729190399076143 0.1377647648053691 0.5282876684964151 0.3391197205421264 1:0.6 2:0.987034 3:0.975202 4:0.975119 5:0.971857 6:0.964744 8:0.704691 9:0.717121 10:0.463757 11:0.302773 12:-0.109589 
-0.3010211027609502 -0.1247985016266387 0.5324184049190906 0.1129647965215647 0.7158517651186493 0.09703537987220506 0.197475899236394 0.6557052944449845 0 1:0.2 2:0.985386 3:0.973274 4:0.941163 5:0.787205 6:0.707101 8:0.814601 9:0.470257 10:0.362445 11:-0.15863 12:-0.182002 
-0.322529122889954 -0.1331989124035493 0.5673721692926982 0.1204384867358115 0.5967791124005759 0.1026092721377352 0.2103758823777713 0.7307741363913471 0 1:0.2 2:0.985586 3:0.956686 4:0.926436 5:0.780728 6:0.782509 8:0.75678 9:0.434952 10:-0.0391665 11:-0.41079 12:-0.503721 
-0 -0 0 0 0 0 0 0 0.01576185718087355 1:0.2 2:0.98704 3:0.944238 4:0.91953 5:0.806352 6:0.78708 8:0.737674 9:0.398831 10:-0.0094971 11:-0.425987 12:-0.465104 
-0 -0 0 0 0 0 0 0 32 1:-0.2 2:0.987696 3:0.949488 4:0.92893 5:-1 6:-1 8:0.133309 9:0.0496225 10:-1 11:-1 12:-1 
-0 -0 0 0 0 0 0 0 32 1:0.2 2:0.987774 3:0.96752 4:0.951997 5:0.94039 6:0.930791 8:0.465247 9:0.305739 10:-0.0549797 11:-0.253082 12:-0.283325 
-32 -0 0 0 32 32 0 32 32 1:-0.6 2:0.948217 3:-1 4:-1 5:-1 6:-1 8:-1 9:-1 10:-1 11:-1 12:-1 
-0 -0 0 0 0 0 0 0 32 1:-0.2 2:0.98486 3:0.973612 4:0.919212 5:-1 6:-1 8:0.302912 9:-0.0961513 10:-1 11:-1 12:-1 
-0 -0 0 0 0 0 0 0 32 1:0.2 2:0.984904 3:0.966233 4:0.951451 5:0.95326 6:0.891691 8:0.469167 9:0.322329 10:-0.113021 11:-0.263285 12:-0.250858 
-32 -0 32 32 32 32 32 32 32 1:-0.6 2:0.784031 3:-1 4:-1 5:-1 6:-1 8:-1 9:-1 10:-1 11:-1 12:-1 
-0 -0 0 0 0 0 0 0 32 1:-0.2 2:0.982792 3:0.906695 4:0.815492 5:-1 6:-1 8:0.300998 9:-0.121782 10:-1 11:-1 12:-1 
-32 -32 32 32 32 32 32 32 32 1:-1 2:-1 3:-1 4:-1 5:-1 6:-1 8:-1 9:-1 10:-1 11:-1 12:-1 
-32 -0 0 32 32 0 0 32 32 1:-0.6 2:0.979968 3:-1 4:-1 5:-1 6:-1 8:-1 9:-1 10:-1 11:-1 12:-1 
-0 -0 0 0 0 0 0 0 32 1:-0.2 2:0.978498 3:0.937312 4:0.84553 5:-1 6:-1 8:0.326291 9:-0.164616 10:-1 11:-1 12:-1 
-32 -0 0 32 32 0 0 32 32 1:-0.6 2:0.979126 3:-1 4:-1 5:-1 6:-1 8:-1 9:-1 10:-1 11:-1 12:-1 
-0 -0 32 0 32 16.1923643056946 0 32 32 1:-0.6 2:0.659251 3:-1 4:-1 5:-1 6:-1 8:-1 9:-1 10:-1 11:-1 12:-1 
-32 -32 32 32 32 32 32 32 32 1:-1 2:-1 3:-1 4:-1 5:-1 6:-1 8:-1 9:-1 10:-1 11:-1 12:-1 
-0 -0 32 0 32 0 0 32 32 1:-0.6 2:0.591752 3:-1 4:-1 5:-1 6:-1 8:-1 9:-1 10:-1 11:-1 12:-1 
-0 -0 0 3.225702642369099 0 0 0 0 0 1:-0.2 2:0.977178 3:0.805259 4:0.670166 5:-1 6:-1 8:0.351545 9:-0.245971 10:-1 11:-1 12:-1 
-0 -0 0 0 0 0 0 0 23.51024222630756 1:-0.2 2:0.979554 3:0.892788 4:0.79175 5:-1 6:-1 8:0.338219 9:-0.234127 10:-1 11:-1 12:-1 
-0 -0 0 0 0 0 0 0 32 1:-0.2 2:0.98189 3:0.923168 4:0.842624 5:-1 6:-1 8:0.343345 9:-0.251952 10:-1 11:-1 12:-1 
-32 -0 0 32 32 0 0 32 32 1:-0.6 2:0.983632 3:-1 4:-1 5:-1 6:-1 8:-1 9:-1 10:-1 11:-1 12:-1 
-0 -0 0 0 0 0 0 0 32 1:-0.2 2:0.985168 3:0.972111 4:0.920553 5:-1 6:-1 8:0.343437 9:-0.230836 10:-1 11:-1 12:-1 
-0 -0 0 0 0 0 0 0 32 1:-0.2 2:0.986606 3:0.903828 4:0.840549 5:-1 6:-1 8:0.343569 9:-0.25344 10:-1 11:-1 12:-1 
-32 -0 0 32 32 32 20.29378058405342 32 32 1:-0.6 2:0.867008 3:-1 4:-1 5:-1 6:-1 8:-1 9:-1 10:-1 11:-1 12:-1 
-32 -0 0 32 32 32 0 32 32 1:-0.6 2:0.896021 3:-1 4:-1 5:-1 6:-1 8:-1 9:-1 10:-1 11:-1 12:-1 
-32 -32 32 32 32 32 32 32 32 1:-1 2:-1 3:-1 4:-1 5:-1 6:-1 8:-1 9:-1 10:-1 11:-1 12:-1 
-32 -0 0 0 32 32 0 32 32 1:-0.6 2:0.926197 3:-1 4:-1 5:-1 6:-1 8:-1 9:-1 10:-1 11:-1 12:-1 
-32 -0 0 0 32 32 0 32 32 1:-0.6 2:0.943433 3:-1 4:-1 5:-1 6:-1 8:-1 9:-1 10:-1 11:-1 12:-1 
-32 -0 0 0 32 32 0 32 32 1:-0.6 2:0.929383 3:-1 4:-1 5:-1 6:-1 8:-1 9:-1 10:-1 11:-1 12:-1 
-32 -0 0 0 32 32 0 32 32 1:-0.6 2:0.918465 3:-1 4:-1 5:-1 6:-1 8:-1 9:-1 10:-1 11:-1 12:-1 
-32 -0 0 0 32 32 0 32 32 1:-0.6 2:0.936153 3:-1 4:-1 5:-1 6:-1 8:-1 9:-1 10:-1 11:-1 12:-1 
-32 -0 0 0 32 32 0 32 32 1:-0.6 2:0.944411 3:-1 4:-1 5:-1 6:-1 8:-1 9:-1 10:-1 11:-1 12:-1 
-32 -32 32 32 32 32 32 32 32 1:-1 2:-1 3:-1 4:-1 5:-1 6:-1 8:-1 9:-1 10:-1 11:-1 12:-1 
-32 -0 0 0 32 32 0.4293117722601759 32 32 1:-0.6 2:0.950289 3:-1 4:-1 5:-1 6:-1 8:-1 9:-1 10:-1 11:-1 12:-1 
-32 -0 0 0 32 32 0 32 32 1:-0.6 2:0.953183 3:-1 4:-1 5:-1 6:-1 8:-1 9:-1 10:-1 11:-1 12:-1 
-32 -32 32 32 32 32 32 32 32 1:-1 2:-1 3:-1 4:-1 5:-1 6:-1 8:-1 9:-1 10:-1 11:-1 12:-1 
-32 -0 0 0 32 32 21.16650877351466 32 32 1:-0.6 2:0.953371 3:-1 4:-1 5:-1 6:-1 8:-1 9:-1 10:-1 11:-1 12:-1 
-32 -32 32 32 32 32 32 32 32 1:-1 2:-1 3:-1 4:-1 5:-1 6:-1 8:-1 9:-1 10:-1 11:-1 12:-1 
-32 -32 32 32 32 32 32 32 32 1:-1 2:-1 3:-1 4:-1 5:-1 6:-1 8:-1 9:-1 10:-1 11:-1 12:-1 
-32 -32 32 32 32 32 32 32 32 1:-1 2:-1 3:-1 4:-1 5:-1 6:-1 8:-1 9:-1 10:-1 11:-1 12:-1 
-32 -0 0 0 32 32 0.5497319299156438 32 32 1:-0.6 2:0.956263 3:-1 4:-1 5:-1 6:-1 8:-1 9:-1 10:-1 11:-1 12:-1 
-32 -0 32 32 32 0 0 32 32 1:-0.6 2:0.977756 3:-1 4:-1 5:-1 6:-1 8:-1 9:-1 10:-1 11:-1 12:-1 
-0 -0 0 0 0 0 0 0 32 1:-0.2 2:0.978246 3:0.963727 4:0.957771 5:-1 6:-1 8:0.263915 9:-0.0236994 10:-1 11:-1 12:-1 
-0 -0 0 0 0 0 0 0 32 1:-0.2 2:0.97894 3:0.966952 4:0.957693 5:-1 6:-1 8:0.26861 9:-0.0549824 10:-1 11:-1 12:-1 
-32 -32 32 32 32 32 32 32 32 1:-1 2:-1 3:-1 4:-1 5:-1 6:-1 8:-1 9:-1 10:-1 11:-1 12:-1 
-32 -32 32 32 32 32 32 32 32 1:-1 2:-1 3:-1 4:-1 5:-1 6:-1 8:-1 9:-1 10:-1 11:-1 12:-1 
-32 -0 0 32 32 0 0 32 32 1:-0.6 2:0.98766 3:-1 4:-1 5:-1 6:-1 8:-1 9:-1 10:-1 11:-1 12:-1 
-0.5757598529415906 -0.1813460032073194 0.7337084766819599 0 0 0.1389541297438919 0.2859063367967647 1.000912119342212 0 1:-0.2 2:0.998792 3:0.995249 4:0.995199 5:-1 6:-1 8:0.0477798 9:0.0298244 10:-1 11:-1 12:-1 
-0 -0 0 1.642612749496898 32 0 0 32 32 1:-0.6 2:0.992654 3:-1 4:-1 5:-1 6:-1 8:-1 9:-1 10:-1 11:-1 12:-1 
-0 -0 0 0 0 0 0 0 6.501239750323857 1:0.2 2:0.99178 3:0.986264 4:0.985992 5:0.970729 6:0.969119 8:0.387612 9:0.297446 10:-0.0290371 11:-0.238772 12:-0.308184 
-32 -0 0 0 32 32 29.58456499711761 32 32 1:-0.6 2:0.955415 3:-1 4:-1 5:-1 6:-1 8:-1 9:-1 10:-1 11:-1 12:-1 
-0 -0 0 0 0 0 0 0 32 1:-0.2 2:0.988586 3:0.949612 4:0.916554 5:-1 6:-1 8:0.377781 9:-0.250384 10:-1 11:-1 12:-1 
-0 -0 0 0 0 0 0 0 32 1:-0.2 2:0.98797 3:0.940887 4:0.9232 5:-1 6:-1 8:0.383734 9:-0.254678 10:-1 11:-1 12:-1 
-32 -0 0 0 32 32 0 32 32 1:-0.6 2:0.932449 3:-1 4:-1 5:-1 6:-1 8:-1 9:-1 10:-1 11:-1 12:-1 
-32 -0 28.31891359353969 32 32 0 0 32 32 1:-0.6 2:0.978548 3:-1 4:-1 5:-1 6:-1 8:-1 9:-1 10:-1 11:-1 12:-1 
-0.3312610422362674 -0.137917402258725 0.5867427542030432 0.1242709904909504 0.6231630889427034 0.1052555718332762 0.2174469181197934 0.7312391975848113 3.292349617977878 1:0.2 2:0.98523 3:0.984091 4:0.982205 5:0.984087 6:0.945034 8:0.482225 9:0.219565 10:0.175804 11:-0.285791 12:-0.385184 
-0 -0.0829043839658454 0.4417426597090949 0 5.944572036706785 0.06565667922395758 0.132174720360631 0.4520530443393337 32 1:-0.2 2:0.98835 3:0.984883 4:0.956268 5:-1 6:-1 8:0.221159 9:0.142967 10:-1 11:-1 12:-1 
-0 -0 0 0 0 0 0 0 1.945250723173553 1:0.2 2:0.992536 3:0.986208 4:0.960927 5:0.929172 6:0.929179 8:0.471847 9:0.252619 10:0.159422 11:-0.217048 12:-0.451835 
-0 -0 0 0 0 0 0 0 32 1:-0.2 2:0.994088 3:0.940831 4:0.898271 5:-1 6:-1 8:0.347173 9:-0.121321 10:-1 11:-1 12:-1 
-0.1407116674606347 -0.05858441634023535 0.2486822505956357 0.05292609322449678 0.2391781166560422 0.04487621186276915 0.09207955873985411 0.3246403100405932 1.529720004093399 1:0.2 2:0.994018 3:0.872166 4:0.838018 5:0.826849 6:0.77557 8:0.87994 9:0.465757 10:0.264938 11:0.0295881 12:-0.362472 
-0 -0 0 0 0 0 0 0 32 1:-0.2 2:0.994674 3:0.885686 4:0.843093 5:-1 6:-1 8:0.255787 9:-0.0510962 10:-1 11:-1 12:-1 
-0 -0 0 0 0 0 0 0 32 1:-0.2 2:0.995326 3:0.865384 4:0.824418 5:-1 6:-1 8:0.156684 9:0.0390199 10:-1 11:-1 12:-1 
-0 -0 0 0 0 0 0 0 32 1:-0.2 2:0.995854 3:0.879082 4:0.834822 5:-1 6:-1 8:0.151626 9:0.0646483 10:-1 11:-1 12:-1 
-0 -0 0 0 0 0 0 0.09777514408635314 32 1:-0.2 2:0.996536 3:0.883619 4:0.841065 5:-1 6:-1 8:0.123809 9:0.0823065 10:-1 11:-1 12:-1 
-0 -0 0 0 0 0 0 0 32 1:-0.2 2:0.996544 3:0.869137 4:0.829691 5:-1 6:-1 8:0.177956 9:0.0253124 10:-1 11:-1 12:-1 
-32 -0 32 32 32 32 32 32 32 1:-0.6 2:0.806999 3:-1 4:-1 5:-1 6:-1 8:-1 9:-1 10:-1 11:-1 12:-1 
-0 -10.84825419633695 0 0 32 0 0 32 32 1:-0.6 2:0.99693 3:-1 4:-1 5:-1 6:-1 8:-1 9:-1 10:-1 11:-1 12:-1 
-0 -0 0 0 0 0 0 0 32 1:-0.2 2:0.99693 3:0.822592 4:0.780209 5:-1 6:-1 8:0.297048 9:-0.0392844 10:-1 11:-1 12:-1 
-32 -32 32 32 32 32 32 32 32 1:-1 2:-1 3:-1 4:-1 5:-1 6:-1 8:-1 9:-1 10:-1 11:-1 12:-1 
-32 -0 32 32 32 32 32 32 32 1:-0.6 2:0.756993 3:-1 4:-1 5:-1 6:-1 8:-1 9:-1 10:-1 11:-1 12:-1 
-32 -32 32 32 32 32 32 32 32 1:-1 2:-1 3:-1 4:-1 5:-1 6:-1 8:-1 9:-1 10:-1 11:-1 12:-1 
-32 -32 32 32 32 32 32 32 32 1:-0.6 2:0.839014 3:-1 4:-1 5:-1 6:-1 8:-1 9:-1 10:-1 11:-1 12:-1 
-0 -0 0 0 0 0 0 0 32 1:-0.2 2:0.994752 3:0.833794 4:0.771542 5:-1 6:-1 8:0.507474 9:-0.289675 10:-1 11:-1 12:-1 
-32 -21.76855587714996 0 32 32 32 32 32 32 1:-0.6 2:0.857872 3:-1 4:-1 5:-1 6:-1 8:-1 9:-1 10:-1 11:-1 12:-1 
-0.4735321307822162 -0.05577396351743222 0 0 0 0.04343206755070601 0.09899302688686108 1.147270426380751 0 1:-0.2 2:0.996158 3:0.936534 4:0.904429 5:-1 6:-1 8:0.533214 9:-0.34951 10:-1 11:-1 12:-1 
-0 -32 0 0 32 0 0 32 32 1:-0.6 2:0.997434 3:-1 4:-1 5:-1 6:-1 8:-1 9:-1 10:-1 11:-1 12:-1 
-0 -32 0 0 32 0 0 32 32 1:-0.6 2:0.999768 3:-1 4:-1 5:-1 6:-1 8:-1 9:-1 10:-1 11:-1 12:-1 
-0 -32 0 0 32 0 0 32 32 1:-0.6 2:0.999874 3:-1 4:-1 5:-1 6:-1 8:-1 9:-1 10:-1 11:-1 12:-1 
-0 -0 0 0 0 0 0 0 32 1:-0.2 2:0.989524 3:0.955918 4:0.931163 5:-1 6:-1 8:0.30643 9:-0.168294 10:-1 11:-1 12:-1 
-0 -0 0 0 32 0 0 32 32 1:-0.6 2:0.993456 3:-1 4:-1 5:-1 6:-1 8:-1 9:-1 10:-1 11:-1 12:-1 
-0.1363375036493704 -0.05705415445568796 0.2436814904797907 0.05155810886634878 0.2663703066554137 0.04243769222470088 0.09010945509542269 0.3080070381724561 0 1:0.2 2:0.994302 3:0.967224 4:0.964845 5:0.941408 6:0.926565 8:0.300998 9:0.168127 10:0.0177957 11:-0.00111375 12:-0.637913 
-0.05494646687873913 -0.02282919225097284 0.09616815791684091 0.02113163868423856 0.1022872906076952 0.01838060837768925 0.03635394033220396 0.1177101668054492 1.646292623023493 1:0.2 2:0.99573 3:0.984147 4:0.982117 5:0.835451 6:0.756101 8:0.380423 9:0.189851 10:-0.0391604 11:-0.0850483 12:-0.500573 
-0 -0 32 0 32 0 0 32 32 1:-0.6 2:0.641969 3:-1 4:-1 5:-1 6:-1 8:-1 9:-1 10:-1 11:-1 12:-1 
-0 -0 32 0 32 32 0 32 32 1:-0.6 2:0.677269 3:-1 4:-1 5:-1 6:-1 8:-1 9:-1 10:-1 11:-1 12:-1 
-0 -0 32 0 32 0 0 32 32 1:-0.6 2:0.643521 3:-1 4:-1 5:-1 6:-1 8:-1 9:-1 10:-1 11:-1 12:-1 
-0.3953306587798698 -0.1643558950959935 0.702536708126538 0.1493708507460356 0.7584076572802649 0.1270799516533477 0.2608984449820798 0.8715962691921113 0.0240195393668903 1:0.2 2:0.994658 3:0.991675 4:0.982187 5:0.546723 6:0.429216 8:0.474249 9:0.184733 10:-0.0498865 11:-0.264668 12:-0.385743 
-0 -0 0 15.37152657465364 0 0 0 0.9643590512243763 11.30051019394467 1:-0.2 2:0.990516 3:0.572655 4:0.453077 5:-1 6:-1 8:0.490931 9:-0.325141 10:-1 11:-1 12:-1 
-0 -0 0 0 0 0 0 0 5.529052152381115 1:0.2 2:0.999478 3:0.978651 4:0.975507 5:0.701857 6:0.68142 8:0.491407 9:0.18912 10:-0.0630116 11:-0.310754 12:-0.357378 
-32 -21.10844815160512 32 32 32 32 32 32 32 1:-0.6 2:0.821594 3:-1 4:-1 5:-1 6:-1 8:-1 9:-1 10:-1 11:-1 12:-1 
