svm_type c_svc
kernel_type rbf
gamma 8
nr_class 10
total_sv 5757
rho -0.758666 3.01677 1.16381 -0.467922 0.571831 -1.97843 -0.783769 1.57558 5.45555 0.280082 2.93872 0.683508 8.03868 1.18603 0.500695 20.5092 3.40669 0.301155 -0.0583885 -0.877577 -18.5445 -8.81441 0.680848 3.40862 -2.20314 -1.17023 -7.29474 -7.06491 -0.763785 0.514782 0.698043 -0.433334 -0.21567 1.33008 0.977272 -1.5914 -0.0597266 2.37899 1.34062 -0.122358 22.843 17.8315 17.2212 11.7916 1.11642
label 1 2 3 4 5 6 7 8 9 10
nr_sv 199 96 234 571 571 454 787 607 1210 1028
SV
0 0 0.4405286678032621 0 0 0 0 0.3089930988176682 0 1:-0.2 2:0.925795 3:-0.0484503 4:-0.363347 5:-1 6:-1 7:0.197086 8:0.352604 9:-0.855537 10:-1 11:-1 
0.2028571759351706 3.379575595112655 2.558299255739608 0.4635205049082209 1.964232209600922 0 0.4405822690829241 2.74538712009728 6.195003227198574 1:-0.2 2:0.924217 3:-0.188018 4:-0.505188 5:-1 6:-1 7:0.188365 8:0.345567 9:-0.859416 10:-1 11:-1 
0 0 5.002666976565782 0 0 0 0 0 0 1:-0.2 2:0.925055 3:0.248361 4:-0.0438911 5:-1 6:-1 7:0.181708 8:0.336705 9:-0.858831 10:-1 11:-1 
0.07044599606074546 1.168339467655176 0.5333011993053147 0.1553462105459035 0.9336082113740963 0 0.1197912086203636 2.020199086106279 3.262450958105241 1:-0.2 2:0.925551 3:0.105466 4:-0.191819 5:-1 6:-1 7:0.176014 8:0.329453 9:-0.859057 10:-1 11:-1 
0.2997022884023241 2.862187711616981 189.2783166688384 0 9.069928171946513 339.1076804665389 36.49805538772904 2048 788.7566222468027 1:-0.6 2:0.199573 3:-1 4:-1 5:-1 6:-1 7:0.0962316 8:-1 9:-1 10:-1 11:-1 
0 0 1.90557042273675 0 0 0 0 0 50.80822758573095 1:-0.2 2:0.924971 3:0.492564 4:0.209716 5:-1 6:-1 7:0.16472 8:0.306646 9:-0.859263 10:-1 11:-1 
0.10368030814502 1.614094641760948 0 0.2573675115261923 0.8860080140562638 0 0.229370032977676 0 0 1:-0.2 2:0.924931 3:0.259289 4:-0.0406092 5:-1 6:-1 7:0.159314 8:0.297152 9:-0.85682 10:-1 11:-1 
0.00920604850525167 0.3243484597597259 0 0 0 0 0 0 0 1:-0.2 2:0.924995 3:0.299367 4:0.0110836 5:-1 6:-1 7:0.15533 8:0.291124 9:-0.855298 10:-1 11:-1 
0 0 693.3060373714447 0 0 2048 761.3310049179491 2048 2048 1:-0.6 2:0.558662 3:-1 4:-1 5:-1 6:-1 7:0.0640404 8:-1 9:-1 10:-1 11:-1 
0 0 0 0 0 0 0 0 167.9157176861443 1:-0.2 2:0.924005 3:0.534355 4:0.260446 5:-1 6:-1 7:0.13743 8:0.266229 9:-0.853981 10:-1 11:-1 
0.00681534551059761 0 0 0 0 0 0.1132816744897126 4.092819476151649 0 1:-0.2 2:0.913323 3:0.420331 4:0.138772 5:-1 6:-1 7:0.132334 8:0.259981 9:-0.851322 10:-1 11:-1 
0 0 0 0 0 0 0 0 144.4890544350081 1:-0.2 2:0.915205 3:0.654075 4:0.403335 5:-1 6:-1 7:0.12752 8:0.25411 9:-0.853301 10:-1 11:-1 
0 0 0 0 0 194.6101174449427 0 0 264.8786488319645 1:-0.6 2:0.655149 3:-1 4:-1 5:-1 6:-1 7:0.0314733 8:-1 9:-1 10:-1 11:-1 
0 0 0 0 0 0 1494.995847393522 0 0 1:-0.6 2:0.659167 3:-1 4:-1 5:-1 6:-1 7:0.024782 8:-1 9:-1 10:-1 11:-1 
0.05734291322017444 0.9936043481398958 0 0 1.426889647532184 0 0.06567246401206565 12.9233248975814 0 1:-0.2 2:0.916781 3:0.844637 4:0.626164 5:-1 6:-1 7:0.113672 8:0.229703 9:-0.853651 10:-1 11:-1 
0 0 0 0.3237338536627825 0 0 0 3.93227110937418 7.970088589986797 1:-0.2 2:0.917263 3:0.823022 4:0.602548 5:-1 6:-1 7:0.112459 8:0.227974 9:-0.853566 10:-1 11:-1 
0.2039324050315028 4.784284960382407 0 0.1964621291289926 0 2048 0 2048 2048 1:-0.6 2:0.724304 3:-1 4:-1 5:-1 6:-1 7:0.0113208 8:-1 9:-1 10:-1 11:-1 
0.07302115479570553 0 0 0.7898276396917365 44.39848187718103 1990.873427068327 2048 2048 1468.276593471815 1:-0.6 2:0.538102 3:-1 4:-1 5:-1 6:-1 7:0.00818493 8:-1 9:-1 10:-1 11:-1 
0 0 0 0 0 0 0 2048 0 1:-0.6 2:0.679274 3:-1 4:-1 5:-1 6:-1 7:0.00635586 8:-1 9:-1 10:-1 11:-1 
0 0 0 0 0 0 2048 2048 0 1:-0.6 2:0.58899 3:-1 4:-1 5:-1 6:-1 7:0.00497477 8:-1 9:-1 10:-1 11:-1 
0 0 0 0 2.864441970717469 0 0 0 0 1:-0.2 2:0.918487 3:0.671911 4:0.425854 5:-1 6:-1 7:0.104675 8:0.215294 9:-0.853419 10:-1 11:-1 
0.03288445387003426 0.6315690599099555 0 0 2.677609034692574 0 0.7671088893812312 2.297262950120857 0 1:-0.2 2:0.920161 3:0.503176 4:0.235711 5:-1 6:-1 7:0.102556 8:0.21549 9:-0.852674 10:-1 11:-1 
0 0 0 0 0 0 1028.916901228366 201.8951872682738 0 1:-0.6 2:0.687468 3:-1 4:-1 5:-1 6:-1 7:0.0143059 8:-1 9:-1 10:-1 11:-1 
2048 2048 2048 2048 2048 2048 2048 2048 2048 1:-1 2:-1 3:-1 4:-1 5:-1 6:-1 7:-1 8:-1 9:-1 10:-1 11:-1 
0.05281567539211086 0.8436645557826816 1.665864565228691 0.003975942956011979 0 0 0 0 8.833510366462994 1:-0.2 2:0.893399 3:0.795466 4:0.497423 5:-1 6:-1 7:0.136692 8:0.263735 9:-0.8563 10:-1 11:-1 
0 0 0.04114191518355635 0 0 0 0 5.063709251284418 0 1:-0.2 2:0.888008 3:0.699023 4:0.359651 5:-1 6:-1 7:0.13974 8:0.268381 9:-0.856573 10:-1 11:-1 
0.05833466200762578 3.090212032037934 36.65528368595301 0.1262147792520268 0 0 0.05139850553475905 0 6.255947290744773 1:-0.2 2:0.885844 3:0.317973 4:0.206462 5:-1 6:-1 7:-0.762123 8:-0.743747 9:-0.856344 10:-1 11:-1 
0.09403396605888265 1.553092341441526 0.8364050317265457 0.206057948763749 1.967754595606521 0 0.08114322899766824 0.996431539829112 2.49779827464449 1:0.2 2:0.888934 3:0.746476 4:0.601271 5:0.306843 6:0.251218 7:0.203585 8:0.38881 9:0.292171 10:-0.69261 11:-0.608098 
0.1525234916003222 2.553824340811763 1.375494441208056 0.3378723667679714 0.9581755913624664 0 0.1381732006159787 1.636582978949292 4.102230326938711 1:0.2 2:0.896637 3:0.741226 4:0.390275 5:0.324259 6:0.276829 7:0.211216 8:0.405632 9:0.310417 10:-0.701026 11:-0.612009 
0.1077718126135102 1.802158908629443 1.865264409037198 0.6026489152208743 1.262499246813254 0 0.05825092164344196 3.824487224787865 28.51505212080359 1:-0.2 2:0.742998 3:0.551949 4:0.338945 5:-1 6:-1 7:0.21456 8:0.303267 9:-0.721747 10:-1 11:-1 
0 0 0 0.0009588654869771285 0 0 0.01993598214127248 0 0 1:0.2 2:0.901241 3:0.761137 4:0.741292 5:0.479227 6:0.448667 7:0.219712 8:0.419253 9:0.324671 10:-0.703076 11:-0.614441 
0.04534371004483849 0.7541292091220423 0.4066468857918521 0.09887523052154425 0.2010249639168238 0 0.02017328867837391 0.4831026041310782 1.211771115602734 1:0.2 2:0.902161 3:0.767163 4:0.762046 5:0.511249 6:0.471539 7:0.220637 8:0.422103 9:0.326545 10:-0.702831 11:-0.614905 
0.09608241659536632 1.603156015972939 0.8631924974965955 0.21245594806814 0.7916655680218425 0 0.08805984456327461 1.028217484892049 2.576294262874331 1:0.2 2:0.904513 3:0.893743 4:0.704792 5:0.703522 6:0.46502 7:0.226052 8:0.434322 9:0.334316 10:-0.698889 11:-0.618008 
0.05856636871985637 10.58770754729603 0 0.1290500788842114 0 0 0.07477570637699021 0 0 1:-0.2 2:0.906309 3:0.46039 4:0.415922 5:-1 6:-1 7:-0.768995 8:-0.7405 9:-0.839995 10:-1 11:-1 
0.08321463081577185 3.91010438356856 0.5277927560531506 0.1839015198373033 3.440273950077883 0 0.05306002653085912 1.311484046142682 8.653319448442137 1:-0.2 2:0.907269 3:0.500215 4:0.419671 5:-1 6:-1 7:-0.773901 8:-0.748965 9:-0.840056 10:-1 11:-1 
0.08313273967989049 1.390172405340837 0.7486683315591589 0.1844408728952056 0.4765633355897432 0 0.07475975748178537 0.8911717155478753 2.234382676504528 1:0.2 2:0.912151 3:0.755985 4:0.68326 5:0.658715 6:0.631558 7:0.296981 8:0.545565 9:0.440367 10:-0.708534 11:-0.626566 
0 14.34232389821138 0.05045791066451638 0 0 0 0 0 7.747145433417282 1:-0.2 2:0.914305 3:0.742029 4:0.681398 5:-1 6:-1 7:-0.786158 8:-0.761544 9:-0.852576 10:-1 11:-1 
0.155856651719584 2.050174554561615 370.7604295876612 0 0.04094818625639413 17.45433176818964 0 1.642029968746403 0 1:-0.6 2:0.901349 3:-1 4:-1 5:-1 6:-1 7:0.364884 8:-1 9:-1 10:-1 11:-1 
0.03166117194489559 0.5642099546125769 0.304081694315432 0.07329120869006464 0.2118527377063552 0 0.03340479460992084 0.3650820199506443 0.9097397552272249 1:0.2 2:0.988304 3:0.978309 4:0.963022 5:0.951729 6:0.920828 7:0.369288 8:0.644205 9:0.537061 10:-0.713405 11:-0.613131 
0.01674336499543155 0.6306600457764262 2048 2.071585510969443 0 0 0 57.87011038281496 38.31995564382214 1:-0.6 2:0.799603 3:-1 4:-1 5:-1 6:-1 7:0.391859 8:-1 9:-1 10:-1 11:-1 
2048 2048 2048 2048 2048 2048 2048 2048 2048 1:-1 2:-1 3:-1 4:-1 5:-1 6:-1 7:-1 8:-1 9:-1 10:-1 11:-1 
0.1508274496079668 2.506717593993567 1.350564815567701 0.3318087623791441 0.9711200364585102 0 0.1347608663899634 1.607667354215066 4.02960975080743 1:0.2 2:0.901119 3:0.82895 4:0.692081 5:0.618342 6:0.292354 7:0.422429 8:0.705954 9:0.721977 10:-0.358854 11:-0.273743 
2048 2048 2048 2048 2048 2048 2048 2048 2048 1:-1 2:-1 3:-1 4:-1 5:-1 6:-1 7:-1 8:-1 9:-1 10:-1 11:-1 
0.1134720400990644 1.89146893983435 1.018816974422385 0.2505611326287329 0.7614316174453054 0 0.1019887454893129 1.212484866693496 3.03930333014769 1:0.2 2:0.951983 3:0.902923 4:0.828536 5:0.448978 6:0.121399 7:0.429671 8:0.709814 9:0.612 10:-0.357595 11:-0.244402 
0.1593567518195079 2.745378299187287 0 0.3511188238035173 2.898782518068879 0 0.1570948788568235 4.556456695401448 3.138916661878262 1:-0.2 2:0.903027 3:0.0923901 4:-0.157132 5:-1 6:-1 7:-0.506741 8:-0.503659 9:-0.840992 10:-1 11:-1 
0.1526228829184586 2.588604513056487 0.7666062567601943 0.31504058448081 1.077542618000959 0 0.1240750539992392 0 1.612833818180414 1:-0.2 2:0.976852 3:0.909796 4:0.797756 5:-1 6:-1 7:0.453178 8:0.642211 9:-0.85186 10:-1 11:-1 
2048 2048 2048 2048 2048 2048 2048 2048 2048 1:-1 2:-1 3:-1 4:-1 5:-1 6:-1 7:-1 8:-1 9:-1 10:-1 11:-1 
0 0 0 0 0 0 0 0 1.616119126313307 1:-0.2 2:0.919509 3:0.723885 4:0.462666 5:-1 6:-1 7:0.471595 8:0.667879 9:-0.855427 10:-1 11:-1 
0.2381683667458442 3.964027558197614 2.135350859012279 0.5246124694389722 1.557379720650579 0 0.2129447050429389 2.541422278258923 6.370518924755812 1:0.2 2:0.921071 3:0.506449 4:0.223674 5:0.119068 6:-0.083067 7:0.473031 8:0.721462 9:0.686024 10:-0.361716 11:-0.250485 
0 0 3.357233114605945 0 0 0 0 0 0 1:-0.2 2:0.924373 3:0.389288 4:0.103276 5:-1 6:-1 7:0.475975 8:0.670938 9:-0.852346 10:-1 11:-1 
0.1887741791724183 3.14409869175498 1.691351112214589 0.4591597475636748 1.053656921611328 0 0.1691621482358885 2.018328415396814 5.05299510930865 1:-0.2 2:0.239633 3:-0.0641852 4:-0.68395 5:-1 6:-1 7:0.476523 8:0.726255 9:-0.411442 10:-1 11:-1 
0.01976560591684584 0.3014957620044378 0 0.00522483930318947 0.2172123926934665 0 0.02680146496313995 0 0 1:-0.2 2:0.922497 3:0.922314 4:0.709167 5:-1 6:-1 7:0.471243 8:0.658753 9:-0.84477 10:-1 11:-1 
0.01052050953485048 0.192648529418801 3.125556209699641 0.05882600070841078 0 0 0 1.437362213846715 0 1:-0.2 2:0.920743 3:0.7706 4:0.50905 5:-1 6:-1 7:0.462113 8:0.645471 9:-0.840542 10:-1 11:-1 
0.1597282417610632 2.626206064452031 1.414851541507729 0.3489275372479014 1.033155075308806 0 0.1396017881336457 1.681602653059119 4.218633987955483 1:0.2 2:0.987246 3:0.982012 4:0.961725 5:0.926279 6:0.883304 7:0.440639 8:0.729132 9:0.635865 10:-0.719295 11:-0.608667 
0 22.36083372754721 0 0 0 0 0 0 9.55710305406155 1:-0.2 2:0.924353 3:0.882399 4:0.713532 5:-1 6:-1 7:-0.781908 8:-0.745501 9:-0.84373 10:-1 11:-1 
0.03421353699684447 0.5430942456802285 0.6847540509358941 0.1392354066606403 0.03086438014994648 0 0.04153375066187878 3.011566261930499 5.521797531481539 1:-0.2 2:0.945031 3:0.927017 4:0.75511 5:-1 6:-1 7:0.387152 8:0.558117 9:-0.844225 10:-1 11:-1 
0 0 0 0 5.900365744233921 0 0 0 0 1:-0.2 2:0.997984 3:0.927371 4:0.914703 5:-1 6:-1 7:-0.771141 8:-0.745657 9:-0.847372 10:-1 11:-1 
0 11.43205801124543 0 0 0 0 0 0 9.516463262661418 1:-0.2 2:0.997782 3:0.926905 4:0.920933 5:-1 6:-1 7:-0.776307 8:-0.75366 9:-0.859158 10:-1 11:-1 
0.08745520111878477 0 0.8308998388421041 0.1949083011414169 0 0 0.0789199663716823 0.9477455170337585 0 1:-0.2 2:0.991822 3:0.927115 4:0.925418 5:-1 6:-1 7:-0.774609 8:-0.751966 9:-0.860858 10:-1 11:-1 
2048 2048 2048 2048 2048 2048 2048 2048 2048 1:-1 2:-1 3:-1 4:-1 5:-1 6:-1 7:-1 8:-1 9:-1 10:-1 11:-1 
0.08227039668256431 1.369545381708207 0.7382508897349768 0.1808007185724288 0.5283640405899838 0 0.0753315842532279 0.8783921865231982 2.201523267729767 1:0.2 2:0.984724 3:0.926849 4:0.921143 5:0.679162 6:0.600609 7:0.320727 8:0.580562 9:0.488331 10:-0.712966 11:-0.623724 
0 0 0 0 0 0 0 0 6.705977236673714 1:-0.2 2:0.961503 3:0.926229 4:0.909386 5:-1 6:-1 7:-0.780138 8:-0.755014 9:-0.862417 10:-1 11:-1 
0.06692056503073869 1.102539030777252 0.5934745611351215 0.1467466186326898 0.4412966152969919 0 0.05732771087351111 0.7051859843747083 1.769910881992766 1:0.2 2:0.948733 3:0.926211 4:0.900991 5:0.882087 6:0.848674 7:0.307401 8:0.559196 9:0.467628 10:-0.713208 11:-0.627612 
0 34.41665071918467 0 0 0 0 0 0 0 1:-0.2 2:0.931013 3:0.916778 4:0.878914 5:-1 6:-1 7:-0.777144 8:-0.75711 9:-0.861978 10:-1 11:-1 
0 0 0 0 0 0 0 0 2048 1:-0.6 2:0.929281 3:-1 4:-1 5:-1 6:-1 7:-0.889218 8:-1 9:-1 10:-1 11:-1 
0 0 0 0 0 0 0 0 2048 1:-0.6 2:0.929419 3:-1 4:-1 5:-1 6:-1 7:-0.889669 8:-1 9:-1 10:-1 11:-1 
0 25.82881392543391 0 0 0 0 0 0 0 1:-0.2 2:0.928695 3:0.841376 4:0.826929 5:-1 6:-1 7:-0.769389 8:-0.748016 9:-0.864933 10:-1 11:-1 
0 0 0 0 0 0 0 0 343.5045592773017 1:-0.6 2:0.927645 3:-1 4:-1 5:-1 6:-1 7:-0.888608 8:-1 9:-1 10:-1 11:-1 
2048 2048 2048 2048 2048 2048 2048 2048 2048 1:-1 2:-1 3:-1 4:-1 5:-1 6:-1 7:-1 8:-1 9:-1 10:-1 11:-1 
2048 2048 2048 2048 2048 2048 2048 2048 2048 1:-1 2:-1 3:-1 4:-1 5:-1 6:-1 7:-1 8:-1 9:-1 10:-1 11:-1 
0 0 0 0 0 0 0 0 2048 1:-0.6 2:0.924115 3:-1 4:-1 5:-1 6:-1 7:-0.889775 8:-1 9:-1 10:-1 11:-1 
0 0 0 0 0 0 0 0 2048 1:-0.6 2:0.925381 3:-1 4:-1 5:-1 6:-1 7:-0.889742 8:-1 9:-1 10:-1 11:-1 
0 0 0 0 0 0 0 0 2048 1:-0.6 2:0.925673 3:-1 4:-1 5:-1 6:-1 7:-0.889113 8:-1 9:-1 10:-1 11:-1 
0 0 0 0 0 0 0 0 2048 1:-0.6 2:0.924843 3:-1 4:-1 5:-1 6:-1 7:-0.89039 8:-1 9:-1 10:-1 11:-1 
0 0 0 0 0 0 0 0 2048 1:-0.6 2:0.923531 3:-1 4:-1 5:-1 6:-1 7:-0.892769 8:-1 9:-1 10:-1 11:-1 
0 0 0 0 0 0 0 2048 2048 1:-0.6 2:0.922795 3:-1 4:-1 5:-1 6:-1 7:-0.894022 8:-1 9:-1 10:-1 11:-1 
0 0 0 14.26140638738659 0 0 0 120.5917000363045 2048 1:-0.6 2:0.921615 3:-1 4:-1 5:-1 6:-1 7:-0.894219 8:-1 9:-1 10:-1 11:-1 
0 0 0 0 0 0 0 0 2048 1:-0.6 2:0.920907 3:-1 4:-1 5:-1 6:-1 7:-0.894019 8:-1 9:-1 10:-1 11:-1 
0 0 0 0 0 0 0 0 2048 1:-0.6 2:0.919489 3:-1 4:-1 5:-1 6:-1 7:-0.893138 8:-1 9:-1 10:-1 11:-1 
0 0 0 0 0 0 0 0 2048 1:-0.6 2:0.919125 3:-1 4:-1 5:-1 6:-1 7:-0.891952 8:-1 9:-1 10:-1 11:-1 
0 0 0 0 0 0 0 0 2048 1:-0.6 2:0.917831 3:-1 4:-1 5:-1 6:-1 7:-0.890753 8:-1 9:-1 10:-1 11:-1 
0 386.7200586551879 0 0 0 0 0 0 2048 1:-0.6 2:0.947307 3:-1 4:-1 5:-1 6:-1 7:-0.880923 8:-1 9:-1 10:-1 11:-1 
2048 2048 2048 2048 2048 2048 2048 2048 2048 1:-1 2:-1 3:-1 4:-1 5:-1 6:-1 7:-1 8:-1 9:-1 10:-1 11:-1 
0.1772936210288343 2.941204128621043 0.09694892699052239 0.3855389511128111 1.165384450121201 0 0.1660597558957533 1.443981275356253 4.331784778830558 1:-0.2 2:0.908683 3:0.545471 4:0.530973 5:-1 6:-1 7:0.589338 8:0.845591 9:-0.841187 10:-1 11:-1 
2048 2048 2048 2048 2048 2048 2048 2048 2048 1:-1 2:-1 3:-1 4:-1 5:-1 6:-1 7:-1 8:-1 9:-1 10:-1 11:-1 
2048 2048 2048 2048 2048 2048 2048 2048 2048 1:-1 2:-1 3:-1 4:-1 5:-1 6:-1 7:-1 8:-1 9:-1 10:-1 11:-1 
2048 2048 2048 2048 2048 2048 2048 2048 2048 1:-1 2:-1 3:-1 4:-1 5:-1 6:-1 7:-1 8:-1 9:-1 10:-1 11:-1 
2048 2048 2048 2048 2048 2048 2048 2048 2048 1:-1 2:-1 3:-1 4:-1 5:-1 6:-1 7:-1 8:-1 9:-1 10:-1 11:-1 
2048 2048 2048 2048 2048 2048 2048 2048 2048 1:-1 2:-1 3:-1 4:-1 5:-1 6:-1 7:-1 8:-1 9:-1 10:-1 11:-1 
0 1003.418751720816 0 11.83389744838626 0 0 0 1328.752900095053 2048 1:-0.6 2:0.83593 3:-1 4:-1 5:-1 6:-1 7:-0.902268 8:-1 9:-1 10:-1 11:-1 
2048 2048 2048 2048 2048 2048 2048 2048 2048 1:-1 2:-1 3:-1 4:-1 5:-1 6:-1 7:-1 8:-1 9:-1 10:-1 11:-1 
2048 2048 2048 2048 2048 2048 2048 2048 2048 1:-1 2:-1 3:-1 4:-1 5:-1 6:-1 7:-1 8:-1 9:-1 10:-1 11:-1 
0.1873317534033347 3.112223747988117 1.732252155912927 0.4595550873259963 2.5667634718407 0 0.1685692893314548 2.002000879936998 5.000640231409895 1:-0.2 2:0.224881 3:-0.371416 4:-0.802654 5:-1 6:-1 7:0.312112 8:0.363512 9:-0.561412 10:-1 11:-1 
2048 2048 2048 2048 2048 2048 2048 2048 2048 1:-1 2:-1 3:-1 4:-1 5:-1 6:-1 7:-1 8:-1 9:-1 10:-1 11:-1 
0.2382894820949962 3.966221171999152 2.136198648115636 0.525591197738456 1.650385684208512 0 0.2134283596545523 2.543297456647051 6.373993064251368 1:0.2 2:0.929517 3:0.887264 4:0.859028 5:0.0588453 6:-0.487064 7:0.439623 8:0.466499 9:0.381041 10:-0.569935 11:-0.410503 
513.2463647927945 2.637108817462824 0 2.810720053986204 2048 0 0 0 0 1:-0.6 2:-0.372955 3:-1 4:-1 5:-1 6:-1 7:-0.68962 8:-1 9:-1 10:-1 11:-1 
1919.143709149733 0 0 0 2048 0 0 0 0 1:-0.6 2:-0.26744 3:-1 4:-1 5:-1 6:-1 7:-0.698693 8:-1 9:-1 10:-1 11:-1 
0.340673607095759 3.152973648645517 513.5762159725199 14.12592118671573 2.531091316207165 5.126535810904337 0 0.919194496045342 3.892023441366621 1:-0.6 2:-0.350519 3:-1 4:-1 5:-1 6:-1 7:0.237608 8:-1 9:-1 10:-1 11:-1 
0 0 0 0 1260.549678432969 0 0 0 0 1:-0.6 2:-0.256562 3:-1 4:-1 5:-1 6:-1 7:-0.705483 8:-1 9:-1 10:-1 11:-1 
28.2340457883386 0 0 2.286034282650895 0 0 695.5707920655339 0 0 1:-0.6 2:-0.0109082 3:-1 4:-1 5:-1 6:-1 7:-0.708854 8:-1 9:-1 10:-1 11:-1 
0.1021271453529791 1.691942907378593 0.7207757238306897 0.2416610011714672 1.351754714139174 0 0.09235545562211062 1.084601725170959 2.719336107514843 1:-0.2 2:-0.0360285 3:-0.0616724 4:-0.656728 5:-1 6:-1 7:0.35823 8:0.504645 9:-0.648052 10:-1 11:-1 
0 0 300.0386364199094 0 167.0051825297775 0 0 629.2264619699106 0 1:-0.6 2:-0.0074301 3:-1 4:-1 5:-1 6:-1 7:-0.711982 8:-1 9:-1 10:-1 11:-1 
71.5633920664813 0 0 0 1577.990342065383 0 0 569.5693470915293 258.2012258178599 1:-0.6 2:-0.116672 3:-1 4:-1 5:-1 6:-1 7:-0.71281 8:-1 9:-1 10:-1 11:-1 
0 0 171.8082980782897 0 970.6895801334708 0 0 0 0 1:-0.6 2:-0.324061 3:-1 4:-1 5:-1 6:-1 7:-0.712263 8:-1 9:-1 10:-1 11:-1 
0 0 164.4934982129857 0 2048 0 0 1779.947459016439 146.1255427291549 1:-0.6 2:-0.41404 3:-1 4:-1 5:-1 6:-1 7:-0.713658 8:-1 9:-1 10:-1 11:-1 
0.1967669427018177 3.264844281751649 1.64706155339556 0.4344933290162999 1.400464651874178 0 0.175882192312863 2.093157384088345 5.247457215711888 1:-0.2 2:-0.327701 3:-0.411915 4:-0.57243 5:-1 6:-1 7:0.366646 8:0.532996 9:-0.645203 10:-1 11:-1 
0.224211995045409 3.732102693254271 2.054726631662909 0.495283453986701 1.463172209706425 0 0.2011204157307996 2.381547859014791 6.046074220120592 1:-0.2 2:0.487599 3:0.33345 4:-0.256434 5:-1 6:-1 7:0.766965 8:0.860834 9:-0.647919 10:-1 11:-1 
0 0 0 0 2048 0 0 0 0 1:-0.6 2:-0.323717 3:-1 4:-1 5:-1 6:-1 7:-0.711182 8:-1 9:-1 10:-1 11:-1 
0 0 0 0 2048 0 0 0 0 1:-0.6 2:-0.376045 3:-1 4:-1 5:-1 6:-1 7:-0.710889 8:-1 9:-1 10:-1 11:-1 
0 0 1088.153726751559 0 0 0 0 0 0 1:-0.6 2:-0.267266 3:-1 4:-1 5:-1 6:-1 7:-0.716066 8:-1 9:-1 10:-1 11:-1 
0 0 0 0 0 0 0 0 87.84832880941849 1:-0.6 2:-0.232661 3:-1 4:-1 5:-1 6:-1 7:-0.715061 8:-1 9:-1 10:-1 11:-1 
2048 2048 2048 2048 2048 2048 2048 2048 2048 1:-1 2:-1 3:-1 4:-1 5:-1 6:-1 7:-1 8:-1 9:-1 10:-1 11:-1 
0.05009617351301902 0.8479806646052293 1.533004636086099 0.09057649020890755 0.2224416375638433 0 0.04457013607791256 0.5440797482749652 1.362941780466925 1:-0.2 2:-0.0155922 3:-0.235269 4:-0.49236 5:-1 6:-1 7:0.378061 8:0.546527 9:-0.660968 10:-1 11:-1 
0 1.071167727141659 2048 4.14781875473161 0 0 0 14.80985421799184 34.64413638365485 1:-0.6 2:-0.102883 3:-1 4:-1 5:-1 6:-1 7:0.284884 8:-1 9:-1 10:-1 11:-1 
2048 2048 2048 2048 2048 2048 2048 2048 2048 1:-1 2:-1 3:-1 4:-1 5:-1 6:-1 7:-1 8:-1 9:-1 10:-1 11:-1 
2048 2048 2048 2048 2048 2048 2048 2048 2048 1:-1 2:-1 3:-1 4:-1 5:-1 6:-1 7:-1 8:-1 9:-1 10:-1 11:-1 
0 0 8.431081413433253 0 23.09403391769949 0 0 0 0 1:-0.6 2:-0.722106 3:-1 4:-1 5:-1 6:-1 7:-0.895535 8:-1 9:-1 10:-1 11:-1 
2048 2048 2048 2048 2048 2048 2048 2048 2048 1:-1 2:-1 3:-1 4:-1 5:-1 6:-1 7:-1 8:-1 9:-1 10:-1 11:-1 
2048 2048 2048 2048 2048 2048 2048 2048 2048 1:-1 2:-1 3:-1 4:-1 5:-1 6:-1 7:-1 8:-1 9:-1 10:-1 11:-1 
2048 2048 2048 2048 2048 2048 2048 2048 2048 1:-1 2:-1 3:-1 4:-1 5:-1 6:-1 7:-1 8:-1 9:-1 10:-1 11:-1 
2048 2048 2048 2048 2048 2048 2048 2048 2048 1:-1 2:-1 3:-1 4:-1 5:-1 6:-1 7:-1 8:-1 9:-1 10:-1 11:-1 
0 3.251629226827252 0 1.136418609245393 0 0 0 94.81757639431159 1024.260475414696 1:-0.6 2:-0.808453 3:-1 4:-1 5:-1 6:-1 7:-0.870461 8:-1 9:-1 10:-1 11:-1 
0 0.877121869702394 2048 0 944.8495616023228 0 30.39494106509759 2048 2048 1:-0.6 2:-0.236639 3:-1 4:-1 5:-1 6:-1 7:-0.869604 8:-1 9:-1 10:-1 11:-1 
1.596654039247783 48.85703816035382 2048 0.1765265498892017 30.82182274814737 4.26207811969232 76.97998326859378 2048 2048 1:-0.6 2:0.393918 3:-1 4:-1 5:-1 6:-1 7:-0.871949 8:-1 9:-1 10:-1 11:-1 
0 2048 643.0972188206015 0 0 0 0 2048 2048 1:-0.6 2:0.748766 3:-1 4:-1 5:-1 6:-1 7:-0.876628 8:-1 9:-1 10:-1 11:-1 
0 2048 0 0 0 0 0 0 2048 1:-0.6 2:0.949933 3:-1 4:-1 5:-1 6:-1 7:-0.880368 8:-1 9:-1 10:-1 11:-1 
0 2048 0 0 0 0 0 0 2048 1:-0.6 2:0.954965 3:-1 4:-1 5:-1 6:-1 7:-0.881164 8:-1 9:-1 10:-1 11:-1 
0 2048 0 0 0 0 0 1802.649561399568 2048 1:-0.6 2:0.955437 3:-1 4:-1 5:-1 6:-1 7:-0.881859 8:-1 9:-1 10:-1 11:-1 
0 2048 0 0 0 0 0 0 2048 1:-0.6 2:0.953587 3:-1 4:-1 5:-1 6:-1 7:-0.882453 8:-1 9:-1 10:-1 11:-1 
0 2048 0 0 0 0 0 0 2048 1:-0.6 2:0.950609 3:-1 4:-1 5:-1 6:-1 7:-0.882699 8:-1 9:-1 10:-1 11:-1 
0.1718569966991711 2.856308350768896 1.538691819977733 0.3787511629152464 1.136133663721463 0 0.1537166851919501 1.831458689370202 4.590978150348928 1:0.2 2:0.947187 3:0.771892 4:0.718388 5:0.584932 6:-0.118413 7:0.443943 8:0.736886 9:0.655876 10:-0.507332 11:-0.362933 
0 0 0 0 0 0 0 0 2048 1:-0.6 2:0.943901 3:-1 4:-1 5:-1 6:-1 7:-0.882023 8:-1 9:-1 10:-1 11:-1 
0.2405064169037007 4.00128992721016 2.155479986232226 0.5299387465455593 2.045373363841655 0 0.2149931659975408 2.565725053925182 6.431020055163126 1:0.2 2:0.940961 3:0.91884 4:0.742977 5:-0.55611 6:-0.78648 7:0.486667 8:0.76846 9:0.706956 10:-0.486705 11:-0.337906 
0.1558419898425273 2.590005728888035 0.7009805366253661 0.3397242856084113 0.9654438705344455 0 0.1169560944143852 1.570817127441544 4.235675677156165 1:-0.2 2:0.933427 3:-0.149218 4:-0.218521 5:-1 6:-1 7:0.46495 8:0.72326 9:-0.856789 10:-1 11:-1 
0.2090135950017309 3.46550400892213 1.921677995025677 0.4371281543108437 2.865078830970801 0 0.1839994897885849 2.446432449785771 8.649825219953527 1:-0.2 2:0.9947 3:0.962424 4:0.930665 5:-1 6:-1 7:-0.00375101 8:0.124382 9:-0.863488 10:-1 11:-1 
0 0 0 0 7.311152634221473 0 0.0037727946613751 0.3221174256689927 88.67915813918182 1:-0.2 2:0.928807 3:0.870821 4:0.822831 5:-1 6:-1 7:0.0109449 8:0.142193 9:-0.864403 10:-1 11:-1 
0 0 0 0 0 0 0 0 2048 1:-0.6 2:0.927763 3:-1 4:-1 5:-1 6:-1 7:-0.889026 8:-1 9:-1 10:-1 11:-1 
0.08708084449869331 1.421767177409749 0.06575997445545599 0.1884629103726828 2.105353930115731 0 0 9.237735485883341 272.2079710797694 1:-0.2 2:0.925451 3:0.529046 4:0.4087 5:-1 6:-1 7:0.0742653 8:0.214115 9:-0.861993 10:-1 11:-1 
0.07049909305063032 1.221986377489643 0 0.167849628703984 0.338325901304094 0 0 0 0 1:-0.2 2:0.925653 3:0.209185 4:0.175447 5:-1 6:-1 7:0.377408 8:0.635171 9:-0.862423 10:-1 11:-1 
0 0 0 0 0 0 0 0 2048 1:-0.6 2:0.927693 3:-1 4:-1 5:-1 6:-1 7:-0.888881 8:-1 9:-1 10:-1 11:-1 
0 0 0 0 0 0 0 0 2048 1:-0.6 2:0.927305 3:-1 4:-1 5:-1 6:-1 7:-0.88932 8:-1 9:-1 10:-1 11:-1 
0 0 0 0 0 0 0 0 2048 1:-0.6 2:0.927425 3:-1 4:-1 5:-1 6:-1 7:-0.889873 8:-1 9:-1 10:-1 11:-1 
0 0 0 0 0 0 0 0 2048 1:-0.6 2:0.927893 3:-1 4:-1 5:-1 6:-1 7:-0.890031 8:-1 9:-1 10:-1 11:-1 
0 0 6.416078213860083 0 0 0 0 0.1317000354830046 0 1:-0.2 2:0.928261 3:0.142406 4:0.110813 5:-1 6:-1 7:0.354286 8:0.614093 9:-0.866498 10:-1 11:-1 
0 0 5.796558554813284 0 0 0 0 0 0 1:-0.2 2:0.928935 3:0.228215 4:0.170911 5:-1 6:-1 7:0.34339 8:0.603719 9:-0.867041 10:-1 11:-1 
0 0 0 0 0 0 0 0 2048 1:-0.6 2:0.929513 3:-1 4:-1 5:-1 6:-1 7:-0.890742 8:-1 9:-1 10:-1 11:-1 
0 0 0 0 0 0 0 0 2048 1:-0.6 2:0.930311 3:-1 4:-1 5:-1 6:-1 7:-0.890129 8:-1 9:-1 10:-1 11:-1 
0 0 0 0 0 0 0 0 2048 1:-0.6 2:0.930527 3:-1 4:-1 5:-1 6:-1 7:-0.888702 8:-1 9:-1 10:-1 11:-1 
0.01102185253187903 0.1345569237043261 0 0 0 0 0 0.7606427669198415 6.456774224031919 1:-0.2 2:0.927569 3:0.31537 4:0.241034 5:-1 6:-1 7:0.328056 8:0.58572 9:-0.855974 10:-1 11:-1 
0 0 2.136886240702073 0 0 0 0 0 0 1:-0.2 2:0.928179 3:0.166539 4:0.102012 5:-1 6:-1 7:0.349168 8:0.605567 9:-0.847691 10:-1 11:-1 
0 0 0.5349655622713393 0 0 0 0.01026716326627164 0 0 1:-0.2 2:0.928409 3:0.161372 4:0.120094 5:-1 6:-1 7:0.414306 8:0.673077 9:-0.858235 10:-1 11:-1 
0 0 0 0 0 0 0 0 2048 1:-0.6 2:0.930297 3:-1 4:-1 5:-1 6:-1 7:-0.845529 8:-1 9:-1 10:-1 11:-1 
0 323.9938710515787 0 0 0 0 0 0 2048 1:-0.6 2:0.934223 3:-1 4:-1 5:-1 6:-1 7:-0.845048 8:-1 9:-1 10:-1 11:-1 
0.1312546767869149 2.17418310062346 1.79736714803315 0.2893842166114305 0.9302955906600161 0 0.142870140448825 1.439485701645369 3.497529114429909 1:-0.2 2:0.936991 3:0.154144 4:0.000103061 5:-1 6:-1 7:0.644581 8:0.833363 9:-0.810347 10:-1 11:-1 
0 2048 0 0 0 0 54.91144441315127 0 2048 1:-0.6 2:0.938745 3:-1 4:-1 5:-1 6:-1 7:-0.844946 8:-1 9:-1 10:-1 11:-1 
6.503659228153229 2048 0 0 0 46.57782519695968 0 0 2048 1:-0.6 2:0.947507 3:-1 4:-1 5:-1 6:-1 7:-0.844981 8:-1 9:-1 10:-1 11:-1 
0 2048 0 0 0 0 0 0 2048 1:-0.6 2:0.949143 3:-1 4:-1 5:-1 6:-1 7:-0.845189 8:-1 9:-1 10:-1 11:-1 
0 2048 0 0 0 0 0 0 2048 1:-0.6 2:0.949841 3:-1 4:-1 5:-1 6:-1 7:-0.845514 8:-1 9:-1 10:-1 11:-1 
0 2048 0 0 0 0 0 0 2048 1:-0.6 2:0.949079 3:-1 4:-1 5:-1 6:-1 7:-0.845792 8:-1 9:-1 10:-1 11:-1 
0 2048 0 0 0 0 0 2048 2048 1:-0.6 2:0.950587 3:-1 4:-1 5:-1 6:-1 7:-0.84561 8:-1 9:-1 10:-1 11:-1 
0 2048 0 0 206.5000302638904 0 0 2048 2048 1:-0.6 2:0.951121 3:-1 4:-1 5:-1 6:-1 7:-0.845513 8:-1 9:-1 10:-1 11:-1 
0 2048 0 0 0 0 0 782.0461949209999 2048 1:-0.6 2:0.949741 3:-1 4:-1 5:-1 6:-1 7:-0.845442 8:-1 9:-1 10:-1 11:-1 
0 2048 0 0 0 0 0 0 2048 1:-0.6 2:0.947983 3:-1 4:-1 5:-1 6:-1 7:-0.845609 8:-1 9:-1 10:-1 11:-1 
0 2048 0 0 0 0 0 0 2048 1:-0.6 2:0.945419 3:-1 4:-1 5:-1 6:-1 7:-0.846174 8:-1 9:-1 10:-1 11:-1 
0 2048 0 0 0 0 0 0 2048 1:-0.6 2:0.942921 3:-1 4:-1 5:-1 6:-1 7:-0.846864 8:-1 9:-1 10:-1 11:-1 
0 2048 0 0 0 0 0 0 2048 1:-0.6 2:0.939683 3:-1 4:-1 5:-1 6:-1 7:-0.847162 8:-1 9:-1 10:-1 11:-1 
0 0 0 0 0 0 0 0 2048 1:-0.6 2:0.935355 3:-1 4:-1 5:-1 6:-1 7:-0.847494 8:-1 9:-1 10:-1 11:-1 
0.1143012914154534 0 2.478524117034661 0.2521554906849782 3.282301003147972 0 0.1039889320993572 1.255862632609744 0 1:-0.2 2:0.902135 3:0.798306 4:0.63406 5:-1 6:-1 7:-0.78193 8:-0.746107 9:-0.838613 10:-1 11:-1 
0 0 0 0 0.04555040854313074 0 0 0 0 1:-0.2 2:0.972296 3:0.95697 4:0.908976 5:-1 6:-1 7:-0.783572 8:-0.747085 9:-0.836291 10:-1 11:-1 
0.104408118334574 0 0.3737501686708649 0.2286086372321492 0 0 0.09249825556147286 1.087491018155431 0 1:-0.2 2:0.989234 3:0.959979 4:0.909826 5:-1 6:-1 7:-0.783543 8:-0.747789 9:-0.83625 10:-1 11:-1 
0 0 24.99200052351747 0 0 0 0 0 0 1:-0.2 2:0.86099 3:0.372656 4:0.0696144 5:-1 6:-1 7:0.461233 8:0.745285 9:-0.827482 10:-1 11:-1 
0 0 0 0 0 0 0 2048 2048 1:-0.6 2:0.85437 3:-1 4:-1 5:-1 6:-1 7:-0.859632 8:-1 9:-1 10:-1 11:-1 
0 0 0 0 0 0 0 2048 2048 1:-0.6 2:0.85098 3:-1 4:-1 5:-1 6:-1 7:-0.859618 8:-1 9:-1 10:-1 11:-1 
0 0 0 0 0 0 0 2048 2048 1:-0.6 2:0.851636 3:-1 4:-1 5:-1 6:-1 7:-0.859638 8:-1 9:-1 10:-1 11:-1 
0 0 0 0 0 0 0 2048 2048 1:-0.6 2:0.852554 3:-1 4:-1 5:-1 6:-1 7:-0.85976 8:-1 9:-1 10:-1 11:-1 
0 0 0 0 0 0 0 2048 2048 1:-0.6 2:0.853108 3:-1 4:-1 5:-1 6:-1 7:-0.859951 8:-1 9:-1 10:-1 11:-1 
0 0 0 0 0 0 0 2048 2048 1:-0.6 2:0.854038 3:-1 4:-1 5:-1 6:-1 7:-0.85993 8:-1 9:-1 10:-1 11:-1 
0 0 0 0 0 0 0 2048 1182.56433446959 1:-0.6 2:0.854876 3:-1 4:-1 5:-1 6:-1 7:-0.85977 8:-1 9:-1 10:-1 11:-1 
0 0 0 0 0 0 0 1070.876965460426 0 1:-0.6 2:0.855864 3:-1 4:-1 5:-1 6:-1 7:-0.859275 8:-1 9:-1 10:-1 11:-1 
0 0 0 0 0 0 0 2048 2048 1:-0.6 2:0.85405 3:-1 4:-1 5:-1 6:-1 7:-0.858749 8:-1 9:-1 10:-1 11:-1 
0 0 0 0 0 0 0 2048 2048 1:-0.6 2:0.854448 3:-1 4:-1 5:-1 6:-1 7:-0.859657 8:-1 9:-1 10:-1 11:-1 
0 0 0 0 0 0 0 2048 0 1:-0.6 2:0.855404 3:-1 4:-1 5:-1 6:-1 7:-0.859816 8:-1 9:-1 10:-1 11:-1 
0 0 0 0 0 0 0 0 2048 1:-0.6 2:0.855686 3:-1 4:-1 5:-1 6:-1 7:-0.89204 8:-1 9:-1 10:-1 11:-1 
0 0 0 0 0 0 0 0 2048 1:-0.6 2:0.856582 3:-1 4:-1 5:-1 6:-1 7:-0.886149 8:-1 9:-1 10:-1 11:-1 
0 0 0 0 0 0 0 0 2048 1:-0.6 2:0.858086 3:-1 4:-1 5:-1 6:-1 7:-0.883939 8:-1 9:-1 10:-1 11:-1 
2048 2048 2048 2048 2048 2048 2048 2048 2048 1:-1 2:-1 3:-1 4:-1 5:-1 6:-1 7:-1 8:-1 9:-1 10:-1 11:-1 
2048 2048 2048 2048 2048 2048 2048 2048 2048 1:-1 2:-1 3:-1 4:-1 5:-1 6:-1 7:-1 8:-1 9:-1 10:-1 11:-1 
2048 2048 2048 2048 2048 2048 2048 2048 2048 1:-1 2:-1 3:-1 4:-1 5:-1 6:-1 7:-1 8:-1 9:-1 10:-1 11:-1 
0 0 0 0 0 0 0 0 2048 1:-0.6 2:0.864312 3:-1 4:-1 5:-1 6:-1 7:-0.88228 8:-1 9:-1 10:-1 11:-1 
0 0 0 0 2.185769863076127 0 0 0 0 1:-0.2 2:0.882616 3:0.314458 4:0.22977 5:-1 6:-1 7:-0.701018 8:-0.687588 9:-0.82473 10:-1 11:-1 
0.1024462794808987 0.3003953897550105 37.64878806062122 0.2282363538731505 4.464324759954545 0 0.08821123837764928 4.26042874345597 1.518389972009813 1:-0.2 2:0.880818 3:0.236676 4:0.103623 5:-1 6:-1 7:-0.702841 8:-0.690348 9:-0.825054 10:-1 11:-1 
0 0.2789401016168236 8.704371948281572 0 7.833288815740762 0 0 6.744384516963945 4.962745743819921 1:-0.2 2:0.88053 3:0.0623626 4:-0.138051 5:-1 6:-1 7:-0.701676 8:-0.688648 9:-0.824933 10:-1 11:-1 
0.1966337650733564 3.173572701665146 2.103446040784668 0.4339197725139632 16.66904274641766 0 0.1745378685229366 3.860703650273509 5.809247054270399 1:-0.2 2:0.87942 3:-0.118596 4:-0.398112 5:-1 6:-1 7:-0.702222 8:-0.689674 9:-0.824922 10:-1 11:-1 
0 0 2048 0 0 43.09633818374996 197.97715810333 0 2048 1:-0.6 2:0.867254 3:-1 4:-1 5:-1 6:-1 7:-0.845949 8:-1 9:-1 10:-1 11:-1 
0 0 109.7702400015482 0 0 0 0 0 2048 1:-0.6 2:0.866618 3:-1 4:-1 5:-1 6:-1 7:-0.848395 8:-1 9:-1 10:-1 11:-1 
0 0 0 0 0 0 0 0 2048 1:-0.6 2:0.865978 3:-1 4:-1 5:-1 6:-1 7:-0.850084 8:-1 9:-1 10:-1 11:-1 
0 0 0 0 0 0 0 0 2048 1:-0.6 2:0.86578 3:-1 4:-1 5:-1 6:-1 7:-0.851594 8:-1 9:-1 10:-1 11:-1 
0.146336397102268 2.434655295796914 0.3060556218445194 0.3017298600314 0.9632457693511907 0 0.1231833618717333 2.134515040783305 1.086918481923792 1:-0.2 2:0.87149 3:0.622927 4:0.112608 5:-1 6:-1 7:0.412648 8:0.706705 9:-0.836238 10:-1 11:-1 
0.06308439667631001 1.049145556636175 8.168463773498862 0.1450367240879378 0.2871216625382383 0 0.02690122416984563 0.8406345202910998 1.299273669616742 1:-0.2 2:0.87812 3:0.205942 4:-0.235665 5:-1 6:-1 7:0.374043 8:0.651967 9:-0.836086 10:-1 11:-1 
-0 0 2048 2048 2048 2048 2048 2048 2048 1:-1 2:-1 3:-1 4:-1 5:-1 6:-1 7:-1 8:-1 9:-1 10:-1 11:-1 
-0 0 2048 2048 2048 2048 2048 2048 2048 1:-1 2:-1 3:-1 4:-1 5:-1 6:-1 7:-1 8:-1 9:-1 10:-1 11:-1 
-0 0 2048 2048 2048 2048 2048 2048 2048 1:-1 2:-1 3:-1 4:-1 5:-1 6:-1 7:-1 8:-1 9:-1 10:-1 11:-1 
-0 0 2048 2048 2048 2048 2048 2048 2048 1:-1 2:-1 3:-1 4:-1 5:-1 6:-1 7:-1 8:-1 9:-1 10:-1 11:-1 
-0 0 2048 2048 2048 2048 2048 2048 2048 1:-1 2:-1 3:-1 4:-1 5:-1 6:-1 7:-1 8:-1 9:-1 10:-1 11:-1 
-0 1.298645372540817 2048 2048 2048 2048 2048 2048 2048 1:-1 2:-1 3:-1 4:-1 5:-1 6:-1 7:-1 8:-1 9:-1 10:-1 11:-1 
-0 2048 2048 2048 2048 2048 2048 2048 2048 1:-1 2:-1 3:-1 4:-1 5:-1 6:-1 7:-1 8:-1 9:-1 10:-1 11:-1 
-0 2048 2048 2048 2048 2048 2048 2048 2048 1:-1 2:-1 3:-1 4:-1 5:-1 6:-1 7:-1 8:-1 9:-1 10:-1 11:-1 
-0 2048 2048 2048 2048 2048 2048 2048 2048 1:-1 2:-1 3:-1 4:-1 5:-1 6:-1 7:-1 8:-1 9:-1 10:-1 11:-1 
-0 2048 2048 2048 2048 2048 2048 2048 2048 1:-1 2:-1 3:-1 4:-1 5:-1 6:-1 7:-1 8:-1 9:-1 10:-1 11:-1 
-0 1.236603672763566 16.87612180054268 2.798622773617438 23.19866076654396 69.76307980414755 11.6058845895592 2048 46.00268853841133 1:-0.6 2:-0.45409 3:-1 4:-1 5:-1 6:-1 7:-0.0424347 8:-1 9:-1 10:-1 11:-1 
-0 2048 2048 2048 2048 2048 2048 2048 2048 1:-1 2:-1 3:-1 4:-1 5:-1 6:-1 7:-1 8:-1 9:-1 10:-1 11:-1 
-0 2048 2048 2048 2048 2048 2048 2048 2048 1:-1 2:-1 3:-1 4:-1 5:-1 6:-1 7:-1 8:-1 9:-1 10:-1 11:-1 
-0 2048 2048 2048 2048 2048 2048 2048 2048 1:-1 2:-1 3:-1 4:-1 5:-1 6:-1 7:-1 8:-1 9:-1 10:-1 11:-1 
-0 2048 2048 2048 2048 2048 2048 2048 2048 1:-1 2:-1 3:-1 4:-1 5:-1 6:-1 7:-1 8:-1 9:-1 10:-1 11:-1 
-0 158.477583290841 3.583209119531932 0.2266626024274482 9.071601021264001 4.938979091256592 4.116349310063963 288.2465554146293 80.58817342824652 1:-0.6 2:0.720396 3:-1 4:-1 5:-1 6:-1 7:-0.6854 8:-1 9:-1 10:-1 11:-1 
-0 0 0 0.3151427437292633 0 0 0 2048 0 1:-0.6 2:0.862448 3:-1 4:-1 5:-1 6:-1 7:-0.669008 8:-1 9:-1 10:-1 11:-1 
-0 2048 2048 2048 2048 2048 2048 2048 2048 1:-1 2:-1 3:-1 4:-1 5:-1 6:-1 7:-1 8:-1 9:-1 10:-1 11:-1 
-0 2048 2048 2048 2048 2048 2048 2048 2048 1:-1 2:-1 3:-1 4:-1 5:-1 6:-1 7:-1 8:-1 9:-1 10:-1 11:-1 
-0 2048 2048 2048 2048 2048 2048 2048 2048 1:-1 2:-1 3:-1 4:-1 5:-1 6:-1 7:-1 8:-1 9:-1 10:-1 11:-1 
-0 0 0 0 0 0 0 0 1511.405264481963 1:-0.6 2:0.84433 3:-1 4:-1 5:-1 6:-1 7:-0.687801 8:-1 9:-1 10:-1 11:-1 
-0 2048 2048 2048 2048 2048 2048 2048 2048 1:-1 2:-1 3:-1 4:-1 5:-1 6:-1 7:-1 8:-1 9:-1 10:-1 11:-1 
-0 2048 2048 2048 2048 2048 2048 2048 2048 1:-1 2:-1 3:-1 4:-1 5:-1 6:-1 7:-1 8:-1 9:-1 10:-1 11:-1 
-0 2048 2048 2048 2048 2048 2048 2048 2048 1:-1 2:-1 3:-1 4:-1 5:-1 6:-1 7:-1 8:-1 9:-1 10:-1 11:-1 
-0 0 0 4.200087234678234 0 0 0 2048 0 1:-0.6 2:0.838424 3:-1 4:-1 5:-1 6:-1 7:-0.670453 8:-1 9:-1 10:-1 11:-1 
-0 2048 2048 2048 2048 2048 2048 2048 2048 1:-1 2:-1 3:-1 4:-1 5:-1 6:-1 7:-1 8:-1 9:-1 10:-1 11:-1 
-377.0150018076493 0.782675952152857 22.44647629462484 4.009994566150612 2048 3.904822754709092 0 81.05353932469959 0.3504224789756891 1:-0.6 2:-0.395294 3:-1 4:-1 5:-1 6:-1 7:-0.670933 8:-1 9:-1 10:-1 11:-1 
-6.361552216989995 38.43560849167748 21.46418698569548 4.188196024635167 8.721236027497856 3.140559539878613 12.49757678638376 379.6543412884023 0 1:-0.6 2:0.349401 3:-1 4:-1 5:-1 6:-1 7:-0.681912 8:-1 9:-1 10:-1 11:-1 
-0 0 0 4.161185126809272 0 0 0 0 954.1457732474489 1:-0.6 2:0.997848 3:-1 4:-1 5:-1 6:-1 7:-0.680754 8:-1 9:-1 10:-1 11:-1 
-0 2048 2048 2048 2048 2048 2048 2048 2048 1:-1 2:-1 3:-1 4:-1 5:-1 6:-1 7:-1 8:-1 9:-1 10:-1 11:-1 
-0 0 0 0 0 0 0 1603.574513313361 0 1:-0.6 2:0.820645 3:-1 4:-1 5:-1 6:-1 7:-0.683739 8:-1 9:-1 10:-1 11:-1 
-0 0.1587596055131556 1.246235051260885 1.177218592793284 9.42820592447274 0.5281787680870986 0 1591.175640129772 3.300363908942834 1:-0.6 2:-0.790321 3:-1 4:-1 5:-1 6:-1 7:-0.690258 8:-1 9:-1 10:-1 11:-1 
-106.759896185654 0 3.020746986432075 2.132694533978551 222.3641095519261 0.5826900984210069 51.78891454897315 75.68836895798185 42.24272775869493 1:-0.6 2:-0.110132 3:-1 4:-1 5:-1 6:-1 7:-0.68849 8:-1 9:-1 10:-1 11:-1 
-0 2048 2048 2048 2048 2048 2048 2048 2048 1:-1 2:-1 3:-1 4:-1 5:-1 6:-1 7:-1 8:-1 9:-1 10:-1 11:-1 
-0 2048 2048 2048 2048 2048 2048 2048 2048 1:-1 2:-1 3:-1 4:-1 5:-1 6:-1 7:-1 8:-1 9:-1 10:-1 11:-1 
-0 2048 2048 2048 2048 2048 2048 2048 2048 1:-1 2:-1 3:-1 4:-1 5:-1 6:-1 7:-1 8:-1 9:-1 10:-1 11:-1 
-0 2048 2048 2048 2048 2048 2048 2048 2048 1:-1 2:-1 3:-1 4:-1 5:-1 6:-1 7:-1 8:-1 9:-1 10:-1 11:-1 
-2048 0 73.07320908168799 0 2048 0 0 0 0 1:-0.6 2:-0.271038 3:-1 4:-1 5:-1 6:-1 7:-0.698723 8:-1 9:-1 10:-1 11:-1 
-0 2048 2048 2048 2048 2048 2048 2048 2048 1:-1 2:-1 3:-1 4:-1 5:-1 6:-1 7:-1 8:-1 9:-1 10:-1 11:-1 
-0 2048 2048 2048 2048 2048 2048 2048 2048 1:-1 2:-1 3:-1 4:-1 5:-1 6:-1 7:-1 8:-1 9:-1 10:-1 11:-1 
-0 2048 2048 2048 2048 2048 2048 2048 2048 1:-1 2:-1 3:-1 4:-1 5:-1 6:-1 7:-1 8:-1 9:-1 10:-1 11:-1 
-0 2048 2048 2048 2048 2048 2048 2048 2048 1:-1 2:-1 3:-1 4:-1 5:-1 6:-1 7:-1 8:-1 9:-1 10:-1 11:-1 
-5.955505908581971 30.61516343694951 45.71839306275485 0 0 0 0 0 1427.549086531528 1:-0.6 2:0.969106 3:-1 4:-1 5:-1 6:-1 7:-0.707902 8:-1 9:-1 10:-1 11:-1 
-1.192781547402399 0 25.05001862060164 0 20.27435443078391 16.63133856204862 11.66871871831148 0 0 1:-0.6 2:0.990382 3:-1 4:-1 5:-1 6:-1 7:-0.708411 8:-1 9:-1 10:-1 11:-1 
-0 2048 2048 2048 2048 2048 2048 2048 2048 1:-1 2:-1 3:-1 4:-1 5:-1 6:-1 7:-1 8:-1 9:-1 10:-1 11:-1 
-0 2048 2048 2048 2048 2048 2048 2048 2048 1:-1 2:-1 3:-1 4:-1 5:-1 6:-1 7:-1 8:-1 9:-1 10:-1 11:-1 
-0 2048 2048 2048 2048 2048 2048 2048 2048 1:-1 2:-1 3:-1 4:-1 5:-1 6:-1 7:-1 8:-1 9:-1 10:-1 11:-1 
-0 2048 2048 2048 2048 2048 2048 2048 2048 1:-1 2:-1 3:-1 4:-1 5:-1 6:-1 7:-1 8:-1 9:-1 10:-1 11:-1 
-0 2048 2048 2048 2048 2048 2048 2048 2048 1:-1 2:-1 3:-1 4:-1 5:-1 6:-1 7:-1 8:-1 9:-1 10:-1 11:-1 
-0 2048 2048 2048 2048 2048 2048 2048 2048 1:-1 2:-1 3:-1 4:-1 5:-1 6:-1 7:-1 8:-1 9:-1 10:-1 11:-1 
-0.05697187289298736 0.9103616999120421 3.464216909080802 2.838927210823165 1.002805005366087 1.722205521746535 1.63928244954429 213.347586948515 22.63198566701692 1:-0.6 2:-0.931576 3:-1 4:-1 5:-1 6:-1 7:-0.702491 8:-1 9:-1 10:-1 11:-1 
-0 2048 2048 2048 2048 2048 2048 2048 2048 1:-1 2:-1 3:-1 4:-1 5:-1 6:-1 7:-1 8:-1 9:-1 10:-1 11:-1 
-0 2048 2048 2048 2048 2048 2048 2048 2048 1:-1 2:-1 3:-1 4:-1 5:-1 6:-1 7:-1 8:-1 9:-1 10:-1 11:-1 
-0 2048 2048 2048 2048 2048 2048 2048 2048 1:-1 2:-1 3:-1 4:-1 5:-1 6:-1 7:-1 8:-1 9:-1 10:-1 11:-1 
-0 2048 2048 2048 2048 2048 2048 2048 2048 1:-1 2:-1 3:-1 4:-1 5:-1 6:-1 7:-1 8:-1 9:-1 10:-1 11:-1 
-0 2048 2048 2048 2048 2048 2048 2048 2048 1:-1 2:-1 3:-1 4:-1 5:-1 6:-1 7:-1 8:-1 9:-1 10:-1 11:-1 
-0 2048 2048 2048 2048 2048 2048 2048 2048 1:-1 2:-1 3:-1 4:-1 5:-1 6:-1 7:-1 8:-1 9:-1 10:-1 11:-1 
-0 2048 2048 2048 2048 2048 2048 2048 2048 1:-1 2:-1 3:-1 4:-1 5:-1 6:-1 7:-1 8:-1 9:-1 10:-1 11:-1 
-0 2048 2048 2048 2048 2048 2048 2048 2048 1:-1 2:-1 3:-1 4:-1 5:-1 6:-1 7:-1 8:-1 9:-1 10:-1 11:-1 
-0 2048 2048 2048 2048 2048 2048 2048 2048 1:-1 2:-1 3:-1 4:-1 5:-1 6:-1 7:-1 8:-1 9:-1 10:-1 11:-1 
-0 2048 2048 2048 2048 2048 2048 2048 2048 1:-1 2:-1 3:-1 4:-1 5:-1 6:-1 7:-1 8:-1 9:-1 10:-1 11:-1 
-0 2048 2048 2048 2048 2048 2048 2048 2048 1:-1 2:-1 3:-1 4:-1 5:-1 6:-1 7:-1 8:-1 9:-1 10:-1 11:-1 
-0 2048 2048 2048 2048 2048 2048 2048 2048 1:-1 2:-1 3:-1 4:-1 5:-1 6:-1 7:-1 8:-1 9:-1 10:-1 11:-1 
-0 2048 2048 2048 2048 2048 2048 2048 2048 1:-1 2:-1 3:-1 4:-1 5:-1 6:-1 7:-1 8:-1 9:-1 10:-1 11:-1 
-0 2048 2048 2048 2048 2048 2048 2048 2048 1:-1 2:-1 3:-1 4:-1 5:-1 6:-1 7:-1 8:-1 9:-1 10:-1 11:-1 
-0 2048 2048 2048 2048 2048 2048 2048 2048 1:-1 2:-1 3:-1 4:-1 5:-1 6:-1 7:-1 8:-1 9:-1 10:-1 11:-1 
-0 2048 2048 2048 2048 2048 2048 2048 2048 1:-1 2:-1 3:-1 4:-1 5:-1 6:-1 7:-1 8:-1 9:-1 10:-1 11:-1 
-0 2048 2048 2048 2048 2048 2048 2048 2048 1:-1 2:-1 3:-1 4:-1 5:-1 6:-1 7:-1 8:-1 9:-1 10:-1 11:-1 
-1.849908924083853 2048 2048 2048 2048 2048 2048 2048 2048 1:-1 2:-1 3:-1 4:-1 5:-1 6:-1 7:-1 8:-1 9:-1 10:-1 11:-1 
-2048 2048 2048 2048 2048 2048 2048 2048 2048 1:-1 2:-1 3:-1 4:-1 5:-1 6:-1 7:-1 8:-1 9:-1 10:-1 11:-1 
-2048 2048 2048 2048 2048 2048 2048 2048 2048 1:-1 2:-1 3:-1 4:-1 5:-1 6:-1 7:-1 8:-1 9:-1 10:-1 11:-1 
-2048 2048 2048 2048 2048 2048 2048 2048 2048 1:-1 2:-1 3:-1 4:-1 5:-1 6:-1 7:-1 8:-1 9:-1 10:-1 11:-1 
-2048 2048 2048 2048 2048 2048 2048 2048 2048 1:-1 2:-1 3:-1 4:-1 5:-1 6:-1 7:-1 8:-1 9:-1 10:-1 11:-1 
-2048 2048 2048 2048 2048 2048 2048 2048 2048 1:-1 2:-1 3:-1 4:-1 5:-1 6:-1 7:-1 8:-1 9:-1 10:-1 11:-1 
-0 0 0 0 2048 0 0 0 0 1:-0.6 2:-0.280788 3:-1 4:-1 5:-1 6:-1 7:-0.674911 8:-1 9:-1 10:-1 11:-1 
-2048 2048 2048 2048 2048 2048 2048 2048 2048 1:-1 2:-1 3:-1 4:-1 5:-1 6:-1 7:-1 8:-1 9:-1 10:-1 11:-1 
-2048 2048 2048 2048 2048 2048 2048 2048 2048 1:-1 2:-1 3:-1 4:-1 5:-1 6:-1 7:-1 8:-1 9:-1 10:-1 11:-1 
-2048 2048 2048 2048 2048 2048 2048 2048 2048 1:-1 2:-1 3:-1 4:-1 5:-1 6:-1 7:-1 8:-1 9:-1 10:-1 11:-1 
-2048 2048 2048 2048 2048 2048 2048 2048 2048 1:-1 2:-1 3:-1 4:-1 5:-1 6:-1 7:-1 8:-1 9:-1 10:-1 11:-1 
-2048 2048 2048 2048 2048 2048 2048 2048 2048 1:-1 2:-1 3:-1 4:-1 5:-1 6:-1 7:-1 8:-1 9:-1 10:-1 11:-1 
-2048 2048 2048 2048 2048 2048 2048 2048 2048 1:-1 2:-1 3:-1 4:-1 5:-1 6:-1 7:-1 8:-1 9:-1 10:-1 11:-1 
-2048 2048 2048 2048 2048 2048 2048 2048 2048 1:-1 2:-1 3:-1 4:-1 5:-1 6:-1 7:-1 8:-1 9:-1 10:-1 11:-1 
-2048 2048 2048 2048 2048 2048 2048 2048 2048 1:-1 2:-1 3:-1 4:-1 5:-1 6:-1 7:-1 8:-1 9:-1 10:-1 11:-1 
-2048 2048 2048 2048 2048 2048 2048 2048 2048 1:-1 2:-1 3:-1 4:-1 5:-1 6:-1 7:-1 8:-1 9:-1 10:-1 11:-1 
-2048 2048 2048 2048 2048 2048 2048 2048 2048 1:-1 2:-1 3:-1 4:-1 5:-1 6:-1 7:-1 8:-1 9:-1 10:-1 11:-1 
-2048 2048 2048 2048 2048 2048 2048 2048 2048 1:-1 2:-1 3:-1 4:-1 5:-1 6:-1 7:-1 8:-1 9:-1 10:-1 11:-1 
-2048 2048 2048 2048 2048 2048 2048 2048 2048 1:-1 2:-1 3:-1 4:-1 5:-1 6:-1 7:-1 8:-1 9:-1 10:-1 11:-1 
-2048 2048 2048 2048 2048 2048 2048 2048 2048 1:-1 2:-1 3:-1 4:-1 5:-1 6:-1 7:-1 8:-1 9:-1 10:-1 11:-1 
-2048 2048 2048 2048 2048 2048 2048 2048 2048 1:-1 2:-1 3:-1 4:-1 5:-1 6:-1 7:-1 8:-1 9:-1 10:-1 11:-1 
-2048 2048 2048 2048 2048 2048 2048 2048 2048 1:-1 2:-1 3:-1 4:-1 5:-1 6:-1 7:-1 8:-1 9:-1 10:-1 11:-1 
-2048 2048 2048 2048 2048 2048 2048 2048 2048 1:-1 2:-1 3:-1 4:-1 5:-1 6:-1 7:-1 8:-1 9:-1 10:-1 11:-1 
-2048 2048 2048 2048 2048 2048 2048 2048 2048 1:-1 2:-1 3:-1 4:-1 5:-1 6:-1 7:-1 8:-1 9:-1 10:-1 11:-1 
-2048 2048 2048 2048 2048 2048 2048 2048 2048 1:-1 2:-1 3:-1 4:-1 5:-1 6:-1 7:-1 8:-1 9:-1 10:-1 11:-1 
-2048 2048 2048 2048 2048 2048 2048 2048 2048 1:-1 2:-1 3:-1 4:-1 5:-1 6:-1 7:-1 8:-1 9:-1 10:-1 11:-1 
-2048 2048 2048 2048 2048 2048 2048 2048 2048 1:-1 2:-1 3:-1 4:-1 5:-1 6:-1 7:-1 8:-1 9:-1 10:-1 11:-1 
-2047.977347514197 2047.84184366526 2048 2048 2048 2048 2048 2048 2048 1:-1 2:-1 3:-1 4:-1 5:-1 6:-1 7:-1 8:-1 9:-1 10:-1 11:-1 
-0 -0 0 0 0 0 0 0 16.75174809977468 1:0.2 2:0.998278 3:0.990317 4:0.981735 5:0.610192 6:0.502571 7:-0.692681 8:-0.670531 9:-0.744827 10:-0.806712 11:-0.846386 
-0 -0 0 0 2048 2048 1846.554394973549 0 0 1:-0.6 2:0.933335 3:-1 4:-1 5:-1 6:-1 7:-0.768322 8:-1 9:-1 10:-1 11:-1 
-0 -0 0 0 0 0 0 0 5.547789552160163 1:0.2 2:0.997198 3:0.969012 4:0.950386 5:0.766458 6:0.719425 7:-0.733321 8:-0.705283 9:-0.716393 10:-0.74471 11:-0.712622 
-0 -0.1490680800753444 0.2689944154014405 0.1955506079956917 0.02543079854275383 0 0 0.3488406164164743 0 1:0.6 2:0.998894 3:0.996067 4:0.99267 5:0.989431 6:0.981905 7:-0.630287 8:-0.594489 9:-0.625071 10:-0.695069 11:-0.569616 
-0 -0 0 0 0 0 0 0 0.09862138546097399 1:0.6 2:0.998868 3:0.997105 4:0.994261 5:0.987413 6:0.982223 7:-0.631229 8:-0.590029 9:-0.629632 10:-0.695303 11:-0.56937 
-0 -0.06252128705097811 0.1159178937675696 0.08363814726419133 0.01080692501912047 0 0 0.1503573403617728 0 1:0.2 2:0.999292 3:0.971699 4:0.963104 5:0.759229 6:0.742403 7:-0.633095 8:-0.638603 9:-0.714137 10:-0.699379 11:-0.674392 
-0 -0 0 0 0 0 0 0 19.99544072882381 1:0.2 2:0.997752 3:0.990291 4:0.989648 5:0.988736 6:0.981869 7:-0.765212 8:-0.776413 9:-0.825905 10:-0.85399 11:-0.852338 
-13.66978615865481 -0.5815667344866838 9.063934152088841 0.760065782558179 1.856413794947571 0 0 1.392284861785097 0 1:-0.2 2:0.958395 3:0.450113 4:0.408624 5:-1 6:-1 7:-0.744411 8:-0.777859 9:-0.897665 10:-1 11:-1 
-0 -0.3350895243278613 0.6063673663599439 0.4388387427370957 0.05759928939049686 0 0 0.7822328101092083 0 1:0.2 2:0.992408 3:0.958889 4:0.955227 5:0.444538 6:0.407755 7:-0.691221 8:-0.697426 9:-0.734853 10:-0.769413 11:-0.707636 
-0 -0 0 0 0 0 0 0 25.72274023318137 1:0.2 2:0.989956 3:0.980974 4:0.954827 5:0.492216 6:0.46105 7:-0.729986 8:-0.724725 9:-0.73969 10:-0.787701 11:-0.713894 
-0 -0.3061164674268476 0.553083019058205 0.3996961791026157 0.05181930048849716 0 0 0.7141132647993476 2.34778821134565 1:0.6 2:0.999248 3:0.990671 4:0.990646 5:0.990503 6:0.995199 7:-0.729966 8:-0.697732 9:-0.720345 10:-0.715121 11:-0.690381 
-0 -0.5211086086239471 0.9423254065896737 0.6816694960142207 0.08896850095930162 0 0 1.217096558225376 0 1:0.2 2:0.996332 3:0.990839 4:0.990859 5:0.986055 6:0.986995 7:-0.782369 8:-0.806801 9:-0.822547 10:-0.871597 11:-0.848665 
-0.4141517619831461 -0 0 0 0 0 0 0 0 1:-0.2 2:0.962109 3:0.660311 4:0.579984 5:-1 6:-1 7:-0.699348 8:-0.672506 9:-0.891713 10:-1 11:-1 
-0 -0 0 0 0 0 0 0 14.15725103990295 1:0.2 2:0.98264 3:0.977751 4:0.965135 5:0.741399 6:0.670282 7:-0.703173 8:-0.673132 9:-0.748259 10:-0.80409 11:-0.837665 
-0 -0 0 0 298.2047160409749 0 0 0 0 1:-0.2 2:0.944951 3:0.737235 4:0.463539 5:-1 6:-1 7:-0.67821 8:-0.728429 9:-0.749513 10:-1 11:-1 
-0 -0 0 0 98.36828869822085 0 0 0 0 1:-0.2 2:0.955243 3:0.718053 4:0.466813 5:-1 6:-1 7:-0.679292 8:-0.726041 9:-0.744942 10:-1 11:-1 
-7.927658767518825 -0 0 0 0 0 0 0 0 1:-0.2 2:0.959717 3:0.77063 4:0.585249 5:-1 6:-1 7:-0.704206 8:-0.739511 9:-0.762304 10:-1 11:-1 
-0 -0.408382009822048 0 0.5325026249815621 0 0 0 0.9591247559424648 26.52458136345383 1:-0.2 2:0.870014 3:0.857191 4:0.509938 5:-1 6:-1 7:-0.679172 8:-0.635766 9:-0.816037 10:-1 11:-1 
-0 -0 0 0 0 0 0 167.6262687611316 0 1:-0.6 2:0.512635 3:-1 4:-1 5:-1 6:-1 7:-0.677795 8:-1 9:-1 10:-1 11:-1 
-0.06903730480082336 -2048 2048 2048 2048 2048 2048 2048 2048 1:-1 2:-1 3:-1 4:-1 5:-1 6:-1 7:-1 8:-1 9:-1 10:-1 11:-1 
-0 -0 0 0 0 0 0 2048 0 1:-0.6 2:0.495889 3:-1 4:-1 5:-1 6:-1 7:-0.678248 8:-1 9:-1 10:-1 11:-1 
-0 -2048 2048 2048 2048 2048 2048 2048 2048 1:-1 2:-1 3:-1 4:-1 5:-1 6:-1 7:-1 8:-1 9:-1 10:-1 11:-1 
-0 -2048 2048 2048 2048 2048 2048 2048 2048 1:-1 2:-1 3:-1 4:-1 5:-1 6:-1 7:-1 8:-1 9:-1 10:-1 11:-1 
-0 -2048 2048 2048 2048 2048 2048 2048 2048 1:-1 2:-1 3:-1 4:-1 5:-1 6:-1 7:-1 8:-1 9:-1 10:-1 11:-1 
-0 -2048 2048 2048 2048 2048 2048 2048 2048 1:-1 2:-1 3:-1 4:-1 5:-1 6:-1 7:-1 8:-1 9:-1 10:-1 11:-1 
-0 -2048 2048 2048 2048 2048 2048 2048 2048 1:-1 2:-1 3:-1 4:-1 5:-1 6:-1 7:-1 8:-1 9:-1 10:-1 11:-1 
-0 -2048 2048 2048 2048 2048 2048 2048 2048 1:-1 2:-1 3:-1 4:-1 5:-1 6:-1 7:-1 8:-1 9:-1 10:-1 11:-1 
-0 -2048 2048 2048 2048 2048 2048 2048 2048 1:-1 2:-1 3:-1 4:-1 5:-1 6:-1 7:-1 8:-1 9:-1 10:-1 11:-1 
-0 -2048 2048 2048 2048 2048 2048 2048 2048 1:-1 2:-1 3:-1 4:-1 5:-1 6:-1 7:-1 8:-1 9:-1 10:-1 11:-1 
-0 -2048 2048 2048 2048 2048 2048 2048 2048 1:-1 2:-1 3:-1 4:-1 5:-1 6:-1 7:-1 8:-1 9:-1 10:-1 11:-1 
-0 -2048 2048 2048 2048 2048 2048 2048 2048 1:-1 2:-1 3:-1 4:-1 5:-1 6:-1 7:-1 8:-1 9:-1 10:-1 11:-1 
-0 -2048 2048 2048 2048 2048 2048 2048 2048 1:-1 2:-1 3:-1 4:-1 5:-1 6:-1 7:-1 8:-1 9:-1 10:-1 11:-1 
-0 -2048 2048 2048 2048 2048 2048 2048 2048 1:-1 2:-1 3:-1 4:-1 5:-1 6:-1 7:-1 8:-1 9:-1 10:-1 11:-1 
-0 -2048 2048 2048 2048 2048 2048 2048 2048 1:-1 2:-1 3:-1 4:-1 5:-1 6:-1 7:-1 8:-1 9:-1 10:-1 11:-1 
-0 -2048 2048 2048 2048 2048 2048 2048 2048 1:-1 2:-1 3:-1 4:-1 5:-1 6:-1 7:-1 8:-1 9:-1 10:-1 11:-1 
-0 -2048 2048 2048 2048 2048 2048 2048 2048 1:-1 2:-1 3:-1 4:-1 5:-1 6:-1 7:-1 8:-1 9:-1 10:-1 11:-1 
-0 -2048 2048 2048 2048 2048 2048 2048 2048 1:-1 2:-1 3:-1 4:-1 5:-1 6:-1 7:-1 8:-1 9:-1 10:-1 11:-1 
-0 -2048 2048 2048 2048 2048 2048 2048 2048 1:-1 2:-1 3:-1 4:-1 5:-1 6:-1 7:-1 8:-1 9:-1 10:-1 11:-1 
-0 -2048 2048 2048 2048 2048 2048 2048 2048 1:-1 2:-1 3:-1 4:-1 5:-1 6:-1 7:-1 8:-1 9:-1 10:-1 11:-1 
-0 -2048 2048 2048 2048 2048 2048 2048 2048 1:-1 2:-1 3:-1 4:-1 5:-1 6:-1 7:-1 8:-1 9:-1 10:-1 11:-1 
-0 -2048 2048 2048 2048 2048 2048 2048 2048 1:-1 2:-1 3:-1 4:-1 5:-1 6:-1 7:-1 8:-1 9:-1 10:-1 11:-1 
-363.6906858940098 -0 2048 0 1124.459440974594 1313.579815449984 2048 2048 2048 1:-0.6 2:0.691492 3:-1 4:-1 5:-1 6:-1 7:-0.844488 8:-1 9:-1 10:-1 11:-1 
-2048 -0 0 0 0 0 2048 2048 2048 1:-0.6 2:0.913927 3:-1 4:-1 5:-1 6:-1 7:-0.8384 8:-1 9:-1 10:-1 11:-1 
-2048 -0 1897.180217099056 0 1597.882104954744 290.2057017765845 2048 2048 2048 1:-0.6 2:0.927419 3:-1 4:-1 5:-1 6:-1 7:-0.830383 8:-1 9:-1 10:-1 11:-1 
-0 -0 2048 0 2048 2048 0 0 2048 1:-0.6 2:0.9748 3:-1 4:-1 5:-1 6:-1 7:-0.824993 8:-1 9:-1 10:-1 11:-1 
-0 -0 1037.485076418186 0 2048 0 0 0 2048 1:-0.6 2:0.979068 3:-1 4:-1 5:-1 6:-1 7:-0.829956 8:-1 9:-1 10:-1 11:-1 
-0 -0.6389745673169837 1.154987435837892 0.8352302310623112 0.1089597664983382 0 0 1.491865374831085 28.81086950537704 1:0.2 2:0.984004 3:0.976827 4:0.950595 5:-0.250942 6:-0.408256 7:-0.759074 8:-0.789589 9:-0.804004 10:-0.828465 11:-0.807326 
-2048 -0 0 0 0 0 0 2048 2048 1:-0.6 2:0.912613 3:-1 4:-1 5:-1 6:-1 7:-0.869007 8:-1 9:-1 10:-1 11:-1 
-0 -2048 2048 2048 2048 2048 2048 2048 2048 1:-1 2:-1 3:-1 4:-1 5:-1 6:-1 7:-1 8:-1 9:-1 10:-1 11:-1 
-0 -0 0 0 2048 0 0 0 2048 1:-0.6 2:0.979554 3:-1 4:-1 5:-1 6:-1 7:-0.833153 8:-1 9:-1 10:-1 11:-1 
-0 -2048 2048 2048 2048 2048 2048 2048 2048 1:-1 2:-1 3:-1 4:-1 5:-1 6:-1 7:-1 8:-1 9:-1 10:-1 11:-1 
-0 -2048 2048 2048 2048 2048 2048 2048 2048 1:-1 2:-1 3:-1 4:-1 5:-1 6:-1 7:-1 8:-1 9:-1 10:-1 11:-1 
-0 -2048 2048 2048 2048 2048 2048 2048 2048 1:-1 2:-1 3:-1 4:-1 5:-1 6:-1 7:-1 8:-1 9:-1 10:-1 11:-1 
-0 -2048 2048 2048 2048 2048 2048 2048 2048 1:-1 2:-1 3:-1 4:-1 5:-1 6:-1 7:-1 8:-1 9:-1 10:-1 11:-1 
-2048 -0 0 0 0 0 0 0 2048 1:-0.6 2:0.974214 3:-1 4:-1 5:-1 6:-1 7:-0.85129 8:-1 9:-1 10:-1 11:-1 
-2048 -0 0 0 0 0 0 0 2048 1:-0.6 2:0.970058 3:-1 4:-1 5:-1 6:-1 7:-0.849101 8:-1 9:-1 10:-1 11:-1 
-0 -0 0 0 0 0 0 0 2048 1:-0.6 2:0.974808 3:-1 4:-1 5:-1 6:-1 7:-0.844679 8:-1 9:-1 10:-1 11:-1 
-0 -2048 2048 2048 2048 2048 2048 2048 2048 1:-1 2:-1 3:-1 4:-1 5:-1 6:-1 7:-1 8:-1 9:-1 10:-1 11:-1 
-2048 -0 0 0 0 0 0 0 2048 1:-0.6 2:0.966248 3:-1 4:-1 5:-1 6:-1 7:-0.850776 8:-1 9:-1 10:-1 11:-1 
-0 -2048 2048 2048 2048 2048 2048 2048 2048 1:-1 2:-1 3:-1 4:-1 5:-1 6:-1 7:-1 8:-1 9:-1 10:-1 11:-1 
-0 -2048 2048 2048 2048 2048 2048 2048 2048 1:-1 2:-1 3:-1 4:-1 5:-1 6:-1 7:-1 8:-1 9:-1 10:-1 11:-1 
-0 -2048 2048 2048 2048 2048 2048 2048 2048 1:-1 2:-1 3:-1 4:-1 5:-1 6:-1 7:-1 8:-1 9:-1 10:-1 11:-1 
-0 -2048 2048 2048 2048 2048 2048 2048 2048 1:-1 2:-1 3:-1 4:-1 5:-1 6:-1 7:-1 8:-1 9:-1 10:-1 11:-1 
-0 -2048 2048 2048 2048 2048 2048 2048 2048 1:-1 2:-1 3:-1 4:-1 5:-1 6:-1 7:-1 8:-1 9:-1 10:-1 11:-1 
-0 -2048 2048 2048 2048 2048 2048 2048 2048 1:-1 2:-1 3:-1 4:-1 5:-1 6:-1 7:-1 8:-1 9:-1 10:-1 11:-1 
-0 -2048 2048 2048 2048 2048 2048 2048 2048 1:-1 2:-1 3:-1 4:-1 5:-1 6:-1 7:-1 8:-1 9:-1 10:-1 11:-1 
-0 -2048 2048 2048 2048 2048 2048 2048 2048 1:-1 2:-1 3:-1 4:-1 5:-1 6:-1 7:-1 8:-1 9:-1 10:-1 11:-1 
-0 -2048 2048 2048 2048 2048 2048 2048 2048 1:-1 2:-1 3:-1 4:-1 5:-1 6:-1 7:-1 8:-1 9:-1 10:-1 11:-1 
-0 -2048 2048 2048 2048 2048 2048 2048 2048 1:-1 2:-1 3:-1 4:-1 5:-1 6:-1 7:-1 8:-1 9:-1 10:-1 11:-1 
-0 -2048 2048 2048 2048 2048 2048 2048 2048 1:-1 2:-1 3:-1 4:-1 5:-1 6:-1 7:-1 8:-1 9:-1 10:-1 11:-1 
-0 -2048 2048 2048 2048 2048 2048 2048 2048 1:-1 2:-1 3:-1 4:-1 5:-1 6:-1 7:-1 8:-1 9:-1 10:-1 11:-1 
-0 -2048 2048 2048 2048 2048 2048 2048 2048 1:-1 2:-1 3:-1 4:-1 5:-1 6:-1 7:-1 8:-1 9:-1 10:-1 11:-1 
-0 -2048 2048 2048 2048 2048 2048 2048 2048 1:-1 2:-1 3:-1 4:-1 5:-1 6:-1 7:-1 8:-1 9:-1 10:-1 11:-1 
-33.50207680730151 -0.1326132707182801 0 0.1739904760362206 0 0 0 0.3067435471193733 0 1:-0.2 2:0.859228 3:0.814187 4:0.792424 5:-1 6:-1 7:-0.73671 8:-0.738327 9:-0.889759 10:-1 11:-1 
-0 -0 409.220245074892 0 2048 972.3156589852465 2048 1743.087609708101 2048 1:-0.6 2:0.55773 3:-1 4:-1 5:-1 6:-1 7:-0.781748 8:-1 9:-1 10:-1 11:-1 
-0 -0 0 0 2048 2048 0 0 2048 1:-0.6 2:0.86408 3:-1 4:-1 5:-1 6:-1 7:-0.773344 8:-1 9:-1 10:-1 11:-1 
-0 -0 0 0 2048 0 0 0 2048 1:-0.6 2:0.86342 3:-1 4:-1 5:-1 6:-1 7:-0.76872 8:-1 9:-1 10:-1 11:-1 
-0 -0 0 0 2048 2048 59.87189809808604 0 2048 1:-0.6 2:0.849252 3:-1 4:-1 5:-1 6:-1 7:-0.774517 8:-1 9:-1 10:-1 11:-1 
-0 -0 0 0 2048 2048 0 0 2048 1:-0.6 2:0.838732 3:-1 4:-1 5:-1 6:-1 7:-0.770389 8:-1 9:-1 10:-1 11:-1 
-0 -2048 2048 2048 2048 2048 2048 2048 2048 1:-1 2:-1 3:-1 4:-1 5:-1 6:-1 7:-1 8:-1 9:-1 10:-1 11:-1 
-0 -0 0 0 163.89350359725 0 0 0 0 1:-0.6 2:0.815773 3:-1 4:-1 5:-1 6:-1 7:-0.760925 8:-1 9:-1 10:-1 11:-1 
-0 -2048 2048 2048 2048 2048 2048 2048 2048 1:-1 2:-1 3:-1 4:-1 5:-1 6:-1 7:-1 8:-1 9:-1 10:-1 11:-1 
-0 -2048 2048 2048 2048 2048 2048 2048 2048 1:-1 2:-1 3:-1 4:-1 5:-1 6:-1 7:-1 8:-1 9:-1 10:-1 11:-1 
-0 -2048 2048 2048 2048 2048 2048 2048 2048 1:-1 2:-1 3:-1 4:-1 5:-1 6:-1 7:-1 8:-1 9:-1 10:-1 11:-1 
-0 -2048 2048 2048 2048 2048 2048 2048 2048 1:-1 2:-1 3:-1 4:-1 5:-1 6:-1 7:-1 8:-1 9:-1 10:-1 11:-1 
-0 -2048 2048 2048 2048 2048 2048 2048 2048 1:-1 2:-1 3:-1 4:-1 5:-1 6:-1 7:-1 8:-1 9:-1 10:-1 11:-1 
-0 -2048 2048 2048 2048 2048 2048 2048 2048 1:-1 2:-1 3:-1 4:-1 5:-1 6:-1 7:-1 8:-1 9:-1 10:-1 11:-1 
-2048 -2048 2048 2048 2048 2048 2048 2048 2048 1:-1 2:-1 3:-1 4:-1 5:-1 6:-1 7:-1 8:-1 9:-1 10:-1 11:-1 
-0 -101.2424286984588 0 0 0 0 0 0 0 1:-0.6 2:0.708756 3:-1 4:-1 5:-1 6:-1 7:-0.714438 8:-1 9:-1 10:-1 11:-1 
-2048 -2048 2048 2048 2048 2048 2048 2048 2048 1:-1 2:-1 3:-1 4:-1 5:-1 6:-1 7:-1 8:-1 9:-1 10:-1 11:-1 
-2048 -2048 2048 2048 2048 2048 2048 2048 2048 1:-1 2:-1 3:-1 4:-1 5:-1 6:-1 7:-1 8:-1 9:-1 10:-1 11:-1 
-2048 -2048 2048 2048 2048 2048 2048 2048 2048 1:-1 2:-1 3:-1 4:-1 5:-1 6:-1 7:-1 8:-1 9:-1 10:-1 11:-1 
-2048 -2048 2048 2048 2048 2048 2048 2048 2048 1:-1 2:-1 3:-1 4:-1 5:-1 6:-1 7:-1 8:-1 9:-1 10:-1 11:-1 
-38.55768492279118 -0 2048 0 0 90.20573194694141 75.53922998645076 1798.086658037108 2048 1:-0.6 2:0.481919 3:-1 4:-1 5:-1 6:-1 7:-0.910815 8:-1 9:-1 10:-1 11:-1 
-2048 -0 2048 0 2048 2048 2048 2048 2048 1:-0.6 2:0.888406 3:-1 4:-1 5:-1 6:-1 7:-0.830621 8:-1 9:-1 10:-1 11:-1 
-6.918774661110509 -0.04271140557491574 0 0.05488859084477623 0 0 0 0.09582344385583574 2048 1:-0.2 2:0.943269 3:0.839499 4:0.748322 5:-1 6:-1 7:-0.833931 8:-0.841201 9:-0.898657 10:-1 11:-1 
-21.64667924625802 -0 0 0 0 0 0 0 0 1:-0.2 2:0.97665 3:0.893961 4:0.781766 5:-1 6:-1 7:-0.76532 8:-0.793182 9:-0.846873 10:-1 11:-1 
-0 -0.2175095478199389 0.3938530936569951 0.2846935861822412 0.03646623216335755 0 0 0.509095262949989 0 1:0.2 2:0.978582 3:0.88505 4:0.800123 5:0.778999 6:0.769062 7:-0.76514 8:-0.791648 9:-0.797198 10:-0.839167 11:-0.813397 
-0 -0 0 0 0 0 0 0 25.8110332042146 1:0.2 2:0.964966 3:0.902053 4:0.874161 5:0.80324 6:0.762139 7:-0.764793 8:-0.790999 9:-0.800158 10:-0.842436 11:-0.823771 
-0 -0 0 0 0 0 0 0 16.85064755201236 1:0.2 2:0.96598 3:0.908313 4:0.895192 5:0.841994 6:0.774694 7:-0.76497 8:-0.790654 9:-0.802146 10:-0.845665 11:-0.818227 
-21.10092147119649 -0 0 0 0 0 0 0 0 1:-0.2 2:0.982756 3:0.942296 4:0.863249 5:-1 6:-1 7:-0.765623 8:-0.791472 9:-0.860491 10:-1 11:-1 
-0 -0 0 0 0 0 0 0 2048 1:-0.2 2:0.992304 3:0.959351 4:0.959624 5:-1 6:-1 7:-0.841014 8:-0.875733 9:-0.906518 10:-1 11:-1 
-0 -0 0 0 0 0 0 0 168.575835912328 1:-0.2 2:0.974008 3:0.899424 4:0.898692 5:-1 6:-1 7:-0.76832 8:-0.810388 9:-0.883078 10:-1 11:-1 
-0 -0.377170813135588 0.6626515404936255 0.4898616593475068 0.06266704874311865 0 0 0.8588152025795754 2.264769664432946 1:0.6 2:0.994112 3:0.991309 4:0.984857 5:0.985752 6:0.966734 7:0.58052 8:0.909931 9:0.90517 10:1 11:-0.557797 
-0 -0.3565957849529966 0.6633955834712626 0.4699857501094505 0.06251539594603392 0 0 0.8540990154605843 2.227886571770591 1:0.6 2:0.99429 3:0.991175 4:0.985191 5:0.985752 6:0.967467 7:0.552612 8:0.873675 9:0.868563 10:0.962514 11:-0.557482 
-0 -0.1020143342455255 1.745656962350207 0.1359385996416192 232.4278140666321 0 0 0.2266408320360444 0 1:-0.2 2:0.928823 3:0.725215 4:0.439326 5:-1 6:-1 7:-0.666626 8:-0.70887 9:-0.747051 10:-1 11:-1 
-0 -0 0 0 0 0 0 0 2048 1:-0.2 2:0.987696 3:0.949488 4:0.92893 5:-1 6:-1 7:-0.843433 8:-0.89267 9:-0.900528 10:-1 11:-1 
-11.84998604933959 -0 0 0 0 0 0 0 0 1:-0.2 2:0.931783 3:0.927397 4:0.897633 5:-1 6:-1 7:-0.756034 8:-0.783186 9:-0.891655 10:-1 11:-1 
-0 -0 0 0 0 0 0 0 2048 1:-0.6 2:0.948217 3:-1 4:-1 5:-1 6:-1 7:-0.912397 8:-1 9:-1 10:-1 11:-1 
-2048 -2048 2048 2048 2048 2048 2048 2048 2048 1:-1 2:-1 3:-1 4:-1 5:-1 6:-1 7:-1 8:-1 9:-1 10:-1 11:-1 
-0 -0 0 0 0 0 0 0 2048 1:-0.6 2:0.979968 3:-1 4:-1 5:-1 6:-1 7:-0.841086 8:-1 9:-1 10:-1 11:-1 
-0 -0 0 0 0 0 0 0 2048 1:-0.6 2:0.979126 3:-1 4:-1 5:-1 6:-1 7:-0.841748 8:-1 9:-1 10:-1 11:-1 
-0 -0 0 0 1114.085707908128 0 0 0 0 1:-0.6 2:0.659251 3:-1 4:-1 5:-1 6:-1 7:-0.761926 8:-1 9:-1 10:-1 11:-1 
-2048 -2048 2048 2048 2048 2048 2048 2048 2048 1:-1 2:-1 3:-1 4:-1 5:-1 6:-1 7:-1 8:-1 9:-1 10:-1 11:-1 
-0 -0 0 0 2048 0 0 0 0 1:-0.6 2:0.591752 3:-1 4:-1 5:-1 6:-1 7:-0.764644 8:-1 9:-1 10:-1 11:-1 
-0 -0 0 0 0 0 0 0 617.8540771254605 1:-0.2 2:0.977178 3:0.805259 4:0.670166 5:-1 6:-1 7:-0.767157 8:-0.809644 9:-0.893728 10:-1 11:-1 
-0 -0 0 0 0 0 0 0 1174.941656742238 1:-0.2 2:0.98189 3:0.923168 4:0.842624 5:-1 6:-1 7:-0.766692 8:-0.810421 9:-0.894361 10:-1 11:-1 
-0 -0 0 0 0 0 0 0 2048 1:-0.6 2:0.983632 3:-1 4:-1 5:-1 6:-1 7:-0.843707 8:-1 9:-1 10:-1 11:-1 
-0 -0 0 0 0 0 0 0 2048 1:-0.2 2:0.985168 3:0.972111 4:0.920553 5:-1 6:-1 7:-0.767761 8:-0.811275 9:-0.891876 10:-1 11:-1 
-0 -0 0 0 2048 0 0 0 2048 1:-0.6 2:0.867008 3:-1 4:-1 5:-1 6:-1 7:-0.769279 8:-1 9:-1 10:-1 11:-1 
-0 -0 0 0 2048 2048 0 0 2048 1:-0.6 2:0.896021 3:-1 4:-1 5:-1 6:-1 7:-0.769819 8:-1 9:-1 10:-1 11:-1 
-2048 -2048 2048 2048 2048 2048 2048 2048 2048 1:-1 2:-1 3:-1 4:-1 5:-1 6:-1 7:-1 8:-1 9:-1 10:-1 11:-1 
-0 -0 0 0 2048 0 0 0 110.4502724021726 1:-0.6 2:0.926197 3:-1 4:-1 5:-1 6:-1 7:-0.768165 8:-1 9:-1 10:-1 11:-1 
-0 -0 0 0 2048 1269.212316419509 0 0 0 1:-0.6 2:0.943433 3:-1 4:-1 5:-1 6:-1 7:-0.766891 8:-1 9:-1 10:-1 11:-1 
-0 -0 0 0 2048 2048 0 0 0 1:-0.6 2:0.929383 3:-1 4:-1 5:-1 6:-1 7:-0.768593 8:-1 9:-1 10:-1 11:-1 
-0 -0 0 0 2048 938.7433246575905 0 0 2048 1:-0.6 2:0.918465 3:-1 4:-1 5:-1 6:-1 7:-0.768753 8:-1 9:-1 10:-1 11:-1 
-2048 -2048 2048 2048 2048 2048 2048 2048 2048 1:-1 2:-1 3:-1 4:-1 5:-1 6:-1 7:-1 8:-1 9:-1 10:-1 11:-1 
-0 -0 1863.122051363783 0 0 0 0 0 0 1:-0.6 2:0.950289 3:-1 4:-1 5:-1 6:-1 7:-0.762326 8:-1 9:-1 10:-1 11:-1 
-0 -0 2048 0 0 0 0 0 0 1:-0.6 2:0.953183 3:-1 4:-1 5:-1 6:-1 7:-0.764115 8:-1 9:-1 10:-1 11:-1 
-2048 -2048 2048 2048 2048 2048 2048 2048 2048 1:-1 2:-1 3:-1 4:-1 5:-1 6:-1 7:-1 8:-1 9:-1 10:-1 11:-1 
-0 -0 2048 0 0 0 0 0 0 1:-0.6 2:0.953371 3:-1 4:-1 5:-1 6:-1 7:-0.764105 8:-1 9:-1 10:-1 11:-1 
-2048 -2048 2048 2048 2048 2048 2048 2048 2048 1:-1 2:-1 3:-1 4:-1 5:-1 6:-1 7:-1 8:-1 9:-1 10:-1 11:-1 
-2048 -2048 2048 2048 2048 2048 2048 2048 2048 1:-1 2:-1 3:-1 4:-1 5:-1 6:-1 7:-1 8:-1 9:-1 10:-1 11:-1 
-2048 -2048 2048 2048 2048 2048 2048 2048 2048 1:-1 2:-1 3:-1 4:-1 5:-1 6:-1 7:-1 8:-1 9:-1 10:-1 11:-1 
-0 -0 2048 0 0 0 0 0 0 1:-0.6 2:0.956263 3:-1 4:-1 5:-1 6:-1 7:-0.762925 8:-1 9:-1 10:-1 11:-1 
-0 -0 0 0 0 0 0 0 2048 1:-0.6 2:0.977756 3:-1 4:-1 5:-1 6:-1 7:-0.850654 8:-1 9:-1 10:-1 11:-1 
-0 -0 0 0 0 0 0 0 186.0885879128307 1:-0.2 2:0.978246 3:0.963727 4:0.957771 5:-1 6:-1 7:-0.763043 8:-0.81884 9:-0.85997 10:-1 11:-1 
-0 -0 0 0 0 0 0 0 216.539514275319 1:-0.2 2:0.97894 3:0.966952 4:0.957693 5:-1 6:-1 7:-0.763324 8:-0.818383 9:-0.864618 10:-1 11:-1 
-2048 -2048 2048 2048 2048 2048 2048 2048 2048 1:-1 2:-1 3:-1 4:-1 5:-1 6:-1 7:-1 8:-1 9:-1 10:-1 11:-1 
-2048 -2048 2048 2048 2048 2048 2048 2048 2048 1:-1 2:-1 3:-1 4:-1 5:-1 6:-1 7:-1 8:-1 9:-1 10:-1 11:-1 
-0 -0 0 0 0 0 0 0 2048 1:-0.6 2:0.98766 3:-1 4:-1 5:-1 6:-1 7:-0.849143 8:-1 9:-1 10:-1 11:-1 
-0 -0 0 0 0 0 0 0 396.5790357920006 1:-0.2 2:0.991854 3:0.944362 4:0.944891 5:-1 6:-1 7:-0.763657 8:-0.797431 9:-0.904473 10:-1 11:-1 
-0 -0.5310373242794426 0.9879689316826106 0.6944853128920503 0 0 0 1.240590096272188 0 1:-0.2 2:0.998792 3:0.995249 4:0.995199 5:-1 6:-1 7:-0.847704 8:-0.903476 9:-0.905067 10:-1 11:-1 
-0 -0 0 0 0 0 0 0 2048 1:-0.6 2:0.992654 3:-1 4:-1 5:-1 6:-1 7:-0.917735 8:-1 9:-1 10:-1 11:-1 
-0 -0 0 0 0 0 0 0 2048 1:-0.2 2:0.979112 3:0.979376 4:0.919062 5:-1 6:-1 7:-0.765313 8:-0.803066 9:-0.896092 10:-1 11:-1 
-0 -0 0 0 0 0 0 0 2048 1:-0.6 2:0.955415 3:-1 4:-1 5:-1 6:-1 7:-0.912135 8:-1 9:-1 10:-1 11:-1 
-214.4837594681887 -0 0 0 0 0 0 0 2048 1:-0.6 2:0.978548 3:-1 4:-1 5:-1 6:-1 7:-0.853745 8:-1 9:-1 10:-1 11:-1 
-0 -0 0 0 0 0 0 0 17.75635772896001 1:0.2 2:0.98523 3:0.984091 4:0.982205 5:0.984087 6:0.945034 7:-0.756345 8:-0.781544 9:-0.820135 10:-0.816512 11:-0.844189 
-0 -0.1859513932314893 0.3338562125468885 0.242277088588935 0.03156092492174023 0 0 0.4304028884752751 0 1:0.2 2:0.994018 3:0.872166 4:0.838018 5:0.826849 6:0.77557 7:-0.667601 8:-0.622013 9:-0.705092 10:-0.730706 11:-0.693576 
-0 -0 0 0 2048 0 0 40.14301858058049 0 1:-0.6 2:0.806999 3:-1 4:-1 5:-1 6:-1 7:-0.762284 8:-1 9:-1 10:-1 11:-1 
-0 -0 0 0 0 0 0 0 2048 1:-0.6 2:0.99693 3:-1 4:-1 5:-1 6:-1 7:-0.88745 8:-1 9:-1 10:-1 11:-1 
-2048 -2048 2048 2048 2048 2048 2048 2048 2048 1:-1 2:-1 3:-1 4:-1 5:-1 6:-1 7:-1 8:-1 9:-1 10:-1 11:-1 
-2048 -2048 2048 2048 2048 2048 2048 2048 2048 1:-1 2:-1 3:-1 4:-1 5:-1 6:-1 7:-1 8:-1 9:-1 10:-1 11:-1 
-0 -68.91447275320552 0 0 0 0 0 0 0 1:-0.6 2:0.857872 3:-1 4:-1 5:-1 6:-1 7:-0.728804 8:-1 9:-1 10:-1 11:-1 
-4.992529889400757 -0.1521043532907381 0 0.1990163590617459 0.958600221134041 0 0 0.3581893311465436 0 1:-0.2 2:0.996158 3:0.936534 4:0.904429 5:-1 6:-1 7:-0.720251 8:-0.740555 9:-0.889852 10:-1 11:-1 
-0 -0 0 0 0 0 0 0 2048 1:-0.6 2:0.997434 3:-1 4:-1 5:-1 6:-1 7:-0.905896 8:-1 9:-1 10:-1 11:-1 
-0 -0 0 0 0 0 0 0 2048 1:-0.6 2:0.999768 3:-1 4:-1 5:-1 6:-1 7:-0.90535 8:-1 9:-1 10:-1 11:-1 
-0 -0 0 0 0 0 0 0 2048 1:-0.6 2:0.999874 3:-1 4:-1 5:-1 6:-1 7:-0.904341 8:-1 9:-1 10:-1 11:-1 
-0 -0 0.3036152280819254 0 6.3586848386113 0 0 0 0 1:-0.2 2:0.989524 3:0.955918 4:0.931163 5:-1 6:-1 7:-0.718323 8:-0.777407 9:-0.858196 10:-1 11:-1 
-0 -0 0 0 0 0 0 0 2048 1:-0.6 2:0.993456 3:-1 4:-1 5:-1 6:-1 7:-0.863055 8:-1 9:-1 10:-1 11:-1 
-504.1019897766644 -0 1394.935279342132 0 0 0 0 1926.782579583506 2048 1:-0.6 2:0.677269 3:-1 4:-1 5:-1 6:-1 7:-0.904142 8:-1 9:-1 10:-1 11:-1 
-0 -0 0 0 0 0 0 0 2048 1:-0.6 2:0.643521 3:-1 4:-1 5:-1 6:-1 7:-0.910082 8:-1 9:-1 10:-1 11:-1 
-0 -0.3411812432253207 0.6178416536380963 0.4466640807059198 0.05737698851693568 0 0 0.7997632841629705 21.43238556898852 1:0.2 2:0.994658 3:0.991675 4:0.982187 5:0.546723 6:0.429216 7:-0.758571 8:-0.784705 9:-0.826868 10:-0.853086 11:-0.841046 
-0 -0 4.36569176235384 0 0 0 0 0 17.68258737726082 1:-0.2 2:0.990516 3:0.572655 4:0.453077 5:-1 6:-1 7:-0.754531 8:-0.778625 9:-0.899728 10:-1 11:-1 
-0 -0 0 0 0 0 0 0 41.84750719571446 1:0.2 2:0.999478 3:0.978651 4:0.975507 5:0.701857 6:0.68142 7:-0.756696 8:-0.780507 9:-0.824877 10:-0.85399 11:-0.849851 
-755.640660030261 -0 0 26.98607981772775 -0 0 0 987.417217095163 2048 1:-0.6 2:0.821594 3:-1 4:-1 5:-1 6:-1 7:-0.919977 8:-1 9:-1 10:-1 11:-1 
-0 -0.2607879178518555 0.471125484002652 0.3401100195652132 0.04376752641648869 0 0 0.6070275477976431 0.6580080529657149 1:0.6 2:0.985088 3:0.982821 4:0.936054 5:0.829572 6:0.834127 7:-0.638681 8:-0.571656 9:-0.628351 10:-0.674619 11:-0.558573 
-0 -0.3536690079356218 0.6421766718774617 0.4620514018366064 0.05970425292902699 0 0 0.8251047783508914 2.47358802101139 1:0.2 2:0.828972 3:0.821504 4:0.808734 5:0.385059 6:-0.22381 7:-0.642282 8:-0.632168 9:-0.709058 10:-0.689517 11:-0.724858 
-0 -0.2656522425547343 0.4770121909967175 0.3477727655629153 0.04571510217239896 0 0 0.6210769743403775 0.6654633550703322 1:0.2 2:0.835858 3:0.833448 4:0.762407 5:0.343325 6:-0.320936 7:-0.645007 8:-0.628041 9:-0.710441 10:-0.69202 11:-0.726568 
-0 -0 0 0 0 0 0 0 43.32460977342603 1:0.2 2:0.989588 3:0.949332 4:0.895906 5:0.85039 6:0.843479 7:-0.767682 8:-0.786189 9:-0.815099 10:-0.868301 11:-0.848753 
-0 -0.4535700671207182 0.8204516759038202 0.5918044233870861 0.07685411793063057 0 0 1.059521571202875 0 1:0.2 2:0.974346 3:0.87927 4:0.83554 5:0.0372323 6:-0.196114 7:-0.650084 8:-0.582405 9:-0.624807 10:-0.800256 11:-0.824755 
-2048 -0 0 0 0 0 0 2048 2048 1:-0.6 2:0.886918 3:-1 4:-1 5:-1 6:-1 7:-0.910569 8:-1 9:-1 10:-1 11:-1 
-0 -0 0 0 0 0 0 0 28.03849970223489 1:0.2 2:0.997876 3:0.966317 4:0.955754 5:0.914794 6:0.892176 7:-0.778053 8:-0.805062 9:-0.810588 10:-0.866644 11:-0.84081 
-0 -0.7203995067468725 2.459597851088915 0.9414696330103676 3.725221923943919 0 0 3.151309043318628 8.022716042328421 1:-0.2 2:0.912049 3:-0.117546 4:-0.67766 5:-1 6:-1 7:-0.717344 8:-0.707591 9:-0.872804 10:-1 11:-1 
-0 -0.01738261770692794 0.03084508962308139 0.0243357432457361 0.002961719334241339 0 0 0.04003038093235106 14.14810292084938 1:0.2 2:0.978686 3:0.911938 4:0.83128 5:-0.00510222 6:-0.220002 7:-0.71147 8:-0.696315 9:-0.72571 10:-0.796442 11:-0.811529 
-2048 -2048 2048 2048 2048 2048 2048 2048 2048 1:-1 2:-1 3:-1 4:-1 5:-1 6:-1 7:-1 8:-1 9:-1 10:-1 11:-1 
-0 -0 0 0 0 0 0 0 1298.73822569439 1:-0.2 2:0.949039 3:0.916614 4:0.833491 5:-1 6:-1 7:-0.781091 8:-0.809885 9:-0.881688 10:-1 11:-1 
-0 -0 0 0 0 0 0 0 2048 1:-0.6 2:0.992132 3:-1 4:-1 5:-1 6:-1 7:-0.906872 8:-1 9:-1 10:-1 11:-1 
-0 -0 0 0 0 0 0 0 18.32416359120333 1:0.2 2:0.99833 3:0.983235 4:0.983388 5:0.926824 6:0.859125 7:-0.775837 8:-0.802754 9:-0.810782 10:-0.87064 11:-0.832251 
-0 -0 0 0 0 0 0 0 27.59018146588912 1:0.2 2:0.998338 3:0.966962 4:0.961923 5:0.948128 6:0.861598 7:-0.782298 8:-0.809584 9:-0.810574 10:-0.871554 11:-0.832909 
-0 -0 0 0 0 0 0 0 2048 1:-0.2 2:0.969032 3:0.949458 4:0.862576 5:-1 6:-1 7:-0.839473 8:-0.880169 9:-0.905581 10:-1 11:-1 
-2048 -0 0 0 0 0 0 1073.724658852011 2048 1:-0.6 2:0.950597 3:-1 4:-1 5:-1 6:-1 7:-0.898715 8:-1 9:-1 10:-1 11:-1 
-0 -0 0 0 0 0 0 0 2048 1:-0.2 2:0.969038 3:0.94872 4:0.847469 5:-1 6:-1 7:-0.783472 8:-0.816319 9:-0.878595 10:-1 11:-1 
-2048 -0 0 0 0 0 0 0 2048 1:-0.6 2:0.97263 3:-1 4:-1 5:-1 6:-1 7:-0.847371 8:-1 9:-1 10:-1 11:-1 
-0 -0 369.5381051065856 0 2048 2048 2048 2048 2048 1:-0.6 2:0.808557 3:-1 4:-1 5:-1 6:-1 7:-0.778833 8:-1 9:-1 10:-1 11:-1 
-0 -0 0 0 0 0 0 0 2048 1:-0.6 2:0.973816 3:-1 4:-1 5:-1 6:-1 7:-0.841896 8:-1 9:-1 10:-1 11:-1 
-2048 -2048 2048 2048 2048 2048 2048 2048 2048 1:-1 2:-1 3:-1 4:-1 5:-1 6:-1 7:-1 8:-1 9:-1 10:-1 11:-1 
-2048 -0 0 0 0 0 0 0 2048 1:-0.6 2:0.959827 3:-1 4:-1 5:-1 6:-1 7:-0.839288 8:-1 9:-1 10:-1 11:-1 
-2048 -0 0 0 0 0 0 0 2048 1:-0.6 2:0.960169 3:-1 4:-1 5:-1 6:-1 7:-0.840657 8:-1 9:-1 10:-1 11:-1 
-2048 -2048 2048 2048 2048 2048 2048 2048 2048 1:-1 2:-1 3:-1 4:-1 5:-1 6:-1 7:-1 8:-1 9:-1 10:-1 11:-1 
-2048 -0 0 0 0 0 0 2048 2048 1:-0.6 2:0.943369 3:-1 4:-1 5:-1 6:-1 7:-0.84167 8:-1 9:-1 10:-1 11:-1 
-2048 -2048 2048 2048 2048 2048 2048 2048 2048 1:-1 2:-1 3:-1 4:-1 5:-1 6:-1 7:-1 8:-1 9:-1 10:-1 11:-1 
-2048 -2048 2048 2048 2048 2048 2048 2048 2048 1:-1 2:-1 3:-1 4:-1 5:-1 6:-1 7:-1 8:-1 9:-1 10:-1 11:-1 
-2048 -0 0 0 0 0 1216.631473511939 2048 2048 1:-0.6 2:0.922015 3:-1 4:-1 5:-1 6:-1 7:-0.838613 8:-1 9:-1 10:-1 11:-1 
-2048 -2048 2048 2048 2048 2048 2048 2048 2048 1:-1 2:-1 3:-1 4:-1 5:-1 6:-1 7:-1 8:-1 9:-1 10:-1 11:-1 
-2048 -2048 2048 2048 2048 2048 2048 2048 2048 1:-1 2:-1 3:-1 4:-1 5:-1 6:-1 7:-1 8:-1 9:-1 10:-1 11:-1 
-2048 -0 0 0 0 0 0 2048 2048 1:-0.6 2:0.926265 3:-1 4:-1 5:-1 6:-1 7:-0.856035 8:-1 9:-1 10:-1 11:-1 
-2048 -0 0 0 0 0 0 997.7285173111602 2048 1:-0.6 2:0.960931 3:-1 4:-1 5:-1 6:-1 7:-0.865572 8:-1 9:-1 10:-1 11:-1 
-2048 -0 0 0 0 0 0 0 2048 1:-0.6 2:0.97118 3:-1 4:-1 5:-1 6:-1 7:-0.875594 8:-1 9:-1 10:-1 11:-1 
-2048 -2048 2048 2048 2048 2048 2048 2048 2048 1:-1 2:-1 3:-1 4:-1 5:-1 6:-1 7:-1 8:-1 9:-1 10:-1 11:-1 
-0 -0 0 0 0 0 0 0 2048 1:-0.6 2:0.968856 3:-1 4:-1 5:-1 6:-1 7:-0.839294 8:-1 9:-1 10:-1 11:-1 
-0 -0 0 0 0 0 0 0 2048 1:-0.2 2:0.992732 3:0.990343 4:0.982728 5:-1 6:-1 7:-0.800745 8:-0.831371 9:-0.918732 10:-1 11:-1 
-0 -0 0 19.96194254531075 0 0 0 0 2048 1:-0.6 2:0.988868 3:-1 4:-1 5:-1 6:-1 7:-0.929336 8:-1 9:-1 10:-1 11:-1 
-0 -0 0 0 0 0 0 0 565.0032992146105 1:-0.2 2:0.998392 3:0.899178 4:0.889046 5:-1 6:-1 7:-0.775411 8:-0.801735 9:-0.89415 10:-1 11:-1 
-0 -52.08305770929115 0 2.608986168956925 0 0 0 2048 0 1:-0.6 2:0.458286 3:-1 4:-1 5:-1 6:-1 7:-0.649645 8:-1 9:-1 10:-1 11:-1 
-0 -0 0 0 0 0 0 0 2048 1:-0.6 2:0.97248 3:-1 4:-1 5:-1 6:-1 7:-0.898968 8:-1 9:-1 10:-1 11:-1 
-0 -0 0 0 0 0 0 0 73.97012246096513 1:0.2 2:0.996066 3:0.975672 4:0.91617 5:0.891029 6:0.888649 7:-0.783393 8:-0.781252 9:-0.82433 10:-0.870006 11:-0.825031 
-0 -0 2048 0 2048 2048 2048 1076.374290037548 2048 1:-0.6 2:0.894585 3:-1 4:-1 5:-1 6:-1 7:-0.794139 8:-1 9:-1 10:-1 11:-1 
-0 -0 0 0 0 0 0 0 2048 1:-0.6 2:0.962289 3:-1 4:-1 5:-1 6:-1 7:-0.904262 8:-1 9:-1 10:-1 11:-1 
-0 -0 0 0 0 0 0 0 2048 1:-0.6 2:0.962821 3:-1 4:-1 5:-1 6:-1 7:-0.903125 8:-1 9:-1 10:-1 11:-1 
-0 -0 0 0 0 0 0 0 2048 1:-0.6 2:0.961071 3:-1 4:-1 5:-1 6:-1 7:-0.901353 8:-1 9:-1 10:-1 11:-1 
-0 -0 0 0 0 0 0 0 2048 1:-0.6 2:0.962227 3:-1 4:-1 5:-1 6:-1 7:-0.905376 8:-1 9:-1 10:-1 11:-1 
-0 -0 0 0 0 0 0 0 2048 1:-0.6 2:0.962755 3:-1 4:-1 5:-1 6:-1 7:-0.907718 8:-1 9:-1 10:-1 11:-1 
-2046.519944335299 -2048 2048 2048 2048 2048 2048 2048 2048 1:-1 2:-1 3:-1 4:-1 5:-1 6:-1 7:-1 8:-1 9:-1 10:-1 11:-1 
-2048 -0 0 0 0 0 0 0 2048 1:-0.6 2:0.967988 3:-1 4:-1 5:-1 6:-1 7:-0.893541 8:-1 9:-1 10:-1 11:-1 
-0 -0 0 0 2048 1209.406080527734 283.2099657242272 513.2017266021319 215.6544839844573 1:-0.6 2:0.577036 3:-1 4:-1 5:-1 6:-1 7:-0.780306 8:-1 9:-1 10:-1 11:-1 
-0 -0 0 0 0 0 0 0 1.154847731393833 1:0.6 2:0.990872 3:0.966313 4:0.928457 5:0.864696 6:0.840989 7:-0.667767 8:-0.615311 9:-0.623424 10:-0.605822 11:-0.567758 
-0 -0 0 0 0 0 0 0 0.8043004948145862 1:0.2 2:0.970488 3:0.934037 4:0.843157 5:0.723589 6:0.588379 7:-0.661692 8:-0.606862 9:-0.711405 10:-0.719098 11:-0.703743 
-0 -0.5904349093649481 1.067390938924859 0.7727348776168889 0.1007618412474802 0 0 1.379686028716096 3.726120282449071 1:1 2:0.996854 3:0.970411 4:0.955029 5:0.945748 6:0.863198 7:-0.660547 8:-0.607616 9:-0.608382 10:-0.60914 11:-0.483968 
-0 -0.2271841676427432 0.4095577892998573 0.2962868262001323 0.03825884549787935 0 0 0.5294573801222283 0 1:0.2 2:0.976106 3:0.953611 4:0.865278 5:0.714805 6:0.519468 7:-0.654157 8:-0.604446 9:-0.692926 10:-0.720012 11:-0.685769 
-0 -0 0 0 248.241677898919 0 0 0 0 1:-0.2 2:0.954227 3:0.709114 4:0.511263 5:-1 6:-1 7:-0.673243 8:-0.739989 9:-0.792315 10:-1 11:-1 
-0 -0 0 0 0 0 0 0 9.993801534377184 1:0.6 2:0.992704 3:0.990029 4:0.967467 5:0.952328 6:0.917394 7:-0.023814 8:0.17043 9:0.158682 10:0.186369 11:-0.532754 
-0 -0 0 0 0 0 0 0 2048 1:-0.2 2:0.992374 3:0.990371 4:0.967477 5:-1 6:-1 7:-0.825791 8:-0.883166 9:-0.891422 10:-1 11:-1 
-0 -0 0 0 0 0 0 0 2048 1:-0.2 2:0.992026 3:0.990555 4:0.967591 5:-1 6:-1 7:-0.825606 8:-0.882711 9:-0.890704 10:-1 11:-1 
-0 -0 2048 0 2048 2048 1728.891615365198 0 2048 1:-0.6 2:0.966432 3:-1 4:-1 5:-1 6:-1 7:-0.824964 8:-1 9:-1 10:-1 11:-1 
-0 -0.5710573779173995 1.032959555647037 0.7476656706938462 0.09723621778049917 0 0 1.339979212511409 0 1:0.6 2:0.991186 3:0.991283 4:0.968153 5:0.95243 6:0.911038 7:-0.0411869 8:0.145043 9:0.135667 10:0.163085 11:-0.530379 
-0 -0 0 0 0 0 0 0 2048 1:-0.6 2:0.99151 3:-1 4:-1 5:-1 6:-1 7:-0.914803 8:-1 9:-1 10:-1 11:-1 
-0 -0 0 0 0 0 0 0 401.2985418134015 1:-0.2 2:0.994902 3:0.988586 4:0.97277 5:-1 6:-1 7:-0.820007 8:-0.88108 9:-0.892592 10:-1 11:-1 
-0 -0 0 0 0 0 0 0 2048 1:-0.2 2:0.994992 3:0.988194 4:0.973468 5:-1 6:-1 7:-0.818931 8:-0.878928 9:-0.89195 10:-1 11:-1 
-0 -0 0 0 0 0 0 0 949.9985090025714 1:-0.2 2:0.991638 3:0.984015 4:0.979236 5:-1 6:-1 7:-0.815648 8:-0.879543 9:-0.889327 10:-1 11:-1 
-0 -0.5713511614263699 1.033174167737956 0.746937351350201 0.09712455571128233 0 0 1.351687439847311 12.05809852645484 1:0.6 2:0.991206 3:0.986316 4:0.980869 5:0.939146 6:0.891201 7:0.138783 8:0.349405 9:0.350346 10:0.380505 11:-0.514687 
-0 -0 0 0 0 0 0 0 96.16617455081499 1:0.2 2:0.99345 3:0.991145 4:0.983892 5:0.79861 6:0.780725 7:-0.761299 8:-0.781772 9:-0.802306 10:-0.859424 11:-0.841785 
-0 -0.0359107150420015 0.06753820337981051 0.05010829767240659 0.006222510812122202 0 0 0.09211153165152818 0 1:0.2 2:0.996472 3:0.995451 4:0.987294 5:0.688415 6:0.66698 7:-0.765208 8:-0.785508 9:-0.805664 10:-0.866979 11:-0.843957 
-0 -0.008169585739601826 0.01052777310614192 0.007323301741793925 0.001578144250493796 0 0 0.007990496646293161 0 1:0.2 2:0.994806 3:0.986778 4:0.986956 5:0.705476 6:0.593725 7:-0.770293 8:-0.789696 9:-0.80917 10:-0.869313 11:-0.84209 
-0 -0 -0.2618126527673257 0 0 0 0 2.152886401675274 5.405659906288386 1:-0.2 2:0.688754 3:0.126353 4:-0.929068 5:-1 6:-1 7:-0.711826 8:-0.734588 9:-0.860827 10:-1 11:-1 
-0 -0 -0 0 0 0 0 0 2.379468631526696 1:-0.2 2:0.787035 3:0.131114 4:-0.666231 5:-1 6:-1 7:-0.73374 8:-0.757641 9:-0.860763 10:-1 11:-1 
-0 -0 -0 0 0 0 0 486.7076334095063 0 1:-0.6 2:0.14477 3:-1 4:-1 5:-1 6:-1 7:-0.884596 8:-1 9:-1 10:-1 11:-1 
-67.61409145203802 -0 -0 0 0 0 0 0 0 1:-0.2 2:0.892056 3:0.261369 4:0.133128 5:-1 6:-1 7:-0.714436 8:-0.739401 9:-0.859885 10:-1 11:-1 
-1.673911628183945 -0 -0 0 0 0 0 0 0 1:-0.2 2:0.756241 3:0.550306 4:0.135348 5:-1 6:-1 7:-0.713946 8:-0.738875 9:-0.859889 10:-1 11:-1 
-0 -0 -0 0 5.387489212223588 0 0 0 0 1:-0.2 2:0.792543 3:0.659547 4:0.142582 5:-1 6:-1 7:-0.712252 8:-0.736569 9:-0.860196 10:-1 11:-1 
-0 -0 -0 0 9.790970481341585 0 0 0 0 1:-0.2 2:0.977134 3:0.296412 4:0.144977 5:-1 6:-1 7:-0.711684 8:-0.736091 9:-0.860252 10:-1 11:-1 
-0 -0 -0.5799658820612176 0 0 0 0 1.49096835577418 13.63505896785787 1:-0.2 2:0.951777 3:0.131678 4:0.106911 5:-1 6:-1 7:-0.711523 8:-0.735416 9:-0.860055 10:-1 11:-1 
-0.3934792214690915 -0 -1.102257260156923 0 0.7919219856759483 0 0 1.289594897916758 0 1:-0.2 2:0.85496 3:0.136306 4:-0.537033 5:-1 6:-1 7:-0.710666 8:-0.734739 9:-0.860124 10:-1 11:-1 
-0 -0 -0.8687232073556818 0 0 0 0 0.8146431030915291 4.676521381575159 1:-0.2 2:0.760667 3:0.121297 4:-0.759943 5:-1 6:-1 7:-0.709853 8:-0.73429 9:-0.860164 10:-1 11:-1 
-6.398789809788322 -0 -0 0 8.402203666440073 0 0 1.275503615667159 17.62878277811312 1:-0.2 2:0.914363 3:0.105172 4:-0.183918 5:-1 6:-1 7:-0.709385 8:-0.733922 9:-0.860161 10:-1 11:-1 
-0 -0 -0 0 0 0 0 0 1.626176827788309 1:-0.2 2:0.710654 3:0.583449 4:0.0777953 5:-1 6:-1 7:-0.709204 8:-0.733549 9:-0.860281 10:-1 11:-1 
-0 -0 -0 0 0 0 0 1.560844452707787 0 1:-0.2 2:0.819105 3:0.280453 4:0.0380697 5:-1 6:-1 7:-0.708699 8:-0.733066 9:-0.860116 10:-1 11:-1 
-0 -0 -0 0 0 0 0 0 880.3067658966451 1:-0.6 2:-0.0285904 3:-1 4:-1 5:-1 6:-1 7:-0.885675 8:-1 9:-1 10:-1 11:-1 
-0 -0 -0 0 0 0 0 0 1508.666714311293 1:-0.6 2:-0.0382325 3:-1 4:-1 5:-1 6:-1 7:-0.885514 8:-1 9:-1 10:-1 11:-1 
-0 -0 -0 2048 0 2048 2048 2048 0 1:-1 2:-1 3:-1 4:-1 5:-1 6:-1 7:-1 8:-1 9:-1 10:-1 11:-1 
-0 -0 -0 2048 0 2048 2048 2048 0 1:-1 2:-1 3:-1 4:-1 5:-1 6:-1 7:-1 8:-1 9:-1 10:-1 11:-1 
-0 -0 -0 2048 0 2048 2048 2048 0 1:-1 2:-1 3:-1 4:-1 5:-1 6:-1 7:-1 8:-1 9:-1 10:-1 11:-1 
-0 -0 -0 2048 0 2048 2048 2048 0 1:-1 2:-1 3:-1 4:-1 5:-1 6:-1 7:-1 8:-1 9:-1 10:-1 11:-1 
-0 -0 -0 2048 0 2048 2048 2048 0 1:-1 2:-1 3:-1 4:-1 5:-1 6:-1 7:-1 8:-1 9:-1 10:-1 11:-1 
-0 -0 -0 2048 0 2048 2048 2048 0 1:-1 2:-1 3:-1 4:-1 5:-1 6:-1 7:-1 8:-1 9:-1 10:-1 11:-1 
-0 -0 -0 2048 0 2048 2048 2048 0 1:-1 2:-1 3:-1 4:-1 5:-1 6:-1 7:-1 8:-1 9:-1 10:-1 11:-1 
-0 -0 -0 0 0 0 0 2048 0 1:-0.6 2:-0.273724 3:-1 4:-1 5:-1 6:-1 7:-0.883765 8:-1 9:-1 10:-1 11:-1 
-0 -0 -0 2048 0 2048 2048 2048 0 1:-1 2:-1 3:-1 4:-1 5:-1 6:-1 7:-1 8:-1 9:-1 10:-1 11:-1 
-0 -0 -0 0 0 0 0 1307.487976383248 2048 1:-0.6 2:-0.270494 3:-1 4:-1 5:-1 6:-1 7:-0.883526 8:-1 9:-1 10:-1 11:-1 
-0 -0 -0 2048 0 2048 2048 2048 0 1:-1 2:-1 3:-1 4:-1 5:-1 6:-1 7:-1 8:-1 9:-1 10:-1 11:-1 
-0 -0 -0 0 0 0 0 0 2048 1:-0.6 2:-0.268216 3:-1 4:-1 5:-1 6:-1 7:-0.883565 8:-1 9:-1 10:-1 11:-1 
-0 -0 -0 2048 0 2048 2048 2048 0 1:-1 2:-1 3:-1 4:-1 5:-1 6:-1 7:-1 8:-1 9:-1 10:-1 11:-1 
-0 -0 -0 2048 0 2048 2048 2048 0 1:-1 2:-1 3:-1 4:-1 5:-1 6:-1 7:-1 8:-1 9:-1 10:-1 11:-1 
-0 -0 -0 0 0 0 0 0 1510.746326184632 1:-0.6 2:-0.25041 3:-1 4:-1 5:-1 6:-1 7:-0.883634 8:-1 9:-1 10:-1 11:-1 
-0 -0 -0 2048 0 2048 2048 2048 0 1:-1 2:-1 3:-1 4:-1 5:-1 6:-1 7:-1 8:-1 9:-1 10:-1 11:-1 
-239.1598241468847 -0 -0 0 0 0 0 0 0 1:-0.6 2:-0.258918 3:-1 4:-1 5:-1 6:-1 7:-0.884069 8:-1 9:-1 10:-1 11:-1 
-0 -0 -0 2048 0 2048 2048 2048 0 1:-1 2:-1 3:-1 4:-1 5:-1 6:-1 7:-1 8:-1 9:-1 10:-1 11:-1 
-0 -0 -0 2048 0 2048 2048 2048 0 1:-1 2:-1 3:-1 4:-1 5:-1 6:-1 7:-1 8:-1 9:-1 10:-1 11:-1 
-0 -0 -0 2048 0 2048 2048 2048 0 1:-1 2:-1 3:-1 4:-1 5:-1 6:-1 7:-1 8:-1 9:-1 10:-1 11:-1 
-0 -0 -0.183289372576446 0 0 0 0 0 0 1:-0.2 2:0.667811 3:-0.0811986 4:-0.189182 5:-1 6:-1 7:-0.827507 8:-0.843176 9:-0.859726 10:-1 11:-1 
-0 -0 -0 0 0 0 0 0 32.49325237599913 1:-0.2 2:0.825728 3:0.13605 4:-0.0670049 5:-1 6:-1 7:-0.841401 8:-0.810844 9:-0.851555 10:-1 11:-1 
-0 -0 -0 0 0 0 0 0 10.63840698348459 1:-0.2 2:0.788597 3:0.0303145 4:-0.0578034 5:-1 6:-1 7:-0.828127 8:-0.80578 9:-0.851333 10:-1 11:-1 
-1.932403337052632 -0 -0 0 0 0 0 0.7569831746170261 0 1:-0.2 2:0.70984 3:-0.050845 4:-0.189312 5:-1 6:-1 7:-0.816422 8:-0.799702 9:-0.851087 10:-1 11:-1 
-0 -0 -0.2688519548933427 0 0.1705303613587812 0 0 0 0 1:-0.2 2:0.594022 3:-0.0530797 4:-0.430661 5:-1 6:-1 7:-0.806636 8:-0.792304 9:-0.851857 10:-1 11:-1 
-0 -0 -0.1720673775474073 0 0 0 0 0.2685545522316125 23.47076498497801 1:-0.2 2:0.493327 3:-0.047674 4:-0.616148 5:-1 6:-1 7:-0.798401 8:-0.787023 9:-0.851948 10:-1 11:-1 
-0 -0 -0 0 0 0 0 0 9.733834908421914 1:-0.2 2:0.385675 3:-0.0415961 4:-0.77519 5:-1 6:-1 7:-0.7905 8:-0.781414 9:-0.851778 10:-1 11:-1 
-0 -0 -0 0 0 0 0 0 44.1107176142845 1:-0.2 2:0.331587 3:-0.0410579 4:-0.839163 5:-1 6:-1 7:-0.785584 8:-0.777476 9:-0.851999 10:-1 11:-1 
-0 -0 -0 0 0 0 0 0.2583218840592409 0 1:-0.2 2:0.315466 3:-0.0283659 4:-0.856084 5:-1 6:-1 7:-0.78059 8:-0.774278 9:-0.851495 10:-1 11:-1 
-0 -0 -0 0 0 0 0 0.05603563212151725 0 1:-0.2 2:0.236267 3:-0.00940196 4:-0.960286 5:-1 6:-1 7:-0.769277 8:-0.764803 9:-0.851105 10:-1 11:-1 
-0 -0 -0.3846618589295071 0 0 0 0 0 0 1:-0.2 2:0.216749 3:-0.0181087 4:-0.997228 5:-1 6:-1 7:-0.768261 8:-0.763402 9:-0.852067 10:-1 11:-1 
-0 -0 -0 0 0 0 0 0 13.57011510317942 1:-0.2 2:0.107027 3:-0.0185288 4:-0.833176 5:-1 6:-1 7:-0.761629 8:-0.758329 9:-0.852091 10:-1 11:-1 
-0 -0 -0.4338171044233063 0 0 0 0 0 0 1:-0.2 2:0.0532587 3:-0.0173265 4:-0.748732 5:-1 6:-1 7:-0.758821 8:-0.755525 9:-0.852216 10:-1 11:-1 
-0 -0 -0 0 0 0 0 0 48.69944657221836 1:-0.2 2:0.068477 3:-0.0167603 4:-0.755463 5:-1 6:-1 7:-0.755342 8:-0.753047 9:-0.853242 10:-1 11:-1 
-0 -0 -0 0 0 0 0 0.6430665024688461 0 1:-0.2 2:0.072559 3:-0.00768142 4:-0.745663 5:-1 6:-1 7:-0.749103 8:-0.749766 9:-0.854279 10:-1 11:-1 
-0 -0 -0 0 0 0 0 2048 0 1:-0.6 2:0.154352 3:-1 4:-1 5:-1 6:-1 7:-0.884319 8:-1 9:-1 10:-1 11:-1 
-0 -0 -0 0 0 0 0 1772.953566088976 2048 1:-0.6 2:0.210619 3:-1 4:-1 5:-1 6:-1 7:-0.884752 8:-1 9:-1 10:-1 11:-1 
-0 -0 -0 0 0 0 0 1869.667235515732 2048 1:-0.6 2:0.236845 3:-1 4:-1 5:-1 6:-1 7:-0.884865 8:-1 9:-1 10:-1 11:-1 
-0 -0 -0 0 0 0 0 0 1329.535863261356 1:-0.6 2:0.246267 3:-1 4:-1 5:-1 6:-1 7:-0.886699 8:-1 9:-1 10:-1 11:-1 
-0 -0 -0 0 0 0 0 0 2048 1:-0.6 2:0.258692 3:-1 4:-1 5:-1 6:-1 7:-0.886311 8:-1 9:-1 10:-1 11:-1 
-0 -0 -0 0 0 0 0 1044.278613162819 0 1:-0.6 2:0.309888 3:-1 4:-1 5:-1 6:-1 7:-0.885637 8:-1 9:-1 10:-1 11:-1 
-0 -0 -0.3360668432860033 0 0 0 0 0 0.1190751074745796 1:-0.2 2:0.935377 3:0.33424 4:-0.0762103 5:-1 6:-1 7:0.433692 8:0.730046 9:-0.860984 10:-1 11:-1 
-23.88999638358402 -0 -0 0 0 0 0 0 0 1:-0.2 2:0.837632 3:0.339036 4:-0.0045377 5:-1 6:-1 7:0.425545 8:0.721602 9:-0.859147 10:-1 11:-1 
-0 -0 -0 0 0 0 0 2048 0 1:-0.6 2:0.313588 3:-1 4:-1 5:-1 6:-1 7:-0.884591 8:-1 9:-1 10:-1 11:-1 
-17.50634988793587 -0 -0.09376726618371617 0 0 0 0 0 0 1:-0.2 2:0.98197 3:0.27507 4:0.0863404 5:-1 6:-1 7:0.412202 8:0.707173 9:-0.862794 10:-1 11:-1 
-1824.845051411837 -0 -0 0 0 0 0 0 0 1:-0.6 2:0.412078 3:-1 4:-1 5:-1 6:-1 7:-0.88601 8:-1 9:-1 10:-1 11:-1 
-0 -0 -0 0 0 0 0 2048 0 1:-0.6 2:0.474253 3:-1 4:-1 5:-1 6:-1 7:-0.886071 8:-1 9:-1 10:-1 11:-1 
-0 -0 -0 0 0 0 0 2038.621633817255 2048 1:-0.6 2:0.479089 3:-1 4:-1 5:-1 6:-1 7:-0.886188 8:-1 9:-1 10:-1 11:-1 
-0 -0 -0 0 0 0 0 0 2048 1:-0.6 2:0.484743 3:-1 4:-1 5:-1 6:-1 7:-0.886361 8:-1 9:-1 10:-1 11:-1 
-0 -0 -0 0 0 0 0 0 2048 1:-0.6 2:0.485743 3:-1 4:-1 5:-1 6:-1 7:-0.886423 8:-1 9:-1 10:-1 11:-1 
-0 -0 -0 0 0 0 0 0 2048 1:-0.6 2:0.485653 3:-1 4:-1 5:-1 6:-1 7:-0.886581 8:-1 9:-1 10:-1 11:-1 
-0 -0 -0 0 0 0 0 0 2048 1:-0.6 2:0.496263 3:-1 4:-1 5:-1 6:-1 7:-0.887059 8:-1 9:-1 10:-1 11:-1 
-0 -0 -0 0 0 0 0 1372.495753918344 2048 1:-0.6 2:0.508439 3:-1 4:-1 5:-1 6:-1 7:-0.887311 8:-1 9:-1 10:-1 11:-1 
-0 -0 -0 0 0 0 0 2048 2048 1:-0.6 2:0.520373 3:-1 4:-1 5:-1 6:-1 7:-0.887947 8:-1 9:-1 10:-1 11:-1 
-0 -0 -0 0 0 0 0 0 2048 1:-0.6 2:0.524563 3:-1 4:-1 5:-1 6:-1 7:-0.888813 8:-1 9:-1 10:-1 11:-1 
-0 -0 -1153.760807144495 0 0 0 0 0 2048 1:-0.6 2:0.525221 3:-1 4:-1 5:-1 6:-1 7:-0.889424 8:-1 9:-1 10:-1 11:-1 
-0 -0 -0 0 0 0 0 0 2048 1:-0.6 2:0.518011 3:-1 4:-1 5:-1 6:-1 7:-0.890205 8:-1 9:-1 10:-1 11:-1 
-0 -0 -0 0 0 0 0 0 2048 1:-0.6 2:0.509999 3:-1 4:-1 5:-1 6:-1 7:-0.891325 8:-1 9:-1 10:-1 11:-1 
-0 -0 -0 0 0 0 0 0 2048 1:-0.6 2:0.506839 3:-1 4:-1 5:-1 6:-1 7:-0.892191 8:-1 9:-1 10:-1 11:-1 
-0 -0 -0 0 0 0 0 0 1594.74280497446 1:-0.6 2:0.506039 3:-1 4:-1 5:-1 6:-1 7:-0.892597 8:-1 9:-1 10:-1 11:-1 
-0 -0 -0.1411117947804473 0 0 0 0 0.01398083917673021 0 1:-0.2 2:0.516273 3:-0.414722 4:-0.953117 5:-1 6:-1 7:0.436869 8:0.723101 9:-0.870602 10:-1 11:-1 
-0 -0 -2048 14.00422211302211 0 0 0 2048 2048 1:-0.6 2:0.588512 3:-1 4:-1 5:-1 6:-1 7:-0.886475 8:-1 9:-1 10:-1 11:-1 
-0 -0 -0.2053584769611559 0 0 0 0 0.1008918999693458 1.853922273456868 1:-0.2 2:0.664369 3:-0.428776 4:-0.988625 5:-1 6:-1 7:0.498898 8:0.769224 9:-0.858798 10:-1 11:-1 
-43.51443957962906 -0 -0 456.8677592545939 0 0 0 0 0 1:-0.6 2:-0.333529 3:-1 4:-1 5:-1 6:-1 7:0.458272 8:-1 9:-1 10:-1 11:-1 
-0 -0 -0 2048 0 2048 2048 2048 0 1:-1 2:-1 3:-1 4:-1 5:-1 6:-1 7:-1 8:-1 9:-1 10:-1 11:-1 
-0 -0 -0 2048 0 2048 2048 2048 0 1:-1 2:-1 3:-1 4:-1 5:-1 6:-1 7:-1 8:-1 9:-1 10:-1 11:-1 
-0.04865059499516224 -0 -0.5335375751673616 0 0 0 0 0 1.044985620633543 1:-0.2 2:0.693002 3:0.620985 4:0.460907 5:-1 6:-1 7:0.465404 8:0.704891 9:-0.38664 10:-1 11:-1 
-0 -0 -0.07886343434043064 0 0 0 0 0.3834124877774948 0 1:-0.2 2:0.731652 3:-0.127339 4:-0.944122 5:-1 6:-1 7:0.418994 8:0.672167 9:-0.863334 10:-1 11:-1 
-0.03259935728852381 -0 -0.5545042108761378 0 0 0 0 0.2243694525743921 1.173723013458108 1:-0.2 2:-0.148266 3:-0.187274 4:-0.94955 5:-1 6:-1 7:0.476156 8:0.784988 9:-0.863039 10:-1 11:-1 
-0 -0 -0 0 0 0 0 0 2048 1:-0.6 2:-0.181551 3:-1 4:-1 5:-1 6:-1 7:-0.89016 8:-1 9:-1 10:-1 11:-1 
-0 -0 -0.3138391482761972 0 0 0 0 0 0 1:-0.6 2:-0.501291 3:-1 4:-1 5:-1 6:-1 7:0.485754 8:-1 9:-1 10:-1 11:-1 
-799.7804512176783 -0 -0 0 0 0 0 0 283.6365413704486 1:-0.6 2:-0.203275 3:-1 4:-1 5:-1 6:-1 7:-0.89636 8:-1 9:-1 10:-1 11:-1 
-0.1641239287014972 -0 -0.1198328853322671 0 0 0 0 0.02251522195314316 0.3100877264372243 1:-0.2 2:0.0340685 3:-0.220783 4:-0.929058 5:-1 6:-1 7:0.48741 8:0.792666 9:-0.872288 10:-1 11:-1 
-0 -0 -0.1225682252617719 0 0 0 0 0 0 1:-0.2 2:0.707866 3:-0.240805 4:-0.994929 5:-1 6:-1 7:0.491851 8:0.798815 9:-0.871451 10:-1 11:-1 
-0.02684044138308833 -0 -0.4248326808615174 0 0 0 0 0.09821292324103552 0 1:-0.2 2:0.949053 3:-0.287682 4:-0.725166 5:-1 6:-1 7:0.497604 8:0.808473 9:-0.868643 10:-1 11:-1 
-0 -0 -0 0 0 0 0 0 7.151915866073486 1:-0.2 2:0.931071 3:-0.312806 4:-0.780443 5:-1 6:-1 7:0.491566 8:0.803428 9:-0.866044 10:-1 11:-1 
-0 -0 -0 2048 0 2048 2048 2048 0 1:-1 2:-1 3:-1 4:-1 5:-1 6:-1 7:-1 8:-1 9:-1 10:-1 11:-1 
-206.1759383866195 -0 -0.018314800220688 0 0 0 0 0 0 1:-0.6 2:-0.300254 3:-1 4:-1 5:-1 6:-1 7:-0.891854 8:-1 9:-1 10:-1 11:-1 
-0 -0 -0.3156116859172954 46.65272196670983 0 0 0 0 0 1:-0.6 2:0.442946 3:-1 4:-1 5:-1 6:-1 7:0.489539 8:-1 9:-1 10:-1 11:-1 
-0 -0 -0.2000991315850591 0.9939038456531293 0 0 0 0 0 1:-0.6 2:0.0301284 3:-1 4:-1 5:-1 6:-1 7:0.486322 8:-1 9:-1 10:-1 11:-1 
-0 -0 -0 2048 0 2048 2048 2048 0 1:-1 2:-1 3:-1 4:-1 5:-1 6:-1 7:-1 8:-1 9:-1 10:-1 11:-1 
-0 -0 -0 2048 0 2048 2048 2048 0 1:-1 2:-1 3:-1 4:-1 5:-1 6:-1 7:-1 8:-1 9:-1 10:-1 11:-1 
-0 -0 -0 2048 0 2048 2048 2048 2.034458903956918 1:-1 2:-1 3:-1 4:-1 5:-1 6:-1 7:-1 8:-1 9:-1 10:-1 11:-1 
-0 -0 -0 2048 0 2048 2048 2048 2048 1:-1 2:-1 3:-1 4:-1 5:-1 6:-1 7:-1 8:-1 9:-1 10:-1 11:-1 
-0 -0 -0 2048 0 2048 2048 2048 2048 1:-1 2:-1 3:-1 4:-1 5:-1 6:-1 7:-1 8:-1 9:-1 10:-1 11:-1 
-0 -0 -0 2048 0 2048 2048 2048 2048 1:-1 2:-1 3:-1 4:-1 5:-1 6:-1 7:-1 8:-1 9:-1 10:-1 11:-1 
-0 -0 -0 2048 0 2048 2048 2048 2048 1:-1 2:-1 3:-1 4:-1 5:-1 6:-1 7:-1 8:-1 9:-1 10:-1 11:-1 
-0 -0.1298230195162466 -0 2048 0 0 0 1876.851413898702 12.87522862794781 1:-0.6 2:0.0670929 3:-1 4:-1 5:-1 6:-1 7:-0.49541 8:-1 9:-1 10:-1 11:-1 
-0 -0 -0.2977841568930276 0 0 0 0 0 0.5329888013692174 1:-0.2 2:0.640695 3:-0.552147 4:-0.61358 5:-1 6:-1 7:0.472524 8:0.696331 9:-0.383674 10:-1 11:-1 
-0 -0 -0 260.4990174735091 0 0 0 0 0 1:-0.6 2:-0.668621 3:-1 4:-1 5:-1 6:-1 7:0.470378 8:-1 9:-1 10:-1 11:-1 
-0 -0 -0 2048 0 2048 2048 2048 2048 1:-1 2:-1 3:-1 4:-1 5:-1 6:-1 7:-1 8:-1 9:-1 10:-1 11:-1 
-0 -0 -0 2048 0 2048 2048 2048 2048 1:-1 2:-1 3:-1 4:-1 5:-1 6:-1 7:-1 8:-1 9:-1 10:-1 11:-1 
-0 -0.1369947044738935 -0 2048 0 0 0 0 0 1:-0.6 2:-0.944632 3:-1 4:-1 5:-1 6:-1 7:-0.495131 8:-1 9:-1 10:-1 11:-1 
-0.1607729409332879 -0 -0.1051591244496456 0 0 0 0 0.0257007793936021 0.2437437547374083 1:-0.2 2:0.794981 3:-0.0301305 4:-0.176024 5:-1 6:-1 7:0.470653 8:0.704326 9:-0.385311 10:-1 11:-1 
-0 -0 -0.2658004032162588 0 0 0 0 0 0.4549073364139872 1:-0.2 2:0.740738 3:-0.453628 4:-0.965443 5:-1 6:-1 7:0.480815 8:0.702922 9:-0.386373 10:-1 11:-1 
-5.281906217479372 -2.42630762871703 -0 2048 0 0 0 107.554017172062 0 1:-0.6 2:-0.748208 3:-1 4:-1 5:-1 6:-1 7:-0.497513 8:-1 9:-1 10:-1 11:-1 
-1859.018272553711 -0 -0 0 0 0 0 0 0 1:-0.6 2:0.813257 3:-1 4:-1 5:-1 6:-1 7:0.408974 8:-1 9:-1 10:-1 11:-1 
-0.6527884534862022 -0 -0.3194776972108634 0 0 0 0 0 0.6828517583458038 1:-0.2 2:0.810441 3:0.220913 4:-0.265389 5:-1 6:-1 7:0.487799 8:0.698121 9:-0.387733 10:-1 11:-1 
-0 -0 -0 2048 0 2048 2048 2048 2048 1:-1 2:-1 3:-1 4:-1 5:-1 6:-1 7:-1 8:-1 9:-1 10:-1 11:-1 
-0 -0 -0 0 52.11219039420991 0 0 0 0 1:-0.6 2:0.506655 3:-1 4:-1 5:-1 6:-1 7:-0.500557 8:-1 9:-1 10:-1 11:-1 
-0 -0 -0.3152088489888726 0 0 0 0 0 0.5574304658178324 1:-0.2 2:0.915921 3:-0.178145 4:-0.318308 5:-1 6:-1 7:0.496606 8:0.688487 9:-0.389594 10:-1 11:-1 
-0 -0 -0.68434102368688 0 0 0 0 0.2310032756411229 1.484223921452743 1:0.2 2:0.788611 3:0.620136 4:0.309863 5:-0.0466593 6:-0.365471 7:0.514241 8:0.814453 9:0.712641 10:0.796743 11:0.537165 
-0 -0 -0.2097143332135328 0 0 0 0 0 0 1:-0.6 2:0.317838 3:-1 4:-1 5:-1 6:-1 7:0.503068 8:-1 9:-1 10:-1 11:-1 
-1.514765750255594 -0 -0.2647693592882582 332.4621646384429 0 0 0 0 0 1:-0.6 2:-0.193131 3:-1 4:-1 5:-1 6:-1 7:0.509239 8:-1 9:-1 10:-1 11:-1 
-0 -0 -0 2048 0 0 0 0 0 1:-0.6 2:0.792153 3:-1 4:-1 5:-1 6:-1 7:-0.498605 8:-1 9:-1 10:-1 11:-1 
-0 -0 -147.4622199698609 2048 0 0 0 182.7759879146206 75.84084042150377 1:-0.6 2:0.842334 3:-1 4:-1 5:-1 6:-1 7:-0.499221 8:-1 9:-1 10:-1 11:-1 
-0 -0 -0.1981364000539944 0 0 0 0 0 0.5655611815655983 1:-0.2 2:0.962917 3:-0.507453 4:-0.725407 5:-1 6:-1 7:0.513321 8:0.694658 9:-0.388074 10:-1 11:-1 
-0 -0 -0 2048 0 2048 2048 2048 2048 1:-1 2:-1 3:-1 4:-1 5:-1 6:-1 7:-1 8:-1 9:-1 10:-1 11:-1 
-0 -7.891637940322243 -23.76559692078017 2048 0 0 0 139.2928749742117 0 1:-0.6 2:0.497625 3:-1 4:-1 5:-1 6:-1 7:-0.499532 8:-1 9:-1 10:-1 11:-1 
-66.91069955034202 -5.150415940927381 -0 2048 62.49781202705224 0 0 1236.810046764648 0 1:-0.6 2:-0.116548 3:-1 4:-1 5:-1 6:-1 7:-0.499062 8:-1 9:-1 10:-1 11:-1 
-0 -0 -0 2048 0 2048 2048 2048 2048 1:-1 2:-1 3:-1 4:-1 5:-1 6:-1 7:-1 8:-1 9:-1 10:-1 11:-1 
-0 -0 -0 2048 0 2048 2048 2048 2048 1:-1 2:-1 3:-1 4:-1 5:-1 6:-1 7:-1 8:-1 9:-1 10:-1 11:-1 
-0 -0 -0 2048 0 2048 2048 2048 2048 1:-1 2:-1 3:-1 4:-1 5:-1 6:-1 7:-1 8:-1 9:-1 10:-1 11:-1 
-0 -0 -0 2048 0 2048 2048 2048 2048 1:-1 2:-1 3:-1 4:-1 5:-1 6:-1 7:-1 8:-1 9:-1 10:-1 11:-1 
-0 -0 -0 2048 0 2048 2048 2048 2048 1:-1 2:-1 3:-1 4:-1 5:-1 6:-1 7:-1 8:-1 9:-1 10:-1 11:-1 
-0 -0 -0 2048 0 2048 2048 2048 2048 1:-1 2:-1 3:-1 4:-1 5:-1 6:-1 7:-1 8:-1 9:-1 10:-1 11:-1 
-0 -0 -0 2048 0 2048 2048 2048 2048 1:-1 2:-1 3:-1 4:-1 5:-1 6:-1 7:-1 8:-1 9:-1 10:-1 11:-1 
-0 -0 -0 2048 0 2048 2048 2048 2048 1:-1 2:-1 3:-1 4:-1 5:-1 6:-1 7:-1 8:-1 9:-1 10:-1 11:-1 
-0 -0 -0 2048 0 2048 2048 2048 2048 1:-1 2:-1 3:-1 4:-1 5:-1 6:-1 7:-1 8:-1 9:-1 10:-1 11:-1 
-0 -0 -0 2048 0 2048 2048 2048 2048 1:-1 2:-1 3:-1 4:-1 5:-1 6:-1 7:-1 8:-1 9:-1 10:-1 11:-1 
-0 -0 -0 2048 0 2048 2048 2048 2048 1:-1 2:-1 3:-1 4:-1 5:-1 6:-1 7:-1 8:-1 9:-1 10:-1 11:-1 
-0 -0 -0 2048 0 2048 2048 2048 2048 1:-1 2:-1 3:-1 4:-1 5:-1 6:-1 7:-1 8:-1 9:-1 10:-1 11:-1 
-0 -0 -0 2048 0 2048 2048 2048 2048 1:-1 2:-1 3:-1 4:-1 5:-1 6:-1 7:-1 8:-1 9:-1 10:-1 11:-1 
-0 -0 -0 2048 0 2048 2048 2048 2048 1:-1 2:-1 3:-1 4:-1 5:-1 6:-1 7:-1 8:-1 9:-1 10:-1 11:-1 
-0 -0 -0 2048 0 2048 2048 2048 2048 1:-1 2:-1 3:-1 4:-1 5:-1 6:-1 7:-1 8:-1 9:-1 10:-1 11:-1 
-0 -0 -0 2048 0 2048 2048 2048 2048 1:-1 2:-1 3:-1 4:-1 5:-1 6:-1 7:-1 8:-1 9:-1 10:-1 11:-1 
-0 -0 -0 2048 0 2048 2048 2048 2048 1:-1 2:-1 3:-1 4:-1 5:-1 6:-1 7:-1 8:-1 9:-1 10:-1 11:-1 
-0 -0 -0 2048 0 2048 2048 2048 2048 1:-1 2:-1 3:-1 4:-1 5:-1 6:-1 7:-1 8:-1 9:-1 10:-1 11:-1 
-0 -0 -0 2048 0 2048 2048 2048 2048 1:-1 2:-1 3:-1 4:-1 5:-1 6:-1 7:-1 8:-1 9:-1 10:-1 11:-1 
-0 -0 -0 2048 0 2048 2048 2048 2048 1:-1 2:-1 3:-1 4:-1 5:-1 6:-1 7:-1 8:-1 9:-1 10:-1 11:-1 
-0 -0 -0 2048 0 2048 2048 2048 2048 1:-1 2:-1 3:-1 4:-1 5:-1 6:-1 7:-1 8:-1 9:-1 10:-1 11:-1 
-0 -0 -0 2048 0 2048 2048 2048 2048 1:-1 2:-1 3:-1 4:-1 5:-1 6:-1 7:-1 8:-1 9:-1 10:-1 11:-1 
-0 -0 -0 2048 0 2048 2048 2048 2048 1:-1 2:-1 3:-1 4:-1 5:-1 6:-1 7:-1 8:-1 9:-1 10:-1 11:-1 
-0 -0 -0 2048 0 2048 2048 2048 2048 1:-1 2:-1 3:-1 4:-1 5:-1 6:-1 7:-1 8:-1 9:-1 10:-1 11:-1 
-0 -0 -0 2048 0 2048 2048 2048 2048 1:-1 2:-1 3:-1 4:-1 5:-1 6:-1 7:-1 8:-1 9:-1 10:-1 11:-1 
-0 -0 -0 2048 0 0 0 0 0 1:-0.6 2:0.993772 3:-1 4:-1 5:-1 6:-1 7:-0.484912 8:-1 9:-1 10:-1 11:-1 
-0 -0 -0 2048 0 0 0 0 0 1:-0.6 2:0.99966 3:-1 4:-1 5:-1 6:-1 7:-0.485889 8:-1 9:-1 10:-1 11:-1 
-0 -0 -0 2048 0 0 0 0 0 1:-0.6 2:0.920003 3:-1 4:-1 5:-1 6:-1 7:-0.487463 8:-1 9:-1 10:-1 11:-1 
-0 -0 -0 627.1292603116993 0 0 0 0 0 1:-0.6 2:0.576928 3:-1 4:-1 5:-1 6:-1 7:-0.488466 8:-1 9:-1 10:-1 11:-1 
-0 -0 -9.41474426996999 2048 0 0 0 0 170.8772494567209 1:-0.6 2:0.936821 3:-1 4:-1 5:-1 6:-1 7:-0.488918 8:-1 9:-1 10:-1 11:-1 
-0 -15.99018377281903 -0 2048 0 0 0 0 0 1:-0.6 2:0.988396 3:-1 4:-1 5:-1 6:-1 7:-0.489604 8:-1 9:-1 10:-1 11:-1 
-0 -0 -0 2048 0 0 0 0 77.9628764718461 1:-0.6 2:0.96502 3:-1 4:-1 5:-1 6:-1 7:-0.48996 8:-1 9:-1 10:-1 11:-1 
-0.006255199892476402 -0 -0 2048 0 2048 2048 2048 2048 1:-1 2:-1 3:-1 4:-1 5:-1 6:-1 7:-1 8:-1 9:-1 10:-1 11:-1 
-0.02536913192192433 -0 -0 2048 0 2048 2048 2048 2048 1:-1 2:-1 3:-1 4:-1 5:-1 6:-1 7:-1 8:-1 9:-1 10:-1 11:-1 
-0 -0 -0 2048 0 0 0 0 0 1:-0.6 2:0.599132 3:-1 4:-1 5:-1 6:-1 7:-0.497696 8:-1 9:-1 10:-1 11:-1 
-0 -0 -0 2048 0 2048 2048 2048 2048 1:-1 2:-1 3:-1 4:-1 5:-1 6:-1 7:-1 8:-1 9:-1 10:-1 11:-1 
-0 -0 -0 2048 0 2048 2048 2048 2048 1:-1 2:-1 3:-1 4:-1 5:-1 6:-1 7:-1 8:-1 9:-1 10:-1 11:-1 
-0 -0 -0 2048 0 2048 2048 2048 2048 1:-1 2:-1 3:-1 4:-1 5:-1 6:-1 7:-1 8:-1 9:-1 10:-1 11:-1 
-0 -0 -0 0 0 32.59994193319886 0 0 15.36304969244545 1:-0.6 2:0.569338 3:-1 4:-1 5:-1 6:-1 7:-0.496888 8:-1 9:-1 10:-1 11:-1 
-0.009165632385700194 -0 -0 2048 0 2048 2048 2048 2048 1:-1 2:-1 3:-1 4:-1 5:-1 6:-1 7:-1 8:-1 9:-1 10:-1 11:-1 
-65.58014739549117 -25.53187030743349 -0 2048 73.10134391139333 0 0 888.8850195679458 0 1:-0.6 2:-0.334055 3:-1 4:-1 5:-1 6:-1 7:-0.49996 8:-1 9:-1 10:-1 11:-1 
-0 -0 -0.2923977513842374 0 0 0 0 0.09202734058170658 0.629967872246143 1:0.2 2:0.756087 3:0.364842 4:0.170098 5:-0.200283 6:-0.394572 7:0.352513 8:0.632274 9:0.611963 10:0.707234 11:-0.0728879 
-0 -0 -0.3774496532794837 0 0 0 0 0 0.910723437267152 1:-0.2 2:0.344761 3:0.177579 4:0.0527004 5:-1 6:-1 7:0.349349 8:0.579153 9:-0.916035 10:-1 11:-1 
-0 -0 -0.3588925998460411 0 0 0 0 0.122910836572733 0.7915533227763967 1:0.2 2:0.809991 3:0.56882 4:0.358426 5:0.137079 6:0.00405805 7:0.346397 8:0.620004 9:0.591738 10:0.692704 11:-0.0634159 
-0 -0 -0 2048 0 0 0 0 0 1:-0.6 2:0.593652 3:-1 4:-1 5:-1 6:-1 7:-0.493321 8:-1 9:-1 10:-1 11:-1 
-0.006700864360498621 -0 -0 2048 0 2048 2048 2048 2048 1:-1 2:-1 3:-1 4:-1 5:-1 6:-1 7:-1 8:-1 9:-1 10:-1 11:-1 
-0 -0 -0.5775880395402155 0 0 0 0 0.1910926566234334 1.255943376489861 1:0.2 2:0.872114 3:0.76489 4:0.658923 5:0.184903 6:-0.333159 7:0.338606 8:0.614952 9:0.577775 10:0.67957 11:-0.0695878 
-0.6911332262446229 -0 -0.3715028346418164 0 0 0 0 1.114070624585299 0.6879082915061555 1:-0.2 2:0.74433 3:0.175112 4:-0.704912 5:-1 6:-1 7:0.330989 8:0.544883 9:-0.896757 10:-1 11:-1 
-0 -0 -0 2048 0 2048 2048 2048 2048 1:-1 2:-1 3:-1 4:-1 5:-1 6:-1 7:-1 8:-1 9:-1 10:-1 11:-1 
-508.8411669351584 -0 -0 0 0 0 0 0 0 1:-0.6 2:0.802913 3:-1 4:-1 5:-1 6:-1 7:0.312506 8:-1 9:-1 10:-1 11:-1 
-1.71033266995757 -0 -0.2179837725965936 0 0 0 0 0 0.7130239863337884 1:-0.2 2:0.581712 3:0.320694 4:0.223304 5:-1 6:-1 7:0.306929 8:0.546548 9:-0.888377 10:-1 11:-1 
-0.5487298208163189 -0 -0 0 0 0 0 0 0 1:-0.2 2:0.945507 3:0.269154 4:-0.0865505 5:-1 6:-1 7:0.2917 8:0.530686 9:-0.445993 10:-1 11:-1 
-68.29545108436376 -0 -0 0 0 0 0 0 0 1:-0.6 2:0.981182 3:-1 4:-1 5:-1 6:-1 7:0.263337 8:-1 9:-1 10:-1 11:-1 
-1.072900423605036 -0 -0.4430371237647391 0 0 0 0 0.7362260369297098 1.530930063277078 1:-0.2 2:0.995876 3:0.185832 4:0.0901546 5:-1 6:-1 7:0.284923 8:0.499096 9:-0.439392 10:-1 11:-1 
-1282.145105368441 -0 -0 0 0 0 0 0 0 1:-0.6 2:-0.069125 3:-1 4:-1 5:-1 6:-1 7:0.278719 8:-1 9:-1 10:-1 11:-1 
-1023.898892934199 -0 -0 274.2689373060119 0 0 0 0 0 1:-0.6 2:-0.187393 3:-1 4:-1 5:-1 6:-1 7:0.272117 8:-1 9:-1 10:-1 11:-1 
-0 -0 -0 2048 0 2048 2048 2048 2048 1:-1 2:-1 3:-1 4:-1 5:-1 6:-1 7:-1 8:-1 9:-1 10:-1 11:-1 
-0 -0 -0 2048 0 2048 2048 2048 2048 1:-1 2:-1 3:-1 4:-1 5:-1 6:-1 7:-1 8:-1 9:-1 10:-1 11:-1 
-0 -0 -0 2048 0 2048 2048 2048 2048 1:-1 2:-1 3:-1 4:-1 5:-1 6:-1 7:-1 8:-1 9:-1 10:-1 11:-1 
-0 -0 -0 0 1.609265364515754 5.733878539199003 0 29.11528041750453 107.1274289050554 1:-0.6 2:0.99465 3:-1 4:-1 5:-1 6:-1 7:0.208303 8:-1 9:-1 10:-1 11:-1 
-0 -0 -0 2048 0 2048 2048 2048 2048 1:-1 2:-1 3:-1 4:-1 5:-1 6:-1 7:-1 8:-1 9:-1 10:-1 11:-1 
-0 -0 -0 2048 0 2048 2048 2048 2048 1:-1 2:-1 3:-1 4:-1 5:-1 6:-1 7:-1 8:-1 9:-1 10:-1 11:-1 
-0 -0 -0 2048 0 2048 2048 2048 2048 1:-1 2:-1 3:-1 4:-1 5:-1 6:-1 7:-1 8:-1 9:-1 10:-1 11:-1 
-0 -0 -0 2048 0 2048 2048 2048 2048 1:-1 2:-1 3:-1 4:-1 5:-1 6:-1 7:-1 8:-1 9:-1 10:-1 11:-1 
-0 -0 -0 2048 0 2048 2048 2048 2048 1:-1 2:-1 3:-1 4:-1 5:-1 6:-1 7:-1 8:-1 9:-1 10:-1 11:-1 
-0 -0 -0 2048 0 2048 2048 2048 2048 1:-1 2:-1 3:-1 4:-1 5:-1 6:-1 7:-1 8:-1 9:-1 10:-1 11:-1 
-0 -0 -0 2048 0 2048 2048 2048 2048 1:-1 2:-1 3:-1 4:-1 5:-1 6:-1 7:-1 8:-1 9:-1 10:-1 11:-1 
-0 -0 -0 2048 0 2048 2048 2048 2048 1:-1 2:-1 3:-1 4:-1 5:-1 6:-1 7:-1 8:-1 9:-1 10:-1 11:-1 
-0 -0 -0 2048 0 2048 2048 2048 2048 1:-1 2:-1 3:-1 4:-1 5:-1 6:-1 7:-1 8:-1 9:-1 10:-1 11:-1 
-0 -0 -0 2048 0 2048 2048 2048 2048 1:-1 2:-1 3:-1 4:-1 5:-1 6:-1 7:-1 8:-1 9:-1 10:-1 11:-1 
-0 -0 -0 2048 0 2048 2048 2048 2048 1:-1 2:-1 3:-1 4:-1 5:-1 6:-1 7:-1 8:-1 9:-1 10:-1 11:-1 
-0 -0 -0 2048 0 2048 2048 2048 2048 1:-1 2:-1 3:-1 4:-1 5:-1 6:-1 7:-1 8:-1 9:-1 10:-1 11:-1 
-0 -0 -0 2048 0 2048 2048 2048 2048 1:-1 2:-1 3:-1 4:-1 5:-1 6:-1 7:-1 8:-1 9:-1 10:-1 11:-1 
-0 -0 -0 2048 0 2048 2048 2048 2048 1:-1 2:-1 3:-1 4:-1 5:-1 6:-1 7:-1 8:-1 9:-1 10:-1 11:-1 
-0 -0 -0 2048 0 2048 2048 2048 2048 1:-1 2:-1 3:-1 4:-1 5:-1 6:-1 7:-1 8:-1 9:-1 10:-1 11:-1 
-0 -0 -0 2048 0 2048 2048 2048 2048 1:-1 2:-1 3:-1 4:-1 5:-1 6:-1 7:-1 8:-1 9:-1 10:-1 11:-1 
-0 -0 -0 2048 0 2048 2048 2048 2048 1:-1 2:-1 3:-1 4:-1 5:-1 6:-1 7:-1 8:-1 9:-1 10:-1 11:-1 
-0 -0 -0 2048 0 2048 2048 2048 2048 1:-1 2:-1 3:-1 4:-1 5:-1 6:-1 7:-1 8:-1 9:-1 10:-1 11:-1 
-0 -0 -0 2048 0 2048 2048 2048 2048 1:-1 2:-1 3:-1 4:-1 5:-1 6:-1 7:-1 8:-1 9:-1 10:-1 11:-1 
-0 -0 -0.3029762710941321 0 0 0 0 0 0.5768682877667772 1:-0.2 2:0.356809 3:-0.475589 4:-0.53009 5:-1 6:-1 7:0.430565 8:0.729634 9:-0.870628 10:-1 11:-1 
-0.02092959106079176 -0 -0.2337443125157996 0 0 0 0 0 0.3747285842569038 1:-0.2 2:0.336605 3:-0.054044 4:-0.751518 5:-1 6:-1 7:0.450099 8:0.753176 9:-0.87007 10:-1 11:-1 
-0 -0 -0.4662381154833458 0 0 0 0 0.1594039245713227 1.012054177274695 1:0.2 2:0.972764 3:0.347604 4:0.27394 5:0.0756317 6:-0.0151501 7:0.399259 8:0.689402 9:0.583204 10:0.646704 11:-0.0406629 
-0 -0 -0.3009341426671624 0 0 0 0 0.1025041215111603 0.6504793610555788 1:0.2 2:0.349565 3:0.264836 4:0.0819097 5:-0.204128 6:-0.247115 7:0.390391 8:0.677992 9:0.545173 10:0.606076 11:-0.0346 
-0 -0 -0.4104698853093435 0 0 0 0 0.1278769529072845 0.8840294897599389 1:0.2 2:0.772251 3:0.233441 4:0.0532327 5:-0.237041 6:-0.818051 7:0.385469 8:0.670132 9:0.543977 10:0.606609 11:-0.0358482 
-0 -0 -0.1167814620712812 0 0 0 0 0.0374162391740035 0.2524997569291774 1:0.2 2:0.906939 3:0.164827 4:0.0125004 5:-0.157169 6:-0.469941 7:0.359797 8:0.633291 9:0.522422 10:0.588054 11:-0.0428401 
-0 -0 -0.006734412273820628 0 0 0 0 0.00644613715732778 0.01624581389403576 1:0.2 2:0.643541 3:0.148228 4:-0.00496996 5:-0.150393 6:-0.694401 7:0.346279 8:0.615914 9:0.520895 10:0.586675 11:-0.0497875 
-0 -0 -0.3093974304853853 0 0 0 0 0.07903944630491322 0.6550538345358615 1:-0.2 2:0.13272 3:-0.0292182 4:-0.153016 5:-1 6:-1 7:0.338539 8:0.605263 9:-0.87087 10:-1 11:-1 
-0 -0 -0.4853971154587434 0 0 0 0 0.1643798689348425 1.052739270844527 1:0.2 2:0.225223 3:0.108583 4:-0.0531326 5:-0.0705745 6:-0.165862 7:0.334129 8:0.597363 9:0.509536 10:0.578409 11:-0.0516698 
-0 -0 -0 0 0 0 0 0.1099852630365812 0 1:-0.2 2:0.073919 3:-0.139849 4:-0.28037 5:-1 6:-1 7:0.321561 8:0.581176 9:-0.871751 10:-1 11:-1 
-0 -0 -0.308530138120813 0 0 0 0 0.1030022234476819 0.669799593433106 1:0.2 2:0.751577 3:0.0616244 4:-0.267836 5:-0.481571 6:-0.531864 7:0.306184 8:0.563592 9:0.488956 10:0.553891 11:-0.0556283 
-1.389937630251247 -0 -0.3684611155987506 0 0.3212631846335172 0 0 0.1801858912008245 0.8194504406385693 1:-0.2 2:0.0444946 3:-0.26345 4:-0.435678 5:-1 6:-1 7:0.295943 8:0.55302 9:-0.869299 10:-1 11:-1 
-0 -0 -0.3882723731162022 0 0 0 0 0.1344115479701053 0.8474028683933241 1:0.2 2:0.898203 3:0.0309728 4:-0.286397 5:-0.285717 6:-0.44585 7:0.280467 8:0.537142 9:0.471123 10:0.528712 11:-0.0552567 
-0 -0 -0.4222440255663394 0 0 0 0 0.1440965306722356 0.9284484193353184 1:0.2 2:0.40662 3:0.0293562 4:0.0244495 5:-0.323179 6:-0.515465 7:0.267819 8:0.523653 9:0.46425 10:0.519583 11:-0.0549739 
-0 -0 -0 169.800847142998 0 0 0 0 0 1:-0.6 2:-0.522287 3:-1 4:-1 5:-1 6:-1 7:0.255103 8:-1 9:-1 10:-1 11:-1 
-0 -0 -0 0 0.383544671838962 0 0 0.007502286125409948 0 1:-0.2 2:0.739416 3:-0.413663 4:-0.597839 5:-1 6:-1 7:0.245389 8:0.42982 9:-0.374707 10:-1 11:-1 
-0 -0 -0 6.073514549644869 0 0 0 0 0 1:-0.6 2:-0.734234 3:-1 4:-1 5:-1 6:-1 7:0.224144 8:-1 9:-1 10:-1 11:-1 
-0 -0 -0 0 0.48112011737948 0 0 0.7394414671978872 0 1:-0.2 2:0.908689 3:-0.663036 4:-0.802419 5:-1 6:-1 7:0.22157 8:0.408709 9:-0.372256 10:-1 11:-1 
-0 -0 -0 57.65213675526095 0 0 0 0 0 1:-0.6 2:-0.808234 3:-1 4:-1 5:-1 6:-1 7:0.220182 8:-1 9:-1 10:-1 11:-1 
-0 -0 -0 0 0.2863369129395704 0 0 0 0 1:-0.2 2:0.96554 3:-0.856435 4:-0.959688 5:-1 6:-1 7:0.217335 8:0.409912 9:-0.37284 10:-1 11:-1 
-0 -0 -0.5778405741595154 0 0 0 0 0.2586821818581203 1.416368198330577 1:-0.2 2:0.963767 3:-0.953941 4:-0.958313 5:-1 6:-1 7:0.215668 8:0.409476 9:-0.373727 10:-1 11:-1 
-0 -0 -0.1102953060042876 0 0 0 0 0 0.3118483990231736 1:-0.2 2:0.958631 3:-0.707328 4:-0.992603 5:-1 6:-1 7:0.216869 8:0.414454 9:-0.374087 10:-1 11:-1 
-0 -0 -0 0 0 0 0 0.1752175706424948 0 1:-0.2 2:0.901835 3:-0.389728 4:-0.923621 5:-1 6:-1 7:0.219424 8:0.423832 9:-0.375294 10:-1 11:-1 
-0 -0 -0.2235509062914563 0 0 0 0 0 0.6296077706104309 1:-0.2 2:0.88112 3:-0.414518 4:-0.99456 5:-1 6:-1 7:0.221483 8:0.432839 9:-0.375043 10:-1 11:-1 
-0 -0 -0.3025177457536642 0 0 0 0 0 0 1:-0.6 2:-0.964162 3:-1 4:-1 5:-1 6:-1 7:0.219122 8:-1 9:-1 10:-1 11:-1 
-0 -0 -0.006083665021816197 2048 0 2048 2048 2048 2048 1:-1 2:-1 3:-1 4:-1 5:-1 6:-1 7:-1 8:-1 9:-1 10:-1 11:-1 
-0 -0 -0 2048 0 2048 2048 2048 2048 1:-1 2:-1 3:-1 4:-1 5:-1 6:-1 7:-1 8:-1 9:-1 10:-1 11:-1 
-0 -0 -0.3362655568077702 0.3016406008295839 0 0 0 0.1902510991754188 0.8948941958259395 1:-0.2 2:0.577232 3:0.331345 4:-0.854497 5:-1 6:-1 7:0.206146 8:0.459162 9:-0.375553 10:-1 11:-1 
-0 -0 -0.3830310636478665 0 0 0 0 0.04867571066422095 0.4778388413869109 1:-0.2 2:0.816571 3:-0.0881388 4:-0.915964 5:-1 6:-1 7:0.206529 8:0.456664 9:-0.3755 10:-1 11:-1 
-0 -0 -0 2048 0 2048 2048 2048 2048 1:-1 2:-1 3:-1 4:-1 5:-1 6:-1 7:-1 8:-1 9:-1 10:-1 11:-1 
-0 -0 -0.4214704764496084 0 0 0 0 0.3970217487359817 0.9569819151780283 1:-0.2 2:0.53921 3:0.499096 4:-0.632273 5:-1 6:-1 7:0.213574 8:0.448246 9:-0.372929 10:-1 11:-1 
-0 -0 -0.3149802907890668 0 0 0 0 0.4491245737703932 0.6938117450721548 1:-0.2 2:0.997466 3:-0.457373 4:-0.516356 5:-1 6:-1 7:0.2153 8:0.447527 9:-0.373043 10:-1 11:-1 
-0 -0 -0 0 177.1534920757921 0 0 123.237821604341 0 1:-0.6 2:-0.451316 3:-1 4:-1 5:-1 6:-1 7:0.194105 8:-1 9:-1 10:-1 11:-1 
