svm_type c_svc
kernel_type rbf
gamma 8
nr_class 15
total_sv 4141
rho 0.869313 0.678328 0.881717 0.786787 0.728275 0.892063 0.800324 0.912799 0.88553 0.826614 0.911375 0.933528 0.884986 0.972737 -0.392948 -0.465689 1.89592 -0.110599 0.39858 -0.186458 0.214772 0.070631 0.609798 0.447284 0.587722 0.370738 0.817718 0.432 0.544171 0.347313 0.700665 0.127487 0.584069 0.458423 0.550936 0.761585 0.808988 0.68111 0.917626 -0.0417258 -2.29884 0.398701 0.770361 0.222166 -0.0134973 -1.58605 0.479287 0.582041 0.347631 0.802523 -0.316614 0.273481 -0.237777 0.164449 0.0244771 0.106368 -3.97918 0.492305 0.313134 0.722228 0.343165 -0.125412 0.276191 0.129216 0.21593 0.570628 0.63361 0.42183 0.840762 -0.600459 -0.234541 -0.368865 -0.265255 0.178466 0.270224 -0.0502221 0.634886 6.33072 -3.47377 0.355615 0.764719 0.706453 0.531843 0.870596 -0.340149 -0.0311859 -0.683394 0.300856 0.198055 0.741467 0.122502 0.481955 0.560542 0.330809 0.795966 0.359011 0.476438 0.220859 0.74758 0.158648 -0.13321 0.550673 -0.290917 0.436941 0.64857
label 1 2 3 4 5 6 7 8 9 10 11 12 13 14 15
nr_sv 72 127 865 183 156 92 128 887 336 127 115 238 180 124 511
SV
8192 8192 8192 0 0 0 8192 8192 8192 0 0 0 0 0 1:-0.6 2:-1 3:-1 4:-1 5:-1 6:1 7:-1 8:-1 9:-1 10:-1 11:-1 12:-1 13:-1 14:-1 15:-1 16:-1 17:-1 18:-1 
8192 8192 8192 0 0 0 8192 8192 8192 0 0 0 0 0 1:-0.6 2:-1 3:-1 4:-1 5:-1 6:1 7:-1 8:-1 9:-1 10:-1 11:-1 12:-1 13:-1 14:-1 15:-1 16:-1 17:-1 18:-1 
8192 8192 8192 0 0 0 8192 8192 8192 0 0 0 0 0 1:-0.6 2:-1 3:-1 4:-1 5:-1 6:1 7:-1 8:-1 9:-1 10:-1 11:-1 12:-1 13:-1 14:-1 15:-1 16:-1 17:-1 18:-1 
8192 8192 8192 0 0 0 8192 8192 8192 0 0 0 0 0 1:-0.6 2:-1 3:-1 4:-1 5:-1 6:1 7:-1 8:-1 9:-1 10:-1 11:-1 12:-1 13:-1 14:-1 15:-1 16:-1 17:-1 18:-1 
8192 8192 8192 1.82583491854222 0 0 8192 8192 8192 0 0 0 0 0 1:-0.6 2:-1 3:-1 4:-1 5:-1 6:1 7:-1 8:-1 9:-1 10:-1 11:-1 12:-1 13:-1 14:-1 15:-1 16:-1 17:-1 18:-1 
8192 8192 8192 8192 0 0 8192 8192 8192 0 0 0 0 0 1:-0.6 2:-1 3:-1 4:-1 5:-1 6:1 7:-1 8:-1 9:-1 10:-1 11:-1 12:-1 13:-1 14:-1 15:-1 16:-1 17:-1 18:-1 
8192 8192 8192 8192 0 0 8192 8192 8192 0 0 0 0 0 1:-0.6 2:-1 3:-1 4:-1 5:-1 6:1 7:-1 8:-1 9:-1 10:-1 11:-1 12:-1 13:-1 14:-1 15:-1 16:-1 17:-1 18:-1 
8192 8192 8192 8192 0 0 8192 8192 8192 0 0 0 0 0 1:-0.6 2:-1 3:-1 4:-1 5:-1 6:1 7:-1 8:-1 9:-1 10:-1 11:-1 12:-1 13:-1 14:-1 15:-1 16:-1 17:-1 18:-1 
8192 8192 8192 8192 0 0 8192 8192 8192 0 0 0 0 0 1:-0.6 2:-1 3:-1 4:-1 5:-1 6:1 7:-1 8:-1 9:-1 10:-1 11:-1 12:-1 13:-1 14:-1 15:-1 16:-1 17:-1 18:-1 
8192 8192 8192 8192 0 0 8192 8192 8192 0 0 0 0 0 1:-0.6 2:-1 3:-1 4:-1 5:-1 6:1 7:-1 8:-1 9:-1 10:-1 11:-1 12:-1 13:-1 14:-1 15:-1 16:-1 17:-1 18:-1 
8192 8192 8192 8192 0 0 8192 8192 8192 0 0 0 0 0 1:-0.6 2:-1 3:-1 4:-1 5:-1 6:1 7:-1 8:-1 9:-1 10:-1 11:-1 12:-1 13:-1 14:-1 15:-1 16:-1 17:-1 18:-1 
8192 8192 8192 8192 1.734611762999054 0 8192 8192 8192 0 0 0 0 0 1:-0.6 2:-1 3:-1 4:-1 5:-1 6:1 7:-1 8:-1 9:-1 10:-1 11:-1 12:-1 13:-1 14:-1 15:-1 16:-1 17:-1 18:-1 
8192 8192 8192 8192 8192 0 8192 8192 8192 0 0 1.935020780816812 0 0 1:-0.6 2:-1 3:-1 4:-1 5:-1 6:1 7:-1 8:-1 9:-1 10:-1 11:-1 12:-1 13:-1 14:-1 15:-1 16:-1 17:-1 18:-1 
8192 8192 8192 8192 8192 0 8192 8192 8192 0 0 8192 0 0 1:-0.6 2:-1 3:-1 4:-1 5:-1 6:1 7:-1 8:-1 9:-1 10:-1 11:-1 12:-1 13:-1 14:-1 15:-1 16:-1 17:-1 18:-1 
8192 8192 8192 8192 8192 0 8192 8192 8192 0 0 8192 0 0 1:-0.6 2:-1 3:-1 4:-1 5:-1 6:1 7:-1 8:-1 9:-1 10:-1 11:-1 12:-1 13:-1 14:-1 15:-1 16:-1 17:-1 18:-1 
8192 8192 8192 8192 8192 1.892172526507005 8192 8192 8192 0 0 8192 0 0 1:-0.6 2:-1 3:-1 4:-1 5:-1 6:1 7:-1 8:-1 9:-1 10:-1 11:-1 12:-1 13:-1 14:-1 15:-1 16:-1 17:-1 18:-1 
8192 8192 8192 8192 8192 8192 8192 8192 8192 0 0 8192 0 0 1:-0.6 2:-1 3:-1 4:-1 5:-1 6:1 7:-1 8:-1 9:-1 10:-1 11:-1 12:-1 13:-1 14:-1 15:-1 16:-1 17:-1 18:-1 
8192 8192 8192 8192 8192 8192 8192 8192 8192 0 0 8192 0 0 1:-0.6 2:-1 3:-1 4:-1 5:-1 6:1 7:-1 8:-1 9:-1 10:-1 11:-1 12:-1 13:-1 14:-1 15:-1 16:-1 17:-1 18:-1 
0 1.680237929996329 0 0 0 0 0 0 0 0 0 0 0 0 1:-1 2:-1 3:-1 4:-1 5:-1 6:-1 7:-1 8:-1 9:-1 10:-1 11:-1 12:-1 13:-1 14:-1 15:-1 16:-1 17:-1 18:-1 
0 8192 0 0 0 0 0 0 0 0 0 0 0 0 1:-1 2:-1 3:-1 4:-1 5:-1 6:-1 7:-1 8:-1 9:-1 10:-1 11:-1 12:-1 13:-1 14:-1 15:-1 16:-1 17:-1 18:-1 
0 8192 0 0 0 0 0 0 0 0 0 0 0 0 1:-1 2:-1 3:-1 4:-1 5:-1 6:-1 7:-1 8:-1 9:-1 10:-1 11:-1 12:-1 13:-1 14:-1 15:-1 16:-1 17:-1 18:-1 
0 8192 0 0 0 0 0 0 0 0 0 0 0 0 1:-1 2:-1 3:-1 4:-1 5:-1 6:-1 7:-1 8:-1 9:-1 10:-1 11:-1 12:-1 13:-1 14:-1 15:-1 16:-1 17:-1 18:-1 
0 8192 0 0 0 0 0 0 0 0 0 0 0 0 1:-1 2:-1 3:-1 4:-1 5:-1 6:-1 7:-1 8:-1 9:-1 10:-1 11:-1 12:-1 13:-1 14:-1 15:-1 16:-1 17:-1 18:-1 
0 8192 0 0 0 0 0 0 0 0 0 0 0 0 1:-1 2:-1 3:-1 4:-1 5:-1 6:-1 7:-1 8:-1 9:-1 10:-1 11:-1 12:-1 13:-1 14:-1 15:-1 16:-1 17:-1 18:-1 
0 8192 0 0 0 0 0 0 0 0 0 0 0 0 1:-1 2:-1 3:-1 4:-1 5:-1 6:-1 7:-1 8:-1 9:-1 10:-1 11:-1 12:-1 13:-1 14:-1 15:-1 16:-1 17:-1 18:-1 
0 8192 0 0 0 0 0 0 0 0 0 0 0 0 1:-1 2:-1 3:-1 4:-1 5:-1 6:-1 7:-1 8:-1 9:-1 10:-1 11:-1 12:-1 13:-1 14:-1 15:-1 16:-1 17:-1 18:-1 
0 8192 0 0 0 0 0 0 0 0 0 0 0 0 1:-1 2:-1 3:-1 4:-1 5:-1 6:-1 7:-1 8:-1 9:-1 10:-1 11:-1 12:-1 13:-1 14:-1 15:-1 16:-1 17:-1 18:-1 
0 8192 0 0 0 0 0 0 0 0 0 0 0 0 1:-1 2:-1 3:-1 4:-1 5:-1 6:-1 7:-1 8:-1 9:-1 10:-1 11:-1 12:-1 13:-1 14:-1 15:-1 16:-1 17:-1 18:-1 
0 8192 0 0 0 0 0 0 0 0 0 0 0 0 1:-1 2:-1 3:-1 4:-1 5:-1 6:-1 7:-1 8:-1 9:-1 10:-1 11:-1 12:-1 13:-1 14:-1 15:-1 16:-1 17:-1 18:-1 
0 8192 0 0 0 0 0 0 0 0 0 0 0 0 1:-1 2:-1 3:-1 4:-1 5:-1 6:-1 7:-1 8:-1 9:-1 10:-1 11:-1 12:-1 13:-1 14:-1 15:-1 16:-1 17:-1 18:-1 
0 8192 0 0 0 0 0 0 0 0 0 0 0 0 1:-1 2:-1 3:-1 4:-1 5:-1 6:-1 7:-1 8:-1 9:-1 10:-1 11:-1 12:-1 13:-1 14:-1 15:-1 16:-1 17:-1 18:-1 
0 8192 0 0 0 0 0 0 0 0 0 0 0 0 1:-1 2:-1 3:-1 4:-1 5:-1 6:-1 7:-1 8:-1 9:-1 10:-1 11:-1 12:-1 13:-1 14:-1 15:-1 16:-1 17:-1 18:-1 
0 8192 0 0 0 0 0 0 0 0 0 0 0 0 1:-1 2:-1 3:-1 4:-1 5:-1 6:-1 7:-1 8:-1 9:-1 10:-1 11:-1 12:-1 13:-1 14:-1 15:-1 16:-1 17:-1 18:-1 
0 8192 0 0 0 0 0 0 0 0 0 0 0 0 1:-1 2:-1 3:-1 4:-1 5:-1 6:-1 7:-1 8:-1 9:-1 10:-1 11:-1 12:-1 13:-1 14:-1 15:-1 16:-1 17:-1 18:-1 
0 8192 0 0 0 0 0 0 0 0 0 0 0 0 1:-1 2:-1 3:-1 4:-1 5:-1 6:-1 7:-1 8:-1 9:-1 10:-1 11:-1 12:-1 13:-1 14:-1 15:-1 16:-1 17:-1 18:-1 
0 8192 0 0 0 0 0 0 0 0 0 0 0 0 1:-1 2:-1 3:-1 4:-1 5:-1 6:-1 7:-1 8:-1 9:-1 10:-1 11:-1 12:-1 13:-1 14:-1 15:-1 16:-1 17:-1 18:-1 
0 8192 0 0 0 0 0 0 0 0 0 0 0 0 1:-1 2:-1 3:-1 4:-1 5:-1 6:-1 7:-1 8:-1 9:-1 10:-1 11:-1 12:-1 13:-1 14:-1 15:-1 16:-1 17:-1 18:-1 
0 8192 0 0 0 0 0 0 0 0 0 0 0 0 1:-1 2:-1 3:-1 4:-1 5:-1 6:-1 7:-1 8:-1 9:-1 10:-1 11:-1 12:-1 13:-1 14:-1 15:-1 16:-1 17:-1 18:-1 
0 8192 0 0 0 0 1.800898453262622 0 0 0 0 0 0 0 1:-1 2:-1 3:-1 4:-1 5:-1 6:-1 7:-1 8:-1 9:-1 10:-1 11:-1 12:-1 13:-1 14:-1 15:-1 16:-1 17:-1 18:-1 
0 8192 0 0 0 0 8192 0 0 0 0 0 0 0 1:-1 2:-1 3:-1 4:-1 5:-1 6:-1 7:-1 8:-1 9:-1 10:-1 11:-1 12:-1 13:-1 14:-1 15:-1 16:-1 17:-1 18:-1 
0 8192 0 0 0 0 8192 0 0 0 0 0 0 0 1:-1 2:-1 3:-1 4:-1 5:-1 6:-1 7:-1 8:-1 9:-1 10:-1 11:-1 12:-1 13:-1 14:-1 15:-1 16:-1 17:-1 18:-1 
0 8192 0 0 0 0 8192 0 0 0 0 0 0 0 1:-1 2:-1 3:-1 4:-1 5:-1 6:-1 7:-1 8:-1 9:-1 10:-1 11:-1 12:-1 13:-1 14:-1 15:-1 16:-1 17:-1 18:-1 
0 8192 0 0 0 0 8192 0 0 0 0 0 0 0 1:-1 2:-1 3:-1 4:-1 5:-1 6:-1 7:-1 8:-1 9:-1 10:-1 11:-1 12:-1 13:-1 14:-1 15:-1 16:-1 17:-1 18:-1 
0 8192 0 0 0 0 8192 0 0 0 0 0 0 0 1:-1 2:-1 3:-1 4:-1 5:-1 6:-1 7:-1 8:-1 9:-1 10:-1 11:-1 12:-1 13:-1 14:-1 15:-1 16:-1 17:-1 18:-1 
0 8192 0 0 0 0 8192 0 0 0 0 0 0 0 1:-1 2:-1 3:-1 4:-1 5:-1 6:-1 7:-1 8:-1 9:-1 10:-1 11:-1 12:-1 13:-1 14:-1 15:-1 16:-1 17:-1 18:-1 
0 8192 0 0 0 0 8192 0 0 0 0 0 0 0 1:-1 2:-1 3:-1 4:-1 5:-1 6:-1 7:-1 8:-1 9:-1 10:-1 11:-1 12:-1 13:-1 14:-1 15:-1 16:-1 17:-1 18:-1 
0 8192 0 0 0 0 8192 0 0 0 0 0 0 0 1:-1 2:-1 3:-1 4:-1 5:-1 6:-1 7:-1 8:-1 9:-1 10:-1 11:-1 12:-1 13:-1 14:-1 15:-1 16:-1 17:-1 18:-1 
0 8192 0 0 0 0 8192 0 0 0 0 0 0 0 1:-1 2:-1 3:-1 4:-1 5:-1 6:-1 7:-1 8:-1 9:-1 10:-1 11:-1 12:-1 13:-1 14:-1 15:-1 16:-1 17:-1 18:-1 
0 8192 0 0 0 0 8192 0 0 0 0 0 0 0 1:-1 2:-1 3:-1 4:-1 5:-1 6:-1 7:-1 8:-1 9:-1 10:-1 11:-1 12:-1 13:-1 14:-1 15:-1 16:-1 17:-1 18:-1 
0 8192 0 0 0 0 8192 0 0 0 0 0 0 0 1:-1 2:-1 3:-1 4:-1 5:-1 6:-1 7:-1 8:-1 9:-1 10:-1 11:-1 12:-1 13:-1 14:-1 15:-1 16:-1 17:-1 18:-1 
0 8192 0 0 0 0 8192 0 0 0 0 0 0 0 1:-1 2:-1 3:-1 4:-1 5:-1 6:-1 7:-1 8:-1 9:-1 10:-1 11:-1 12:-1 13:-1 14:-1 15:-1 16:-1 17:-1 18:-1 
0 8192 0 0 0 0 8192 0 0 0 0 0 0 0 1:-1 2:-1 3:-1 4:-1 5:-1 6:-1 7:-1 8:-1 9:-1 10:-1 11:-1 12:-1 13:-1 14:-1 15:-1 16:-1 17:-1 18:-1 
0 8192 0 0 0 0 8192 0 0 0 0 0 0 0 1:-1 2:-1 3:-1 4:-1 5:-1 6:-1 7:-1 8:-1 9:-1 10:-1 11:-1 12:-1 13:-1 14:-1 15:-1 16:-1 17:-1 18:-1 
0 8192 0 0 0 0 8192 0 0 0 0 0 0 0 1:-1 2:-1 3:-1 4:-1 5:-1 6:-1 7:-1 8:-1 9:-1 10:-1 11:-1 12:-1 13:-1 14:-1 15:-1 16:-1 17:-1 18:-1 
0 8192 0 0 0 0 8192 0 0 0 0 0 0 0 1:-1 2:-1 3:-1 4:-1 5:-1 6:-1 7:-1 8:-1 9:-1 10:-1 11:-1 12:-1 13:-1 14:-1 15:-1 16:-1 17:-1 18:-1 
0 8192 0 0 0 0 8192 0 0 0 0 0 0 0 1:-1 2:-1 3:-1 4:-1 5:-1 6:-1 7:-1 8:-1 9:-1 10:-1 11:-1 12:-1 13:-1 14:-1 15:-1 16:-1 17:-1 18:-1 
0 8192 0 0 0 0 8192 0 0 0 0 0 0 0 1:-1 2:-1 3:-1 4:-1 5:-1 6:-1 7:-1 8:-1 9:-1 10:-1 11:-1 12:-1 13:-1 14:-1 15:-1 16:-1 17:-1 18:-1 
0 8192 0 0 0 0 8192 0 0 0 0 0 0 0 1:-1 2:-1 3:-1 4:-1 5:-1 6:-1 7:-1 8:-1 9:-1 10:-1 11:-1 12:-1 13:-1 14:-1 15:-1 16:-1 17:-1 18:-1 
1.876978603158268 8192 0 0 0 0 8192 0 0 0 0 0 0 0 1:-1 2:-1 3:-1 4:-1 5:-1 6:-1 7:-1 8:-1 9:-1 10:-1 11:-1 12:-1 13:-1 14:-1 15:-1 16:-1 17:-1 18:-1 
8192 8192 0 0 0 0 8192 0 0 0 0 0 0 0 1:-1 2:-1 3:-1 4:-1 5:-1 6:-1 7:-1 8:-1 9:-1 10:-1 11:-1 12:-1 13:-1 14:-1 15:-1 16:-1 17:-1 18:-1 
8192 8192 0 0 0 0 8192 0 0 0 0 0 0 0 1:-1 2:-1 3:-1 4:-1 5:-1 6:-1 7:-1 8:-1 9:-1 10:-1 11:-1 12:-1 13:-1 14:-1 15:-1 16:-1 17:-1 18:-1 
8192 8192 0 0 0 0 8192 0 0 0 0 0 0 0 1:-1 2:-1 3:-1 4:-1 5:-1 6:-1 7:-1 8:-1 9:-1 10:-1 11:-1 12:-1 13:-1 14:-1 15:-1 16:-1 17:-1 18:-1 
8192 8192 0 0 0 0 8192 0 0 0 0 0 0 0 1:-1 2:-1 3:-1 4:-1 5:-1 6:-1 7:-1 8:-1 9:-1 10:-1 11:-1 12:-1 13:-1 14:-1 15:-1 16:-1 17:-1 18:-1 
8192 8192 8192 8192 8192 8192 8192 8192 8192 0 0 8192 0 0 1:-0.6 2:-1 3:-1 4:-1 5:-1 6:1 7:-1 8:-1 9:-1 10:-1 11:-1 12:-1 13:-1 14:-1 15:-1 16:-1 17:-1 18:-1 
8192 8192 0 0 0 0 8192 0 0 0 0 0 0 0 1:-1 2:-1 3:-1 4:-1 5:-1 6:-1 7:-1 8:-1 9:-1 10:-1 11:-1 12:-1 13:-1 14:-1 15:-1 16:-1 17:-1 18:-1 
8192 8192 8192 8191.998710601324 8191.99373490535 8192 8192 8192 8192 1.826374445379135 1.913468058725159 8191.998245800367 1.884938054441895 1.973258346146356 1:-0.6 2:-1 3:-1 4:-1 5:-1 6:1 7:-1 8:-1 9:-1 10:-1 11:-1 12:-1 13:-1 14:-1 15:-1 16:-1 17:-1 18:-1 
8192 8192 0 0 0 0 8192 0 0 0 0 0 0 0 1:-1 2:-1 3:-1 4:-1 5:-1 6:-1 7:-1 8:-1 9:-1 10:-1 11:-1 12:-1 13:-1 14:-1 15:-1 16:-1 17:-1 18:-1 
8192 8192 0 0 0 0 8192 0 0 0 0 0 0 0 1:-1 2:-1 3:-1 4:-1 5:-1 6:-1 7:-1 8:-1 9:-1 10:-1 11:-1 12:-1 13:-1 14:-1 15:-1 16:-1 17:-1 18:-1 
8192 8192 0 0 0 0 8192 0 0 0 0 0 0 0 1:-1 2:-1 3:-1 4:-1 5:-1 6:-1 7:-1 8:-1 9:-1 10:-1 11:-1 12:-1 13:-1 14:-1 15:-1 16:-1 17:-1 18:-1 
8192 8192 0 0 0 0 8192 0 0 0 0 0 0 0 1:-1 2:-1 3:-1 4:-1 5:-1 6:-1 7:-1 8:-1 9:-1 10:-1 11:-1 12:-1 13:-1 14:-1 15:-1 16:-1 17:-1 18:-1 
8192 8192 0 0 0 0 8192 0 0 0 0 0 0 0 1:-1 2:-1 3:-1 4:-1 5:-1 6:-1 7:-1 8:-1 9:-1 10:-1 11:-1 12:-1 13:-1 14:-1 15:-1 16:-1 17:-1 18:-1 
8191.992204204699 8191.998155563451 1.881537673354397 1.786971757617712 1.728036459878072 1.892084933876413 8191.999369605413 1.913045898057546 1.885706967832128 1.826740680585658 1.911457392256931 1.933582487020442 1.885195071733242 1.972608487214425 1:-1 2:-1 3:-1 4:-1 5:-1 6:-1 7:-1 8:-1 9:-1 10:-1 11:-1 12:-1 13:-1 14:-1 15:-1 16:-1 17:-1 18:-1 
-0 0 795.5070986812449 0 0 0 0 0 0 0 0 0 0 0 1:-0.2 2:-0.361585 3:-1 4:-1 5:-1 6:1 7:-1 8:-1 9:-1 10:-1 11:-0.659423 12:-1 13:-1 14:-1 15:-0.13171 16:-1 17:-1 18:-1 
-0 0 629.4544900376868 0 0 0 0 0 0 0 0 0 0 0 1:-0.2 2:-0.37224 3:-1 4:-1 5:-1 6:1 7:-1 8:-1 9:-1 10:-1 11:-0.644762 12:-1 13:-1 14:-1 15:-0.152764 16:-1 17:-1 18:-1 
-0 0 0 609.6303741637843 0 0 0 0 0 0 77.07239568735498 0 0 0 1:-0.2 2:-0.548695 3:-1 4:-1 5:-1 6:1 7:-1 8:-1 9:-1 10:-1 11:-0.512135 12:-1 13:-1 14:-1 15:-0.243771 16:-1 17:-1 18:-1 
-0.01018787362550294 0 0 0 0 0.08947192696066771 0.05717238669008286 0 0 0 0 0.1188128224752718 0.101800023258559 0.1330180787756359 1:-0.2 2:-0.562596 3:-1 4:-1 5:-1 6:1 7:-1 8:-1 9:-1 10:-1 11:-0.50116 12:-1 13:-1 14:-1 15:-0.185155 16:-1 17:-1 18:-1 
-0 0 0 8.182048030071428 0 0 0 0 0 0 0 0 0 0 1:-0.2 2:-0.559286 3:-1 4:-1 5:-1 6:1 7:-1 8:-1 9:-1 10:-1 11:-0.504303 12:-1 13:-1 14:-1 15:-0.163506 16:-1 17:-1 18:-1 
-0 0 0 0 0 0 0 0 0.006087663383142415 0 0 0 0 0 1:-0.2 2:-0.555988 3:-1 4:-1 5:-1 6:1 7:-1 8:-1 9:-1 10:-1 11:-0.504932 12:-1 13:-1 14:-1 15:-0.138014 16:-1 17:-1 18:-1 
-0 0.2095685974045653 165.747570617121 0 0 0 0 0 0 0 0 0 0 0 1:-0.2 2:-0.54521 3:-1 4:-1 5:-1 6:1 7:-1 8:-1 9:-1 10:-1 11:-0.50473 12:-1 13:-1 14:-1 15:-0.0696099 16:-1 17:-1 18:-1 
-0 0 446.4355417485218 0 0 0 0 0 0 0 0 0 0 0 1:-0.2 2:-0.537643 3:-1 4:-1 5:-1 6:1 7:-1 8:-1 9:-1 10:-1 11:-0.50388 12:-1 13:-1 14:-1 15:-0.0304865 16:-1 17:-1 18:-1 
-0 0 164.0947165709576 0 0 0 0 0 0 0 0 0 0 0 1:-0.2 2:-0.501022 3:-1 4:-1 5:-1 6:1 7:-1 8:-1 9:-1 10:-1 11:-0.484537 12:-1 13:-1 14:-1 15:0.195081 16:-1 17:-1 18:-1 
-0.10416058091703 0 0 0 1.280187084364272 1.14622072253233 0.6515712512594301 0 0.9038887619424526 0 0 1.276654978294383 1.096426916036373 1.454932631049132 1:-0.2 2:-0.497193 3:-1 4:-1 5:-1 6:1 7:-1 8:-1 9:-1 10:-1 11:-0.464135 12:-1 13:-1 14:-1 15:0.205664 16:-1 17:-1 18:-1 
-0 0.5785176532849463 0 12.70865131932445 0 0 0 1.020901673084955 0 0 0.948579736210682 0 0 0 1:-0.2 2:-0.494629 3:-1 4:-1 5:-1 6:1 7:-1 8:-1 9:-1 10:-1 11:-0.459114 12:-1 13:-1 14:-1 15:0.199788 16:-1 17:-1 18:-1 
-0 2.127132530619292 0 0 0 0 0 0 0 0 0 0 0 0 1:-0.2 2:-0.431727 3:-1 4:-1 5:-1 6:1 7:-1 8:-1 9:-1 10:-1 11:-0.522503 12:-1 13:-1 14:-1 15:0.0509053 16:-1 17:-1 18:-1 
-0 0 0 3910.041658264357 0 0 0 0 0 0 0 0 0 0 1:-0.2 2:-0.41346 3:-1 4:-1 5:-1 6:1 7:-1 8:-1 9:-1 10:-1 11:-0.537943 12:-1 13:-1 14:-1 15:0.0464538 16:-1 17:-1 18:-1 
-0 0 0 1202.780577511205 0 0 0 0 0 0 0 0 0 0 1:-0.2 2:-0.404805 3:-1 4:-1 5:-1 6:1 7:-1 8:-1 9:-1 10:-1 11:-0.546288 12:-1 13:-1 14:-1 15:0.0402605 16:-1 17:-1 18:-1 
-0 0 8192 0 0 0 0 0 0 0 0 0 0 0 1:-0.2 2:-0.349249 3:-1 4:-1 5:-1 6:1 7:-1 8:-1 9:-1 10:-1 11:-0.609468 12:-1 13:-1 14:-1 15:0.016033 16:-1 17:-1 18:-1 
-0 0 8192 0 0 0 0 0 0 0 0 0 0 0 1:-0.2 2:-0.344506 3:-1 4:-1 5:-1 6:1 7:-1 8:-1 9:-1 10:-1 11:-0.622428 12:-1 13:-1 14:-1 15:0.00432362 16:-1 17:-1 18:-1 
-0 0 1017.890276228258 0 0 0 0 0 0 0 0 0 0 0 1:-0.2 2:-0.342058 3:-1 4:-1 5:-1 6:1 7:-1 8:-1 9:-1 10:-1 11:-0.633664 12:-1 13:-1 14:-1 15:-0.00954929 16:-1 17:-1 18:-1 
-0 0 1080.520054655175 0 0 0 0 0 0 0 0 0 0 0 1:-0.2 2:-0.369432 3:-1 4:-1 5:-1 6:1 7:-1 8:-1 9:-1 10:-1 11:-0.687605 12:-1 13:-1 14:-1 15:0.0109663 16:-1 17:-1 18:-1 
-0 0 8192 0 0 0 0 0 0 0 0 0 0 0 1:-0.2 2:-0.368879 3:-1 4:-1 5:-1 6:1 7:-1 8:-1 9:-1 10:-1 11:-0.687432 12:-1 13:-1 14:-1 15:0.0118372 16:-1 17:-1 18:-1 
-0 0 0 0 0 0 0 0 0 4.922670092674046 0 0 0 0 1:-0.2 2:-0.340743 3:-1 4:-1 5:-1 6:1 7:-1 8:-1 9:-1 10:-1 11:-0.675522 12:-1 13:-1 14:-1 15:-0.246785 16:-1 17:-1 18:-1 
-0 0 0 0 0 0 0 0.5893865187892973 0 0 0 0 0 0 1:-0.2 2:-0.303737 3:-1 4:-1 5:-1 6:1 7:-1 8:-1 9:-1 10:-1 11:-0.713708 12:-1 13:-1 14:-1 15:-0.354925 16:-1 17:-1 18:-1 
-0 8192 8192 0.03215266494342973 0 0 8192 8192 8192 0 0 0 0 0 1:-0.6 2:-1 3:-1 4:-1 5:-1 6:1 7:-1 8:-1 9:-1 10:-1 11:-1 12:-1 13:-1 14:-1 15:-1 16:-1 17:-1 18:-1 
-8192 8192 0 0.01222267116041331 0 0 8192 0 0 0 0 0 0 0 1:-1 2:-1 3:-1 4:-1 5:-1 6:-1 7:-1 8:-1 9:-1 10:-1 11:-1 12:-1 13:-1 14:-1 15:-1 16:-1 17:-1 18:-1 
-8192 8192 0 0 0 0 8192 0 0 0 0 0 0 0 1:-1 2:-1 3:-1 4:-1 5:-1 6:-1 7:-1 8:-1 9:-1 10:-1 11:-1 12:-1 13:-1 14:-1 15:-1 16:-1 17:-1 18:-1 
-8192 8192 0 0 0 0 8192 0 0 0 0 0 0 0 1:-1 2:-1 3:-1 4:-1 5:-1 6:-1 7:-1 8:-1 9:-1 10:-1 11:-1 12:-1 13:-1 14:-1 15:-1 16:-1 17:-1 18:-1 
-8192 8192 0 0 0 0 8192 0 0 0 0 0 0 0 1:-1 2:-1 3:-1 4:-1 5:-1 6:-1 7:-1 8:-1 9:-1 10:-1 11:-1 12:-1 13:-1 14:-1 15:-1 16:-1 17:-1 18:-1 
-8192 8192 0.01473785487185492 0 0 0 8192 0 0 0 0 0 0 0 1:-1 2:-1 3:-1 4:-1 5:-1 6:-1 7:-1 8:-1 9:-1 10:-1 11:-1 12:-1 13:-1 14:-1 15:-1 16:-1 17:-1 18:-1 
-0 8192 8192 0.006773862250252075 0 0 8192 8192 8192 0 0 0 0 0 1:-0.6 2:-1 3:-1 4:-1 5:-1 6:1 7:-1 8:-1 9:-1 10:-1 11:-1 12:-1 13:-1 14:-1 15:-1 16:-1 17:-1 18:-1 
-0 8192 8192 0 0 0 8192 8192 8192 0 0 0 0 0 1:-0.6 2:-1 3:-1 4:-1 5:-1 6:1 7:-1 8:-1 9:-1 10:-1 11:-1 12:-1 13:-1 14:-1 15:-1 16:-1 17:-1 18:-1 
-0 8192 8192 0 0 0 8192 8192 8192 0 0 0 0 0 1:-0.6 2:-1 3:-1 4:-1 5:-1 6:1 7:-1 8:-1 9:-1 10:-1 11:-1 12:-1 13:-1 14:-1 15:-1 16:-1 17:-1 18:-1 
-0 8192 8192 0 0 0 8192 8192 8192 0 0 0 0 0 1:-0.6 2:-1 3:-1 4:-1 5:-1 6:1 7:-1 8:-1 9:-1 10:-1 11:-1 12:-1 13:-1 14:-1 15:-1 16:-1 17:-1 18:-1 
-0 8192 8192 0 0 0 8192 8192 8192 0 0 0 0 0 1:-0.6 2:-1 3:-1 4:-1 5:-1 6:1 7:-1 8:-1 9:-1 10:-1 11:-1 12:-1 13:-1 14:-1 15:-1 16:-1 17:-1 18:-1 
-0 8192 8192 0 0 0 8192 8192 8192 0 0 0 0 0 1:-0.6 2:-1 3:-1 4:-1 5:-1 6:1 7:-1 8:-1 9:-1 10:-1 11:-1 12:-1 13:-1 14:-1 15:-1 16:-1 17:-1 18:-1 
-0 8192 8192 0 0 0 8192 8192 8192 0 0 0 0 0 1:-0.6 2:-1 3:-1 4:-1 5:-1 6:1 7:-1 8:-1 9:-1 10:-1 11:-1 12:-1 13:-1 14:-1 15:-1 16:-1 17:-1 18:-1 
-0 8192 8192 0 0 0 8192 8192 8192 0 0 0 0 0 1:-0.6 2:-1 3:-1 4:-1 5:-1 6:1 7:-1 8:-1 9:-1 10:-1 11:-1 12:-1 13:-1 14:-1 15:-1 16:-1 17:-1 18:-1 
-1 8192 8192 0 0 0 8192 8192 8192 0 0 0 0 0 1:-0.6 2:-1 3:-1 4:-1 5:-1 6:1 7:-1 8:-1 9:-1 10:-1 11:-1 12:-1 13:-1 14:-1 15:-1 16:-1 17:-1 18:-1 
-8192 8192 8192 0 0 0 8192 8192 8192 0 0 0 0 0 1:-0.6 2:-1 3:-1 4:-1 5:-1 6:1 7:-1 8:-1 9:-1 10:-1 11:-1 12:-1 13:-1 14:-1 15:-1 16:-1 17:-1 18:-1 
-8192 8192 8192 0 0 0 8192 8192 8192 0 0 0 0 0 1:-0.6 2:-1 3:-1 4:-1 5:-1 6:1 7:-1 8:-1 9:-1 10:-1 11:-1 12:-1 13:-1 14:-1 15:-1 16:-1 17:-1 18:-1 
-8192 8192 8192 0 0 0 8192 8192 8192 0 0 0 0 0 1:-0.6 2:-1 3:-1 4:-1 5:-1 6:1 7:-1 8:-1 9:-1 10:-1 11:-1 12:-1 13:-1 14:-1 15:-1 16:-1 17:-1 18:-1 
-8192 8192 8192 0 0 0 8192 8192 8192 0 0 0 0 0 1:-0.6 2:-1 3:-1 4:-1 5:-1 6:1 7:-1 8:-1 9:-1 10:-1 11:-1 12:-1 13:-1 14:-1 15:-1 16:-1 17:-1 18:-1 
-8192 8192 8192 4.245664657516215 0 0 8192 8192 8192 0 0 0 0 0 1:-0.6 2:-1 3:-1 4:-1 5:-1 6:1 7:-1 8:-1 9:-1 10:-1 11:-1 12:-1 13:-1 14:-1 15:-1 16:-1 17:-1 18:-1 
-8192 8192 8192 8192 0 0 8192 8192 8192 0 0 0 0 0 1:-0.6 2:-1 3:-1 4:-1 5:-1 6:1 7:-1 8:-1 9:-1 10:-1 11:-1 12:-1 13:-1 14:-1 15:-1 16:-1 17:-1 18:-1 
-8192 8192 8192 8192 0 0 8192 8192 8192 0 0 0 0 0 1:-0.6 2:-1 3:-1 4:-1 5:-1 6:1 7:-1 8:-1 9:-1 10:-1 11:-1 12:-1 13:-1 14:-1 15:-1 16:-1 17:-1 18:-1 
-8192 8192 8192 8192 0 0 8192 8192 8192 0 0 0 0 0 1:-0.6 2:-1 3:-1 4:-1 5:-1 6:1 7:-1 8:-1 9:-1 10:-1 11:-1 12:-1 13:-1 14:-1 15:-1 16:-1 17:-1 18:-1 
-8192 8192 0.002353553671276459 0.001180927521176267 0 0 8192 0 0 0 0 0 0 0 1:-1 2:-1 3:-1 4:-1 5:-1 6:-1 7:-1 8:-1 9:-1 10:-1 11:-1 12:-1 13:-1 14:-1 15:-1 16:-1 17:-1 18:-1 
-8192 8192 0 0 0 0 8192 0 0 0 0 0 0 0 1:-1 2:-1 3:-1 4:-1 5:-1 6:-1 7:-1 8:-1 9:-1 10:-1 11:-1 12:-1 13:-1 14:-1 15:-1 16:-1 17:-1 18:-1 
-8192 8192 0 0 0 0 8192 0 0 0 0 0 0 0 1:-1 2:-1 3:-1 4:-1 5:-1 6:-1 7:-1 8:-1 9:-1 10:-1 11:-1 12:-1 13:-1 14:-1 15:-1 16:-1 17:-1 18:-1 
-8192 8192 0 0 0 0 8192 0 0 0 0 0 0 0 1:-1 2:-1 3:-1 4:-1 5:-1 6:-1 7:-1 8:-1 9:-1 10:-1 11:-1 12:-1 13:-1 14:-1 15:-1 16:-1 17:-1 18:-1 
-8192 8192 0 0 0 0 8192 0 0 0 0 0 0 0 1:-1 2:-1 3:-1 4:-1 5:-1 6:-1 7:-1 8:-1 9:-1 10:-1 11:-1 12:-1 13:-1 14:-1 15:-1 16:-1 17:-1 18:-1 
-8192 8192 8192 8192 0 0 8192 8192 8192 0 0 0 0 0 1:-0.6 2:-1 3:-1 4:-1 5:-1 6:1 7:-1 8:-1 9:-1 10:-1 11:-1 12:-1 13:-1 14:-1 15:-1 16:-1 17:-1 18:-1 
-8192 8192 0.5175328743005406 2.88269812796832 0.8892323592110283 1.398662968749512 8192 1.215119386309555 1.070745477076856 1.609490830612813 1.447709264481966 1.58809295184358 1.370675467172034 1.817729996906996 1:-1 2:-1 3:-1 4:-1 5:-1 6:-1 7:-1 8:-1 9:-1 10:-1 11:-1 12:-1 13:-1 14:-1 15:-1 16:-1 17:-1 18:-1 
-8192 8192 8192 8192 0 0 8192 8192 8192 0 0 0 0 0 1:-0.6 2:-1 3:-1 4:-1 5:-1 6:1 7:-1 8:-1 9:-1 10:-1 11:-1 12:-1 13:-1 14:-1 15:-1 16:-1 17:-1 18:-1 
-8192 8192 8192 8192 0 0 8192 8192 8192 0 0 0 0 0 1:-0.6 2:-1 3:-1 4:-1 5:-1 6:1 7:-1 8:-1 9:-1 10:-1 11:-1 12:-1 13:-1 14:-1 15:-1 16:-1 17:-1 18:-1 
-8192 8192 8192 8192 0.9385541879922248 0 8192 8192 8192 0 0 0 0 0 1:-0.6 2:-1 3:-1 4:-1 5:-1 6:1 7:-1 8:-1 9:-1 10:-1 11:-1 12:-1 13:-1 14:-1 15:-1 16:-1 17:-1 18:-1 
-8192 8192 8192 8192 8192 0 8192 8192 8192 0 0 1.57455547325444 0 0 1:-0.6 2:-1 3:-1 4:-1 5:-1 6:1 7:-1 8:-1 9:-1 10:-1 11:-1 12:-1 13:-1 14:-1 15:-1 16:-1 17:-1 18:-1 
-8192 8192 8192 8192 8192 0 8192 8192 8192 0 0 8192 0 0 1:-0.6 2:-1 3:-1 4:-1 5:-1 6:1 7:-1 8:-1 9:-1 10:-1 11:-1 12:-1 13:-1 14:-1 15:-1 16:-1 17:-1 18:-1 
-0.04577533687357112 0.1557638846621236 0 0 0.3412449130416139 0.4889166999826891 0.2632603186016377 0.270028884418544 0.3445624136548055 0 0 0.5524161618546393 0.4760971832610439 0.6304514776133523 1:-0.2 2:-0.388595 3:-1 4:-1 5:-1 6:1 7:-1 8:-1 9:-1 10:-1 11:-0.876143 12:-1 13:-1 14:-1 15:-0.524142 16:-1 17:-1 18:-1 
-0 0 0 1297.996324141141 0 0 0 0 0 0 1.90640277702778 0 0 0 1:-0.2 2:-0.461905 3:-1 4:-1 5:-1 6:1 7:-1 8:-1 9:-1 10:-1 11:-0.873885 12:-1 13:-1 14:-1 15:-0.391454 16:-1 17:-1 18:-1 
-0.1001980628283043 0.467550901098943 0.4091289671120016 2.230811821235934 1.277787076384475 1.393345189786792 0.6267083260991867 0.9363592057026167 0.8246507429316896 1.328741948832598 1.22903802951156 1.22968909444192 1.057598125114068 1.406850942963752 1:0.2 2:-0.357265 3:-0.260814 4:-1 5:-1 6:-1 7:1 8:-1 9:-1 10:-1 11:-0.496387 12:-0.833097 13:-1 14:-1 15:0.23961 16:0.654678 17:-1 18:-1 
-0.0909760348796238 0.4239140453545807 0.3832823579908251 2.020457353045493 0.6464236380667128 0.9851773459861143 0.5680895564780244 0.8848854178581002 0.7465614059388263 1.207559378710907 1.373615043894355 1.124049772779784 0.9674251332615382 1.289592927028638 1:0.2 2:-0.418927 3:-0.270626 4:-1 5:-1 6:-1 7:1 8:-1 9:-1 10:-1 11:-0.270192 12:-0.825676 13:-1 14:-1 15:0.139997 16:0.382033 17:-1 18:-1 
-0.102787619369616 0.4762771668144656 0.491946804534393 2.268885357217316 0.8362427218112887 1.168490486304341 0.6376206153265856 0.9526540676160368 0.8400201675103961 1.305894111059652 1.16029303003199 1.401369210989345 1.036115903169132 1.453985587139293 1:0.2 2:-0.441056 3:-0.271521 4:-1 5:-1 6:1 7:-1 8:-1 9:-1 10:-1 11:-0.225681 12:-0.82346 13:-1 14:-1 15:0.0497164 16:0.257951 17:-1 18:-1 
-0.005212304465096152 0.02461287310066256 0 0.1222117732432882 0.09828537417050999 0.01931818902667099 0.03408186854995614 0.05073351847676955 0.04368862060000747 0.04573989752350741 0.05111875080313067 0.1645206138087758 0.07243450377682507 0.06784011308312486 1:0.2 2:-0.459341 3:-0.263198 4:-1 5:-1 6:1 7:-1 8:-1 9:-1 10:-1 11:-0.13431 12:-0.810676 13:-1 14:-1 15:-0.0390923 16:-0.0117953 17:-1 18:-1 
-0.1027481521240572 0.4779974160169853 0.4143092636679448 2.278134944566521 0.6849776843042974 1.116419467480873 0.6403898886674662 0.9559981003613396 0.8432138680471108 1.27626556376304 1.142740053989784 1.226984497260888 1.079291653718532 1.432959821470698 1:0.2 2:-0.479293 3:-0.255495 4:-1 5:-1 6:1 7:-1 8:-1 9:-1 10:-1 11:0.0172749 12:-0.80455 13:-1 14:-1 15:-0.122309 16:-0.232486 17:-1 18:-1 
-0.04949955268728468 0.2293477626545719 0.2473155052017686 1.093719282772179 0.3108418912193612 0.5272035825399113 0.306576071549738 0.4581744296540651 0.4040660897079125 0.598167362863989 0.5437385556028559 0.573582842944715 0.4822097305325093 0.6851385038267815 1:0.2 2:-0.426439 3:-0.229039 4:-1 5:-1 6:1 7:-1 8:-1 9:-1 10:-1 11:0.266177 12:-0.771936 13:-1 14:-1 15:-0.000625559 16:0.0451252 17:-1 18:-1 
-0.07946306181535651 0.373448092078114 0.2809476139644727 1.78121705853655 0.5474329427332169 0.8608323264603516 0.5001709783109115 0.7470796607431257 0.6588828267622715 0.9122574699212307 0.9005328167850406 0.975190983615204 0.7413420800547881 1.117715627679817 1:0.2 2:-0.418148 3:-0.228734 4:-1 5:-1 6:-1 7:1 8:-1 9:-1 10:-1 11:0.279345 12:-0.773957 13:-1 14:-1 15:0.00654245 16:0.0754328 17:-1 18:-1 
-0.00630667566609811 0.2197729334880972 0 1.060222157240666 0.3088833633895139 0.5050362754683665 0.273840535234475 0.4342584930486749 0.3923970791971325 0 0.528635203093859 0.5826156571261691 0 0.6552932281791995 1:0.2 2:-0.310728 3:-0.1998 4:-1 5:-1 6:-1 7:1 8:-1 9:-1 10:-1 11:0.42822 12:-0.78202 13:-1 14:-1 15:0.0683035 16:0.422609 17:-1 18:-1 
-0.03973861835281789 0 0 0 0.01086135339149357 0 0.03025777996624153 0 0 0 0 0 0.8653470894417915 0 1:0.2 2:-0.308078 3:-0.198388 4:-1 5:-1 6:-1 7:1 8:-1 9:-1 10:-1 11:0.431231 12:-0.780431 13:-1 14:-1 15:0.0677505 16:0.421427 17:-1 18:-1 
-0 0 0 0 0 0 0 0 0 1.59383925926737 0 0 0 0 1:0.2 2:-0.309883 3:-0.195197 4:-1 5:-1 6:-1 7:1 8:-1 9:-1 10:-1 11:0.433205 12:-0.775384 13:-1 14:-1 15:0.0637621 16:0.420017 17:-1 18:-1 
-0.03691529617374373 0 0 0 0 0 0 0 0 0 0.2726082510281546 0 0 0 1:0.2 2:-0.300439 3:-0.193278 4:-1 5:-1 6:-1 7:1 8:-1 9:-1 10:-1 11:0.458187 12:-0.761429 13:-1 14:-1 15:0.0554467 16:0.404182 17:-1 18:-1 
-0 0.1670622458857764 0 0.7823444301308438 0.2468370176542455 0.3823020193383539 0.2132298674077231 0.3383896919157975 0.2888019485824889 0 0.08260889720798917 0.4271128158342782 0.05141084282150082 0.5013540572235542 1:0.2 2:-0.29091 3:-0.189011 4:-1 5:-1 6:-1 7:1 8:-1 9:-1 10:-1 11:0.460819 12:-0.751078 13:-1 14:-1 15:0.0625248 16:0.40193 17:-1 18:-1 
-0 0 0.2986823468978602 0 0 0 0 0 0 0 0 0 0 0 1:0.2 2:-0.287171 3:-0.187177 4:-1 5:-1 6:-1 7:1 8:-1 9:-1 10:-1 11:0.465866 12:-0.747668 13:-1 14:-1 15:0.0607415 16:0.393587 17:-1 18:-1 
-0 0 0.2674428046940011 0 0 0 0 0 0 0 0 0 0 0 1:0.2 2:-0.262842 3:-0.161585 4:-1 5:-1 6:-1 7:1 8:-1 9:-1 10:-1 11:0.446567 12:-0.710711 13:-1 14:-1 15:0.043212 16:0.278774 17:-1 18:-1 
-0.05880380038694931 0.2697835558809391 0.1735482806534902 1.288905001713299 0.3940088162673449 0.6279153666049644 0.3622322154844512 0.5406459117513884 0.4766423940342392 0.760912905545843 0.7504548530220254 0.7089694552202933 0.8583487688473564 0.8082072356853763 1:0.2 2:-0.180919 3:-0.257084 4:-1 5:-1 6:-1 7:1 8:-1 9:-1 10:-1 11:0.256213 12:-0.636573 13:-1 14:-1 15:0.108989 16:0.230874 17:-1 18:-1 
-0.08064780717674333 0.3775072554948409 0.6908817820908196 1.801670915546776 0.561318121616037 0.8711751967037927 0.5066870354654446 0.7562069868157569 0.6660359091795913 1.062189405989591 0.9046409522070026 1.000892649885095 0.8990793187998851 1.131432732994044 1:0.2 2:-0.191554 3:-0.271082 4:-1 5:-1 6:1 7:-1 8:-1 9:-1 10:-1 11:0.310217 12:-0.630204 13:-1 14:-1 15:0.0849413 16:0.156917 17:-1 18:-1 
-0.05323586611412263 0.2450703565159444 0.3390713812424752 1.167739798768611 0.3413160938642612 0.5577126377765431 0.3281263697747246 0.4894275359355996 0.4317612955902392 0.6674718079597529 0.6210020242684294 0.6464193902515973 0.8690212530586933 0.7305023345457657 1:0.2 2:-0.16063 3:-0.301837 4:-1 5:-1 6:1 7:-1 8:-1 9:-1 10:-1 11:0.0470174 12:-0.616691 13:-1 14:-1 15:0.318742 16:0.315171 17:-1 18:-1 
-0.05653771205378054 0.2627512539743142 0.2789631545197672 1.255818473565468 0.3939170427285907 0.6060934964719238 0.3529364626730876 0.5268736431369446 0.4641532868916585 0.7945303277826052 0.6561180363928427 0.6876191988246152 0.9026461013658172 0.7881241707227509 1:0.2 2:-0.154545 3:-0.316747 4:-1 5:-1 6:1 7:-1 8:-1 9:-1 10:-1 11:-0.104126 12:-0.612395 13:-1 14:-1 15:0.426663 16:0.491162 17:-1 18:-1 
-0.1122284391725556 0.5189706447508703 0.4775252250344201 2.476582523970393 0.7674815746655557 1.202322472703828 0.6956607909145377 1.038976061104277 0.9154936236788145 1.387038831877188 1.259337256033948 1.436166896843527 1.156930608906428 1.554530169886268 1:0.2 2:-0.113575 3:-0.340713 4:-1 5:-1 6:1 7:-1 8:-1 9:-1 10:-1 11:-0.351897 12:-0.607887 13:-1 14:-1 15:0.506292 16:0.781704 17:-1 18:-1 
-0 0 0 0 0 0 0 0 0 33.82799564114374 0 0 0 0 1:-0.2 2:-0.276698 3:-1 4:-1 5:-1 6:1 7:-1 8:-1 9:-1 10:-1 11:-0.800461 12:-1 13:-1 14:-1 15:-0.273667 16:-1 17:-1 18:-1 
-0 0 0 0 0 0 0 0 0 0 2.123621991484233 0 0 0 1:-0.2 2:-0.534237 3:-1 4:-1 5:-1 6:1 7:-1 8:-1 9:-1 10:-1 11:-0.840081 12:-1 13:-1 14:-1 15:-0.505126 16:-1 17:-1 18:-1 
-0 0.2469356689226216 0 0 0 0 0 0.5682655090590495 0 0 0 0 0 0 1:-0.2 2:-0.599534 3:-1 4:-1 5:-1 6:1 7:-1 8:-1 9:-1 10:-1 11:-0.75852 12:-1 13:-1 14:-1 15:-0.603799 16:-1 17:-1 18:-1 
-0.07298303459585337 0 0 40.13236570313157 0.5027714292436023 0.7906433840332204 0.4983001553149363 0 0.6251712403631389 0 0 0.8914821489984325 0.7735443650292768 1.027022957140447 1:-0.2 2:-0.601289 3:-1 4:-1 5:-1 6:1 7:-1 8:-1 9:-1 10:-1 11:-0.750336 12:-1 13:-1 14:-1 15:-0.604908 16:-1 17:-1 18:-1 
-0 0 0 0 0 0 0 0 0 0 13.31488259165932 0 0 0 1:-0.2 2:-0.578968 3:-1 4:-1 5:-1 6:1 7:-1 8:-1 9:-1 10:-1 11:-0.715895 12:-1 13:-1 14:-1 15:-0.534949 16:-1 17:-1 18:-1 
-0 0 0 0 0.07844514448101748 28.57425898335934 0.01100306225715074 0 0.03565729422039101 0 3.777953853528608 10.938984029858 0 85.61158851530379 1:-0.2 2:-0.610601 3:-1 4:-1 5:-1 6:-1 7:1 8:-1 9:-1 10:-1 11:-0.751828 12:-1 13:-1 14:-1 15:-0.609553 16:-1 17:-1 18:-1 
-0 0 0 0 0 0 0 0 0 0 0 0 0 132.6051111189476 1:-0.2 2:-0.619248 3:-1 4:-1 5:-1 6:-1 7:1 8:-1 9:-1 10:-1 11:-0.770117 12:-1 13:-1 14:-1 15:-0.64099 16:-1 17:-1 18:-1 
-8192 8192 8192 8191.982472021074 8192 0 8192 8192 8192 0.001632783620508166 0 8192 0 0 1:-0.6 2:-1 3:-1 4:-1 5:-1 6:1 7:-1 8:-1 9:-1 10:-1 11:-1 12:-1 13:-1 14:-1 15:-1 16:-1 17:-1 18:-1 
-0.08603006442588167 0.3967247079128957 0.3156012686611788 1191.427187430968 0.5126467707100493 0 0.5151696670360928 0.7905696335247641 0.6976674146166759 1.045469421736491 0 0 0.8914866447235834 0 1:-0.2 2:-0.622447 3:-1 4:-1 5:-1 6:-1 7:1 8:-1 9:-1 10:-1 11:-0.788492 12:-1 13:-1 14:-1 15:-0.713808 16:-1 17:-1 18:-1 
-0 0 0 0 0 5.267078434212242 0 0 0 0 0 0 0 0 1:-0.2 2:-0.483684 3:-1 4:-1 5:-1 6:-1 7:1 8:-1 9:-1 10:-1 11:-0.76461 12:-1 13:-1 14:-1 15:-0.6894 16:-1 17:-1 18:-1 
-0.03363230640949042 0.1625067741390837 0.2299329999955004 0 0.3168426910720161 0 0.364157121656577 0.330819238536376 0.2659435841415537 0.4497927919976454 0 0 0.380131812097135 0 1:-0.2 2:-0.416644 3:-1 4:-1 5:-1 6:-1 7:1 8:-1 9:-1 10:-1 11:-0.816658 12:-1 13:-1 14:-1 15:-0.710998 16:-1 17:-1 18:-1 
-8192 8192 8192 8192 8192 1.429382108769505 8192 8192 8192 0 0 8192 0 0 1:-0.6 2:-1 3:-1 4:-1 5:-1 6:1 7:-1 8:-1 9:-1 10:-1 11:-1 12:-1 13:-1 14:-1 15:-1 16:-1 17:-1 18:-1 
-8192 8192 8192 8192 8192 8192 8192 8192 8192 0 0 8192 0 0 1:-0.6 2:-1 3:-1 4:-1 5:-1 6:1 7:-1 8:-1 9:-1 10:-1 11:-1 12:-1 13:-1 14:-1 15:-1 16:-1 17:-1 18:-1 
-8192 8192 8192 8192 8192 8192 8192 8192 8192 0 0 8192 0 0 1:-0.6 2:-1 3:-1 4:-1 5:-1 6:1 7:-1 8:-1 9:-1 10:-1 11:-1 12:-1 13:-1 14:-1 15:-1 16:-1 17:-1 18:-1 
-8192 8192 8192 8192 8192 8192 8192 8192 8192 0 0 8192 0 0 1:-0.6 2:-1 3:-1 4:-1 5:-1 6:1 7:-1 8:-1 9:-1 10:-1 11:-1 12:-1 13:-1 14:-1 15:-1 16:-1 17:-1 18:-1 
-8191.130040841079 8192 8192 8192 8191.943274219481 8191.957650641642 8192 8192 8192 1.604427186394981 1.405246297190803 8192 1.359107603240614 1.802422584207286 1:-0.6 2:-1 3:-1 4:-1 5:-1 6:1 7:-1 8:-1 9:-1 10:-1 11:-1 12:-1 13:-1 14:-1 15:-1 16:-1 17:-1 18:-1 
-0 0 0.06560785813263682 0 0 0 0 0 0 0 0 0 0 0 1:-0.2 2:-0.361672 3:-1 4:-1 5:-1 6:-1 7:1 8:-1 9:-1 10:-1 11:-0.78006 12:-1 13:-1 14:-1 15:-0.593627 16:-1 17:-1 18:-1 
-0.02791150316275103 0.1273987151816464 0 0 0 0 0 0.2548125367328918 0.2334233343625725 0.3165961472891775 0 0 0.272883971774871 0 1:-0.2 2:-0.355726 3:-1 4:-1 5:-1 6:-1 7:1 8:-1 9:-1 10:-1 11:-0.774222 12:-1 13:-1 14:-1 15:-0.56353 16:-1 17:-1 18:-1 
-0 0 0 0 0 0.8802021678956748 0 0 0 0 0 0 0 0 1:-0.2 2:-0.388543 3:-1 4:-1 5:-1 6:-1 7:1 8:-1 9:-1 10:-1 11:-0.761985 12:-1 13:-1 14:-1 15:-0.474573 16:-1 17:-1 18:-1 
-0 0 0 0 0 0 0 0 0 0 0 4.766200454828268 0 0 1:-0.2 2:-0.39217 3:-1 4:-1 5:-1 6:-1 7:1 8:-1 9:-1 10:-1 11:-0.763141 12:-1 13:-1 14:-1 15:-0.430014 16:-1 17:-1 18:-1 
-0 0 0 0 0 0 0 0 0 0 2.512444620230142 0 0 0 1:-0.2 2:-0.384253 3:-1 4:-1 5:-1 6:-1 7:1 8:-1 9:-1 10:-1 11:-0.768237 12:-1 13:-1 14:-1 15:-0.370118 16:-1 17:-1 18:-1 
-0 0 0 0 0.0990593630566611 0 0 0 0 0 0 0 0 0 1:-0.2 2:-0.364998 3:-1 4:-1 5:-1 6:-1 7:1 8:-1 9:-1 10:-1 11:-0.774248 12:-1 13:-1 14:-1 15:-0.300555 16:-1 17:-1 18:-1 
-0.05472461373047562 0.2502911288667271 0 0 0.4547839980916937 0 0 0.4878426247626882 0.4543561268238127 0.6806891573101437 0 0 0.5763923724286272 0 1:-0.2 2:-0.373859 3:-1 4:-1 5:-1 6:-1 7:1 8:-1 9:-1 10:-1 11:-0.789397 12:-1 13:-1 14:-1 15:-0.279259 16:-1 17:-1 18:-1 
-0 0 0 0.2873250713421985 0 0 0 0 0 0 0 0 0 0 1:-0.2 2:-0.357609 3:-1 4:-1 5:-1 6:-1 7:1 8:-1 9:-1 10:-1 11:-0.793761 12:-1 13:-1 14:-1 15:-0.242036 16:-1 17:-1 18:-1 
-0 0 0 32.78538113271963 0 0 0 0 0 0 0 0 0 0 1:-0.2 2:-0.347018 3:-1 4:-1 5:-1 6:-1 7:1 8:-1 9:-1 10:-1 11:-0.795371 12:-1 13:-1 14:-1 15:-0.209224 16:-1 17:-1 18:-1 
-0 0 0 3.940527933192536 0.4319542416333008 0 0 0 0 0 0 0 0 0 1:-0.2 2:-0.341845 3:-1 4:-1 5:-1 6:-1 7:1 8:-1 9:-1 10:-1 11:-0.794004 12:-1 13:-1 14:-1 15:-0.180628 16:-1 17:-1 18:-1 
-0 0 0 1544.547798585564 0 0 0 0 0 0 0 0 0 0 1:-0.2 2:-0.443737 3:-1 4:-1 5:-1 6:1 7:-1 8:-1 9:-1 10:-1 11:-0.697533 12:-1 13:-1 14:-1 15:-0.149288 16:-1 17:-1 18:-1 
-0 0 0 711.5181303842973 0 0 0 0 0 0 0 0 0 0 1:-0.2 2:-0.450417 3:-1 4:-1 5:-1 6:1 7:-1 8:-1 9:-1 10:-1 11:-0.696531 12:-1 13:-1 14:-1 15:-0.171379 16:-1 17:-1 18:-1 
-0 0 0 163.8156697034136 0 0 0 0 0 0 0 0 0 0 1:-0.2 2:-0.425713 3:-1 4:-1 5:-1 6:1 7:-1 8:-1 9:-1 10:-1 11:-0.914945 12:-1 13:-1 14:-1 15:-0.203452 16:-1 17:-1 18:-1 
-0 0 0 0 0.086860609928859 0 0 0.1587072391692313 0 0 0.773974213123809 0 0 0 1:-0.2 2:-0.42298 3:-1 4:-1 5:-1 6:1 7:-1 8:-1 9:-1 10:-1 11:-0.931659 12:-1 13:-1 14:-1 15:-0.200604 16:-1 17:-1 18:-1 
-0.05911826472632974 0 0 0 0.1930634094596338 0.6239329915817013 0.3737872839694775 0.06737685061252041 0.4978381592809322 0 0 0.7241179384354247 0.6256475124576473 0.8302961103203524 1:-0.2 2:-0.420358 3:-1 4:-1 5:-1 6:1 7:-1 8:-1 9:-1 10:-1 11:-0.932088 12:-1 13:-1 14:-1 15:-0.197058 16:-1 17:-1 18:-1 
-0 0 0 0 0 0 0 0 0 169.6447568683791 0 0 0 0 1:-0.2 2:-0.38831 3:-1 4:-1 5:-1 6:1 7:-1 8:-1 9:-1 10:-1 11:-0.826693 12:-1 13:-1 14:-1 15:-0.138836 16:-1 17:-1 18:-1 
-0 0 0 0 0 0 0 0 0 19.58513943417326 0 0 0 0 1:-0.2 2:-0.381325 3:-1 4:-1 5:-1 6:1 7:-1 8:-1 9:-1 10:-1 11:-0.81083 12:-1 13:-1 14:-1 15:-0.120837 16:-1 17:-1 18:-1 
-0 0 8192 0 0 0 0 0 0 0 0 0 0 0 1:-0.2 2:-0.242685 3:-1 4:-1 5:-1 6:1 7:-1 8:-1 9:-1 10:-1 11:-0.737696 12:-1 13:-1 14:-1 15:0.00990872 16:-1 17:-1 18:-1 
-0 0 8192 0 0 0 0 0 0 0 0 0 0 0 1:-0.2 2:-0.235667 3:-1 4:-1 5:-1 6:1 7:-1 8:-1 9:-1 10:-1 11:-0.738615 12:-1 13:-1 14:-1 15:0.00568533 16:-1 17:-1 18:-1 
-0.07019603359239734 0 8192 0 0.7771480937332401 0.7813126646523056 0.4337353115827021 1.158164057491703 0.565148248795361 0 0 0.8477987368608375 0.7303612935862926 0.9678663244054226 1:-0.2 2:-0.230275 3:-1 4:-1 5:-1 6:1 7:-1 8:-1 9:-1 10:-1 11:-0.73984 12:-1 13:-1 14:-1 15:0.00182829 16:-1 17:-1 18:-1 
-0.004366906846622134 0.06861032928313619 0 0 2.706630177048949 0.183825379154081 0 0 0.08590287107382449 0.07497764021154245 0.3548152527561523 0.3381039065119023 0.08631960225006267 0 1:-0.2 2:-0.226649 3:-1 4:-1 5:-1 6:-1 7:1 8:-1 9:-1 10:-1 11:-0.737117 12:-1 13:-1 14:-1 15:-0.00265085 16:-1 17:-1 18:-1 
-0 0 0 0 0 1.613202479603102 0 0 0 0 0 0 0 0 1:-0.2 2:-0.187984 3:-1 4:-1 5:-1 6:-1 7:1 8:-1 9:-1 10:-1 11:-0.744373 12:-1 13:-1 14:-1 15:-0.00736501 16:-1 17:-1 18:-1 
-0.04236332827862802 0.06352949471784204 14.56460316838472 0 0 0 0 0.997558864564705 0.3723215527156314 0.4078595436972294 0.741979513156085 0.6660499536701959 0.2982843286349862 0.5381589174533052 1:-0.2 2:-0.176262 3:-1 4:-1 5:-1 6:-1 7:1 8:-1 9:-1 10:-1 11:-0.752452 12:-1 13:-1 14:-1 15:-0.00469688 16:-1 17:-1 18:-1 
-0 0 0 0 0 0 14.63907471942589 0 0 0 0 0 0 0 1:-0.2 2:-0.174665 3:-1 4:-1 5:-1 6:-1 7:1 8:-1 9:-1 10:-1 11:-0.756256 12:-1 13:-1 14:-1 15:-0.0049319 16:-1 17:-1 18:-1 
-0.06069925798591751 0.3697999380920626 0 0 0 0 0 0.06029201758437853 0.4295326980553065 0.8396340707025819 0 0.1189605127198427 0.7430712047328448 0.981004520614901 1:-0.2 2:-0.168048 3:-1 4:-1 5:-1 6:-1 7:1 8:-1 9:-1 10:-1 11:-0.788708 12:-1 13:-1 14:-1 15:-0.0061761 16:-1 17:-1 18:-1 
-0 0 3306.40163007433 0 0 0 0 0.0254634539042309 0 56.39890269171607 0 0 0 0 1:-0.2 2:-0.230203 3:-1 4:-1 5:-1 6:1 7:-1 8:-1 9:-1 10:-1 11:-0.759896 12:-1 13:-1 14:-1 15:-0.0604926 16:-1 17:-1 18:-1 
-0 0 0 0 0 0 0 0 0 6968.639777708441 0 0 0 0 1:-0.2 2:-0.275249 3:-1 4:-1 5:-1 6:1 7:-1 8:-1 9:-1 10:-1 11:-0.751405 12:-1 13:-1 14:-1 15:-0.107759 16:-1 17:-1 18:-1 
-0 0 0 0 0 0 0 0 0 1880.695258193375 0 0 0 0 1:-0.2 2:-0.297725 3:-1 4:-1 5:-1 6:1 7:-1 8:-1 9:-1 10:-1 11:-0.749802 12:-1 13:-1 14:-1 15:-0.13518 16:-1 17:-1 18:-1 
-0 0.177615257468549 0 0 0 0 0 0 0 0 0 0 0 0 1:-0.2 2:-0.393883 3:-1 4:-1 5:-1 6:1 7:-1 8:-1 9:-1 10:-1 11:-0.934826 12:-1 13:-1 14:-1 15:-0.291065 16:-1 17:-1 18:-1 
-0 0 0 0 0 0 0 0 0 2.730339513498154 0 0 0 0 1:-0.2 2:-0.413873 3:-1 4:-1 5:-1 6:1 7:-1 8:-1 9:-1 10:-1 11:-0.390823 12:-1 13:-1 14:-1 15:-0.365285 16:-1 17:-1 18:-1 
-0 1.439939609497094 0 0 0 0 0 2.271501343197074 0 0 0 0 0 0 1:-0.2 2:-0.414444 3:-1 4:-1 5:-1 6:1 7:-1 8:-1 9:-1 10:-1 11:-0.387495 12:-1 13:-1 14:-1 15:-0.366887 16:-1 17:-1 18:-1 
-0 0 0 0 0 0.9241875065302786 0.5672949889606 0 0.9542158231314568 0 43.66249155172643 0.3561563844344809 0.8690224492819201 1.276006759009864 1:-0.2 2:-0.428262 3:-1 4:-1 5:-1 6:1 7:-1 8:-1 9:-1 10:-1 11:-0.379832 12:-1 13:-1 14:-1 15:-0.387218 16:-1 17:-1 18:-1 
-0.09169385834151234 0 0 0 0.6174299952569376 0.06145370311846965 0 0 0 0 0 0.7577011994878355 0.09287410488788587 0 1:-0.2 2:-0.432122 3:-1 4:-1 5:-1 6:1 7:-1 8:-1 9:-1 10:-1 11:-0.380911 12:-1 13:-1 14:-1 15:-0.392634 16:-1 17:-1 18:-1 
-0 0 0 187.0134721637013 0 0 0 0 0 0 0 0 0 0 1:-0.2 2:-0.447166 3:-1 4:-1 5:-1 6:1 7:-1 8:-1 9:-1 10:-1 11:-0.395982 12:-1 13:-1 14:-1 15:-0.411042 16:-1 17:-1 18:-1 
-0.1661700271076646 -3.700700600648112 2.910949730522556 0 0.9960859314524257 0.9186821181119843 0.5821288681135627 1.615777333914908 0.009627352437931806 2.026337617367638 0 0.9451104539340688 0.8681291641155299 0.9901556866218051 1:-0.2 2:-0.373227 3:-1 4:-1 5:-1 6:1 7:-1 8:-1 9:-1 10:-1 11:-0.321425 12:-1 13:-1 14:-1 15:-0.0349518 16:-1 17:-1 18:-1 
-0 -0 0 29.43035982624767 0 0 0 0 0 0 1.685284967691161 0 0 0 1:-0.2 2:-0.391502 3:-1 4:-1 5:-1 6:1 7:-1 8:-1 9:-1 10:-1 11:-0.295873 12:-1 13:-1 14:-1 15:-0.0743448 16:-1 17:-1 18:-1 
-0 -0 0 0 0 0 0 0 0 0 2.687158961201695 0 0 0 1:-0.2 2:-0.403209 3:-1 4:-1 5:-1 6:1 7:-1 8:-1 9:-1 10:-1 11:-0.271171 12:-1 13:-1 14:-1 15:-0.0970792 16:-1 17:-1 18:-1 
-0.1482084328323452 -0 0 0 0.3816637561469533 0.7517136224612508 0.520266520504841 0.6223768639034574 2.116904991076707 0 0 0.8234567885736888 0.7753111752924218 0.8849356617702118 1:-0.2 2:-0.412194 3:-1 4:-1 5:-1 6:1 7:-1 8:-1 9:-1 10:-1 11:-0.244073 12:-1 13:-1 14:-1 15:-0.115438 16:-1 17:-1 18:-1 
-0 -0 0 0 0 0 1.175380144230964 0 0 0 0 0 0 0 1:-0.6 2:-1 3:-1 4:-1 5:-1 6:1 7:-1 8:-1 9:-1 10:-1 11:-1 12:-1 13:-1 14:-1 15:-1 16:-1 17:-1 18:-1 
-0 -0 0 0 0 0 8192 0 0 0 0 0 0 0 1:-0.6 2:-1 3:-1 4:-1 5:-1 6:1 7:-1 8:-1 9:-1 10:-1 11:-1 12:-1 13:-1 14:-1 15:-1 16:-1 17:-1 18:-1 
-0 -0 0 0 0 0 8192 0 0 0 0 0 0 0 1:-0.6 2:-1 3:-1 4:-1 5:-1 6:1 7:-1 8:-1 9:-1 10:-1 11:-1 12:-1 13:-1 14:-1 15:-1 16:-1 17:-1 18:-1 
-0 -0 0 0 0 0 8192 0 0 0 0 0 0 0 1:-0.6 2:-1 3:-1 4:-1 5:-1 6:1 7:-1 8:-1 9:-1 10:-1 11:-1 12:-1 13:-1 14:-1 15:-1 16:-1 17:-1 18:-1 
-0 -0 0 0 0 0 8192 0 0 0 0 0 0 0 1:-0.6 2:-1 3:-1 4:-1 5:-1 6:1 7:-1 8:-1 9:-1 10:-1 11:-1 12:-1 13:-1 14:-1 15:-1 16:-1 17:-1 18:-1 
-0 -0 0 0 0 0 8192 0 0 0 0 0 0 0 1:-0.6 2:-1 3:-1 4:-1 5:-1 6:1 7:-1 8:-1 9:-1 10:-1 11:-1 12:-1 13:-1 14:-1 15:-1 16:-1 17:-1 18:-1 
-0 -0 0 0 0 0 8192 0 0 0 0 0 0 0 1:-0.6 2:-1 3:-1 4:-1 5:-1 6:1 7:-1 8:-1 9:-1 10:-1 11:-1 12:-1 13:-1 14:-1 15:-1 16:-1 17:-1 18:-1 
-0 -0 0 0 0 0 8192 0 0 0 0 0 0 0 1:-0.6 2:-1 3:-1 4:-1 5:-1 6:1 7:-1 8:-1 9:-1 10:-1 11:-1 12:-1 13:-1 14:-1 15:-1 16:-1 17:-1 18:-1 
-0 -0 0 0 0 0 8192 0 0 0 0 0 0 0 1:-0.6 2:-1 3:-1 4:-1 5:-1 6:1 7:-1 8:-1 9:-1 10:-1 11:-1 12:-1 13:-1 14:-1 15:-1 16:-1 17:-1 18:-1 
-0 -0 0 0 0 0 8192 0 0 0 0 0 0 0 1:-0.6 2:-1 3:-1 4:-1 5:-1 6:1 7:-1 8:-1 9:-1 10:-1 11:-1 12:-1 13:-1 14:-1 15:-1 16:-1 17:-1 18:-1 
-0 -0 0 0 0 0 8192 0 0 0 0 0 0 0 1:-0.6 2:-1 3:-1 4:-1 5:-1 6:1 7:-1 8:-1 9:-1 10:-1 11:-1 12:-1 13:-1 14:-1 15:-1 16:-1 17:-1 18:-1 
-0 -0 0 0 0 0 8192 0 0 0 0 0 0 0 1:-0.6 2:-1 3:-1 4:-1 5:-1 6:1 7:-1 8:-1 9:-1 10:-1 11:-1 12:-1 13:-1 14:-1 15:-1 16:-1 17:-1 18:-1 
-0 -0 0 0 0 0 8192 0 0 0 0 0 0 0 1:-0.6 2:-1 3:-1 4:-1 5:-1 6:1 7:-1 8:-1 9:-1 10:-1 11:-1 12:-1 13:-1 14:-1 15:-1 16:-1 17:-1 18:-1 
-0 -0 0 0 0 0 8192 0 0 0 0 0 0 0 1:-0.6 2:-1 3:-1 4:-1 5:-1 6:1 7:-1 8:-1 9:-1 10:-1 11:-1 12:-1 13:-1 14:-1 15:-1 16:-1 17:-1 18:-1 
-0 -0 0 0 0 0 8192 0 0 0 0 0 0 0 1:-0.6 2:-1 3:-1 4:-1 5:-1 6:1 7:-1 8:-1 9:-1 10:-1 11:-1 12:-1 13:-1 14:-1 15:-1 16:-1 17:-1 18:-1 
-0 -0 0 0 0 0 8192 0 0 0 0 0 0 0 1:-0.6 2:-1 3:-1 4:-1 5:-1 6:1 7:-1 8:-1 9:-1 10:-1 11:-1 12:-1 13:-1 14:-1 15:-1 16:-1 17:-1 18:-1 
-0 -0 0 0 0 0 8192 0 0 0 0 0 0 0 1:-0.6 2:-1 3:-1 4:-1 5:-1 6:1 7:-1 8:-1 9:-1 10:-1 11:-1 12:-1 13:-1 14:-1 15:-1 16:-1 17:-1 18:-1 
-0 -0 0 0 0 0 8192 0 0 0 0 0 0 0 1:-0.6 2:-1 3:-1 4:-1 5:-1 6:1 7:-1 8:-1 9:-1 10:-1 11:-1 12:-1 13:-1 14:-1 15:-1 16:-1 17:-1 18:-1 
-0.2995663326661109 -1.190281056550401 1.585300164806284 0.6837311050273844 1.268502761714073 1.599195482684842 1.04997937441433 2.216890527764436 2.77788758829598 1.409184288496905 1.517137216144854 1.738227721291043 1.565511754641919 1.785694539820233 1:-0.2 2:-0.211116 3:-1 4:-1 5:-1 6:1 7:-1 8:-1 9:-1 10:-1 11:0.108693 12:-1 13:-1 14:-1 15:0.316751 16:-1 17:-1 18:-1 
-0 -0 0 0 0 0 8192 0 0 0 0 0 0 0 1:-0.6 2:-1 3:-1 4:-1 5:-1 6:1 7:-1 8:-1 9:-1 10:-1 11:-1 12:-1 13:-1 14:-1 15:-1 16:-1 17:-1 18:-1 
-0 -0 0 0 0 0 8192 0 0 0 0 0 0 0 1:-0.6 2:-1 3:-1 4:-1 5:-1 6:1 7:-1 8:-1 9:-1 10:-1 11:-1 12:-1 13:-1 14:-1 15:-1 16:-1 17:-1 18:-1 
-0 -0 0 0 0 0 8192 0 0 0 0 0 0 0 1:-0.6 2:-1 3:-1 4:-1 5:-1 6:1 7:-1 8:-1 9:-1 10:-1 11:-1 12:-1 13:-1 14:-1 15:-1 16:-1 17:-1 18:-1 
-0 -0 0 0 0 0 8192 0 0 0 0 0 0 0 1:-0.6 2:-1 3:-1 4:-1 5:-1 6:1 7:-1 8:-1 9:-1 10:-1 11:-1 12:-1 13:-1 14:-1 15:-1 16:-1 17:-1 18:-1 
-0 -0 0 0 0 0 8192 0 0 0 0 0 0 0 1:-0.6 2:-1 3:-1 4:-1 5:-1 6:1 7:-1 8:-1 9:-1 10:-1 11:-1 12:-1 13:-1 14:-1 15:-1 16:-1 17:-1 18:-1 
-0 -0 0 0 0 0 8192 0 0 0 0 0 0 0 1:-0.6 2:-1 3:-1 4:-1 5:-1 6:1 7:-1 8:-1 9:-1 10:-1 11:-1 12:-1 13:-1 14:-1 15:-1 16:-1 17:-1 18:-1 
-0 -0 0 0 0 0 8192 0 0 0 0 0 0 0 1:-0.6 2:-1 3:-1 4:-1 5:-1 6:1 7:-1 8:-1 9:-1 10:-1 11:-1 12:-1 13:-1 14:-1 15:-1 16:-1 17:-1 18:-1 
-0 -0 0 0 0 0 8192 0 0 0 0 0 0 0 1:-0.6 2:-1 3:-1 4:-1 5:-1 6:1 7:-1 8:-1 9:-1 10:-1 11:-1 12:-1 13:-1 14:-1 15:-1 16:-1 17:-1 18:-1 
-0 -0 0 0 0 0 8192 0 0 0 0 0 0 0 1:-0.6 2:-1 3:-1 4:-1 5:-1 6:1 7:-1 8:-1 9:-1 10:-1 11:-1 12:-1 13:-1 14:-1 15:-1 16:-1 17:-1 18:-1 
-0 -0 0 0 0 0 8192 0 0 0 0 0 0 0 1:-0.6 2:-1 3:-1 4:-1 5:-1 6:1 7:-1 8:-1 9:-1 10:-1 11:-1 12:-1 13:-1 14:-1 15:-1 16:-1 17:-1 18:-1 
-0 -0 0 0 0 0 8192 0 0 0 0 0 0 0 1:-0.6 2:-1 3:-1 4:-1 5:-1 6:1 7:-1 8:-1 9:-1 10:-1 11:-1 12:-1 13:-1 14:-1 15:-1 16:-1 17:-1 18:-1 
-0 -0 0 0 0 0 8192 0 0 0 0 0 0 0 1:-0.6 2:-1 3:-1 4:-1 5:-1 6:1 7:-1 8:-1 9:-1 10:-1 11:-1 12:-1 13:-1 14:-1 15:-1 16:-1 17:-1 18:-1 
-0 -0 0 0 0 0 8192 0 0 0 0 0 0 0 1:-0.6 2:-1 3:-1 4:-1 5:-1 6:1 7:-1 8:-1 9:-1 10:-1 11:-1 12:-1 13:-1 14:-1 15:-1 16:-1 17:-1 18:-1 
-0 -0 0 0 0 0 8192 0 0 0 0 0 0 0 1:-0.6 2:-1 3:-1 4:-1 5:-1 6:1 7:-1 8:-1 9:-1 10:-1 11:-1 12:-1 13:-1 14:-1 15:-1 16:-1 17:-1 18:-1 
-0 -0 0 0 0 0 8192 0 0 0 0 0 0 0 1:-0.6 2:-1 3:-1 4:-1 5:-1 6:1 7:-1 8:-1 9:-1 10:-1 11:-1 12:-1 13:-1 14:-1 15:-1 16:-1 17:-1 18:-1 
-0 -0 0 0 0 0 8192 0 0 0 0 0 0 0 1:-0.6 2:-1 3:-1 4:-1 5:-1 6:1 7:-1 8:-1 9:-1 10:-1 11:-1 12:-1 13:-1 14:-1 15:-1 16:-1 17:-1 18:-1 
-0 -0 0 0 0 0 8192 0 0 0 0 0 0 0 1:-0.6 2:-1 3:-1 4:-1 5:-1 6:1 7:-1 8:-1 9:-1 10:-1 11:-1 12:-1 13:-1 14:-1 15:-1 16:-1 17:-1 18:-1 
-0 -0 0 0 0 0 8192 0 0 0 0 0 0 0 1:-0.6 2:-1 3:-1 4:-1 5:-1 6:1 7:-1 8:-1 9:-1 10:-1 11:-1 12:-1 13:-1 14:-1 15:-1 16:-1 17:-1 18:-1 
-0 -0 0 0 0 0 8192 0 0 0 0 0 0 0 1:-0.6 2:-1 3:-1 4:-1 5:-1 6:1 7:-1 8:-1 9:-1 10:-1 11:-1 12:-1 13:-1 14:-1 15:-1 16:-1 17:-1 18:-1 
-0 -0 0 0 0 0 8192 0 0 0 0 0 0 0 1:-0.6 2:-1 3:-1 4:-1 5:-1 6:1 7:-1 8:-1 9:-1 10:-1 11:-1 12:-1 13:-1 14:-1 15:-1 16:-1 17:-1 18:-1 
-0 -0 0 0 0 0 8192 0 0 0 0 0 0 0 1:-0.6 2:-1 3:-1 4:-1 5:-1 6:1 7:-1 8:-1 9:-1 10:-1 11:-1 12:-1 13:-1 14:-1 15:-1 16:-1 17:-1 18:-1 
-0 -0 0 0 0 0 8192 0 0 0 0 0 0 0 1:-0.6 2:-1 3:-1 4:-1 5:-1 6:1 7:-1 8:-1 9:-1 10:-1 11:-1 12:-1 13:-1 14:-1 15:-1 16:-1 17:-1 18:-1 
-0 -0 0 0 0 0 8192 0 0 0 0 0 0 0 1:-0.6 2:-1 3:-1 4:-1 5:-1 6:1 7:-1 8:-1 9:-1 10:-1 11:-1 12:-1 13:-1 14:-1 15:-1 16:-1 17:-1 18:-1 
-0 -0 0 0 0 0 8192 0 0 0 0 0 0 0 1:-0.6 2:-1 3:-1 4:-1 5:-1 6:1 7:-1 8:-1 9:-1 10:-1 11:-1 12:-1 13:-1 14:-1 15:-1 16:-1 17:-1 18:-1 
-0 -0 0 0 0 0 8192 0 0 0 0 0 0 0 1:-0.6 2:-1 3:-1 4:-1 5:-1 6:1 7:-1 8:-1 9:-1 10:-1 11:-1 12:-1 13:-1 14:-1 15:-1 16:-1 17:-1 18:-1 
-0 -0 0 0 0 0 8192 0 0 0 0 0 0 0 1:-0.6 2:-1 3:-1 4:-1 5:-1 6:1 7:-1 8:-1 9:-1 10:-1 11:-1 12:-1 13:-1 14:-1 15:-1 16:-1 17:-1 18:-1 
-0 -0 0 0 0 0 8192 0 0 0 0 0 0 0 1:-0.6 2:-1 3:-1 4:-1 5:-1 6:1 7:-1 8:-1 9:-1 10:-1 11:-1 12:-1 13:-1 14:-1 15:-1 16:-1 17:-1 18:-1 
-0 -0 0 0 0 0 8192 0 0 0 0 0 0 0 1:-0.6 2:-1 3:-1 4:-1 5:-1 6:1 7:-1 8:-1 9:-1 10:-1 11:-1 12:-1 13:-1 14:-1 15:-1 16:-1 17:-1 18:-1 
-0 -0 0 0 0 0 8192 0 0 0 0 0 0 0 1:-0.6 2:-1 3:-1 4:-1 5:-1 6:1 7:-1 8:-1 9:-1 10:-1 11:-1 12:-1 13:-1 14:-1 15:-1 16:-1 17:-1 18:-1 
-0 -0 0 0 0 0 8192 0 0 0 0 0 0 0 1:-0.6 2:-1 3:-1 4:-1 5:-1 6:1 7:-1 8:-1 9:-1 10:-1 11:-1 12:-1 13:-1 14:-1 15:-1 16:-1 17:-1 18:-1 
-0 -0 0 0 0 0 8192 0 0 0 0 0 0 0 1:-0.6 2:-1 3:-1 4:-1 5:-1 6:1 7:-1 8:-1 9:-1 10:-1 11:-1 12:-1 13:-1 14:-1 15:-1 16:-1 17:-1 18:-1 
-0 -0 0 0 0 0 8192 0 0 0 0 0 0 0 1:-0.6 2:-1 3:-1 4:-1 5:-1 6:1 7:-1 8:-1 9:-1 10:-1 11:-1 12:-1 13:-1 14:-1 15:-1 16:-1 17:-1 18:-1 
-0 -0 0 0 0 0 8192 0 0 0 0 0 0 0 1:-0.6 2:-1 3:-1 4:-1 5:-1 6:1 7:-1 8:-1 9:-1 10:-1 11:-1 12:-1 13:-1 14:-1 15:-1 16:-1 17:-1 18:-1 
-0 -0 0 0 0 0 8192 0 0 0 0 0 0 0 1:-0.6 2:-1 3:-1 4:-1 5:-1 6:1 7:-1 8:-1 9:-1 10:-1 11:-1 12:-1 13:-1 14:-1 15:-1 16:-1 17:-1 18:-1 
-0 -0 0 0 0 0 8192 0 0 0 0 0 0 0 1:-0.6 2:-1 3:-1 4:-1 5:-1 6:1 7:-1 8:-1 9:-1 10:-1 11:-1 12:-1 13:-1 14:-1 15:-1 16:-1 17:-1 18:-1 
-0 -0 0 0 0 0 8192 0 0 0 0 0 0 0 1:-0.6 2:-1 3:-1 4:-1 5:-1 6:1 7:-1 8:-1 9:-1 10:-1 11:-1 12:-1 13:-1 14:-1 15:-1 16:-1 17:-1 18:-1 
-0 -0 0 0 0 0 8192 0 0 0 0 0 0 0 1:-0.6 2:-1 3:-1 4:-1 5:-1 6:1 7:-1 8:-1 9:-1 10:-1 11:-1 12:-1 13:-1 14:-1 15:-1 16:-1 17:-1 18:-1 
-0 -0 0 0 0 0 8192 0 0 0 0 0 0 0 1:-0.6 2:-1 3:-1 4:-1 5:-1 6:1 7:-1 8:-1 9:-1 10:-1 11:-1 12:-1 13:-1 14:-1 15:-1 16:-1 17:-1 18:-1 
-0 -0 0 0 0 0 8192 0 0 0 0 0 0 0 1:-0.6 2:-1 3:-1 4:-1 5:-1 6:1 7:-1 8:-1 9:-1 10:-1 11:-1 12:-1 13:-1 14:-1 15:-1 16:-1 17:-1 18:-1 
-0 -0 0 0 0 0 8192 0 0 0 0 0 0 0 1:-0.6 2:-1 3:-1 4:-1 5:-1 6:1 7:-1 8:-1 9:-1 10:-1 11:-1 12:-1 13:-1 14:-1 15:-1 16:-1 17:-1 18:-1 
-0 -0 0 0 0 0 8192 0 0 0 0 0 0 0 1:-0.6 2:-1 3:-1 4:-1 5:-1 6:1 7:-1 8:-1 9:-1 10:-1 11:-1 12:-1 13:-1 14:-1 15:-1 16:-1 17:-1 18:-1 
-0 -0 0 0 0 0 8192 0 0 0 0 0 0 0 1:-0.6 2:-1 3:-1 4:-1 5:-1 6:1 7:-1 8:-1 9:-1 10:-1 11:-1 12:-1 13:-1 14:-1 15:-1 16:-1 17:-1 18:-1 
-0 -0 0 0 0 0 8192 0 0 0 0 0 0 0 1:-0.6 2:-1 3:-1 4:-1 5:-1 6:1 7:-1 8:-1 9:-1 10:-1 11:-1 12:-1 13:-1 14:-1 15:-1 16:-1 17:-1 18:-1 
-0 -0 0 0 0 0 8192 0 0 0 0 0 0 0 1:-0.6 2:-1 3:-1 4:-1 5:-1 6:1 7:-1 8:-1 9:-1 10:-1 11:-1 12:-1 13:-1 14:-1 15:-1 16:-1 17:-1 18:-1 
-0 -0 0 0 0 0 8192 0 0 0 0 0 0 0 1:-0.6 2:-1 3:-1 4:-1 5:-1 6:1 7:-1 8:-1 9:-1 10:-1 11:-1 12:-1 13:-1 14:-1 15:-1 16:-1 17:-1 18:-1 
-0 -0 0 0 0 0 8192 0 0 0 0 0 0 0 1:-0.6 2:-1 3:-1 4:-1 5:-1 6:1 7:-1 8:-1 9:-1 10:-1 11:-1 12:-1 13:-1 14:-1 15:-1 16:-1 17:-1 18:-1 
-0 -0 0 0 0 0 8192 0 0 0 0 0 0 0 1:-0.6 2:-1 3:-1 4:-1 5:-1 6:1 7:-1 8:-1 9:-1 10:-1 11:-1 12:-1 13:-1 14:-1 15:-1 16:-1 17:-1 18:-1 
-0 -0 0 0 0 0 8192 0 0 0 0 0 0 0 1:-0.6 2:-1 3:-1 4:-1 5:-1 6:1 7:-1 8:-1 9:-1 10:-1 11:-1 12:-1 13:-1 14:-1 15:-1 16:-1 17:-1 18:-1 
-0 -0 0 0 0 0 8192 0 0 0 0 0 0 0 1:-0.6 2:-1 3:-1 4:-1 5:-1 6:1 7:-1 8:-1 9:-1 10:-1 11:-1 12:-1 13:-1 14:-1 15:-1 16:-1 17:-1 18:-1 
-0 -0 0 0 0 0 8192 0 0 0 0 0 0 0 1:-0.6 2:-1 3:-1 4:-1 5:-1 6:1 7:-1 8:-1 9:-1 10:-1 11:-1 12:-1 13:-1 14:-1 15:-1 16:-1 17:-1 18:-1 
-0 -0 0 0 0 0 8192 0 0 0 0 0 0 0 1:-0.6 2:-1 3:-1 4:-1 5:-1 6:1 7:-1 8:-1 9:-1 10:-1 11:-1 12:-1 13:-1 14:-1 15:-1 16:-1 17:-1 18:-1 
-0 -0 0 0 0 0 8192 0 0 0 0 0 0 0 1:-0.6 2:-1 3:-1 4:-1 5:-1 6:1 7:-1 8:-1 9:-1 10:-1 11:-1 12:-1 13:-1 14:-1 15:-1 16:-1 17:-1 18:-1 
-0 -0 0 0 0 0 8192 0 0 0 0 0 0 0 1:-0.6 2:-1 3:-1 4:-1 5:-1 6:1 7:-1 8:-1 9:-1 10:-1 11:-1 12:-1 13:-1 14:-1 15:-1 16:-1 17:-1 18:-1 
-0 -0 0 0 0 0 8192 0 0 0 0 0 0 0 1:-0.6 2:-1 3:-1 4:-1 5:-1 6:1 7:-1 8:-1 9:-1 10:-1 11:-1 12:-1 13:-1 14:-1 15:-1 16:-1 17:-1 18:-1 
-0 -0 0 0 0 0 8192 0 0 0 0 0 0 0 1:-0.6 2:-1 3:-1 4:-1 5:-1 6:1 7:-1 8:-1 9:-1 10:-1 11:-1 12:-1 13:-1 14:-1 15:-1 16:-1 17:-1 18:-1 
-0 -0 0 0 0 0 8192 0 0 0 0 0 0 0 1:-0.6 2:-1 3:-1 4:-1 5:-1 6:1 7:-1 8:-1 9:-1 10:-1 11:-1 12:-1 13:-1 14:-1 15:-1 16:-1 17:-1 18:-1 
-0 -0 0 0 0 0 8192 0 0 0 0 0 0 0 1:-0.6 2:-1 3:-1 4:-1 5:-1 6:1 7:-1 8:-1 9:-1 10:-1 11:-1 12:-1 13:-1 14:-1 15:-1 16:-1 17:-1 18:-1 
-0 -0 0 0 0 0 8192 0 0 0 0 0 0 0 1:-0.6 2:-1 3:-1 4:-1 5:-1 6:1 7:-1 8:-1 9:-1 10:-1 11:-1 12:-1 13:-1 14:-1 15:-1 16:-1 17:-1 18:-1 
-0 -0 0 0 0 0 8192 0 0 0 0 0 0 0 1:-0.6 2:-1 3:-1 4:-1 5:-1 6:1 7:-1 8:-1 9:-1 10:-1 11:-1 12:-1 13:-1 14:-1 15:-1 16:-1 17:-1 18:-1 
-0 -0 0 0 0 0 8192 0 0 0 0 0 0 0 1:-0.6 2:-1 3:-1 4:-1 5:-1 6:1 7:-1 8:-1 9:-1 10:-1 11:-1 12:-1 13:-1 14:-1 15:-1 16:-1 17:-1 18:-1 
-0 -0 0 0 0 0 8192 0 0 0 0 0 0 0 1:-0.6 2:-1 3:-1 4:-1 5:-1 6:1 7:-1 8:-1 9:-1 10:-1 11:-1 12:-1 13:-1 14:-1 15:-1 16:-1 17:-1 18:-1 
-0 -0 0 0 0 0 8192 0 0 0 0 0 0 0 1:-0.6 2:-1 3:-1 4:-1 5:-1 6:1 7:-1 8:-1 9:-1 10:-1 11:-1 12:-1 13:-1 14:-1 15:-1 16:-1 17:-1 18:-1 
-0 -0 0 0 0 0 8192 0 0 0 0 0 0 0 1:-0.6 2:-1 3:-1 4:-1 5:-1 6:1 7:-1 8:-1 9:-1 10:-1 11:-1 12:-1 13:-1 14:-1 15:-1 16:-1 17:-1 18:-1 
-0 -0 0 0 0 0 8192 0 0 0 0 0 0 0 1:-0.6 2:-1 3:-1 4:-1 5:-1 6:1 7:-1 8:-1 9:-1 10:-1 11:-1 12:-1 13:-1 14:-1 15:-1 16:-1 17:-1 18:-1 
-0 -0 0 0 0 0 8192 0 0 0 0 0 0 0 1:-0.6 2:-1 3:-1 4:-1 5:-1 6:1 7:-1 8:-1 9:-1 10:-1 11:-1 12:-1 13:-1 14:-1 15:-1 16:-1 17:-1 18:-1 
-0 -0 0 0 0 0 8192 0 0 0 0 0 0 0 1:-0.6 2:-1 3:-1 4:-1 5:-1 6:1 7:-1 8:-1 9:-1 10:-1 11:-1 12:-1 13:-1 14:-1 15:-1 16:-1 17:-1 18:-1 
-0 -0 0 0 0 0 8192 0 0 0 0 0 0 0 1:-0.6 2:-1 3:-1 4:-1 5:-1 6:1 7:-1 8:-1 9:-1 10:-1 11:-1 12:-1 13:-1 14:-1 15:-1 16:-1 17:-1 18:-1 
-0 -0 0 0 0 0 8192 0 0 0 0 0 0 0 1:-0.6 2:-1 3:-1 4:-1 5:-1 6:1 7:-1 8:-1 9:-1 10:-1 11:-1 12:-1 13:-1 14:-1 15:-1 16:-1 17:-1 18:-1 
-0 -0 0 0 0 0 8192 0 0 0 0 0 0 0 1:-0.6 2:-1 3:-1 4:-1 5:-1 6:1 7:-1 8:-1 9:-1 10:-1 11:-1 12:-1 13:-1 14:-1 15:-1 16:-1 17:-1 18:-1 
-0 -0 0 0 0 0 8192 0 0 0 0 0 0 0 1:-0.6 2:-1 3:-1 4:-1 5:-1 6:1 7:-1 8:-1 9:-1 10:-1 11:-1 12:-1 13:-1 14:-1 15:-1 16:-1 17:-1 18:-1 
-0 -0 0 0 0 0 8192 0 0 0 0 0 0 0 1:-0.6 2:-1 3:-1 4:-1 5:-1 6:1 7:-1 8:-1 9:-1 10:-1 11:-1 12:-1 13:-1 14:-1 15:-1 16:-1 17:-1 18:-1 
-0 -0 0 0 0 0 8192 0 0 0 0 0 0 0 1:-0.6 2:-1 3:-1 4:-1 5:-1 6:1 7:-1 8:-1 9:-1 10:-1 11:-1 12:-1 13:-1 14:-1 15:-1 16:-1 17:-1 18:-1 
-0 -0 0 0 0 0 8192 0 0 0 0 0 0 0 1:-0.6 2:-1 3:-1 4:-1 5:-1 6:1 7:-1 8:-1 9:-1 10:-1 11:-1 12:-1 13:-1 14:-1 15:-1 16:-1 17:-1 18:-1 
-0 -0 0 0 0 0 8192 0 0 0 0 0 0 0 1:-0.6 2:-1 3:-1 4:-1 5:-1 6:1 7:-1 8:-1 9:-1 10:-1 11:-1 12:-1 13:-1 14:-1 15:-1 16:-1 17:-1 18:-1 
-0 -0 0 0 0 0 8192 0 0 0 0 0 0 0 1:-0.6 2:-1 3:-1 4:-1 5:-1 6:1 7:-1 8:-1 9:-1 10:-1 11:-1 12:-1 13:-1 14:-1 15:-1 16:-1 17:-1 18:-1 
-0 -0 0 0 0 0 8192 0 0 0 0 0 0 0 1:-0.6 2:-1 3:-1 4:-1 5:-1 6:1 7:-1 8:-1 9:-1 10:-1 11:-1 12:-1 13:-1 14:-1 15:-1 16:-1 17:-1 18:-1 
-0 -0 0 0 0 0 8192 0 0 0 0 0 0 0 1:-0.6 2:-1 3:-1 4:-1 5:-1 6:1 7:-1 8:-1 9:-1 10:-1 11:-1 12:-1 13:-1 14:-1 15:-1 16:-1 17:-1 18:-1 
-0 -0 0 0 0 0 8192 0 0 0 0 0 0 0 1:-0.6 2:-1 3:-1 4:-1 5:-1 6:1 7:-1 8:-1 9:-1 10:-1 11:-1 12:-1 13:-1 14:-1 15:-1 16:-1 17:-1 18:-1 
-0 -0 0 0 0 0 8192 0 0 0 0 0 0 0 1:-0.6 2:-1 3:-1 4:-1 5:-1 6:1 7:-1 8:-1 9:-1 10:-1 11:-1 12:-1 13:-1 14:-1 15:-1 16:-1 17:-1 18:-1 
-0 -0 0 0 0 0 8192 0 0 0 0 0 0 0 1:-0.6 2:-1 3:-1 4:-1 5:-1 6:1 7:-1 8:-1 9:-1 10:-1 11:-1 12:-1 13:-1 14:-1 15:-1 16:-1 17:-1 18:-1 
-0 -0 0 0 0 0 8192 0 0 0 0 0 0 0 1:-0.6 2:-1 3:-1 4:-1 5:-1 6:1 7:-1 8:-1 9:-1 10:-1 11:-1 12:-1 13:-1 14:-1 15:-1 16:-1 17:-1 18:-1 
-0 -0 0 0 0 0 8192 0 0 0 0 0 0 0 1:-0.6 2:-1 3:-1 4:-1 5:-1 6:1 7:-1 8:-1 9:-1 10:-1 11:-1 12:-1 13:-1 14:-1 15:-1 16:-1 17:-1 18:-1 
-0 -0 0 0 0 0 8192 0 0 0 0 0 0 0 1:-0.6 2:-1 3:-1 4:-1 5:-1 6:1 7:-1 8:-1 9:-1 10:-1 11:-1 12:-1 13:-1 14:-1 15:-1 16:-1 17:-1 18:-1 
-0 -0 0 0 0 0 8192 0 0 0 0 0 0 0 1:-0.6 2:-1 3:-1 4:-1 5:-1 6:1 7:-1 8:-1 9:-1 10:-1 11:-1 12:-1 13:-1 14:-1 15:-1 16:-1 17:-1 18:-1 
-0 -0 0 0 0 0 8192 0 0 0 0 0 0 0 1:-0.6 2:-1 3:-1 4:-1 5:-1 6:1 7:-1 8:-1 9:-1 10:-1 11:-1 12:-1 13:-1 14:-1 15:-1 16:-1 17:-1 18:-1 
-0 -0 0 0 0 0 8192 0 0 0 0 0 0 0 1:-0.6 2:-1 3:-1 4:-1 5:-1 6:1 7:-1 8:-1 9:-1 10:-1 11:-1 12:-1 13:-1 14:-1 15:-1 16:-1 17:-1 18:-1 
-0 -0 0 0 0 0 8192 0 0 0 0 0 0 0 1:-0.6 2:-1 3:-1 4:-1 5:-1 6:1 7:-1 8:-1 9:-1 10:-1 11:-1 12:-1 13:-1 14:-1 15:-1 16:-1 17:-1 18:-1 
-0 -0 0 0 0 0 8192 0 0 0 0 0 0 0 1:-0.6 2:-1 3:-1 4:-1 5:-1 6:1 7:-1 8:-1 9:-1 10:-1 11:-1 12:-1 13:-1 14:-1 15:-1 16:-1 17:-1 18:-1 
-0 -0 0 0 0 0 8192 0 0 0 0 0 0 0 1:-0.6 2:-1 3:-1 4:-1 5:-1 6:1 7:-1 8:-1 9:-1 10:-1 11:-1 12:-1 13:-1 14:-1 15:-1 16:-1 17:-1 18:-1 
-0 -0 0 0 0 0 8192 0 0 0 0 0 0 0 1:-0.6 2:-1 3:-1 4:-1 5:-1 6:1 7:-1 8:-1 9:-1 10:-1 11:-1 12:-1 13:-1 14:-1 15:-1 16:-1 17:-1 18:-1 
-0 -0 0 0 0 0 8192 0 0 0 0 0 0 0 1:-0.6 2:-1 3:-1 4:-1 5:-1 6:1 7:-1 8:-1 9:-1 10:-1 11:-1 12:-1 13:-1 14:-1 15:-1 16:-1 17:-1 18:-1 
-0 -0 0 0 0 0 8192 0 0 0 0 0 0 0 1:-0.6 2:-1 3:-1 4:-1 5:-1 6:1 7:-1 8:-1 9:-1 10:-1 11:-1 12:-1 13:-1 14:-1 15:-1 16:-1 17:-1 18:-1 
-0 -0 0 0 0 0 8192 0 0 0 0 0 0 0 1:-0.6 2:-1 3:-1 4:-1 5:-1 6:1 7:-1 8:-1 9:-1 10:-1 11:-1 12:-1 13:-1 14:-1 15:-1 16:-1 17:-1 18:-1 
-0 -0 0 0 0 0 8192 0 0 0 0 0 0 0 1:-0.6 2:-1 3:-1 4:-1 5:-1 6:1 7:-1 8:-1 9:-1 10:-1 11:-1 12:-1 13:-1 14:-1 15:-1 16:-1 17:-1 18:-1 
-0 -0 0 0 0 0 8192 0 0 0 0 0 0 0 1:-0.6 2:-1 3:-1 4:-1 5:-1 6:1 7:-1 8:-1 9:-1 10:-1 11:-1 12:-1 13:-1 14:-1 15:-1 16:-1 17:-1 18:-1 
-0 -0 0 0 0 0 8192 0 0 0 0 0 0 0 1:-0.6 2:-1 3:-1 4:-1 5:-1 6:1 7:-1 8:-1 9:-1 10:-1 11:-1 12:-1 13:-1 14:-1 15:-1 16:-1 17:-1 18:-1 
-0 -0 0 0 0 0 8192 0 0 0 0 0 0 0 1:-0.6 2:-1 3:-1 4:-1 5:-1 6:1 7:-1 8:-1 9:-1 10:-1 11:-1 12:-1 13:-1 14:-1 15:-1 16:-1 17:-1 18:-1 
-0 -0 0 0 0 0 8192 0 0 0 0 0 0 0 1:-0.6 2:-1 3:-1 4:-1 5:-1 6:1 7:-1 8:-1 9:-1 10:-1 11:-1 12:-1 13:-1 14:-1 15:-1 16:-1 17:-1 18:-1 
-0 -0 0 0 0 0 8192 0 0 0 0 0 0 0 1:-0.6 2:-1 3:-1 4:-1 5:-1 6:1 7:-1 8:-1 9:-1 10:-1 11:-1 12:-1 13:-1 14:-1 15:-1 16:-1 17:-1 18:-1 
-0 -0 0 0 0 0 8192 0 0 0 0 0 0 0 1:-0.6 2:-1 3:-1 4:-1 5:-1 6:1 7:-1 8:-1 9:-1 10:-1 11:-1 12:-1 13:-1 14:-1 15:-1 16:-1 17:-1 18:-1 
-0 -0 0 0 0 0 8192 0 0 0 0 0 0 0 1:-0.6 2:-1 3:-1 4:-1 5:-1 6:1 7:-1 8:-1 9:-1 10:-1 11:-1 12:-1 13:-1 14:-1 15:-1 16:-1 17:-1 18:-1 
-0 -0 0 0 0 0 8192 0 0 0 0 0 0 0 1:-0.6 2:-1 3:-1 4:-1 5:-1 6:1 7:-1 8:-1 9:-1 10:-1 11:-1 12:-1 13:-1 14:-1 15:-1 16:-1 17:-1 18:-1 
-0 -0 0 0 0 0 8192 0 0 0 0 0 0 0 1:-0.6 2:-1 3:-1 4:-1 5:-1 6:1 7:-1 8:-1 9:-1 10:-1 11:-1 12:-1 13:-1 14:-1 15:-1 16:-1 17:-1 18:-1 
-0 -0 0 0 0 0 8192 0 0 0 0 0 0 0 1:-0.6 2:-1 3:-1 4:-1 5:-1 6:1 7:-1 8:-1 9:-1 10:-1 11:-1 12:-1 13:-1 14:-1 15:-1 16:-1 17:-1 18:-1 
-0 -0 0 0 0 0 8192 0 0 0 0 0 0 0 1:-0.6 2:-1 3:-1 4:-1 5:-1 6:1 7:-1 8:-1 9:-1 10:-1 11:-1 12:-1 13:-1 14:-1 15:-1 16:-1 17:-1 18:-1 
-0 -0 0 0 0 0 8192 0 0 0 0 0 0 0 1:-0.6 2:-1 3:-1 4:-1 5:-1 6:1 7:-1 8:-1 9:-1 10:-1 11:-1 12:-1 13:-1 14:-1 15:-1 16:-1 17:-1 18:-1 
-0 -0 0 0 0 0 8192 0 0 0 0 0 0 0 1:-0.6 2:-1 3:-1 4:-1 5:-1 6:1 7:-1 8:-1 9:-1 10:-1 11:-1 12:-1 13:-1 14:-1 15:-1 16:-1 17:-1 18:-1 
-0 -0 0 0 0 0 8192 0 0 0 0 0 0 0 1:-0.6 2:-1 3:-1 4:-1 5:-1 6:1 7:-1 8:-1 9:-1 10:-1 11:-1 12:-1 13:-1 14:-1 15:-1 16:-1 17:-1 18:-1 
-0 -0 0 0 0 0 8192 0 0 0 0 0 0 0 1:-0.6 2:-1 3:-1 4:-1 5:-1 6:1 7:-1 8:-1 9:-1 10:-1 11:-1 12:-1 13:-1 14:-1 15:-1 16:-1 17:-1 18:-1 
-0 -0 0 0 0 0 8192 0 0 0 0 0 0 0 1:-0.6 2:-1 3:-1 4:-1 5:-1 6:1 7:-1 8:-1 9:-1 10:-1 11:-1 12:-1 13:-1 14:-1 15:-1 16:-1 17:-1 18:-1 
-0 -0 0 0 0 0 8192 0 0 0 0 0 0 0 1:-0.6 2:-1 3:-1 4:-1 5:-1 6:1 7:-1 8:-1 9:-1 10:-1 11:-1 12:-1 13:-1 14:-1 15:-1 16:-1 17:-1 18:-1 
-0 -0 0 0 0 0 8192 0 0 0 0 0 0 0 1:-0.6 2:-1 3:-1 4:-1 5:-1 6:1 7:-1 8:-1 9:-1 10:-1 11:-1 12:-1 13:-1 14:-1 15:-1 16:-1 17:-1 18:-1 
-0 -0 0 0 0 0 8192 0 0 0 0 0 0 0 1:-0.6 2:-1 3:-1 4:-1 5:-1 6:1 7:-1 8:-1 9:-1 10:-1 11:-1 12:-1 13:-1 14:-1 15:-1 16:-1 17:-1 18:-1 
-0 -0 0 0 0 0 8192 0 0 0 0 0 0 0 1:-0.6 2:-1 3:-1 4:-1 5:-1 6:1 7:-1 8:-1 9:-1 10:-1 11:-1 12:-1 13:-1 14:-1 15:-1 16:-1 17:-1 18:-1 
-0 -0 0 0 0 0 8192 0 0 0 0 0 0 0 1:-0.6 2:-1 3:-1 4:-1 5:-1 6:1 7:-1 8:-1 9:-1 10:-1 11:-1 12:-1 13:-1 14:-1 15:-1 16:-1 17:-1 18:-1 
-0 -0 0 0 0 0 8192 0 0 0 0 0 0 0 1:-0.6 2:-1 3:-1 4:-1 5:-1 6:1 7:-1 8:-1 9:-1 10:-1 11:-1 12:-1 13:-1 14:-1 15:-1 16:-1 17:-1 18:-1 
-0 -0 0 0 0 0 8192 0 0 0 0 0 0 0 1:-0.6 2:-1 3:-1 4:-1 5:-1 6:1 7:-1 8:-1 9:-1 10:-1 11:-1 12:-1 13:-1 14:-1 15:-1 16:-1 17:-1 18:-1 
-0 -0 0 0 0 0 8192 0 0 0 0 0 0 0 1:-0.6 2:-1 3:-1 4:-1 5:-1 6:1 7:-1 8:-1 9:-1 10:-1 11:-1 12:-1 13:-1 14:-1 15:-1 16:-1 17:-1 18:-1 
-0 -0 0 0 0 0 8192 0 0 0 0 0 0 0 1:-0.6 2:-1 3:-1 4:-1 5:-1 6:1 7:-1 8:-1 9:-1 10:-1 11:-1 12:-1 13:-1 14:-1 15:-1 16:-1 17:-1 18:-1 
-0 -0 0 0 0 0 8192 0 0 0 0 0 0 0 1:-0.6 2:-1 3:-1 4:-1 5:-1 6:1 7:-1 8:-1 9:-1 10:-1 11:-1 12:-1 13:-1 14:-1 15:-1 16:-1 17:-1 18:-1 
-0 -0 0 0 0 0 8192 0 0 0 0 0 0 0 1:-0.6 2:-1 3:-1 4:-1 5:-1 6:1 7:-1 8:-1 9:-1 10:-1 11:-1 12:-1 13:-1 14:-1 15:-1 16:-1 17:-1 18:-1 
-0 -0 0 0 0 0 8192 0 0 0 0 0 0 0 1:-0.6 2:-1 3:-1 4:-1 5:-1 6:1 7:-1 8:-1 9:-1 10:-1 11:-1 12:-1 13:-1 14:-1 15:-1 16:-1 17:-1 18:-1 
-0 -0 0 0 0 0 8192 0 0 0 0 0 0 0 1:-0.6 2:-1 3:-1 4:-1 5:-1 6:1 7:-1 8:-1 9:-1 10:-1 11:-1 12:-1 13:-1 14:-1 15:-1 16:-1 17:-1 18:-1 
-0 -0 0 0 0 0 8192 0 0 0 0 0 0 0 1:-0.6 2:-1 3:-1 4:-1 5:-1 6:1 7:-1 8:-1 9:-1 10:-1 11:-1 12:-1 13:-1 14:-1 15:-1 16:-1 17:-1 18:-1 
-0 -0 0 0 0 0 8192 0 0 0 0 0 0 0 1:-0.6 2:-1 3:-1 4:-1 5:-1 6:1 7:-1 8:-1 9:-1 10:-1 11:-1 12:-1 13:-1 14:-1 15:-1 16:-1 17:-1 18:-1 
-0 -0 0 0 0 0 8192 0 0 0 0 0 0 0 1:-0.6 2:-1 3:-1 4:-1 5:-1 6:1 7:-1 8:-1 9:-1 10:-1 11:-1 12:-1 13:-1 14:-1 15:-1 16:-1 17:-1 18:-1 
-0 -0 0 0 0 0 8192 0 0 0 0 0 0 0 1:-0.6 2:-1 3:-1 4:-1 5:-1 6:1 7:-1 8:-1 9:-1 10:-1 11:-1 12:-1 13:-1 14:-1 15:-1 16:-1 17:-1 18:-1 
-0 -0 0 0 0 0 8192 0 0 0 0 0 0 0 1:-0.6 2:-1 3:-1 4:-1 5:-1 6:1 7:-1 8:-1 9:-1 10:-1 11:-1 12:-1 13:-1 14:-1 15:-1 16:-1 17:-1 18:-1 
-0 -0 0 0 0 0 8192 0 0 0 0 0 0 0 1:-0.6 2:-1 3:-1 4:-1 5:-1 6:1 7:-1 8:-1 9:-1 10:-1 11:-1 12:-1 13:-1 14:-1 15:-1 16:-1 17:-1 18:-1 
-0 -0 0 0 0 0 8192 0 0 0 0 0 0 0 1:-0.6 2:-1 3:-1 4:-1 5:-1 6:1 7:-1 8:-1 9:-1 10:-1 11:-1 12:-1 13:-1 14:-1 15:-1 16:-1 17:-1 18:-1 
-0 -0 0 0 0 0 8192 0 0 0 0 0 0 0 1:-0.6 2:-1 3:-1 4:-1 5:-1 6:1 7:-1 8:-1 9:-1 10:-1 11:-1 12:-1 13:-1 14:-1 15:-1 16:-1 17:-1 18:-1 
-0 -0 0 0 0 0 8192 0 0 0 0 0 0 0 1:-0.6 2:-1 3:-1 4:-1 5:-1 6:1 7:-1 8:-1 9:-1 10:-1 11:-1 12:-1 13:-1 14:-1 15:-1 16:-1 17:-1 18:-1 
-0 -0 0 0 0 0 8192 0 0 0 0 0 0 0 1:-0.6 2:-1 3:-1 4:-1 5:-1 6:1 7:-1 8:-1 9:-1 10:-1 11:-1 12:-1 13:-1 14:-1 15:-1 16:-1 17:-1 18:-1 
-0 -0 0 0 0 0 8192 0 0 0 0 0 0 0 1:-0.6 2:-1 3:-1 4:-1 5:-1 6:1 7:-1 8:-1 9:-1 10:-1 11:-1 12:-1 13:-1 14:-1 15:-1 16:-1 17:-1 18:-1 
-0 -0 0 0 0 0 8192 0 0 0 0 0 0 0 1:-0.6 2:-1 3:-1 4:-1 5:-1 6:1 7:-1 8:-1 9:-1 10:-1 11:-1 12:-1 13:-1 14:-1 15:-1 16:-1 17:-1 18:-1 
-0 -0 0 0 0 0 8192 0 0 0 0 0 0 0 1:-0.6 2:-1 3:-1 4:-1 5:-1 6:1 7:-1 8:-1 9:-1 10:-1 11:-1 12:-1 13:-1 14:-1 15:-1 16:-1 17:-1 18:-1 
-0 -0 0 0 0 0 8192 0 0 0 0 0 0 0 1:-0.6 2:-1 3:-1 4:-1 5:-1 6:1 7:-1 8:-1 9:-1 10:-1 11:-1 12:-1 13:-1 14:-1 15:-1 16:-1 17:-1 18:-1 
-0 -0 0 0 0 0 8192 0 0 0 0 0 0 0 1:-0.6 2:-1 3:-1 4:-1 5:-1 6:1 7:-1 8:-1 9:-1 10:-1 11:-1 12:-1 13:-1 14:-1 15:-1 16:-1 17:-1 18:-1 
-0 -0 0 0 0 0 8192 0 0 0 0 0 0 0 1:-0.6 2:-1 3:-1 4:-1 5:-1 6:1 7:-1 8:-1 9:-1 10:-1 11:-1 12:-1 13:-1 14:-1 15:-1 16:-1 17:-1 18:-1 
-0 -0 0 0 0 0 8192 0 0 0 0 0 0 0 1:-0.6 2:-1 3:-1 4:-1 5:-1 6:1 7:-1 8:-1 9:-1 10:-1 11:-1 12:-1 13:-1 14:-1 15:-1 16:-1 17:-1 18:-1 
-0 -0 0 0 0 0 8192 0 0 0 0 0 0 0 1:-0.6 2:-1 3:-1 4:-1 5:-1 6:1 7:-1 8:-1 9:-1 10:-1 11:-1 12:-1 13:-1 14:-1 15:-1 16:-1 17:-1 18:-1 
-0 -0 0 0 0 0 8192 0 0 0 0 0 0 0 1:-0.6 2:-1 3:-1 4:-1 5:-1 6:1 7:-1 8:-1 9:-1 10:-1 11:-1 12:-1 13:-1 14:-1 15:-1 16:-1 17:-1 18:-1 
-0 -0 0 0 0 0 8192 0 0 0 0 0 0 0 1:-0.6 2:-1 3:-1 4:-1 5:-1 6:1 7:-1 8:-1 9:-1 10:-1 11:-1 12:-1 13:-1 14:-1 15:-1 16:-1 17:-1 18:-1 
-0 -0 0 0 0 0 8192 0 0 0 0 0 0 0 1:-0.6 2:-1 3:-1 4:-1 5:-1 6:1 7:-1 8:-1 9:-1 10:-1 11:-1 12:-1 13:-1 14:-1 15:-1 16:-1 17:-1 18:-1 
-0 -0 0 0 0 0 8192 0 0 0 0 0 0 0 1:-0.6 2:-1 3:-1 4:-1 5:-1 6:1 7:-1 8:-1 9:-1 10:-1 11:-1 12:-1 13:-1 14:-1 15:-1 16:-1 17:-1 18:-1 
-0 -0 0 0 0 0 8192 0 0 0 0 0 0 0 1:-0.6 2:-1 3:-1 4:-1 5:-1 6:1 7:-1 8:-1 9:-1 10:-1 11:-1 12:-1 13:-1 14:-1 15:-1 16:-1 17:-1 18:-1 
-0 -0 0 0 0 0 8192 0 0 0 0 0 0 0 1:-0.6 2:-1 3:-1 4:-1 5:-1 6:1 7:-1 8:-1 9:-1 10:-1 11:-1 12:-1 13:-1 14:-1 15:-1 16:-1 17:-1 18:-1 
-0 -0 0 0 0 0 8192 0 0 0 0 0 0 0 1:-0.6 2:-1 3:-1 4:-1 5:-1 6:1 7:-1 8:-1 9:-1 10:-1 11:-1 12:-1 13:-1 14:-1 15:-1 16:-1 17:-1 18:-1 
-0 -0 0 0 0 0 8192 0 0 0 0 0 0 0 1:-0.6 2:-1 3:-1 4:-1 5:-1 6:1 7:-1 8:-1 9:-1 10:-1 11:-1 12:-1 13:-1 14:-1 15:-1 16:-1 17:-1 18:-1 
-0 -0 0 0 0 0 8192 0 0 0 0 0 0 0 1:-0.6 2:-1 3:-1 4:-1 5:-1 6:1 7:-1 8:-1 9:-1 10:-1 11:-1 12:-1 13:-1 14:-1 15:-1 16:-1 17:-1 18:-1 
-0 -0 0 0 0 0 8192 0 0 0 0 0 0 0 1:-0.6 2:-1 3:-1 4:-1 5:-1 6:1 7:-1 8:-1 9:-1 10:-1 11:-1 12:-1 13:-1 14:-1 15:-1 16:-1 17:-1 18:-1 
-0 -0 0 0 0 0 8192 0 0 0 0 0 0 0 1:-0.6 2:-1 3:-1 4:-1 5:-1 6:1 7:-1 8:-1 9:-1 10:-1 11:-1 12:-1 13:-1 14:-1 15:-1 16:-1 17:-1 18:-1 
-0 -0 0 0 0 0 8192 0 0 0 0 0 0 0 1:-0.6 2:-1 3:-1 4:-1 5:-1 6:1 7:-1 8:-1 9:-1 10:-1 11:-1 12:-1 13:-1 14:-1 15:-1 16:-1 17:-1 18:-1 
-0 -0 0 0 0 0 8192 0 0 0 0 0 0 0 1:-0.6 2:-1 3:-1 4:-1 5:-1 6:1 7:-1 8:-1 9:-1 10:-1 11:-1 12:-1 13:-1 14:-1 15:-1 16:-1 17:-1 18:-1 
-0 -0 0 0 0 0 8192 0 0 0 0 0 0 0 1:-0.6 2:-1 3:-1 4:-1 5:-1 6:1 7:-1 8:-1 9:-1 10:-1 11:-1 12:-1 13:-1 14:-1 15:-1 16:-1 17:-1 18:-1 
-0 -0 0 0 0 0 8192 0 0 0 0 0 0 0 1:-0.6 2:-1 3:-1 4:-1 5:-1 6:1 7:-1 8:-1 9:-1 10:-1 11:-1 12:-1 13:-1 14:-1 15:-1 16:-1 17:-1 18:-1 
-0 -0 0 0 0 0 8192 0 0 0 0 0 0 0 1:-0.6 2:-1 3:-1 4:-1 5:-1 6:1 7:-1 8:-1 9:-1 10:-1 11:-1 12:-1 13:-1 14:-1 15:-1 16:-1 17:-1 18:-1 
-0 -0 0 0 0 0 8192 0 0 0 0 0 0 0 1:-0.6 2:-1 3:-1 4:-1 5:-1 6:1 7:-1 8:-1 9:-1 10:-1 11:-1 12:-1 13:-1 14:-1 15:-1 16:-1 17:-1 18:-1 
-0 -0 0 0 0 0 8192 0 0 0 0 0 0 0 1:-0.6 2:-1 3:-1 4:-1 5:-1 6:1 7:-1 8:-1 9:-1 10:-1 11:-1 12:-1 13:-1 14:-1 15:-1 16:-1 17:-1 18:-1 
-0 -0 0 0 0 0 8192 0 0 0 0 0 0 0 1:-0.6 2:-1 3:-1 4:-1 5:-1 6:1 7:-1 8:-1 9:-1 10:-1 11:-1 12:-1 13:-1 14:-1 15:-1 16:-1 17:-1 18:-1 
-0 -0 0 0 0 0 8192 0 0 0 0 0 0 0 1:-0.6 2:-1 3:-1 4:-1 5:-1 6:1 7:-1 8:-1 9:-1 10:-1 11:-1 12:-1 13:-1 14:-1 15:-1 16:-1 17:-1 18:-1 
-0 -0 0 0 0 0 8192 0 0 0 0 0 0 0 1:-0.6 2:-1 3:-1 4:-1 5:-1 6:1 7:-1 8:-1 9:-1 10:-1 11:-1 12:-1 13:-1 14:-1 15:-1 16:-1 17:-1 18:-1 
-0 -0 0 0 0 0 8192 0 0 0 0 0 0 0 1:-0.6 2:-1 3:-1 4:-1 5:-1 6:1 7:-1 8:-1 9:-1 10:-1 11:-1 12:-1 13:-1 14:-1 15:-1 16:-1 17:-1 18:-1 
-0 -0 0 0 0 0 8192 0 0 0 0 0 0 0 1:-0.6 2:-1 3:-1 4:-1 5:-1 6:1 7:-1 8:-1 9:-1 10:-1 11:-1 12:-1 13:-1 14:-1 15:-1 16:-1 17:-1 18:-1 
-0 -0 0 0 0 0 8192 0 0 0 0 0 0 0 1:-0.6 2:-1 3:-1 4:-1 5:-1 6:1 7:-1 8:-1 9:-1 10:-1 11:-1 12:-1 13:-1 14:-1 15:-1 16:-1 17:-1 18:-1 
-0 -0 0 0 0 0 8192 0 0 0 0 0 0 0 1:-0.6 2:-1 3:-1 4:-1 5:-1 6:1 7:-1 8:-1 9:-1 10:-1 11:-1 12:-1 13:-1 14:-1 15:-1 16:-1 17:-1 18:-1 
-0 -0 0 0 0 0 8192 0 0 0 0 0 0 0 1:-0.6 2:-1 3:-1 4:-1 5:-1 6:1 7:-1 8:-1 9:-1 10:-1 11:-1 12:-1 13:-1 14:-1 15:-1 16:-1 17:-1 18:-1 
-0 -0 0 0 0 0 8192 0 0 0 0 0 0 0 1:-0.6 2:-1 3:-1 4:-1 5:-1 6:1 7:-1 8:-1 9:-1 10:-1 11:-1 12:-1 13:-1 14:-1 15:-1 16:-1 17:-1 18:-1 
-0 -0 0 0 0 0 8192 0 0 0 0 0 0 0 1:-0.6 2:-1 3:-1 4:-1 5:-1 6:1 7:-1 8:-1 9:-1 10:-1 11:-1 12:-1 13:-1 14:-1 15:-1 16:-1 17:-1 18:-1 
-0 -0 0 0 0 0 8192 0 0 0 0 0 0 0 1:-0.6 2:-1 3:-1 4:-1 5:-1 6:1 7:-1 8:-1 9:-1 10:-1 11:-1 12:-1 13:-1 14:-1 15:-1 16:-1 17:-1 18:-1 
-0 -0 0 0 0 0 8192 0 0 0 0 0 0 0 1:-0.6 2:-1 3:-1 4:-1 5:-1 6:1 7:-1 8:-1 9:-1 10:-1 11:-1 12:-1 13:-1 14:-1 15:-1 16:-1 17:-1 18:-1 
-0 -0 0 0 0 0 8192 0 0 0 0 0 0 0 1:-0.6 2:-1 3:-1 4:-1 5:-1 6:1 7:-1 8:-1 9:-1 10:-1 11:-1 12:-1 13:-1 14:-1 15:-1 16:-1 17:-1 18:-1 
-0 -0 0 0 0 0 8192 0 0 0 0 0 0 0 1:-0.6 2:-1 3:-1 4:-1 5:-1 6:1 7:-1 8:-1 9:-1 10:-1 11:-1 12:-1 13:-1 14:-1 15:-1 16:-1 17:-1 18:-1 
-0 -0 0 0 0 0 8192 0 0 0 0 0 0 0 1:-0.6 2:-1 3:-1 4:-1 5:-1 6:1 7:-1 8:-1 9:-1 10:-1 11:-1 12:-1 13:-1 14:-1 15:-1 16:-1 17:-1 18:-1 
-0 -0 0 0 0 0 8192 0 0 0 0 0 0 0 1:-0.6 2:-1 3:-1 4:-1 5:-1 6:1 7:-1 8:-1 9:-1 10:-1 11:-1 12:-1 13:-1 14:-1 15:-1 16:-1 17:-1 18:-1 
-0 -0 0 0 0 0 8192 0 0 0 0 0 0 0 1:-0.6 2:-1 3:-1 4:-1 5:-1 6:1 7:-1 8:-1 9:-1 10:-1 11:-1 12:-1 13:-1 14:-1 15:-1 16:-1 17:-1 18:-1 
-0 -0 0 0 0 0 8192 0 0 0 0 0 0 0 1:-0.6 2:-1 3:-1 4:-1 5:-1 6:1 7:-1 8:-1 9:-1 10:-1 11:-1 12:-1 13:-1 14:-1 15:-1 16:-1 17:-1 18:-1 
-0 -0 0 0 0 0 8192 0 0 0 0 0 0 0 1:-0.6 2:-1 3:-1 4:-1 5:-1 6:1 7:-1 8:-1 9:-1 10:-1 11:-1 12:-1 13:-1 14:-1 15:-1 16:-1 17:-1 18:-1 
-0 -0 0 0 0 0 8192 0 0 0 0 0 0 0 1:-0.6 2:-1 3:-1 4:-1 5:-1 6:1 7:-1 8:-1 9:-1 10:-1 11:-1 12:-1 13:-1 14:-1 15:-1 16:-1 17:-1 18:-1 
-0 -0 0 0 0 0 8192 0 0 0 0 0 0 0 1:-0.6 2:-1 3:-1 4:-1 5:-1 6:1 7:-1 8:-1 9:-1 10:-1 11:-1 12:-1 13:-1 14:-1 15:-1 16:-1 17:-1 18:-1 
-0 -0 0 0 0 0 8192 0 0 0 0 0 0 0 1:-0.6 2:-1 3:-1 4:-1 5:-1 6:1 7:-1 8:-1 9:-1 10:-1 11:-1 12:-1 13:-1 14:-1 15:-1 16:-1 17:-1 18:-1 
-0 -0 0 0 0 0 8192 0 0 0 0 0 0 0 1:-0.6 2:-1 3:-1 4:-1 5:-1 6:1 7:-1 8:-1 9:-1 10:-1 11:-1 12:-1 13:-1 14:-1 15:-1 16:-1 17:-1 18:-1 
-0 -0 0 0 0 0 8192 0 0 0 0 0 0 0 1:-0.6 2:-1 3:-1 4:-1 5:-1 6:1 7:-1 8:-1 9:-1 10:-1 11:-1 12:-1 13:-1 14:-1 15:-1 16:-1 17:-1 18:-1 
-0 -0 0 0 0 0 8192 0 0 0 0 0 0 0 1:-0.6 2:-1 3:-1 4:-1 5:-1 6:1 7:-1 8:-1 9:-1 10:-1 11:-1 12:-1 13:-1 14:-1 15:-1 16:-1 17:-1 18:-1 
-0 -0 0 0 0 0 8192 0 0 0 0 0 0 0 1:-0.6 2:-1 3:-1 4:-1 5:-1 6:1 7:-1 8:-1 9:-1 10:-1 11:-1 12:-1 13:-1 14:-1 15:-1 16:-1 17:-1 18:-1 
-0 -0 0 0 0 0 8192 0 0 0 0 0 0 0 1:-0.6 2:-1 3:-1 4:-1 5:-1 6:1 7:-1 8:-1 9:-1 10:-1 11:-1 12:-1 13:-1 14:-1 15:-1 16:-1 17:-1 18:-1 
-0 -0 0 0 0 0 8192 0 0 0 0 0 0 0 1:-0.6 2:-1 3:-1 4:-1 5:-1 6:1 7:-1 8:-1 9:-1 10:-1 11:-1 12:-1 13:-1 14:-1 15:-1 16:-1 17:-1 18:-1 
-0 -0 0 0 0 0 8192 0 0 0 0 0 0 0 1:-0.6 2:-1 3:-1 4:-1 5:-1 6:1 7:-1 8:-1 9:-1 10:-1 11:-1 12:-1 13:-1 14:-1 15:-1 16:-1 17:-1 18:-1 
-0 -0 0 0 0 0 8192 0 0 0 0 0 0 0 1:-0.6 2:-1 3:-1 4:-1 5:-1 6:1 7:-1 8:-1 9:-1 10:-1 11:-1 12:-1 13:-1 14:-1 15:-1 16:-1 17:-1 18:-1 
-0 -0 0 0 0 0 8192 0 0 0 0 0 0 0 1:-0.6 2:-1 3:-1 4:-1 5:-1 6:1 7:-1 8:-1 9:-1 10:-1 11:-1 12:-1 13:-1 14:-1 15:-1 16:-1 17:-1 18:-1 
-0 -0 0 0 0 0 8192 0 0 0 0 0 0 0 1:-0.6 2:-1 3:-1 4:-1 5:-1 6:1 7:-1 8:-1 9:-1 10:-1 11:-1 12:-1 13:-1 14:-1 15:-1 16:-1 17:-1 18:-1 
-0 -0 0 0 0 0 8192 0 0 0 0 0 0 0 1:-0.6 2:-1 3:-1 4:-1 5:-1 6:1 7:-1 8:-1 9:-1 10:-1 11:-1 12:-1 13:-1 14:-1 15:-1 16:-1 17:-1 18:-1 
-0 -0 0 0 0 0 8192 0 0 0 0 0 0 0 1:-0.6 2:-1 3:-1 4:-1 5:-1 6:1 7:-1 8:-1 9:-1 10:-1 11:-1 12:-1 13:-1 14:-1 15:-1 16:-1 17:-1 18:-1 
-0 -0 0 0 0 0 8192 0 0 0 0 0 0 0 1:-0.6 2:-1 3:-1 4:-1 5:-1 6:1 7:-1 8:-1 9:-1 10:-1 11:-1 12:-1 13:-1 14:-1 15:-1 16:-1 17:-1 18:-1 
-0 -0 0 0 0 0 8192 0 0 0 0 0 0 0 1:-0.6 2:-1 3:-1 4:-1 5:-1 6:1 7:-1 8:-1 9:-1 10:-1 11:-1 12:-1 13:-1 14:-1 15:-1 16:-1 17:-1 18:-1 
-0 -0 0 0 0 0 8192 0 0 0 0 0 0 0 1:-0.6 2:-1 3:-1 4:-1 5:-1 6:1 7:-1 8:-1 9:-1 10:-1 11:-1 12:-1 13:-1 14:-1 15:-1 16:-1 17:-1 18:-1 
-0 -0 0 0 0 0 8192 0 0 0 0 0 0 0 1:-0.6 2:-1 3:-1 4:-1 5:-1 6:1 7:-1 8:-1 9:-1 10:-1 11:-1 12:-1 13:-1 14:-1 15:-1 16:-1 17:-1 18:-1 
-0 -0 0 0 0 0 8192 0 0 0 0 0 0 0 1:-0.6 2:-1 3:-1 4:-1 5:-1 6:1 7:-1 8:-1 9:-1 10:-1 11:-1 12:-1 13:-1 14:-1 15:-1 16:-1 17:-1 18:-1 
-0 -0 0 0 0 0 8192 0 0 0 0 0 0 0 1:-0.6 2:-1 3:-1 4:-1 5:-1 6:1 7:-1 8:-1 9:-1 10:-1 11:-1 12:-1 13:-1 14:-1 15:-1 16:-1 17:-1 18:-1 
-0 -0 0 0 0 0 8192 0 0 0 0 0 0 0 1:-0.6 2:-1 3:-1 4:-1 5:-1 6:1 7:-1 8:-1 9:-1 10:-1 11:-1 12:-1 13:-1 14:-1 15:-1 16:-1 17:-1 18:-1 
-0 -0 0 0 0 0 8192 0 0 0 0 0 0 0 1:-0.6 2:-1 3:-1 4:-1 5:-1 6:1 7:-1 8:-1 9:-1 10:-1 11:-1 12:-1 13:-1 14:-1 15:-1 16:-1 17:-1 18:-1 
-0 -0 0 0 0 0 8192 0 0 0 0 0 0 0 1:-0.6 2:-1 3:-1 4:-1 5:-1 6:1 7:-1 8:-1 9:-1 10:-1 11:-1 12:-1 13:-1 14:-1 15:-1 16:-1 17:-1 18:-1 
-0 -0 0 0 0 0 8192 0 0 0 0 0 0 0 1:-0.6 2:-1 3:-1 4:-1 5:-1 6:1 7:-1 8:-1 9:-1 10:-1 11:-1 12:-1 13:-1 14:-1 15:-1 16:-1 17:-1 18:-1 
-0 -0 0 0 0 0 8192 0 0 0 0 0 0 0 1:-0.6 2:-1 3:-1 4:-1 5:-1 6:1 7:-1 8:-1 9:-1 10:-1 11:-1 12:-1 13:-1 14:-1 15:-1 16:-1 17:-1 18:-1 
-0 -0 0 0 0 0 8192 0 0 0 0 0 0 0 1:-0.6 2:-1 3:-1 4:-1 5:-1 6:1 7:-1 8:-1 9:-1 10:-1 11:-1 12:-1 13:-1 14:-1 15:-1 16:-1 17:-1 18:-1 
-0 -0 0 0 0 0 8192 0 0 0 0 0 0 0 1:-0.6 2:-1 3:-1 4:-1 5:-1 6:1 7:-1 8:-1 9:-1 10:-1 11:-1 12:-1 13:-1 14:-1 15:-1 16:-1 17:-1 18:-1 
-0 -0 0 0 0 0 8192 0 0 0 0 0 0 0 1:-0.6 2:-1 3:-1 4:-1 5:-1 6:1 7:-1 8:-1 9:-1 10:-1 11:-1 12:-1 13:-1 14:-1 15:-1 16:-1 17:-1 18:-1 
-0 -0 0 0 0 0 8192 0 0 0 0 0 0 0 1:-0.6 2:-1 3:-1 4:-1 5:-1 6:1 7:-1 8:-1 9:-1 10:-1 11:-1 12:-1 13:-1 14:-1 15:-1 16:-1 17:-1 18:-1 
-0 -0 0 0 0 0 8192 0 0 0 0 0 0 0 1:-0.6 2:-1 3:-1 4:-1 5:-1 6:1 7:-1 8:-1 9:-1 10:-1 11:-1 12:-1 13:-1 14:-1 15:-1 16:-1 17:-1 18:-1 
-0 -0 0 0 0 0 8192 0 0 0 0 0 0 0 1:-0.6 2:-1 3:-1 4:-1 5:-1 6:1 7:-1 8:-1 9:-1 10:-1 11:-1 12:-1 13:-1 14:-1 15:-1 16:-1 17:-1 18:-1 
-0 -0 0 0 0 0 8192 0 0 0 0 0 0 0 1:-0.6 2:-1 3:-1 4:-1 5:-1 6:1 7:-1 8:-1 9:-1 10:-1 11:-1 12:-1 13:-1 14:-1 15:-1 16:-1 17:-1 18:-1 
-0 -0 0 0 0 0 8192 0 0 0 0 0 0 0 1:-0.6 2:-1 3:-1 4:-1 5:-1 6:1 7:-1 8:-1 9:-1 10:-1 11:-1 12:-1 13:-1 14:-1 15:-1 16:-1 17:-1 18:-1 
-0 -0 0 0 0 0 8192 0 0 0 0 0 0 0 1:-0.6 2:-1 3:-1 4:-1 5:-1 6:1 7:-1 8:-1 9:-1 10:-1 11:-1 12:-1 13:-1 14:-1 15:-1 16:-1 17:-1 18:-1 
-0 -0 0 0 0 0 8192 0 0 0 0 0 0 0 1:-0.6 2:-1 3:-1 4:-1 5:-1 6:1 7:-1 8:-1 9:-1 10:-1 11:-1 12:-1 13:-1 14:-1 15:-1 16:-1 17:-1 18:-1 
-0 -0 0 0 0 0 8192 0 0 0 0 0 0 0 1:-0.6 2:-1 3:-1 4:-1 5:-1 6:1 7:-1 8:-1 9:-1 10:-1 11:-1 12:-1 13:-1 14:-1 15:-1 16:-1 17:-1 18:-1 
-0 -0 0 0 0 0 8192 0 0 0 0 0 0 0 1:-0.6 2:-1 3:-1 4:-1 5:-1 6:1 7:-1 8:-1 9:-1 10:-1 11:-1 12:-1 13:-1 14:-1 15:-1 16:-1 17:-1 18:-1 
-0 -0 0 0 0 0 8192 0 0 0 0 0 0 0 1:-0.6 2:-1 3:-1 4:-1 5:-1 6:1 7:-1 8:-1 9:-1 10:-1 11:-1 12:-1 13:-1 14:-1 15:-1 16:-1 17:-1 18:-1 
-0 -0 0 0 0 0 8192 0 0 0 0 0 0 0 1:-0.6 2:-1 3:-1 4:-1 5:-1 6:1 7:-1 8:-1 9:-1 10:-1 11:-1 12:-1 13:-1 14:-1 15:-1 16:-1 17:-1 18:-1 
-0 -0 0 0 0 0 8192 0 0 0 0 0 0 0 1:-0.6 2:-1 3:-1 4:-1 5:-1 6:1 7:-1 8:-1 9:-1 10:-1 11:-1 12:-1 13:-1 14:-1 15:-1 16:-1 17:-1 18:-1 
-0 -0 0 0 0 0 8192 0 0 0 0 0 0 0 1:-0.6 2:-1 3:-1 4:-1 5:-1 6:1 7:-1 8:-1 9:-1 10:-1 11:-1 12:-1 13:-1 14:-1 15:-1 16:-1 17:-1 18:-1 
-0 -0 0 0 0 0 8192 0 0 0 0 0 0 0 1:-0.6 2:-1 3:-1 4:-1 5:-1 6:1 7:-1 8:-1 9:-1 10:-1 11:-1 12:-1 13:-1 14:-1 15:-1 16:-1 17:-1 18:-1 
-0 -0 0 0 0 0 8192 0 0 0 0 0 0 0 1:-0.6 2:-1 3:-1 4:-1 5:-1 6:1 7:-1 8:-1 9:-1 10:-1 11:-1 12:-1 13:-1 14:-1 15:-1 16:-1 17:-1 18:-1 
-0 -0 0 0 0 0 8192 0 0 0 0 0 0 0 1:-0.6 2:-1 3:-1 4:-1 5:-1 6:1 7:-1 8:-1 9:-1 10:-1 11:-1 12:-1 13:-1 14:-1 15:-1 16:-1 17:-1 18:-1 
-0 -0 0 0 0 0 8192 0 0 0 0 0 0 0 1:-0.6 2:-1 3:-1 4:-1 5:-1 6:1 7:-1 8:-1 9:-1 10:-1 11:-1 12:-1 13:-1 14:-1 15:-1 16:-1 17:-1 18:-1 
-0 -0 0 0 0 0 8192 0 0 0 0 0 0 0 1:-0.6 2:-1 3:-1 4:-1 5:-1 6:1 7:-1 8:-1 9:-1 10:-1 11:-1 12:-1 13:-1 14:-1 15:-1 16:-1 17:-1 18:-1 
-0 -0 0 0 0 0 8192 0 0 0 0 0 0 0 1:-0.6 2:-1 3:-1 4:-1 5:-1 6:1 7:-1 8:-1 9:-1 10:-1 11:-1 12:-1 13:-1 14:-1 15:-1 16:-1 17:-1 18:-1 
-0 -0 0 0 0 0 8192 0 0 0 0 0 0 0 1:-0.6 2:-1 3:-1 4:-1 5:-1 6:1 7:-1 8:-1 9:-1 10:-1 11:-1 12:-1 13:-1 14:-1 15:-1 16:-1 17:-1 18:-1 
-0 -0 0 0 0 0 8192 0 0 0 0 0 0 0 1:-0.6 2:-1 3:-1 4:-1 5:-1 6:1 7:-1 8:-1 9:-1 10:-1 11:-1 12:-1 13:-1 14:-1 15:-1 16:-1 17:-1 18:-1 
-0 -0 0 0 0 0 8192 0 0 0 0 0 0 0 1:-0.6 2:-1 3:-1 4:-1 5:-1 6:1 7:-1 8:-1 9:-1 10:-1 11:-1 12:-1 13:-1 14:-1 15:-1 16:-1 17:-1 18:-1 
-0 -0 0 0 0 0 8192 0 0 0 0 0 0 0 1:-0.6 2:-1 3:-1 4:-1 5:-1 6:1 7:-1 8:-1 9:-1 10:-1 11:-1 12:-1 13:-1 14:-1 15:-1 16:-1 17:-1 18:-1 
-0 -0 0 0 0 0 8192 0 0 0 0 0 0 0 1:-0.6 2:-1 3:-1 4:-1 5:-1 6:1 7:-1 8:-1 9:-1 10:-1 11:-1 12:-1 13:-1 14:-1 15:-1 16:-1 17:-1 18:-1 
-0 -0 0 0 0 0 8192 0 0 0 0 0 0 0 1:-0.6 2:-1 3:-1 4:-1 5:-1 6:1 7:-1 8:-1 9:-1 10:-1 11:-1 12:-1 13:-1 14:-1 15:-1 16:-1 17:-1 18:-1 
-0 -0 0 0 0 0 8192 0 0 0 0 0 0 0 1:-0.6 2:-1 3:-1 4:-1 5:-1 6:1 7:-1 8:-1 9:-1 10:-1 11:-1 12:-1 13:-1 14:-1 15:-1 16:-1 17:-1 18:-1 
-0 -0 0 0 0 0 8192 0 0 0 0 0 0 0 1:-0.6 2:-1 3:-1 4:-1 5:-1 6:1 7:-1 8:-1 9:-1 10:-1 11:-1 12:-1 13:-1 14:-1 15:-1 16:-1 17:-1 18:-1 
-0 -0 0 0 0 0 8192 0 0 0 0 0 0 0 1:-0.6 2:-1 3:-1 4:-1 5:-1 6:1 7:-1 8:-1 9:-1 10:-1 11:-1 12:-1 13:-1 14:-1 15:-1 16:-1 17:-1 18:-1 
-0 -0 0 0 0 0 8192 0 0 0 0 0 0 0 1:-0.6 2:-1 3:-1 4:-1 5:-1 6:1 7:-1 8:-1 9:-1 10:-1 11:-1 12:-1 13:-1 14:-1 15:-1 16:-1 17:-1 18:-1 
-0 -0 0 0 0 0 8192 0 0 0 0 0 0 0 1:-0.6 2:-1 3:-1 4:-1 5:-1 6:1 7:-1 8:-1 9:-1 10:-1 11:-1 12:-1 13:-1 14:-1 15:-1 16:-1 17:-1 18:-1 
-0 -0 0 0 0 0 8192 0 0 0 0 0 0 0 1:-0.6 2:-1 3:-1 4:-1 5:-1 6:1 7:-1 8:-1 9:-1 10:-1 11:-1 12:-1 13:-1 14:-1 15:-1 16:-1 17:-1 18:-1 
-0 -0 0 0 0 0 8192 0 0 0 0 0 0 0 1:-0.6 2:-1 3:-1 4:-1 5:-1 6:1 7:-1 8:-1 9:-1 10:-1 11:-1 12:-1 13:-1 14:-1 15:-1 16:-1 17:-1 18:-1 
-0 -0 0 0 0 0 8192 0 0 0 0 0 0 0 1:-0.6 2:-1 3:-1 4:-1 5:-1 6:1 7:-1 8:-1 9:-1 10:-1 11:-1 12:-1 13:-1 14:-1 15:-1 16:-1 17:-1 18:-1 
-0 -0 0 0 0 0 8192 0 0 0 0 0 0 0 1:-0.6 2:-1 3:-1 4:-1 5:-1 6:1 7:-1 8:-1 9:-1 10:-1 11:-1 12:-1 13:-1 14:-1 15:-1 16:-1 17:-1 18:-1 
-0 -0 0 0 0 0 8192 0 0 0 0 0 0 0 1:-0.6 2:-1 3:-1 4:-1 5:-1 6:1 7:-1 8:-1 9:-1 10:-1 11:-1 12:-1 13:-1 14:-1 15:-1 16:-1 17:-1 18:-1 
-0 -0 0 0 0 0 8192 0 0 0 0 0 0 0 1:-0.6 2:-1 3:-1 4:-1 5:-1 6:1 7:-1 8:-1 9:-1 10:-1 11:-1 12:-1 13:-1 14:-1 15:-1 16:-1 17:-1 18:-1 
-0 -0 0 0 0 0 8192 0 0 0 0 0 0 0 1:-0.6 2:-1 3:-1 4:-1 5:-1 6:1 7:-1 8:-1 9:-1 10:-1 11:-1 12:-1 13:-1 14:-1 15:-1 16:-1 17:-1 18:-1 
-0 -0 0 0 0 0 8192 0 0 0 0 0 0 0 1:-0.6 2:-1 3:-1 4:-1 5:-1 6:1 7:-1 8:-1 9:-1 10:-1 11:-1 12:-1 13:-1 14:-1 15:-1 16:-1 17:-1 18:-1 
-0 -0 0 0 0 0 8192 0 0 0 0 0 0 0 1:-0.6 2:-1 3:-1 4:-1 5:-1 6:1 7:-1 8:-1 9:-1 10:-1 11:-1 12:-1 13:-1 14:-1 15:-1 16:-1 17:-1 18:-1 
-0 -0 0 0 0 0 8192 0 0 0 0 0 0 0 1:-0.6 2:-1 3:-1 4:-1 5:-1 6:1 7:-1 8:-1 9:-1 10:-1 11:-1 12:-1 13:-1 14:-1 15:-1 16:-1 17:-1 18:-1 
-0 -0 0 0 0 0 8192 0 0 0 0 0 0 0 1:-0.6 2:-1 3:-1 4:-1 5:-1 6:1 7:-1 8:-1 9:-1 10:-1 11:-1 12:-1 13:-1 14:-1 15:-1 16:-1 17:-1 18:-1 
-0 -0 0 0 0 0 8192 0 0 0 0 0 0 0 1:-0.6 2:-1 3:-1 4:-1 5:-1 6:1 7:-1 8:-1 9:-1 10:-1 11:-1 12:-1 13:-1 14:-1 15:-1 16:-1 17:-1 18:-1 
-0 -0 0 0 0 0 8192 0 0 0 0 0 0 0 1:-0.6 2:-1 3:-1 4:-1 5:-1 6:1 7:-1 8:-1 9:-1 10:-1 11:-1 12:-1 13:-1 14:-1 15:-1 16:-1 17:-1 18:-1 
-0 -0 0 0 0 0 8192 0 0 0 0 0 0 0 1:-0.6 2:-1 3:-1 4:-1 5:-1 6:1 7:-1 8:-1 9:-1 10:-1 11:-1 12:-1 13:-1 14:-1 15:-1 16:-1 17:-1 18:-1 
-0 -0 0 0 0 0 8192 0 0 0 0 0 0 0 1:-0.6 2:-1 3:-1 4:-1 5:-1 6:1 7:-1 8:-1 9:-1 10:-1 11:-1 12:-1 13:-1 14:-1 15:-1 16:-1 17:-1 18:-1 
-0 -0 0 0 0 0 8192 0 0 0 0 0 0 0 1:-0.6 2:-1 3:-1 4:-1 5:-1 6:1 7:-1 8:-1 9:-1 10:-1 11:-1 12:-1 13:-1 14:-1 15:-1 16:-1 17:-1 18:-1 
-0 -0 0 0 0 0 8192 0 0 0 0 0 0 0 1:-0.6 2:-1 3:-1 4:-1 5:-1 6:1 7:-1 8:-1 9:-1 10:-1 11:-1 12:-1 13:-1 14:-1 15:-1 16:-1 17:-1 18:-1 
-0 -0 0 0 0 0 8192 0 0 0 0 0 0 0 1:-0.6 2:-1 3:-1 4:-1 5:-1 6:1 7:-1 8:-1 9:-1 10:-1 11:-1 12:-1 13:-1 14:-1 15:-1 16:-1 17:-1 18:-1 
-0 -0 0 0 0 0 8192 0 0 0 0 0 0 0 1:-0.6 2:-1 3:-1 4:-1 5:-1 6:1 7:-1 8:-1 9:-1 10:-1 11:-1 12:-1 13:-1 14:-1 15:-1 16:-1 17:-1 18:-1 
-0 -0 0 0 0 0 8192 0 0 0 0 0 0 0 1:-0.6 2:-1 3:-1 4:-1 5:-1 6:1 7:-1 8:-1 9:-1 10:-1 11:-1 12:-1 13:-1 14:-1 15:-1 16:-1 17:-1 18:-1 
-0 -0 0 0 0 0 8192 0 0 0 0 0 0 0 1:-0.6 2:-1 3:-1 4:-1 5:-1 6:1 7:-1 8:-1 9:-1 10:-1 11:-1 12:-1 13:-1 14:-1 15:-1 16:-1 17:-1 18:-1 
-0 -0 0 0 0 0 8192 0 0 0 0 0 0 0 1:-0.6 2:-1 3:-1 4:-1 5:-1 6:1 7:-1 8:-1 9:-1 10:-1 11:-1 12:-1 13:-1 14:-1 15:-1 16:-1 17:-1 18:-1 
-0 -0 0 0 0 0 8192 0 0 0 0 0 0 0 1:-0.6 2:-1 3:-1 4:-1 5:-1 6:1 7:-1 8:-1 9:-1 10:-1 11:-1 12:-1 13:-1 14:-1 15:-1 16:-1 17:-1 18:-1 
-0 -0 0 0 0 0 8192 0 0 0 0 0 0 0 1:-0.6 2:-1 3:-1 4:-1 5:-1 6:1 7:-1 8:-1 9:-1 10:-1 11:-1 12:-1 13:-1 14:-1 15:-1 16:-1 17:-1 18:-1 
-0 -0 0 0 0 0 8192 0 0 0 0 0 0 0 1:-0.6 2:-1 3:-1 4:-1 5:-1 6:1 7:-1 8:-1 9:-1 10:-1 11:-1 12:-1 13:-1 14:-1 15:-1 16:-1 17:-1 18:-1 
-0 -0 0 0 0 0 8192 0 0 0 0 0 0 0 1:-0.6 2:-1 3:-1 4:-1 5:-1 6:1 7:-1 8:-1 9:-1 10:-1 11:-1 12:-1 13:-1 14:-1 15:-1 16:-1 17:-1 18:-1 
-8192 -0 0 0 0 0 0 0 0 0 0 0 0 0 1:-1 2:-1 3:-1 4:-1 5:-1 6:-1 7:-1 8:-1 9:-1 10:-1 11:-1 12:-1 13:-1 14:-1 15:-1 16:-1 17:-1 18:-1 
-8192 -0 0 0 0 0 0 0 0 0 0 0 0 0 1:-1 2:-1 3:-1 4:-1 5:-1 6:-1 7:-1 8:-1 9:-1 10:-1 11:-1 12:-1 13:-1 14:-1 15:-1 16:-1 17:-1 18:-1 
-8192 -0 0 0 0 0 0 0 0 0 0 0 0 0 1:-1 2:-1 3:-1 4:-1 5:-1 6:-1 7:-1 8:-1 9:-1 10:-1 11:-1 12:-1 13:-1 14:-1 15:-1 16:-1 17:-1 18:-1 
-8192 -0 0 0 0 0 0 0 0 0 0 0 0 0 1:-1 2:-1 3:-1 4:-1 5:-1 6:-1 7:-1 8:-1 9:-1 10:-1 11:-1 12:-1 13:-1 14:-1 15:-1 16:-1 17:-1 18:-1 
-8192 -0 0 0 0 0 0 0 0 0 0 0 0 0 1:-1 2:-1 3:-1 4:-1 5:-1 6:-1 7:-1 8:-1 9:-1 10:-1 11:-1 12:-1 13:-1 14:-1 15:-1 16:-1 17:-1 18:-1 
-8192 -0 0 0 0 0 0 0 0 0 0 0 0 0 1:-1 2:-1 3:-1 4:-1 5:-1 6:-1 7:-1 8:-1 9:-1 10:-1 11:-1 12:-1 13:-1 14:-1 15:-1 16:-1 17:-1 18:-1 
-8192 -0 0 0 0 0 0 0 0 0 0 0 0 0 1:-1 2:-1 3:-1 4:-1 5:-1 6:-1 7:-1 8:-1 9:-1 10:-1 11:-1 12:-1 13:-1 14:-1 15:-1 16:-1 17:-1 18:-1 
-8192 -0 0 0 0 0 0 0 0 0 0 0 0 0 1:-1 2:-1 3:-1 4:-1 5:-1 6:-1 7:-1 8:-1 9:-1 10:-1 11:-1 12:-1 13:-1 14:-1 15:-1 16:-1 17:-1 18:-1 
-8192 -0 0 0 0 0 0 0 0 0 0 0 0 0 1:-1 2:-1 3:-1 4:-1 5:-1 6:-1 7:-1 8:-1 9:-1 10:-1 11:-1 12:-1 13:-1 14:-1 15:-1 16:-1 17:-1 18:-1 
-8192 -0 0 0 0 0 0 0 0 0 0 0 0 0 1:-1 2:-1 3:-1 4:-1 5:-1 6:-1 7:-1 8:-1 9:-1 10:-1 11:-1 12:-1 13:-1 14:-1 15:-1 16:-1 17:-1 18:-1 
-8192 -0 0 0 0 0 0 0 0 0 0 0 0 0 1:-1 2:-1 3:-1 4:-1 5:-1 6:-1 7:-1 8:-1 9:-1 10:-1 11:-1 12:-1 13:-1 14:-1 15:-1 16:-1 17:-1 18:-1 
-8192 -0 0 0 0 0 0 0 0 0 0 0 0 0 1:-1 2:-1 3:-1 4:-1 5:-1 6:-1 7:-1 8:-1 9:-1 10:-1 11:-1 12:-1 13:-1 14:-1 15:-1 16:-1 17:-1 18:-1 
-8192 -0 0 0 0 0 0 0 0 0 0 0 0 0 1:-1 2:-1 3:-1 4:-1 5:-1 6:-1 7:-1 8:-1 9:-1 10:-1 11:-1 12:-1 13:-1 14:-1 15:-1 16:-1 17:-1 18:-1 
-8192 -0 0 0 0 0 0 0 0 0 0 0 0 0 1:-1 2:-1 3:-1 4:-1 5:-1 6:-1 7:-1 8:-1 9:-1 10:-1 11:-1 12:-1 13:-1 14:-1 15:-1 16:-1 17:-1 18:-1 
-8192 -0 0 0 0 0 0 0 0 0 0 0 0 0 1:-1 2:-1 3:-1 4:-1 5:-1 6:-1 7:-1 8:-1 9:-1 10:-1 11:-1 12:-1 13:-1 14:-1 15:-1 16:-1 17:-1 18:-1 
-0 -0 0 0 0 0 8192 0 0 0 0 0 0 0 1:-0.6 2:-1 3:-1 4:-1 5:-1 6:1 7:-1 8:-1 9:-1 10:-1 11:-1 12:-1 13:-1 14:-1 15:-1 16:-1 17:-1 18:-1 
-0 -0 0 0 0 0 8192 0 0 0 0 0 0 0 1:-0.6 2:-1 3:-1 4:-1 5:-1 6:1 7:-1 8:-1 9:-1 10:-1 11:-1 12:-1 13:-1 14:-1 15:-1 16:-1 17:-1 18:-1 
-8192 -0 0 0 0 0 0 0 0 0 0 0 0 0 1:-1 2:-1 3:-1 4:-1 5:-1 6:-1 7:-1 8:-1 9:-1 10:-1 11:-1 12:-1 13:-1 14:-1 15:-1 16:-1 17:-1 18:-1 
-8192 -0 0 0 0 0 0 0 0 0 0 0 0 0 1:-1 2:-1 3:-1 4:-1 5:-1 6:-1 7:-1 8:-1 9:-1 10:-1 11:-1 12:-1 13:-1 14:-1 15:-1 16:-1 17:-1 18:-1 
-8192 -0 0 0 0 0 0 0 0 0 0 0 0 0 1:-1 2:-1 3:-1 4:-1 5:-1 6:-1 7:-1 8:-1 9:-1 10:-1 11:-1 12:-1 13:-1 14:-1 15:-1 16:-1 17:-1 18:-1 
-8192 -0 0 0 0 0 0 0 0 0 0 0 0 0 1:-1 2:-1 3:-1 4:-1 5:-1 6:-1 7:-1 8:-1 9:-1 10:-1 11:-1 12:-1 13:-1 14:-1 15:-1 16:-1 17:-1 18:-1 
-8192 -0 0 0 0 0 1.147739406241032 0 0 0 0 0 0 0 1:-1 2:-1 3:-1 4:-1 5:-1 6:-1 7:-1 8:-1 9:-1 10:-1 11:-1 12:-1 13:-1 14:-1 15:-1 16:-1 17:-1 18:-1 
-8192 -0 0 0 0 0 8192 0 0 0 0 0 0 0 1:-1 2:-1 3:-1 4:-1 5:-1 6:-1 7:-1 8:-1 9:-1 10:-1 11:-1 12:-1 13:-1 14:-1 15:-1 16:-1 17:-1 18:-1 
-8192 -0 0 0 0 0 8192 0 0 0 0 0 0 0 1:-1 2:-1 3:-1 4:-1 5:-1 6:-1 7:-1 8:-1 9:-1 10:-1 11:-1 12:-1 13:-1 14:-1 15:-1 16:-1 17:-1 18:-1 
-8192 -0 0 0 0 0 8192 0 0 0 0 0 0 0 1:-1 2:-1 3:-1 4:-1 5:-1 6:-1 7:-1 8:-1 9:-1 10:-1 11:-1 12:-1 13:-1 14:-1 15:-1 16:-1 17:-1 18:-1 
-8192 -0 0 0 0 0 8192 0 0 0 0 0 0 0 1:-1 2:-1 3:-1 4:-1 5:-1 6:-1 7:-1 8:-1 9:-1 10:-1 11:-1 12:-1 13:-1 14:-1 15:-1 16:-1 17:-1 18:-1 
-8192 -0 0 0 0 0 8192 0 0 0 0 0 0 0 1:-1 2:-1 3:-1 4:-1 5:-1 6:-1 7:-1 8:-1 9:-1 10:-1 11:-1 12:-1 13:-1 14:-1 15:-1 16:-1 17:-1 18:-1 
-8192 -0 0 0 0 0 8192 0 0 0 0 0 0 0 1:-1 2:-1 3:-1 4:-1 5:-1 6:-1 7:-1 8:-1 9:-1 10:-1 11:-1 12:-1 13:-1 14:-1 15:-1 16:-1 17:-1 18:-1 
-8192 -0 0 0 0 0 8192 0 0 0 0 0 0 0 1:-1 2:-1 3:-1 4:-1 5:-1 6:-1 7:-1 8:-1 9:-1 10:-1 11:-1 12:-1 13:-1 14:-1 15:-1 16:-1 17:-1 18:-1 
-8192 -0 0 0 0 0 8192 0 0 0 0 0 0 0 1:-1 2:-1 3:-1 4:-1 5:-1 6:-1 7:-1 8:-1 9:-1 10:-1 11:-1 12:-1 13:-1 14:-1 15:-1 16:-1 17:-1 18:-1 
-8192 -0 0 0 0 0 8192 0 0 0 0 0 0 0 1:-1 2:-1 3:-1 4:-1 5:-1 6:-1 7:-1 8:-1 9:-1 10:-1 11:-1 12:-1 13:-1 14:-1 15:-1 16:-1 17:-1 18:-1 
-8192 -0 0 0 0 0 8192 0 0 0 0 0 0 0 1:-1 2:-1 3:-1 4:-1 5:-1 6:-1 7:-1 8:-1 9:-1 10:-1 11:-1 12:-1 13:-1 14:-1 15:-1 16:-1 17:-1 18:-1 
-8192 -0 0 0 0 0 8192 0 0 0 0 0 0 0 1:-1 2:-1 3:-1 4:-1 5:-1 6:-1 7:-1 8:-1 9:-1 10:-1 11:-1 12:-1 13:-1 14:-1 15:-1 16:-1 17:-1 18:-1 
-8192 -0 0 0 0 0 8192 0 0 0 0 0 0 0 1:-1 2:-1 3:-1 4:-1 5:-1 6:-1 7:-1 8:-1 9:-1 10:-1 11:-1 12:-1 13:-1 14:-1 15:-1 16:-1 17:-1 18:-1 
-8192 -0 0 0 0 0 8192 0 0 0 0 0 0 0 1:-1 2:-1 3:-1 4:-1 5:-1 6:-1 7:-1 8:-1 9:-1 10:-1 11:-1 12:-1 13:-1 14:-1 15:-1 16:-1 17:-1 18:-1 
-8192 -0 0 0 0 0 8192 0 0 0 0 0 0 0 1:-1 2:-1 3:-1 4:-1 5:-1 6:-1 7:-1 8:-1 9:-1 10:-1 11:-1 12:-1 13:-1 14:-1 15:-1 16:-1 17:-1 18:-1 
-8192 -0 0 0 0 0 8192 0 0 0 0 0 0 0 1:-1 2:-1 3:-1 4:-1 5:-1 6:-1 7:-1 8:-1 9:-1 10:-1 11:-1 12:-1 13:-1 14:-1 15:-1 16:-1 17:-1 18:-1 
-8192 -0 0 0 0 0 8192 0 0 0 0 0 0 0 1:-1 2:-1 3:-1 4:-1 5:-1 6:-1 7:-1 8:-1 9:-1 10:-1 11:-1 12:-1 13:-1 14:-1 15:-1 16:-1 17:-1 18:-1 
-8192 -0 0 0 0 0 8192 0 0 0 0 0 0 0 1:-1 2:-1 3:-1 4:-1 5:-1 6:-1 7:-1 8:-1 9:-1 10:-1 11:-1 12:-1 13:-1 14:-1 15:-1 16:-1 17:-1 18:-1 
-8192 -0 0 0 0 0 8192 0 0 0 0 0 0 0 1:-1 2:-1 3:-1 4:-1 5:-1 6:-1 7:-1 8:-1 9:-1 10:-1 11:-1 12:-1 13:-1 14:-1 15:-1 16:-1 17:-1 18:-1 
-8192 -0 0 0 0 0 8192 0 0 0 0 0 0 0 1:-1 2:-1 3:-1 4:-1 5:-1 6:-1 7:-1 8:-1 9:-1 10:-1 11:-1 12:-1 13:-1 14:-1 15:-1 16:-1 17:-1 18:-1 
-8192 -1.397006888827067 0 0 0 0 8192 0 0 0 0 0 0 0 1:-1 2:-1 3:-1 4:-1 5:-1 6:-1 7:-1 8:-1 9:-1 10:-1 11:-1 12:-1 13:-1 14:-1 15:-1 16:-1 17:-1 18:-1 
-0 -0 0 0 0 0 8192 0 0 0 0 0 0 0 1:-0.6 2:-1 3:-1 4:-1 5:-1 6:1 7:-1 8:-1 9:-1 10:-1 11:-1 12:-1 13:-1 14:-1 15:-1 16:-1 17:-1 18:-1 
-0.2043135246729587 -0.8770851169483492 0.9067824466956772 0.9301418384705432 0.8544275073478328 1.076812726505884 0.7142059586907846 0.9457990180663746 0.5329630171524311 0.9849674525059895 1.09650368065178 1.144786262999763 1.065037826791478 1.214295350954759 1:-0.2 2:-0.0287107 3:-1 4:-1 5:-1 6:1 7:-1 8:-1 9:-1 10:-1 11:0.26099 12:-1 13:-1 14:-1 15:-0.437073 16:-1 17:-1 18:-1 
-0 -0 0 0 0 0 0 0 1.003402142594119 0 0 0 0 0 1:-0.2 2:-0.194152 3:-1 4:-1 5:-1 6:1 7:-1 8:-1 9:-1 10:-1 11:0.256105 12:-1 13:-1 14:-1 15:-0.419301 16:-1 17:-1 18:-1 
-0.1946036823548147 -0.709234415280772 0.8689342411044383 0.06296881721368915 0.8164899251939703 1.027634871621481 0.7238282427398894 1.063114557368452 0.151457209181221 0.9346778368080023 1.007274984145599 1.089674086863902 1.019080523726023 1.164797608274859 1:-0.2 2:-0.281894 3:-1 4:-1 5:-1 6:1 7:-1 8:-1 9:-1 10:-1 11:0.340246 12:-1 13:-1 14:-1 15:-0.522633 16:-1 17:-1 18:-1 
-8192 -8192 0 0 0 0 8192 0 0 0 0 0 0 0 1:-1 2:-1 3:-1 4:-1 5:-1 6:-1 7:-1 8:-1 9:-1 10:-1 11:-1 12:-1 13:-1 14:-1 15:-1 16:-1 17:-1 18:-1 
-8192 -8192 0 0 0 0 8192 0 0 0 0 0 0 0 1:-1 2:-1 3:-1 4:-1 5:-1 6:-1 7:-1 8:-1 9:-1 10:-1 11:-1 12:-1 13:-1 14:-1 15:-1 16:-1 17:-1 18:-1 
-8192 -8192 0 0 0 0 8192 0 0 0 0 0 0 0 1:-1 2:-1 3:-1 4:-1 5:-1 6:-1 7:-1 8:-1 9:-1 10:-1 11:-1 12:-1 13:-1 14:-1 15:-1 16:-1 17:-1 18:-1 
-8192 -8192 0 0 0 0 8192 0 0 0 0 0 0 0 1:-1 2:-1 3:-1 4:-1 5:-1 6:-1 7:-1 8:-1 9:-1 10:-1 11:-1 12:-1 13:-1 14:-1 15:-1 16:-1 17:-1 18:-1 
-0.01355912665459554 -0.04536482861355388 0.06193452860992253 0 0.05920453190484976 0.07662500004027895 0.00768786515771164 0.2129678929733985 0 0.07589926977012568 0.1344756591000682 0.08459008215816455 0.07161789656103912 0.07942216937479418 1:-0.2 2:-0.276955 3:-1 4:-1 5:-1 6:1 7:-1 8:-1 9:-1 10:-1 11:0.323757 12:-1 13:-1 14:-1 15:-0.541763 16:-1 17:-1 18:-1 
-0 -0 0 0 0 0 8192 0 0 0 0 0 0 0 1:-0.6 2:-1 3:-1 4:-1 5:-1 6:1 7:-1 8:-1 9:-1 10:-1 11:-1 12:-1 13:-1 14:-1 15:-1 16:-1 17:-1 18:-1 
-0 -0.1666312146771971 0 1.0486093882431 0 0 0 0 0.7233808080417443 0 0 0 0 0 1:-0.2 2:-0.280968 3:-1 4:-1 5:-1 6:1 7:-1 8:-1 9:-1 10:-1 11:0.302329 12:-1 13:-1 14:-1 15:-0.536337 16:-1 17:-1 18:-1 
-0 -0 0 0 0 0 8192 0 0 0 0 0 0 0 1:-0.6 2:-1 3:-1 4:-1 5:-1 6:1 7:-1 8:-1 9:-1 10:-1 11:-1 12:-1 13:-1 14:-1 15:-1 16:-1 17:-1 18:-1 
-0 -0 0 0 0 0 8192 0 0 0 0 0 0 0 1:-0.6 2:-1 3:-1 4:-1 5:-1 6:1 7:-1 8:-1 9:-1 10:-1 11:-1 12:-1 13:-1 14:-1 15:-1 16:-1 17:-1 18:-1 
-8192 -8192 0 0 0 0 8192 0 0 0 0 0 0 0 1:-1 2:-1 3:-1 4:-1 5:-1 6:-1 7:-1 8:-1 9:-1 10:-1 11:-1 12:-1 13:-1 14:-1 15:-1 16:-1 17:-1 18:-1 
-8192 -8192 0 0 0 0 8192 0 0 0 0 0 0 0 1:-1 2:-1 3:-1 4:-1 5:-1 6:-1 7:-1 8:-1 9:-1 10:-1 11:-1 12:-1 13:-1 14:-1 15:-1 16:-1 17:-1 18:-1 
-8192 -8192 0 0 0 0 8192 0 0 0 0 0 0 0 1:-1 2:-1 3:-1 4:-1 5:-1 6:-1 7:-1 8:-1 9:-1 10:-1 11:-1 12:-1 13:-1 14:-1 15:-1 16:-1 17:-1 18:-1 
-8192 -8192 0 0 0 0 8192 0 0 0 0 0 0 0 1:-1 2:-1 3:-1 4:-1 5:-1 6:-1 7:-1 8:-1 9:-1 10:-1 11:-1 12:-1 13:-1 14:-1 15:-1 16:-1 17:-1 18:-1 
-8192 -8192 0 0 0 0 8192 0 0 0 0 0 0 0 1:-1 2:-1 3:-1 4:-1 5:-1 6:-1 7:-1 8:-1 9:-1 10:-1 11:-1 12:-1 13:-1 14:-1 15:-1 16:-1 17:-1 18:-1 
-0 -0 0 0 0 0 8192 0 0 0 0 0 0 0 1:-0.6 2:-1 3:-1 4:-1 5:-1 6:1 7:-1 8:-1 9:-1 10:-1 11:-1 12:-1 13:-1 14:-1 15:-1 16:-1 17:-1 18:-1 
-0 -0 0 0 0 0 8192 0 0 0 0 0 0 0 1:-0.6 2:-1 3:-1 4:-1 5:-1 6:1 7:-1 8:-1 9:-1 10:-1 11:-1 12:-1 13:-1 14:-1 15:-1 16:-1 17:-1 18:-1 
-0 -0 0 0 0 0 8192 0 0 0 0 0 0 0 1:-0.6 2:-1 3:-1 4:-1 5:-1 6:1 7:-1 8:-1 9:-1 10:-1 11:-1 12:-1 13:-1 14:-1 15:-1 16:-1 17:-1 18:-1 
-0 -0 0 0 0 0 8192 0 0 0 0 0 0 0 1:-0.6 2:-1 3:-1 4:-1 5:-1 6:1 7:-1 8:-1 9:-1 10:-1 11:-1 12:-1 13:-1 14:-1 15:-1 16:-1 17:-1 18:-1 
-0 -0 0 0 0 0 8192 0 0 0 0 0 0 0 1:-0.6 2:-1 3:-1 4:-1 5:-1 6:1 7:-1 8:-1 9:-1 10:-1 11:-1 12:-1 13:-1 14:-1 15:-1 16:-1 17:-1 18:-1 
-0 -0 0 0 0 0 8192 0 0 0 0 0 0 0 1:-0.6 2:-1 3:-1 4:-1 5:-1 6:1 7:-1 8:-1 9:-1 10:-1 11:-1 12:-1 13:-1 14:-1 15:-1 16:-1 17:-1 18:-1 
-0 -0 0 0 0 0 8192 0 0 0 0 0 0 0 1:-0.6 2:-1 3:-1 4:-1 5:-1 6:1 7:-1 8:-1 9:-1 10:-1 11:-1 12:-1 13:-1 14:-1 15:-1 16:-1 17:-1 18:-1 
-0 -0 0 0 0 0 8192 0 0 0 0 0 0 0 1:-0.6 2:-1 3:-1 4:-1 5:-1 6:1 7:-1 8:-1 9:-1 10:-1 11:-1 12:-1 13:-1 14:-1 15:-1 16:-1 17:-1 18:-1 
-0 -0 0 0 0 0 8192 0 0 0 0 0 0 0 1:-0.6 2:-1 3:-1 4:-1 5:-1 6:1 7:-1 8:-1 9:-1 10:-1 11:-1 12:-1 13:-1 14:-1 15:-1 16:-1 17:-1 18:-1 
-0 -0 0 0 0 0 8192 0 0 0 0 0 0 0 1:-0.6 2:-1 3:-1 4:-1 5:-1 6:1 7:-1 8:-1 9:-1 10:-1 11:-1 12:-1 13:-1 14:-1 15:-1 16:-1 17:-1 18:-1 
-0 -0 0 0 0 0 8192 0 0 0 0 0 0 0 1:-0.6 2:-1 3:-1 4:-1 5:-1 6:1 7:-1 8:-1 9:-1 10:-1 11:-1 12:-1 13:-1 14:-1 15:-1 16:-1 17:-1 18:-1 
-0 -0 0 0 0 0 8192 0 0 0 0 0 0 0 1:-0.6 2:-1 3:-1 4:-1 5:-1 6:1 7:-1 8:-1 9:-1 10:-1 11:-1 12:-1 13:-1 14:-1 15:-1 16:-1 17:-1 18:-1 
-0 -0 0 0 0 0 8192 0 0 0 0 0 0 0 1:-0.6 2:-1 3:-1 4:-1 5:-1 6:1 7:-1 8:-1 9:-1 10:-1 11:-1 12:-1 13:-1 14:-1 15:-1 16:-1 17:-1 18:-1 
-0 -0 0 0 0 0 8192 0 0 0 0 0 0 0 1:-0.6 2:-1 3:-1 4:-1 5:-1 6:1 7:-1 8:-1 9:-1 10:-1 11:-1 12:-1 13:-1 14:-1 15:-1 16:-1 17:-1 18:-1 
-0 -0 0 0 0 0 8192 0 0 0 0 0 0 0 1:-0.6 2:-1 3:-1 4:-1 5:-1 6:1 7:-1 8:-1 9:-1 10:-1 11:-1 12:-1 13:-1 14:-1 15:-1 16:-1 17:-1 18:-1 
-0 -0 0 0 0 0 8192 0 0 0 0 0 0 0 1:-0.6 2:-1 3:-1 4:-1 5:-1 6:1 7:-1 8:-1 9:-1 10:-1 11:-1 12:-1 13:-1 14:-1 15:-1 16:-1 17:-1 18:-1 
-0 -0 0 0 0 0 8192 0 0 0 0 0 0 0 1:-0.6 2:-1 3:-1 4:-1 5:-1 6:1 7:-1 8:-1 9:-1 10:-1 11:-1 12:-1 13:-1 14:-1 15:-1 16:-1 17:-1 18:-1 
-0 -0 0 0 0 0 8192 0 0 0 0 0 0 0 1:-0.6 2:-1 3:-1 4:-1 5:-1 6:1 7:-1 8:-1 9:-1 10:-1 11:-1 12:-1 13:-1 14:-1 15:-1 16:-1 17:-1 18:-1 
-0 -0 0 0 0 0 8192 0 0 0 0 0 0 0 1:-0.6 2:-1 3:-1 4:-1 5:-1 6:1 7:-1 8:-1 9:-1 10:-1 11:-1 12:-1 13:-1 14:-1 15:-1 16:-1 17:-1 18:-1 
-0 -0 0 0 0 0 8192 0 0 0 0 0 0 0 1:-0.6 2:-1 3:-1 4:-1 5:-1 6:1 7:-1 8:-1 9:-1 10:-1 11:-1 12:-1 13:-1 14:-1 15:-1 16:-1 17:-1 18:-1 
-0 -0 0 0 0 0 8192 0 0 0 0 0 0 0 1:-0.6 2:-1 3:-1 4:-1 5:-1 6:1 7:-1 8:-1 9:-1 10:-1 11:-1 12:-1 13:-1 14:-1 15:-1 16:-1 17:-1 18:-1 
-0 -0 0 0 0 0 8192 0 0 0 0 0 0 0 1:-0.6 2:-1 3:-1 4:-1 5:-1 6:1 7:-1 8:-1 9:-1 10:-1 11:-1 12:-1 13:-1 14:-1 15:-1 16:-1 17:-1 18:-1 
-0 -0 0 0 0 0 8192 0 0 0 0 0 0 0 1:-0.6 2:-1 3:-1 4:-1 5:-1 6:1 7:-1 8:-1 9:-1 10:-1 11:-1 12:-1 13:-1 14:-1 15:-1 16:-1 17:-1 18:-1 
-0 -0 0 0 0 0 8192 0 0 0 0 0 0 0 1:-0.6 2:-1 3:-1 4:-1 5:-1 6:1 7:-1 8:-1 9:-1 10:-1 11:-1 12:-1 13:-1 14:-1 15:-1 16:-1 17:-1 18:-1 
-0 -0 0 0 0 0 8192 0 0 0 0 0 0 0 1:-0.6 2:-1 3:-1 4:-1 5:-1 6:1 7:-1 8:-1 9:-1 10:-1 11:-1 12:-1 13:-1 14:-1 15:-1 16:-1 17:-1 18:-1 
-0 -0 0 0 0 0 8192 0 0 0 0 0 0 0 1:-0.6 2:-1 3:-1 4:-1 5:-1 6:1 7:-1 8:-1 9:-1 10:-1 11:-1 12:-1 13:-1 14:-1 15:-1 16:-1 17:-1 18:-1 
-0 -0 0 0 0 0 8192 0 0 0 0 0 0 0 1:-0.6 2:-1 3:-1 4:-1 5:-1 6:1 7:-1 8:-1 9:-1 10:-1 11:-1 12:-1 13:-1 14:-1 15:-1 16:-1 17:-1 18:-1 
-0 -0 0 0 0 0 8192 0 0 0 0 0 0 0 1:-0.6 2:-1 3:-1 4:-1 5:-1 6:1 7:-1 8:-1 9:-1 10:-1 11:-1 12:-1 13:-1 14:-1 15:-1 16:-1 17:-1 18:-1 
-0 -0 0 0 0 0 8192 0 0 0 0 0 0 0 1:-0.6 2:-1 3:-1 4:-1 5:-1 6:1 7:-1 8:-1 9:-1 10:-1 11:-1 12:-1 13:-1 14:-1 15:-1 16:-1 17:-1 18:-1 
-0 -0 0 0 0 0 8192 0 0 0 0 0 0 0 1:-0.6 2:-1 3:-1 4:-1 5:-1 6:1 7:-1 8:-1 9:-1 10:-1 11:-1 12:-1 13:-1 14:-1 15:-1 16:-1 17:-1 18:-1 
-0 -0 0 0 0 0 8192 0 0 0 0 0 0 0 1:-0.6 2:-1 3:-1 4:-1 5:-1 6:1 7:-1 8:-1 9:-1 10:-1 11:-1 12:-1 13:-1 14:-1 15:-1 16:-1 17:-1 18:-1 
-0 -0 0 0 0 0 8192 0 0 0 0 0 0 0 1:-0.6 2:-1 3:-1 4:-1 5:-1 6:1 7:-1 8:-1 9:-1 10:-1 11:-1 12:-1 13:-1 14:-1 15:-1 16:-1 17:-1 18:-1 
-0 -0 0 0 0 0 8192 0 0 0 0 0 0 0 1:-0.6 2:-1 3:-1 4:-1 5:-1 6:1 7:-1 8:-1 9:-1 10:-1 11:-1 12:-1 13:-1 14:-1 15:-1 16:-1 17:-1 18:-1 
-0 -0 0 0 0 0 8192 0 0 0 0 0 0 0 1:-0.6 2:-1 3:-1 4:-1 5:-1 6:1 7:-1 8:-1 9:-1 10:-1 11:-1 12:-1 13:-1 14:-1 15:-1 16:-1 17:-1 18:-1 
-0 -0 0 0 0 0 8192 0 0 0 0 0 0 0 1:-0.6 2:-1 3:-1 4:-1 5:-1 6:1 7:-1 8:-1 9:-1 10:-1 11:-1 12:-1 13:-1 14:-1 15:-1 16:-1 17:-1 18:-1 
-0 -0 0 0 0 0 8192 0 0 0 0 0 0 0 1:-0.6 2:-1 3:-1 4:-1 5:-1 6:1 7:-1 8:-1 9:-1 10:-1 11:-1 12:-1 13:-1 14:-1 15:-1 16:-1 17:-1 18:-1 
-0 -0 0 0 0 0 8192 0 0 0 0 0 0 0 1:-0.6 2:-1 3:-1 4:-1 5:-1 6:1 7:-1 8:-1 9:-1 10:-1 11:-1 12:-1 13:-1 14:-1 15:-1 16:-1 17:-1 18:-1 
-0 -0 0 0 0 0 8192 0 0 0 0 0 0 0 1:-0.6 2:-1 3:-1 4:-1 5:-1 6:1 7:-1 8:-1 9:-1 10:-1 11:-1 12:-1 13:-1 14:-1 15:-1 16:-1 17:-1 18:-1 
-0 -0 0 0 0 0 8192 0 0 0 0 0 0 0 1:-0.6 2:-1 3:-1 4:-1 5:-1 6:1 7:-1 8:-1 9:-1 10:-1 11:-1 12:-1 13:-1 14:-1 15:-1 16:-1 17:-1 18:-1 
-0 -0 0 0 0 0 8192 0 0 0 0 0 0 0 1:-0.6 2:-1 3:-1 4:-1 5:-1 6:1 7:-1 8:-1 9:-1 10:-1 11:-1 12:-1 13:-1 14:-1 15:-1 16:-1 17:-1 18:-1 
-0 -0 0 0 0 0 8192 0 0 0 0 0 0 0 1:-0.6 2:-1 3:-1 4:-1 5:-1 6:1 7:-1 8:-1 9:-1 10:-1 11:-1 12:-1 13:-1 14:-1 15:-1 16:-1 17:-1 18:-1 
-0 -0 0 0 0 0 8192 0 0 0 0 0 0 0 1:-0.6 2:-1 3:-1 4:-1 5:-1 6:1 7:-1 8:-1 9:-1 10:-1 11:-1 12:-1 13:-1 14:-1 15:-1 16:-1 17:-1 18:-1 
-0 -0 0 0 0 0 8192 0 0 0 0 0 0 0 1:-0.6 2:-1 3:-1 4:-1 5:-1 6:1 7:-1 8:-1 9:-1 10:-1 11:-1 12:-1 13:-1 14:-1 15:-1 16:-1 17:-1 18:-1 
-0 -0 0 0 0 0 8192 0 0 0 0 0 0 0 1:-0.6 2:-1 3:-1 4:-1 5:-1 6:1 7:-1 8:-1 9:-1 10:-1 11:-1 12:-1 13:-1 14:-1 15:-1 16:-1 17:-1 18:-1 
-0 -0 0 0 0 0 8192 0 0 0 0 0 0 0 1:-0.6 2:-1 3:-1 4:-1 5:-1 6:1 7:-1 8:-1 9:-1 10:-1 11:-1 12:-1 13:-1 14:-1 15:-1 16:-1 17:-1 18:-1 
-0 -0 0 0 0 0 8192 0 0 0 0 0 0 0 1:-0.6 2:-1 3:-1 4:-1 5:-1 6:1 7:-1 8:-1 9:-1 10:-1 11:-1 12:-1 13:-1 14:-1 15:-1 16:-1 17:-1 18:-1 
-0 -0 0 0 0 0 8192 0 0 0 0 0 0 0 1:-0.6 2:-1 3:-1 4:-1 5:-1 6:1 7:-1 8:-1 9:-1 10:-1 11:-1 12:-1 13:-1 14:-1 15:-1 16:-1 17:-1 18:-1 
-0 -0 0 0 0 0 8192 0 0 0 0 0 0 0 1:-0.6 2:-1 3:-1 4:-1 5:-1 6:1 7:-1 8:-1 9:-1 10:-1 11:-1 12:-1 13:-1 14:-1 15:-1 16:-1 17:-1 18:-1 
-0 -0 0 0 0 0 8192 0 0 0 0 0 0 0 1:-0.6 2:-1 3:-1 4:-1 5:-1 6:1 7:-1 8:-1 9:-1 10:-1 11:-1 12:-1 13:-1 14:-1 15:-1 16:-1 17:-1 18:-1 
-0 -0 0 0 0 0 8192 0 0 0 0 0 0 0 1:-0.6 2:-1 3:-1 4:-1 5:-1 6:1 7:-1 8:-1 9:-1 10:-1 11:-1 12:-1 13:-1 14:-1 15:-1 16:-1 17:-1 18:-1 
-0 -0 0 0 0 0 8192 0 0 0 0 0 0 0 1:-0.6 2:-1 3:-1 4:-1 5:-1 6:1 7:-1 8:-1 9:-1 10:-1 11:-1 12:-1 13:-1 14:-1 15:-1 16:-1 17:-1 18:-1 
-0 -0 0 0 0 0 8192 0 0 0 0 0 0 0 1:-0.6 2:-1 3:-1 4:-1 5:-1 6:1 7:-1 8:-1 9:-1 10:-1 11:-1 12:-1 13:-1 14:-1 15:-1 16:-1 17:-1 18:-1 
-0 -0 0 0 0 0 8192 0 0 0 0 0 0 0 1:-0.6 2:-1 3:-1 4:-1 5:-1 6:1 7:-1 8:-1 9:-1 10:-1 11:-1 12:-1 13:-1 14:-1 15:-1 16:-1 17:-1 18:-1 
-0 -0 0 0 0 0 8192 0 0 0 0 0 0 0 1:-0.6 2:-1 3:-1 4:-1 5:-1 6:1 7:-1 8:-1 9:-1 10:-1 11:-1 12:-1 13:-1 14:-1 15:-1 16:-1 17:-1 18:-1 
-0 -0 0 0 0 0 8192 0 0 0 0 0 0 0 1:-0.6 2:-1 3:-1 4:-1 5:-1 6:1 7:-1 8:-1 9:-1 10:-1 11:-1 12:-1 13:-1 14:-1 15:-1 16:-1 17:-1 18:-1 
-0 -0 0 0 0 0 8192 0 0 0 0 0 0 0 1:-0.6 2:-1 3:-1 4:-1 5:-1 6:1 7:-1 8:-1 9:-1 10:-1 11:-1 12:-1 13:-1 14:-1 15:-1 16:-1 17:-1 18:-1 
-0 -0 0 0 0 0 8192 0 0 0 0 0 0 0 1:-0.6 2:-1 3:-1 4:-1 5:-1 6:1 7:-1 8:-1 9:-1 10:-1 11:-1 12:-1 13:-1 14:-1 15:-1 16:-1 17:-1 18:-1 
-0 -0 0 0 0 0 8192 0 0 0 0 0 0 0 1:-0.6 2:-1 3:-1 4:-1 5:-1 6:1 7:-1 8:-1 9:-1 10:-1 11:-1 12:-1 13:-1 14:-1 15:-1 16:-1 17:-1 18:-1 
-0 -0 0 0 0 0 8192 0 0 0 0 0 0 0 1:-0.6 2:-1 3:-1 4:-1 5:-1 6:1 7:-1 8:-1 9:-1 10:-1 11:-1 12:-1 13:-1 14:-1 15:-1 16:-1 17:-1 18:-1 
-0 -0 0 0 0 0 8192 0 0 0 0 0 0 0 1:-0.6 2:-1 3:-1 4:-1 5:-1 6:1 7:-1 8:-1 9:-1 10:-1 11:-1 12:-1 13:-1 14:-1 15:-1 16:-1 17:-1 18:-1 
-0 -0 0 0 0 0 8192 0 0 0 0 0 0 0 1:-0.6 2:-1 3:-1 4:-1 5:-1 6:1 7:-1 8:-1 9:-1 10:-1 11:-1 12:-1 13:-1 14:-1 15:-1 16:-1 17:-1 18:-1 
-0 -0 0 0 0 0 8192 0 0 0 0 0 0 0 1:-0.6 2:-1 3:-1 4:-1 5:-1 6:1 7:-1 8:-1 9:-1 10:-1 11:-1 12:-1 13:-1 14:-1 15:-1 16:-1 17:-1 18:-1 
-0 -0 0 0 0 0 8192 0 0 0 0 0 0 0 1:-0.6 2:-1 3:-1 4:-1 5:-1 6:1 7:-1 8:-1 9:-1 10:-1 11:-1 12:-1 13:-1 14:-1 15:-1 16:-1 17:-1 18:-1 
-0 -0 0 0 0 0 8192 0 0 0 0 0 0 0 1:-0.6 2:-1 3:-1 4:-1 5:-1 6:1 7:-1 8:-1 9:-1 10:-1 11:-1 12:-1 13:-1 14:-1 15:-1 16:-1 17:-1 18:-1 
-0 -0 0 0 0 0 8192 0 0 0 0 0 0 0 1:-0.6 2:-1 3:-1 4:-1 5:-1 6:1 7:-1 8:-1 9:-1 10:-1 11:-1 12:-1 13:-1 14:-1 15:-1 16:-1 17:-1 18:-1 
-0 -0 0 0 0 0 8192 0 0 0 0 0 0 0 1:-0.6 2:-1 3:-1 4:-1 5:-1 6:1 7:-1 8:-1 9:-1 10:-1 11:-1 12:-1 13:-1 14:-1 15:-1 16:-1 17:-1 18:-1 
-0 -0 0 0 0 0 8192 0 0 0 0 0 0 0 1:-0.6 2:-1 3:-1 4:-1 5:-1 6:1 7:-1 8:-1 9:-1 10:-1 11:-1 12:-1 13:-1 14:-1 15:-1 16:-1 17:-1 18:-1 
-0 -0 0 0 0 0 8192 0 0 0 0 0 0 0 1:-0.6 2:-1 3:-1 4:-1 5:-1 6:1 7:-1 8:-1 9:-1 10:-1 11:-1 12:-1 13:-1 14:-1 15:-1 16:-1 17:-1 18:-1 
-0 -0 0 0 0 0 8192 0 0 0 0 0 0 0 1:-0.6 2:-1 3:-1 4:-1 5:-1 6:1 7:-1 8:-1 9:-1 10:-1 11:-1 12:-1 13:-1 14:-1 15:-1 16:-1 17:-1 18:-1 
-0 -0 0 0 0 0 8192 0 0 0 0 0 0 0 1:-0.6 2:-1 3:-1 4:-1 5:-1 6:1 7:-1 8:-1 9:-1 10:-1 11:-1 12:-1 13:-1 14:-1 15:-1 16:-1 17:-1 18:-1 
-0 -0 0 0 0 0 8192 0 0 0 0 0 0 0 1:-0.6 2:-1 3:-1 4:-1 5:-1 6:1 7:-1 8:-1 9:-1 10:-1 11:-1 12:-1 13:-1 14:-1 15:-1 16:-1 17:-1 18:-1 
-0 -0 0 0 0 0 8192 0 0 0 0 0 0 0 1:-0.6 2:-1 3:-1 4:-1 5:-1 6:1 7:-1 8:-1 9:-1 10:-1 11:-1 12:-1 13:-1 14:-1 15:-1 16:-1 17:-1 18:-1 
-0 -0 0 0 0 0 8192 0 0 0 0 0 0 0 1:-0.6 2:-1 3:-1 4:-1 5:-1 6:1 7:-1 8:-1 9:-1 10:-1 11:-1 12:-1 13:-1 14:-1 15:-1 16:-1 17:-1 18:-1 
-0 -0 0 0 0 0 8192 0 0 0 0 0 0 0 1:-0.6 2:-1 3:-1 4:-1 5:-1 6:1 7:-1 8:-1 9:-1 10:-1 11:-1 12:-1 13:-1 14:-1 15:-1 16:-1 17:-1 18:-1 
-0 -0 0 0 0 0 8192 0 0 0 0 0 0 0 1:-0.6 2:-1 3:-1 4:-1 5:-1 6:1 7:-1 8:-1 9:-1 10:-1 11:-1 12:-1 13:-1 14:-1 15:-1 16:-1 17:-1 18:-1 
-0 -0 0 0 0 0 8192 0 0 0 0 0 0 0 1:-0.6 2:-1 3:-1 4:-1 5:-1 6:1 7:-1 8:-1 9:-1 10:-1 11:-1 12:-1 13:-1 14:-1 15:-1 16:-1 17:-1 18:-1 
-0 -0 0 0 0 0 8192 0 0 0 0 0 0 0 1:-0.6 2:-1 3:-1 4:-1 5:-1 6:1 7:-1 8:-1 9:-1 10:-1 11:-1 12:-1 13:-1 14:-1 15:-1 16:-1 17:-1 18:-1 
-0 -0 0 0 0 0 8192 0 0 0 0 0 0 0 1:-0.6 2:-1 3:-1 4:-1 5:-1 6:1 7:-1 8:-1 9:-1 10:-1 11:-1 12:-1 13:-1 14:-1 15:-1 16:-1 17:-1 18:-1 
-0 -0 0 0 0 0 8192 0 0 0 0 0 0 0 1:-0.6 2:-1 3:-1 4:-1 5:-1 6:1 7:-1 8:-1 9:-1 10:-1 11:-1 12:-1 13:-1 14:-1 15:-1 16:-1 17:-1 18:-1 
-0 -0 0 0 0 0 8192 0 0 0 0 0 0 0 1:-0.6 2:-1 3:-1 4:-1 5:-1 6:1 7:-1 8:-1 9:-1 10:-1 11:-1 12:-1 13:-1 14:-1 15:-1 16:-1 17:-1 18:-1 
-0 -0 0 0 0 0 8192 0 0 0 0 0 0 0 1:-0.6 2:-1 3:-1 4:-1 5:-1 6:1 7:-1 8:-1 9:-1 10:-1 11:-1 12:-1 13:-1 14:-1 15:-1 16:-1 17:-1 18:-1 
-0 -0 0 0 0 0 8192 0 0 0 0 0 0 0 1:-0.6 2:-1 3:-1 4:-1 5:-1 6:1 7:-1 8:-1 9:-1 10:-1 11:-1 12:-1 13:-1 14:-1 15:-1 16:-1 17:-1 18:-1 
-0 -0 0 0 0 0 8192 0 0 0 0 0 0 0 1:-0.6 2:-1 3:-1 4:-1 5:-1 6:1 7:-1 8:-1 9:-1 10:-1 11:-1 12:-1 13:-1 14:-1 15:-1 16:-1 17:-1 18:-1 
-0 -0 0 0 0 0 8192 0 0 0 0 0 0 0 1:-0.6 2:-1 3:-1 4:-1 5:-1 6:1 7:-1 8:-1 9:-1 10:-1 11:-1 12:-1 13:-1 14:-1 15:-1 16:-1 17:-1 18:-1 
-0 -0 0 0 0 0 8192 0 0 0 0 0 0 0 1:-0.6 2:-1 3:-1 4:-1 5:-1 6:1 7:-1 8:-1 9:-1 10:-1 11:-1 12:-1 13:-1 14:-1 15:-1 16:-1 17:-1 18:-1 
-0 -0 0 0 0 0 8192 0 0 0 0 0 0 0 1:-0.6 2:-1 3:-1 4:-1 5:-1 6:1 7:-1 8:-1 9:-1 10:-1 11:-1 12:-1 13:-1 14:-1 15:-1 16:-1 17:-1 18:-1 
-0 -0 0 0 0 0 8192 0 0 0 0 0 0 0 1:-0.6 2:-1 3:-1 4:-1 5:-1 6:1 7:-1 8:-1 9:-1 10:-1 11:-1 12:-1 13:-1 14:-1 15:-1 16:-1 17:-1 18:-1 
-0 -0 0 0 0 0 8192 0 0 0 0 0 0 0 1:-0.6 2:-1 3:-1 4:-1 5:-1 6:1 7:-1 8:-1 9:-1 10:-1 11:-1 12:-1 13:-1 14:-1 15:-1 16:-1 17:-1 18:-1 
-0 -0 0 0 0 0 8192 0 0 0 0 0 0 0 1:-0.6 2:-1 3:-1 4:-1 5:-1 6:1 7:-1 8:-1 9:-1 10:-1 11:-1 12:-1 13:-1 14:-1 15:-1 16:-1 17:-1 18:-1 
-0 -0 0 0 0 0 8192 0 0 0 0 0 0 0 1:-0.6 2:-1 3:-1 4:-1 5:-1 6:1 7:-1 8:-1 9:-1 10:-1 11:-1 12:-1 13:-1 14:-1 15:-1 16:-1 17:-1 18:-1 
-0 -0 0 0 0 0 8192 0 0 0 0 0 0 0 1:-0.6 2:-1 3:-1 4:-1 5:-1 6:1 7:-1 8:-1 9:-1 10:-1 11:-1 12:-1 13:-1 14:-1 15:-1 16:-1 17:-1 18:-1 
-0 -0 0 0 0 0 8192 0 0 0 0 0 0 0 1:-0.6 2:-1 3:-1 4:-1 5:-1 6:1 7:-1 8:-1 9:-1 10:-1 11:-1 12:-1 13:-1 14:-1 15:-1 16:-1 17:-1 18:-1 
-0 -0 0 0 0 0 8192 0 0 0 0 0 0 0 1:-0.6 2:-1 3:-1 4:-1 5:-1 6:1 7:-1 8:-1 9:-1 10:-1 11:-1 12:-1 13:-1 14:-1 15:-1 16:-1 17:-1 18:-1 
-0 -0 0 0 0 0 8192 0 0 0 0 0 0 0 1:-0.6 2:-1 3:-1 4:-1 5:-1 6:1 7:-1 8:-1 9:-1 10:-1 11:-1 12:-1 13:-1 14:-1 15:-1 16:-1 17:-1 18:-1 
-0 -0 0 0 0 0 8192 0 0 0 0 0 0 0 1:-0.6 2:-1 3:-1 4:-1 5:-1 6:1 7:-1 8:-1 9:-1 10:-1 11:-1 12:-1 13:-1 14:-1 15:-1 16:-1 17:-1 18:-1 
-0 -0 0 0 0 0 8192 0 0 0 0 0 0 0 1:-0.6 2:-1 3:-1 4:-1 5:-1 6:1 7:-1 8:-1 9:-1 10:-1 11:-1 12:-1 13:-1 14:-1 15:-1 16:-1 17:-1 18:-1 
-0 -0 0 0 0 0 8192 0 0 0 0 0 0 0 1:-0.6 2:-1 3:-1 4:-1 5:-1 6:1 7:-1 8:-1 9:-1 10:-1 11:-1 12:-1 13:-1 14:-1 15:-1 16:-1 17:-1 18:-1 
-0 -0 0 0 0 0 8192 0 0 0 0 0 0 0 1:-0.6 2:-1 3:-1 4:-1 5:-1 6:1 7:-1 8:-1 9:-1 10:-1 11:-1 12:-1 13:-1 14:-1 15:-1 16:-1 17:-1 18:-1 
-0 -0 0 0 0 0 8192 0 0 0 0 0 0 0 1:-0.6 2:-1 3:-1 4:-1 5:-1 6:1 7:-1 8:-1 9:-1 10:-1 11:-1 12:-1 13:-1 14:-1 15:-1 16:-1 17:-1 18:-1 
-0 -0 0 0 0 0 8192 0 0 0 0 0 0 0 1:-0.6 2:-1 3:-1 4:-1 5:-1 6:1 7:-1 8:-1 9:-1 10:-1 11:-1 12:-1 13:-1 14:-1 15:-1 16:-1 17:-1 18:-1 
-0 -0 0 0 0 0 8192 0 0 0 0 0 0 0 1:-0.6 2:-1 3:-1 4:-1 5:-1 6:1 7:-1 8:-1 9:-1 10:-1 11:-1 12:-1 13:-1 14:-1 15:-1 16:-1 17:-1 18:-1 
-0 -0 0 0 0 0 8192 0 0 0 0 0 0 0 1:-0.6 2:-1 3:-1 4:-1 5:-1 6:1 7:-1 8:-1 9:-1 10:-1 11:-1 12:-1 13:-1 14:-1 15:-1 16:-1 17:-1 18:-1 
-0 -0 0 0 0 0 8192 0 0 0 0 0 0 0 1:-0.6 2:-1 3:-1 4:-1 5:-1 6:1 7:-1 8:-1 9:-1 10:-1 11:-1 12:-1 13:-1 14:-1 15:-1 16:-1 17:-1 18:-1 
-0 -0 0 0 0 0 8192 0 0 0 0 0 0 0 1:-0.6 2:-1 3:-1 4:-1 5:-1 6:1 7:-1 8:-1 9:-1 10:-1 11:-1 12:-1 13:-1 14:-1 15:-1 16:-1 17:-1 18:-1 
-0 -0 0 0 0 0 8192 0 0 0 0 0 0 0 1:-0.6 2:-1 3:-1 4:-1 5:-1 6:1 7:-1 8:-1 9:-1 10:-1 11:-1 12:-1 13:-1 14:-1 15:-1 16:-1 17:-1 18:-1 
