svm_type c_svc
kernel_type rbf
gamma 8
nr_class 5
total_sv 5893
rho 1.15645 2.53094 7.36022 3.03673 0.0479089 2.02144 5.17002 2.88549 2.29268 -0.749041
label 1 2 3 4 5
nr_sv 852 909 748 1728 1656
SV
0 0 0 8192 1:-0.666667 2:0.89073 3:-1 4:-1 5:-1 6:-1 7:-0.904498 8:-1 9:-1 10:-1 11:-1 
0 0 0 8192 1:-0.666667 2:0.88953 3:-1 4:-1 5:-1 6:-1 7:-0.904414 8:-1 9:-1 10:-1 11:-1 
0 0 0 8192 1:-0.666667 2:0.887732 3:-1 4:-1 5:-1 6:-1 7:-0.904249 8:-1 9:-1 10:-1 11:-1 
0 0 0 8192 1:-0.666667 2:0.885538 3:-1 4:-1 5:-1 6:-1 7:-0.904095 8:-1 9:-1 10:-1 11:-1 
0 0 0 8192 1:-0.666667 2:0.883264 3:-1 4:-1 5:-1 6:-1 7:-0.903893 8:-1 9:-1 10:-1 11:-1 
0 0 0 8192 1:-0.666667 2:0.88138 3:-1 4:-1 5:-1 6:-1 7:-0.903528 8:-1 9:-1 10:-1 11:-1 
0 0 0 8192 1:-0.666667 2:0.879616 3:-1 4:-1 5:-1 6:-1 7:-0.903054 8:-1 9:-1 10:-1 11:-1 
0 0 0 8192 1:-0.666667 2:0.878782 3:-1 4:-1 5:-1 6:-1 7:-0.902813 8:-1 9:-1 10:-1 11:-1 
0 0 0 8192 1:-0.666667 2:0.879036 3:-1 4:-1 5:-1 6:-1 7:-0.902236 8:-1 9:-1 10:-1 11:-1 
0 0 0 8192 1:-0.666667 2:0.879524 3:-1 4:-1 5:-1 6:-1 7:-0.901925 8:-1 9:-1 10:-1 11:-1 
0 0 0 8192 1:-0.666667 2:0.880168 3:-1 4:-1 5:-1 6:-1 7:-0.901609 8:-1 9:-1 10:-1 11:-1 
0 0 0 8192 1:-0.666667 2:0.881128 3:-1 4:-1 5:-1 6:-1 7:-0.901124 8:-1 9:-1 10:-1 11:-1 
0 0 0 8192 1:-0.666667 2:0.881812 3:-1 4:-1 5:-1 6:-1 7:-0.900532 8:-1 9:-1 10:-1 11:-1 
0 0 0 8192 1:-0.666667 2:0.87145 3:-1 4:-1 5:-1 6:-1 7:-0.896169 8:-1 9:-1 10:-1 11:-1 
0 0 0 8192 1:-0.666667 2:0.871142 3:-1 4:-1 5:-1 6:-1 7:-0.896171 8:-1 9:-1 10:-1 11:-1 
0 0 0 8192 1:-0.666667 2:0.871386 3:-1 4:-1 5:-1 6:-1 7:-0.896274 8:-1 9:-1 10:-1 11:-1 
0 0 0 8192 1:-0.666667 2:0.87131 3:-1 4:-1 5:-1 6:-1 7:-0.896343 8:-1 9:-1 10:-1 11:-1 
0 0 0 8192 1:-0.666667 2:0.870968 3:-1 4:-1 5:-1 6:-1 7:-0.89627 8:-1 9:-1 10:-1 11:-1 
0 0 0 8192 1:-0.666667 2:0.870844 3:-1 4:-1 5:-1 6:-1 7:-0.896328 8:-1 9:-1 10:-1 11:-1 
0 0 0 8192 1:-0.666667 2:0.870608 3:-1 4:-1 5:-1 6:-1 7:-0.896338 8:-1 9:-1 10:-1 11:-1 
0 0 0 8192 1:-0.666667 2:0.870848 3:-1 4:-1 5:-1 6:-1 7:-0.896305 8:-1 9:-1 10:-1 11:-1 
0 0 0 8192 1:-0.666667 2:0.871198 3:-1 4:-1 5:-1 6:-1 7:-0.896258 8:-1 9:-1 10:-1 11:-1 
0 0 0 3633.004551687166 1:-0.666667 2:0.871766 3:-1 4:-1 5:-1 6:-1 7:-0.896323 8:-1 9:-1 10:-1 11:-1 
0 0 0 8192 1:-0.666667 2:0.871792 3:-1 4:-1 5:-1 6:-1 7:-0.896372 8:-1 9:-1 10:-1 11:-1 
0 0 0 8192 1:-0.666667 2:0.857446 3:-1 4:-1 5:-1 6:-1 7:-0.892359 8:-1 9:-1 10:-1 11:-1 
0 0 0 8192 1:-0.666667 2:0.857764 3:-1 4:-1 5:-1 6:-1 7:-0.892611 8:-1 9:-1 10:-1 11:-1 
0 0 0 8192 1:-0.666667 2:0.858286 3:-1 4:-1 5:-1 6:-1 7:-0.892824 8:-1 9:-1 10:-1 11:-1 
0 0 0 8192 1:-0.666667 2:0.858828 3:-1 4:-1 5:-1 6:-1 7:-0.893022 8:-1 9:-1 10:-1 11:-1 
0 0 0 8192 1:-0.666667 2:0.859378 3:-1 4:-1 5:-1 6:-1 7:-0.893153 8:-1 9:-1 10:-1 11:-1 
0 0 0 8192 1:-0.666667 2:0.859772 3:-1 4:-1 5:-1 6:-1 7:-0.893289 8:-1 9:-1 10:-1 11:-1 
0 0 0 8192 1:-0.666667 2:0.860198 3:-1 4:-1 5:-1 6:-1 7:-0.893339 8:-1 9:-1 10:-1 11:-1 
0 0 0 8192 1:-0.666667 2:0.860466 3:-1 4:-1 5:-1 6:-1 7:-0.893311 8:-1 9:-1 10:-1 11:-1 
0 0 0 8192 1:-0.666667 2:0.860444 3:-1 4:-1 5:-1 6:-1 7:-0.893162 8:-1 9:-1 10:-1 11:-1 
0 0 0 8192 1:-0.666667 2:0.860444 3:-1 4:-1 5:-1 6:-1 7:-0.89298 8:-1 9:-1 10:-1 11:-1 
0 0 0 8192 1:-0.666667 2:0.860252 3:-1 4:-1 5:-1 6:-1 7:-0.892866 8:-1 9:-1 10:-1 11:-1 
0 0 0 4116.074374444836 1:-0.666667 2:0.861418 3:-1 4:-1 5:-1 6:-1 7:-0.893189 8:-1 9:-1 10:-1 11:-1 
0 0 0 8192 1:-0.666667 2:0.864022 3:-1 4:-1 5:-1 6:-1 7:-0.894037 8:-1 9:-1 10:-1 11:-1 
0 0 0 8192 1:-0.666667 2:0.864608 3:-1 4:-1 5:-1 6:-1 7:-0.894338 8:-1 9:-1 10:-1 11:-1 
0 0 0 8192 1:-0.666667 2:0.864834 3:-1 4:-1 5:-1 6:-1 7:-0.894646 8:-1 9:-1 10:-1 11:-1 
0 0 0 8192 1:-0.666667 2:0.865348 3:-1 4:-1 5:-1 6:-1 7:-0.894898 8:-1 9:-1 10:-1 11:-1 
0 0 0 8192 1:-0.666667 2:0.866264 3:-1 4:-1 5:-1 6:-1 7:-0.89514 8:-1 9:-1 10:-1 11:-1 
0 0 0 8192 1:-0.666667 2:0.867042 3:-1 4:-1 5:-1 6:-1 7:-0.895538 8:-1 9:-1 10:-1 11:-1 
0 0 0 8192 1:-0.666667 2:0.867806 3:-1 4:-1 5:-1 6:-1 7:-0.895816 8:-1 9:-1 10:-1 11:-1 
0 0 0 8192 1:-0.666667 2:0.868728 3:-1 4:-1 5:-1 6:-1 7:-0.896056 8:-1 9:-1 10:-1 11:-1 
0.2491133967959802 0 0 27.61219284000381 1:-0.333333 2:0.987434 3:0.897264 4:0.870597 5:-1 6:-1 7:-0.820406 8:-0.846682 9:-0.873763 10:-1 11:-1 
0 266.3485850671429 0 0 1:-0.333333 2:0.976824 3:0.870927 4:0.78511 5:-1 6:-1 7:-0.8226 8:-0.848527 9:-0.874117 10:-1 11:-1 
0 73.28909825276195 21.23308385785386 0.2555444111980097 1:-0.333333 2:0.921839 3:0.871726 4:0.632729 5:-1 6:-1 7:-0.821833 8:-0.847644 9:-0.874537 10:-1 11:-1 
0.8716597700500324 0 0 0 1:-0.333333 2:0.87228 3:0.831271 4:0.455158 5:-1 6:-1 7:-0.822406 8:-0.848029 9:-0.874884 10:-1 11:-1 
0 0 1.902112102994784 1.54961134413964 1:-0.333333 2:0.877188 3:0.836076 4:0.473775 5:-1 6:-1 7:-0.820751 8:-0.846467 9:-0.877203 10:-1 11:-1 
0 0 1.438474999666875 0 1:-0.333333 2:0.880308 3:0.815914 4:0.454291 5:-1 6:-1 7:-0.819903 8:-0.845194 9:-0.878078 10:-1 11:-1 
0 5.887546743457825 0 0 1:-0.333333 2:0.882402 3:0.727492 4:0.323994 5:-1 6:-1 7:-0.819772 8:-0.846173 9:-0.878468 10:-1 11:-1 
0 0 93.72636762922679 0 1:-0.333333 2:0.895725 3:0.305625 4:-0.144309 5:-1 6:-1 7:-0.812935 8:-0.838577 9:-0.876969 10:-1 11:-1 
0 0 179.1151846892206 0 1:-0.333333 2:0.897321 3:0.338552 4:-0.117007 5:-1 6:-1 7:-0.812322 8:-0.838151 9:-0.876599 10:-1 11:-1 
0 4.024814531566526 0 0 1:-0.333333 2:0.896925 3:0.413403 4:-0.0669508 5:-1 6:-1 7:-0.811609 8:-0.838006 9:-0.875448 10:-1 11:-1 
0.05863281788417127 1.254680241086901 0 0.6632145198113003 1:-0.333333 2:0.896957 3:0.468006 4:-0.0380997 5:-1 6:-1 7:-0.810385 8:-0.837329 9:-0.875055 10:-1 11:-1 
0.2742659906641657 0 0 0 1:-0.333333 2:0.896803 3:0.358564 4:-0.140184 5:-1 6:-1 7:-0.810773 8:-0.837625 9:-0.874833 10:-1 11:-1 
0.1432093752464553 3.044722478431539 0 2.004855430826945 1:-0.333333 2:0.897077 3:0.304983 4:-0.230968 5:-1 6:-1 7:-0.810961 8:-0.837611 9:-0.874741 10:-1 11:-1 
0 2.994063174377677 7.052910616377077 3.429179689366466 1:-0.333333 2:0.897401 3:-0.784276 4:-0.846196 5:-1 6:-1 7:-0.811037 8:-0.83747 9:-0.874569 10:-1 11:-1 
0.4130428672285991 0 7.452123095763932 0.3541512319726701 1:-0.333333 2:0.898179 3:-0.14839 4:-0.353876 5:-1 6:-1 7:-0.811051 8:-0.837549 9:-0.874735 10:-1 11:-1 
0.2382829244418619 0.7004237257298033 302.8385732627095 0 1:-0.333333 2:0.900949 3:0.0902254 4:-0.176392 5:-1 6:-1 7:-0.810566 8:-0.838066 9:-0.873933 10:-1 11:-1 
0.1685302826178499 2.566225196525416 31.83793549106392 0.07911484439643883 1:-0.333333 2:0.901383 3:-0.200556 4:-0.701685 5:-1 6:-1 7:-0.810457 8:-0.838349 9:-0.874218 10:-1 11:-1 
0.6921431874220312 1.829649657543901 1.05767055015264 1.666042386101874 1:-0.333333 2:0.938083 3:-0.441428 4:-0.486012 5:-1 6:-1 7:-0.343297 8:-0.353886 9:-0.880274 10:-1 11:-1 
0.7952032355958463 0.6315631203807679 3.743448045435913 1.147964950807569 1:-0.333333 2:0.939671 3:-0.637184 4:-0.678755 5:-1 6:-1 7:-0.344127 8:-0.355354 9:-0.880168 10:-1 11:-1 
0.5178629645309337 0 0 0 1:-0.333333 2:0.940829 3:-0.00503058 4:-0.152822 5:-1 6:-1 7:-0.344425 8:-0.356194 9:-0.880207 10:-1 11:-1 
2.261173240207162 4.944812745977221 8.268747419764196 5.165467836044817 1:-0.333333 2:0.944069 3:-0.907004 4:-0.96788 5:-1 6:-1 7:-0.344872 8:-0.357847 9:-0.880063 10:-1 11:-1 
0.4654769724525211 1.288687011019608 5.611207447983594 0.8444421305841585 1:-0.333333 2:0.950627 3:-0.376972 4:-0.591277 5:-1 6:-1 7:-0.350908 8:-0.367848 9:-0.877147 10:-1 11:-1 
0 8192 0 0 1:-0.666667 2:0.951959 3:-1 4:-1 5:-1 6:-1 7:-0.898683 8:-1 9:-1 10:-1 11:-1 
0 8192 0 5500.015511224623 1:-0.666667 2:0.952051 3:-1 4:-1 5:-1 6:-1 7:-0.898318 8:-1 9:-1 10:-1 11:-1 
0 8192 0 8192 1:-0.666667 2:0.952937 3:-1 4:-1 5:-1 6:-1 7:-0.897995 8:-1 9:-1 10:-1 11:-1 
0 8192 0 8192 1:-0.666667 2:0.954937 3:-1 4:-1 5:-1 6:-1 7:-0.897765 8:-1 9:-1 10:-1 11:-1 
0.9174863739892949 3.157359668426924 3.511103197032278 2.374801387523081 1:-0.333333 2:0.955007 3:-0.123246 4:-0.390842 5:-1 6:-1 7:-0.35357 8:-0.371461 9:-0.875322 10:-1 11:-1 
0 8192 0 8192 1:-0.666667 2:0.955229 3:-1 4:-1 5:-1 6:-1 7:-0.897185 8:-1 9:-1 10:-1 11:-1 
0 8192 0 0 1:-0.666667 2:0.952843 3:-1 4:-1 5:-1 6:-1 7:-0.896861 8:-1 9:-1 10:-1 11:-1 
1.442563026869459 1.448849129314738 5.814253226079222 2.528489239394839 1:-0.333333 2:0.940343 3:0.254263 4:-0.10577 5:-1 6:-1 7:-0.357155 8:-0.376239 9:-0.872935 10:-1 11:-1 
0 8192 0 0 1:-0.666667 2:0.834884 3:-1 4:-1 5:-1 6:-1 7:-0.884782 8:-1 9:-1 10:-1 11:-1 
0 0 8192 8192 1:-0.666667 2:0.773735 3:-1 4:-1 5:-1 6:-1 7:-0.88676 8:-1 9:-1 10:-1 11:-1 
0 0 8192 8192 1:-0.666667 2:0.765977 3:-1 4:-1 5:-1 6:-1 7:-0.887613 8:-1 9:-1 10:-1 11:-1 
0 0 8192 8192 1:-0.666667 2:0.759273 3:-1 4:-1 5:-1 6:-1 7:-0.888369 8:-1 9:-1 10:-1 11:-1 
1.720486174805197 1.765601457357111 0.7666400902270251 3.093848549924586 1:-0.333333 2:0.755155 3:-0.187856 4:-0.97182 5:-1 6:-1 7:-0.815724 8:-0.838973 9:-0.865238 10:-1 11:-1 
0 2.265944911721266 68.8882026028525 0.1560470510874775 1:-0.333333 2:0.770539 3:-0.0532698 4:-0.875899 5:-1 6:-1 7:-0.813789 8:-0.839347 9:-0.869311 10:-1 11:-1 
1792.076391539164 0 8192 8192 1:-0.666667 2:0.777999 3:-1 4:-1 5:-1 6:-1 7:-0.892218 8:-1 9:-1 10:-1 11:-1 
0 0 8192 8192 1:-0.666667 2:0.784851 3:-1 4:-1 5:-1 6:-1 7:-0.891669 8:-1 9:-1 10:-1 11:-1 
0.7725044775039885 6.909780712961943 13.96610300744049 1.639645155570829 1:-0.333333 2:0.792249 3:0.167628 4:-0.573524 5:-1 6:-1 7:-0.816045 8:-0.841749 9:-0.867622 10:-1 11:-1 
0.4470838532511728 0 1.279902142305099 0.1971348297986511 1:-0.333333 2:0.799307 3:0.288168 4:-0.394738 5:-1 6:-1 7:-0.814169 8:-0.840256 9:-0.86722 10:-1 11:-1 
0 0 8192 8192 1:-0.666667 2:0.806837 3:-1 4:-1 5:-1 6:-1 7:-0.89077 8:-1 9:-1 10:-1 11:-1 
0 774.869361219208 8192 8192 1:-0.666667 2:0.815243 3:-1 4:-1 5:-1 6:-1 7:-0.891207 8:-1 9:-1 10:-1 11:-1 
0 0 0 8192 1:-0.666667 2:0.849036 3:-1 4:-1 5:-1 6:-1 7:-0.894518 8:-1 9:-1 10:-1 11:-1 
0 0 0 8192 1:-0.666667 2:0.856452 3:-1 4:-1 5:-1 6:-1 7:-0.895463 8:-1 9:-1 10:-1 11:-1 
0 0 0 8192 1:-0.666667 2:0.86311 3:-1 4:-1 5:-1 6:-1 7:-0.896415 8:-1 9:-1 10:-1 11:-1 
0 0 0 8192 1:-0.666667 2:0.869636 3:-1 4:-1 5:-1 6:-1 7:-0.897271 8:-1 9:-1 10:-1 11:-1 
0 0 0 8192 1:-0.666667 2:0.87538 3:-1 4:-1 5:-1 6:-1 7:-0.897979 8:-1 9:-1 10:-1 11:-1 
0 0 0 8192 1:-0.666667 2:0.867408 3:-1 4:-1 5:-1 6:-1 7:-0.89546 8:-1 9:-1 10:-1 11:-1 
0 0 0 8192 1:-0.666667 2:0.860694 3:-1 4:-1 5:-1 6:-1 7:-0.895737 8:-1 9:-1 10:-1 11:-1 
0 0 0 8192 1:-0.666667 2:0.856284 3:-1 4:-1 5:-1 6:-1 7:-0.895972 8:-1 9:-1 10:-1 11:-1 
0 0 0 8192 1:-0.666667 2:0.850708 3:-1 4:-1 5:-1 6:-1 7:-0.896132 8:-1 9:-1 10:-1 11:-1 
0 0 0 8192 1:-0.666667 2:0.852932 3:-1 4:-1 5:-1 6:-1 7:-0.89623 8:-1 9:-1 10:-1 11:-1 
0 0 0 8192 1:-0.666667 2:0.855984 3:-1 4:-1 5:-1 6:-1 7:-0.896205 8:-1 9:-1 10:-1 11:-1 
0 0 0 8192 1:-0.666667 2:0.85893 3:-1 4:-1 5:-1 6:-1 7:-0.89604 8:-1 9:-1 10:-1 11:-1 
0 0 0 8192 1:-0.666667 2:0.86112 3:-1 4:-1 5:-1 6:-1 7:-0.895862 8:-1 9:-1 10:-1 11:-1 
0 0 0 8192 1:-0.666667 2:0.86334 3:-1 4:-1 5:-1 6:-1 7:-0.895619 8:-1 9:-1 10:-1 11:-1 
0 0 0 8192 1:-0.666667 2:0.864896 3:-1 4:-1 5:-1 6:-1 7:-0.895413 8:-1 9:-1 10:-1 11:-1 
0 0 0 8192 1:-0.666667 2:0.866104 3:-1 4:-1 5:-1 6:-1 7:-0.895185 8:-1 9:-1 10:-1 11:-1 
0 0 0 8192 1:-0.666667 2:0.867054 3:-1 4:-1 5:-1 6:-1 7:-0.895011 8:-1 9:-1 10:-1 11:-1 
0 0 0 8192 1:-0.666667 2:0.87779 3:-1 4:-1 5:-1 6:-1 7:-0.899006 8:-1 9:-1 10:-1 11:-1 
0 0 0 8192 1:-0.666667 2:0.878174 3:-1 4:-1 5:-1 6:-1 7:-0.899526 8:-1 9:-1 10:-1 11:-1 
0 0 0 8192 1:-0.666667 2:0.878222 3:-1 4:-1 5:-1 6:-1 7:-0.90029 8:-1 9:-1 10:-1 11:-1 
0 0 0 8192 1:-0.666667 2:0.8779 3:-1 4:-1 5:-1 6:-1 7:-0.900751 8:-1 9:-1 10:-1 11:-1 
0 0 0 8192 1:-0.666667 2:0.878386 3:-1 4:-1 5:-1 6:-1 7:-0.90137 8:-1 9:-1 10:-1 11:-1 
0 0 0 8192 1:-0.666667 2:0.872734 3:-1 4:-1 5:-1 6:-1 7:-0.902068 8:-1 9:-1 10:-1 11:-1 
0 0 8192 8192 1:-0.666667 2:0.86605 3:-1 4:-1 5:-1 6:-1 7:-0.902507 8:-1 9:-1 10:-1 11:-1 
0 0 8192 8192 1:-0.666667 2:0.858834 3:-1 4:-1 5:-1 6:-1 7:-0.902927 8:-1 9:-1 10:-1 11:-1 
0 0 8192 8192 1:-0.666667 2:0.851006 3:-1 4:-1 5:-1 6:-1 7:-0.902961 8:-1 9:-1 10:-1 11:-1 
4555.940184435077 0 8192 8192 1:-0.666667 2:0.840504 3:-1 4:-1 5:-1 6:-1 7:-0.902571 8:-1 9:-1 10:-1 11:-1 
0.9774039390738408 0 10.19604496454066 1.641238794216714 1:-0.333333 2:0.830916 3:-0.334228 4:-0.497405 5:-1 6:-1 7:-0.781982 8:-0.781896 9:-0.881244 10:-1 11:-1 
0 0 10.14852662455777 0 1:-0.333333 2:0.711072 3:-0.239923 4:-0.427267 5:-1 6:-1 7:-0.781333 8:-0.779251 9:-0.878329 10:-1 11:-1 
0 0 12.18904161458928 0 1:-0.333333 2:0.698672 3:-0.194124 4:-0.38784 5:-1 6:-1 7:-0.78109 8:-0.779607 9:-0.878398 10:-1 11:-1 
0 3.506206479548147 0 0 1:-0.333333 2:0.681628 3:-0.00235174 4:-0.245511 5:-1 6:-1 7:-0.778574 8:-0.780493 9:-0.878374 10:-1 11:-1 
0 9.294868308450829 0 0 1:-0.333333 2:0.733752 3:0.0396735 4:-0.148301 5:-1 6:-1 7:-0.773524 8:-0.778717 9:-0.873217 10:-1 11:-1 
0.7355259631385339 0 52.33679703570642 0 1:-0.333333 2:0.74203 3:0.047584 4:-0.106362 5:-1 6:-1 7:-0.773158 8:-0.77836 9:-0.872482 10:-1 11:-1 
0 0 8192 8192 1:-0.666667 2:0.750675 3:-1 4:-1 5:-1 6:-1 7:-0.894119 8:-1 9:-1 10:-1 11:-1 
6332.790711393342 0 8192 8192 1:-0.666667 2:0.759859 3:-1 4:-1 5:-1 6:-1 7:-0.893382 8:-1 9:-1 10:-1 11:-1 
0 0 8192 8192 1:-0.666667 2:0.768713 3:-1 4:-1 5:-1 6:-1 7:-0.892501 8:-1 9:-1 10:-1 11:-1 
0 0 8192 8192 1:-0.666667 2:0.776853 3:-1 4:-1 5:-1 6:-1 7:-0.891623 8:-1 9:-1 10:-1 11:-1 
0 0 8192 8192 1:-0.666667 2:0.784909 3:-1 4:-1 5:-1 6:-1 7:-0.890685 8:-1 9:-1 10:-1 11:-1 
0 0 8192 8192 1:-0.666667 2:0.791623 3:-1 4:-1 5:-1 6:-1 7:-0.889857 8:-1 9:-1 10:-1 11:-1 
0 0 8192 8192 1:-0.666667 2:0.798293 3:-1 4:-1 5:-1 6:-1 7:-0.889247 8:-1 9:-1 10:-1 11:-1 
0 0 0 8192 1:-0.666667 2:0.805377 3:-1 4:-1 5:-1 6:-1 7:-0.888666 8:-1 9:-1 10:-1 11:-1 
0 0 0 8192 1:-0.666667 2:0.811581 3:-1 4:-1 5:-1 6:-1 7:-0.888247 8:-1 9:-1 10:-1 11:-1 
0 8192 0 8192 1:-0.666667 2:0.817863 3:-1 4:-1 5:-1 6:-1 7:-0.887876 8:-1 9:-1 10:-1 11:-1 
0 8192 0 8192 1:-0.666667 2:0.825166 3:-1 4:-1 5:-1 6:-1 7:-0.887681 8:-1 9:-1 10:-1 11:-1 
0 8192 0 0 1:-0.666667 2:0.83047 3:-1 4:-1 5:-1 6:-1 7:-0.887648 8:-1 9:-1 10:-1 11:-1 
0 8192 0 0 1:-0.666667 2:0.837496 3:-1 4:-1 5:-1 6:-1 7:-0.887949 8:-1 9:-1 10:-1 11:-1 
0 4687.59664607451 0 0 1:-0.666667 2:0.84055 3:-1 4:-1 5:-1 6:-1 7:-0.885484 8:-1 9:-1 10:-1 11:-1 
0 8192 0 0 1:-0.666667 2:0.836656 3:-1 4:-1 5:-1 6:-1 7:-0.88519 8:-1 9:-1 10:-1 11:-1 
0 8192 0 0 1:-0.666667 2:0.832666 3:-1 4:-1 5:-1 6:-1 7:-0.885018 8:-1 9:-1 10:-1 11:-1 
0 8192 0 0 1:-0.666667 2:0.82994 3:-1 4:-1 5:-1 6:-1 7:-0.884888 8:-1 9:-1 10:-1 11:-1 
0 8192 0 0 1:-0.666667 2:0.828228 3:-1 4:-1 5:-1 6:-1 7:-0.884456 8:-1 9:-1 10:-1 11:-1 
0 0 748.6970305435 8192 1:-0.666667 2:0.778427 3:-1 4:-1 5:-1 6:-1 7:-0.886529 8:-1 9:-1 10:-1 11:-1 
0 0 8192 8192 1:-0.666667 2:0.779037 3:-1 4:-1 5:-1 6:-1 7:-0.887052 8:-1 9:-1 10:-1 11:-1 
0 0 8192 8192 1:-0.666667 2:0.777045 3:-1 4:-1 5:-1 6:-1 7:-0.887436 8:-1 9:-1 10:-1 11:-1 
0 0 8192 8192 1:-0.666667 2:0.776227 3:-1 4:-1 5:-1 6:-1 7:-0.887858 8:-1 9:-1 10:-1 11:-1 
8192 0 8192 8192 1:-1 2:-1 3:-1 4:-1 5:-1 6:-1 7:-1 8:-1 9:-1 10:-1 11:-1 
8192 0 8192 8192 1:-1 2:-1 3:-1 4:-1 5:-1 6:-1 7:-1 8:-1 9:-1 10:-1 11:-1 
8192 0 8192 8192 1:-1 2:-1 3:-1 4:-1 5:-1 6:-1 7:-1 8:-1 9:-1 10:-1 11:-1 
8192 0 8192 8192 1:-0.666667 2:0.785745 3:-1 4:-1 5:-1 6:-1 7:-0.892668 8:-1 9:-1 10:-1 11:-1 
8192 0.04764313512050043 8192 8192 1:-1 2:-1 3:-1 4:-1 5:-1 6:-1 7:-1 8:-1 9:-1 10:-1 11:-1 
8192 0 8192 8192 1:-1 2:-1 3:-1 4:-1 5:-1 6:-1 7:-1 8:-1 9:-1 10:-1 11:-1 
8192 0 8192 8192 1:-1 2:-1 3:-1 4:-1 5:-1 6:-1 7:-1 8:-1 9:-1 10:-1 11:-1 
8192 0 8192 8192 1:-1 2:-1 3:-1 4:-1 5:-1 6:-1 7:-1 8:-1 9:-1 10:-1 11:-1 
8192 0 8192 8192 1:-1 2:-1 3:-1 4:-1 5:-1 6:-1 7:-1 8:-1 9:-1 10:-1 11:-1 
8192 0 8192 8192 1:-1 2:-1 3:-1 4:-1 5:-1 6:-1 7:-1 8:-1 9:-1 10:-1 11:-1 
8192 0 8192 8192 1:-1 2:-1 3:-1 4:-1 5:-1 6:-1 7:-1 8:-1 9:-1 10:-1 11:-1 
8192 0 8192 8192 1:-1 2:-1 3:-1 4:-1 5:-1 6:-1 7:-1 8:-1 9:-1 10:-1 11:-1 
8192 0 8192 8192 1:-1 2:-1 3:-1 4:-1 5:-1 6:-1 7:-1 8:-1 9:-1 10:-1 11:-1 
8192 0 8192 8192 1:-1 2:-1 3:-1 4:-1 5:-1 6:-1 7:-1 8:-1 9:-1 10:-1 11:-1 
8192 0 8192 8192 1:-1 2:-1 3:-1 4:-1 5:-1 6:-1 7:-1 8:-1 9:-1 10:-1 11:-1 
8192 0 8192 8192 1:-1 2:-1 3:-1 4:-1 5:-1 6:-1 7:-1 8:-1 9:-1 10:-1 11:-1 
8192 0 8192 8192 1:-1 2:-1 3:-1 4:-1 5:-1 6:-1 7:-1 8:-1 9:-1 10:-1 11:-1 
8192 0.01428843592266814 8192 8192 1:-1 2:-1 3:-1 4:-1 5:-1 6:-1 7:-1 8:-1 9:-1 10:-1 11:-1 
8192 0 8192 8192 1:-1 2:-1 3:-1 4:-1 5:-1 6:-1 7:-1 8:-1 9:-1 10:-1 11:-1 
8192 0 8192 8192 1:-1 2:-1 3:-1 4:-1 5:-1 6:-1 7:-1 8:-1 9:-1 10:-1 11:-1 
8192 0 8192 8192 1:-1 2:-1 3:-1 4:-1 5:-1 6:-1 7:-1 8:-1 9:-1 10:-1 11:-1 
8192 0 8192 8192 1:-1 2:-1 3:-1 4:-1 5:-1 6:-1 7:-1 8:-1 9:-1 10:-1 11:-1 
8192 0 8192 8192 1:-1 2:-1 3:-1 4:-1 5:-1 6:-1 7:-1 8:-1 9:-1 10:-1 11:-1 
8192 0 8192 8192 1:-1 2:-1 3:-1 4:-1 5:-1 6:-1 7:-1 8:-1 9:-1 10:-1 11:-1 
8192 0 8192 8192 1:-1 2:-1 3:-1 4:-1 5:-1 6:-1 7:-1 8:-1 9:-1 10:-1 11:-1 
0 0 8192 0 1:-0.666667 2:0.463102 3:-1 4:-1 5:-1 6:-1 7:-0.874924 8:-1 9:-1 10:-1 11:-1 
0 0 8192 0 1:-0.666667 2:0.449876 3:-1 4:-1 5:-1 6:-1 7:-0.87669 8:-1 9:-1 10:-1 11:-1 
0 8192 8192 0 1:-0.666667 2:0.523793 3:-1 4:-1 5:-1 6:-1 7:-0.878176 8:-1 9:-1 10:-1 11:-1 
0 8192 8192 0 1:-0.666667 2:0.506549 3:-1 4:-1 5:-1 6:-1 7:-0.87973 8:-1 9:-1 10:-1 11:-1 
0 0 8192 0 1:-0.666667 2:0.493661 3:-1 4:-1 5:-1 6:-1 7:-0.880956 8:-1 9:-1 10:-1 11:-1 
0 0 8192 0 1:-0.666667 2:0.485031 3:-1 4:-1 5:-1 6:-1 7:-0.881844 8:-1 9:-1 10:-1 11:-1 
0 0 8192 7941.085991725173 1:-0.666667 2:0.478791 3:-1 4:-1 5:-1 6:-1 7:-0.882921 8:-1 9:-1 10:-1 11:-1 
0 0 8192 8192 1:-0.666667 2:0.480919 3:-1 4:-1 5:-1 6:-1 7:-0.883843 8:-1 9:-1 10:-1 11:-1 
0 0 8192 8192 1:-0.666667 2:0.479469 3:-1 4:-1 5:-1 6:-1 7:-0.884829 8:-1 9:-1 10:-1 11:-1 
0 0 8192 8192 1:-0.666667 2:0.485437 3:-1 4:-1 5:-1 6:-1 7:-0.885295 8:-1 9:-1 10:-1 11:-1 
0 0 8192 8192 1:-0.666667 2:0.491499 3:-1 4:-1 5:-1 6:-1 7:-0.886028 8:-1 9:-1 10:-1 11:-1 
0 5503.65108063195 8192 8192 1:-0.666667 2:0.519639 3:-1 4:-1 5:-1 6:-1 7:-0.886826 8:-1 9:-1 10:-1 11:-1 
0 8192 8192 8192 1:-0.666667 2:0.522593 3:-1 4:-1 5:-1 6:-1 7:-0.886636 8:-1 9:-1 10:-1 11:-1 
0 8192 8192 8192 1:-0.666667 2:0.542864 3:-1 4:-1 5:-1 6:-1 7:-0.886458 8:-1 9:-1 10:-1 11:-1 
0 8192 8192 8192 1:-0.666667 2:0.561746 3:-1 4:-1 5:-1 6:-1 7:-0.886194 8:-1 9:-1 10:-1 11:-1 
0 8192 8192 8192 1:-0.666667 2:0.574762 3:-1 4:-1 5:-1 6:-1 7:-0.885574 8:-1 9:-1 10:-1 11:-1 
0 8192 8192 6451.963207560612 1:-0.666667 2:0.589036 3:-1 4:-1 5:-1 6:-1 7:-0.885152 8:-1 9:-1 10:-1 11:-1 
0 8192 8192 0 1:-0.666667 2:0.596974 3:-1 4:-1 5:-1 6:-1 7:-0.884475 8:-1 9:-1 10:-1 11:-1 
0 8192 8192 0 1:-0.666667 2:0.608753 3:-1 4:-1 5:-1 6:-1 7:-0.884194 8:-1 9:-1 10:-1 11:-1 
0 8192 8192 0 1:-0.666667 2:0.614763 3:-1 4:-1 5:-1 6:-1 7:-0.883534 8:-1 9:-1 10:-1 11:-1 
0 8192 8192 0 1:-0.666667 2:0.605878 3:-1 4:-1 5:-1 6:-1 7:-0.883103 8:-1 9:-1 10:-1 11:-1 
0 8192 8192 0 1:-0.666667 2:0.597984 3:-1 4:-1 5:-1 6:-1 7:-0.882456 8:-1 9:-1 10:-1 11:-1 
0 8192 8192 0 1:-0.666667 2:0.607281 3:-1 4:-1 5:-1 6:-1 7:-0.881459 8:-1 9:-1 10:-1 11:-1 
0 8192 8192 0 1:-0.666667 2:0.631453 3:-1 4:-1 5:-1 6:-1 7:-0.881264 8:-1 9:-1 10:-1 11:-1 
0 8192 8192 0 1:-0.666667 2:0.641527 3:-1 4:-1 5:-1 6:-1 7:-0.880584 8:-1 9:-1 10:-1 11:-1 
0 8192 8192 0 1:-0.666667 2:0.653095 3:-1 4:-1 5:-1 6:-1 7:-0.880078 8:-1 9:-1 10:-1 11:-1 
0 8192 8192 0 1:-0.666667 2:0.661345 3:-1 4:-1 5:-1 6:-1 7:-0.879419 8:-1 9:-1 10:-1 11:-1 
0 8192 0 0 1:-0.666667 2:0.671415 3:-1 4:-1 5:-1 6:-1 7:-0.878368 8:-1 9:-1 10:-1 11:-1 
0 8192 0 0 1:-0.666667 2:0.676929 3:-1 4:-1 5:-1 6:-1 7:-0.877943 8:-1 9:-1 10:-1 11:-1 
0 8192 0 0 1:-0.666667 2:0.681702 3:-1 4:-1 5:-1 6:-1 7:-0.877521 8:-1 9:-1 10:-1 11:-1 
0 8192 0 0 1:-0.666667 2:0.685442 3:-1 4:-1 5:-1 6:-1 7:-0.877294 8:-1 9:-1 10:-1 11:-1 
0 8192 0 0 1:-0.666667 2:0.687688 3:-1 4:-1 5:-1 6:-1 7:-0.877008 8:-1 9:-1 10:-1 11:-1 
0 8192 0 0 1:-0.666667 2:0.686338 3:-1 4:-1 5:-1 6:-1 7:-0.876278 8:-1 9:-1 10:-1 11:-1 
0 8192 0 0 1:-0.666667 2:0.682006 3:-1 4:-1 5:-1 6:-1 7:-0.875999 8:-1 9:-1 10:-1 11:-1 
0 8192 0 0 1:-0.666667 2:0.681478 3:-1 4:-1 5:-1 6:-1 7:-0.875769 8:-1 9:-1 10:-1 11:-1 
0 8192 0 0 1:-0.666667 2:0.672871 3:-1 4:-1 5:-1 6:-1 7:-0.875454 8:-1 9:-1 10:-1 11:-1 
0 8192 8192 0 1:-0.666667 2:0.658389 3:-1 4:-1 5:-1 6:-1 7:-0.875324 8:-1 9:-1 10:-1 11:-1 
0 8192 4275.170145029828 0 1:-0.666667 2:0.658853 3:-1 4:-1 5:-1 6:-1 7:-0.875308 8:-1 9:-1 10:-1 11:-1 
0 8192 8192 0 1:-0.666667 2:0.650297 3:-1 4:-1 5:-1 6:-1 7:-0.874704 8:-1 9:-1 10:-1 11:-1 
0 8192 8192 0 1:-0.666667 2:0.639127 3:-1 4:-1 5:-1 6:-1 7:-0.874335 8:-1 9:-1 10:-1 11:-1 
0 8192 8192 0 1:-0.666667 2:0.626403 3:-1 4:-1 5:-1 6:-1 7:-0.873792 8:-1 9:-1 10:-1 11:-1 
0 8192 8192 0 1:-0.666667 2:0.625765 3:-1 4:-1 5:-1 6:-1 7:-0.87307 8:-1 9:-1 10:-1 11:-1 
0 8192 8192 0 1:-0.666667 2:0.610181 3:-1 4:-1 5:-1 6:-1 7:-0.872671 8:-1 9:-1 10:-1 11:-1 
0 8192 8192 0 1:-0.666667 2:0.585892 3:-1 4:-1 5:-1 6:-1 7:-0.872245 8:-1 9:-1 10:-1 11:-1 
0 8192 8192 0 1:-0.666667 2:0.560036 3:-1 4:-1 5:-1 6:-1 7:-0.871961 8:-1 9:-1 10:-1 11:-1 
0 8192 8192 0 1:-0.666667 2:0.537484 3:-1 4:-1 5:-1 6:-1 7:-0.871679 8:-1 9:-1 10:-1 11:-1 
0 8192 8192 0 1:-0.666667 2:0.512929 3:-1 4:-1 5:-1 6:-1 7:-0.871134 8:-1 9:-1 10:-1 11:-1 
0 0 8192 0 1:-0.666667 2:0.475283 3:-1 4:-1 5:-1 6:-1 7:-0.870171 8:-1 9:-1 10:-1 11:-1 
0 0 8192 0 1:-0.666667 2:0.466879 3:-1 4:-1 5:-1 6:-1 7:-0.870002 8:-1 9:-1 10:-1 11:-1 
0 0 8192 0 1:-0.666667 2:0.434936 3:-1 4:-1 5:-1 6:-1 7:-0.869435 8:-1 9:-1 10:-1 11:-1 
0 0 8192 0 1:-0.666667 2:0.391811 3:-1 4:-1 5:-1 6:-1 7:-0.868715 8:-1 9:-1 10:-1 11:-1 
0 0 8192 0 1:-0.666667 2:0.375393 3:-1 4:-1 5:-1 6:-1 7:-0.868555 8:-1 9:-1 10:-1 11:-1 
0 0 8192 0 1:-0.666667 2:0.367949 3:-1 4:-1 5:-1 6:-1 7:-0.868073 8:-1 9:-1 10:-1 11:-1 
0 0 8192 0 1:-0.666667 2:0.329203 3:-1 4:-1 5:-1 6:-1 7:-0.868013 8:-1 9:-1 10:-1 11:-1 
0 0 8192 0 1:-0.666667 2:0.324395 3:-1 4:-1 5:-1 6:-1 7:-0.867939 8:-1 9:-1 10:-1 11:-1 
0 8192 8192 0 1:-0.666667 2:0.304652 3:-1 4:-1 5:-1 6:-1 7:-0.868049 8:-1 9:-1 10:-1 11:-1 
0 8192 8192 363.2159143272409 1:-0.666667 2:0.261276 3:-1 4:-1 5:-1 6:-1 7:-0.867529 8:-1 9:-1 10:-1 11:-1 
0 8192 8192 0 1:-0.666667 2:0.321491 3:-1 4:-1 5:-1 6:-1 7:-0.866984 8:-1 9:-1 10:-1 11:-1 
0 2331.276708558266 8192 0 1:-0.666667 2:0.321979 3:-1 4:-1 5:-1 6:-1 7:-0.866803 8:-1 9:-1 10:-1 11:-1 
0 0 8192 0 1:-0.666667 2:0.334393 3:-1 4:-1 5:-1 6:-1 7:-0.867026 8:-1 9:-1 10:-1 11:-1 
0 0 8192 0 1:-0.666667 2:0.377079 3:-1 4:-1 5:-1 6:-1 7:-0.866663 8:-1 9:-1 10:-1 11:-1 
0 0 8192 0 1:-0.666667 2:0.359175 3:-1 4:-1 5:-1 6:-1 7:-0.866602 8:-1 9:-1 10:-1 11:-1 
0 0 8192 0 1:-0.666667 2:0.419816 3:-1 4:-1 5:-1 6:-1 7:-0.866202 8:-1 9:-1 10:-1 11:-1 
0 0 8192 0 1:-0.666667 2:0.397284 3:-1 4:-1 5:-1 6:-1 7:-0.865842 8:-1 9:-1 10:-1 11:-1 
0 0 8192 0 1:-0.666667 2:0.401646 3:-1 4:-1 5:-1 6:-1 7:-0.866402 8:-1 9:-1 10:-1 11:-1 
0 0 8192 0 1:-0.666667 2:0.409244 3:-1 4:-1 5:-1 6:-1 7:-0.866738 8:-1 9:-1 10:-1 11:-1 
0 0 8192 0 1:-0.666667 2:0.41655 3:-1 4:-1 5:-1 6:-1 7:-0.86719 8:-1 9:-1 10:-1 11:-1 
0 0 8192 0 1:-0.666667 2:0.422616 3:-1 4:-1 5:-1 6:-1 7:-0.867654 8:-1 9:-1 10:-1 11:-1 
0 0 8192 0 1:-0.666667 2:0.428576 3:-1 4:-1 5:-1 6:-1 7:-0.867657 8:-1 9:-1 10:-1 11:-1 
0 0 8192 0 1:-0.666667 2:0.421538 3:-1 4:-1 5:-1 6:-1 7:-0.867785 8:-1 9:-1 10:-1 11:-1 
0 0 8192 0 1:-0.666667 2:0.429524 3:-1 4:-1 5:-1 6:-1 7:-0.867918 8:-1 9:-1 10:-1 11:-1 
0 0 8192 0 1:-0.666667 2:0.440026 3:-1 4:-1 5:-1 6:-1 7:-0.869053 8:-1 9:-1 10:-1 11:-1 
0 0 8192 0 1:-0.666667 2:0.44972 3:-1 4:-1 5:-1 6:-1 7:-0.868996 8:-1 9:-1 10:-1 11:-1 
0 0 8192 0 1:-0.666667 2:0.451308 3:-1 4:-1 5:-1 6:-1 7:-0.869077 8:-1 9:-1 10:-1 11:-1 
0 0 8192 0 1:-0.666667 2:0.45842 3:-1 4:-1 5:-1 6:-1 7:-0.869222 8:-1 9:-1 10:-1 11:-1 
0 0 8192 0 1:-0.666667 2:0.467427 3:-1 4:-1 5:-1 6:-1 7:-0.8691 8:-1 9:-1 10:-1 11:-1 
0 0 8192 0 1:-0.666667 2:0.473061 3:-1 4:-1 5:-1 6:-1 7:-0.8692 8:-1 9:-1 10:-1 11:-1 
0 3789.781954502627 8192 0 1:-0.666667 2:0.482735 3:-1 4:-1 5:-1 6:-1 7:-0.869597 8:-1 9:-1 10:-1 11:-1 
0 8192 8192 0 1:-0.666667 2:0.489555 3:-1 4:-1 5:-1 6:-1 7:-0.86961 8:-1 9:-1 10:-1 11:-1 
0 8192 8192 0 1:-0.666667 2:0.485229 3:-1 4:-1 5:-1 6:-1 7:-0.869158 8:-1 9:-1 10:-1 11:-1 
0 8192 8192 0 1:-0.666667 2:0.515287 3:-1 4:-1 5:-1 6:-1 7:-0.868829 8:-1 9:-1 10:-1 11:-1 
0 8192 8192 0 1:-0.666667 2:0.517829 3:-1 4:-1 5:-1 6:-1 7:-0.869267 8:-1 9:-1 10:-1 11:-1 
0 8192 8192 0 1:-0.666667 2:0.516317 3:-1 4:-1 5:-1 6:-1 7:-0.869572 8:-1 9:-1 10:-1 11:-1 
0 8192 8192 0 1:-0.666667 2:0.516431 3:-1 4:-1 5:-1 6:-1 7:-0.869886 8:-1 9:-1 10:-1 11:-1 
0 8192 8192 0 1:-0.666667 2:0.499443 3:-1 4:-1 5:-1 6:-1 7:-0.869241 8:-1 9:-1 10:-1 11:-1 
0 0 8192 0 1:-0.666667 2:0.477655 3:-1 4:-1 5:-1 6:-1 7:-0.868771 8:-1 9:-1 10:-1 11:-1 
0 8192 8192 0 1:-0.666667 2:0.483291 3:-1 4:-1 5:-1 6:-1 7:-0.869041 8:-1 9:-1 10:-1 11:-1 
0 8192 8192 0 1:-0.666667 2:0.484869 3:-1 4:-1 5:-1 6:-1 7:-0.8694 8:-1 9:-1 10:-1 11:-1 
0 0 8192 0 1:-0.666667 2:0.467029 3:-1 4:-1 5:-1 6:-1 7:-0.869011 8:-1 9:-1 10:-1 11:-1 
0 0 8192 0 1:-0.666667 2:0.450638 3:-1 4:-1 5:-1 6:-1 7:-0.868713 8:-1 9:-1 10:-1 11:-1 
0 0 8192 0 1:-0.666667 2:0.45484 3:-1 4:-1 5:-1 6:-1 7:-0.868328 8:-1 9:-1 10:-1 11:-1 
0 0 8192 0 1:-0.666667 2:0.434634 3:-1 4:-1 5:-1 6:-1 7:-0.867752 8:-1 9:-1 10:-1 11:-1 
0 0 8192 0 1:-0.666667 2:0.418144 3:-1 4:-1 5:-1 6:-1 7:-0.867443 8:-1 9:-1 10:-1 11:-1 
0 0 8192 0 1:-0.666667 2:0.395798 3:-1 4:-1 5:-1 6:-1 7:-0.866933 8:-1 9:-1 10:-1 11:-1 
0 0 8192 0 1:-0.666667 2:0.395636 3:-1 4:-1 5:-1 6:-1 7:-0.867144 8:-1 9:-1 10:-1 11:-1 
0 0 8192 0 1:-0.666667 2:0.405348 3:-1 4:-1 5:-1 6:-1 7:-0.867059 8:-1 9:-1 10:-1 11:-1 
0 0 8192 0 1:-0.666667 2:0.409184 3:-1 4:-1 5:-1 6:-1 7:-0.867078 8:-1 9:-1 10:-1 11:-1 
0 0 8192 0 1:-0.666667 2:0.403848 3:-1 4:-1 5:-1 6:-1 7:-0.866953 8:-1 9:-1 10:-1 11:-1 
0 0 8192 0 1:-0.666667 2:0.400012 3:-1 4:-1 5:-1 6:-1 7:-0.867056 8:-1 9:-1 10:-1 11:-1 
0 0 8192 0 1:-0.666667 2:0.407654 3:-1 4:-1 5:-1 6:-1 7:-0.867094 8:-1 9:-1 10:-1 11:-1 
0 0 8192 0 1:-0.666667 2:0.413444 3:-1 4:-1 5:-1 6:-1 7:-0.867138 8:-1 9:-1 10:-1 11:-1 
0 0 8192 0 1:-0.666667 2:0.414852 3:-1 4:-1 5:-1 6:-1 7:-0.867403 8:-1 9:-1 10:-1 11:-1 
0 0 8192 0 1:-0.666667 2:0.416476 3:-1 4:-1 5:-1 6:-1 7:-0.867567 8:-1 9:-1 10:-1 11:-1 
0 0 8192 0 1:-0.666667 2:0.420722 3:-1 4:-1 5:-1 6:-1 7:-0.867646 8:-1 9:-1 10:-1 11:-1 
0 0 8192 0 1:-0.666667 2:0.424954 3:-1 4:-1 5:-1 6:-1 7:-0.867677 8:-1 9:-1 10:-1 11:-1 
0 0 8192 0 1:-0.666667 2:0.42741 3:-1 4:-1 5:-1 6:-1 7:-0.867521 8:-1 9:-1 10:-1 11:-1 
0 0 8192 0 1:-0.666667 2:0.427492 3:-1 4:-1 5:-1 6:-1 7:-0.867342 8:-1 9:-1 10:-1 11:-1 
0 0 8192 0 1:-0.666667 2:0.429806 3:-1 4:-1 5:-1 6:-1 7:-0.867032 8:-1 9:-1 10:-1 11:-1 
0 0 8192 0 1:-0.666667 2:0.433496 3:-1 4:-1 5:-1 6:-1 7:-0.866716 8:-1 9:-1 10:-1 11:-1 
0 0 8192 0 1:-0.666667 2:0.436266 3:-1 4:-1 5:-1 6:-1 7:-0.86637 8:-1 9:-1 10:-1 11:-1 
0 0 8192 0 1:-0.666667 2:0.435366 3:-1 4:-1 5:-1 6:-1 7:-0.865933 8:-1 9:-1 10:-1 11:-1 
0 0 8192 0 1:-0.666667 2:0.432736 3:-1 4:-1 5:-1 6:-1 7:-0.865557 8:-1 9:-1 10:-1 11:-1 
0 0 8192 0 1:-0.666667 2:0.433906 3:-1 4:-1 5:-1 6:-1 7:-0.865105 8:-1 9:-1 10:-1 11:-1 
0 0 8192 0 1:-0.666667 2:0.434228 3:-1 4:-1 5:-1 6:-1 7:-0.865265 8:-1 9:-1 10:-1 11:-1 
0 0 8192 0 1:-0.666667 2:0.430982 3:-1 4:-1 5:-1 6:-1 7:-0.86508 8:-1 9:-1 10:-1 11:-1 
0 0 8192 0 1:-0.666667 2:0.428308 3:-1 4:-1 5:-1 6:-1 7:-0.864932 8:-1 9:-1 10:-1 11:-1 
0 0 8192 0 1:-0.666667 2:0.433794 3:-1 4:-1 5:-1 6:-1 7:-0.864892 8:-1 9:-1 10:-1 11:-1 
0 0 8192 0 1:-0.666667 2:0.438602 3:-1 4:-1 5:-1 6:-1 7:-0.864805 8:-1 9:-1 10:-1 11:-1 
0 0 8192 0 1:-0.666667 2:0.44276 3:-1 4:-1 5:-1 6:-1 7:-0.864843 8:-1 9:-1 10:-1 11:-1 
0 0 8192 0 1:-0.666667 2:0.445444 3:-1 4:-1 5:-1 6:-1 7:-0.864537 8:-1 9:-1 10:-1 11:-1 
0 0 8192 0 1:-0.666667 2:0.449176 3:-1 4:-1 5:-1 6:-1 7:-0.864485 8:-1 9:-1 10:-1 11:-1 
0 0 8192 0 1:-0.666667 2:0.453864 3:-1 4:-1 5:-1 6:-1 7:-0.864125 8:-1 9:-1 10:-1 11:-1 
0 0 8192 0 1:-0.666667 2:0.458248 3:-1 4:-1 5:-1 6:-1 7:-0.863662 8:-1 9:-1 10:-1 11:-1 
0 0 8192 0 1:-0.666667 2:0.463518 3:-1 4:-1 5:-1 6:-1 7:-0.863172 8:-1 9:-1 10:-1 11:-1 
0 0 8192 0 1:-0.666667 2:0.467175 3:-1 4:-1 5:-1 6:-1 7:-0.862312 8:-1 9:-1 10:-1 11:-1 
0 0 8192 0 1:-0.666667 2:0.470619 3:-1 4:-1 5:-1 6:-1 7:-0.861748 8:-1 9:-1 10:-1 11:-1 
0 8192 8192 0 1:-0.666667 2:0.484803 3:-1 4:-1 5:-1 6:-1 7:-0.860812 8:-1 9:-1 10:-1 11:-1 
0 8192 8192 0 1:-0.666667 2:0.488933 3:-1 4:-1 5:-1 6:-1 7:-0.86003 8:-1 9:-1 10:-1 11:-1 
0 8192 8192 0 1:-0.666667 2:0.496419 3:-1 4:-1 5:-1 6:-1 7:-0.859507 8:-1 9:-1 10:-1 11:-1 
0 8192 8192 0 1:-0.666667 2:0.502137 3:-1 4:-1 5:-1 6:-1 7:-0.859052 8:-1 9:-1 10:-1 11:-1 
0 8192 8192 0 1:-0.666667 2:0.511559 3:-1 4:-1 5:-1 6:-1 7:-0.858598 8:-1 9:-1 10:-1 11:-1 
0 8192 8192 0 1:-0.666667 2:0.524155 3:-1 4:-1 5:-1 6:-1 7:-0.858603 8:-1 9:-1 10:-1 11:-1 
0 8192 8192 0 1:-0.666667 2:0.541894 3:-1 4:-1 5:-1 6:-1 7:-0.858636 8:-1 9:-1 10:-1 11:-1 
0 8192 8192 0 1:-0.666667 2:0.572748 3:-1 4:-1 5:-1 6:-1 7:-0.858957 8:-1 9:-1 10:-1 11:-1 
0 8192 8192 0 1:-0.666667 2:0.610369 3:-1 4:-1 5:-1 6:-1 7:-0.858769 8:-1 9:-1 10:-1 11:-1 
1.592969133578111 3.881588538499161 13.43170041391552 3.587163530985548 1:-0.333333 2:0.71536 3:0.688178 4:-0.0963743 5:-1 6:-1 7:-0.759429 8:-0.781606 9:-0.843667 10:-1 11:-1 
0 8192 0 0 1:-0.666667 2:0.665661 3:-1 4:-1 5:-1 6:-1 7:-0.868529 8:-1 9:-1 10:-1 11:-1 
0 8192 0 0 1:-0.666667 2:0.647537 3:-1 4:-1 5:-1 6:-1 7:-0.866561 8:-1 9:-1 10:-1 11:-1 
0 8192 8192 0 1:-0.666667 2:0.629703 3:-1 4:-1 5:-1 6:-1 7:-0.864817 8:-1 9:-1 10:-1 11:-1 
0 8192 8192 0 1:-0.666667 2:0.614799 3:-1 4:-1 5:-1 6:-1 7:-0.863723 8:-1 9:-1 10:-1 11:-1 
0 8192 8192 0 1:-0.666667 2:0.605086 3:-1 4:-1 5:-1 6:-1 7:-0.863312 8:-1 9:-1 10:-1 11:-1 
0 8192 8192 0 1:-0.666667 2:0.601064 3:-1 4:-1 5:-1 6:-1 7:-0.863248 8:-1 9:-1 10:-1 11:-1 
0 8192 8192 0 1:-0.666667 2:0.602194 3:-1 4:-1 5:-1 6:-1 7:-0.863263 8:-1 9:-1 10:-1 11:-1 
0 8192 8192 0 1:-0.666667 2:0.608723 3:-1 4:-1 5:-1 6:-1 7:-0.863923 8:-1 9:-1 10:-1 11:-1 
0 8192 8192 0 1:-0.666667 2:0.619681 3:-1 4:-1 5:-1 6:-1 7:-0.864786 8:-1 9:-1 10:-1 11:-1 
0 8192 8192 0 1:-0.666667 2:0.634031 3:-1 4:-1 5:-1 6:-1 7:-0.865758 8:-1 9:-1 10:-1 11:-1 
0 8192 0 0 1:-0.666667 2:0.650491 3:-1 4:-1 5:-1 6:-1 7:-0.866747 8:-1 9:-1 10:-1 11:-1 
0 4338.952179160847 0 0 1:-0.666667 2:0.667763 3:-1 4:-1 5:-1 6:-1 7:-0.867801 8:-1 9:-1 10:-1 11:-1 
8192 0 8192 8192 1:-1 2:-1 3:-1 4:-1 5:-1 6:-1 7:-1 8:-1 9:-1 10:-1 11:-1 
8192 0 8192 8192 1:-1 2:-1 3:-1 4:-1 5:-1 6:-1 7:-1 8:-1 9:-1 10:-1 11:-1 
8192 0 8192 8192 1:-1 2:-1 3:-1 4:-1 5:-1 6:-1 7:-1 8:-1 9:-1 10:-1 11:-1 
8192 0 8192 8192 1:-1 2:-1 3:-1 4:-1 5:-1 6:-1 7:-1 8:-1 9:-1 10:-1 11:-1 
8192 0 8192 8192 1:-1 2:-1 3:-1 4:-1 5:-1 6:-1 7:-1 8:-1 9:-1 10:-1 11:-1 
8192 0 8192 8192 1:-1 2:-1 3:-1 4:-1 5:-1 6:-1 7:-1 8:-1 9:-1 10:-1 11:-1 
8192 0 8192 8192 1:-1 2:-1 3:-1 4:-1 5:-1 6:-1 7:-1 8:-1 9:-1 10:-1 11:-1 
8192 0 8192 8192 1:-1 2:-1 3:-1 4:-1 5:-1 6:-1 7:-1 8:-1 9:-1 10:-1 11:-1 
8192 0 8192 8192 1:-1 2:-1 3:-1 4:-1 5:-1 6:-1 7:-1 8:-1 9:-1 10:-1 11:-1 
8192 2.815885830139635 8192 8192 1:-1 2:-1 3:-1 4:-1 5:-1 6:-1 7:-1 8:-1 9:-1 10:-1 11:-1 
8192 8192 8192 8192 1:-1 2:-1 3:-1 4:-1 5:-1 6:-1 7:-1 8:-1 9:-1 10:-1 11:-1 
8192 8192 8192 8192 1:-1 2:-1 3:-1 4:-1 5:-1 6:-1 7:-1 8:-1 9:-1 10:-1 11:-1 
8192 8192 8192 8192 1:-1 2:-1 3:-1 4:-1 5:-1 6:-1 7:-1 8:-1 9:-1 10:-1 11:-1 
8192 8192 8192 8192 1:-1 2:-1 3:-1 4:-1 5:-1 6:-1 7:-1 8:-1 9:-1 10:-1 11:-1 
8192 8192 8192 8192 1:-1 2:-1 3:-1 4:-1 5:-1 6:-1 7:-1 8:-1 9:-1 10:-1 11:-1 
8192 8192 8192 8192 1:-1 2:-1 3:-1 4:-1 5:-1 6:-1 7:-1 8:-1 9:-1 10:-1 11:-1 
8192 8192 8192 8192 1:-1 2:-1 3:-1 4:-1 5:-1 6:-1 7:-1 8:-1 9:-1 10:-1 11:-1 
8192 8192 8192 8192 1:-1 2:-1 3:-1 4:-1 5:-1 6:-1 7:-1 8:-1 9:-1 10:-1 11:-1 
8192 8192 8192 8192 1:-1 2:-1 3:-1 4:-1 5:-1 6:-1 7:-1 8:-1 9:-1 10:-1 11:-1 
8192 8192 8192 8192 1:-1 2:-1 3:-1 4:-1 5:-1 6:-1 7:-1 8:-1 9:-1 10:-1 11:-1 
8192 8192 8192 8192 1:-1 2:-1 3:-1 4:-1 5:-1 6:-1 7:-1 8:-1 9:-1 10:-1 11:-1 
8192 8192 8192 8192 1:-1 2:-1 3:-1 4:-1 5:-1 6:-1 7:-1 8:-1 9:-1 10:-1 11:-1 
8192 8192 8192 8192 1:-1 2:-1 3:-1 4:-1 5:-1 6:-1 7:-1 8:-1 9:-1 10:-1 11:-1 
8192 8192 8192 8192 1:-1 2:-1 3:-1 4:-1 5:-1 6:-1 7:-1 8:-1 9:-1 10:-1 11:-1 
8192 8192 8192 8192 1:-1 2:-1 3:-1 4:-1 5:-1 6:-1 7:-1 8:-1 9:-1 10:-1 11:-1 
8192 8192 8192 8192 1:-1 2:-1 3:-1 4:-1 5:-1 6:-1 7:-1 8:-1 9:-1 10:-1 11:-1 
8192 8192 8192 8192 1:-1 2:-1 3:-1 4:-1 5:-1 6:-1 7:-1 8:-1 9:-1 10:-1 11:-1 
8192 8192 8192 8192 1:-1 2:-1 3:-1 4:-1 5:-1 6:-1 7:-1 8:-1 9:-1 10:-1 11:-1 
8192 8192 8192 8192 1:-1 2:-1 3:-1 4:-1 5:-1 6:-1 7:-1 8:-1 9:-1 10:-1 11:-1 
8192 8192 8192 8192 1:-1 2:-1 3:-1 4:-1 5:-1 6:-1 7:-1 8:-1 9:-1 10:-1 11:-1 
0 8192 8192 0 1:-0.666667 2:0.635931 3:-1 4:-1 5:-1 6:-1 7:-0.878281 8:-1 9:-1 10:-1 11:-1 
0 8192 8192 0 1:-0.666667 2:0.649157 3:-1 4:-1 5:-1 6:-1 7:-0.879806 8:-1 9:-1 10:-1 11:-1 
0 8192 8192 0 1:-0.666667 2:0.663629 3:-1 4:-1 5:-1 6:-1 7:-0.880814 8:-1 9:-1 10:-1 11:-1 
0 8192 8192 0 1:-0.666667 2:0.677935 3:-1 4:-1 5:-1 6:-1 7:-0.881375 8:-1 9:-1 10:-1 11:-1 
0 8192 8192 0 1:-0.666667 2:0.691126 3:-1 4:-1 5:-1 6:-1 7:-0.881651 8:-1 9:-1 10:-1 11:-1 
0.1880416048399906 0 0 0.4878754695871836 1:-0.333333 2:0.805237 3:0.803008 4:0.381058 5:-1 6:-1 7:-0.748928 8:-0.782868 9:-0.850177 10:-1 11:-1 
0 0 31.26161216372049 0 1:-0.333333 2:0.918705 3:0.799923 4:0.56555 5:-1 6:-1 7:-0.73782 8:-0.782985 9:-0.847885 10:-1 11:-1 
0.1414607959609751 0 0 0 1:-0.333333 2:0.99437 3:0.79793 4:0.787301 5:-1 6:-1 7:-0.741709 8:-0.787853 9:-0.847029 10:-1 11:-1 
0 386.84797380037 7.343153812725043 0 1:-0.333333 2:0.956931 3:0.794589 4:0.637887 5:-1 6:-1 7:-0.739973 8:-0.789246 9:-0.84599 10:-1 11:-1 
0 34.48301965955867 8.879775531726649 0 1:-0.333333 2:0.87069 3:0.793547 4:0.447549 5:-1 6:-1 7:-0.742491 8:-0.791195 9:-0.84561 10:-1 11:-1 
0 0 21.73444441048622 0.9526565283893781 1:-0.333333 2:0.791753 3:0.761749 4:0.258579 5:-1 6:-1 7:-0.744296 8:-0.7929 9:-0.845287 10:-1 11:-1 
0 21.51209016131673 8.528154997516259 0 1:-0.333333 2:0.789245 3:0.675436 4:0.120411 5:-1 6:-1 7:-0.739588 8:-0.796391 9:-0.843926 10:-1 11:-1 
0 4.369399523737842 0 0 1:-0.333333 2:0.789805 3:0.710487 4:0.13882 5:-1 6:-1 7:-0.74342 8:-0.801631 9:-0.843837 10:-1 11:-1 
0.3701264885794582 0 0 0 1:-0.333333 2:0.818391 3:0.801005 4:0.317798 5:-1 6:-1 7:-0.759235 8:-0.807774 9:-0.846224 10:-1 11:-1 
0 0 8192 0 1:-0.666667 2:0.517625 3:-1 4:-1 5:-1 6:-1 7:-0.803052 8:-1 9:-1 10:-1 11:-1 
0 0 8192 0 1:-0.666667 2:0.519453 3:-1 4:-1 5:-1 6:-1 7:-0.803847 8:-1 9:-1 10:-1 11:-1 
0 0 8192 0 1:-0.666667 2:0.521253 3:-1 4:-1 5:-1 6:-1 7:-0.804382 8:-1 9:-1 10:-1 11:-1 
0 0 8192 0 1:-0.666667 2:0.518341 3:-1 4:-1 5:-1 6:-1 7:-0.802967 8:-1 9:-1 10:-1 11:-1 
0 0 8192 0 1:-0.666667 2:0.514465 3:-1 4:-1 5:-1 6:-1 7:-0.803522 8:-1 9:-1 10:-1 11:-1 
0 0 8192 0 1:-0.666667 2:0.513699 3:-1 4:-1 5:-1 6:-1 7:-0.802523 8:-1 9:-1 10:-1 11:-1 
0 0 8192 0 1:-0.666667 2:0.514795 3:-1 4:-1 5:-1 6:-1 7:-0.80435 8:-1 9:-1 10:-1 11:-1 
0 0 8192 0 1:-0.666667 2:0.514589 3:-1 4:-1 5:-1 6:-1 7:-0.803352 8:-1 9:-1 10:-1 11:-1 
0 0 8192 0 1:-0.666667 2:0.513897 3:-1 4:-1 5:-1 6:-1 7:-0.802522 8:-1 9:-1 10:-1 11:-1 
0 0 569.3188861241701 0 1:-0.666667 2:0.513407 3:-1 4:-1 5:-1 6:-1 7:-0.801926 8:-1 9:-1 10:-1 11:-1 
0 0 2793.188481214997 0 1:-0.666667 2:0.676753 3:-1 4:-1 5:-1 6:-1 7:-0.792064 8:-1 9:-1 10:-1 11:-1 
0 0 8192 0 1:-0.666667 2:0.676587 3:-1 4:-1 5:-1 6:-1 7:-0.791858 8:-1 9:-1 10:-1 11:-1 
0 0 8192 0 1:-0.666667 2:0.529109 3:-1 4:-1 5:-1 6:-1 7:-0.802832 8:-1 9:-1 10:-1 11:-1 
0 0 8192 0 1:-0.666667 2:0.519383 3:-1 4:-1 5:-1 6:-1 7:-0.802331 8:-1 9:-1 10:-1 11:-1 
0 0 8192 0 1:-0.666667 2:0.229817 3:-1 4:-1 5:-1 6:-1 7:-0.777385 8:-1 9:-1 10:-1 11:-1 
0 0 8192 0 1:-0.666667 2:0.227925 3:-1 4:-1 5:-1 6:-1 7:-0.777013 8:-1 9:-1 10:-1 11:-1 
0 0 8192 0 1:-0.666667 2:0.226621 3:-1 4:-1 5:-1 6:-1 7:-0.776673 8:-1 9:-1 10:-1 11:-1 
0 0 1313.480745772311 0 1:-0.666667 2:0.226205 3:-1 4:-1 5:-1 6:-1 7:-0.77635 8:-1 9:-1 10:-1 11:-1 
0 8192 0 0 1:-0.666667 2:0.619987 3:-1 4:-1 5:-1 6:-1 7:-0.770524 8:-1 9:-1 10:-1 11:-1 
0 8192 0 0 1:-0.666667 2:0.622299 3:-1 4:-1 5:-1 6:-1 7:-0.770511 8:-1 9:-1 10:-1 11:-1 
0 8192 0 0 1:-0.666667 2:0.624271 3:-1 4:-1 5:-1 6:-1 7:-0.770682 8:-1 9:-1 10:-1 11:-1 
0 8192 0 0 1:-0.666667 2:0.624001 3:-1 4:-1 5:-1 6:-1 7:-0.770986 8:-1 9:-1 10:-1 11:-1 
0 7305.289791533604 0 0 1:-0.666667 2:0.623035 3:-1 4:-1 5:-1 6:-1 7:-0.77118 8:-1 9:-1 10:-1 11:-1 
0 8192 0 0 1:-0.666667 2:0.601152 3:-1 4:-1 5:-1 6:-1 7:-0.767936 8:-1 9:-1 10:-1 11:-1 
0 1864.105798942312 0 0 1:-0.666667 2:0.595922 3:-1 4:-1 5:-1 6:-1 7:-0.767332 8:-1 9:-1 10:-1 11:-1 
0 8192 0 0 1:-0.666667 2:0.590214 3:-1 4:-1 5:-1 6:-1 7:-0.766686 8:-1 9:-1 10:-1 11:-1 
0 2844.884741822993 0 0 1:-0.666667 2:0.56301 3:-1 4:-1 5:-1 6:-1 7:-0.764137 8:-1 9:-1 10:-1 11:-1 
0 8192 0 0 1:-0.666667 2:0.556282 3:-1 4:-1 5:-1 6:-1 7:-0.763512 8:-1 9:-1 10:-1 11:-1 
0 8192 0 0 1:-0.666667 2:0.549356 3:-1 4:-1 5:-1 6:-1 7:-0.762654 8:-1 9:-1 10:-1 11:-1 
0 8192 0 0 1:-0.666667 2:0.54131 3:-1 4:-1 5:-1 6:-1 7:-0.762124 8:-1 9:-1 10:-1 11:-1 
0 8192 0 0 1:-0.666667 2:0.532849 3:-1 4:-1 5:-1 6:-1 7:-0.761529 8:-1 9:-1 10:-1 11:-1 
0 8192 0 0 1:-0.666667 2:0.524195 3:-1 4:-1 5:-1 6:-1 7:-0.761172 8:-1 9:-1 10:-1 11:-1 
0 8192 0 0 1:-0.666667 2:0.515513 3:-1 4:-1 5:-1 6:-1 7:-0.760697 8:-1 9:-1 10:-1 11:-1 
0 8192 0 0 1:-0.666667 2:0.507199 3:-1 4:-1 5:-1 6:-1 7:-0.760778 8:-1 9:-1 10:-1 11:-1 
0 8192 0 0 1:-0.666667 2:0.496741 3:-1 4:-1 5:-1 6:-1 7:-0.760501 8:-1 9:-1 10:-1 11:-1 
0 8192 0 0 1:-0.666667 2:0.487607 3:-1 4:-1 5:-1 6:-1 7:-0.760658 8:-1 9:-1 10:-1 11:-1 
0 8192 0 0 1:-0.666667 2:0.479123 3:-1 4:-1 5:-1 6:-1 7:-0.761024 8:-1 9:-1 10:-1 11:-1 
0 8192 0 0 1:-0.666667 2:0.470553 3:-1 4:-1 5:-1 6:-1 7:-0.761282 8:-1 9:-1 10:-1 11:-1 
0 6901.499564564056 0 0 1:-0.666667 2:0.463236 3:-1 4:-1 5:-1 6:-1 7:-0.762122 8:-1 9:-1 10:-1 11:-1 
0 0 0 20.66011759815193 1:-0.666667 2:0.445644 3:-1 4:-1 5:-1 6:-1 7:-0.765234 8:-1 9:-1 10:-1 11:-1 
0 0 18.27677241497568 0 1:-0.333333 2:0.432848 3:-0.0810745 4:-0.604144 5:-1 6:-1 7:-0.71244 8:-0.739727 9:-0.718291 10:-1 11:-1 
1.369574114740261 6.186796651321051 10.58447615915825 2.366750456744818 1:-0.333333 2:0.427818 3:-0.244654 4:-0.365739 5:-1 6:-1 7:-0.697487 8:-0.73237 9:-0.722055 10:-1 11:-1 
1.361146544301704 5.66166214795326 4.368380730017675 2.546855683084007 1:-0.333333 2:0.41348 3:0.0610182 4:-0.620174 5:-1 6:-1 7:-0.683184 8:-0.727481 9:-0.719244 10:-1 11:-1 
0 0 0 47.62845110292405 1:-0.666667 2:0.403462 3:-1 4:-1 5:-1 6:-1 7:-0.767129 8:-1 9:-1 10:-1 11:-1 
0 6381.141502114745 0 0 1:-0.666667 2:0.348319 3:-1 4:-1 5:-1 6:-1 7:-0.761453 8:-1 9:-1 10:-1 11:-1 
0 4200.597936519021 0 0 1:-0.666667 2:0.180285 3:-1 4:-1 5:-1 6:-1 7:-0.762486 8:-1 9:-1 10:-1 11:-1 
0 8192 0 0 1:-0.666667 2:0.17842 3:-1 4:-1 5:-1 6:-1 7:-0.762562 8:-1 9:-1 10:-1 11:-1 
0 8192 0 0 1:-0.666667 2:0.177282 3:-1 4:-1 5:-1 6:-1 7:-0.762712 8:-1 9:-1 10:-1 11:-1 
0 8192 0 0 1:-0.666667 2:0.17692 3:-1 4:-1 5:-1 6:-1 7:-0.762984 8:-1 9:-1 10:-1 11:-1 
0 8192 1451.208100990973 0 1:-0.666667 2:0.178002 3:-1 4:-1 5:-1 6:-1 7:-0.76339 8:-1 9:-1 10:-1 11:-1 
0 8192 0 0 1:-0.666667 2:0.179471 3:-1 4:-1 5:-1 6:-1 7:-0.763505 8:-1 9:-1 10:-1 11:-1 
0 8192 0 0 1:-0.666667 2:0.180763 3:-1 4:-1 5:-1 6:-1 7:-0.763682 8:-1 9:-1 10:-1 11:-1 
0 8192 0 0 1:-0.666667 2:0.182985 3:-1 4:-1 5:-1 6:-1 7:-0.763899 8:-1 9:-1 10:-1 11:-1 
0 0 1901.522966081557 0 1:-0.666667 2:0.566066 3:-1 4:-1 5:-1 6:-1 7:-0.80639 8:-1 9:-1 10:-1 11:-1 
0 0 8192 0 1:-0.666667 2:0.56364 3:-1 4:-1 5:-1 6:-1 7:-0.806244 8:-1 9:-1 10:-1 11:-1 
0 0 8192 0 1:-0.666667 2:0.561502 3:-1 4:-1 5:-1 6:-1 7:-0.80614 8:-1 9:-1 10:-1 11:-1 
0 0 8192 0 1:-0.666667 2:0.558788 3:-1 4:-1 5:-1 6:-1 7:-0.805904 8:-1 9:-1 10:-1 11:-1 
0 0 8192 0 1:-0.666667 2:0.556102 3:-1 4:-1 5:-1 6:-1 7:-0.80553 8:-1 9:-1 10:-1 11:-1 
0 0 8192 0 1:-0.666667 2:0.553778 3:-1 4:-1 5:-1 6:-1 7:-0.805275 8:-1 9:-1 10:-1 11:-1 
0 0 8192 0 1:-0.666667 2:0.550674 3:-1 4:-1 5:-1 6:-1 7:-0.804998 8:-1 9:-1 10:-1 11:-1 
0 0 8192 0 1:-0.666667 2:0.547466 3:-1 4:-1 5:-1 6:-1 7:-0.804635 8:-1 9:-1 10:-1 11:-1 
0 0 8192 0 1:-0.666667 2:0.542826 3:-1 4:-1 5:-1 6:-1 7:-0.80418 8:-1 9:-1 10:-1 11:-1 
0 0 8192 0 1:-0.666667 2:0.538276 3:-1 4:-1 5:-1 6:-1 7:-0.803807 8:-1 9:-1 10:-1 11:-1 
0 0 8192 0 1:-0.666667 2:0.533177 3:-1 4:-1 5:-1 6:-1 7:-0.803487 8:-1 9:-1 10:-1 11:-1 
0 0 8192 0 1:-0.666667 2:0.527675 3:-1 4:-1 5:-1 6:-1 7:-0.802965 8:-1 9:-1 10:-1 11:-1 
0 0 8192 0 1:-0.666667 2:0.522547 3:-1 4:-1 5:-1 6:-1 7:-0.802385 8:-1 9:-1 10:-1 11:-1 
0.1334263041374036 0.2771720089486235 0 0.2584544085727991 1:-0.333333 2:0.925795 3:-0.0484503 4:-0.363347 5:-1 6:-1 7:0.262907 8:0.227342 9:-0.848346 10:-1 11:-1 
0.919074983131568 1.48180136220323 3.924157610459359 1.716632953579516 1:-0.333333 2:0.924217 3:-0.188018 4:-0.505188 5:-1 6:-1 7:0.253706 8:0.220956 9:-0.852418 10:-1 11:-1 
0 0 2.843700931221261 0 1:-0.333333 2:0.925055 3:0.248361 4:-0.0438911 5:-1 6:-1 7:0.246684 8:0.212915 9:-0.851804 10:-1 11:-1 
0.8248333594949183 1.301740984372044 3.364034845308743 1.539245030193832 1:-0.333333 2:0.925551 3:0.105466 4:-0.191819 5:-1 6:-1 7:0.240676 8:0.206335 9:-0.852041 10:-1 11:-1 
21.14265263570608 15.22776294101047 564.5288127026546 1.972288105965861 1:-0.666667 2:0.199573 3:-1 4:-1 5:-1 6:-1 7:0.156507 8:-1 9:-1 10:-1 11:-1 
0 0 810.7761220913578 0 1:-0.666667 2:0.558662 3:-1 4:-1 5:-1 6:-1 7:0.122546 8:-1 9:-1 10:-1 11:-1 
0.3157556111620192 0.5988232297905363 0.5022007128080659 0.5857292076485831 1:-0.333333 2:0.916781 3:0.844637 4:0.626164 5:-1 6:-1 7:0.174907 8:0.115822 9:-0.846366 10:-1 11:-1 
23.17931690877582 0 22.19030344694135 8.068298080879378 1:-0.666667 2:0.724304 3:-1 4:-1 5:-1 6:-1 7:0.0669276 8:-1 9:-1 10:-1 11:-1 
0 16.17029441808492 274.3681419068376 0 1:-0.666667 2:0.538102 3:-1 4:-1 5:-1 6:-1 7:0.0636194 8:-1 9:-1 10:-1 11:-1 
8192 8192 8192 8192 1:-1 2:-1 3:-1 4:-1 5:-1 6:-1 7:-1 8:-1 9:-1 10:-1 11:-1 
0.6763497706871374 0.9918924920771848 3.691969857343045 1.271058057045269 1:-0.333333 2:0.893399 3:0.795466 4:0.497423 5:-1 6:-1 7:0.199192 8:0.146703 9:-0.849147 10:-1 11:-1 
0 0 28.40517583553891 0 1:-0.333333 2:0.885844 3:0.317973 4:0.206462 5:-1 6:-1 7:-0.749043 8:-0.767478 9:-0.849193 10:-1 11:-1 
0.8285836056870061 1.352475994235481 3.213018994541701 1.551095567902633 2:0.888934 3:0.746476 4:0.601271 5:0.310936 6:0.252565 7:0.269764 8:0.260195 9:0.356489 10:-0.69261 11:-0.682955 
1.371491454012318 2.27272971633383 5.314907519517007 2.566218724626564 2:0.896637 3:0.741226 4:0.390275 5:0.328406 6:0.278203 7:0.277814 8:0.275459 9:0.375643 10:-0.701026 11:-0.686119 
1.060919559005107 2.019814889285087 4.108786224681163 1.985239728399864 1:-0.333333 2:0.742998 3:0.551949 4:0.338945 5:-1 6:-1 7:0.281341 8:0.182574 9:-0.707897 10:-1 11:-1 
0 0.5782446287599922 0 0 2:0.901241 3:0.761137 4:0.741292 5:0.483859 6:0.450227 7:0.286778 8:0.287818 9:0.390607 10:-0.703076 11:-0.688086 
0.4041765571047126 0 1.570807374084612 0.7585088803132588 2:0.902161 3:0.767163 4:0.762046 5:0.515981 6:0.473123 7:0.287753 8:0.290404 9:0.392575 10:-0.702831 11:-0.688462 
0.8611582606909743 1.480802247957427 3.33437326614313 1.61038082966395 2:0.904513 3:0.893743 4:0.704792 5:0.708857 6:0.466597 7:0.293466 8:0.301492 9:0.400732 10:-0.698889 11:-0.690973 
0.8825656329643965 0 0 0.9413841723462518 1:-0.333333 2:0.906309 3:0.46039 4:0.415922 5:-1 6:-1 7:-0.756294 8:-0.764531 9:-0.832031 10:-1 11:-1 
0 10.60333776465672 10.1391556237569 0 1:-0.333333 2:0.907269 3:0.500215 4:0.419671 5:-1 6:-1 7:-0.761469 8:-0.772213 9:-0.832095 10:-1 11:-1 
0.7380213522908566 1.021476496738018 2.860791877084341 1.381227370192716 2:0.912151 3:0.755985 4:0.68326 5:0.663909 6:0.633314 7:0.368295 8:0.402433 9:0.512062 10:-0.708534 11:-0.697896 
0 0.6461894605393778 0 0 2:0.913459 3:0.79027 4:0.752363 5:0.752025 6:0.705476 7:0.374112 8:0.411357 9:0.522882 10:-0.710746 11:-0.69633 
0.1887445383000569 0 14.02948491027685 0 1:-0.333333 2:0.914305 3:0.742029 4:0.681398 5:-1 6:-1 7:-0.7744 8:-0.783627 9:-0.845238 10:-1 11:-1 
0 1.829099860974769 771.1464398603541 1.633983987978971 1:-0.666667 2:0.901349 3:-1 4:-1 5:-1 6:-1 7:0.439932 8:-1 9:-1 10:-1 11:-1 
0.3133289266482247 2.137315139106479 1.20354627142962 0.5818825144735943 2:0.988304 3:0.978309 4:0.963022 5:0.95784 6:0.922895 7:0.444577 8:0.491938 9:0.613569 10:-0.713405 11:-0.687027 
1039.738150341869 219.8350914136942 7927.033371133552 0.3746705775036829 1:-0.666667 2:0.799603 3:-1 4:-1 5:-1 6:-1 7:0.46839 8:-1 9:-1 10:-1 11:-1 
0 0.2880090905461511 0 0 2:0.913151 3:0.91027 4:0.8994 5:0.791803 6:0.718038 7:0.473346 8:0.531702 9:0.65354 10:-0.715604 11:-0.688954 
8192 8192 8192 8192 1:-1 2:-1 3:-1 4:-1 5:-1 6:-1 7:-1 8:-1 9:-1 10:-1 11:-1 
1.337060991543166 2.238164024242844 5.184804160347056 2.503214593114548 2:0.901119 3:0.82895 4:0.692081 5:0.62341 6:0.293744 7:0.50064 8:0.547969 9:0.807688 10:-0.358854 11:-0.412465 
8192 8192 8192 8192 1:-1 2:-1 3:-1 4:-1 5:-1 6:-1 7:-1 8:-1 9:-1 10:-1 11:-1 
0.9988071617760399 1.635096232690818 3.871652914630199 1.870037150681587 2:0.951983 3:0.902923 4:0.828536 5:0.453516 6:0.122606 7:0.508281 8:0.551471 9:0.692238 10:-0.357595 11:-0.388728 
0.1338684835338172 5.212449881484175 5.386168480674547 7.007115554049291 1:-0.333333 2:0.903027 3:0.0923901 4:-0.157132 5:-1 6:-1 7:-0.479619 8:-0.549624 9:-0.833077 10:-1 11:-1 
1.496698902444751 2.413396311556669 5.989814048741254 2.795159630345176 1:-0.333333 2:0.976852 3:0.909796 4:0.797756 5:-1 6:-1 7:0.53308 8:0.490129 9:-0.844487 10:-1 11:-1 
8192 8192 8192 8192 1:-1 2:-1 3:-1 4:-1 5:-1 6:-1 7:-1 8:-1 9:-1 10:-1 11:-1 
2.127274207015429 3.482970556161038 8.245611466620238 3.981184575624666 2:0.921071 3:0.506449 4:0.223674 5:0.122572 6:-0.0820802 7:0.554025 8:0.562041 9:0.769946 10:-0.361716 11:-0.39365 
0 0 3.00860061720366 0 1:-0.333333 2:0.924373 3:0.389288 4:0.103276 5:-1 6:-1 7:0.55713 8:0.516196 9:-0.844997 10:-1 11:-1 
1.665379832818493 2.72627755522179 6.455100676094966 3.117555678872638 1:-0.333333 2:0.239633 3:-0.0641852 4:-0.68395 5:-1 6:-1 7:0.557709 8:0.56639 9:-0.382147 10:-1 11:-1 
0.1943670301002103 0.3741976104310593 0 0.3704606988222661 1:-0.333333 2:0.922497 3:0.922314 4:0.709167 5:-1 6:-1 7:0.552139 8:0.505139 9:-0.837043 10:-1 11:-1 
0.1598364802554109 0.2011202186283284 1.99259059411223 0.2964631065240532 1:-0.333333 2:0.920743 3:0.7706 4:0.50905 5:-1 6:-1 7:0.542507 8:0.493087 9:-0.832605 10:-1 11:-1 
0.1023431981571388 0 0 0 1:-0.333333 2:0.999748 3:0.926281 4:0.92342 5:-1 6:-1 7:-0.77449 8:-0.767498 9:-0.833382 10:-1 11:-1 
1.403029708906209 1.102277511691564 5.446940452277906 2.629492191147242 2:0.987246 3:0.982012 4:0.961725 5:0.932311 6:0.885331 7:0.519851 8:0.569 9:0.71729 10:-0.719295 11:-0.683415 
0 4.279913765680408 0 0 2:0.948213 3:0.926335 4:0.917899 5:0.916744 6:0.765689 7:0.501728 8:0.55726 9:0.697687 10:-0.713605 11:-0.688289 
0.1411348407118595 0.239931215787997 0.8023504272635474 0.2648010642633709 1:-0.333333 2:0.945031 3:0.927017 4:0.75511 5:-1 6:-1 7:0.463424 8:0.413823 9:-0.836471 10:-1 11:-1 
0 0 1.847646667437701 0 1:-0.333333 2:0.978772 3:0.926881 4:0.92611 5:-1 6:-1 7:-0.762905 8:-0.775328 9:-0.848765 10:-1 11:-1 
0.4763973684356562 0 2.409210882355924 0 1:-0.333333 2:0.991822 3:0.927115 4:0.925418 5:-1 6:-1 7:-0.762216 8:-0.774936 9:-0.853932 10:-1 11:-1 
8192 8192 8192 8192 1:-1 2:-1 3:-1 4:-1 5:-1 6:-1 7:-1 8:-1 9:-1 10:-1 11:-1 
0.7259923666598712 1.571541005541336 2.815125503522098 1.359336596080946 2:0.984724 3:0.926849 4:0.921143 5:0.68442 6:0.602331 7:0.393346 8:0.434189 9:0.562413 10:-0.712966 11:-0.695597 
0.5916477388362962 4.200080884300278 2.298362813759804 1.109672058207633 2:0.948733 3:0.926211 4:0.900991 5:0.887981 6:0.850663 7:0.379287 8:0.414801 9:0.54068 10:-0.713208 11:-0.698742 
0 53.29466150419157 0 0 1:-0.333333 2:0.931013 3:0.916778 4:0.878914 5:-1 6:-1 7:-0.76489 8:-0.779603 9:-0.855108 10:-1 11:-1 
8192 8192 8192 8192 1:-1 2:-1 3:-1 4:-1 5:-1 6:-1 7:-1 8:-1 9:-1 10:-1 11:-1 
8192 8192 8192 8192 1:-1 2:-1 3:-1 4:-1 5:-1 6:-1 7:-1 8:-1 9:-1 10:-1 11:-1 
8192 8192 8192 8192 1:-1 2:-1 3:-1 4:-1 5:-1 6:-1 7:-1 8:-1 9:-1 10:-1 11:-1 
1.054961156307245 1.748926876034138 3.932336887277173 1.976438446444535 1:-0.333333 2:0.908683 3:0.545471 4:0.530973 5:-1 6:-1 7:0.676726 8:0.674674 9:-0.833282 10:-1 11:-1 
8192 8192 8192 8192 1:-1 2:-1 3:-1 4:-1 5:-1 6:-1 7:-1 8:-1 9:-1 10:-1 11:-1 
8192 8192 8192 8192 1:-1 2:-1 3:-1 4:-1 5:-1 6:-1 7:-1 8:-1 9:-1 10:-1 11:-1 
8192 8192 8192 8192 1:-1 2:-1 3:-1 4:-1 5:-1 6:-1 7:-1 8:-1 9:-1 10:-1 11:-1 
8192 8192 8192 8192 1:-1 2:-1 3:-1 4:-1 5:-1 6:-1 7:-1 8:-1 9:-1 10:-1 11:-1 
8192 8191.976894653048 8192 8192 1:-1 2:-1 3:-1 4:-1 5:-1 6:-1 7:-1 8:-1 9:-1 10:-1 11:-1 
0 0 8192 8192 1:-0.666667 2:0.83593 3:-1 4:-1 5:-1 6:-1 7:-0.896894 8:-1 9:-1 10:-1 11:-1 
8192 8191.998327433625 8192 8192 1:-1 2:-1 3:-1 4:-1 5:-1 6:-1 7:-1 8:-1 9:-1 10:-1 11:-1 
8192 8192 8192 8192 1:-1 2:-1 3:-1 4:-1 5:-1 6:-1 7:-1 8:-1 9:-1 10:-1 11:-1 
1.633998457346115 2.693395509194086 6.334018000932882 3.058744648434058 1:-0.333333 2:0.224881 3:-0.371416 4:-0.802654 5:-1 6:-1 7:0.384258 8:0.23724 9:-0.539581 10:-1 11:-1 
8192 8192 8192 8192 1:-1 2:-1 3:-1 4:-1 5:-1 6:-1 7:-1 8:-1 9:-1 10:-1 11:-1 
2.128379252267902 3.484904757240484 8.25072460667449 3.98412755767556 2:0.929517 3:0.887264 4:0.859028 5:0.062161 6:-0.486512 7:0.518779 8:0.330689 9:0.449783 10:-0.569935 11:-0.523103 
1055.209558718094 1834.150319071495 0 19.23741320012698 1:-0.666667 2:-0.372955 3:-1 4:-1 5:-1 6:-1 7:-0.672554 8:-1 9:-1 10:-1 11:-1 
7954.080099133856 881.9815715969812 0 0 1:-0.666667 2:-0.26744 3:-1 4:-1 5:-1 6:-1 7:-0.682126 8:-1 9:-1 10:-1 11:-1 
38.1924998822534 0 1721.67181344176 12.55600647839508 1:-0.666667 2:-0.350519 3:-1 4:-1 5:-1 6:-1 7:0.305657 8:-1 9:-1 10:-1 11:-1 
101.4482012640454 8192 0 75.44991078629918 1:-0.666667 2:-0.0109082 3:-1 4:-1 5:-1 6:-1 7:-0.692846 8:-1 9:-1 10:-1 11:-1 
0.9075392409519796 1.488022162051745 3.516648023621984 1.698520969100759 1:-0.333333 2:-0.0360285 3:-0.0616724 4:-0.656728 5:-1 6:-1 7:0.432912 8:0.365303 9:-0.630534 10:-1 11:-1 
0 8192 0 0 1:-0.666667 2:-0.0074301 3:-1 4:-1 5:-1 6:-1 7:-0.696145 8:-1 9:-1 10:-1 11:-1 
3.514853141410017 8192 2921.876249599849 0 1:-0.666667 2:-0.116672 3:-1 4:-1 5:-1 6:-1 7:-0.697019 8:-1 9:-1 10:-1 11:-1 
0 8192 0 0 1:-0.666667 2:-0.214913 3:-1 4:-1 5:-1 6:-1 7:-0.697079 8:-1 9:-1 10:-1 11:-1 
0 0 1767.394980708616 0 1:-0.666667 2:-0.41404 3:-1 4:-1 5:-1 6:-1 7:-0.697913 8:-1 9:-1 10:-1 11:-1 
1.751825147856864 2.884658132364829 6.789712986494481 3.277951643544424 1:-0.333333 2:-0.327701 3:-0.411915 4:-0.57243 5:-1 6:-1 7:0.44179 8:0.391028 9:-0.627543 10:-1 11:-1 
1.961849503625941 4.199081547750645 7.479049218484082 3.673362019654754 1:-0.333333 2:0.487599 3:0.33345 4:-0.256434 5:-1 6:-1 7:0.864121 8:0.688506 9:-0.630394 10:-1 11:-1 
0 0 111.9621955076351 0 1:-0.666667 2:-0.376045 3:-1 4:-1 5:-1 6:-1 7:-0.694992 8:-1 9:-1 10:-1 11:-1 
0 300.7771131110065 0 0 1:-0.666667 2:-0.232661 3:-1 4:-1 5:-1 6:-1 7:-0.699393 8:-1 9:-1 10:-1 11:-1 
8192 8192 8192 8192 1:-1 2:-1 3:-1 4:-1 5:-1 6:-1 7:-1 8:-1 9:-1 10:-1 11:-1 
0.4583711230660014 0.7525234590710347 1.7787811682452 0.8585088968381813 1:-0.333333 2:-0.0155922 3:-0.235269 4:-0.49236 5:-1 6:-1 7:0.453833 8:0.403306 9:-0.644093 10:-1 11:-1 
211.6182511440279 3.318751435430339 8192 4.224095925924376 1:-0.666667 2:-0.102883 3:-1 4:-1 5:-1 6:-1 7:0.355532 8:-1 9:-1 10:-1 11:-1 
8192 8192 8192 8192 1:-1 2:-1 3:-1 4:-1 5:-1 6:-1 7:-1 8:-1 9:-1 10:-1 11:-1 
8192 8192 8192 8192 1:-1 2:-1 3:-1 4:-1 5:-1 6:-1 7:-1 8:-1 9:-1 10:-1 11:-1 
2.552789754682346 0 6347.010065540093 18.61943518602606 1:-0.666667 2:-0.722106 3:-1 4:-1 5:-1 6:-1 7:-0.889791 8:-1 9:-1 10:-1 11:-1 
8192 8192 8192 8192 1:-1 2:-1 3:-1 4:-1 5:-1 6:-1 7:-1 8:-1 9:-1 10:-1 11:-1 
8192 8192 8192 8192 1:-1 2:-1 3:-1 4:-1 5:-1 6:-1 7:-1 8:-1 9:-1 10:-1 11:-1 
8192 8192 8192 8192 1:-1 2:-1 3:-1 4:-1 5:-1 6:-1 7:-1 8:-1 9:-1 10:-1 11:-1 
8192 8192 8192 8192 1:-1 2:-1 3:-1 4:-1 5:-1 6:-1 7:-1 8:-1 9:-1 10:-1 11:-1 
2.08822971147909 15.69415990359628 8192 0 1:-0.666667 2:-0.808453 3:-1 4:-1 5:-1 6:-1 7:-0.863338 8:-1 9:-1 10:-1 11:-1 
0 294.6382741840766 8192 0 1:-0.666667 2:-0.236639 3:-1 4:-1 5:-1 6:-1 7:-0.862435 8:-1 9:-1 10:-1 11:-1 
0 0 8192 0 1:-0.666667 2:0.393918 3:-1 4:-1 5:-1 6:-1 7:-0.864908 8:-1 9:-1 10:-1 11:-1 
1.520695841542858 2.516966385301608 5.895079439206567 2.846145158740761 2:0.947187 3:0.771892 4:0.718388 5:0.589895 6:-0.117464 7:0.523337 8:0.576036 9:0.738298 10:-0.507332 11:-0.484619 
2.147813719738461 3.517222005356556 8.326984517975843 4.020843657906218 2:0.940961 3:0.91884 4:0.742977 5:-0.55472 6:-0.78625 7:0.568411 8:0.604686 9:0.79192 10:-0.486705 11:-0.464372 
0.8118471878016023 1.426061844924882 2.598968197231089 1.520126268996949 1:-0.333333 2:0.933427 3:-0.149218 4:-0.218521 5:-1 6:-1 7:0.545499 8:0.563672 9:-0.84966 10:-1 11:-1 
1.87839645455666 3.086646882136061 7.252781714195187 3.514585846592745 1:-0.333333 2:0.9947 3:0.962424 4:0.930665 5:-1 6:-1 7:0.0510271 8:0.0202551 9:-0.856693 10:-1 11:-1 
0.3153457022201333 0.5449253883057361 0 0.5882654655031088 1:-0.333333 2:0.926987 3:-0.0240226 4:-0.0399508 5:-1 6:-1 7:0.446698 8:0.472495 9:-0.857857 10:-1 11:-1 
0.7896777451579371 1.336046378464163 0 1.481968390234417 1:-0.333333 2:0.925653 3:0.209185 4:0.175447 5:-1 6:-1 7:0.453144 8:0.483741 9:-0.855575 10:-1 11:-1 
0 0 2.987321132359195 0 1:-0.333333 2:0.928261 3:0.142406 4:0.110813 5:-1 6:-1 7:0.42875 8:0.464614 9:-0.859853 10:-1 11:-1 
0 0 6.815226494658305 0 1:-0.333333 2:0.928935 3:0.228215 4:0.170911 5:-1 6:-1 7:0.417255 8:0.455201 9:-0.860423 10:-1 11:-1 
0.03496525974983511 0 0 0.06102320878654516 1:-0.333333 2:0.927569 3:0.31537 4:0.241034 5:-1 6:-1 7:0.401078 8:0.43887 9:-0.848805 10:-1 11:-1 
0 0 8.398037099578245 0 1:-0.333333 2:0.928409 3:0.161372 4:0.120094 5:-1 6:-1 7:0.492071 8:0.518136 9:-0.851179 10:-1 11:-1 
0 8192 0 0 1:-0.666667 2:0.914845 3:-1 4:-1 5:-1 6:-1 7:-0.840489 8:-1 9:-1 10:-1 11:-1 
0 2965.581663153363 0 0 1:-0.666667 2:0.927667 3:-1 4:-1 5:-1 6:-1 7:-0.837856 8:-1 9:-1 10:-1 11:-1 
0 8192 0 0 1:-0.666667 2:0.930297 3:-1 4:-1 5:-1 6:-1 7:-0.837036 8:-1 9:-1 10:-1 11:-1 
0 6974.692835053828 0 0 1:-0.666667 2:0.934223 3:-1 4:-1 5:-1 6:-1 7:-0.836528 8:-1 9:-1 10:-1 11:-1 
1.021778605366301 0 0 5.421996314966397 1:-0.333333 2:0.989234 3:0.959979 4:0.909826 5:-1 6:-1 7:-0.771641 8:-0.771146 9:-0.828099 10:-1 11:-1 
0 3706.749348448113 0 0 1:-0.666667 2:0.863176 3:-1 4:-1 5:-1 6:-1 7:-0.85088 8:-1 9:-1 10:-1 11:-1 
0 8192 0 0 1:-0.666667 2:0.86248 3:-1 4:-1 5:-1 6:-1 7:-0.850715 8:-1 9:-1 10:-1 11:-1 
0 8192 0 0 1:-0.666667 2:0.861298 3:-1 4:-1 5:-1 6:-1 7:-0.850902 8:-1 9:-1 10:-1 11:-1 
0 0 17.25853096932988 0 1:-0.333333 2:0.86099 3:0.372656 4:0.0696144 5:-1 6:-1 7:0.541578 8:0.583657 9:-0.818895 10:-1 11:-1 
0 8192 0 0 1:-0.666667 2:0.856668 3:-1 4:-1 5:-1 6:-1 7:-0.850327 8:-1 9:-1 10:-1 11:-1 
8192 8192 8192 8192 1:-1 2:-1 3:-1 4:-1 5:-1 6:-1 7:-1 8:-1 9:-1 10:-1 11:-1 
8192 8192 8192 8192 1:-1 2:-1 3:-1 4:-1 5:-1 6:-1 7:-1 8:-1 9:-1 10:-1 11:-1 
8192 8191.985753776162 8192 8192 1:-1 2:-1 3:-1 4:-1 5:-1 6:-1 7:-1 8:-1 9:-1 10:-1 11:-1 
0.5994151691885802 0 0 0 1:-0.333333 2:0.88522 3:0.285669 4:0.199962 5:-1 6:-1 7:-0.684159 8:-0.716364 9:-0.81686 10:-1 11:-1 
0.3678627036304584 17.05787566281209 0 1.917354625580832 1:-0.333333 2:0.883028 3:0.325313 4:0.262047 5:-1 6:-1 7:-0.68427 8:-0.716357 9:-0.816194 10:-1 11:-1 
0 8192 0 0 1:-0.666667 2:0.881266 3:-1 4:-1 5:-1 6:-1 7:-0.848831 8:-1 9:-1 10:-1 11:-1 
0 5.251756931485374 73.14047458252656 3.124899328525274 1:-0.333333 2:0.880818 3:0.236676 4:0.103623 5:-1 6:-1 7:-0.686501 8:-0.719025 9:-0.816346 10:-1 11:-1 
0 37.62854322035432 101.175631659499 7.514217696363088 1:-0.333333 2:0.88053 3:0.0623626 4:-0.138051 5:-1 6:-1 7:-0.685273 8:-0.717482 9:-0.816219 10:-1 11:-1 
0 8192 0 0 1:-0.666667 2:0.880418 3:-1 4:-1 5:-1 6:-1 7:-0.848733 8:-1 9:-1 10:-1 11:-1 
0 8192 0 0 1:-0.666667 2:0.880132 3:-1 4:-1 5:-1 6:-1 7:-0.848972 8:-1 9:-1 10:-1 11:-1 
0 16.33685643424448 6.230339444024731 2.68276706352283 1:-0.333333 2:0.87942 3:-0.118596 4:-0.398112 5:-1 6:-1 7:-0.685849 8:-0.718413 9:-0.816207 10:-1 11:-1 
0 8192 0 0 1:-0.666667 2:0.878856 3:-1 4:-1 5:-1 6:-1 7:-0.848907 8:-1 9:-1 10:-1 11:-1 
0 8192 0 0 1:-0.666667 2:0.877902 3:-1 4:-1 5:-1 6:-1 7:-0.848741 8:-1 9:-1 10:-1 11:-1 
0 8192 0 0 1:-0.666667 2:0.87704 3:-1 4:-1 5:-1 6:-1 7:-0.848729 8:-1 9:-1 10:-1 11:-1 
0 8192 0 0 1:-0.666667 2:0.876388 3:-1 4:-1 5:-1 6:-1 7:-0.848577 8:-1 9:-1 10:-1 11:-1 
0 8192 0 0 1:-0.666667 2:0.87581 3:-1 4:-1 5:-1 6:-1 7:-0.848622 8:-1 9:-1 10:-1 11:-1 
0 8192 0 0 1:-0.666667 2:0.87495 3:-1 4:-1 5:-1 6:-1 7:-0.8485 8:-1 9:-1 10:-1 11:-1 
0 8192 8192 0 1:-0.666667 2:0.867254 3:-1 4:-1 5:-1 6:-1 7:-0.837478 8:-1 9:-1 10:-1 11:-1 
0 8192 0 0 1:-0.666667 2:0.866618 3:-1 4:-1 5:-1 6:-1 7:-0.840059 8:-1 9:-1 10:-1 11:-1 
0 8192 0 0 1:-0.666667 2:0.865978 3:-1 4:-1 5:-1 6:-1 7:-0.841841 8:-1 9:-1 10:-1 11:-1 
0 8192 0 0 1:-0.666667 2:0.86578 3:-1 4:-1 5:-1 6:-1 7:-0.843434 8:-1 9:-1 10:-1 11:-1 
0 8192 0 0 1:-0.666667 2:0.865726 3:-1 4:-1 5:-1 6:-1 7:-0.844543 8:-1 9:-1 10:-1 11:-1 
0 8192 0 0 1:-0.666667 2:0.865724 3:-1 4:-1 5:-1 6:-1 7:-0.84532 8:-1 9:-1 10:-1 11:-1 
0 8192 0 0 1:-0.666667 2:0.866004 3:-1 4:-1 5:-1 6:-1 7:-0.846301 8:-1 9:-1 10:-1 11:-1 
0 8192 0 0 1:-0.666667 2:0.866518 3:-1 4:-1 5:-1 6:-1 7:-0.846962 8:-1 9:-1 10:-1 11:-1 
0 8192 0 0 1:-0.666667 2:0.867198 3:-1 4:-1 5:-1 6:-1 7:-0.847808 8:-1 9:-1 10:-1 11:-1 
0 8192 0 0 1:-0.666667 2:0.867942 3:-1 4:-1 5:-1 6:-1 7:-0.848411 8:-1 9:-1 10:-1 11:-1 
0 8192 0 0 1:-0.666667 2:0.868816 3:-1 4:-1 5:-1 6:-1 7:-0.848882 8:-1 9:-1 10:-1 11:-1 
0 8192 0 0 1:-0.666667 2:0.86942 3:-1 4:-1 5:-1 6:-1 7:-0.849181 8:-1 9:-1 10:-1 11:-1 
0 8192 0 0 1:-0.666667 2:0.869898 3:-1 4:-1 5:-1 6:-1 7:-0.849369 8:-1 9:-1 10:-1 11:-1 
0 8192 0 0 1:-0.666667 2:0.870628 3:-1 4:-1 5:-1 6:-1 7:-0.849597 8:-1 9:-1 10:-1 11:-1 
0 8192 0 0 1:-0.666667 2:0.871258 3:-1 4:-1 5:-1 6:-1 7:-0.849851 8:-1 9:-1 10:-1 11:-1 
0 8192 0 0 1:-0.666667 2:0.871952 3:-1 4:-1 5:-1 6:-1 7:-0.85022 8:-1 9:-1 10:-1 11:-1 
0 8192 0 0 1:-0.666667 2:0.872422 3:-1 4:-1 5:-1 6:-1 7:-0.850444 8:-1 9:-1 10:-1 11:-1 
1.090966209564838 2.200878175974259 5.118334577513508 2.043343185657455 1:-0.333333 2:0.87149 3:0.622927 4:0.112608 5:-1 6:-1 7:0.490321 8:0.54865 9:-0.828087 10:-1 11:-1 
0.6286610527736149 1.345823438351506 9.40339914305078 1.176848174795604 1:-0.333333 2:0.87812 3:0.205942 4:-0.235665 5:-1 6:-1 7:0.449594 8:0.498981 9:-0.827927 10:-1 11:-1 
1.412387809891115 2.252267263028918 5.474439084706242 2.643651907408603 1:-0.333333 2:0.955209 3:-0.601869 4:-0.992121 5:-1 6:-1 7:0.979844 8:1 9:-0.808495 10:-1 11:-1 
0 8192 0 0 1:-0.666667 2:0.97987 3:-1 4:-1 5:-1 6:-1 7:-0.839463 8:-1 9:-1 10:-1 11:-1 
0 8192 0 0 1:-0.666667 2:0.981048 3:-1 4:-1 5:-1 6:-1 7:-0.839198 8:-1 9:-1 10:-1 11:-1 
0 8192 0 0 1:-0.666667 2:0.982344 3:-1 4:-1 5:-1 6:-1 7:-0.839104 8:-1 9:-1 10:-1 11:-1 
8192 8192 8192 8192 1:-1 2:-1 3:-1 4:-1 5:-1 6:-1 7:-1 8:-1 9:-1 10:-1 11:-1 
0 8192 0 0 1:-0.666667 2:0.982468 3:-1 4:-1 5:-1 6:-1 7:-0.838628 8:-1 9:-1 10:-1 11:-1 
0 8192 0 0 1:-0.666667 2:0.98277 3:-1 4:-1 5:-1 6:-1 7:-0.838552 8:-1 9:-1 10:-1 11:-1 
0 8192 0 0 1:-0.666667 2:0.982948 3:-1 4:-1 5:-1 6:-1 7:-0.838463 8:-1 9:-1 10:-1 11:-1 
0 8192 0 0 1:-0.666667 2:0.983206 3:-1 4:-1 5:-1 6:-1 7:-0.838367 8:-1 9:-1 10:-1 11:-1 
0 8192 0 0 1:-0.666667 2:0.983466 3:-1 4:-1 5:-1 6:-1 7:-0.838184 8:-1 9:-1 10:-1 11:-1 
0 8192 0 0 1:-0.666667 2:0.983832 3:-1 4:-1 5:-1 6:-1 7:-0.838069 8:-1 9:-1 10:-1 11:-1 
0 8192 0 0 1:-0.666667 2:0.98468 3:-1 4:-1 5:-1 6:-1 7:-0.837968 8:-1 9:-1 10:-1 11:-1 
0 8192 0 0 1:-0.666667 2:0.985188 3:-1 4:-1 5:-1 6:-1 7:-0.837969 8:-1 9:-1 10:-1 11:-1 
8192 8192 8192 8192 1:-1 2:-1 3:-1 4:-1 5:-1 6:-1 7:-1 8:-1 9:-1 10:-1 11:-1 
0 8192 0 0 1:-0.666667 2:0.985556 3:-1 4:-1 5:-1 6:-1 7:-0.837465 8:-1 9:-1 10:-1 11:-1 
0 8192 0 0 1:-0.666667 2:0.986294 3:-1 4:-1 5:-1 6:-1 7:-0.837175 8:-1 9:-1 10:-1 11:-1 
0 8192 5212.996097270768 0 1:-0.666667 2:0.987336 3:-1 4:-1 5:-1 6:-1 7:-0.837492 8:-1 9:-1 10:-1 11:-1 
8192 8192 8192 8192 1:-1 2:-1 3:-1 4:-1 5:-1 6:-1 7:-1 8:-1 9:-1 10:-1 11:-1 
8192 8192 8192 8192 1:-1 2:-1 3:-1 4:-1 5:-1 6:-1 7:-1 8:-1 9:-1 10:-1 11:-1 
0 8192 0 0 1:-0.666667 2:0.98603 3:-1 4:-1 5:-1 6:-1 7:-0.836672 8:-1 9:-1 10:-1 11:-1 
8192 8192 8192 8192 1:-1 2:-1 3:-1 4:-1 5:-1 6:-1 7:-1 8:-1 9:-1 10:-1 11:-1 
0 8192 0 0 1:-0.666667 2:0.986458 3:-1 4:-1 5:-1 6:-1 7:-0.836702 8:-1 9:-1 10:-1 11:-1 
0 8192 0 0 1:-0.666667 2:0.98434 3:-1 4:-1 5:-1 6:-1 7:-0.83655 8:-1 9:-1 10:-1 11:-1 
8192 8192 8192 8192 1:-1 2:-1 3:-1 4:-1 5:-1 6:-1 7:-1 8:-1 9:-1 10:-1 11:-1 
0 8192 0 0 1:-0.666667 2:0.982346 3:-1 4:-1 5:-1 6:-1 7:-0.836108 8:-1 9:-1 10:-1 11:-1 
0 8192 0 0 1:-0.666667 2:0.979552 3:-1 4:-1 5:-1 6:-1 7:-0.835914 8:-1 9:-1 10:-1 11:-1 
0 8192 0 0 1:-0.666667 2:0.980276 3:-1 4:-1 5:-1 6:-1 7:-0.835848 8:-1 9:-1 10:-1 11:-1 
0 8192 0 0 1:-0.666667 2:0.98099 3:-1 4:-1 5:-1 6:-1 7:-0.835888 8:-1 9:-1 10:-1 11:-1 
0 8192 0 0 1:-0.666667 2:0.981754 3:-1 4:-1 5:-1 6:-1 7:-0.835759 8:-1 9:-1 10:-1 11:-1 
8192 8192 8192 8192 1:-1 2:-1 3:-1 4:-1 5:-1 6:-1 7:-1 8:-1 9:-1 10:-1 11:-1 
8192 8192 8192 8192 1:-1 2:-1 3:-1 4:-1 5:-1 6:-1 7:-1 8:-1 9:-1 10:-1 11:-1 
0 8192 0 0 1:-0.666667 2:0.978594 3:-1 4:-1 5:-1 6:-1 7:-0.834585 8:-1 9:-1 10:-1 11:-1 
0 8192 0 0 1:-0.666667 2:0.974792 3:-1 4:-1 5:-1 6:-1 7:-0.834584 8:-1 9:-1 10:-1 11:-1 
8192 8192 8192 8192 1:-1 2:-1 3:-1 4:-1 5:-1 6:-1 7:-1 8:-1 9:-1 10:-1 11:-1 
8192 8192 8192 8192 1:-1 2:-1 3:-1 4:-1 5:-1 6:-1 7:-1 8:-1 9:-1 10:-1 11:-1 
0 1141.157266048027 0 8192 1:-0.666667 2:0.96933 3:-1 4:-1 5:-1 6:-1 7:-0.833436 8:-1 9:-1 10:-1 11:-1 
8192 8192 8192 8192 1:-1 2:-1 3:-1 4:-1 5:-1 6:-1 7:-1 8:-1 9:-1 10:-1 11:-1 
0 8192 0 8192 1:-0.666667 2:0.966618 3:-1 4:-1 5:-1 6:-1 7:-0.83301 8:-1 9:-1 10:-1 11:-1 
0 0 0 8192 1:-0.666667 2:0.963775 3:-1 4:-1 5:-1 6:-1 7:-0.83314 8:-1 9:-1 10:-1 11:-1 
8192 8192 8192 8192 1:-1 2:-1 3:-1 4:-1 5:-1 6:-1 7:-1 8:-1 9:-1 10:-1 11:-1 
8192 8192 8192 8192 1:-1 2:-1 3:-1 4:-1 5:-1 6:-1 7:-1 8:-1 9:-1 10:-1 11:-1 
0 8192 0 8192 1:-0.666667 2:0.960017 3:-1 4:-1 5:-1 6:-1 7:-0.831765 8:-1 9:-1 10:-1 11:-1 
8192 8192 8192 8192 1:-1 2:-1 3:-1 4:-1 5:-1 6:-1 7:-1 8:-1 9:-1 10:-1 11:-1 
8192 8192 8192 8192 1:-1 2:-1 3:-1 4:-1 5:-1 6:-1 7:-1 8:-1 9:-1 10:-1 11:-1 
8192 8192 8192 8192 1:-1 2:-1 3:-1 4:-1 5:-1 6:-1 7:-1 8:-1 9:-1 10:-1 11:-1 
8192 8192 8192 8192 1:-1 2:-1 3:-1 4:-1 5:-1 6:-1 7:-1 8:-1 9:-1 10:-1 11:-1 
8192 8192 8192 8192 1:-1 2:-1 3:-1 4:-1 5:-1 6:-1 7:-1 8:-1 9:-1 10:-1 11:-1 
8192 8192 8192 8192 1:-1 2:-1 3:-1 4:-1 5:-1 6:-1 7:-1 8:-1 9:-1 10:-1 11:-1 
0 0 0 8192 1:-0.666667 2:0.950545 3:-1 4:-1 5:-1 6:-1 7:-0.834238 8:-1 9:-1 10:-1 11:-1 
8192 8192 8192 8192 1:-1 2:-1 3:-1 4:-1 5:-1 6:-1 7:-1 8:-1 9:-1 10:-1 11:-1 
0 8192 0 774.9344051628686 1:-0.666667 2:0.933179 3:-1 4:-1 5:-1 6:-1 7:-0.836218 8:-1 9:-1 10:-1 11:-1 
8192 8192 8192 8192 1:-1 2:-1 3:-1 4:-1 5:-1 6:-1 7:-1 8:-1 9:-1 10:-1 11:-1 
0 8192 0 8192 1:-0.666667 2:0.930835 3:-1 4:-1 5:-1 6:-1 7:-0.835606 8:-1 9:-1 10:-1 11:-1 
0 8192 0 8192 1:-0.666667 2:0.927857 3:-1 4:-1 5:-1 6:-1 7:-0.835847 8:-1 9:-1 10:-1 11:-1 
8192 8192 8192 8192 1:-1 2:-1 3:-1 4:-1 5:-1 6:-1 7:-1 8:-1 9:-1 10:-1 11:-1 
0 8192 0 8192 1:-0.666667 2:0.923659 3:-1 4:-1 5:-1 6:-1 7:-0.834773 8:-1 9:-1 10:-1 11:-1 
8192 8192 8192 8192 1:-1 2:-1 3:-1 4:-1 5:-1 6:-1 7:-1 8:-1 9:-1 10:-1 11:-1 
8192 8192 8192 8192 1:-1 2:-1 3:-1 4:-1 5:-1 6:-1 7:-1 8:-1 9:-1 10:-1 11:-1 
0 8192 1910.203037469262 8192 1:-0.666667 2:0.917771 3:-1 4:-1 5:-1 6:-1 7:-0.83322 8:-1 9:-1 10:-1 11:-1 
8192 8192 8192 8192 1:-1 2:-1 3:-1 4:-1 5:-1 6:-1 7:-1 8:-1 9:-1 10:-1 11:-1 
0 8192 0 8192 1:-0.666667 2:0.931027 3:-1 4:-1 5:-1 6:-1 7:-0.833218 8:-1 9:-1 10:-1 11:-1 
8192 8192 8192 8192 1:-1 2:-1 3:-1 4:-1 5:-1 6:-1 7:-1 8:-1 9:-1 10:-1 11:-1 
8192 8192 8192 8192 1:-1 2:-1 3:-1 4:-1 5:-1 6:-1 7:-1 8:-1 9:-1 10:-1 11:-1 
0 8192 0 8192 1:-0.666667 2:0.939937 3:-1 4:-1 5:-1 6:-1 7:-0.83295 8:-1 9:-1 10:-1 11:-1 
0 8192 0 8192 1:-0.666667 2:0.948561 3:-1 4:-1 5:-1 6:-1 7:-0.833056 8:-1 9:-1 10:-1 11:-1 
0 8192 0 8192 1:-0.666667 2:0.956037 3:-1 4:-1 5:-1 6:-1 7:-0.832918 8:-1 9:-1 10:-1 11:-1 
8192 8192 8192 8192 1:-1 2:-1 3:-1 4:-1 5:-1 6:-1 7:-1 8:-1 9:-1 10:-1 11:-1 
8192 8192 8192 8192 1:-1 2:-1 3:-1 4:-1 5:-1 6:-1 7:-1 8:-1 9:-1 10:-1 11:-1 
8192 8192 8192 8192 1:-1 2:-1 3:-1 4:-1 5:-1 6:-1 7:-1 8:-1 9:-1 10:-1 11:-1 
0 0 0 8192 1:-0.666667 2:0.962509 3:-1 4:-1 5:-1 6:-1 7:-0.83488 8:-1 9:-1 10:-1 11:-1 
0 0 0 8192 1:-0.666667 2:0.958975 3:-1 4:-1 5:-1 6:-1 7:-0.833631 8:-1 9:-1 10:-1 11:-1 
0 0 0 8192 1:-0.666667 2:0.963961 3:-1 4:-1 5:-1 6:-1 7:-0.833674 8:-1 9:-1 10:-1 11:-1 
0 0 0 8192 1:-0.666667 2:0.964446 3:-1 4:-1 5:-1 6:-1 7:-0.833913 8:-1 9:-1 10:-1 11:-1 
0 0 0 8192 1:-0.666667 2:0.966606 3:-1 4:-1 5:-1 6:-1 7:-0.834056 8:-1 9:-1 10:-1 11:-1 
8192 8192 8192 8192 1:-1 2:-1 3:-1 4:-1 5:-1 6:-1 7:-1 8:-1 9:-1 10:-1 11:-1 
0 0 0 5092.689239173671 1:-0.666667 2:0.969734 3:-1 4:-1 5:-1 6:-1 7:-0.834113 8:-1 9:-1 10:-1 11:-1 
8192 8192 8192 8192 1:-1 2:-1 3:-1 4:-1 5:-1 6:-1 7:-1 8:-1 9:-1 10:-1 11:-1 
8192 8192 8192 8192 1:-1 2:-1 3:-1 4:-1 5:-1 6:-1 7:-1 8:-1 9:-1 10:-1 11:-1 
8192 8192 8192 8192 1:-1 2:-1 3:-1 4:-1 5:-1 6:-1 7:-1 8:-1 9:-1 10:-1 11:-1 
8192 8192 8192 8192 1:-1 2:-1 3:-1 4:-1 5:-1 6:-1 7:-1 8:-1 9:-1 10:-1 11:-1 
8192 8192 8192 8192 1:-1 2:-1 3:-1 4:-1 5:-1 6:-1 7:-1 8:-1 9:-1 10:-1 11:-1 
8192 8192 8192 8192 1:-1 2:-1 3:-1 4:-1 5:-1 6:-1 7:-1 8:-1 9:-1 10:-1 11:-1 
0 3949.418985782315 0 0 1:-0.666667 2:0.980218 3:-1 4:-1 5:-1 6:-1 7:-0.843482 8:-1 9:-1 10:-1 11:-1 
8192 8192 8192 8192 1:-1 2:-1 3:-1 4:-1 5:-1 6:-1 7:-1 8:-1 9:-1 10:-1 11:-1 
8192 8192 8192 8192 1:-1 2:-1 3:-1 4:-1 5:-1 6:-1 7:-1 8:-1 9:-1 10:-1 11:-1 
8192 8192 8192 8192 1:-1 2:-1 3:-1 4:-1 5:-1 6:-1 7:-1 8:-1 9:-1 10:-1 11:-1 
8192 8192 8192 8192 1:-1 2:-1 3:-1 4:-1 5:-1 6:-1 7:-1 8:-1 9:-1 10:-1 11:-1 
8192 8191.99423862609 8192 8192 1:-1 2:-1 3:-1 4:-1 5:-1 6:-1 7:-1 8:-1 9:-1 10:-1 11:-1 
8192 8192 8192 8192 1:-1 2:-1 3:-1 4:-1 5:-1 6:-1 7:-1 8:-1 9:-1 10:-1 11:-1 
8192 8192 8192 8192 1:-1 2:-1 3:-1 4:-1 5:-1 6:-1 7:-1 8:-1 9:-1 10:-1 11:-1 
8192 8192 8192 8192 1:-1 2:-1 3:-1 4:-1 5:-1 6:-1 7:-1 8:-1 9:-1 10:-1 11:-1 
8192 8192 8192 8192 1:-1 2:-1 3:-1 4:-1 5:-1 6:-1 7:-1 8:-1 9:-1 10:-1 11:-1 
8192 8192 8192 8192 1:-1 2:-1 3:-1 4:-1 5:-1 6:-1 7:-1 8:-1 9:-1 10:-1 11:-1 
8192 8192 8192 8192 1:-1 2:-1 3:-1 4:-1 5:-1 6:-1 7:-1 8:-1 9:-1 10:-1 11:-1 
8192 8192 8192 8192 1:-1 2:-1 3:-1 4:-1 5:-1 6:-1 7:-1 8:-1 9:-1 10:-1 11:-1 
8192 8192 8192 8192 1:-1 2:-1 3:-1 4:-1 5:-1 6:-1 7:-1 8:-1 9:-1 10:-1 11:-1 
8192 8192 8192 8192 1:-1 2:-1 3:-1 4:-1 5:-1 6:-1 7:-1 8:-1 9:-1 10:-1 11:-1 
8192 8191.981184398483 8192 8192 1:-1 2:-1 3:-1 4:-1 5:-1 6:-1 7:-1 8:-1 9:-1 10:-1 11:-1 
1.073189589345789 2.516562855806056 4.459708840428601 2.010568494928088 1:-0.333333 2:0.934455 3:-0.317031 4:-0.72037 5:-1 6:-1 7:0.755378 8:0.724149 9:-0.816866 10:-1 11:-1 
0.4516278096533046 0.5265007345646795 0.5431542342345826 0.8433432348902484 1:-0.333333 2:0.935221 3:-0.0391153 4:-0.468272 5:-1 6:-1 7:0.756397 8:0.725264 9:-0.816806 10:-1 11:-1 
0 0.09898414546779785 2.219762161591271 0 1:-0.333333 2:0.936533 3:0.312423 4:-0.0976911 5:-1 6:-1 7:0.75473 8:0.729954 9:-0.816131 10:-1 11:-1 
0.8574819594635069 1.337614460328412 1.949585071685391 1.603832402462308 1:-0.333333 2:0.955529 3:0.579814 4:0.300108 5:-1 6:-1 7:0.766098 8:0.758587 9:-0.811226 10:-1 11:-1 
1.123097975938049 1.856832264016144 3.520832067770304 2.103143338523648 1:-0.333333 2:0.956059 3:0.273939 4:-0.00550828 5:-1 6:-1 7:0.771874 8:0.766871 9:-0.810374 10:-1 11:-1 
0.629916263337111 0.6020729519607277 0 1.170424284255321 1:-0.333333 2:0.955731 3:-0.0433006 4:-0.30808 5:-1 6:-1 7:0.784085 8:0.78022 9:-0.810286 10:-1 11:-1 
0.1590651989816703 0.8572244532380893 3.783305649599558 0.3090790558506284 1:-0.333333 2:0.956289 3:-0.0838634 4:-0.348755 5:-1 6:-1 7:0.785778 8:0.7823 9:-0.810332 10:-1 11:-1 
0.4445879241663592 0.2380844595005369 1.463625844001877 0.8286277686678973 1:-0.333333 2:0.956571 3:-0.348759 4:-0.591677 5:-1 6:-1 7:0.791869 8:0.789046 9:-0.810565 10:-1 11:-1 
1.516013613545075 2.509177056052303 5.878721034163366 2.83707385595465 1:-0.333333 2:0.956159 3:-0.848053 4:-0.972744 5:-1 6:-1 7:0.792233 8:0.789746 9:-0.811949 10:-1 11:-1 
0.2679997542359158 0.7088589589945791 1.0155951683649 0.5033728212989135 1:-0.333333 2:0.959295 3:-0.582789 4:-0.731784 5:-1 6:-1 7:0.818086 8:0.819598 9:-0.819785 10:-1 11:-1 
0 0 0 8192 1:-0.666667 2:0.946149 3:-1 4:-1 5:-1 6:-1 7:-0.911859 8:-1 9:-1 10:-1 11:-1 
0 0 0 8192 1:-0.666667 2:0.947177 3:-1 4:-1 5:-1 6:-1 7:-0.912621 8:-1 9:-1 10:-1 11:-1 
0 0 0 8192 1:-0.666667 2:0.949747 3:-1 4:-1 5:-1 6:-1 7:-0.913136 8:-1 9:-1 10:-1 11:-1 
0 0 0 8192 1:-0.666667 2:0.952169 3:-1 4:-1 5:-1 6:-1 7:-0.913719 8:-1 9:-1 10:-1 11:-1 
0 0 0 8192 1:-0.666667 2:0.953271 3:-1 4:-1 5:-1 6:-1 7:-0.913796 8:-1 9:-1 10:-1 11:-1 
0 0 0 8192 1:-0.666667 2:0.953881 3:-1 4:-1 5:-1 6:-1 7:-0.913597 8:-1 9:-1 10:-1 11:-1 
0 0 0 8192 1:-0.666667 2:0.955691 3:-1 4:-1 5:-1 6:-1 7:-0.915277 8:-1 9:-1 10:-1 11:-1 
0 0 0 8192 1:-0.666667 2:0.956737 3:-1 4:-1 5:-1 6:-1 7:-0.915081 8:-1 9:-1 10:-1 11:-1 
0 8192 1903.155102543383 8192 1:-0.666667 2:0.957847 3:-1 4:-1 5:-1 6:-1 7:-0.914306 8:-1 9:-1 10:-1 11:-1 
0 8192 0 8192 1:-0.666667 2:0.958903 3:-1 4:-1 5:-1 6:-1 7:-0.912603 8:-1 9:-1 10:-1 11:-1 
0 8192 0 8192 1:-0.666667 2:0.959353 3:-1 4:-1 5:-1 6:-1 7:-0.91062 8:-1 9:-1 10:-1 11:-1 
0 8192 0 8192 1:-0.666667 2:0.959539 3:-1 4:-1 5:-1 6:-1 7:-0.909152 8:-1 9:-1 10:-1 11:-1 
0 8192 0 8192 1:-0.666667 2:0.959217 3:-1 4:-1 5:-1 6:-1 7:-0.906933 8:-1 9:-1 10:-1 11:-1 
0 8192 0 8192 1:-0.666667 2:0.958881 3:-1 4:-1 5:-1 6:-1 7:-0.905078 8:-1 9:-1 10:-1 11:-1 
0 8192 0 8192 1:-0.666667 2:0.958501 3:-1 4:-1 5:-1 6:-1 7:-0.903771 8:-1 9:-1 10:-1 11:-1 
0 8192 0 8192 1:-0.666667 2:0.957791 3:-1 4:-1 5:-1 6:-1 7:-0.902443 8:-1 9:-1 10:-1 11:-1 
0 8192 0 8192 1:-0.666667 2:0.956585 3:-1 4:-1 5:-1 6:-1 7:-0.901829 8:-1 9:-1 10:-1 11:-1 
0 8192 0 8192 1:-0.666667 2:0.955417 3:-1 4:-1 5:-1 6:-1 7:-0.901178 8:-1 9:-1 10:-1 11:-1 
0 8192 0 8192 1:-0.666667 2:0.953967 3:-1 4:-1 5:-1 6:-1 7:-0.900556 8:-1 9:-1 10:-1 11:-1 
0 8192 0 8192 1:-0.666667 2:0.952333 3:-1 4:-1 5:-1 6:-1 7:-0.899837 8:-1 9:-1 10:-1 11:-1 
0 8192 0 0 1:-0.666667 2:0.953879 3:-1 4:-1 5:-1 6:-1 7:-0.887489 8:-1 9:-1 10:-1 11:-1 
0 8192 0 0 1:-0.666667 2:0.954915 3:-1 4:-1 5:-1 6:-1 7:-0.887604 8:-1 9:-1 10:-1 11:-1 
0 8192 0 0 1:-0.666667 2:0.956977 3:-1 4:-1 5:-1 6:-1 7:-0.887586 8:-1 9:-1 10:-1 11:-1 
0 8192 0 0 1:-0.666667 2:0.956987 3:-1 4:-1 5:-1 6:-1 7:-0.887909 8:-1 9:-1 10:-1 11:-1 
0 8192 0 0 1:-0.666667 2:0.957021 3:-1 4:-1 5:-1 6:-1 7:-0.888289 8:-1 9:-1 10:-1 11:-1 
0 8192 0 0 1:-0.666667 2:0.956803 3:-1 4:-1 5:-1 6:-1 7:-0.888709 8:-1 9:-1 10:-1 11:-1 
0 8192 0 0 1:-0.666667 2:0.953649 3:-1 4:-1 5:-1 6:-1 7:-0.889348 8:-1 9:-1 10:-1 11:-1 
1.156695026177823 1.845101641343541 4.384495357354666 2.162862108828438 1:-0.333333 2:0.915925 3:0.473078 4:0.463137 5:-1 6:-1 7:0.0313319 8:0.0615761 9:-0.843446 10:-1 11:-1 
0.4141952586109655 0.6287565351212571 1.868480080825377 0.7638286565934848 1:-0.333333 2:0.906669 3:-0.566678 4:-0.675289 5:-1 6:-1 7:0.035786 8:0.0647378 9:-0.839568 10:-1 11:-1 
8192 8191.986996022844 8192 8192 1:-1 2:-1 3:-1 4:-1 5:-1 6:-1 7:-1 8:-1 9:-1 10:-1 11:-1 
8192 8192 8192 8192 1:-1 2:-1 3:-1 4:-1 5:-1 6:-1 7:-1 8:-1 9:-1 10:-1 11:-1 
8192 8191.994804761707 8192 8192 1:-1 2:-1 3:-1 4:-1 5:-1 6:-1 7:-1 8:-1 9:-1 10:-1 11:-1 
8192 8192 8192 8192 1:-1 2:-1 3:-1 4:-1 5:-1 6:-1 7:-1 8:-1 9:-1 10:-1 11:-1 
8192 8192 8192 8192 1:-1 2:-1 3:-1 4:-1 5:-1 6:-1 7:-1 8:-1 9:-1 10:-1 11:-1 
8192 8192 8192 8192 1:-1 2:-1 3:-1 4:-1 5:-1 6:-1 7:-1 8:-1 9:-1 10:-1 11:-1 
0.01517756556472391 0 0.2209706516006852 0.03211299084155717 1:-0.333333 2:0.968942 3:0.95484 4:0.886757 5:-1 6:-1 7:0.106752 8:0.120562 9:-0.829477 10:-1 11:-1 
0 8192 0 0 1:-0.666667 2:0.957655 3:-1 4:-1 5:-1 6:-1 7:-0.881966 8:-1 9:-1 10:-1 11:-1 
0 8192 0 0 1:-0.666667 2:0.959339 3:-1 4:-1 5:-1 6:-1 7:-0.881856 8:-1 9:-1 10:-1 11:-1 
0 8192 0 0 1:-0.666667 2:0.960491 3:-1 4:-1 5:-1 6:-1 7:-0.881471 8:-1 9:-1 10:-1 11:-1 
0 8192 0 0 1:-0.666667 2:0.961387 3:-1 4:-1 5:-1 6:-1 7:-0.880893 8:-1 9:-1 10:-1 11:-1 
0 8192 0 0 1:-0.666667 2:0.962071 3:-1 4:-1 5:-1 6:-1 7:-0.880076 8:-1 9:-1 10:-1 11:-1 
0 8192 0 0 1:-0.666667 2:0.963375 3:-1 4:-1 5:-1 6:-1 7:-0.879024 8:-1 9:-1 10:-1 11:-1 
0 8192 0 0 1:-0.666667 2:0.961355 3:-1 4:-1 5:-1 6:-1 7:-0.877919 8:-1 9:-1 10:-1 11:-1 
0 16.06638583428055 0 0 1:-0.666667 2:0.959143 3:-1 4:-1 5:-1 6:-1 7:-0.877134 8:-1 9:-1 10:-1 11:-1 
8192 8192 8192 8192 1:-1 2:-1 3:-1 4:-1 5:-1 6:-1 7:-1 8:-1 9:-1 10:-1 11:-1 
8192 8191.934291090583 8192 8192 1:-1 2:-1 3:-1 4:-1 5:-1 6:-1 7:-1 8:-1 9:-1 10:-1 11:-1 
8192 8192 8192 8192 1:-1 2:-1 3:-1 4:-1 5:-1 6:-1 7:-1 8:-1 9:-1 10:-1 11:-1 
8192 8192 8192 8192 1:-1 2:-1 3:-1 4:-1 5:-1 6:-1 7:-1 8:-1 9:-1 10:-1 11:-1 
8192 8192 8192 8192 1:-1 2:-1 3:-1 4:-1 5:-1 6:-1 7:-1 8:-1 9:-1 10:-1 11:-1 
8192 8192 8192 8192 1:-1 2:-1 3:-1 4:-1 5:-1 6:-1 7:-1 8:-1 9:-1 10:-1 11:-1 
8192 8192 8192 8192 1:-1 2:-1 3:-1 4:-1 5:-1 6:-1 7:-1 8:-1 9:-1 10:-1 11:-1 
8192 8192 8192 8192 1:-1 2:-1 3:-1 4:-1 5:-1 6:-1 7:-1 8:-1 9:-1 10:-1 11:-1 
8192 8192 8192 8192 1:-1 2:-1 3:-1 4:-1 5:-1 6:-1 7:-1 8:-1 9:-1 10:-1 11:-1 
8192 8192 8192 8192 1:-1 2:-1 3:-1 4:-1 5:-1 6:-1 7:-1 8:-1 9:-1 10:-1 11:-1 
8192 8191.917013734973 8192 8192 1:-1 2:-1 3:-1 4:-1 5:-1 6:-1 7:-1 8:-1 9:-1 10:-1 11:-1 
0 0 8192 8192 1:-0.666667 2:0.918723 3:-1 4:-1 5:-1 6:-1 7:-0.946102 8:-1 9:-1 10:-1 11:-1 
101.9981738792779 0 8192 0 1:-0.666667 2:0.929481 3:-1 4:-1 5:-1 6:-1 7:-0.973659 8:-1 9:-1 10:-1 11:-1 
0 0 8192 0 1:-0.666667 2:0.928695 3:-1 4:-1 5:-1 6:-1 7:-0.963615 8:-1 9:-1 10:-1 11:-1 
0 0 8192 7384.354820605197 1:-0.666667 2:0.928555 3:-1 4:-1 5:-1 6:-1 7:-0.95335 8:-1 9:-1 10:-1 11:-1 
0 0 8192 8192 1:-0.666667 2:0.927143 3:-1 4:-1 5:-1 6:-1 7:-0.943018 8:-1 9:-1 10:-1 11:-1 
0 0 8192 8192 1:-0.666667 2:0.927105 3:-1 4:-1 5:-1 6:-1 7:-0.935078 8:-1 9:-1 10:-1 11:-1 
0 0 8192 8192 1:-0.666667 2:0.926625 3:-1 4:-1 5:-1 6:-1 7:-0.928369 8:-1 9:-1 10:-1 11:-1 
1.057917051096504 1.727035673476769 4.122450244398063 1.993179801359439 1:-0.333333 2:0.925883 3:0.250164 4:0.120481 5:-1 6:-1 7:0.0790865 8:0.11332 9:-0.905711 10:-1 11:-1 
0.9833483146565696 1.52904930547264 4.04358796044738 1.823718769512378 1:-0.333333 2:0.940647 3:-0.390402 4:-0.411546 5:-1 6:-1 7:0.0962964 8:0.134282 9:-0.89509 10:-1 11:-1 
1.192254648339312 1.912105622229617 4.661720313384457 2.206575945506924 1:-0.333333 2:0.950609 3:-0.816462 4:-0.991892 5:-1 6:-1 7:0.118336 8:0.14596 9:-0.875436 10:-1 11:-1 
0 8192 0 8192 1:-0.666667 2:0.955019 3:-1 4:-1 5:-1 6:-1 7:-0.895897 8:-1 9:-1 10:-1 11:-1 
0 8192 0 0 1:-0.666667 2:0.954489 3:-1 4:-1 5:-1 6:-1 7:-0.894327 8:-1 9:-1 10:-1 11:-1 
0.2501339983028169 0.4505798360089862 1.205246308939952 0.4680681919764519 1:-0.333333 2:0.937243 3:0.283664 4:0.0166169 5:-1 6:-1 7:0.119892 8:0.14181 9:-0.862794 10:-1 11:-1 
8192 8192 8192 8192 1:-1 2:-1 3:-1 4:-1 5:-1 6:-1 7:-1 8:-1 9:-1 10:-1 11:-1 
8192 8191.99228643713 8192 8192 1:-1 2:-1 3:-1 4:-1 5:-1 6:-1 7:-1 8:-1 9:-1 10:-1 11:-1 
8192 8191.992851507351 8192 8192 1:-1 2:-1 3:-1 4:-1 5:-1 6:-1 7:-1 8:-1 9:-1 10:-1 11:-1 
8192 8192 8192 8192 1:-1 2:-1 3:-1 4:-1 5:-1 6:-1 7:-1 8:-1 9:-1 10:-1 11:-1 
8192 8191.875631902506 8192 8192 1:-1 2:-1 3:-1 4:-1 5:-1 6:-1 7:-1 8:-1 9:-1 10:-1 11:-1 
8192 8192 8192 8192 1:-1 2:-1 3:-1 4:-1 5:-1 6:-1 7:-1 8:-1 9:-1 10:-1 11:-1 
8192 8192 8192 8192 1:-1 2:-1 3:-1 4:-1 5:-1 6:-1 7:-1 8:-1 9:-1 10:-1 11:-1 
8192 8192 8192 8192 1:-1 2:-1 3:-1 4:-1 5:-1 6:-1 7:-1 8:-1 9:-1 10:-1 11:-1 
8192 8192 8192 8192 1:-1 2:-1 3:-1 4:-1 5:-1 6:-1 7:-1 8:-1 9:-1 10:-1 11:-1 
8192 8192 8192 8192 1:-1 2:-1 3:-1 4:-1 5:-1 6:-1 7:-1 8:-1 9:-1 10:-1 11:-1 
8192 8192 8192 8192 1:-1 2:-1 3:-1 4:-1 5:-1 6:-1 7:-1 8:-1 9:-1 10:-1 11:-1 
8192 8192 8192 8192 1:-1 2:-1 3:-1 4:-1 5:-1 6:-1 7:-1 8:-1 9:-1 10:-1 11:-1 
8192 8192 8192 8192 1:-1 2:-1 3:-1 4:-1 5:-1 6:-1 7:-1 8:-1 9:-1 10:-1 11:-1 
8192 8191.889486519719 8192 8192 1:-1 2:-1 3:-1 4:-1 5:-1 6:-1 7:-1 8:-1 9:-1 10:-1 11:-1 
8192 8192 8192 8192 1:-1 2:-1 3:-1 4:-1 5:-1 6:-1 7:-1 8:-1 9:-1 10:-1 11:-1 
8192 8192 8192 8192 1:-1 2:-1 3:-1 4:-1 5:-1 6:-1 7:-1 8:-1 9:-1 10:-1 11:-1 
8192 8192 8192 8192 1:-1 2:-1 3:-1 4:-1 5:-1 6:-1 7:-1 8:-1 9:-1 10:-1 11:-1 
8192 8192 8192 8192 1:-1 2:-1 3:-1 4:-1 5:-1 6:-1 7:-1 8:-1 9:-1 10:-1 11:-1 
8192 8192 8192 8192 1:-1 2:-1 3:-1 4:-1 5:-1 6:-1 7:-1 8:-1 9:-1 10:-1 11:-1 
8192 8192 8192 8192 1:-1 2:-1 3:-1 4:-1 5:-1 6:-1 7:-1 8:-1 9:-1 10:-1 11:-1 
8192 8192 8192 8192 1:-1 2:-1 3:-1 4:-1 5:-1 6:-1 7:-1 8:-1 9:-1 10:-1 11:-1 
8192 8192 8192 8192 1:-1 2:-1 3:-1 4:-1 5:-1 6:-1 7:-1 8:-1 9:-1 10:-1 11:-1 
8192 8190.724380532369 8192 8192 1:-1 2:-1 3:-1 4:-1 5:-1 6:-1 7:-1 8:-1 9:-1 10:-1 11:-1 
8192 8192 8192 8192 1:-1 2:-1 3:-1 4:-1 5:-1 6:-1 7:-1 8:-1 9:-1 10:-1 11:-1 
8192 8192 8192 8192 1:-1 2:-1 3:-1 4:-1 5:-1 6:-1 7:-1 8:-1 9:-1 10:-1 11:-1 
8192 8192 8192 8192 1:-1 2:-1 3:-1 4:-1 5:-1 6:-1 7:-1 8:-1 9:-1 10:-1 11:-1 
8192 8192 8192 8192 1:-1 2:-1 3:-1 4:-1 5:-1 6:-1 7:-1 8:-1 9:-1 10:-1 11:-1 
8192 8192 8192 8192 1:-1 2:-1 3:-1 4:-1 5:-1 6:-1 7:-1 8:-1 9:-1 10:-1 11:-1 
8192 8192 8192 8192 1:-1 2:-1 3:-1 4:-1 5:-1 6:-1 7:-1 8:-1 9:-1 10:-1 11:-1 
8192 8192 8192 8192 1:-1 2:-1 3:-1 4:-1 5:-1 6:-1 7:-1 8:-1 9:-1 10:-1 11:-1 
8192 8192 8192 8192 1:-1 2:-1 3:-1 4:-1 5:-1 6:-1 7:-1 8:-1 9:-1 10:-1 11:-1 
8192 8192 8192 8192 1:-1 2:-1 3:-1 4:-1 5:-1 6:-1 7:-1 8:-1 9:-1 10:-1 11:-1 
8192 8192 8192 8192 1:-1 2:-1 3:-1 4:-1 5:-1 6:-1 7:-1 8:-1 9:-1 10:-1 11:-1 
8192 8192 8192 8192 1:-1 2:-1 3:-1 4:-1 5:-1 6:-1 7:-1 8:-1 9:-1 10:-1 11:-1 
8192 8192 8192 8192 1:-1 2:-1 3:-1 4:-1 5:-1 6:-1 7:-1 8:-1 9:-1 10:-1 11:-1 
8192 8192 8192 8192 1:-1 2:-1 3:-1 4:-1 5:-1 6:-1 7:-1 8:-1 9:-1 10:-1 11:-1 
8192 8192 8192 8192 1:-1 2:-1 3:-1 4:-1 5:-1 6:-1 7:-1 8:-1 9:-1 10:-1 11:-1 
8192 8192 8192 8192 1:-1 2:-1 3:-1 4:-1 5:-1 6:-1 7:-1 8:-1 9:-1 10:-1 11:-1 
8192 8192 8192 8192 1:-1 2:-1 3:-1 4:-1 5:-1 6:-1 7:-1 8:-1 9:-1 10:-1 11:-1 
8192 8191.932339666003 8192 8192 1:-1 2:-1 3:-1 4:-1 5:-1 6:-1 7:-1 8:-1 9:-1 10:-1 11:-1 
8192 8192 8192 8192 1:-1 2:-1 3:-1 4:-1 5:-1 6:-1 7:-1 8:-1 9:-1 10:-1 11:-1 
8192 8192 8192 8192 1:-1 2:-1 3:-1 4:-1 5:-1 6:-1 7:-1 8:-1 9:-1 10:-1 11:-1 
8192 8192 8192 8192 1:-1 2:-1 3:-1 4:-1 5:-1 6:-1 7:-1 8:-1 9:-1 10:-1 11:-1 
8192 8192 8192 8192 1:-1 2:-1 3:-1 4:-1 5:-1 6:-1 7:-1 8:-1 9:-1 10:-1 11:-1 
8192 8192 8192 8192 1:-1 2:-1 3:-1 4:-1 5:-1 6:-1 7:-1 8:-1 9:-1 10:-1 11:-1 
8192 8192 8192 8192 1:-1 2:-1 3:-1 4:-1 5:-1 6:-1 7:-1 8:-1 9:-1 10:-1 11:-1 
8192 8192 8192 8192 1:-1 2:-1 3:-1 4:-1 5:-1 6:-1 7:-1 8:-1 9:-1 10:-1 11:-1 
8192 8192 8192 8192 1:-1 2:-1 3:-1 4:-1 5:-1 6:-1 7:-1 8:-1 9:-1 10:-1 11:-1 
8192 8192 8192 8192 1:-1 2:-1 3:-1 4:-1 5:-1 6:-1 7:-1 8:-1 9:-1 10:-1 11:-1 
8192 8192 8192 8192 1:-1 2:-1 3:-1 4:-1 5:-1 6:-1 7:-1 8:-1 9:-1 10:-1 11:-1 
0 8192 8192 0 1:-0.666667 2:0.864338 3:-1 4:-1 5:-1 6:-1 7:-0.826687 8:-1 9:-1 10:-1 11:-1 
8192 8192 8192 8192 1:-1 2:-1 3:-1 4:-1 5:-1 6:-1 7:-1 8:-1 9:-1 10:-1 11:-1 
8192 8192 8192 8192 1:-1 2:-1 3:-1 4:-1 5:-1 6:-1 7:-1 8:-1 9:-1 10:-1 11:-1 
8192 8192 8192 8192 1:-1 2:-1 3:-1 4:-1 5:-1 6:-1 7:-1 8:-1 9:-1 10:-1 11:-1 
8192 8192 8192 8192 1:-1 2:-1 3:-1 4:-1 5:-1 6:-1 7:-1 8:-1 9:-1 10:-1 11:-1 
8192 8192 8192 8192 1:-1 2:-1 3:-1 4:-1 5:-1 6:-1 7:-1 8:-1 9:-1 10:-1 11:-1 
8192 8192 8192 8192 1:-1 2:-1 3:-1 4:-1 5:-1 6:-1 7:-1 8:-1 9:-1 10:-1 11:-1 
8192 8192 8192 8192 1:-1 2:-1 3:-1 4:-1 5:-1 6:-1 7:-1 8:-1 9:-1 10:-1 11:-1 
0 1653.529879711729 0 8192 1:-0.666667 2:0.951575 3:-1 4:-1 5:-1 6:-1 7:-0.903223 8:-1 9:-1 10:-1 11:-1 
8192 0 8192 8192 1:-0.666667 2:0.795425 3:-1 4:-1 5:-1 6:-1 7:-0.906989 8:-1 9:-1 10:-1 11:-1 
0 0 8192 8192 1:-0.666667 2:0.960161 3:-1 4:-1 5:-1 6:-1 7:-0.918764 8:-1 9:-1 10:-1 11:-1 
0 8192 8192 8192 1:-0.666667 2:0.969482 3:-1 4:-1 5:-1 6:-1 7:-0.922713 8:-1 9:-1 10:-1 11:-1 
0 0 8192 8192 1:-0.666667 2:0.953931 3:-1 4:-1 5:-1 6:-1 7:-0.928286 8:-1 9:-1 10:-1 11:-1 
8192 8192 8192 8192 1:-1 2:-1 3:-1 4:-1 5:-1 6:-1 7:-1 8:-1 9:-1 10:-1 11:-1 
8192 8192 8192 8192 1:-1 2:-1 3:-1 4:-1 5:-1 6:-1 7:-1 8:-1 9:-1 10:-1 11:-1 
0 0 8192 8192 1:-0.666667 2:0.917521 3:-1 4:-1 5:-1 6:-1 7:-0.932937 8:-1 9:-1 10:-1 11:-1 
8192 8192 8192 8192 1:-1 2:-1 3:-1 4:-1 5:-1 6:-1 7:-1 8:-1 9:-1 10:-1 11:-1 
0 0 8192 8192 1:-0.666667 2:0.959587 3:-1 4:-1 5:-1 6:-1 7:-0.951049 8:-1 9:-1 10:-1 11:-1 
8192 8192 8192 8192 1:-1 2:-1 3:-1 4:-1 5:-1 6:-1 7:-1 8:-1 9:-1 10:-1 11:-1 
0 0 8192 8192 1:-0.666667 2:0.972134 3:-1 4:-1 5:-1 6:-1 7:-0.960142 8:-1 9:-1 10:-1 11:-1 
0 0 8192 8192 1:-0.666667 2:0.972398 3:-1 4:-1 5:-1 6:-1 7:-0.968669 8:-1 9:-1 10:-1 11:-1 
0 0 8192 8192 1:-0.666667 2:0.969174 3:-1 4:-1 5:-1 6:-1 7:-0.970184 8:-1 9:-1 10:-1 11:-1 
0 0 8192 8192 1:-0.666667 2:0.967564 3:-1 4:-1 5:-1 6:-1 7:-0.966015 8:-1 9:-1 10:-1 11:-1 
8192 8192 8192 8192 1:-1 2:-1 3:-1 4:-1 5:-1 6:-1 7:-1 8:-1 9:-1 10:-1 11:-1 
8192 8192 8192 8192 1:-1 2:-1 3:-1 4:-1 5:-1 6:-1 7:-1 8:-1 9:-1 10:-1 11:-1 
0 8192 8192 8192 1:-0.666667 2:0.969714 3:-1 4:-1 5:-1 6:-1 7:-0.924163 8:-1 9:-1 10:-1 11:-1 
0 8192 8192 8192 1:-0.666667 2:0.967084 3:-1 4:-1 5:-1 6:-1 7:-0.90852 8:-1 9:-1 10:-1 11:-1 
0 8192 0 8192 1:-0.666667 2:0.958505 3:-1 4:-1 5:-1 6:-1 7:-0.896729 8:-1 9:-1 10:-1 11:-1 
0 8192 0 0 1:-0.666667 2:0.952169 3:-1 4:-1 5:-1 6:-1 7:-0.890919 8:-1 9:-1 10:-1 11:-1 
8192 8192 8192 8192 1:-1 2:-1 3:-1 4:-1 5:-1 6:-1 7:-1 8:-1 9:-1 10:-1 11:-1 
8192 8192 8192 8192 1:-1 2:-1 3:-1 4:-1 5:-1 6:-1 7:-1 8:-1 9:-1 10:-1 11:-1 
8192 8192 8192 8192 1:-1 2:-1 3:-1 4:-1 5:-1 6:-1 7:-1 8:-1 9:-1 10:-1 11:-1 
0.1711251331805896 0.3488557546613082 0.544166166482819 0.3314345340560121 1:-0.333333 2:0.878836 3:-0.432649 4:-0.459889 5:-1 6:-1 7:0.234825 8:0.205908 9:-0.849494 10:-1 11:-1 
0.7658741572126806 1.292753265508994 2.793503861629031 1.446078322830458 1:-0.333333 2:0.894027 3:-0.683996 4:-0.690088 5:-1 6:-1 7:0.208746 8:0.187638 9:-0.849882 10:-1 11:-1 
0.6212545240440659 1.037322802118057 2.394348748990934 1.170047695424768 1:-0.333333 2:0.901391 3:-0.661071 4:-0.999512 5:-1 6:-1 7:0.135551 8:0.10762 9:-0.85002 10:-1 11:-1 
8192 8191.994622902503 8192 8192 1:-1 2:-1 3:-1 4:-1 5:-1 6:-1 7:-1 8:-1 9:-1 10:-1 11:-1 
8192 8192 8192 8192 1:-1 2:-1 3:-1 4:-1 5:-1 6:-1 7:-1 8:-1 9:-1 10:-1 11:-1 
0 6.100277991996421 312.7747507654932 0 1:-0.666667 2:-0.323295 3:-1 4:-1 5:-1 6:-1 7:0.0732514 8:-1 9:-1 10:-1 11:-1 
8192 8192 8192 8192 1:-1 2:-1 3:-1 4:-1 5:-1 6:-1 7:-1 8:-1 9:-1 10:-1 11:-1 
8192 8192 8192 8192 1:-1 2:-1 3:-1 4:-1 5:-1 6:-1 7:-1 8:-1 9:-1 10:-1 11:-1 
12.26495588855484 2.373581599139785 183.3429872443308 2.591452832291583 1:-0.666667 2:-0.605304 3:-1 4:-1 5:-1 6:-1 7:-0.00513533 8:-1 9:-1 10:-1 11:-1 
8192 8192 8192 8192 1:-1 2:-1 3:-1 4:-1 5:-1 6:-1 7:-1 8:-1 9:-1 10:-1 11:-1 
8192 8192 8192 8192 1:-1 2:-1 3:-1 4:-1 5:-1 6:-1 7:-1 8:-1 9:-1 10:-1 11:-1 
8192 8192 8192 8192 1:-1 2:-1 3:-1 4:-1 5:-1 6:-1 7:-1 8:-1 9:-1 10:-1 11:-1 
8192 8192 8192 8192 1:-1 2:-1 3:-1 4:-1 5:-1 6:-1 7:-1 8:-1 9:-1 10:-1 11:-1 
8192 8191.992729642303 8192 8192 1:-1 2:-1 3:-1 4:-1 5:-1 6:-1 7:-1 8:-1 9:-1 10:-1 11:-1 
8192 8192 8192 8192 1:-1 2:-1 3:-1 4:-1 5:-1 6:-1 7:-1 8:-1 9:-1 10:-1 11:-1 
8192 8191.964714519724 8192 8192 1:-1 2:-1 3:-1 4:-1 5:-1 6:-1 7:-1 8:-1 9:-1 10:-1 11:-1 
8192 8192 8192 8192 1:-1 2:-1 3:-1 4:-1 5:-1 6:-1 7:-1 8:-1 9:-1 10:-1 11:-1 
8192 8191.993051084952 8192 8192 1:-1 2:-1 3:-1 4:-1 5:-1 6:-1 7:-1 8:-1 9:-1 10:-1 11:-1 
8192 8192 8192 8192 1:-1 2:-1 3:-1 4:-1 5:-1 6:-1 7:-1 8:-1 9:-1 10:-1 11:-1 
8192 8192 8192 8192 1:-1 2:-1 3:-1 4:-1 5:-1 6:-1 7:-1 8:-1 9:-1 10:-1 11:-1 
8192 8192 8192 8192 1:-1 2:-1 3:-1 4:-1 5:-1 6:-1 7:-1 8:-1 9:-1 10:-1 11:-1 
8192 8192 8192 8192 1:-1 2:-1 3:-1 4:-1 5:-1 6:-1 7:-1 8:-1 9:-1 10:-1 11:-1 
8192 8192 8192 8192 1:-1 2:-1 3:-1 4:-1 5:-1 6:-1 7:-1 8:-1 9:-1 10:-1 11:-1 
8192 8192 8192 8192 1:-1 2:-1 3:-1 4:-1 5:-1 6:-1 7:-1 8:-1 9:-1 10:-1 11:-1 
-0.03132723402279336 0 8192 8192 1:-1 2:-1 3:-1 4:-1 5:-1 6:-1 7:-1 8:-1 9:-1 10:-1 11:-1 
-0.0007455282719098342 0 8192 8192 1:-1 2:-1 3:-1 4:-1 5:-1 6:-1 7:-1 8:-1 9:-1 10:-1 11:-1 
-0 0 8192 8192 1:-1 2:-1 3:-1 4:-1 5:-1 6:-1 7:-1 8:-1 9:-1 10:-1 11:-1 
-0 0 8192 8192 1:-1 2:-1 3:-1 4:-1 5:-1 6:-1 7:-1 8:-1 9:-1 10:-1 11:-1 
-0 0 8192 8192 1:-1 2:-1 3:-1 4:-1 5:-1 6:-1 7:-1 8:-1 9:-1 10:-1 11:-1 
-0 0 8192 8192 1:-1 2:-1 3:-1 4:-1 5:-1 6:-1 7:-1 8:-1 9:-1 10:-1 11:-1 
-0 0 8192 8192 1:-1 2:-1 3:-1 4:-1 5:-1 6:-1 7:-1 8:-1 9:-1 10:-1 11:-1 
-0 0 8192 8192 1:-1 2:-1 3:-1 4:-1 5:-1 6:-1 7:-1 8:-1 9:-1 10:-1 11:-1 
-0 0 8192 8192 1:-1 2:-1 3:-1 4:-1 5:-1 6:-1 7:-1 8:-1 9:-1 10:-1 11:-1 
-0 0 8192 8192 1:-1 2:-1 3:-1 4:-1 5:-1 6:-1 7:-1 8:-1 9:-1 10:-1 11:-1 
-0 0 8192 8192 1:-1 2:-1 3:-1 4:-1 5:-1 6:-1 7:-1 8:-1 9:-1 10:-1 11:-1 
-0 0 8192 8192 1:-1 2:-1 3:-1 4:-1 5:-1 6:-1 7:-1 8:-1 9:-1 10:-1 11:-1 
-0 0 8192 8192 1:-1 2:-1 3:-1 4:-1 5:-1 6:-1 7:-1 8:-1 9:-1 10:-1 11:-1 
-0 0 8192 8192 1:-1 2:-1 3:-1 4:-1 5:-1 6:-1 7:-1 8:-1 9:-1 10:-1 11:-1 
-0 0 8192 8192 1:-1 2:-1 3:-1 4:-1 5:-1 6:-1 7:-1 8:-1 9:-1 10:-1 11:-1 
-0 0 8192 8192 1:-1 2:-1 3:-1 4:-1 5:-1 6:-1 7:-1 8:-1 9:-1 10:-1 11:-1 
-0 0 8192 8192 1:-1 2:-1 3:-1 4:-1 5:-1 6:-1 7:-1 8:-1 9:-1 10:-1 11:-1 
-0 0 8192 8192 1:-1 2:-1 3:-1 4:-1 5:-1 6:-1 7:-1 8:-1 9:-1 10:-1 11:-1 
-0 0 8192 8192 1:-1 2:-1 3:-1 4:-1 5:-1 6:-1 7:-1 8:-1 9:-1 10:-1 11:-1 
-0 0 8192 8192 1:-1 2:-1 3:-1 4:-1 5:-1 6:-1 7:-1 8:-1 9:-1 10:-1 11:-1 
-0 0 8192 8192 1:-1 2:-1 3:-1 4:-1 5:-1 6:-1 7:-1 8:-1 9:-1 10:-1 11:-1 
-0 0 8192 8192 1:-1 2:-1 3:-1 4:-1 5:-1 6:-1 7:-1 8:-1 9:-1 10:-1 11:-1 
-0 0 8192 8192 1:-1 2:-1 3:-1 4:-1 5:-1 6:-1 7:-1 8:-1 9:-1 10:-1 11:-1 
-0 0 8192 8192 1:-1 2:-1 3:-1 4:-1 5:-1 6:-1 7:-1 8:-1 9:-1 10:-1 11:-1 
-0 0 8192 8192 1:-1 2:-1 3:-1 4:-1 5:-1 6:-1 7:-1 8:-1 9:-1 10:-1 11:-1 
-0 0 8192 8192 1:-1 2:-1 3:-1 4:-1 5:-1 6:-1 7:-1 8:-1 9:-1 10:-1 11:-1 
-0 0 8192 8192 1:-1 2:-1 3:-1 4:-1 5:-1 6:-1 7:-1 8:-1 9:-1 10:-1 11:-1 
-0 0 8192 8192 1:-1 2:-1 3:-1 4:-1 5:-1 6:-1 7:-1 8:-1 9:-1 10:-1 11:-1 
-0 0 8192 8192 1:-1 2:-1 3:-1 4:-1 5:-1 6:-1 7:-1 8:-1 9:-1 10:-1 11:-1 
-0 0 8192 8192 1:-1 2:-1 3:-1 4:-1 5:-1 6:-1 7:-1 8:-1 9:-1 10:-1 11:-1 
-0 0 8192 8192 1:-1 2:-1 3:-1 4:-1 5:-1 6:-1 7:-1 8:-1 9:-1 10:-1 11:-1 
-0 0 8192 8192 1:-1 2:-1 3:-1 4:-1 5:-1 6:-1 7:-1 8:-1 9:-1 10:-1 11:-1 
-0 0 8192 8192 1:-1 2:-1 3:-1 4:-1 5:-1 6:-1 7:-1 8:-1 9:-1 10:-1 11:-1 
-0 0 8192 8192 1:-1 2:-1 3:-1 4:-1 5:-1 6:-1 7:-1 8:-1 9:-1 10:-1 11:-1 
-0 0 8192 8192 1:-1 2:-1 3:-1 4:-1 5:-1 6:-1 7:-1 8:-1 9:-1 10:-1 11:-1 
-0 0 8192 8192 1:-1 2:-1 3:-1 4:-1 5:-1 6:-1 7:-1 8:-1 9:-1 10:-1 11:-1 
-0 0 8192 8192 1:-1 2:-1 3:-1 4:-1 5:-1 6:-1 7:-1 8:-1 9:-1 10:-1 11:-1 
-0 0 8192 8192 1:-1 2:-1 3:-1 4:-1 5:-1 6:-1 7:-1 8:-1 9:-1 10:-1 11:-1 
-0 0 8192 8192 1:-1 2:-1 3:-1 4:-1 5:-1 6:-1 7:-1 8:-1 9:-1 10:-1 11:-1 
-0 0 8192 8192 1:-1 2:-1 3:-1 4:-1 5:-1 6:-1 7:-1 8:-1 9:-1 10:-1 11:-1 
-0 0 8192 8192 1:-1 2:-1 3:-1 4:-1 5:-1 6:-1 7:-1 8:-1 9:-1 10:-1 11:-1 
-0 0 8192 8192 1:-1 2:-1 3:-1 4:-1 5:-1 6:-1 7:-1 8:-1 9:-1 10:-1 11:-1 
-0 0 8192 8192 1:-1 2:-1 3:-1 4:-1 5:-1 6:-1 7:-1 8:-1 9:-1 10:-1 11:-1 
-0 0 8192 8192 1:-1 2:-1 3:-1 4:-1 5:-1 6:-1 7:-1 8:-1 9:-1 10:-1 11:-1 
-0 0 8192 8192 1:-1 2:-1 3:-1 4:-1 5:-1 6:-1 7:-1 8:-1 9:-1 10:-1 11:-1 
-0 0 8192 8192 1:-1 2:-1 3:-1 4:-1 5:-1 6:-1 7:-1 8:-1 9:-1 10:-1 11:-1 
-0 0 8192 8192 1:-1 2:-1 3:-1 4:-1 5:-1 6:-1 7:-1 8:-1 9:-1 10:-1 11:-1 
-0 0 8192 8192 1:-1 2:-1 3:-1 4:-1 5:-1 6:-1 7:-1 8:-1 9:-1 10:-1 11:-1 
-0 0 8192 8192 1:-1 2:-1 3:-1 4:-1 5:-1 6:-1 7:-1 8:-1 9:-1 10:-1 11:-1 
-0 0 8192 8192 1:-1 2:-1 3:-1 4:-1 5:-1 6:-1 7:-1 8:-1 9:-1 10:-1 11:-1 
-0 0 8192 8192 1:-1 2:-1 3:-1 4:-1 5:-1 6:-1 7:-1 8:-1 9:-1 10:-1 11:-1 
-0 0 8192 8192 1:-1 2:-1 3:-1 4:-1 5:-1 6:-1 7:-1 8:-1 9:-1 10:-1 11:-1 
-0 0 8192 8192 1:-1 2:-1 3:-1 4:-1 5:-1 6:-1 7:-1 8:-1 9:-1 10:-1 11:-1 
-0 0 8192 8192 1:-1 2:-1 3:-1 4:-1 5:-1 6:-1 7:-1 8:-1 9:-1 10:-1 11:-1 
-0 0 8192 8192 1:-1 2:-1 3:-1 4:-1 5:-1 6:-1 7:-1 8:-1 9:-1 10:-1 11:-1 
-0 0 8192 8192 1:-1 2:-1 3:-1 4:-1 5:-1 6:-1 7:-1 8:-1 9:-1 10:-1 11:-1 
-0 0 8192 8192 1:-1 2:-1 3:-1 4:-1 5:-1 6:-1 7:-1 8:-1 9:-1 10:-1 11:-1 
-0 0 8192 8192 1:-1 2:-1 3:-1 4:-1 5:-1 6:-1 7:-1 8:-1 9:-1 10:-1 11:-1 
-0 0 8192 8192 1:-1 2:-1 3:-1 4:-1 5:-1 6:-1 7:-1 8:-1 9:-1 10:-1 11:-1 
-0 0 8192 8192 1:-1 2:-1 3:-1 4:-1 5:-1 6:-1 7:-1 8:-1 9:-1 10:-1 11:-1 
-40.77488476007196 104.4257338643417 69.46677523190372 2347.917219521635 1:-0.666667 2:-0.400982 3:-1 4:-1 5:-1 6:-1 7:-0.951136 8:-1 9:-1 10:-1 11:-1 
-0 0 8192 8192 1:-1 2:-1 3:-1 4:-1 5:-1 6:-1 7:-1 8:-1 9:-1 10:-1 11:-1 
-0 0 8192 8192 1:-1 2:-1 3:-1 4:-1 5:-1 6:-1 7:-1 8:-1 9:-1 10:-1 11:-1 
-0 0 8192 8192 1:-1 2:-1 3:-1 4:-1 5:-1 6:-1 7:-1 8:-1 9:-1 10:-1 11:-1 
-0 0 8192 8192 1:-1 2:-1 3:-1 4:-1 5:-1 6:-1 7:-1 8:-1 9:-1 10:-1 11:-1 
-0 0 8192 8192 1:-1 2:-1 3:-1 4:-1 5:-1 6:-1 7:-1 8:-1 9:-1 10:-1 11:-1 
-0 0 8192 8192 1:-1 2:-1 3:-1 4:-1 5:-1 6:-1 7:-1 8:-1 9:-1 10:-1 11:-1 
-0 0 8192 8192 1:-1 2:-1 3:-1 4:-1 5:-1 6:-1 7:-1 8:-1 9:-1 10:-1 11:-1 
-0 0 8192 8192 1:-1 2:-1 3:-1 4:-1 5:-1 6:-1 7:-1 8:-1 9:-1 10:-1 11:-1 
-0 0 8192 8192 1:-1 2:-1 3:-1 4:-1 5:-1 6:-1 7:-1 8:-1 9:-1 10:-1 11:-1 
-0 0 8192 8192 1:-1 2:-1 3:-1 4:-1 5:-1 6:-1 7:-1 8:-1 9:-1 10:-1 11:-1 
-0 0 8192 8192 1:-1 2:-1 3:-1 4:-1 5:-1 6:-1 7:-1 8:-1 9:-1 10:-1 11:-1 
-0 0 8192 8192 1:-1 2:-1 3:-1 4:-1 5:-1 6:-1 7:-1 8:-1 9:-1 10:-1 11:-1 
-0 0 8192 8192 1:-1 2:-1 3:-1 4:-1 5:-1 6:-1 7:-1 8:-1 9:-1 10:-1 11:-1 
-0 0 8192 8192 1:-1 2:-1 3:-1 4:-1 5:-1 6:-1 7:-1 8:-1 9:-1 10:-1 11:-1 
-0 0 8192 8192 1:-1 2:-1 3:-1 4:-1 5:-1 6:-1 7:-1 8:-1 9:-1 10:-1 11:-1 
-0 0 8192 8192 1:-1 2:-1 3:-1 4:-1 5:-1 6:-1 7:-1 8:-1 9:-1 10:-1 11:-1 
-0 0 8192 8192 1:-1 2:-1 3:-1 4:-1 5:-1 6:-1 7:-1 8:-1 9:-1 10:-1 11:-1 
-0 0 8192 8192 1:-1 2:-1 3:-1 4:-1 5:-1 6:-1 7:-1 8:-1 9:-1 10:-1 11:-1 
-0 0 8192 8192 1:-1 2:-1 3:-1 4:-1 5:-1 6:-1 7:-1 8:-1 9:-1 10:-1 11:-1 
-0 0 8192 8192 1:-1 2:-1 3:-1 4:-1 5:-1 6:-1 7:-1 8:-1 9:-1 10:-1 11:-1 
-0 0 8192 8192 1:-1 2:-1 3:-1 4:-1 5:-1 6:-1 7:-1 8:-1 9:-1 10:-1 11:-1 
-0 0 8192 8192 1:-1 2:-1 3:-1 4:-1 5:-1 6:-1 7:-1 8:-1 9:-1 10:-1 11:-1 
-0 0 8192 8192 1:-1 2:-1 3:-1 4:-1 5:-1 6:-1 7:-1 8:-1 9:-1 10:-1 11:-1 
-0 0 8192 8192 1:-1 2:-1 3:-1 4:-1 5:-1 6:-1 7:-1 8:-1 9:-1 10:-1 11:-1 
-0 0 8192 8192 1:-1 2:-1 3:-1 4:-1 5:-1 6:-1 7:-1 8:-1 9:-1 10:-1 11:-1 
-0 0 8192 8192 1:-1 2:-1 3:-1 4:-1 5:-1 6:-1 7:-1 8:-1 9:-1 10:-1 11:-1 
-0 0 8192 8192 1:-1 2:-1 3:-1 4:-1 5:-1 6:-1 7:-1 8:-1 9:-1 10:-1 11:-1 
-0 0 8192 8192 1:-1 2:-1 3:-1 4:-1 5:-1 6:-1 7:-1 8:-1 9:-1 10:-1 11:-1 
-0 0 8192 8192 1:-1 2:-1 3:-1 4:-1 5:-1 6:-1 7:-1 8:-1 9:-1 10:-1 11:-1 
-0 0 8192 8192 1:-1 2:-1 3:-1 4:-1 5:-1 6:-1 7:-1 8:-1 9:-1 10:-1 11:-1 
-0 0 8192 8192 1:-1 2:-1 3:-1 4:-1 5:-1 6:-1 7:-1 8:-1 9:-1 10:-1 11:-1 
-0 0 8192 8192 1:-1 2:-1 3:-1 4:-1 5:-1 6:-1 7:-1 8:-1 9:-1 10:-1 11:-1 
-0 0 8192 8192 1:-1 2:-1 3:-1 4:-1 5:-1 6:-1 7:-1 8:-1 9:-1 10:-1 11:-1 
-0 0 8192 8192 1:-1 2:-1 3:-1 4:-1 5:-1 6:-1 7:-1 8:-1 9:-1 10:-1 11:-1 
-0 0 8192 8192 1:-1 2:-1 3:-1 4:-1 5:-1 6:-1 7:-1 8:-1 9:-1 10:-1 11:-1 
-0 0 8192 8192 1:-1 2:-1 3:-1 4:-1 5:-1 6:-1 7:-1 8:-1 9:-1 10:-1 11:-1 
-0 0 8192 8192 1:-1 2:-1 3:-1 4:-1 5:-1 6:-1 7:-1 8:-1 9:-1 10:-1 11:-1 
-0 0 8192 8192 1:-1 2:-1 3:-1 4:-1 5:-1 6:-1 7:-1 8:-1 9:-1 10:-1 11:-1 
-0 0 8192 8192 1:-1 2:-1 3:-1 4:-1 5:-1 6:-1 7:-1 8:-1 9:-1 10:-1 11:-1 
-0 0 8192 8192 1:-1 2:-1 3:-1 4:-1 5:-1 6:-1 7:-1 8:-1 9:-1 10:-1 11:-1 
-0 0 8192 8192 1:-1 2:-1 3:-1 4:-1 5:-1 6:-1 7:-1 8:-1 9:-1 10:-1 11:-1 
-0 0 8192 8192 1:-1 2:-1 3:-1 4:-1 5:-1 6:-1 7:-1 8:-1 9:-1 10:-1 11:-1 
-0 0 8192 8192 1:-1 2:-1 3:-1 4:-1 5:-1 6:-1 7:-1 8:-1 9:-1 10:-1 11:-1 
-0 0 8192 8192 1:-1 2:-1 3:-1 4:-1 5:-1 6:-1 7:-1 8:-1 9:-1 10:-1 11:-1 
-0 0 8192 8192 1:-1 2:-1 3:-1 4:-1 5:-1 6:-1 7:-1 8:-1 9:-1 10:-1 11:-1 
-0 0 8192 8192 1:-1 2:-1 3:-1 4:-1 5:-1 6:-1 7:-1 8:-1 9:-1 10:-1 11:-1 
-0 0 8192 8192 1:-1 2:-1 3:-1 4:-1 5:-1 6:-1 7:-1 8:-1 9:-1 10:-1 11:-1 
-0 0 8192 8192 1:-1 2:-1 3:-1 4:-1 5:-1 6:-1 7:-1 8:-1 9:-1 10:-1 11:-1 
-0 0 8192 8192 1:-1 2:-1 3:-1 4:-1 5:-1 6:-1 7:-1 8:-1 9:-1 10:-1 11:-1 
-0 0 8192 8192 1:-1 2:-1 3:-1 4:-1 5:-1 6:-1 7:-1 8:-1 9:-1 10:-1 11:-1 
-0 0 8192 8192 1:-1 2:-1 3:-1 4:-1 5:-1 6:-1 7:-1 8:-1 9:-1 10:-1 11:-1 
-0 0 8192 8192 1:-1 2:-1 3:-1 4:-1 5:-1 6:-1 7:-1 8:-1 9:-1 10:-1 11:-1 
-0 0 8192 8192 1:-1 2:-1 3:-1 4:-1 5:-1 6:-1 7:-1 8:-1 9:-1 10:-1 11:-1 
-0 0 8192 8192 1:-1 2:-1 3:-1 4:-1 5:-1 6:-1 7:-1 8:-1 9:-1 10:-1 11:-1 
-0 0 8192 8192 1:-1 2:-1 3:-1 4:-1 5:-1 6:-1 7:-1 8:-1 9:-1 10:-1 11:-1 
-0 0 8192 8192 1:-1 2:-1 3:-1 4:-1 5:-1 6:-1 7:-1 8:-1 9:-1 10:-1 11:-1 
-0 0 8192 8192 1:-1 2:-1 3:-1 4:-1 5:-1 6:-1 7:-1 8:-1 9:-1 10:-1 11:-1 
-0 0 8192 8192 1:-1 2:-1 3:-1 4:-1 5:-1 6:-1 7:-1 8:-1 9:-1 10:-1 11:-1 
-0 0 8192 8192 1:-1 2:-1 3:-1 4:-1 5:-1 6:-1 7:-1 8:-1 9:-1 10:-1 11:-1 
-0 0 8192 8192 1:-1 2:-1 3:-1 4:-1 5:-1 6:-1 7:-1 8:-1 9:-1 10:-1 11:-1 
-0 0 8192 8192 1:-1 2:-1 3:-1 4:-1 5:-1 6:-1 7:-1 8:-1 9:-1 10:-1 11:-1 
-0 0 8192 8192 1:-1 2:-1 3:-1 4:-1 5:-1 6:-1 7:-1 8:-1 9:-1 10:-1 11:-1 
-0 0 8192 8192 1:-1 2:-1 3:-1 4:-1 5:-1 6:-1 7:-1 8:-1 9:-1 10:-1 11:-1 
-0 0 8192 8192 1:-1 2:-1 3:-1 4:-1 5:-1 6:-1 7:-1 8:-1 9:-1 10:-1 11:-1 
-0 0 8192 8192 1:-1 2:-1 3:-1 4:-1 5:-1 6:-1 7:-1 8:-1 9:-1 10:-1 11:-1 
-0 0 8192 8192 1:-1 2:-1 3:-1 4:-1 5:-1 6:-1 7:-1 8:-1 9:-1 10:-1 11:-1 
-0 0 8192 8192 1:-1 2:-1 3:-1 4:-1 5:-1 6:-1 7:-1 8:-1 9:-1 10:-1 11:-1 
-0 0 8192 8192 1:-1 2:-1 3:-1 4:-1 5:-1 6:-1 7:-1 8:-1 9:-1 10:-1 11:-1 
-0 0 8192 8192 1:-1 2:-1 3:-1 4:-1 5:-1 6:-1 7:-1 8:-1 9:-1 10:-1 11:-1 
-0 0 8192 8192 1:-1 2:-1 3:-1 4:-1 5:-1 6:-1 7:-1 8:-1 9:-1 10:-1 11:-1 
-0 0 8192 8192 1:-1 2:-1 3:-1 4:-1 5:-1 6:-1 7:-1 8:-1 9:-1 10:-1 11:-1 
-0 0 8192 8192 1:-1 2:-1 3:-1 4:-1 5:-1 6:-1 7:-1 8:-1 9:-1 10:-1 11:-1 
-0 0 8192 8192 1:-1 2:-1 3:-1 4:-1 5:-1 6:-1 7:-1 8:-1 9:-1 10:-1 11:-1 
-0 0 8192 8192 1:-1 2:-1 3:-1 4:-1 5:-1 6:-1 7:-1 8:-1 9:-1 10:-1 11:-1 
-0 0 8192 8192 1:-1 2:-1 3:-1 4:-1 5:-1 6:-1 7:-1 8:-1 9:-1 10:-1 11:-1 
-0 0 8192 8192 1:-1 2:-1 3:-1 4:-1 5:-1 6:-1 7:-1 8:-1 9:-1 10:-1 11:-1 
-0 0 8192 8192 1:-1 2:-1 3:-1 4:-1 5:-1 6:-1 7:-1 8:-1 9:-1 10:-1 11:-1 
-0 0 8192 8192 1:-1 2:-1 3:-1 4:-1 5:-1 6:-1 7:-1 8:-1 9:-1 10:-1 11:-1 
-0 0 8192 8192 1:-1 2:-1 3:-1 4:-1 5:-1 6:-1 7:-1 8:-1 9:-1 10:-1 11:-1 
-0 0 8192 8192 1:-1 2:-1 3:-1 4:-1 5:-1 6:-1 7:-1 8:-1 9:-1 10:-1 11:-1 
-0 0 8192 8192 1:-1 2:-1 3:-1 4:-1 5:-1 6:-1 7:-1 8:-1 9:-1 10:-1 11:-1 
-0 0 8192 8192 1:-1 2:-1 3:-1 4:-1 5:-1 6:-1 7:-1 8:-1 9:-1 10:-1 11:-1 
-0 0 8192 8192 1:-1 2:-1 3:-1 4:-1 5:-1 6:-1 7:-1 8:-1 9:-1 10:-1 11:-1 
-0 0 8192 8192 1:-1 2:-1 3:-1 4:-1 5:-1 6:-1 7:-1 8:-1 9:-1 10:-1 11:-1 
-0 0 8192 8192 1:-1 2:-1 3:-1 4:-1 5:-1 6:-1 7:-1 8:-1 9:-1 10:-1 11:-1 
-0 0 8192 8192 1:-1 2:-1 3:-1 4:-1 5:-1 6:-1 7:-1 8:-1 9:-1 10:-1 11:-1 
-0 0 8192 8192 1:-1 2:-1 3:-1 4:-1 5:-1 6:-1 7:-1 8:-1 9:-1 10:-1 11:-1 
-0 0 8192 8192 1:-1 2:-1 3:-1 4:-1 5:-1 6:-1 7:-1 8:-1 9:-1 10:-1 11:-1 
-0 0 8192 8192 1:-1 2:-1 3:-1 4:-1 5:-1 6:-1 7:-1 8:-1 9:-1 10:-1 11:-1 
-0 0 8192 8192 1:-1 2:-1 3:-1 4:-1 5:-1 6:-1 7:-1 8:-1 9:-1 10:-1 11:-1 
-0 0 8192 8192 1:-1 2:-1 3:-1 4:-1 5:-1 6:-1 7:-1 8:-1 9:-1 10:-1 11:-1 
-0 0 8192 8192 1:-1 2:-1 3:-1 4:-1 5:-1 6:-1 7:-1 8:-1 9:-1 10:-1 11:-1 
-0 0 8192 8192 1:-1 2:-1 3:-1 4:-1 5:-1 6:-1 7:-1 8:-1 9:-1 10:-1 11:-1 
-0 0 8192 8192 1:-1 2:-1 3:-1 4:-1 5:-1 6:-1 7:-1 8:-1 9:-1 10:-1 11:-1 
-0 0 8192 8192 1:-1 2:-1 3:-1 4:-1 5:-1 6:-1 7:-1 8:-1 9:-1 10:-1 11:-1 
-0 0 8192 8192 1:-1 2:-1 3:-1 4:-1 5:-1 6:-1 7:-1 8:-1 9:-1 10:-1 11:-1 
-0 0 8192 8192 1:-1 2:-1 3:-1 4:-1 5:-1 6:-1 7:-1 8:-1 9:-1 10:-1 11:-1 
-0 0 8192 8192 1:-1 2:-1 3:-1 4:-1 5:-1 6:-1 7:-1 8:-1 9:-1 10:-1 11:-1 
-0 0 8192 8192 1:-1 2:-1 3:-1 4:-1 5:-1 6:-1 7:-1 8:-1 9:-1 10:-1 11:-1 
-0 0 8192 8192 1:-1 2:-1 3:-1 4:-1 5:-1 6:-1 7:-1 8:-1 9:-1 10:-1 11:-1 
-0 0 8192 8192 1:-1 2:-1 3:-1 4:-1 5:-1 6:-1 7:-1 8:-1 9:-1 10:-1 11:-1 
-0 0 8192 8192 1:-1 2:-1 3:-1 4:-1 5:-1 6:-1 7:-1 8:-1 9:-1 10:-1 11:-1 
-0 0 8192 8192 1:-1 2:-1 3:-1 4:-1 5:-1 6:-1 7:-1 8:-1 9:-1 10:-1 11:-1 
-0 0 8192 8192 1:-1 2:-1 3:-1 4:-1 5:-1 6:-1 7:-1 8:-1 9:-1 10:-1 11:-1 
-0 0 8192 8192 1:-1 2:-1 3:-1 4:-1 5:-1 6:-1 7:-1 8:-1 9:-1 10:-1 11:-1 
-0 0 8192 8192 1:-1 2:-1 3:-1 4:-1 5:-1 6:-1 7:-1 8:-1 9:-1 10:-1 11:-1 
-0 0 8192 8192 1:-1 2:-1 3:-1 4:-1 5:-1 6:-1 7:-1 8:-1 9:-1 10:-1 11:-1 
-0 0 8192 8192 1:-1 2:-1 3:-1 4:-1 5:-1 6:-1 7:-1 8:-1 9:-1 10:-1 11:-1 
-0 0 8192 8192 1:-1 2:-1 3:-1 4:-1 5:-1 6:-1 7:-1 8:-1 9:-1 10:-1 11:-1 
-0 0 8192 8192 1:-1 2:-1 3:-1 4:-1 5:-1 6:-1 7:-1 8:-1 9:-1 10:-1 11:-1 
-0 0 8192 8192 1:-1 2:-1 3:-1 4:-1 5:-1 6:-1 7:-1 8:-1 9:-1 10:-1 11:-1 
-0 0 8192 8192 1:-1 2:-1 3:-1 4:-1 5:-1 6:-1 7:-1 8:-1 9:-1 10:-1 11:-1 
-0 0 8192 8192 1:-1 2:-1 3:-1 4:-1 5:-1 6:-1 7:-1 8:-1 9:-1 10:-1 11:-1 
-0 0 8192 8192 1:-1 2:-1 3:-1 4:-1 5:-1 6:-1 7:-1 8:-1 9:-1 10:-1 11:-1 
-0 0 8192 8192 1:-1 2:-1 3:-1 4:-1 5:-1 6:-1 7:-1 8:-1 9:-1 10:-1 11:-1 
-0 0 8192 8192 1:-1 2:-1 3:-1 4:-1 5:-1 6:-1 7:-1 8:-1 9:-1 10:-1 11:-1 
-0 0 8192 8192 1:-1 2:-1 3:-1 4:-1 5:-1 6:-1 7:-1 8:-1 9:-1 10:-1 11:-1 
-0 0 8192 8192 1:-1 2:-1 3:-1 4:-1 5:-1 6:-1 7:-1 8:-1 9:-1 10:-1 11:-1 
-0 0 8192 8192 1:-1 2:-1 3:-1 4:-1 5:-1 6:-1 7:-1 8:-1 9:-1 10:-1 11:-1 
-0 0 8192 8192 1:-1 2:-1 3:-1 4:-1 5:-1 6:-1 7:-1 8:-1 9:-1 10:-1 11:-1 
-0 0 8192 8192 1:-1 2:-1 3:-1 4:-1 5:-1 6:-1 7:-1 8:-1 9:-1 10:-1 11:-1 
-0 0 8192 8192 1:-1 2:-1 3:-1 4:-1 5:-1 6:-1 7:-1 8:-1 9:-1 10:-1 11:-1 
-0 0 8192 8192 1:-1 2:-1 3:-1 4:-1 5:-1 6:-1 7:-1 8:-1 9:-1 10:-1 11:-1 
-0 0 8192 8192 1:-1 2:-1 3:-1 4:-1 5:-1 6:-1 7:-1 8:-1 9:-1 10:-1 11:-1 
-0 0 8192 8192 1:-1 2:-1 3:-1 4:-1 5:-1 6:-1 7:-1 8:-1 9:-1 10:-1 11:-1 
-0 0 8192 8192 1:-1 2:-1 3:-1 4:-1 5:-1 6:-1 7:-1 8:-1 9:-1 10:-1 11:-1 
-0 0 8192 8192 1:-1 2:-1 3:-1 4:-1 5:-1 6:-1 7:-1 8:-1 9:-1 10:-1 11:-1 
-0 0 8192 8192 1:-1 2:-1 3:-1 4:-1 5:-1 6:-1 7:-1 8:-1 9:-1 10:-1 11:-1 
-0 0 8192 8192 1:-1 2:-1 3:-1 4:-1 5:-1 6:-1 7:-1 8:-1 9:-1 10:-1 11:-1 
-0 0 8192 8192 1:-1 2:-1 3:-1 4:-1 5:-1 6:-1 7:-1 8:-1 9:-1 10:-1 11:-1 
-0 0 8192 8192 1:-1 2:-1 3:-1 4:-1 5:-1 6:-1 7:-1 8:-1 9:-1 10:-1 11:-1 
-0 0 8192 8192 1:-1 2:-1 3:-1 4:-1 5:-1 6:-1 7:-1 8:-1 9:-1 10:-1 11:-1 
-0 0 8192 8192 1:-1 2:-1 3:-1 4:-1 5:-1 6:-1 7:-1 8:-1 9:-1 10:-1 11:-1 
-0 0 8192 8192 1:-1 2:-1 3:-1 4:-1 5:-1 6:-1 7:-1 8:-1 9:-1 10:-1 11:-1 
-0 0 8192 8192 1:-1 2:-1 3:-1 4:-1 5:-1 6:-1 7:-1 8:-1 9:-1 10:-1 11:-1 
-0 0 8192 8192 1:-1 2:-1 3:-1 4:-1 5:-1 6:-1 7:-1 8:-1 9:-1 10:-1 11:-1 
-0 0 8192 8192 1:-1 2:-1 3:-1 4:-1 5:-1 6:-1 7:-1 8:-1 9:-1 10:-1 11:-1 
-0 0 8192 8192 1:-1 2:-1 3:-1 4:-1 5:-1 6:-1 7:-1 8:-1 9:-1 10:-1 11:-1 
-0 0 8192 8192 1:-1 2:-1 3:-1 4:-1 5:-1 6:-1 7:-1 8:-1 9:-1 10:-1 11:-1 
-0 0 8192 8192 1:-1 2:-1 3:-1 4:-1 5:-1 6:-1 7:-1 8:-1 9:-1 10:-1 11:-1 
-0 0 8192 8192 1:-1 2:-1 3:-1 4:-1 5:-1 6:-1 7:-1 8:-1 9:-1 10:-1 11:-1 
-0 0 8192 8192 1:-1 2:-1 3:-1 4:-1 5:-1 6:-1 7:-1 8:-1 9:-1 10:-1 11:-1 
-0 0 8192 8192 1:-1 2:-1 3:-1 4:-1 5:-1 6:-1 7:-1 8:-1 9:-1 10:-1 11:-1 
-0 0 8192 8192 1:-1 2:-1 3:-1 4:-1 5:-1 6:-1 7:-1 8:-1 9:-1 10:-1 11:-1 
-0 0 8192 8192 1:-1 2:-1 3:-1 4:-1 5:-1 6:-1 7:-1 8:-1 9:-1 10:-1 11:-1 
-0 0 8192 8192 1:-1 2:-1 3:-1 4:-1 5:-1 6:-1 7:-1 8:-1 9:-1 10:-1 11:-1 
-0 0 8192 8192 1:-1 2:-1 3:-1 4:-1 5:-1 6:-1 7:-1 8:-1 9:-1 10:-1 11:-1 
