svm_type c_svc
kernel_type rbf
gamma 2
nr_class 10
total_sv 5600
rho -3.08227 9.66605 2.38072 0.524411 -3.99341 -11.8335 -1.66985 5.22619 17.785 0.43232 23.5814 2.78905 12.082 7.71809 2.68771 65.8203 15.2357 3.07411 0.484876 -0.138342 -29.8238 -16.3415 1.7296 3.72678 1.35286 -5.68765 -27.6145 -28.0537 -2.32419 2.10993 0.318327 -2.10953 -1.31131 0.498801 0.83357 -0.893565 -5.0872 8.7491 3.89842 -2.7099 33.5026 37.6001 19.826 32.047 3.38962
label 1 2 3 4 5 6 7 8 9 10
nr_sv 211 97 239 542 572 397 820 611 1195 916
SV
0 5.940089173084544 0.8025535891823856 1.437230892613301 5.488549758575792 0 1.047250052965842 17.02202055223521 8.681377928702618 1:-0.2 2:0.924217 3:-0.188018 4:-0.505188 5:-1 6:-1 7:-1 8:-1 9:-1 10:-1 11:-1 12:0.188365 13:0.345567 14:-0.859416 15:-1 16:-1 17:-1 18:-1 19:-1 20:-1 21:-1 
0 0 0 0.04731368928143943 0 0 0 0 0 1:-0.2 2:0.925551 3:0.105466 4:-0.191819 5:-1 6:-1 7:-1 8:-1 9:-1 10:-1 11:-1 12:0.176014 13:0.329453 14:-0.859057 15:-1 16:-1 17:-1 18:-1 19:-1 20:-1 21:-1 
6.73731045679198 0 8192 0 211.4357970534766 3333.73233489654 211.834444597323 8192 8192 1:-0.6 2:0.199573 3:-1 4:-1 5:-1 6:-1 7:-1 8:-1 9:-1 10:-1 11:-1 12:0.0962316 13:-1 14:-1 15:-1 16:-1 17:-1 18:-1 19:-1 20:-1 21:-1 
0 0 13.23578327430203 0 0 0 0 0 2719.867058473143 1:-0.2 2:0.924971 3:0.492564 4:0.209716 5:-1 6:-1 7:-1 8:-1 9:-1 10:-1 11:-1 12:0.16472 13:0.306646 14:-0.859263 15:-1 16:-1 17:-1 18:-1 19:-1 20:-1 21:-1 
0 0 0 0.003229129950305391 0 0 1.544962005629936 20.38843515216835 0 1:-0.2 2:0.924931 3:0.259289 4:-0.0406092 5:-1 6:-1 7:-1 8:-1 9:-1 10:-1 11:-1 12:0.159314 13:0.297152 14:-0.85682 15:-1 16:-1 17:-1 18:-1 19:-1 20:-1 21:-1 
0 0 8192 0 0 8192 3296.289129377913 8192 8192 1:-0.6 2:0.558662 3:-1 4:-1 5:-1 6:-1 7:-1 8:-1 9:-1 10:-1 11:-1 12:0.0640404 13:-1 14:-1 15:-1 16:-1 17:-1 18:-1 19:-1 20:-1 21:-1 
0 0 0 0 0 0 0 0 1056.026223567128 1:-0.2 2:0.924005 3:0.534355 4:0.260446 5:-1 6:-1 7:-1 8:-1 9:-1 10:-1 11:-1 12:0.13743 13:0.266229 14:-0.853981 15:-1 16:-1 17:-1 18:-1 19:-1 20:-1 21:-1 
0 0 0 0 0 0 0 0 2703.430200431457 1:-0.2 2:0.915205 3:0.654075 4:0.403335 5:-1 6:-1 7:-1 8:-1 9:-1 10:-1 11:-1 12:0.12752 13:0.25411 14:-0.853301 15:-1 16:-1 17:-1 18:-1 19:-1 20:-1 21:-1 
0 0 3060.123594405424 0 0 8192 0 8192 8192 1:-0.6 2:0.655149 3:-1 4:-1 5:-1 6:-1 7:-1 8:-1 9:-1 10:-1 11:-1 12:0.0314733 13:-1 14:-1 15:-1 16:-1 17:-1 18:-1 19:-1 20:-1 21:-1 
0 0 0 0 0 8192 3225.404352058132 8192 0 1:-0.6 2:0.659167 3:-1 4:-1 5:-1 6:-1 7:-1 8:-1 9:-1 10:-1 11:-1 12:0.024782 13:-1 14:-1 15:-1 16:-1 17:-1 18:-1 19:-1 20:-1 21:-1 
0 0 0 0 0 0 0 99.93587322822455 0 1:-0.2 2:0.917263 3:0.823022 4:0.602548 5:-1 6:-1 7:-1 8:-1 9:-1 10:-1 11:-1 12:0.112459 13:0.227974 14:-0.853566 15:-1 16:-1 17:-1 18:-1 19:-1 20:-1 21:-1 
0 189.677855771518 2863.140199761619 41.86212687186186 0 8192 0 8192 8192 1:-0.6 2:0.724304 3:-1 4:-1 5:-1 6:-1 7:-1 8:-1 9:-1 10:-1 11:-1 12:0.0113208 13:-1 14:-1 15:-1 16:-1 17:-1 18:-1 19:-1 20:-1 21:-1 
4.632139391417769 0 0 0 1354.163253078975 8192 8192 8192 8192 1:-0.6 2:0.538102 3:-1 4:-1 5:-1 6:-1 7:-1 8:-1 9:-1 10:-1 11:-1 12:0.00818493 13:-1 14:-1 15:-1 16:-1 17:-1 18:-1 19:-1 20:-1 21:-1 
0 0 0 0 0 0 6628.346716559752 8192 0 1:-0.6 2:0.679274 3:-1 4:-1 5:-1 6:-1 7:-1 8:-1 9:-1 10:-1 11:-1 12:0.00635586 13:-1 14:-1 15:-1 16:-1 17:-1 18:-1 19:-1 20:-1 21:-1 
0 0 0 0 0 0 8192 8192 3012.882654681677 1:-0.6 2:0.58899 3:-1 4:-1 5:-1 6:-1 7:-1 8:-1 9:-1 10:-1 11:-1 12:0.00497477 13:-1 14:-1 15:-1 16:-1 17:-1 18:-1 19:-1 20:-1 21:-1 
0 5.20703965673537 0 0 11.76205722746736 0 2.43052847423054 6.584196050554104 0 1:-0.2 2:0.920161 3:0.503176 4:0.235711 5:-1 6:-1 7:-1 8:-1 9:-1 10:-1 11:-1 12:0.102556 13:0.21549 14:-0.852674 15:-1 16:-1 17:-1 18:-1 19:-1 20:-1 21:-1 
0 0 0 0 6.715631311913814 0 0 0 0 1:-0.2 2:0.920075 3:0.639216 4:0.385983 5:-1 6:-1 7:-1 8:-1 9:-1 10:-1 11:-1 12:0.104208 13:0.218152 14:-0.852682 15:-1 16:-1 17:-1 18:-1 19:-1 20:-1 21:-1 
0 0 0 0 0 901.2400924160194 0 8192 198.2212892567482 1:-0.6 2:0.687468 3:-1 4:-1 5:-1 6:-1 7:-1 8:-1 9:-1 10:-1 11:-1 12:0.0143059 13:-1 14:-1 15:-1 16:-1 17:-1 18:-1 19:-1 20:-1 21:-1 
8192 8192 8192 8192 8192 8192 8192 8192 8192 1:-1 2:-1 3:-1 4:-1 5:-1 6:-1 7:-1 8:-1 9:-1 10:-1 11:-1 12:-1 13:-1 14:-1 15:-1 16:-1 17:-1 18:-1 19:-1 20:-1 21:-1 
0 0 0 0 0 0 0 17.08543068364226 0 1:-0.2 2:0.910149 3:0.731117 4:0.471417 5:-1 6:-1 7:-1 8:-1 9:-1 10:-1 11:-1 12:0.114708 13:0.236801 14:-0.853923 15:-1 16:-1 17:-1 18:-1 19:-1 20:-1 21:-1 
0 0 5.510575283824188 0 0 0 0 0 0 1:-0.2 2:0.893399 3:0.795466 4:0.497423 5:-1 6:-1 7:-1 8:-1 9:-1 10:-1 11:-1 12:0.136692 13:0.263735 14:-0.8563 15:-1 16:-1 17:-1 18:-1 19:-1 20:-1 21:-1 
0 0 9.260375660232702 0 0 0 0 0 0 1:-0.2 2:0.888008 3:0.699023 4:0.359651 5:-1 6:-1 7:-1 8:-1 9:-1 10:-1 11:-1 12:0.13974 13:0.268381 14:-0.856573 15:-1 16:-1 17:-1 18:-1 19:-1 20:-1 21:-1 
0 0 282.3413260094014 0.3670230965510469 0 0 0 0 60.81758700030012 1:-0.2 2:0.885844 3:0.317973 4:0.206462 5:-1 6:-1 7:-1 8:-1 9:-1 10:-1 11:-1 12:-0.762123 13:-0.743747 14:-0.856344 15:-1 16:-1 17:-1 18:-1 19:-1 20:-1 21:-1 
0 0 0 0 1.079881629848122 0 0 0 0 1:0.2 2:0.888934 3:0.746476 4:0.601271 5:0.306843 6:0.251218 7:0.212824 8:-1 9:-1 10:-1 11:-1 12:0.203585 13:0.38881 14:0.292171 15:-0.69261 16:-0.608098 17:-0.774032 18:-1 19:-1 20:-1 21:-1 
0 5.865414514264645 1.859397499372405 0.8381694602656266 1.602967111521857 0 0 3.423332599237916 10.32896671833019 1:0.2 2:0.896637 3:0.741226 4:0.390275 5:0.324259 6:0.276829 7:0.0405433 8:-1 9:-1 10:-1 11:-1 12:0.211216 13:0.405632 14:0.310417 15:-0.701026 16:-0.612009 17:-0.769544 18:-1 19:-1 20:-1 21:-1 
0 0 0 2.495255468894019 3.867562647178598 0 0 24.41855029876141 596.1254672330779 1:-0.2 2:0.742998 3:0.551949 4:0.338945 5:-1 6:-1 7:-1 8:-1 9:-1 10:-1 11:-1 12:0.21456 13:0.303267 14:-0.721747 15:-1 16:-1 17:-1 18:-1 19:-1 20:-1 21:-1 
0 3.515535360556969 1.112947031494251 0.5031168017302418 0 0 0 2.05269148553823 6.193275850504364 1:0.2 2:0.902161 3:0.767163 4:0.762046 5:0.511249 6:0.471539 7:0.458169 8:-1 9:-1 10:-1 11:-1 12:0.220637 13:0.422103 14:0.326545 15:-0.702831 16:-0.614905 17:-0.773135 18:-1 19:-1 20:-1 21:-1 
0 1.009686997164752 0.3210189285200902 0.1450206730221028 0 0 0 0.5891884171318357 1.776434376143776 1:0.2 2:0.904513 3:0.893743 4:0.704792 5:0.703522 6:0.46502 7:0.458678 8:-1 9:-1 10:-1 11:-1 12:0.226052 13:0.434322 14:0.334316 15:-0.698889 16:-0.618008 17:-0.768415 18:-1 19:-1 20:-1 21:-1 
0 0 0 0.4551045365911435 0 0 0 0 0 1:-0.2 2:0.906309 3:0.46039 4:0.415922 5:-1 6:-1 7:-1 8:-1 9:-1 10:-1 11:-1 12:-0.768995 13:-0.7405 14:-0.839995 15:-1 16:-1 17:-1 18:-1 19:-1 20:-1 21:-1 
0 15.82099170192977 0 0 0 0 0 0 0 1:-0.2 2:0.907269 3:0.500215 4:0.419671 5:-1 6:-1 7:-1 8:-1 9:-1 10:-1 11:-1 12:-0.773901 13:-0.748965 14:-0.840056 15:-1 16:-1 17:-1 18:-1 19:-1 20:-1 21:-1 
0 75.95477327905304 0 0 0 0 0 0 0 1:-0.2 2:0.914305 3:0.742029 4:0.681398 5:-1 6:-1 7:-1 8:-1 9:-1 10:-1 11:-1 12:-0.786158 13:-0.761544 14:-0.852576 15:-1 16:-1 17:-1 18:-1 19:-1 20:-1 21:-1 
0 0 8192 0 0 382.2978499585732 20.37504187383157 0 0 1:-0.6 2:0.901349 3:-1 4:-1 5:-1 6:-1 7:-1 8:-1 9:-1 10:-1 11:-1 12:0.364884 13:-1 14:-1 15:-1 16:-1 17:-1 18:-1 19:-1 20:-1 21:-1 
0 4.606532208963863 1.460375980945557 0.6560550158541308 0 0 0 2.689230650686341 8.113463026571123 1:0.2 2:0.988304 3:0.978309 4:0.963022 5:0.951729 6:0.920828 7:0.834771 8:-1 9:-1 10:-1 11:-1 12:0.369288 13:0.644205 14:0.537061 15:-0.713405 16:-0.613131 17:-0.758649 18:-1 19:-1 20:-1 21:-1 
0 0 8192 0 0 0 22.3933119336343 816.257100478613 1522.379595074773 1:-0.6 2:0.799603 3:-1 4:-1 5:-1 6:-1 7:-1 8:-1 9:-1 10:-1 11:-1 12:0.391859 13:-1 14:-1 15:-1 16:-1 17:-1 18:-1 19:-1 20:-1 21:-1 
8192 8192 8192 8192 8192 8192 8192 8192 8192 1:-1 2:-1 3:-1 4:-1 5:-1 6:-1 7:-1 8:-1 9:-1 10:-1 11:-1 12:-1 13:-1 14:-1 15:-1 16:-1 17:-1 18:-1 19:-1 20:-1 21:-1 
0 5.026451586931779 1.594579922677516 0.7188930145652588 0 0 0 2.934813662085989 8.851650042889229 1:0.2 2:0.901119 3:0.82895 4:0.692081 5:0.618342 6:0.292354 7:-0.21152 8:-1 9:-1 10:-1 11:-1 12:0.422429 13:0.705954 14:0.721977 15:-0.358854 16:-0.273743 17:-0.604738 18:-1 19:-1 20:-1 21:-1 
8192 8192 8192 8192 8192 8192 8192 8192 8192 1:-1 2:-1 3:-1 4:-1 5:-1 6:-1 7:-1 8:-1 9:-1 10:-1 11:-1 12:-1 13:-1 14:-1 15:-1 16:-1 17:-1 18:-1 19:-1 20:-1 21:-1 
0 1.293228988884945 0.4093492902749294 0.1845853152169586 0 0 0 0.7549814326288843 2.278952420577272 1:0.2 2:0.951983 3:0.902923 4:0.828536 5:0.448978 6:0.121399 7:-0.122135 8:-1 9:-1 10:-1 11:-1 12:0.429671 13:0.709814 14:0.612 15:-0.357595 16:-0.244402 17:-0.737605 18:-1 19:-1 20:-1 21:-1 
0 2.241211326478329 0 0.477855379711102 13.65823346273929 0 0.6871342761548399 23.95825793601829 21.780677049307 1:-0.2 2:0.903027 3:0.0923901 4:-0.157132 5:-1 6:-1 7:-1 8:-1 9:-1 10:-1 11:-1 12:-0.506741 13:-0.503659 14:-0.840992 15:-1 16:-1 17:-1 18:-1 19:-1 20:-1 21:-1 
0 3.69840137075784 0 0.9225500894669089 0 0 0 0 74.71354178819153 1:-0.2 2:0.976852 3:0.909796 4:0.797756 5:-1 6:-1 7:-1 8:-1 9:-1 10:-1 11:-1 12:0.453178 13:0.642211 14:-0.85186 15:-1 16:-1 17:-1 18:-1 19:-1 20:-1 21:-1 
8192 8192 8192 8192 8192 8192 8192 8192 8192 1:-1 2:-1 3:-1 4:-1 5:-1 6:-1 7:-1 8:-1 9:-1 10:-1 11:-1 12:-1 13:-1 14:-1 15:-1 16:-1 17:-1 18:-1 19:-1 20:-1 21:-1 
0 7.704474082124397 2.440916159443066 1.100469302762811 0 0 0 4.496533164553483 13.56907379739755 1:0.2 2:0.921071 3:0.506449 4:0.223674 5:0.119068 6:-0.083067 7:-0.73654 8:-1 9:-1 10:-1 11:-1 12:0.473031 13:0.721462 14:0.686024 15:-0.361716 16:-0.250485 17:-0.773753 18:-1 19:-1 20:-1 21:-1 
0 2.950999596020316 5.564247190879207 0.9708375730491803 0 0 0 2.549314011890422 5.615598704824788 1:-0.2 2:0.239633 3:-0.0641852 4:-0.68395 5:-1 6:-1 7:-1 8:-1 9:-1 10:-1 11:-1 12:0.476523 13:0.726255 14:-0.411442 15:-1 16:-1 17:-1 18:-1 19:-1 20:-1 21:-1 
0 0 0 0 0 0 0 0 5.2231885997619 1:-0.2 2:0.921677 3:0.787599 4:0.544725 5:-1 6:-1 7:-1 8:-1 9:-1 10:-1 11:-1 12:0.474082 13:0.665101 14:-0.848085 15:-1 16:-1 17:-1 18:-1 19:-1 20:-1 21:-1 
0 4.694059497571398 1.487192103243725 0.6733061289475897 0 0 0 2.739912194571009 8.265819868707579 1:0.2 2:0.987246 3:0.982012 4:0.961725 5:0.926279 6:0.883304 7:0.788993 8:-1 9:-1 10:-1 11:-1 12:0.440639 13:0.729132 14:0.635865 15:-0.719295 16:-0.608667 17:-0.752965 18:-1 19:-1 20:-1 21:-1 
0 46.03003628897554 1.30212286941646 0 0 0 0 0 239.2067410118206 1:-0.2 2:0.924353 3:0.882399 4:0.713532 5:-1 6:-1 7:-1 8:-1 9:-1 10:-1 11:-1 12:-0.781908 13:-0.745501 14:-0.84373 15:-1 16:-1 17:-1 18:-1 19:-1 20:-1 21:-1 
0 0 12.89179552207689 0 0 0 0 22.6365404239801 9.613903659959357 1:-0.2 2:0.945031 3:0.927017 4:0.75511 5:-1 6:-1 7:-1 8:-1 9:-1 10:-1 11:-1 12:0.387152 13:0.558117 14:-0.844225 15:-1 16:-1 17:-1 18:-1 19:-1 20:-1 21:-1 
0 0 0 0 20.15690667288733 0 0 0 0 1:-0.2 2:0.997984 3:0.927371 4:0.914703 5:-1 6:-1 7:-1 8:-1 9:-1 10:-1 11:-1 12:-0.771141 13:-0.745657 14:-0.847372 15:-1 16:-1 17:-1 18:-1 19:-1 20:-1 21:-1 
0 0 2.251989367149747 0 0 0 0 0 6.951790778484438 1:-0.2 2:0.997782 3:0.926905 4:0.920933 5:-1 6:-1 7:-1 8:-1 9:-1 10:-1 11:-1 12:-0.776307 13:-0.75366 14:-0.859158 15:-1 16:-1 17:-1 18:-1 19:-1 20:-1 21:-1 
8192 8192 8192 8192 8192 8192 8192 8192 8192 1:-1 2:-1 3:-1 4:-1 5:-1 6:-1 7:-1 8:-1 9:-1 10:-1 11:-1 12:-1 13:-1 14:-1 15:-1 16:-1 17:-1 18:-1 19:-1 20:-1 21:-1 
0 0.6882564546011728 0.2185038167370582 0.09725169516912639 0 0 0 0.4017065817247248 1.213618612527264 1:0.2 2:0.984724 3:0.926849 4:0.921143 5:0.679162 6:0.600609 7:0.319803 8:-1 9:-1 10:-1 11:-1 12:0.320727 13:0.580562 14:0.488331 15:-0.712966 16:-0.623724 17:-0.785792 18:-1 19:-1 20:-1 21:-1 
0 197.7898694601937 0 0 0 0 0 0 0 1:-0.2 2:0.931013 3:0.916778 4:0.878914 5:-1 6:-1 7:-1 8:-1 9:-1 10:-1 11:-1 12:-0.777144 13:-0.75711 14:-0.861978 15:-1 16:-1 17:-1 18:-1 19:-1 20:-1 21:-1 
0 0 0 0 0 0 0 0 8192 1:-0.6 2:0.929281 3:-1 4:-1 5:-1 6:-1 7:-1 8:-1 9:-1 10:-1 11:-1 12:-0.889218 13:-1 14:-1 15:-1 16:-1 17:-1 18:-1 19:-1 20:-1 21:-1 
0 0 0 0 0 0 0 0 8192 1:-0.6 2:0.929419 3:-1 4:-1 5:-1 6:-1 7:-1 8:-1 9:-1 10:-1 11:-1 12:-0.889669 13:-1 14:-1 15:-1 16:-1 17:-1 18:-1 19:-1 20:-1 21:-1 
0 125.2202992849521 0 0 0 0 0 0 0 1:-0.2 2:0.928695 3:0.841376 4:0.826929 5:-1 6:-1 7:-1 8:-1 9:-1 10:-1 11:-1 12:-0.769389 13:-0.748016 14:-0.864933 15:-1 16:-1 17:-1 18:-1 19:-1 20:-1 21:-1 
0 0 0 0 0 0 0 0 8192 1:-0.6 2:0.927645 3:-1 4:-1 5:-1 6:-1 7:-1 8:-1 9:-1 10:-1 11:-1 12:-0.888608 13:-1 14:-1 15:-1 16:-1 17:-1 18:-1 19:-1 20:-1 21:-1 
0 0 0 0 0 0 0 0 8192 1:-0.6 2:0.927529 3:-1 4:-1 5:-1 6:-1 7:-1 8:-1 9:-1 10:-1 11:-1 12:-0.88706 13:-1 14:-1 15:-1 16:-1 17:-1 18:-1 19:-1 20:-1 21:-1 
0 0 0 0 0 0 0 0 3592.211485465883 1:-0.6 2:0.927379 3:-1 4:-1 5:-1 6:-1 7:-1 8:-1 9:-1 10:-1 11:-1 12:-0.886106 13:-1 14:-1 15:-1 16:-1 17:-1 18:-1 19:-1 20:-1 21:-1 
8192 8192 8192 8192 8192 8192 8192 8192 8192 1:-1 2:-1 3:-1 4:-1 5:-1 6:-1 7:-1 8:-1 9:-1 10:-1 11:-1 12:-1 13:-1 14:-1 15:-1 16:-1 17:-1 18:-1 19:-1 20:-1 21:-1 
8192 8192 8192 8192 8192 8192 8192 8192 8192 1:-1 2:-1 3:-1 4:-1 5:-1 6:-1 7:-1 8:-1 9:-1 10:-1 11:-1 12:-1 13:-1 14:-1 15:-1 16:-1 17:-1 18:-1 19:-1 20:-1 21:-1 
0 0 0 0 0 0 0 0 8192 1:-0.6 2:0.923547 3:-1 4:-1 5:-1 6:-1 7:-1 8:-1 9:-1 10:-1 11:-1 12:-0.888722 13:-1 14:-1 15:-1 16:-1 17:-1 18:-1 19:-1 20:-1 21:-1 
0 0 0 0 0 0 0 0 8192 1:-0.6 2:0.924115 3:-1 4:-1 5:-1 6:-1 7:-1 8:-1 9:-1 10:-1 11:-1 12:-0.889775 13:-1 14:-1 15:-1 16:-1 17:-1 18:-1 19:-1 20:-1 21:-1 
0 0 0 0 0 0 0 0 8192 1:-0.6 2:0.925381 3:-1 4:-1 5:-1 6:-1 7:-1 8:-1 9:-1 10:-1 11:-1 12:-0.889742 13:-1 14:-1 15:-1 16:-1 17:-1 18:-1 19:-1 20:-1 21:-1 
0 0 0 0 0 0 0 0 8192 1:-0.6 2:0.925673 3:-1 4:-1 5:-1 6:-1 7:-1 8:-1 9:-1 10:-1 11:-1 12:-0.889113 13:-1 14:-1 15:-1 16:-1 17:-1 18:-1 19:-1 20:-1 21:-1 
0 0 0 0 0 0 0 0 8192 1:-0.6 2:0.925531 3:-1 4:-1 5:-1 6:-1 7:-1 8:-1 9:-1 10:-1 11:-1 12:-0.8891 13:-1 14:-1 15:-1 16:-1 17:-1 18:-1 19:-1 20:-1 21:-1 
0 0 0 0 0 0 0 0 8192 1:-0.6 2:0.924843 3:-1 4:-1 5:-1 6:-1 7:-1 8:-1 9:-1 10:-1 11:-1 12:-0.89039 13:-1 14:-1 15:-1 16:-1 17:-1 18:-1 19:-1 20:-1 21:-1 
0 0 0 0 0 0 0 0 8192 1:-0.6 2:0.923531 3:-1 4:-1 5:-1 6:-1 7:-1 8:-1 9:-1 10:-1 11:-1 12:-0.892769 13:-1 14:-1 15:-1 16:-1 17:-1 18:-1 19:-1 20:-1 21:-1 
0 0 0 0 0 0 0 0 8192 1:-0.6 2:0.922795 3:-1 4:-1 5:-1 6:-1 7:-1 8:-1 9:-1 10:-1 11:-1 12:-0.894022 13:-1 14:-1 15:-1 16:-1 17:-1 18:-1 19:-1 20:-1 21:-1 
0 0 0 232.0100615317494 0 0 0 0 8192 1:-0.6 2:0.921615 3:-1 4:-1 5:-1 6:-1 7:-1 8:-1 9:-1 10:-1 11:-1 12:-0.894219 13:-1 14:-1 15:-1 16:-1 17:-1 18:-1 19:-1 20:-1 21:-1 
0 0 0 0 0 0 0 0 8192 1:-0.6 2:0.920907 3:-1 4:-1 5:-1 6:-1 7:-1 8:-1 9:-1 10:-1 11:-1 12:-0.894019 13:-1 14:-1 15:-1 16:-1 17:-1 18:-1 19:-1 20:-1 21:-1 
0 0 0 0 0 0 0 0 8192 1:-0.6 2:0.919489 3:-1 4:-1 5:-1 6:-1 7:-1 8:-1 9:-1 10:-1 11:-1 12:-0.893138 13:-1 14:-1 15:-1 16:-1 17:-1 18:-1 19:-1 20:-1 21:-1 
0 0 0 0 0 0 0 0 8192 1:-0.6 2:0.919125 3:-1 4:-1 5:-1 6:-1 7:-1 8:-1 9:-1 10:-1 11:-1 12:-0.891952 13:-1 14:-1 15:-1 16:-1 17:-1 18:-1 19:-1 20:-1 21:-1 
0 0 0 0 0 0 0 0 8192 1:-0.6 2:0.917831 3:-1 4:-1 5:-1 6:-1 7:-1 8:-1 9:-1 10:-1 11:-1 12:-0.890753 13:-1 14:-1 15:-1 16:-1 17:-1 18:-1 19:-1 20:-1 21:-1 
0 8192 0 0 0 0 0 0 8192 1:-0.6 2:0.943679 3:-1 4:-1 5:-1 6:-1 7:-1 8:-1 9:-1 10:-1 11:-1 12:-0.880137 13:-1 14:-1 15:-1 16:-1 17:-1 18:-1 19:-1 20:-1 21:-1 
0 8192 0 0 0 0 0 0 8192 1:-0.6 2:0.947307 3:-1 4:-1 5:-1 6:-1 7:-1 8:-1 9:-1 10:-1 11:-1 12:-0.880923 13:-1 14:-1 15:-1 16:-1 17:-1 18:-1 19:-1 20:-1 21:-1 
0 8192 0 0 0 0 0 0 8192 1:-0.6 2:0.948163 3:-1 4:-1 5:-1 6:-1 7:-1 8:-1 9:-1 10:-1 11:-1 12:-0.875982 13:-1 14:-1 15:-1 16:-1 17:-1 18:-1 19:-1 20:-1 21:-1 
8192 8192 8192 8192 8192 8192 8192 8192 8192 1:-1 2:-1 3:-1 4:-1 5:-1 6:-1 7:-1 8:-1 9:-1 10:-1 11:-1 12:-1 13:-1 14:-1 15:-1 16:-1 17:-1 18:-1 19:-1 20:-1 21:-1 
0 4.75286408008896 0 0.4074226018399509 0 0 0 0 0 1:-0.2 2:0.908683 3:0.545471 4:0.530973 5:-1 6:-1 7:-1 8:-1 9:-1 10:-1 11:-1 12:0.589338 13:0.845591 14:-0.841187 15:-1 16:-1 17:-1 18:-1 19:-1 20:-1 21:-1 
8192 8192 8192 8192 8192 8192 8192 8192 8192 1:-1 2:-1 3:-1 4:-1 5:-1 6:-1 7:-1 8:-1 9:-1 10:-1 11:-1 12:-1 13:-1 14:-1 15:-1 16:-1 17:-1 18:-1 19:-1 20:-1 21:-1 
8192 8192 8192 8192 8192 8192 8192 8192 8192 1:-1 2:-1 3:-1 4:-1 5:-1 6:-1 7:-1 8:-1 9:-1 10:-1 11:-1 12:-1 13:-1 14:-1 15:-1 16:-1 17:-1 18:-1 19:-1 20:-1 21:-1 
8192 8192 8192 8192 8192 8192 8192 8192 8192 1:-1 2:-1 3:-1 4:-1 5:-1 6:-1 7:-1 8:-1 9:-1 10:-1 11:-1 12:-1 13:-1 14:-1 15:-1 16:-1 17:-1 18:-1 19:-1 20:-1 21:-1 
8192 8192 8192 8192 8192 8192 8192 8192 8192 1:-1 2:-1 3:-1 4:-1 5:-1 6:-1 7:-1 8:-1 9:-1 10:-1 11:-1 12:-1 13:-1 14:-1 15:-1 16:-1 17:-1 18:-1 19:-1 20:-1 21:-1 
8192 8192 8192 8192 8192 8192 8192 8192 8192 1:-1 2:-1 3:-1 4:-1 5:-1 6:-1 7:-1 8:-1 9:-1 10:-1 11:-1 12:-1 13:-1 14:-1 15:-1 16:-1 17:-1 18:-1 19:-1 20:-1 21:-1 
0 0 0 208.0801456429806 0 0 0 8192 8192 1:-0.6 2:0.83593 3:-1 4:-1 5:-1 6:-1 7:-1 8:-1 9:-1 10:-1 11:-1 12:-0.902268 13:-1 14:-1 15:-1 16:-1 17:-1 18:-1 19:-1 20:-1 21:-1 
8192 8192 8192 8192 8192 8192 8192 8192 8192 1:-1 2:-1 3:-1 4:-1 5:-1 6:-1 7:-1 8:-1 9:-1 10:-1 11:-1 12:-1 13:-1 14:-1 15:-1 16:-1 17:-1 18:-1 19:-1 20:-1 21:-1 
8192 8192 8192 8192 8192 8192 8192 8192 8192 1:-1 2:-1 3:-1 4:-1 5:-1 6:-1 7:-1 8:-1 9:-1 10:-1 11:-1 12:-1 13:-1 14:-1 15:-1 16:-1 17:-1 18:-1 19:-1 20:-1 21:-1 
0 2.980840966851954 2.600519959581107 0.9080148546137063 7.38806653182783 0 0 3.580933039936361 7.641162935231491 1:-0.2 2:0.224881 3:-0.371416 4:-0.802654 5:-1 6:-1 7:-1 8:-1 9:-1 10:-1 11:-1 12:0.312112 13:0.363512 14:-0.561412 15:-1 16:-1 17:-1 18:-1 19:-1 20:-1 21:-1 
8192 8192 8192 8192 8192 8192 8192 8192 8192 1:-1 2:-1 3:-1 4:-1 5:-1 6:-1 7:-1 8:-1 9:-1 10:-1 11:-1 12:-1 13:-1 14:-1 15:-1 16:-1 17:-1 18:-1 19:-1 20:-1 21:-1 
0 6.586263119965326 2.096387343665405 0.9443455067813902 2.133138541748438 0 0 3.850841147734822 11.60337521681688 1:0.2 2:0.929517 3:0.887264 4:0.859028 5:0.0588453 6:-0.487064 7:-0.626769 8:-1 9:-1 10:-1 11:-1 12:0.439623 13:0.466499 14:0.381041 15:-0.569935 16:-0.410503 17:-0.669468 18:-1 19:-1 20:-1 21:-1 
4186.668662900049 0 809.6861331588325 46.60622123063236 8192 0 0 2114.549119460573 0 1:-0.6 2:-0.372955 3:-1 4:-1 5:-1 6:-1 7:-1 8:-1 9:-1 10:-1 11:-1 12:-0.68962 13:-1 14:-1 15:-1 16:-1 17:-1 18:-1 19:-1 20:-1 21:-1 
6198.684795313477 0 0 0 8192 0 0 0 0 1:-0.6 2:-0.26744 3:-1 4:-1 5:-1 6:-1 7:-1 8:-1 9:-1 10:-1 11:-1 12:-0.698693 13:-1 14:-1 15:-1 16:-1 17:-1 18:-1 19:-1 20:-1 21:-1 
18.97600540182096 0 8192 122.4739020638823 37.23339012438053 0 28.16115076465693 157.9980056468191 201.5355233836304 1:-0.6 2:-0.350519 3:-1 4:-1 5:-1 6:-1 7:-1 8:-1 9:-1 10:-1 11:-1 12:0.237608 13:-1 14:-1 15:-1 16:-1 17:-1 18:-1 19:-1 20:-1 21:-1 
446.2224892442231 0 2593.54483327362 2.265209107242059 8186.795641257398 69.3409195375194 8192 8192 5955.998667530042 1:-0.6 2:-0.0109082 3:-1 4:-1 5:-1 6:-1 7:-1 8:-1 9:-1 10:-1 11:-1 12:-0.708854 13:-1 14:-1 15:-1 16:-1 17:-1 18:-1 19:-1 20:-1 21:-1 
0 0 1.719432774016825 0 1.522402355082678 0 0 0 1.545820662418437 1:-0.2 2:-0.0360285 3:-0.0616724 4:-0.656728 5:-1 6:-1 7:-1 8:-1 9:-1 10:-1 11:-1 12:0.35823 13:0.504645 14:-0.648052 15:-1 16:-1 17:-1 18:-1 19:-1 20:-1 21:-1 
0 0 8192 0 8192 0 8192 8192 8192 1:-0.6 2:-0.0074301 3:-1 4:-1 5:-1 6:-1 7:-1 8:-1 9:-1 10:-1 11:-1 12:-0.711982 13:-1 14:-1 15:-1 16:-1 17:-1 18:-1 19:-1 20:-1 21:-1 
0 0 8192 0 0 0 1369.982611856928 3644.383869336212 0 1:-0.6 2:-0.116672 3:-1 4:-1 5:-1 6:-1 7:-1 8:-1 9:-1 10:-1 11:-1 12:-0.71281 13:-1 14:-1 15:-1 16:-1 17:-1 18:-1 19:-1 20:-1 21:-1 
0 0 0 0 8192 0 0 0 0 1:-0.6 2:-0.324061 3:-1 4:-1 5:-1 6:-1 7:-1 8:-1 9:-1 10:-1 11:-1 12:-0.712263 13:-1 14:-1 15:-1 16:-1 17:-1 18:-1 19:-1 20:-1 21:-1 
0 0 1073.847351268783 0 8192 0 0 8192 8192 1:-0.6 2:-0.41404 3:-1 4:-1 5:-1 6:-1 7:-1 8:-1 9:-1 10:-1 11:-1 12:-0.713658 13:-1 14:-1 15:-1 16:-1 17:-1 18:-1 19:-1 20:-1 21:-1 
0 0 0 0 8192 0 0 0 0 1:-0.6 2:-0.295446 3:-1 4:-1 5:-1 6:-1 7:-1 8:-1 9:-1 10:-1 11:-1 12:-0.710648 13:-1 14:-1 15:-1 16:-1 17:-1 18:-1 19:-1 20:-1 21:-1 
0 0 0 0 1307.390037810073 0 0 0 0 1:-0.6 2:-0.250718 3:-1 4:-1 5:-1 6:-1 7:-1 8:-1 9:-1 10:-1 11:-1 12:-0.709379 13:-1 14:-1 15:-1 16:-1 17:-1 18:-1 19:-1 20:-1 21:-1 
0 7.816560124960907 1.035274778374966 0.8482620483526225 0 0 0 4.024657860446774 12.38172241614669 1:-0.2 2:-0.327701 3:-0.411915 4:-0.57243 5:-1 6:-1 7:-1 8:-1 9:-1 10:-1 11:-1 12:0.366646 13:0.532996 14:-0.645203 15:-1 16:-1 17:-1 18:-1 19:-1 20:-1 21:-1 
0 6.071062488167945 1.463947180033598 0.8861834712078079 0 0 0 2.597449838731001 0 1:-0.2 2:0.487599 3:0.33345 4:-0.256434 5:-1 6:-1 7:-1 8:-1 9:-1 10:-1 11:-1 12:0.766965 13:0.860834 14:-0.647919 15:-1 16:-1 17:-1 18:-1 19:-1 20:-1 21:-1 
0 0 0 0 8192 0 0 0 0 1:-0.6 2:-0.323717 3:-1 4:-1 5:-1 6:-1 7:-1 8:-1 9:-1 10:-1 11:-1 12:-0.711182 13:-1 14:-1 15:-1 16:-1 17:-1 18:-1 19:-1 20:-1 21:-1 
0 0 0 0 8192 0 0 8192 0 1:-0.6 2:-0.376045 3:-1 4:-1 5:-1 6:-1 7:-1 8:-1 9:-1 10:-1 11:-1 12:-0.710889 13:-1 14:-1 15:-1 16:-1 17:-1 18:-1 19:-1 20:-1 21:-1 
0 0 0 0 8192 0 0 0 0 1:-0.6 2:-0.267266 3:-1 4:-1 5:-1 6:-1 7:-1 8:-1 9:-1 10:-1 11:-1 12:-0.716066 13:-1 14:-1 15:-1 16:-1 17:-1 18:-1 19:-1 20:-1 21:-1 
0 0 4068.885856706669 0 0 0 0 0 0 1:-0.6 2:-0.232661 3:-1 4:-1 5:-1 6:-1 7:-1 8:-1 9:-1 10:-1 11:-1 12:-0.715061 13:-1 14:-1 15:-1 16:-1 17:-1 18:-1 19:-1 20:-1 21:-1 
8192 8192 8192 8192 8192 8192 8192 8192 8192 1:-1 2:-1 3:-1 4:-1 5:-1 6:-1 7:-1 8:-1 9:-1 10:-1 11:-1 12:-1 13:-1 14:-1 15:-1 16:-1 17:-1 18:-1 19:-1 20:-1 21:-1 
0 0 8192 23.35808669662818 0 0 0 0 0 1:-0.6 2:-0.102883 3:-1 4:-1 5:-1 6:-1 7:-1 8:-1 9:-1 10:-1 11:-1 12:0.284884 13:-1 14:-1 15:-1 16:-1 17:-1 18:-1 19:-1 20:-1 21:-1 
8192 8192 8192 8192 8192 8192 8192 8192 8192 1:-1 2:-1 3:-1 4:-1 5:-1 6:-1 7:-1 8:-1 9:-1 10:-1 11:-1 12:-1 13:-1 14:-1 15:-1 16:-1 17:-1 18:-1 19:-1 20:-1 21:-1 
8192 8192 8192 8192 8192 8192 8192 8192 8192 1:-1 2:-1 3:-1 4:-1 5:-1 6:-1 7:-1 8:-1 9:-1 10:-1 11:-1 12:-1 13:-1 14:-1 15:-1 16:-1 17:-1 18:-1 19:-1 20:-1 21:-1 
0 0 0 0 435.5917177472305 0 0 1069.500821250598 0 1:-0.6 2:-0.722106 3:-1 4:-1 5:-1 6:-1 7:-1 8:-1 9:-1 10:-1 11:-1 12:-0.895535 13:-1 14:-1 15:-1 16:-1 17:-1 18:-1 19:-1 20:-1 21:-1 
8192 8192 8192 8192 8192 8192 8192 8192 8192 1:-1 2:-1 3:-1 4:-1 5:-1 6:-1 7:-1 8:-1 9:-1 10:-1 11:-1 12:-1 13:-1 14:-1 15:-1 16:-1 17:-1 18:-1 19:-1 20:-1 21:-1 
8192 8192 8192 8192 8192 8192 8192 8192 8192 1:-1 2:-1 3:-1 4:-1 5:-1 6:-1 7:-1 8:-1 9:-1 10:-1 11:-1 12:-1 13:-1 14:-1 15:-1 16:-1 17:-1 18:-1 19:-1 20:-1 21:-1 
8192 8192 8192 8192 8192 8192 8192 8192 8192 1:-1 2:-1 3:-1 4:-1 5:-1 6:-1 7:-1 8:-1 9:-1 10:-1 11:-1 12:-1 13:-1 14:-1 15:-1 16:-1 17:-1 18:-1 19:-1 20:-1 21:-1 
8192 8192 8192 8192 8192 8192 8192 8192 8192 1:-1 2:-1 3:-1 4:-1 5:-1 6:-1 7:-1 8:-1 9:-1 10:-1 11:-1 12:-1 13:-1 14:-1 15:-1 16:-1 17:-1 18:-1 19:-1 20:-1 21:-1 
0 0 0 0 0 0 0 0 8192 1:-0.6 2:-0.808453 3:-1 4:-1 5:-1 6:-1 7:-1 8:-1 9:-1 10:-1 11:-1 12:-0.870461 13:-1 14:-1 15:-1 16:-1 17:-1 18:-1 19:-1 20:-1 21:-1 
0 0 8192 0 8085.050939712212 0 917.7865054485577 8192 8192 1:-0.6 2:-0.236639 3:-1 4:-1 5:-1 6:-1 7:-1 8:-1 9:-1 10:-1 11:-1 12:-0.869604 13:-1 14:-1 15:-1 16:-1 17:-1 18:-1 19:-1 20:-1 21:-1 
0 190.1815608581811 8192 0 1030.42606494893 7.168202395448815 3790.293667420087 8192 8192 1:-0.6 2:0.393918 3:-1 4:-1 5:-1 6:-1 7:-1 8:-1 9:-1 10:-1 11:-1 12:-0.871949 13:-1 14:-1 15:-1 16:-1 17:-1 18:-1 19:-1 20:-1 21:-1 
0 8192 7676.128716450418 0 0 0 0 8192 8192 1:-0.6 2:0.748766 3:-1 4:-1 5:-1 6:-1 7:-1 8:-1 9:-1 10:-1 11:-1 12:-0.876628 13:-1 14:-1 15:-1 16:-1 17:-1 18:-1 19:-1 20:-1 21:-1 
0 0 0 0 0 0 0 0 8192 1:-0.6 2:0.938171 3:-1 4:-1 5:-1 6:-1 7:-1 8:-1 9:-1 10:-1 11:-1 12:-0.880699 13:-1 14:-1 15:-1 16:-1 17:-1 18:-1 19:-1 20:-1 21:-1 
0 8192 0 0 0 0 0 0 8192 1:-0.6 2:0.949933 3:-1 4:-1 5:-1 6:-1 7:-1 8:-1 9:-1 10:-1 11:-1 12:-0.880368 13:-1 14:-1 15:-1 16:-1 17:-1 18:-1 19:-1 20:-1 21:-1 
0 8192 0 0 0 0 0 0 8192 1:-0.6 2:0.954965 3:-1 4:-1 5:-1 6:-1 7:-1 8:-1 9:-1 10:-1 11:-1 12:-0.881164 13:-1 14:-1 15:-1 16:-1 17:-1 18:-1 19:-1 20:-1 21:-1 
0 8192 0 0 0 0 0 3938.963707520972 8192 1:-0.6 2:0.955437 3:-1 4:-1 5:-1 6:-1 7:-1 8:-1 9:-1 10:-1 11:-1 12:-0.881859 13:-1 14:-1 15:-1 16:-1 17:-1 18:-1 19:-1 20:-1 21:-1 
0 8192 0 0 0 0 0 0 8192 1:-0.6 2:0.953587 3:-1 4:-1 5:-1 6:-1 7:-1 8:-1 9:-1 10:-1 11:-1 12:-0.882453 13:-1 14:-1 15:-1 16:-1 17:-1 18:-1 19:-1 20:-1 21:-1 
0 8192 0 0 0 0 0 0 8192 1:-0.6 2:0.950609 3:-1 4:-1 5:-1 6:-1 7:-1 8:-1 9:-1 10:-1 11:-1 12:-0.882699 13:-1 14:-1 15:-1 16:-1 17:-1 18:-1 19:-1 20:-1 21:-1 
0 1.825839889946944 0.575879369340469 0.2599418357339774 0 0 0 1.064305003072343 3.215107313051283 1:0.2 2:0.947187 3:0.771892 4:0.718388 5:0.584932 6:-0.118413 7:-0.263152 8:-1 9:-1 10:-1 11:-1 12:0.443943 13:0.736886 14:0.655876 15:-0.507332 16:-0.362933 17:-0.775753 18:-1 19:-1 20:-1 21:-1 
0 8192 0 0 0 0 0 0 8192 1:-0.6 2:0.943901 3:-1 4:-1 5:-1 6:-1 7:-1 8:-1 9:-1 10:-1 11:-1 12:-0.882023 13:-1 14:-1 15:-1 16:-1 17:-1 18:-1 19:-1 20:-1 21:-1 
0 8.982878093528797 2.902896768566125 1.292540838637228 1.583775346741654 0 0 5.251041267230566 15.78569852033064 1:0.2 2:0.940961 3:0.91884 4:0.742977 5:-0.55611 6:-0.78648 7:-0.987989 8:-1 9:-1 10:-1 11:-1 12:0.486667 13:0.76846 14:0.706956 15:-0.486705 16:-0.337906 17:-0.773727 18:-1 19:-1 20:-1 21:-1 
0 8192 0 0 0 0 0 0 8192 1:-0.6 2:0.938885 3:-1 4:-1 5:-1 6:-1 7:-1 8:-1 9:-1 10:-1 11:-1 12:-0.880672 13:-1 14:-1 15:-1 16:-1 17:-1 18:-1 19:-1 20:-1 21:-1 
0 2.524540192187588 0 0 0 0 0 0 0 1:-0.2 2:0.933427 3:-0.149218 4:-0.218521 5:-1 6:-1 7:-1 8:-1 9:-1 10:-1 11:-1 12:0.46495 13:0.72326 14:-0.856789 15:-1 16:-1 17:-1 18:-1 19:-1 20:-1 21:-1 
0 0 0 0 0 0 0 0 8192 1:-0.6 2:0.930943 3:-1 4:-1 5:-1 6:-1 7:-1 8:-1 9:-1 10:-1 11:-1 12:-0.887029 13:-1 14:-1 15:-1 16:-1 17:-1 18:-1 19:-1 20:-1 21:-1 
0 7.738933461537741 0 1.246460616877642 0 0 0 18.6494208599756 14.49010683611372 1:-0.2 2:0.9947 3:0.962424 4:0.930665 5:-1 6:-1 7:-1 8:-1 9:-1 10:-1 11:-1 12:-0.00375101 13:0.124382 14:-0.863488 15:-1 16:-1 17:-1 18:-1 19:-1 20:-1 21:-1 
0 0 0 0 30.78351402705926 0 0 0 1126.410008552006 1:-0.2 2:0.928807 3:0.870821 4:0.822831 5:-1 6:-1 7:-1 8:-1 9:-1 10:-1 11:-1 12:0.0109449 13:0.142193 14:-0.864403 15:-1 16:-1 17:-1 18:-1 19:-1 20:-1 21:-1 
0 0 0 0 0 0 0 0 8192 1:-0.6 2:0.927763 3:-1 4:-1 5:-1 6:-1 7:-1 8:-1 9:-1 10:-1 11:-1 12:-0.889026 13:-1 14:-1 15:-1 16:-1 17:-1 18:-1 19:-1 20:-1 21:-1 
0 0 0 0 0 0 0 0 8192 1:-0.6 2:0.926901 3:-1 4:-1 5:-1 6:-1 7:-1 8:-1 9:-1 10:-1 11:-1 12:-0.888704 13:-1 14:-1 15:-1 16:-1 17:-1 18:-1 19:-1 20:-1 21:-1 
0 0 0 0 0 0 0 0 8192 1:-0.6 2:0.926687 3:-1 4:-1 5:-1 6:-1 7:-1 8:-1 9:-1 10:-1 11:-1 12:-0.888124 13:-1 14:-1 15:-1 16:-1 17:-1 18:-1 19:-1 20:-1 21:-1 
0 0 0 0 0 0 0 0 8192 1:-0.6 2:0.926211 3:-1 4:-1 5:-1 6:-1 7:-1 8:-1 9:-1 10:-1 11:-1 12:-0.88752 13:-1 14:-1 15:-1 16:-1 17:-1 18:-1 19:-1 20:-1 21:-1 
0 0 0 0 0 0 0 91.1579682808633 8192 1:-0.2 2:0.925451 3:0.529046 4:0.4087 5:-1 6:-1 7:-1 8:-1 9:-1 10:-1 11:-1 12:0.0742653 13:0.214115 14:-0.861993 15:-1 16:-1 17:-1 18:-1 19:-1 20:-1 21:-1 
0 0 0 0 0 0 0 0 8192 1:-0.6 2:0.927693 3:-1 4:-1 5:-1 6:-1 7:-1 8:-1 9:-1 10:-1 11:-1 12:-0.888881 13:-1 14:-1 15:-1 16:-1 17:-1 18:-1 19:-1 20:-1 21:-1 
0 0 0 0 0 0 0 0 8192 1:-0.6 2:0.927305 3:-1 4:-1 5:-1 6:-1 7:-1 8:-1 9:-1 10:-1 11:-1 12:-0.88932 13:-1 14:-1 15:-1 16:-1 17:-1 18:-1 19:-1 20:-1 21:-1 
0 0 0 0 0 0 0 0 8192 1:-0.6 2:0.927425 3:-1 4:-1 5:-1 6:-1 7:-1 8:-1 9:-1 10:-1 11:-1 12:-0.889873 13:-1 14:-1 15:-1 16:-1 17:-1 18:-1 19:-1 20:-1 21:-1 
0 0 0 0 0 0 0 0 8192 1:-0.6 2:0.927893 3:-1 4:-1 5:-1 6:-1 7:-1 8:-1 9:-1 10:-1 11:-1 12:-0.890031 13:-1 14:-1 15:-1 16:-1 17:-1 18:-1 19:-1 20:-1 21:-1 
0 0 188.8000735948507 0 0 0 0 0 0 1:-0.2 2:0.928935 3:0.228215 4:0.170911 5:-1 6:-1 7:-1 8:-1 9:-1 10:-1 11:-1 12:0.34339 13:0.603719 14:-0.867041 15:-1 16:-1 17:-1 18:-1 19:-1 20:-1 21:-1 
0 3931.152798667467 0 0 0 0 0 0 8192 1:-0.6 2:0.929513 3:-1 4:-1 5:-1 6:-1 7:-1 8:-1 9:-1 10:-1 11:-1 12:-0.890742 13:-1 14:-1 15:-1 16:-1 17:-1 18:-1 19:-1 20:-1 21:-1 
0 8192 0 0 0 0 0 0 8192 1:-0.6 2:0.930311 3:-1 4:-1 5:-1 6:-1 7:-1 8:-1 9:-1 10:-1 11:-1 12:-0.890129 13:-1 14:-1 15:-1 16:-1 17:-1 18:-1 19:-1 20:-1 21:-1 
0 0 0 0 0 0 0 0 8192 1:-0.6 2:0.930527 3:-1 4:-1 5:-1 6:-1 7:-1 8:-1 9:-1 10:-1 11:-1 12:-0.888702 13:-1 14:-1 15:-1 16:-1 17:-1 18:-1 19:-1 20:-1 21:-1 
0 0 0 0 0 0 0 0 8192 1:-0.6 2:0.929931 3:-1 4:-1 5:-1 6:-1 7:-1 8:-1 9:-1 10:-1 11:-1 12:-0.886763 13:-1 14:-1 15:-1 16:-1 17:-1 18:-1 19:-1 20:-1 21:-1 
0 0 0 0 0 0 0 0 128.8922894497273 1:-0.2 2:0.927569 3:0.31537 4:0.241034 5:-1 6:-1 7:-1 8:-1 9:-1 10:-1 11:-1 12:0.328056 13:0.58572 14:-0.855974 15:-1 16:-1 17:-1 18:-1 19:-1 20:-1 21:-1 
0 0 0 0 0 0 0 0 8192 1:-0.6 2:0.921547 3:-1 4:-1 5:-1 6:-1 7:-1 8:-1 9:-1 10:-1 11:-1 12:-0.848109 13:-1 14:-1 15:-1 16:-1 17:-1 18:-1 19:-1 20:-1 21:-1 
0 0 0 0 0 0 0 0 8192 1:-0.6 2:0.922765 3:-1 4:-1 5:-1 6:-1 7:-1 8:-1 9:-1 10:-1 11:-1 12:-0.847716 13:-1 14:-1 15:-1 16:-1 17:-1 18:-1 19:-1 20:-1 21:-1 
0 0 0 0 0 0 0 0 8192 1:-0.6 2:0.926787 3:-1 4:-1 5:-1 6:-1 7:-1 8:-1 9:-1 10:-1 11:-1 12:-0.847104 13:-1 14:-1 15:-1 16:-1 17:-1 18:-1 19:-1 20:-1 21:-1 
0 0 0 0 0 0 0 0 8192 1:-0.6 2:0.927667 3:-1 4:-1 5:-1 6:-1 7:-1 8:-1 9:-1 10:-1 11:-1 12:-0.846307 13:-1 14:-1 15:-1 16:-1 17:-1 18:-1 19:-1 20:-1 21:-1 
0 0 0 0 0 0 0 0 8192 1:-0.6 2:0.930297 3:-1 4:-1 5:-1 6:-1 7:-1 8:-1 9:-1 10:-1 11:-1 12:-0.845529 13:-1 14:-1 15:-1 16:-1 17:-1 18:-1 19:-1 20:-1 21:-1 
0 0 0 0 0 0 0 0 8192 1:-0.6 2:0.934223 3:-1 4:-1 5:-1 6:-1 7:-1 8:-1 9:-1 10:-1 11:-1 12:-0.845048 13:-1 14:-1 15:-1 16:-1 17:-1 18:-1 19:-1 20:-1 21:-1 
0 1.048096089284322 0 0.3670736219104112 0 0 0 0 0 1:-0.2 2:0.936991 3:0.154144 4:0.000103061 5:-1 6:-1 7:-1 8:-1 9:-1 10:-1 11:-1 12:0.644581 13:0.833363 14:-0.810347 15:-1 16:-1 17:-1 18:-1 19:-1 20:-1 21:-1 
0 8192 0 0 0 0 0 0 8192 1:-0.6 2:0.938745 3:-1 4:-1 5:-1 6:-1 7:-1 8:-1 9:-1 10:-1 11:-1 12:-0.844946 13:-1 14:-1 15:-1 16:-1 17:-1 18:-1 19:-1 20:-1 21:-1 
0 8192 0 0 838.25446451786 0 0 0 8192 1:-0.6 2:0.947507 3:-1 4:-1 5:-1 6:-1 7:-1 8:-1 9:-1 10:-1 11:-1 12:-0.844981 13:-1 14:-1 15:-1 16:-1 17:-1 18:-1 19:-1 20:-1 21:-1 
0 8192 0 0 0 0 0 0 8192 1:-0.6 2:0.949143 3:-1 4:-1 5:-1 6:-1 7:-1 8:-1 9:-1 10:-1 11:-1 12:-0.845189 13:-1 14:-1 15:-1 16:-1 17:-1 18:-1 19:-1 20:-1 21:-1 
0 8192 0 0 0 0 0 6867.692672712551 8192 1:-0.6 2:0.949841 3:-1 4:-1 5:-1 6:-1 7:-1 8:-1 9:-1 10:-1 11:-1 12:-0.845514 13:-1 14:-1 15:-1 16:-1 17:-1 18:-1 19:-1 20:-1 21:-1 
0 8192 0 0 0 0 0 0 8192 1:-0.6 2:0.949079 3:-1 4:-1 5:-1 6:-1 7:-1 8:-1 9:-1 10:-1 11:-1 12:-0.845792 13:-1 14:-1 15:-1 16:-1 17:-1 18:-1 19:-1 20:-1 21:-1 
0 8192 0 0 0 0 0 8192 8192 1:-0.6 2:0.950587 3:-1 4:-1 5:-1 6:-1 7:-1 8:-1 9:-1 10:-1 11:-1 12:-0.84561 13:-1 14:-1 15:-1 16:-1 17:-1 18:-1 19:-1 20:-1 21:-1 
0 8192 0 0 0 0 0 8192 8192 1:-0.6 2:0.951121 3:-1 4:-1 5:-1 6:-1 7:-1 8:-1 9:-1 10:-1 11:-1 12:-0.845513 13:-1 14:-1 15:-1 16:-1 17:-1 18:-1 19:-1 20:-1 21:-1 
0 8192 0 0 0 0 0 0 8192 1:-0.6 2:0.949741 3:-1 4:-1 5:-1 6:-1 7:-1 8:-1 9:-1 10:-1 11:-1 12:-0.845442 13:-1 14:-1 15:-1 16:-1 17:-1 18:-1 19:-1 20:-1 21:-1 
0 8192 0 0 0 0 0 0 8192 1:-0.6 2:0.947983 3:-1 4:-1 5:-1 6:-1 7:-1 8:-1 9:-1 10:-1 11:-1 12:-0.845609 13:-1 14:-1 15:-1 16:-1 17:-1 18:-1 19:-1 20:-1 21:-1 
0 8192 0 0 0 0 0 0 8192 1:-0.6 2:0.945419 3:-1 4:-1 5:-1 6:-1 7:-1 8:-1 9:-1 10:-1 11:-1 12:-0.846174 13:-1 14:-1 15:-1 16:-1 17:-1 18:-1 19:-1 20:-1 21:-1 
0 8192 0 0 0 0 0 0 8192 1:-0.6 2:0.942921 3:-1 4:-1 5:-1 6:-1 7:-1 8:-1 9:-1 10:-1 11:-1 12:-0.846864 13:-1 14:-1 15:-1 16:-1 17:-1 18:-1 19:-1 20:-1 21:-1 
0 8192 0 0 0 0 0 0 8192 1:-0.6 2:0.939683 3:-1 4:-1 5:-1 6:-1 7:-1 8:-1 9:-1 10:-1 11:-1 12:-0.847162 13:-1 14:-1 15:-1 16:-1 17:-1 18:-1 19:-1 20:-1 21:-1 
0 0 0 0 0 0 0 0 8192 1:-0.6 2:0.935355 3:-1 4:-1 5:-1 6:-1 7:-1 8:-1 9:-1 10:-1 11:-1 12:-0.847494 13:-1 14:-1 15:-1 16:-1 17:-1 18:-1 19:-1 20:-1 21:-1 
0 0 0 0 0 0 0 0 8192 1:-0.6 2:0.932125 3:-1 4:-1 5:-1 6:-1 7:-1 8:-1 9:-1 10:-1 11:-1 12:-0.84809 13:-1 14:-1 15:-1 16:-1 17:-1 18:-1 19:-1 20:-1 21:-1 
0 0 0 0 0 0 0 0 8192 1:-0.6 2:0.929235 3:-1 4:-1 5:-1 6:-1 7:-1 8:-1 9:-1 10:-1 11:-1 12:-0.849023 13:-1 14:-1 15:-1 16:-1 17:-1 18:-1 19:-1 20:-1 21:-1 
0 0 0 0 0 0 0 0 8192 1:-0.6 2:0.925341 3:-1 4:-1 5:-1 6:-1 7:-1 8:-1 9:-1 10:-1 11:-1 12:-0.849429 13:-1 14:-1 15:-1 16:-1 17:-1 18:-1 19:-1 20:-1 21:-1 
0 52.91940239471401 0 0 4.187827179466155 0 0 0 26.88818012144923 1:-0.2 2:0.902135 3:0.798306 4:0.63406 5:-1 6:-1 7:-1 8:-1 9:-1 10:-1 11:-1 12:-0.78193 13:-0.746107 14:-0.838613 15:-1 16:-1 17:-1 18:-1 19:-1 20:-1 21:-1 
0 0 2.325703877104322 1.209763119791305 0 0 0 4.937520999295851 0 1:-0.2 2:0.989234 3:0.959979 4:0.909826 5:-1 6:-1 7:-1 8:-1 9:-1 10:-1 11:-1 12:-0.783543 13:-0.747789 14:-0.83625 15:-1 16:-1 17:-1 18:-1 19:-1 20:-1 21:-1 
0 0 432.085895754268 0 0 0 0 0 0 1:-0.2 2:0.86099 3:0.372656 4:0.0696144 5:-1 6:-1 7:-1 8:-1 9:-1 10:-1 11:-1 12:0.461233 13:0.745285 14:-0.827482 15:-1 16:-1 17:-1 18:-1 19:-1 20:-1 21:-1 
0 0 0 0 0 0 0 0 5313.814502069165 1:-0.6 2:0.86025 3:-1 4:-1 5:-1 6:-1 7:-1 8:-1 9:-1 10:-1 11:-1 12:-0.859124 13:-1 14:-1 15:-1 16:-1 17:-1 18:-1 19:-1 20:-1 21:-1 
0 0 0 0 0 0 0 8192 8192 1:-0.6 2:0.85437 3:-1 4:-1 5:-1 6:-1 7:-1 8:-1 9:-1 10:-1 11:-1 12:-0.859632 13:-1 14:-1 15:-1 16:-1 17:-1 18:-1 19:-1 20:-1 21:-1 
0 0 0 0 0 0 0 8192 8192 1:-0.6 2:0.85098 3:-1 4:-1 5:-1 6:-1 7:-1 8:-1 9:-1 10:-1 11:-1 12:-0.859618 13:-1 14:-1 15:-1 16:-1 17:-1 18:-1 19:-1 20:-1 21:-1 
0 0 0 0 0 0 0 8192 8192 1:-0.6 2:0.851636 3:-1 4:-1 5:-1 6:-1 7:-1 8:-1 9:-1 10:-1 11:-1 12:-0.859638 13:-1 14:-1 15:-1 16:-1 17:-1 18:-1 19:-1 20:-1 21:-1 
0 0 0 0 0 0 0 8192 8192 1:-0.6 2:0.852554 3:-1 4:-1 5:-1 6:-1 7:-1 8:-1 9:-1 10:-1 11:-1 12:-0.85976 13:-1 14:-1 15:-1 16:-1 17:-1 18:-1 19:-1 20:-1 21:-1 
0 0 0 0 0 0 0 8192 8192 1:-0.6 2:0.853108 3:-1 4:-1 5:-1 6:-1 7:-1 8:-1 9:-1 10:-1 11:-1 12:-0.859951 13:-1 14:-1 15:-1 16:-1 17:-1 18:-1 19:-1 20:-1 21:-1 
0 0 0 0 0 0 0 8192 8192 1:-0.6 2:0.854038 3:-1 4:-1 5:-1 6:-1 7:-1 8:-1 9:-1 10:-1 11:-1 12:-0.85993 13:-1 14:-1 15:-1 16:-1 17:-1 18:-1 19:-1 20:-1 21:-1 
0 0 0 0 0 0 0 8192 8192 1:-0.6 2:0.854876 3:-1 4:-1 5:-1 6:-1 7:-1 8:-1 9:-1 10:-1 11:-1 12:-0.85977 13:-1 14:-1 15:-1 16:-1 17:-1 18:-1 19:-1 20:-1 21:-1 
0 0 0 0 0 0 0 4885.969194133633 8192 1:-0.6 2:0.855864 3:-1 4:-1 5:-1 6:-1 7:-1 8:-1 9:-1 10:-1 11:-1 12:-0.859275 13:-1 14:-1 15:-1 16:-1 17:-1 18:-1 19:-1 20:-1 21:-1 
0 0 0 0 0 0 0 8192 8192 1:-0.6 2:0.856668 3:-1 4:-1 5:-1 6:-1 7:-1 8:-1 9:-1 10:-1 11:-1 12:-0.858128 13:-1 14:-1 15:-1 16:-1 17:-1 18:-1 19:-1 20:-1 21:-1 
0 0 0 0 0 0 0 8192 8192 1:-0.6 2:0.85405 3:-1 4:-1 5:-1 6:-1 7:-1 8:-1 9:-1 10:-1 11:-1 12:-0.858749 13:-1 14:-1 15:-1 16:-1 17:-1 18:-1 19:-1 20:-1 21:-1 
0 0 0 0 0 0 0 8192 8192 1:-0.6 2:0.854448 3:-1 4:-1 5:-1 6:-1 7:-1 8:-1 9:-1 10:-1 11:-1 12:-0.859657 13:-1 14:-1 15:-1 16:-1 17:-1 18:-1 19:-1 20:-1 21:-1 
0 0 0 0 0 0 0 0 8192 1:-0.6 2:0.855404 3:-1 4:-1 5:-1 6:-1 7:-1 8:-1 9:-1 10:-1 11:-1 12:-0.859816 13:-1 14:-1 15:-1 16:-1 17:-1 18:-1 19:-1 20:-1 21:-1 
0 0 0 0 0 0 0 0 8192 1:-0.6 2:0.856622 3:-1 4:-1 5:-1 6:-1 7:-1 8:-1 9:-1 10:-1 11:-1 12:-0.860003 13:-1 14:-1 15:-1 16:-1 17:-1 18:-1 19:-1 20:-1 21:-1 
0 0 0 0 0 0 0 0 8192 1:-0.6 2:0.856372 3:-1 4:-1 5:-1 6:-1 7:-1 8:-1 9:-1 10:-1 11:-1 12:-0.861525 13:-1 14:-1 15:-1 16:-1 17:-1 18:-1 19:-1 20:-1 21:-1 
0 0 0 0 0 0 0 0 8192 1:-0.6 2:0.85667 3:-1 4:-1 5:-1 6:-1 7:-1 8:-1 9:-1 10:-1 11:-1 12:-0.862986 13:-1 14:-1 15:-1 16:-1 17:-1 18:-1 19:-1 20:-1 21:-1 
0 0 0 0 0 0 0 0 8192 1:-0.6 2:0.855686 3:-1 4:-1 5:-1 6:-1 7:-1 8:-1 9:-1 10:-1 11:-1 12:-0.89204 13:-1 14:-1 15:-1 16:-1 17:-1 18:-1 19:-1 20:-1 21:-1 
0 0 0 0 0 0 0 0 8192 1:-0.6 2:0.856582 3:-1 4:-1 5:-1 6:-1 7:-1 8:-1 9:-1 10:-1 11:-1 12:-0.886149 13:-1 14:-1 15:-1 16:-1 17:-1 18:-1 19:-1 20:-1 21:-1 
0 0 0 0 0 0 0 0 8192 1:-0.6 2:0.858086 3:-1 4:-1 5:-1 6:-1 7:-1 8:-1 9:-1 10:-1 11:-1 12:-0.883939 13:-1 14:-1 15:-1 16:-1 17:-1 18:-1 19:-1 20:-1 21:-1 
8192 8192 8192 8192 8192 8192 8192 8192 8192 1:-1 2:-1 3:-1 4:-1 5:-1 6:-1 7:-1 8:-1 9:-1 10:-1 11:-1 12:-1 13:-1 14:-1 15:-1 16:-1 17:-1 18:-1 19:-1 20:-1 21:-1 
8192 8192 8192 8192 8192 8192 8192 8192 8192 1:-1 2:-1 3:-1 4:-1 5:-1 6:-1 7:-1 8:-1 9:-1 10:-1 11:-1 12:-1 13:-1 14:-1 15:-1 16:-1 17:-1 18:-1 19:-1 20:-1 21:-1 
8192 8192 8192 8192 8192 8192 8192 8192 8192 1:-1 2:-1 3:-1 4:-1 5:-1 6:-1 7:-1 8:-1 9:-1 10:-1 11:-1 12:-1 13:-1 14:-1 15:-1 16:-1 17:-1 18:-1 19:-1 20:-1 21:-1 
0 0 0 0 0 0 0 0 6550.969011654764 1:-0.6 2:0.864312 3:-1 4:-1 5:-1 6:-1 7:-1 8:-1 9:-1 10:-1 11:-1 12:-0.88228 13:-1 14:-1 15:-1 16:-1 17:-1 18:-1 19:-1 20:-1 21:-1 
0 5.66447295073398 0 0 0 0 0 0 0 1:-0.2 2:0.883028 3:0.325313 4:0.262047 5:-1 6:-1 7:-1 8:-1 9:-1 10:-1 11:-1 12:-0.700725 13:-0.687408 14:-0.824909 15:-1 16:-1 17:-1 18:-1 19:-1 20:-1 21:-1 
0 0 0 0 4.194959867571965 0 0 0 0 1:-0.2 2:0.882616 3:0.314458 4:0.22977 5:-1 6:-1 7:-1 8:-1 9:-1 10:-1 11:-1 12:-0.701018 13:-0.687588 14:-0.82473 15:-1 16:-1 17:-1 18:-1 19:-1 20:-1 21:-1 
0 0 59.68033346161853 0 8.280701716906913 0 0 19.44775569838896 0 1:-0.2 2:0.880818 3:0.236676 4:0.103623 5:-1 6:-1 7:-1 8:-1 9:-1 10:-1 11:-1 12:-0.702841 13:-0.690348 14:-0.825054 15:-1 16:-1 17:-1 18:-1 19:-1 20:-1 21:-1 
0 0 68.44587417385311 0 28.41671432465856 0 0 16.44441313366238 0 1:-0.2 2:0.88053 3:0.0623626 4:-0.138051 5:-1 6:-1 7:-1 8:-1 9:-1 10:-1 11:-1 12:-0.701676 13:-0.688648 14:-0.824933 15:-1 16:-1 17:-1 18:-1 19:-1 20:-1 21:-1 
0 7.58290287581485 0 0.8467088216229658 49.61709549637144 0 0.1188747084000516 10.38100564180995 25.70306655045084 1:-0.2 2:0.87942 3:-0.118596 4:-0.398112 5:-1 6:-1 7:-1 8:-1 9:-1 10:-1 11:-1 12:-0.702222 13:-0.689674 14:-0.824922 15:-1 16:-1 17:-1 18:-1 19:-1 20:-1 21:-1 
26.18379328230436 0 8192 0 0 1394.424735276174 132.7616110160399 8192 8192 1:-0.6 2:0.867254 3:-1 4:-1 5:-1 6:-1 7:-1 8:-1 9:-1 10:-1 11:-1 12:-0.845949 13:-1 14:-1 15:-1 16:-1 17:-1 18:-1 19:-1 20:-1 21:-1 
0 0 8192 0 0 0 0 8192 8192 1:-0.6 2:0.866618 3:-1 4:-1 5:-1 6:-1 7:-1 8:-1 9:-1 10:-1 11:-1 12:-0.848395 13:-1 14:-1 15:-1 16:-1 17:-1 18:-1 19:-1 20:-1 21:-1 
0 0 0 0 0 0 0 8192 8192 1:-0.6 2:0.865978 3:-1 4:-1 5:-1 6:-1 7:-1 8:-1 9:-1 10:-1 11:-1 12:-0.850084 13:-1 14:-1 15:-1 16:-1 17:-1 18:-1 19:-1 20:-1 21:-1 
0 0 0 0 0 0 0 0 8192 1:-0.6 2:0.86578 3:-1 4:-1 5:-1 6:-1 7:-1 8:-1 9:-1 10:-1 11:-1 12:-0.851594 13:-1 14:-1 15:-1 16:-1 17:-1 18:-1 19:-1 20:-1 21:-1 
0 0 0 0 0 0 0 0 8192 1:-0.6 2:0.865726 3:-1 4:-1 5:-1 6:-1 7:-1 8:-1 9:-1 10:-1 11:-1 12:-0.852645 13:-1 14:-1 15:-1 16:-1 17:-1 18:-1 19:-1 20:-1 21:-1 
0 0 0 0 0 0 0 0 8192 1:-0.6 2:0.865724 3:-1 4:-1 5:-1 6:-1 7:-1 8:-1 9:-1 10:-1 11:-1 12:-0.853382 13:-1 14:-1 15:-1 16:-1 17:-1 18:-1 19:-1 20:-1 21:-1 
0 0 0 0 0 0 0 0 8192 1:-0.6 2:0.866004 3:-1 4:-1 5:-1 6:-1 7:-1 8:-1 9:-1 10:-1 11:-1 12:-0.854312 13:-1 14:-1 15:-1 16:-1 17:-1 18:-1 19:-1 20:-1 21:-1 
0 0 35.71408972377348 0 0 0 0 6.792907980188136 0 1:-0.2 2:0.87149 3:0.622927 4:0.112608 5:-1 6:-1 7:-1 8:-1 9:-1 10:-1 11:-1 12:0.412648 13:0.706705 14:-0.836238 15:-1 16:-1 17:-1 18:-1 19:-1 20:-1 21:-1 
0 0 195.3246057645207 0 0 0 0 0 0 1:-0.2 2:0.87812 3:0.205942 4:-0.235665 5:-1 6:-1 7:-1 8:-1 9:-1 10:-1 11:-1 12:0.374043 13:0.651967 14:-0.836086 15:-1 16:-1 17:-1 18:-1 19:-1 20:-1 21:-1 
-0.4236292109821102 0 8192 8192 8192 8192 8192 8192 8192 1:-1 2:-1 3:-1 4:-1 5:-1 6:-1 7:-1 8:-1 9:-1 10:-1 11:-1 12:-1 13:-1 14:-1 15:-1 16:-1 17:-1 18:-1 19:-1 20:-1 21:-1 
-0 0 8192 8192 8192 8192 8192 8192 8192 1:-1 2:-1 3:-1 4:-1 5:-1 6:-1 7:-1 8:-1 9:-1 10:-1 11:-1 12:-1 13:-1 14:-1 15:-1 16:-1 17:-1 18:-1 19:-1 20:-1 21:-1 
-0 0 8192 8192 8192 8192 8192 8192 8192 1:-1 2:-1 3:-1 4:-1 5:-1 6:-1 7:-1 8:-1 9:-1 10:-1 11:-1 12:-1 13:-1 14:-1 15:-1 16:-1 17:-1 18:-1 19:-1 20:-1 21:-1 
-0 0 8192 8192 8192 8192 8192 8192 8192 1:-1 2:-1 3:-1 4:-1 5:-1 6:-1 7:-1 8:-1 9:-1 10:-1 11:-1 12:-1 13:-1 14:-1 15:-1 16:-1 17:-1 18:-1 19:-1 20:-1 21:-1 
-0 0 8192 8192 8192 8192 8192 8192 8192 1:-1 2:-1 3:-1 4:-1 5:-1 6:-1 7:-1 8:-1 9:-1 10:-1 11:-1 12:-1 13:-1 14:-1 15:-1 16:-1 17:-1 18:-1 19:-1 20:-1 21:-1 
-0 0 8192 8192 8192 8192 8192 8192 8192 1:-1 2:-1 3:-1 4:-1 5:-1 6:-1 7:-1 8:-1 9:-1 10:-1 11:-1 12:-1 13:-1 14:-1 15:-1 16:-1 17:-1 18:-1 19:-1 20:-1 21:-1 
-0 8190.857436112866 8192 8192 8192 8192 8192 8192 8192 1:-1 2:-1 3:-1 4:-1 5:-1 6:-1 7:-1 8:-1 9:-1 10:-1 11:-1 12:-1 13:-1 14:-1 15:-1 16:-1 17:-1 18:-1 19:-1 20:-1 21:-1 
-0 8192 8192 8192 8192 8192 8192 8192 8192 1:-1 2:-1 3:-1 4:-1 5:-1 6:-1 7:-1 8:-1 9:-1 10:-1 11:-1 12:-1 13:-1 14:-1 15:-1 16:-1 17:-1 18:-1 19:-1 20:-1 21:-1 
-0 8192 8192 8192 8192 8192 8192 8192 8192 1:-1 2:-1 3:-1 4:-1 5:-1 6:-1 7:-1 8:-1 9:-1 10:-1 11:-1 12:-1 13:-1 14:-1 15:-1 16:-1 17:-1 18:-1 19:-1 20:-1 21:-1 
-0 8192 8192 8192 8192 8192 8192 8192 8192 1:-1 2:-1 3:-1 4:-1 5:-1 6:-1 7:-1 8:-1 9:-1 10:-1 11:-1 12:-1 13:-1 14:-1 15:-1 16:-1 17:-1 18:-1 19:-1 20:-1 21:-1 
-0 0 1193.99572228502 44.81318990222868 323.9954847198138 2277.435722741675 97.99278623122123 8192 770.9111096151403 1:-0.6 2:-0.45409 3:-1 4:-1 5:-1 6:-1 7:-1 8:-1 9:-1 10:-1 11:-1 12:-0.0424347 13:-1 14:-1 15:-1 16:-1 17:-1 18:-1 19:-1 20:-1 21:-1 
-0 8192 8192 8192 8192 8192 8192 8192 8192 1:-1 2:-1 3:-1 4:-1 5:-1 6:-1 7:-1 8:-1 9:-1 10:-1 11:-1 12:-1 13:-1 14:-1 15:-1 16:-1 17:-1 18:-1 19:-1 20:-1 21:-1 
-0 8192 8192 8192 8192 8192 8192 8192 8192 1:-1 2:-1 3:-1 4:-1 5:-1 6:-1 7:-1 8:-1 9:-1 10:-1 11:-1 12:-1 13:-1 14:-1 15:-1 16:-1 17:-1 18:-1 19:-1 20:-1 21:-1 
-0 8192 8192 8192 8192 8192 8192 8192 8192 1:-1 2:-1 3:-1 4:-1 5:-1 6:-1 7:-1 8:-1 9:-1 10:-1 11:-1 12:-1 13:-1 14:-1 15:-1 16:-1 17:-1 18:-1 19:-1 20:-1 21:-1 
-0 8192 8192 8192 8192 8192 8192 8192 8192 1:-1 2:-1 3:-1 4:-1 5:-1 6:-1 7:-1 8:-1 9:-1 10:-1 11:-1 12:-1 13:-1 14:-1 15:-1 16:-1 17:-1 18:-1 19:-1 20:-1 21:-1 
-0 1907.342753370532 118.5614628581868 0 0 20.56592145495082 0 4067.487241969728 690.4475615360485 1:-0.6 2:0.720396 3:-1 4:-1 5:-1 6:-1 7:-1 8:-1 9:-1 10:-1 11:-1 12:-0.6854 13:-1 14:-1 15:-1 16:-1 17:-1 18:-1 19:-1 20:-1 21:-1 
-0 0 0 66.35896879333865 0 0 0 8192 0 1:-0.6 2:0.862448 3:-1 4:-1 5:-1 6:-1 7:-1 8:-1 9:-1 10:-1 11:-1 12:-0.669008 13:-1 14:-1 15:-1 16:-1 17:-1 18:-1 19:-1 20:-1 21:-1 
-0 8192 8192 8192 8192 8192 8192 8192 8192 1:-1 2:-1 3:-1 4:-1 5:-1 6:-1 7:-1 8:-1 9:-1 10:-1 11:-1 12:-1 13:-1 14:-1 15:-1 16:-1 17:-1 18:-1 19:-1 20:-1 21:-1 
-0 8192 8192 8192 8192 8192 8192 8192 8192 1:-1 2:-1 3:-1 4:-1 5:-1 6:-1 7:-1 8:-1 9:-1 10:-1 11:-1 12:-1 13:-1 14:-1 15:-1 16:-1 17:-1 18:-1 19:-1 20:-1 21:-1 
-0 8192 8192 8192 8192 8192 8192 8192 8192 1:-1 2:-1 3:-1 4:-1 5:-1 6:-1 7:-1 8:-1 9:-1 10:-1 11:-1 12:-1 13:-1 14:-1 15:-1 16:-1 17:-1 18:-1 19:-1 20:-1 21:-1 
-0 0 0 0 0 0 0 8192 5462.254513248354 1:-0.6 2:0.84433 3:-1 4:-1 5:-1 6:-1 7:-1 8:-1 9:-1 10:-1 11:-1 12:-0.687801 13:-1 14:-1 15:-1 16:-1 17:-1 18:-1 19:-1 20:-1 21:-1 
-0 8192 8192 8192 8192 8192 8192 8192 8192 1:-1 2:-1 3:-1 4:-1 5:-1 6:-1 7:-1 8:-1 9:-1 10:-1 11:-1 12:-1 13:-1 14:-1 15:-1 16:-1 17:-1 18:-1 19:-1 20:-1 21:-1 
-0 8192 8192 8192 8192 8192 8192 8192 8192 1:-1 2:-1 3:-1 4:-1 5:-1 6:-1 7:-1 8:-1 9:-1 10:-1 11:-1 12:-1 13:-1 14:-1 15:-1 16:-1 17:-1 18:-1 19:-1 20:-1 21:-1 
-0 8192 8192 8192 8192 8192 8192 8192 8192 1:-1 2:-1 3:-1 4:-1 5:-1 6:-1 7:-1 8:-1 9:-1 10:-1 11:-1 12:-1 13:-1 14:-1 15:-1 16:-1 17:-1 18:-1 19:-1 20:-1 21:-1 
-0 0 0 0 0 0 0 8192 0 1:-0.6 2:0.838424 3:-1 4:-1 5:-1 6:-1 7:-1 8:-1 9:-1 10:-1 11:-1 12:-0.670453 13:-1 14:-1 15:-1 16:-1 17:-1 18:-1 19:-1 20:-1 21:-1 
-0 8192 8192 8192 8192 8192 8192 8192 8192 1:-1 2:-1 3:-1 4:-1 5:-1 6:-1 7:-1 8:-1 9:-1 10:-1 11:-1 12:-1 13:-1 14:-1 15:-1 16:-1 17:-1 18:-1 19:-1 20:-1 21:-1 
-2487.700376025599 0 1450.669117741016 57.97862166368954 8192 106.4960176969202 0 8192 0 1:-0.6 2:-0.395294 3:-1 4:-1 5:-1 6:-1 7:-1 8:-1 9:-1 10:-1 11:-1 12:-0.670933 13:-1 14:-1 15:-1 16:-1 17:-1 18:-1 19:-1 20:-1 21:-1 
-114.380752111482 779.2306572277109 5.932849570605168 5.188493802768667 0 39.0541419500921 303.4509036903456 8192 62.77679143848326 1:-0.6 2:0.349401 3:-1 4:-1 5:-1 6:-1 7:-1 8:-1 9:-1 10:-1 11:-1 12:-0.681912 13:-1 14:-1 15:-1 16:-1 17:-1 18:-1 19:-1 20:-1 21:-1 
-0 0 0 28.72491673873862 0 0 0 1651.047031710259 959.7253957906639 1:-0.6 2:0.997848 3:-1 4:-1 5:-1 6:-1 7:-1 8:-1 9:-1 10:-1 11:-1 12:-0.680754 13:-1 14:-1 15:-1 16:-1 17:-1 18:-1 19:-1 20:-1 21:-1 
-0 8192 8192 8192 8192 8192 8192 8192 8192 1:-1 2:-1 3:-1 4:-1 5:-1 6:-1 7:-1 8:-1 9:-1 10:-1 11:-1 12:-1 13:-1 14:-1 15:-1 16:-1 17:-1 18:-1 19:-1 20:-1 21:-1 
-0 0 0 0 0 0 0 8192 0 1:-0.6 2:0.820645 3:-1 4:-1 5:-1 6:-1 7:-1 8:-1 9:-1 10:-1 11:-1 12:-0.683739 13:-1 14:-1 15:-1 16:-1 17:-1 18:-1 19:-1 20:-1 21:-1 
-68.86137725104089 0 0 0 124.4049627232342 3.736618019623415 0 8192 0 1:-0.6 2:-0.790321 3:-1 4:-1 5:-1 6:-1 7:-1 8:-1 9:-1 10:-1 11:-1 12:-0.690258 13:-1 14:-1 15:-1 16:-1 17:-1 18:-1 19:-1 20:-1 21:-1 
-0 0 0 0 5308.411844460789 0 1189.532055994747 2498.041887510237 1150.480181422456 1:-0.6 2:-0.110132 3:-1 4:-1 5:-1 6:-1 7:-1 8:-1 9:-1 10:-1 11:-1 12:-0.68849 13:-1 14:-1 15:-1 16:-1 17:-1 18:-1 19:-1 20:-1 21:-1 
-0 8192 8192 8192 8192 8192 8192 8192 8192 1:-1 2:-1 3:-1 4:-1 5:-1 6:-1 7:-1 8:-1 9:-1 10:-1 11:-1 12:-1 13:-1 14:-1 15:-1 16:-1 17:-1 18:-1 19:-1 20:-1 21:-1 
-0 8192 8192 8192 8192 8192 8192 8192 8192 1:-1 2:-1 3:-1 4:-1 5:-1 6:-1 7:-1 8:-1 9:-1 10:-1 11:-1 12:-1 13:-1 14:-1 15:-1 16:-1 17:-1 18:-1 19:-1 20:-1 21:-1 
-0 8192 8192 8192 8192 8192 8192 8192 8192 1:-1 2:-1 3:-1 4:-1 5:-1 6:-1 7:-1 8:-1 9:-1 10:-1 11:-1 12:-1 13:-1 14:-1 15:-1 16:-1 17:-1 18:-1 19:-1 20:-1 21:-1 
-0 8192 8192 8192 8192 8192 8192 8192 8192 1:-1 2:-1 3:-1 4:-1 5:-1 6:-1 7:-1 8:-1 9:-1 10:-1 11:-1 12:-1 13:-1 14:-1 15:-1 16:-1 17:-1 18:-1 19:-1 20:-1 21:-1 
-8192 0 4028.007377142687 0 8192 0 0 0 0 1:-0.6 2:-0.271038 3:-1 4:-1 5:-1 6:-1 7:-1 8:-1 9:-1 10:-1 11:-1 12:-0.698723 13:-1 14:-1 15:-1 16:-1 17:-1 18:-1 19:-1 20:-1 21:-1 
-0 8192 8192 8192 8192 8192 8192 8192 8192 1:-1 2:-1 3:-1 4:-1 5:-1 6:-1 7:-1 8:-1 9:-1 10:-1 11:-1 12:-1 13:-1 14:-1 15:-1 16:-1 17:-1 18:-1 19:-1 20:-1 21:-1 
-0 8192 8192 8192 8192 8192 8192 8192 8192 1:-1 2:-1 3:-1 4:-1 5:-1 6:-1 7:-1 8:-1 9:-1 10:-1 11:-1 12:-1 13:-1 14:-1 15:-1 16:-1 17:-1 18:-1 19:-1 20:-1 21:-1 
-0 8192 8192 8192 8192 8192 8192 8192 8192 1:-1 2:-1 3:-1 4:-1 5:-1 6:-1 7:-1 8:-1 9:-1 10:-1 11:-1 12:-1 13:-1 14:-1 15:-1 16:-1 17:-1 18:-1 19:-1 20:-1 21:-1 
-0 8192 8192 8192 8192 8192 8192 8192 8192 1:-1 2:-1 3:-1 4:-1 5:-1 6:-1 7:-1 8:-1 9:-1 10:-1 11:-1 12:-1 13:-1 14:-1 15:-1 16:-1 17:-1 18:-1 19:-1 20:-1 21:-1 
-0 0 0 0 27.57535506146708 38.97843371650541 0 0 8192 1:-0.6 2:0.969106 3:-1 4:-1 5:-1 6:-1 7:-1 8:-1 9:-1 10:-1 11:-1 12:-0.707902 13:-1 14:-1 15:-1 16:-1 17:-1 18:-1 19:-1 20:-1 21:-1 
-10.35852090529773 192.1585833497154 619.4261874068058 0 0 0 37.22905492243793 0 0 1:-0.6 2:0.990382 3:-1 4:-1 5:-1 6:-1 7:-1 8:-1 9:-1 10:-1 11:-1 12:-0.708411 13:-1 14:-1 15:-1 16:-1 17:-1 18:-1 19:-1 20:-1 21:-1 
-0 0 0 0 0 0 0 0 2004.961610766709 1:-0.6 2:0.987364 3:-1 4:-1 5:-1 6:-1 7:-1 8:-1 9:-1 10:-1 11:-1 12:-0.70833 13:-1 14:-1 15:-1 16:-1 17:-1 18:-1 19:-1 20:-1 21:-1 
-0 8192 8192 8192 8192 8192 8192 8192 8192 1:-1 2:-1 3:-1 4:-1 5:-1 6:-1 7:-1 8:-1 9:-1 10:-1 11:-1 12:-1 13:-1 14:-1 15:-1 16:-1 17:-1 18:-1 19:-1 20:-1 21:-1 
-0 8192 8192 8192 8192 8192 8192 8192 8192 1:-1 2:-1 3:-1 4:-1 5:-1 6:-1 7:-1 8:-1 9:-1 10:-1 11:-1 12:-1 13:-1 14:-1 15:-1 16:-1 17:-1 18:-1 19:-1 20:-1 21:-1 
-0 8192 8192 8192 8192 8192 8192 8192 8192 1:-1 2:-1 3:-1 4:-1 5:-1 6:-1 7:-1 8:-1 9:-1 10:-1 11:-1 12:-1 13:-1 14:-1 15:-1 16:-1 17:-1 18:-1 19:-1 20:-1 21:-1 
-0 8192 8192 8192 8192 8192 8192 8192 8192 1:-1 2:-1 3:-1 4:-1 5:-1 6:-1 7:-1 8:-1 9:-1 10:-1 11:-1 12:-1 13:-1 14:-1 15:-1 16:-1 17:-1 18:-1 19:-1 20:-1 21:-1 
-0 8192 8192 8192 8192 8192 8192 8192 8192 1:-1 2:-1 3:-1 4:-1 5:-1 6:-1 7:-1 8:-1 9:-1 10:-1 11:-1 12:-1 13:-1 14:-1 15:-1 16:-1 17:-1 18:-1 19:-1 20:-1 21:-1 
-0 8192 8192 8192 8192 8192 8192 8192 8192 1:-1 2:-1 3:-1 4:-1 5:-1 6:-1 7:-1 8:-1 9:-1 10:-1 11:-1 12:-1 13:-1 14:-1 15:-1 16:-1 17:-1 18:-1 19:-1 20:-1 21:-1 
-0 0 37.1843450083874 19.4994958142123 0 21.7102087432942 0 5530.315487995482 70.00691524269273 1:-0.6 2:-0.931576 3:-1 4:-1 5:-1 6:-1 7:-1 8:-1 9:-1 10:-1 11:-1 12:-0.702491 13:-1 14:-1 15:-1 16:-1 17:-1 18:-1 19:-1 20:-1 21:-1 
-0 8192 8192 8192 8192 8192 8192 8192 8192 1:-1 2:-1 3:-1 4:-1 5:-1 6:-1 7:-1 8:-1 9:-1 10:-1 11:-1 12:-1 13:-1 14:-1 15:-1 16:-1 17:-1 18:-1 19:-1 20:-1 21:-1 
-0 8192 8192 8192 8192 8192 8192 8192 8192 1:-1 2:-1 3:-1 4:-1 5:-1 6:-1 7:-1 8:-1 9:-1 10:-1 11:-1 12:-1 13:-1 14:-1 15:-1 16:-1 17:-1 18:-1 19:-1 20:-1 21:-1 
-0 8192 8192 8192 8192 8192 8192 8192 8192 1:-1 2:-1 3:-1 4:-1 5:-1 6:-1 7:-1 8:-1 9:-1 10:-1 11:-1 12:-1 13:-1 14:-1 15:-1 16:-1 17:-1 18:-1 19:-1 20:-1 21:-1 
-0 8192 8192 8192 8192 8192 8192 8192 8192 1:-1 2:-1 3:-1 4:-1 5:-1 6:-1 7:-1 8:-1 9:-1 10:-1 11:-1 12:-1 13:-1 14:-1 15:-1 16:-1 17:-1 18:-1 19:-1 20:-1 21:-1 
-0 8192 8192 8192 8192 8192 8192 8192 8192 1:-1 2:-1 3:-1 4:-1 5:-1 6:-1 7:-1 8:-1 9:-1 10:-1 11:-1 12:-1 13:-1 14:-1 15:-1 16:-1 17:-1 18:-1 19:-1 20:-1 21:-1 
-0 8192 8192 8192 8192 8192 8192 8192 8192 1:-1 2:-1 3:-1 4:-1 5:-1 6:-1 7:-1 8:-1 9:-1 10:-1 11:-1 12:-1 13:-1 14:-1 15:-1 16:-1 17:-1 18:-1 19:-1 20:-1 21:-1 
-0 8192 8192 8192 8192 8192 8192 8192 8192 1:-1 2:-1 3:-1 4:-1 5:-1 6:-1 7:-1 8:-1 9:-1 10:-1 11:-1 12:-1 13:-1 14:-1 15:-1 16:-1 17:-1 18:-1 19:-1 20:-1 21:-1 
-0 8192 8192 8192 8192 8192 8192 8192 8192 1:-1 2:-1 3:-1 4:-1 5:-1 6:-1 7:-1 8:-1 9:-1 10:-1 11:-1 12:-1 13:-1 14:-1 15:-1 16:-1 17:-1 18:-1 19:-1 20:-1 21:-1 
-0 8192 8192 8192 8192 8192 8192 8192 8192 1:-1 2:-1 3:-1 4:-1 5:-1 6:-1 7:-1 8:-1 9:-1 10:-1 11:-1 12:-1 13:-1 14:-1 15:-1 16:-1 17:-1 18:-1 19:-1 20:-1 21:-1 
-0 8192 8192 8192 8192 8192 8192 8192 8192 1:-1 2:-1 3:-1 4:-1 5:-1 6:-1 7:-1 8:-1 9:-1 10:-1 11:-1 12:-1 13:-1 14:-1 15:-1 16:-1 17:-1 18:-1 19:-1 20:-1 21:-1 
-0 8192 8192 8192 8192 8192 8192 8192 8192 1:-1 2:-1 3:-1 4:-1 5:-1 6:-1 7:-1 8:-1 9:-1 10:-1 11:-1 12:-1 13:-1 14:-1 15:-1 16:-1 17:-1 18:-1 19:-1 20:-1 21:-1 
-0 8192 8192 8192 8192 8192 8192 8192 8192 1:-1 2:-1 3:-1 4:-1 5:-1 6:-1 7:-1 8:-1 9:-1 10:-1 11:-1 12:-1 13:-1 14:-1 15:-1 16:-1 17:-1 18:-1 19:-1 20:-1 21:-1 
-0 8192 8192 8192 8192 8192 8192 8192 8192 1:-1 2:-1 3:-1 4:-1 5:-1 6:-1 7:-1 8:-1 9:-1 10:-1 11:-1 12:-1 13:-1 14:-1 15:-1 16:-1 17:-1 18:-1 19:-1 20:-1 21:-1 
-0 8192 8192 8192 8192 8192 8192 8192 8192 1:-1 2:-1 3:-1 4:-1 5:-1 6:-1 7:-1 8:-1 9:-1 10:-1 11:-1 12:-1 13:-1 14:-1 15:-1 16:-1 17:-1 18:-1 19:-1 20:-1 21:-1 
-0 8192 8192 8192 8192 8192 8192 8192 8192 1:-1 2:-1 3:-1 4:-1 5:-1 6:-1 7:-1 8:-1 9:-1 10:-1 11:-1 12:-1 13:-1 14:-1 15:-1 16:-1 17:-1 18:-1 19:-1 20:-1 21:-1 
-0 8192 8192 8192 8192 8192 8192 8192 8192 1:-1 2:-1 3:-1 4:-1 5:-1 6:-1 7:-1 8:-1 9:-1 10:-1 11:-1 12:-1 13:-1 14:-1 15:-1 16:-1 17:-1 18:-1 19:-1 20:-1 21:-1 
-0 8192 8192 8192 8192 8192 8192 8192 8192 1:-1 2:-1 3:-1 4:-1 5:-1 6:-1 7:-1 8:-1 9:-1 10:-1 11:-1 12:-1 13:-1 14:-1 15:-1 16:-1 17:-1 18:-1 19:-1 20:-1 21:-1 
-16.29594717516668 8192 8192 8192 8192 8192 8192 8192 8192 1:-1 2:-1 3:-1 4:-1 5:-1 6:-1 7:-1 8:-1 9:-1 10:-1 11:-1 12:-1 13:-1 14:-1 15:-1 16:-1 17:-1 18:-1 19:-1 20:-1 21:-1 
-8192 8192 8192 8192 8192 8192 8192 8192 8192 1:-1 2:-1 3:-1 4:-1 5:-1 6:-1 7:-1 8:-1 9:-1 10:-1 11:-1 12:-1 13:-1 14:-1 15:-1 16:-1 17:-1 18:-1 19:-1 20:-1 21:-1 
-8192 8192 8192 8192 8192 8192 8192 8192 8192 1:-1 2:-1 3:-1 4:-1 5:-1 6:-1 7:-1 8:-1 9:-1 10:-1 11:-1 12:-1 13:-1 14:-1 15:-1 16:-1 17:-1 18:-1 19:-1 20:-1 21:-1 
-8192 8192 8192 8192 8192 8192 8192 8192 8192 1:-1 2:-1 3:-1 4:-1 5:-1 6:-1 7:-1 8:-1 9:-1 10:-1 11:-1 12:-1 13:-1 14:-1 15:-1 16:-1 17:-1 18:-1 19:-1 20:-1 21:-1 
-8192 8192 8192 8192 8192 8192 8192 8192 8192 1:-1 2:-1 3:-1 4:-1 5:-1 6:-1 7:-1 8:-1 9:-1 10:-1 11:-1 12:-1 13:-1 14:-1 15:-1 16:-1 17:-1 18:-1 19:-1 20:-1 21:-1 
-8192 8192 8192 8192 8192 8192 8192 8192 8192 1:-1 2:-1 3:-1 4:-1 5:-1 6:-1 7:-1 8:-1 9:-1 10:-1 11:-1 12:-1 13:-1 14:-1 15:-1 16:-1 17:-1 18:-1 19:-1 20:-1 21:-1 
-0 0 0 0 8192 0 0 1089.42558868087 0 1:-0.6 2:-0.280788 3:-1 4:-1 5:-1 6:-1 7:-1 8:-1 9:-1 10:-1 11:-1 12:-0.674911 13:-1 14:-1 15:-1 16:-1 17:-1 18:-1 19:-1 20:-1 21:-1 
-8192 8192 8192 8192 8192 8192 8192 8192 8192 1:-1 2:-1 3:-1 4:-1 5:-1 6:-1 7:-1 8:-1 9:-1 10:-1 11:-1 12:-1 13:-1 14:-1 15:-1 16:-1 17:-1 18:-1 19:-1 20:-1 21:-1 
-8192 8192 8192 8192 8192 8192 8192 8192 8192 1:-1 2:-1 3:-1 4:-1 5:-1 6:-1 7:-1 8:-1 9:-1 10:-1 11:-1 12:-1 13:-1 14:-1 15:-1 16:-1 17:-1 18:-1 19:-1 20:-1 21:-1 
-8192 8192 8192 8192 8192 8192 8192 8192 8192 1:-1 2:-1 3:-1 4:-1 5:-1 6:-1 7:-1 8:-1 9:-1 10:-1 11:-1 12:-1 13:-1 14:-1 15:-1 16:-1 17:-1 18:-1 19:-1 20:-1 21:-1 
-8192 8192 8192 8192 8192 8192 8192 8192 8192 1:-1 2:-1 3:-1 4:-1 5:-1 6:-1 7:-1 8:-1 9:-1 10:-1 11:-1 12:-1 13:-1 14:-1 15:-1 16:-1 17:-1 18:-1 19:-1 20:-1 21:-1 
-8192 8192 8192 8192 8192 8192 8192 8192 8192 1:-1 2:-1 3:-1 4:-1 5:-1 6:-1 7:-1 8:-1 9:-1 10:-1 11:-1 12:-1 13:-1 14:-1 15:-1 16:-1 17:-1 18:-1 19:-1 20:-1 21:-1 
-8192 8192 8192 8192 8192 8192 8192 8192 8192 1:-1 2:-1 3:-1 4:-1 5:-1 6:-1 7:-1 8:-1 9:-1 10:-1 11:-1 12:-1 13:-1 14:-1 15:-1 16:-1 17:-1 18:-1 19:-1 20:-1 21:-1 
-8192 8192 8192 8192 8192 8192 8192 8192 8192 1:-1 2:-1 3:-1 4:-1 5:-1 6:-1 7:-1 8:-1 9:-1 10:-1 11:-1 12:-1 13:-1 14:-1 15:-1 16:-1 17:-1 18:-1 19:-1 20:-1 21:-1 
-8192 8192 8192 8192 8192 8192 8192 8192 8192 1:-1 2:-1 3:-1 4:-1 5:-1 6:-1 7:-1 8:-1 9:-1 10:-1 11:-1 12:-1 13:-1 14:-1 15:-1 16:-1 17:-1 18:-1 19:-1 20:-1 21:-1 
-8192 8192 8192 8192 8192 8192 8192 8192 8192 1:-1 2:-1 3:-1 4:-1 5:-1 6:-1 7:-1 8:-1 9:-1 10:-1 11:-1 12:-1 13:-1 14:-1 15:-1 16:-1 17:-1 18:-1 19:-1 20:-1 21:-1 
-8192 8192 8192 8192 8192 8192 8192 8192 8192 1:-1 2:-1 3:-1 4:-1 5:-1 6:-1 7:-1 8:-1 9:-1 10:-1 11:-1 12:-1 13:-1 14:-1 15:-1 16:-1 17:-1 18:-1 19:-1 20:-1 21:-1 
-8192 8192 8192 8192 8192 8192 8192 8192 8192 1:-1 2:-1 3:-1 4:-1 5:-1 6:-1 7:-1 8:-1 9:-1 10:-1 11:-1 12:-1 13:-1 14:-1 15:-1 16:-1 17:-1 18:-1 19:-1 20:-1 21:-1 
-8192 8192 8192 8192 8192 8192 8192 8192 8192 1:-1 2:-1 3:-1 4:-1 5:-1 6:-1 7:-1 8:-1 9:-1 10:-1 11:-1 12:-1 13:-1 14:-1 15:-1 16:-1 17:-1 18:-1 19:-1 20:-1 21:-1 
-8192 8192 8192 8192 8192 8192 8192 8192 8192 1:-1 2:-1 3:-1 4:-1 5:-1 6:-1 7:-1 8:-1 9:-1 10:-1 11:-1 12:-1 13:-1 14:-1 15:-1 16:-1 17:-1 18:-1 19:-1 20:-1 21:-1 
-8192 8192 8192 8192 8192 8192 8192 8192 8192 1:-1 2:-1 3:-1 4:-1 5:-1 6:-1 7:-1 8:-1 9:-1 10:-1 11:-1 12:-1 13:-1 14:-1 15:-1 16:-1 17:-1 18:-1 19:-1 20:-1 21:-1 
-8192 8192 8192 8192 8192 8192 8192 8192 8192 1:-1 2:-1 3:-1 4:-1 5:-1 6:-1 7:-1 8:-1 9:-1 10:-1 11:-1 12:-1 13:-1 14:-1 15:-1 16:-1 17:-1 18:-1 19:-1 20:-1 21:-1 
-8192 8192 8192 8192 8192 8192 8192 8192 8192 1:-1 2:-1 3:-1 4:-1 5:-1 6:-1 7:-1 8:-1 9:-1 10:-1 11:-1 12:-1 13:-1 14:-1 15:-1 16:-1 17:-1 18:-1 19:-1 20:-1 21:-1 
-8192 8192 8192 8192 8192 8192 8192 8192 8192 1:-1 2:-1 3:-1 4:-1 5:-1 6:-1 7:-1 8:-1 9:-1 10:-1 11:-1 12:-1 13:-1 14:-1 15:-1 16:-1 17:-1 18:-1 19:-1 20:-1 21:-1 
-8192 8192 8192 8192 8192 8192 8192 8192 8192 1:-1 2:-1 3:-1 4:-1 5:-1 6:-1 7:-1 8:-1 9:-1 10:-1 11:-1 12:-1 13:-1 14:-1 15:-1 16:-1 17:-1 18:-1 19:-1 20:-1 21:-1 
-8192 8192 8192 8192 8192 8192 8192 8192 8192 1:-1 2:-1 3:-1 4:-1 5:-1 6:-1 7:-1 8:-1 9:-1 10:-1 11:-1 12:-1 13:-1 14:-1 15:-1 16:-1 17:-1 18:-1 19:-1 20:-1 21:-1 
-8192 8192 8192 8192 8192 8192 8192 8192 8192 1:-1 2:-1 3:-1 4:-1 5:-1 6:-1 7:-1 8:-1 9:-1 10:-1 11:-1 12:-1 13:-1 14:-1 15:-1 16:-1 17:-1 18:-1 19:-1 20:-1 21:-1 
-8190.084593310518 8191.504959471809 8192 8192 8192 8192 8192 8192 8192 1:-1 2:-1 3:-1 4:-1 5:-1 6:-1 7:-1 8:-1 9:-1 10:-1 11:-1 12:-1 13:-1 14:-1 15:-1 16:-1 17:-1 18:-1 19:-1 20:-1 21:-1 
-0 -0 0 0 0 0 0 0 18.32811602254611 1:0.2 2:0.97962 3:0.975558 4:0.911077 5:0.596952 6:0.448517 7:0.255479 8:-1 9:-1 10:-1 11:-1 12:-0.66886 13:-0.626925 14:-0.720703 15:-0.726598 16:-0.725723 17:-0.803586 18:-1 19:-1 20:-1 21:-1 
-0 -0 0 0 0 0 0 0 31.61272016216936 1:0.2 2:0.998278 3:0.990317 4:0.981735 5:0.610192 6:0.502571 7:0.472271 8:-1 9:-1 10:-1 11:-1 12:-0.692681 13:-0.670531 14:-0.744827 15:-0.806712 16:-0.846386 17:-0.862768 18:-1 19:-1 20:-1 21:-1 
-0 -0 0 0 8192 8192 0 0 8192 1:-0.6 2:0.933335 3:-1 4:-1 5:-1 6:-1 7:-1 8:-1 9:-1 10:-1 11:-1 12:-0.768322 13:-1 14:-1 15:-1 16:-1 17:-1 18:-1 19:-1 20:-1 21:-1 
-0 -0 0 0 0 0 0 0 50.49466402720209 1:0.2 2:0.997198 3:0.969012 4:0.950386 5:0.766458 6:0.719425 7:0.550602 8:-1 9:-1 10:-1 11:-1 12:-0.733321 13:-0.705283 14:-0.716393 15:-0.74471 16:-0.712622 17:-0.811525 18:-1 19:-1 20:-1 21:-1 
-0 -0.3442084458806749 2.462951246292971 0.898258923904122 0.5216551173527462 0 0 1.651551376227761 2.858597926173275 1:0.6 2:0.990988 3:0.988931 4:0.970805 5:0.972775 6:0.957251 7:0.900403 8:0.978471 9:0.988753 10:1 11:0.987892 12:-0.702974 13:-0.670877 14:-0.701103 15:-0.692598 16:-0.622122 17:-0.672498 18:-0.693616 19:-0.785189 20:-0.790771 21:-0.723945 
-0 -0 0 0 0 0 0 0 1358.879090255011 1:-0.2 2:0.994896 3:0.972881 4:0.944643 5:-1 6:-1 7:-1 8:-1 9:-1 10:-1 11:-1 12:-0.770274 13:-0.793816 14:-0.888621 15:-1 16:-1 17:-1 18:-1 19:-1 20:-1 21:-1 
-0 -0.2811526075175155 1.935015489785111 0.7360721369990101 0.4143979339103524 0 0 1.309649036089621 2.24400190938794 1:0.6 2:0.997796 3:0.991055 4:0.987068 5:0.982633 6:0.985594 7:0.970893 8:0.603019 9:0.613423 10:0.557511 11:0.56107 12:-0.672736 13:-0.662631 14:-0.673332 15:-0.734514 16:-0.633228 17:-0.712322 18:-0.756034 19:-0.773871 20:-0.789585 21:-0.838902 
-0 -0.000798229772356801 0.08416734872872469 0 0.0132692050356335 0 0 0.04340083835205303 0.09929752623244548 1:0.6 2:0.998294 3:0.99276 4:0.989041 5:0.981717 6:0.985448 7:0.972746 8:0.592255 9:0.609759 10:0.560517 11:0.562157 12:-0.674974 13:-0.660107 14:-0.677073 15:-0.731148 16:-0.637887 17:-0.708904 18:-0.76008 19:-0.760499 20:-0.788712 21:-0.824492 
-12.9412381817903 -0.3296054798037321 36.99953916164226 0.898804970725247 0 0 0 2.310466756386959 260.7956168001241 1:-0.2 2:0.958395 3:0.450113 4:0.408624 5:-1 6:-1 7:-1 8:-1 9:-1 10:-1 11:-1 12:-0.744411 13:-0.777859 14:-0.897665 15:-1 16:-1 17:-1 18:-1 19:-1 20:-1 21:-1 
-0 -0.1640767879605789 1.169238039755872 0.4283855002046912 0.2449552410202149 0 0 0.7835049213376067 0 1:0.2 2:0.992408 3:0.958889 4:0.955227 5:0.444538 6:0.407755 7:0.285539 8:-1 9:-1 10:-1 11:-1 12:-0.691221 13:-0.697426 14:-0.734853 15:-0.769413 16:-0.707636 17:-0.834426 18:-1 19:-1 20:-1 21:-1 
-0 -0 0 0 0 0 0 0 29.99484633773704 1:0.2 2:0.988588 3:0.978605 4:0.952576 5:0.470369 6:0.455576 7:0.308599 8:-1 9:-1 10:-1 11:-1 12:-0.715688 13:-0.711934 14:-0.733683 15:-0.785727 16:-0.717182 17:-0.818852 18:-1 19:-1 20:-1 21:-1 
-0 -0 0 0 0 0 0 0 215.7734302992338 1:0.2 2:0.996954 3:0.990649 4:0.99049 5:0.986213 6:0.987801 7:0.957831 8:-1 9:-1 10:-1 11:-1 12:-0.782841 13:-0.804114 14:-0.823373 15:-0.867064 16:-0.847894 17:-0.862118 18:-1 19:-1 20:-1 21:-1 
-3.679460848544322 -0 0 0 0 0 0 0 0 1:-0.2 2:0.962109 3:0.660311 4:0.579984 5:-1 6:-1 7:-1 8:-1 9:-1 10:-1 11:-1 12:-0.699348 13:-0.672506 14:-0.891713 15:-1 16:-1 17:-1 18:-1 19:-1 20:-1 21:-1 
-0 -0 0 0 838.0384390548013 0 0 0 0 1:-0.2 2:0.955243 3:0.718053 4:0.466813 5:-1 6:-1 7:-1 8:-1 9:-1 10:-1 11:-1 12:-0.679292 13:-0.726041 14:-0.744942 15:-1 16:-1 17:-1 18:-1 19:-1 20:-1 21:-1 
-56.84333195980701 -0 0 0 0 0 0 0 0 1:-0.2 2:0.959717 3:0.77063 4:0.585249 5:-1 6:-1 7:-1 8:-1 9:-1 10:-1 11:-1 12:-0.704206 13:-0.739511 14:-0.762304 15:-1 16:-1 17:-1 18:-1 19:-1 20:-1 21:-1 
-0 -0 0 0 0 0 0 3459.824033604194 0 1:-0.6 2:0.538822 3:-1 4:-1 5:-1 6:-1 7:-1 8:-1 9:-1 10:-1 11:-1 12:-0.691879 13:-1 14:-1 15:-1 16:-1 17:-1 18:-1 19:-1 20:-1 21:-1 
-0 -0 0 0 0 0 0 8192 0 1:-0.6 2:0.525117 3:-1 4:-1 5:-1 6:-1 7:-1 8:-1 9:-1 10:-1 11:-1 12:-0.690516 13:-1 14:-1 15:-1 16:-1 17:-1 18:-1 19:-1 20:-1 21:-1 
-0 -0 0 0 0 0 0 8192 0 1:-0.6 2:0.527409 3:-1 4:-1 5:-1 6:-1 7:-1 8:-1 9:-1 10:-1 11:-1 12:-0.690885 13:-1 14:-1 15:-1 16:-1 17:-1 18:-1 19:-1 20:-1 21:-1 
-0 -0 0 0 0 0 0 8192 0 1:-0.6 2:0.530091 3:-1 4:-1 5:-1 6:-1 7:-1 8:-1 9:-1 10:-1 11:-1 12:-0.685736 13:-1 14:-1 15:-1 16:-1 17:-1 18:-1 19:-1 20:-1 21:-1 
-0 -0.1495866734133659 0 0.3865296492043853 0 0 0 0.5192639366009794 0 1:-0.2 2:0.870014 3:0.857191 4:0.509938 5:-1 6:-1 7:-1 8:-1 9:-1 10:-1 11:-1 12:-0.679172 13:-0.635766 14:-0.816037 15:-1 16:-1 17:-1 18:-1 19:-1 20:-1 21:-1 
-0 -0 0 0 0 0 0 8192 0 1:-0.6 2:0.512635 3:-1 4:-1 5:-1 6:-1 7:-1 8:-1 9:-1 10:-1 11:-1 12:-0.677795 13:-1 14:-1 15:-1 16:-1 17:-1 18:-1 19:-1 20:-1 21:-1 
-0.2166810936977608 -8192 8192 8192 8192 8192 8192 8192 8192 1:-1 2:-1 3:-1 4:-1 5:-1 6:-1 7:-1 8:-1 9:-1 10:-1 11:-1 12:-1 13:-1 14:-1 15:-1 16:-1 17:-1 18:-1 19:-1 20:-1 21:-1 
-0 -0 0 0 0 0 0 8192 0 1:-0.6 2:0.515647 3:-1 4:-1 5:-1 6:-1 7:-1 8:-1 9:-1 10:-1 11:-1 12:-0.681523 13:-1 14:-1 15:-1 16:-1 17:-1 18:-1 19:-1 20:-1 21:-1 
-0 -0 0 0 0 0 0 8192 0 1:-0.6 2:0.495889 3:-1 4:-1 5:-1 6:-1 7:-1 8:-1 9:-1 10:-1 11:-1 12:-0.678248 13:-1 14:-1 15:-1 16:-1 17:-1 18:-1 19:-1 20:-1 21:-1 
-0 -8192 8192 8192 8192 8192 8192 8192 8192 1:-1 2:-1 3:-1 4:-1 5:-1 6:-1 7:-1 8:-1 9:-1 10:-1 11:-1 12:-1 13:-1 14:-1 15:-1 16:-1 17:-1 18:-1 19:-1 20:-1 21:-1 
-0 -8192 8192 8192 8192 8192 8192 8192 8192 1:-1 2:-1 3:-1 4:-1 5:-1 6:-1 7:-1 8:-1 9:-1 10:-1 11:-1 12:-1 13:-1 14:-1 15:-1 16:-1 17:-1 18:-1 19:-1 20:-1 21:-1 
-0 -8192 8192 8192 8192 8192 8192 8192 8192 1:-1 2:-1 3:-1 4:-1 5:-1 6:-1 7:-1 8:-1 9:-1 10:-1 11:-1 12:-1 13:-1 14:-1 15:-1 16:-1 17:-1 18:-1 19:-1 20:-1 21:-1 
-0 -8192 8192 8192 8192 8192 8192 8192 8192 1:-1 2:-1 3:-1 4:-1 5:-1 6:-1 7:-1 8:-1 9:-1 10:-1 11:-1 12:-1 13:-1 14:-1 15:-1 16:-1 17:-1 18:-1 19:-1 20:-1 21:-1 
-0 -8192 8192 8192 8192 8192 8192 8192 8192 1:-1 2:-1 3:-1 4:-1 5:-1 6:-1 7:-1 8:-1 9:-1 10:-1 11:-1 12:-1 13:-1 14:-1 15:-1 16:-1 17:-1 18:-1 19:-1 20:-1 21:-1 
-0 -8192 8192 8192 8192 8192 8192 8192 8192 1:-1 2:-1 3:-1 4:-1 5:-1 6:-1 7:-1 8:-1 9:-1 10:-1 11:-1 12:-1 13:-1 14:-1 15:-1 16:-1 17:-1 18:-1 19:-1 20:-1 21:-1 
-0 -8192 8192 8192 8192 8192 8192 8192 8192 1:-1 2:-1 3:-1 4:-1 5:-1 6:-1 7:-1 8:-1 9:-1 10:-1 11:-1 12:-1 13:-1 14:-1 15:-1 16:-1 17:-1 18:-1 19:-1 20:-1 21:-1 
-0 -8192 8192 8192 8192 8192 8192 8192 8192 1:-1 2:-1 3:-1 4:-1 5:-1 6:-1 7:-1 8:-1 9:-1 10:-1 11:-1 12:-1 13:-1 14:-1 15:-1 16:-1 17:-1 18:-1 19:-1 20:-1 21:-1 
-0 -8192 8192 8192 8192 8192 8192 8192 8192 1:-1 2:-1 3:-1 4:-1 5:-1 6:-1 7:-1 8:-1 9:-1 10:-1 11:-1 12:-1 13:-1 14:-1 15:-1 16:-1 17:-1 18:-1 19:-1 20:-1 21:-1 
-0 -8192 8192 8192 8192 8192 8192 8192 8192 1:-1 2:-1 3:-1 4:-1 5:-1 6:-1 7:-1 8:-1 9:-1 10:-1 11:-1 12:-1 13:-1 14:-1 15:-1 16:-1 17:-1 18:-1 19:-1 20:-1 21:-1 
-0 -8192 8192 8192 8192 8192 8192 8192 8192 1:-1 2:-1 3:-1 4:-1 5:-1 6:-1 7:-1 8:-1 9:-1 10:-1 11:-1 12:-1 13:-1 14:-1 15:-1 16:-1 17:-1 18:-1 19:-1 20:-1 21:-1 
-0 -8192 8192 8192 8192 8192 8192 8192 8192 1:-1 2:-1 3:-1 4:-1 5:-1 6:-1 7:-1 8:-1 9:-1 10:-1 11:-1 12:-1 13:-1 14:-1 15:-1 16:-1 17:-1 18:-1 19:-1 20:-1 21:-1 
-0 -8192 8192 8192 8192 8192 8192 8192 8192 1:-1 2:-1 3:-1 4:-1 5:-1 6:-1 7:-1 8:-1 9:-1 10:-1 11:-1 12:-1 13:-1 14:-1 15:-1 16:-1 17:-1 18:-1 19:-1 20:-1 21:-1 
-0 -8192 8192 8192 8192 8192 8192 8192 8192 1:-1 2:-1 3:-1 4:-1 5:-1 6:-1 7:-1 8:-1 9:-1 10:-1 11:-1 12:-1 13:-1 14:-1 15:-1 16:-1 17:-1 18:-1 19:-1 20:-1 21:-1 
-0 -8192 8192 8192 8192 8192 8192 8192 8192 1:-1 2:-1 3:-1 4:-1 5:-1 6:-1 7:-1 8:-1 9:-1 10:-1 11:-1 12:-1 13:-1 14:-1 15:-1 16:-1 17:-1 18:-1 19:-1 20:-1 21:-1 
-0 -8192 8192 8192 8192 8192 8192 8192 8192 1:-1 2:-1 3:-1 4:-1 5:-1 6:-1 7:-1 8:-1 9:-1 10:-1 11:-1 12:-1 13:-1 14:-1 15:-1 16:-1 17:-1 18:-1 19:-1 20:-1 21:-1 
-0 -8192 8192 8192 8192 8192 8192 8192 8192 1:-1 2:-1 3:-1 4:-1 5:-1 6:-1 7:-1 8:-1 9:-1 10:-1 11:-1 12:-1 13:-1 14:-1 15:-1 16:-1 17:-1 18:-1 19:-1 20:-1 21:-1 
-0 -8192 8192 8192 8192 8192 8192 8192 8192 1:-1 2:-1 3:-1 4:-1 5:-1 6:-1 7:-1 8:-1 9:-1 10:-1 11:-1 12:-1 13:-1 14:-1 15:-1 16:-1 17:-1 18:-1 19:-1 20:-1 21:-1 
-0 -8192 8192 8192 8192 8192 8192 8192 8192 1:-1 2:-1 3:-1 4:-1 5:-1 6:-1 7:-1 8:-1 9:-1 10:-1 11:-1 12:-1 13:-1 14:-1 15:-1 16:-1 17:-1 18:-1 19:-1 20:-1 21:-1 
-0 -8192 8192 8192 8192 8192 8192 8192 8192 1:-1 2:-1 3:-1 4:-1 5:-1 6:-1 7:-1 8:-1 9:-1 10:-1 11:-1 12:-1 13:-1 14:-1 15:-1 16:-1 17:-1 18:-1 19:-1 20:-1 21:-1 
-1846.137997093416 -0 8192 0 8192 8192 8192 8192 8192 1:-0.6 2:0.691492 3:-1 4:-1 5:-1 6:-1 7:-1 8:-1 9:-1 10:-1 11:-1 12:-0.844488 13:-1 14:-1 15:-1 16:-1 17:-1 18:-1 19:-1 20:-1 21:-1 
-8192 -0 8192 0 8192 8192 8192 8192 8192 1:-0.6 2:0.913927 3:-1 4:-1 5:-1 6:-1 7:-1 8:-1 9:-1 10:-1 11:-1 12:-0.8384 13:-1 14:-1 15:-1 16:-1 17:-1 18:-1 19:-1 20:-1 21:-1 
-8192 -0 8192 0 8192 8192 8192 8192 8192 1:-0.6 2:0.927419 3:-1 4:-1 5:-1 6:-1 7:-1 8:-1 9:-1 10:-1 11:-1 12:-0.830383 13:-1 14:-1 15:-1 16:-1 17:-1 18:-1 19:-1 20:-1 21:-1 
-0 -0 8192 0 8192 8192 0 0 8192 1:-0.6 2:0.9748 3:-1 4:-1 5:-1 6:-1 7:-1 8:-1 9:-1 10:-1 11:-1 12:-0.824993 13:-1 14:-1 15:-1 16:-1 17:-1 18:-1 19:-1 20:-1 21:-1 
-0 -0 0 0 8192 8192 0 0 8192 1:-0.6 2:0.979068 3:-1 4:-1 5:-1 6:-1 7:-1 8:-1 9:-1 10:-1 11:-1 12:-0.829956 13:-1 14:-1 15:-1 16:-1 17:-1 18:-1 19:-1 20:-1 21:-1 
-0 -0.2735462014575107 1.881379463997189 0.7123131467248421 0.1966254182722657 0 0 1.311755340231876 73.00392934065093 1:0.2 2:0.984004 3:0.976827 4:0.950595 5:-0.250942 6:-0.408256 7:-0.643427 8:-1 9:-1 10:-1 11:-1 12:-0.759074 13:-0.789589 14:-0.804004 15:-0.828465 16:-0.807326 17:-0.885519 18:-1 19:-1 20:-1 21:-1 
-8192 -0 0 0 0 0 0 8192 8192 1:-0.6 2:0.912613 3:-1 4:-1 5:-1 6:-1 7:-1 8:-1 9:-1 10:-1 11:-1 12:-0.869007 13:-1 14:-1 15:-1 16:-1 17:-1 18:-1 19:-1 20:-1 21:-1 
-0 -8192 8192 8192 8192 8192 8192 8192 8192 1:-1 2:-1 3:-1 4:-1 5:-1 6:-1 7:-1 8:-1 9:-1 10:-1 11:-1 12:-1 13:-1 14:-1 15:-1 16:-1 17:-1 18:-1 19:-1 20:-1 21:-1 
-0 -0 0 0 8192 8192 0 0 8192 1:-0.6 2:0.979554 3:-1 4:-1 5:-1 6:-1 7:-1 8:-1 9:-1 10:-1 11:-1 12:-0.833153 13:-1 14:-1 15:-1 16:-1 17:-1 18:-1 19:-1 20:-1 21:-1 
-0 -8192 8192 8192 8192 8192 8192 8192 8192 1:-1 2:-1 3:-1 4:-1 5:-1 6:-1 7:-1 8:-1 9:-1 10:-1 11:-1 12:-1 13:-1 14:-1 15:-1 16:-1 17:-1 18:-1 19:-1 20:-1 21:-1 
-0.0008312281412742141 -8192 8192 8192 8192 8192 8192 8192 8192 1:-1 2:-1 3:-1 4:-1 5:-1 6:-1 7:-1 8:-1 9:-1 10:-1 11:-1 12:-1 13:-1 14:-1 15:-1 16:-1 17:-1 18:-1 19:-1 20:-1 21:-1 
-0 -8192 8192 8192 8192 8192 8192 8192 8192 1:-1 2:-1 3:-1 4:-1 5:-1 6:-1 7:-1 8:-1 9:-1 10:-1 11:-1 12:-1 13:-1 14:-1 15:-1 16:-1 17:-1 18:-1 19:-1 20:-1 21:-1 
-0 -8192 8192 8192 8192 8192 8192 8192 8192 1:-1 2:-1 3:-1 4:-1 5:-1 6:-1 7:-1 8:-1 9:-1 10:-1 11:-1 12:-1 13:-1 14:-1 15:-1 16:-1 17:-1 18:-1 19:-1 20:-1 21:-1 
-8192 -0 0 0 0 0 0 0 8192 1:-0.6 2:0.974214 3:-1 4:-1 5:-1 6:-1 7:-1 8:-1 9:-1 10:-1 11:-1 12:-0.85129 13:-1 14:-1 15:-1 16:-1 17:-1 18:-1 19:-1 20:-1 21:-1 
-8192 -0 0 0 0 0 0 0 8192 1:-0.6 2:0.970058 3:-1 4:-1 5:-1 6:-1 7:-1 8:-1 9:-1 10:-1 11:-1 12:-0.849101 13:-1 14:-1 15:-1 16:-1 17:-1 18:-1 19:-1 20:-1 21:-1 
-0 -0 0 0 0 0 0 0 8192 1:-0.6 2:0.974808 3:-1 4:-1 5:-1 6:-1 7:-1 8:-1 9:-1 10:-1 11:-1 12:-0.844679 13:-1 14:-1 15:-1 16:-1 17:-1 18:-1 19:-1 20:-1 21:-1 
-0 -8192 8192 8192 8192 8192 8192 8192 8192 1:-1 2:-1 3:-1 4:-1 5:-1 6:-1 7:-1 8:-1 9:-1 10:-1 11:-1 12:-1 13:-1 14:-1 15:-1 16:-1 17:-1 18:-1 19:-1 20:-1 21:-1 
-8192 -0 0 0 0 0 0 0 8192 1:-0.6 2:0.966248 3:-1 4:-1 5:-1 6:-1 7:-1 8:-1 9:-1 10:-1 11:-1 12:-0.850776 13:-1 14:-1 15:-1 16:-1 17:-1 18:-1 19:-1 20:-1 21:-1 
-0 -8192 8192 8192 8192 8192 8192 8192 8192 1:-1 2:-1 3:-1 4:-1 5:-1 6:-1 7:-1 8:-1 9:-1 10:-1 11:-1 12:-1 13:-1 14:-1 15:-1 16:-1 17:-1 18:-1 19:-1 20:-1 21:-1 
-0 -8192 8192 8192 8192 8192 8192 8192 8192 1:-1 2:-1 3:-1 4:-1 5:-1 6:-1 7:-1 8:-1 9:-1 10:-1 11:-1 12:-1 13:-1 14:-1 15:-1 16:-1 17:-1 18:-1 19:-1 20:-1 21:-1 
-0 -8192 8192 8192 8192 8192 8192 8192 8192 1:-1 2:-1 3:-1 4:-1 5:-1 6:-1 7:-1 8:-1 9:-1 10:-1 11:-1 12:-1 13:-1 14:-1 15:-1 16:-1 17:-1 18:-1 19:-1 20:-1 21:-1 
-0 -8192 8192 8192 8192 8192 8192 8192 8192 1:-1 2:-1 3:-1 4:-1 5:-1 6:-1 7:-1 8:-1 9:-1 10:-1 11:-1 12:-1 13:-1 14:-1 15:-1 16:-1 17:-1 18:-1 19:-1 20:-1 21:-1 
-0 -8192 8192 8192 8192 8192 8192 8192 8192 1:-1 2:-1 3:-1 4:-1 5:-1 6:-1 7:-1 8:-1 9:-1 10:-1 11:-1 12:-1 13:-1 14:-1 15:-1 16:-1 17:-1 18:-1 19:-1 20:-1 21:-1 
-0 -8192 8192 8192 8192 8192 8192 8192 8192 1:-1 2:-1 3:-1 4:-1 5:-1 6:-1 7:-1 8:-1 9:-1 10:-1 11:-1 12:-1 13:-1 14:-1 15:-1 16:-1 17:-1 18:-1 19:-1 20:-1 21:-1 
-0 -8192 8192 8192 8192 8192 8192 8192 8192 1:-1 2:-1 3:-1 4:-1 5:-1 6:-1 7:-1 8:-1 9:-1 10:-1 11:-1 12:-1 13:-1 14:-1 15:-1 16:-1 17:-1 18:-1 19:-1 20:-1 21:-1 
-0 -8192 8192 8192 8192 8192 8192 8192 8192 1:-1 2:-1 3:-1 4:-1 5:-1 6:-1 7:-1 8:-1 9:-1 10:-1 11:-1 12:-1 13:-1 14:-1 15:-1 16:-1 17:-1 18:-1 19:-1 20:-1 21:-1 
-0 -8192 8192 8192 8192 8192 8192 8192 8192 1:-1 2:-1 3:-1 4:-1 5:-1 6:-1 7:-1 8:-1 9:-1 10:-1 11:-1 12:-1 13:-1 14:-1 15:-1 16:-1 17:-1 18:-1 19:-1 20:-1 21:-1 
-0 -8192 8192 8192 8192 8192 8192 8192 8192 1:-1 2:-1 3:-1 4:-1 5:-1 6:-1 7:-1 8:-1 9:-1 10:-1 11:-1 12:-1 13:-1 14:-1 15:-1 16:-1 17:-1 18:-1 19:-1 20:-1 21:-1 
-0 -8192 8192 8192 8192 8192 8192 8192 8192 1:-1 2:-1 3:-1 4:-1 5:-1 6:-1 7:-1 8:-1 9:-1 10:-1 11:-1 12:-1 13:-1 14:-1 15:-1 16:-1 17:-1 18:-1 19:-1 20:-1 21:-1 
-0 -8192 8192 8192 8192 8192 8192 8192 8192 1:-1 2:-1 3:-1 4:-1 5:-1 6:-1 7:-1 8:-1 9:-1 10:-1 11:-1 12:-1 13:-1 14:-1 15:-1 16:-1 17:-1 18:-1 19:-1 20:-1 21:-1 
-0 -8192 8192 8192 8192 8192 8192 8192 8192 1:-1 2:-1 3:-1 4:-1 5:-1 6:-1 7:-1 8:-1 9:-1 10:-1 11:-1 12:-1 13:-1 14:-1 15:-1 16:-1 17:-1 18:-1 19:-1 20:-1 21:-1 
-0 -8192 8192 8192 8192 8192 8192 8192 8192 1:-1 2:-1 3:-1 4:-1 5:-1 6:-1 7:-1 8:-1 9:-1 10:-1 11:-1 12:-1 13:-1 14:-1 15:-1 16:-1 17:-1 18:-1 19:-1 20:-1 21:-1 
-206.7318706828711 -0 0 0 0 0 0 0 0 1:-0.2 2:0.859228 3:0.814187 4:0.792424 5:-1 6:-1 7:-1 8:-1 9:-1 10:-1 11:-1 12:-0.73671 13:-0.738327 14:-0.889759 15:-1 16:-1 17:-1 18:-1 19:-1 20:-1 21:-1 
-0 -0 6330.789120265259 0 8192 898.1530522107228 8192 0 8192 1:-0.6 2:0.55773 3:-1 4:-1 5:-1 6:-1 7:-1 8:-1 9:-1 10:-1 11:-1 12:-0.781748 13:-1 14:-1 15:-1 16:-1 17:-1 18:-1 19:-1 20:-1 21:-1 
-0 -0 0 0 8192 8192 8192 7935.388607254791 8192 1:-0.6 2:0.86408 3:-1 4:-1 5:-1 6:-1 7:-1 8:-1 9:-1 10:-1 11:-1 12:-0.773344 13:-1 14:-1 15:-1 16:-1 17:-1 18:-1 19:-1 20:-1 21:-1 
-0 -0 0 0 8192 8192 0 0 8192 1:-0.6 2:0.86342 3:-1 4:-1 5:-1 6:-1 7:-1 8:-1 9:-1 10:-1 11:-1 12:-0.76872 13:-1 14:-1 15:-1 16:-1 17:-1 18:-1 19:-1 20:-1 21:-1 
-0 -0 8192 0 8192 8192 8192 8192 8192 1:-0.6 2:0.849252 3:-1 4:-1 5:-1 6:-1 7:-1 8:-1 9:-1 10:-1 11:-1 12:-0.774517 13:-1 14:-1 15:-1 16:-1 17:-1 18:-1 19:-1 20:-1 21:-1 
-0 -0 6266.385731196898 0 8192 8192 8192 8192 8192 1:-0.6 2:0.838732 3:-1 4:-1 5:-1 6:-1 7:-1 8:-1 9:-1 10:-1 11:-1 12:-0.770389 13:-1 14:-1 15:-1 16:-1 17:-1 18:-1 19:-1 20:-1 21:-1 
-0 -8192 8192 8192 8192 8192 8192 8192 8192 1:-1 2:-1 3:-1 4:-1 5:-1 6:-1 7:-1 8:-1 9:-1 10:-1 11:-1 12:-1 13:-1 14:-1 15:-1 16:-1 17:-1 18:-1 19:-1 20:-1 21:-1 
-0 -0 0 0 8192 0 0 0 3981.344534335762 1:-0.6 2:0.815773 3:-1 4:-1 5:-1 6:-1 7:-1 8:-1 9:-1 10:-1 11:-1 12:-0.760925 13:-1 14:-1 15:-1 16:-1 17:-1 18:-1 19:-1 20:-1 21:-1 
-0 -0 0 0 8192 0 0 0 0 1:-0.6 2:0.795779 3:-1 4:-1 5:-1 6:-1 7:-1 8:-1 9:-1 10:-1 11:-1 12:-0.759692 13:-1 14:-1 15:-1 16:-1 17:-1 18:-1 19:-1 20:-1 21:-1 
-0 -0 0 0 8192 0 0 0 0 1:-0.6 2:0.785645 3:-1 4:-1 5:-1 6:-1 7:-1 8:-1 9:-1 10:-1 11:-1 12:-0.757153 13:-1 14:-1 15:-1 16:-1 17:-1 18:-1 19:-1 20:-1 21:-1 
-0 -8192 8192 8192 8192 8192 8192 8192 8192 1:-1 2:-1 3:-1 4:-1 5:-1 6:-1 7:-1 8:-1 9:-1 10:-1 11:-1 12:-1 13:-1 14:-1 15:-1 16:-1 17:-1 18:-1 19:-1 20:-1 21:-1 
-0 -8192 8192 8192 8192 8192 8192 8192 8192 1:-1 2:-1 3:-1 4:-1 5:-1 6:-1 7:-1 8:-1 9:-1 10:-1 11:-1 12:-1 13:-1 14:-1 15:-1 16:-1 17:-1 18:-1 19:-1 20:-1 21:-1 
-0 -8192 8192 8192 8192 8192 8192 8192 8192 1:-1 2:-1 3:-1 4:-1 5:-1 6:-1 7:-1 8:-1 9:-1 10:-1 11:-1 12:-1 13:-1 14:-1 15:-1 16:-1 17:-1 18:-1 19:-1 20:-1 21:-1 
-0 -8192 8192 8192 8192 8192 8192 8192 8192 1:-1 2:-1 3:-1 4:-1 5:-1 6:-1 7:-1 8:-1 9:-1 10:-1 11:-1 12:-1 13:-1 14:-1 15:-1 16:-1 17:-1 18:-1 19:-1 20:-1 21:-1 
-0 -8192 8192 8192 8192 8192 8192 8192 8192 1:-1 2:-1 3:-1 4:-1 5:-1 6:-1 7:-1 8:-1 9:-1 10:-1 11:-1 12:-1 13:-1 14:-1 15:-1 16:-1 17:-1 18:-1 19:-1 20:-1 21:-1 
-0 -8192 8192 8192 8192 8192 8192 8192 8192 1:-1 2:-1 3:-1 4:-1 5:-1 6:-1 7:-1 8:-1 9:-1 10:-1 11:-1 12:-1 13:-1 14:-1 15:-1 16:-1 17:-1 18:-1 19:-1 20:-1 21:-1 
-8190.156878818113 -8192 8192 8192 8192 8192 8192 8192 8192 1:-1 2:-1 3:-1 4:-1 5:-1 6:-1 7:-1 8:-1 9:-1 10:-1 11:-1 12:-1 13:-1 14:-1 15:-1 16:-1 17:-1 18:-1 19:-1 20:-1 21:-1 
-0 -668.7019330670123 0 0 0 0 0 0 0 1:-0.6 2:0.708756 3:-1 4:-1 5:-1 6:-1 7:-1 8:-1 9:-1 10:-1 11:-1 12:-0.714438 13:-1 14:-1 15:-1 16:-1 17:-1 18:-1 19:-1 20:-1 21:-1 
-8192 -8192 8192 8192 8192 8192 8192 8192 8192 1:-1 2:-1 3:-1 4:-1 5:-1 6:-1 7:-1 8:-1 9:-1 10:-1 11:-1 12:-1 13:-1 14:-1 15:-1 16:-1 17:-1 18:-1 19:-1 20:-1 21:-1 
-8192 -8192 8192 8192 8192 8192 8192 8192 8192 1:-1 2:-1 3:-1 4:-1 5:-1 6:-1 7:-1 8:-1 9:-1 10:-1 11:-1 12:-1 13:-1 14:-1 15:-1 16:-1 17:-1 18:-1 19:-1 20:-1 21:-1 
-8192 -8192 8192 8192 8192 8192 8192 8192 8192 1:-1 2:-1 3:-1 4:-1 5:-1 6:-1 7:-1 8:-1 9:-1 10:-1 11:-1 12:-1 13:-1 14:-1 15:-1 16:-1 17:-1 18:-1 19:-1 20:-1 21:-1 
-8192 -8192 8192 8192 8192 8192 8192 8192 8192 1:-1 2:-1 3:-1 4:-1 5:-1 6:-1 7:-1 8:-1 9:-1 10:-1 11:-1 12:-1 13:-1 14:-1 15:-1 16:-1 17:-1 18:-1 19:-1 20:-1 21:-1 
-0 -0 8192 0 0 0 599.3672844025103 8192 8192 1:-0.6 2:0.481919 3:-1 4:-1 5:-1 6:-1 7:-1 8:-1 9:-1 10:-1 11:-1 12:-0.910815 13:-1 14:-1 15:-1 16:-1 17:-1 18:-1 19:-1 20:-1 21:-1 
-8192 -0 8192 0 8192 8192 8192 8192 8192 1:-0.6 2:0.888406 3:-1 4:-1 5:-1 6:-1 7:-1 8:-1 9:-1 10:-1 11:-1 12:-0.830621 13:-1 14:-1 15:-1 16:-1 17:-1 18:-1 19:-1 20:-1 21:-1 
-62.51429464842125 -0 0 0 0 0 0 0 8192 1:-0.2 2:0.943269 3:0.839499 4:0.748322 5:-1 6:-1 7:-1 8:-1 9:-1 10:-1 11:-1 12:-0.833931 13:-0.841201 14:-0.898657 15:-1 16:-1 17:-1 18:-1 19:-1 20:-1 21:-1 
-0 -0 0 0 0 0 0 0 63.6590720466275 1:0.2 2:0.964966 3:0.902053 4:0.874161 5:0.80324 6:0.762139 7:0.516373 8:-1 9:-1 10:-1 11:-1 12:-0.764793 13:-0.790999 14:-0.800158 15:-0.842436 16:-0.823771 17:-0.838151 18:-1 19:-1 20:-1 21:-1 
-169.1336682291046 -0 0 0 0 0 0 0 0 1:-0.2 2:0.982756 3:0.942296 4:0.863249 5:-1 6:-1 7:-1 8:-1 9:-1 10:-1 11:-1 12:-0.765623 13:-0.791472 14:-0.860491 15:-1 16:-1 17:-1 18:-1 19:-1 20:-1 21:-1 
-0 -0 0 0 0 0 0 0 8192 1:-0.2 2:0.992304 3:0.959351 4:0.959624 5:-1 6:-1 7:-1 8:-1 9:-1 10:-1 11:-1 12:-0.841014 13:-0.875733 14:-0.906518 15:-1 16:-1 17:-1 18:-1 19:-1 20:-1 21:-1 
-0 -0.3492137871520233 2.501975412950156 0.9124571872561797 0.5290440489340106 0 0 1.676403984086775 2.902711289489446 1:0.6 2:0.994112 3:0.991309 4:0.984857 5:0.985752 6:0.966734 7:0.94631 8:1 9:0.900342 10:0.920328 11:0.906994 12:0.58052 13:0.909931 14:0.90517 15:1 16:-0.557797 17:-0.670891 18:-0.668029 19:-0.777789 20:-0.753012 21:-0.704153 
-0 -0.3474928840361384 2.49419648484753 0.9088363342647859 0.5273320669744845 0 0 1.670477045051186 2.894327651552041 1:0.6 2:0.99429 3:0.991175 4:0.985191 5:0.985752 6:0.967467 7:0.946829 8:0.805318 9:0.669849 10:0.643284 11:0.66585 12:0.552612 13:0.873675 14:0.868563 15:0.962514 16:-0.557482 17:-0.669924 18:-0.667822 19:-0.777407 20:-0.753411 21:-0.703757 
-0 -0.444092725350307 3.18456403222976 1.161097383995525 0.6711352795965715 0 0 2.133892899587616 0 1:0.2 2:0.996112 3:0.995583 4:0.994995 5:0.99243 6:0.997243 7:0.981043 8:-1 9:-1 10:-1 11:-1 12:-0.762343 13:-0.789008 14:-0.802912 15:-0.863355 16:-0.829315 17:-0.849622 18:-1 19:-1 20:-1 21:-1 
-0 -0 7.488275723811946 0 2984.216544021348 0 0 0 0 1:-0.2 2:0.928823 3:0.725215 4:0.439326 5:-1 6:-1 7:-1 8:-1 9:-1 10:-1 11:-1 12:-0.666626 13:-0.70887 14:-0.747051 15:-1 16:-1 17:-1 18:-1 19:-1 20:-1 21:-1 
-0 -0.1182717877014337 0.857766329033976 0.3117304116706383 0.1808441901911371 0 0 0.5738348131671104 0.9941336200642151 1:0.6 2:0.987034 3:0.975202 4:0.975119 5:0.971857 6:0.964744 7:0.94492 8:0.918971 9:0.833067 10:0.909157 11:0.766864 12:-0.663543 13:-0.653064 14:-0.650298 15:-0.684575 16:-0.607538 17:-0.728217 18:-0.703993 19:-0.754309 20:-0.686531 21:-0.996698 
-0 -0 0 0 0 0 0 0 3.749602173686665 1:0.2 2:0.985386 3:0.973274 4:0.941163 5:0.787205 6:0.707101 7:0.523931 8:-1 9:-1 10:-1 11:-1 12:-0.663982 13:-0.631179 14:-0.700967 15:-0.70679 16:-0.746868 17:-0.750646 18:-1 19:-1 20:-1 21:-1 
-0 -0 0 0 0 0 0 0 8192 1:-0.2 2:0.987696 3:0.949488 4:0.92893 5:-1 6:-1 7:-1 8:-1 9:-1 10:-1 11:-1 12:-0.843433 13:-0.89267 14:-0.900528 15:-1 16:-1 17:-1 18:-1 19:-1 20:-1 21:-1 
-8192 -0 0 0 0 0 0 7878.572779742894 8192 1:-0.6 2:0.948217 3:-1 4:-1 5:-1 6:-1 7:-1 8:-1 9:-1 10:-1 11:-1 12:-0.912397 13:-1 14:-1 15:-1 16:-1 17:-1 18:-1 19:-1 20:-1 21:-1 
-0 -0 0 0 8192 0 0 0 0 1:-0.6 2:0.784031 3:-1 4:-1 5:-1 6:-1 7:-1 8:-1 9:-1 10:-1 11:-1 12:-0.755567 13:-1 14:-1 15:-1 16:-1 17:-1 18:-1 19:-1 20:-1 21:-1 
-8192 -8192 8192 8192 8192 8192 8192 8192 8192 1:-1 2:-1 3:-1 4:-1 5:-1 6:-1 7:-1 8:-1 9:-1 10:-1 11:-1 12:-1 13:-1 14:-1 15:-1 16:-1 17:-1 18:-1 19:-1 20:-1 21:-1 
-0 -0 0 0 8192 0 0 0 8192 1:-0.6 2:0.979968 3:-1 4:-1 5:-1 6:-1 7:-1 8:-1 9:-1 10:-1 11:-1 12:-0.841086 13:-1 14:-1 15:-1 16:-1 17:-1 18:-1 19:-1 20:-1 21:-1 
-0 -0 0 0 8192 0 0 0 8192 1:-0.6 2:0.979126 3:-1 4:-1 5:-1 6:-1 7:-1 8:-1 9:-1 10:-1 11:-1 12:-0.841748 13:-1 14:-1 15:-1 16:-1 17:-1 18:-1 19:-1 20:-1 21:-1 
-0 -0 0 0 8192 0 0 0 0 1:-0.6 2:0.659251 3:-1 4:-1 5:-1 6:-1 7:-1 8:-1 9:-1 10:-1 11:-1 12:-0.761926 13:-1 14:-1 15:-1 16:-1 17:-1 18:-1 19:-1 20:-1 21:-1 
-8192 -8192 8192 8192 8192 8192 8192 8192 8192 1:-1 2:-1 3:-1 4:-1 5:-1 6:-1 7:-1 8:-1 9:-1 10:-1 11:-1 12:-1 13:-1 14:-1 15:-1 16:-1 17:-1 18:-1 19:-1 20:-1 21:-1 
-0 -0 0 0 8192 0 0 0 0 1:-0.6 2:0.591752 3:-1 4:-1 5:-1 6:-1 7:-1 8:-1 9:-1 10:-1 11:-1 12:-0.764644 13:-1 14:-1 15:-1 16:-1 17:-1 18:-1 19:-1 20:-1 21:-1 
-0 -0 0 0 0 0 0 0 4118.270054075473 1:-0.2 2:0.98189 3:0.923168 4:0.842624 5:-1 6:-1 7:-1 8:-1 9:-1 10:-1 11:-1 12:-0.766692 13:-0.810421 14:-0.894361 15:-1 16:-1 17:-1 18:-1 19:-1 20:-1 21:-1 
-0 -0 0 0 2575.560057744418 0 0 0 8192 1:-0.6 2:0.983632 3:-1 4:-1 5:-1 6:-1 7:-1 8:-1 9:-1 10:-1 11:-1 12:-0.843707 13:-1 14:-1 15:-1 16:-1 17:-1 18:-1 19:-1 20:-1 21:-1 
-0 -0 0 0 0 0 0 0 8192 1:-0.2 2:0.985168 3:0.972111 4:0.920553 5:-1 6:-1 7:-1 8:-1 9:-1 10:-1 11:-1 12:-0.767761 13:-0.811275 14:-0.891876 15:-1 16:-1 17:-1 18:-1 19:-1 20:-1 21:-1 
-0 -0 0 0 8192 8192 1244.705489136927 0 8192 1:-0.6 2:0.867008 3:-1 4:-1 5:-1 6:-1 7:-1 8:-1 9:-1 10:-1 11:-1 12:-0.769279 13:-1 14:-1 15:-1 16:-1 17:-1 18:-1 19:-1 20:-1 21:-1 
-0 -0 0 0 8192 8192 1387.903150897725 0 8192 1:-0.6 2:0.896021 3:-1 4:-1 5:-1 6:-1 7:-1 8:-1 9:-1 10:-1 11:-1 12:-0.769819 13:-1 14:-1 15:-1 16:-1 17:-1 18:-1 19:-1 20:-1 21:-1 
-8192 -8192 8192 8192 8192 8192 8192 8192 8192 1:-1 2:-1 3:-1 4:-1 5:-1 6:-1 7:-1 8:-1 9:-1 10:-1 11:-1 12:-1 13:-1 14:-1 15:-1 16:-1 17:-1 18:-1 19:-1 20:-1 21:-1 
-0 -0 0 0 8192 8192 0 0 8192 1:-0.6 2:0.926197 3:-1 4:-1 5:-1 6:-1 7:-1 8:-1 9:-1 10:-1 11:-1 12:-0.768165 13:-1 14:-1 15:-1 16:-1 17:-1 18:-1 19:-1 20:-1 21:-1 
-0 -0 0 0 8192 8192 0 0 0 1:-0.6 2:0.943433 3:-1 4:-1 5:-1 6:-1 7:-1 8:-1 9:-1 10:-1 11:-1 12:-0.766891 13:-1 14:-1 15:-1 16:-1 17:-1 18:-1 19:-1 20:-1 21:-1 
-0 -0 0 0 8192 8192 0 0 8192 1:-0.6 2:0.929383 3:-1 4:-1 5:-1 6:-1 7:-1 8:-1 9:-1 10:-1 11:-1 12:-0.768593 13:-1 14:-1 15:-1 16:-1 17:-1 18:-1 19:-1 20:-1 21:-1 
-0 -0 0 0 8192 8192 0 0 8192 1:-0.6 2:0.918465 3:-1 4:-1 5:-1 6:-1 7:-1 8:-1 9:-1 10:-1 11:-1 12:-0.768753 13:-1 14:-1 15:-1 16:-1 17:-1 18:-1 19:-1 20:-1 21:-1 
-0 -0 0 0 8192 8192 0 0 510.1381619828494 1:-0.6 2:0.936153 3:-1 4:-1 5:-1 6:-1 7:-1 8:-1 9:-1 10:-1 11:-1 12:-0.766012 13:-1 14:-1 15:-1 16:-1 17:-1 18:-1 19:-1 20:-1 21:-1 
-0 -0 0 0 8192 8192 0 0 0 1:-0.6 2:0.944411 3:-1 4:-1 5:-1 6:-1 7:-1 8:-1 9:-1 10:-1 11:-1 12:-0.763582 13:-1 14:-1 15:-1 16:-1 17:-1 18:-1 19:-1 20:-1 21:-1 
-8192 -8192 8192 8192 8192 8192 8192 8192 8192 1:-1 2:-1 3:-1 4:-1 5:-1 6:-1 7:-1 8:-1 9:-1 10:-1 11:-1 12:-1 13:-1 14:-1 15:-1 16:-1 17:-1 18:-1 19:-1 20:-1 21:-1 
-0 -0 790.4704776356706 0 8192 3642.912738133805 0 0 0 1:-0.6 2:0.950289 3:-1 4:-1 5:-1 6:-1 7:-1 8:-1 9:-1 10:-1 11:-1 12:-0.762326 13:-1 14:-1 15:-1 16:-1 17:-1 18:-1 19:-1 20:-1 21:-1 
-0 -0 8192 0 8192 8192 0 0 0 1:-0.6 2:0.953183 3:-1 4:-1 5:-1 6:-1 7:-1 8:-1 9:-1 10:-1 11:-1 12:-0.764115 13:-1 14:-1 15:-1 16:-1 17:-1 18:-1 19:-1 20:-1 21:-1 
-8192 -8192 8192 8192 8192 8192 8192 8192 8192 1:-1 2:-1 3:-1 4:-1 5:-1 6:-1 7:-1 8:-1 9:-1 10:-1 11:-1 12:-1 13:-1 14:-1 15:-1 16:-1 17:-1 18:-1 19:-1 20:-1 21:-1 
-0 -0 8192 0 8192 8192 0 0 0 1:-0.6 2:0.953371 3:-1 4:-1 5:-1 6:-1 7:-1 8:-1 9:-1 10:-1 11:-1 12:-0.764105 13:-1 14:-1 15:-1 16:-1 17:-1 18:-1 19:-1 20:-1 21:-1 
-8192 -8192 8192 8192 8192 8192 8192 8192 8192 1:-1 2:-1 3:-1 4:-1 5:-1 6:-1 7:-1 8:-1 9:-1 10:-1 11:-1 12:-1 13:-1 14:-1 15:-1 16:-1 17:-1 18:-1 19:-1 20:-1 21:-1 
-8192 -8192 8192 8192 8192 8192 8192 8192 8192 1:-1 2:-1 3:-1 4:-1 5:-1 6:-1 7:-1 8:-1 9:-1 10:-1 11:-1 12:-1 13:-1 14:-1 15:-1 16:-1 17:-1 18:-1 19:-1 20:-1 21:-1 
-8192 -8192 8192 8192 8192 8192 8192 8192 8192 1:-1 2:-1 3:-1 4:-1 5:-1 6:-1 7:-1 8:-1 9:-1 10:-1 11:-1 12:-1 13:-1 14:-1 15:-1 16:-1 17:-1 18:-1 19:-1 20:-1 21:-1 
-0 -0 8192 0 8192 8192 0 0 0 1:-0.6 2:0.956263 3:-1 4:-1 5:-1 6:-1 7:-1 8:-1 9:-1 10:-1 11:-1 12:-0.762925 13:-1 14:-1 15:-1 16:-1 17:-1 18:-1 19:-1 20:-1 21:-1 
-0 -0 0 0 0 0 0 0 8192 1:-0.6 2:0.977756 3:-1 4:-1 5:-1 6:-1 7:-1 8:-1 9:-1 10:-1 11:-1 12:-0.850654 13:-1 14:-1 15:-1 16:-1 17:-1 18:-1 19:-1 20:-1 21:-1 
-8192 -8192 8192 8192 8192 8192 8192 8192 8192 1:-1 2:-1 3:-1 4:-1 5:-1 6:-1 7:-1 8:-1 9:-1 10:-1 11:-1 12:-1 13:-1 14:-1 15:-1 16:-1 17:-1 18:-1 19:-1 20:-1 21:-1 
-8192 -8192 8192 8192 8192 8192 8192 8192 8192 1:-1 2:-1 3:-1 4:-1 5:-1 6:-1 7:-1 8:-1 9:-1 10:-1 11:-1 12:-1 13:-1 14:-1 15:-1 16:-1 17:-1 18:-1 19:-1 20:-1 21:-1 
-0 -0 0 0 0 0 0 0 8192 1:-0.6 2:0.98766 3:-1 4:-1 5:-1 6:-1 7:-1 8:-1 9:-1 10:-1 11:-1 12:-0.849143 13:-1 14:-1 15:-1 16:-1 17:-1 18:-1 19:-1 20:-1 21:-1 
-0 -0 0 0 0 0 0 0 8192 1:-0.2 2:0.991854 3:0.944362 4:0.944891 5:-1 6:-1 7:-1 8:-1 9:-1 10:-1 11:-1 12:-0.763657 13:-0.797431 14:-0.904473 15:-1 16:-1 17:-1 18:-1 19:-1 20:-1 21:-1 
-0 -0.387378322651765 0.6269948497181601 1.007414648240679 0 0 0 1.789431797097504 0 1:-0.2 2:0.998792 3:0.995249 4:0.995199 5:-1 6:-1 7:-1 8:-1 9:-1 10:-1 11:-1 12:-0.847704 13:-0.903476 14:-0.905067 15:-1 16:-1 17:-1 18:-1 19:-1 20:-1 21:-1 
-0 -0 0 0 0 0 0 0 2532.438670862069 1:-0.2 2:0.999844 3:0.995469 4:0.994755 5:-1 6:-1 7:-1 8:-1 9:-1 10:-1 11:-1 12:-0.84743 13:-0.901829 14:-0.904079 15:-1 16:-1 17:-1 18:-1 19:-1 20:-1 21:-1 
-0 -0 0 0 0 0 0 0 8192 1:-0.6 2:0.992654 3:-1 4:-1 5:-1 6:-1 7:-1 8:-1 9:-1 10:-1 11:-1 12:-0.917735 13:-1 14:-1 15:-1 16:-1 17:-1 18:-1 19:-1 20:-1 21:-1 
-0 -0 0 0 0 0 0 0 8192 1:-0.2 2:0.979112 3:0.979376 4:0.919062 5:-1 6:-1 7:-1 8:-1 9:-1 10:-1 11:-1 12:-0.765313 13:-0.803066 14:-0.896092 15:-1 16:-1 17:-1 18:-1 19:-1 20:-1 21:-1 
-0 -0 0 0 0 0 0 0 8192 1:-0.6 2:0.955415 3:-1 4:-1 5:-1 6:-1 7:-1 8:-1 9:-1 10:-1 11:-1 12:-0.912135 13:-1 14:-1 15:-1 16:-1 17:-1 18:-1 19:-1 20:-1 21:-1 
-0 -0 0 0 8192 0 0 0 0 1:-0.6 2:0.932449 3:-1 4:-1 5:-1 6:-1 7:-1 8:-1 9:-1 10:-1 11:-1 12:-0.761884 13:-1 14:-1 15:-1 16:-1 17:-1 18:-1 19:-1 20:-1 21:-1 
-3147.936879861389 -0 0 0 0 0 0 0 8192 1:-0.6 2:0.978548 3:-1 4:-1 5:-1 6:-1 7:-1 8:-1 9:-1 10:-1 11:-1 12:-0.853745 13:-1 14:-1 15:-1 16:-1 17:-1 18:-1 19:-1 20:-1 21:-1 
-0 -0.2345711613038731 1.686018825190756 0.6141055226923928 0.3698369824461876 0 0 1.129599578089119 0 1:0.2 2:0.994018 3:0.872166 4:0.838018 5:0.826849 6:0.77557 7:0.36487 8:-1 9:-1 10:-1 11:-1 12:-0.667601 13:-0.622013 14:-0.705092 15:-0.730706 16:-0.693576 17:-0.807752 18:-1 19:-1 20:-1 21:-1 
-0 -0 0 0 8192 6729.884858222639 0 262.9339364220723 8192 1:-0.6 2:0.806999 3:-1 4:-1 5:-1 6:-1 7:-1 8:-1 9:-1 10:-1 11:-1 12:-0.762284 13:-1 14:-1 15:-1 16:-1 17:-1 18:-1 19:-1 20:-1 21:-1 
-0 -0 0 0 0 0 0 0 8192 1:-0.6 2:0.99693 3:-1 4:-1 5:-1 6:-1 7:-1 8:-1 9:-1 10:-1 11:-1 12:-0.88745 13:-1 14:-1 15:-1 16:-1 17:-1 18:-1 19:-1 20:-1 21:-1 
-8192 -8192 8192 8192 8192 8192 8192 8192 8192 1:-1 2:-1 3:-1 4:-1 5:-1 6:-1 7:-1 8:-1 9:-1 10:-1 11:-1 12:-1 13:-1 14:-1 15:-1 16:-1 17:-1 18:-1 19:-1 20:-1 21:-1 
-0 -0 0 0 6251.403629315375 0 0 0 0 1:-0.6 2:0.756993 3:-1 4:-1 5:-1 6:-1 7:-1 8:-1 9:-1 10:-1 11:-1 12:-0.755055 13:-1 14:-1 15:-1 16:-1 17:-1 18:-1 19:-1 20:-1 21:-1 
-8192 -8192 8192 8192 8192 8192 8192 8192 8192 1:-1 2:-1 3:-1 4:-1 5:-1 6:-1 7:-1 8:-1 9:-1 10:-1 11:-1 12:-1 13:-1 14:-1 15:-1 16:-1 17:-1 18:-1 19:-1 20:-1 21:-1 
-0 -918.5745377276781 0 0 0 0 0 4110.396397893127 0 1:-0.6 2:0.857872 3:-1 4:-1 5:-1 6:-1 7:-1 8:-1 9:-1 10:-1 11:-1 12:-0.728804 13:-1 14:-1 15:-1 16:-1 17:-1 18:-1 19:-1 20:-1 21:-1 
-0 -0 0 0 0 0 0 0 8192 1:-0.6 2:0.997434 3:-1 4:-1 5:-1 6:-1 7:-1 8:-1 9:-1 10:-1 11:-1 12:-0.905896 13:-1 14:-1 15:-1 16:-1 17:-1 18:-1 19:-1 20:-1 21:-1 
-0 -0 0 0 0 0 0 0 8192 1:-0.6 2:0.999768 3:-1 4:-1 5:-1 6:-1 7:-1 8:-1 9:-1 10:-1 11:-1 12:-0.90535 13:-1 14:-1 15:-1 16:-1 17:-1 18:-1 19:-1 20:-1 21:-1 
-0 -0 0 0 0 0 0 0 8192 1:-0.6 2:0.999874 3:-1 4:-1 5:-1 6:-1 7:-1 8:-1 9:-1 10:-1 11:-1 12:-0.904341 13:-1 14:-1 15:-1 16:-1 17:-1 18:-1 19:-1 20:-1 21:-1 
-0 -0 0 0 42.91793351235554 0 0 0 0 1:-0.2 2:0.989524 3:0.955918 4:0.931163 5:-1 6:-1 7:-1 8:-1 9:-1 10:-1 11:-1 12:-0.718323 13:-0.777407 14:-0.858196 15:-1 16:-1 17:-1 18:-1 19:-1 20:-1 21:-1 
-0 -0 0 0 0 0 0 0 8192 1:-0.6 2:0.993456 3:-1 4:-1 5:-1 6:-1 7:-1 8:-1 9:-1 10:-1 11:-1 12:-0.863055 13:-1 14:-1 15:-1 16:-1 17:-1 18:-1 19:-1 20:-1 21:-1 
-0 -0 8192 0 0 0 4433.51763006752 8192 8192 1:-0.6 2:0.677269 3:-1 4:-1 5:-1 6:-1 7:-1 8:-1 9:-1 10:-1 11:-1 12:-0.904142 13:-1 14:-1 15:-1 16:-1 17:-1 18:-1 19:-1 20:-1 21:-1 
-0 -0 8192 0 0 0 0 8192 8192 1:-0.6 2:0.643521 3:-1 4:-1 5:-1 6:-1 7:-1 8:-1 9:-1 10:-1 11:-1 12:-0.910082 13:-1 14:-1 15:-1 16:-1 17:-1 18:-1 19:-1 20:-1 21:-1 
-0 -0.178886519274306 1.289027680552434 0.4678840670013866 0.2656392585950004 0 0 0.8640293261377232 0 1:0.2 2:0.994658 3:0.991675 4:0.982187 5:0.546723 6:0.429216 7:0.419736 8:-1 9:-1 10:-1 11:-1 12:-0.758571 13:-0.784705 14:-0.826868 15:-0.853086 16:-0.841046 17:-0.865463 18:-1 19:-1 20:-1 21:-1 
-0 -0 13.96818172705885 0 0 0 0 0 239.4445292177816 1:-0.2 2:0.990516 3:0.572655 4:0.453077 5:-1 6:-1 7:-1 8:-1 9:-1 10:-1 11:-1 12:-0.754531 13:-0.778625 14:-0.899728 15:-1 16:-1 17:-1 18:-1 19:-1 20:-1 21:-1 
-0 -0 0 0 0 0 0 0 356.3098400570947 1:0.2 2:0.999478 3:0.978651 4:0.975507 5:0.701857 6:0.68142 7:0.588237 8:-1 9:-1 10:-1 11:-1 12:-0.756696 13:-0.780507 14:-0.824877 15:-0.85399 16:-0.849851 17:-0.858157 18:-1 19:-1 20:-1 21:-1 
-8192 -0 434.1699583783267 305.1765661980968 0 0 0 8192 8192 1:-0.6 2:0.821594 3:-1 4:-1 5:-1 6:-1 7:-1 8:-1 9:-1 10:-1 11:-1 12:-0.919977 13:-1 14:-1 15:-1 16:-1 17:-1 18:-1 19:-1 20:-1 21:-1 
-0 -0.2011742460196143 1.509508452955895 0.5458307208273341 0.3188426427788479 0 0 1.007002978719263 1.748786813369505 1:0.6 2:0.984402 3:0.984689 4:0.938283 5:0.856929 6:0.855958 7:0.823868 8:0.465668 9:0.276483 10:0.103009 11:0.0150689 12:-0.637818 13:-0.58061 14:-0.629966 15:-0.669893 16:-0.557943 17:-0.631006 18:-0.702791 19:-0.748484 20:-0.7858 21:-0.720275 
-0 -0.09931805639123666 0.645051052922774 0.2398166117352628 0.1367304826144841 0 0 0.4365226315236985 0.7492872727556552 1:0.6 2:0.985088 3:0.982821 4:0.936054 5:0.829572 6:0.834127 7:0.807582 8:0.409418 9:0.218839 10:0.140908 11:0.0527472 12:-0.638681 13:-0.571656 14:-0.628351 15:-0.674619 16:-0.558573 17:-0.624768 18:-0.698638 19:-0.756996 20:-0.775801 21:-0.726543 
-0 -0.2302465647938846 1.6972544587031 0.6247352072992575 0.282411912845029 0 0 1.148451829624299 0 1:0.2 2:0.828972 3:0.821504 4:0.808734 5:0.385059 6:-0.22381 7:-0.275754 8:-1 9:-1 10:-1 11:-1 12:-0.642282 13:-0.632168 14:-0.709058 15:-0.689517 16:-0.724858 17:-0.802642 18:-1 19:-1 20:-1 21:-1 
-0 -0.08078376277513877 0.5419886597058898 0.1895011612516425 0.09621691596976986 0 0 0.3496825629395769 1.660001482873012 1:0.2 2:0.835858 3:0.833448 4:0.762407 5:0.343325 6:-0.320936 7:-0.40634 8:-1 9:-1 10:-1 11:-1 12:-0.645007 13:-0.628041 14:-0.710441 15:-0.69202 16:-0.726568 17:-0.798047 18:-1 19:-1 20:-1 21:-1 
-0 -0.004251199117735617 0.009344336961649869 0.004561673668005882 0.002148341609676765 0 0 0.008232912871537774 0.01821516054417814 1:0.6 2:0.988896 3:0.964949 4:0.916798 5:0.867318 6:0.844018 7:0.8316 8:0.272474 9:0.0973972 10:-0.176159 11:-0.179288 12:-0.649601 13:-0.580425 14:-0.624754 15:-0.689147 16:-0.5733 17:-0.683336 18:-0.682786 19:-0.790869 20:-0.739456 21:-0.73594 
-0 -0.1018763377461607 0.7330416824991912 0.2623497208152789 0.2927420303194781 0 0 0.481956119956217 11.07996171485999 1:0.2 2:0.974346 3:0.87927 4:0.83554 5:0.0372323 6:-0.196114 7:-0.215614 8:-1 9:-1 10:-1 11:-1 12:-0.650084 13:-0.582405 14:-0.624807 15:-0.800256 16:-0.824755 17:-0.861518 18:-1 19:-1 20:-1 21:-1 
-0 -0.1828458215460711 1.337261548199394 0.486188299941699 0.282726610529337 0 0 0.8940403892623751 1.547854419992941 1:0.6 2:0.997522 3:0.980428 4:0.970084 5:0.879622 6:0.860875 7:0.842511 8:0.190044 9:0.118523 10:-0.0680605 11:-0.0760754 12:-0.651266 13:-0.585324 14:-0.625437 15:-0.693926 16:-0.579702 17:-0.686701 18:-0.680369 19:-0.793553 20:-0.750383 21:-0.724418 
-8192 -0 0 0 0 0 0 8192 8192 1:-0.6 2:0.886918 3:-1 4:-1 5:-1 6:-1 7:-1 8:-1 9:-1 10:-1 11:-1 12:-0.910569 13:-1 14:-1 15:-1 16:-1 17:-1 18:-1 19:-1 20:-1 21:-1 
-0 -0 0 0 0 0 0 0 6779.699228080039 1:-0.2 2:0.958161 3:0.899888 4:0.868602 5:-1 6:-1 7:-1 8:-1 9:-1 10:-1 11:-1 12:-0.775936 13:-0.801786 14:-0.890908 15:-1 16:-1 17:-1 18:-1 19:-1 20:-1 21:-1 
-0 -0.483555751394447 3.469768670581198 1.264287894375524 0.7339779816276054 0 0 2.324417819723135 4.01866478963086 1:0.6 2:0.993758 3:0.934089 4:0.918469 5:0.920005 6:0.898246 7:0.793243 8:0.0934418 9:-0.196987 10:-0.213966 11:-0.780069 12:-0.706304 13:-0.687464 14:-0.686657 15:-0.678823 16:-0.590333 17:-0.694785 18:-0.675652 19:-0.776699 20:-0.76373 21:-0.735091 
-0 -0.6228292366284686 6.711803777129244 1.041679943982219 22.69732266805671 0 0 11.88492625153322 23.68082015716262 1:-0.2 2:0.912049 3:-0.117546 4:-0.67766 5:-1 6:-1 7:-1 8:-1 9:-1 10:-1 11:-1 12:-0.717344 13:-0.707591 14:-0.872804 15:-1 16:-1 17:-1 18:-1 19:-1 20:-1 21:-1 
-0 -0.167894808277876 1.231094937288606 0.4463334452115255 0.4660926706339116 0 0 0.8173145260178185 3.79226242981689 1:0.2 2:0.978686 3:0.911938 4:0.83128 5:-0.00510222 6:-0.220002 7:-0.788029 8:-1 9:-1 10:-1 11:-1 12:-0.71147 13:-0.696315 14:-0.72571 15:-0.796442 16:-0.811529 17:-0.88106 18:-1 19:-1 20:-1 21:-1 
-8191.73254156347 -8192 8192 8192 8192 8192 8192 8192 8192 1:-1 2:-1 3:-1 4:-1 5:-1 6:-1 7:-1 8:-1 9:-1 10:-1 11:-1 12:-1 13:-1 14:-1 15:-1 16:-1 17:-1 18:-1 19:-1 20:-1 21:-1 
-0 -0 0 0 0 0 0 0 8192 1:-0.2 2:0.949039 3:0.916614 4:0.833491 5:-1 6:-1 7:-1 8:-1 9:-1 10:-1 11:-1 12:-0.781091 13:-0.809885 14:-0.881688 15:-1 16:-1 17:-1 18:-1 19:-1 20:-1 21:-1 
-0 -0 0 0 0 0 0 0 8192 1:-0.6 2:0.992132 3:-1 4:-1 5:-1 6:-1 7:-1 8:-1 9:-1 10:-1 11:-1 12:-0.906872 13:-1 14:-1 15:-1 16:-1 17:-1 18:-1 19:-1 20:-1 21:-1 
-0 -0 0 0 0 0 0 0 109.3415129074739 1:0.2 2:0.998332 3:0.968572 4:0.962524 5:0.948846 6:0.863389 7:0.84161 8:-1 9:-1 10:-1 11:-1 12:-0.781604 13:-0.808336 14:-0.810527 15:-0.872264 16:-0.834388 17:-0.854916 18:-1 19:-1 20:-1 21:-1 
-0 -0 0 0 0 0 0 0 8192 1:-0.2 2:0.969032 3:0.949458 4:0.862576 5:-1 6:-1 7:-1 8:-1 9:-1 10:-1 11:-1 12:-0.839473 13:-0.880169 14:-0.905581 15:-1 16:-1 17:-1 18:-1 19:-1 20:-1 21:-1 
-8192 -0 0 0 0 0 0 8192 8192 1:-0.6 2:0.950597 3:-1 4:-1 5:-1 6:-1 7:-1 8:-1 9:-1 10:-1 11:-1 12:-0.898715 13:-1 14:-1 15:-1 16:-1 17:-1 18:-1 19:-1 20:-1 21:-1 
-0 -0 0 0 0 0 0 0 8192 1:-0.2 2:0.969038 3:0.94872 4:0.847469 5:-1 6:-1 7:-1 8:-1 9:-1 10:-1 11:-1 12:-0.783472 13:-0.816319 14:-0.878595 15:-1 16:-1 17:-1 18:-1 19:-1 20:-1 21:-1 
-8192 -0 0 0 0 0 0 0 8192 1:-0.6 2:0.97263 3:-1 4:-1 5:-1 6:-1 7:-1 8:-1 9:-1 10:-1 11:-1 12:-0.847371 13:-1 14:-1 15:-1 16:-1 17:-1 18:-1 19:-1 20:-1 21:-1 
-0 -0 8192 0 8192 8192 8192 8192 8192 1:-0.6 2:0.808557 3:-1 4:-1 5:-1 6:-1 7:-1 8:-1 9:-1 10:-1 11:-1 12:-0.778833 13:-1 14:-1 15:-1 16:-1 17:-1 18:-1 19:-1 20:-1 21:-1 
-0 -0 0 0 8192 0 0 0 8192 1:-0.6 2:0.973816 3:-1 4:-1 5:-1 6:-1 7:-1 8:-1 9:-1 10:-1 11:-1 12:-0.841896 13:-1 14:-1 15:-1 16:-1 17:-1 18:-1 19:-1 20:-1 21:-1 
-8192 -8192 8192 8192 8192 8192 8192 8192 8192 1:-1 2:-1 3:-1 4:-1 5:-1 6:-1 7:-1 8:-1 9:-1 10:-1 11:-1 12:-1 13:-1 14:-1 15:-1 16:-1 17:-1 18:-1 19:-1 20:-1 21:-1 
-8192 -0 0 0 8192 8192 0 0 8192 1:-0.6 2:0.959827 3:-1 4:-1 5:-1 6:-1 7:-1 8:-1 9:-1 10:-1 11:-1 12:-0.839288 13:-1 14:-1 15:-1 16:-1 17:-1 18:-1 19:-1 20:-1 21:-1 
-8192 -0 0 0 8192 0 0 0 8192 1:-0.6 2:0.960169 3:-1 4:-1 5:-1 6:-1 7:-1 8:-1 9:-1 10:-1 11:-1 12:-0.840657 13:-1 14:-1 15:-1 16:-1 17:-1 18:-1 19:-1 20:-1 21:-1 
-8192 -8192 8192 8192 8192 8192 8192 8192 8192 1:-1 2:-1 3:-1 4:-1 5:-1 6:-1 7:-1 8:-1 9:-1 10:-1 11:-1 12:-1 13:-1 14:-1 15:-1 16:-1 17:-1 18:-1 19:-1 20:-1 21:-1 
-8192 -0 0 0 5629.269243707067 0 8192 0 8192 1:-0.6 2:0.943369 3:-1 4:-1 5:-1 6:-1 7:-1 8:-1 9:-1 10:-1 11:-1 12:-0.84167 13:-1 14:-1 15:-1 16:-1 17:-1 18:-1 19:-1 20:-1 21:-1 
-8192 -8192 8192 8192 8192 8192 8192 8192 8192 1:-1 2:-1 3:-1 4:-1 5:-1 6:-1 7:-1 8:-1 9:-1 10:-1 11:-1 12:-1 13:-1 14:-1 15:-1 16:-1 17:-1 18:-1 19:-1 20:-1 21:-1 
-8192 -8192 8192 8192 8192 8192 8192 8192 8192 1:-1 2:-1 3:-1 4:-1 5:-1 6:-1 7:-1 8:-1 9:-1 10:-1 11:-1 12:-1 13:-1 14:-1 15:-1 16:-1 17:-1 18:-1 19:-1 20:-1 21:-1 
-8192 -0 8192 0 8192 8192 8192 8192 8192 1:-0.6 2:0.922015 3:-1 4:-1 5:-1 6:-1 7:-1 8:-1 9:-1 10:-1 11:-1 12:-0.838613 13:-1 14:-1 15:-1 16:-1 17:-1 18:-1 19:-1 20:-1 21:-1 
-8192 -8192 8192 8192 8192 8192 8192 8192 8192 1:-1 2:-1 3:-1 4:-1 5:-1 6:-1 7:-1 8:-1 9:-1 10:-1 11:-1 12:-1 13:-1 14:-1 15:-1 16:-1 17:-1 18:-1 19:-1 20:-1 21:-1 
-8192 -8192 8192 8192 8192 8192 8192 8192 8192 1:-1 2:-1 3:-1 4:-1 5:-1 6:-1 7:-1 8:-1 9:-1 10:-1 11:-1 12:-1 13:-1 14:-1 15:-1 16:-1 17:-1 18:-1 19:-1 20:-1 21:-1 
-8192 -0 0 0 0 0 0 8192 8192 1:-0.6 2:0.926265 3:-1 4:-1 5:-1 6:-1 7:-1 8:-1 9:-1 10:-1 11:-1 12:-0.856035 13:-1 14:-1 15:-1 16:-1 17:-1 18:-1 19:-1 20:-1 21:-1 
-8192 -0 0 0 0 0 0 0 8192 1:-0.6 2:0.960931 3:-1 4:-1 5:-1 6:-1 7:-1 8:-1 9:-1 10:-1 11:-1 12:-0.865572 13:-1 14:-1 15:-1 16:-1 17:-1 18:-1 19:-1 20:-1 21:-1 
-8192 -0 0 0 0 0 0 0 8192 1:-0.6 2:0.97118 3:-1 4:-1 5:-1 6:-1 7:-1 8:-1 9:-1 10:-1 11:-1 12:-0.875594 13:-1 14:-1 15:-1 16:-1 17:-1 18:-1 19:-1 20:-1 21:-1 
-8191.305944716987 -8192 8192 8192 8192 8192 8192 8192 8192 1:-1 2:-1 3:-1 4:-1 5:-1 6:-1 7:-1 8:-1 9:-1 10:-1 11:-1 12:-1 13:-1 14:-1 15:-1 16:-1 17:-1 18:-1 19:-1 20:-1 21:-1 
-8192 -0 0 0 8192 8192 0 0 8192 1:-0.6 2:0.968856 3:-1 4:-1 5:-1 6:-1 7:-1 8:-1 9:-1 10:-1 11:-1 12:-0.839294 13:-1 14:-1 15:-1 16:-1 17:-1 18:-1 19:-1 20:-1 21:-1 
-0 -0 0 0 0 0 0 0 8192 1:-0.2 2:0.992732 3:0.990343 4:0.982728 5:-1 6:-1 7:-1 8:-1 9:-1 10:-1 11:-1 12:-0.800745 13:-0.831371 14:-0.918732 15:-1 16:-1 17:-1 18:-1 19:-1 20:-1 21:-1 
-0 -0 0 204.5035437477866 0 0 0 0 8192 1:-0.6 2:0.988868 3:-1 4:-1 5:-1 6:-1 7:-1 8:-1 9:-1 10:-1 11:-1 12:-0.929336 13:-1 14:-1 15:-1 16:-1 17:-1 18:-1 19:-1 20:-1 21:-1 
-0 -0 0 0 0 0 0 0 9.003485094483219 1:0.2 2:0.994572 3:0.982352 4:0.958821 5:0.652528 6:0.501029 7:0.399675 8:-1 9:-1 10:-1 11:-1 12:-0.67601 13:-0.614032 14:-0.720182 15:-0.725397 16:-0.691857 17:-0.792859 18:-1 19:-1 20:-1 21:-1 
-0 -0 0 0 0 0 0 0 8192 1:-0.2 2:0.998392 3:0.899178 4:0.889046 5:-1 6:-1 7:-1 8:-1 9:-1 10:-1 11:-1 12:-0.775411 13:-0.801735 14:-0.89415 15:-1 16:-1 17:-1 18:-1 19:-1 20:-1 21:-1 
-0 -1282.389979239353 0 0 0 0 0 8192 0 1:-0.6 2:0.458286 3:-1 4:-1 5:-1 6:-1 7:-1 8:-1 9:-1 10:-1 11:-1 12:-0.649645 13:-1 14:-1 15:-1 16:-1 17:-1 18:-1 19:-1 20:-1 21:-1 
-0 -0 0 0 0 0 0 0 8192 1:-0.6 2:0.97248 3:-1 4:-1 5:-1 6:-1 7:-1 8:-1 9:-1 10:-1 11:-1 12:-0.898968 13:-1 14:-1 15:-1 16:-1 17:-1 18:-1 19:-1 20:-1 21:-1 
-4718.894984709662 -0 8192 0 8192 8192 8192 8192 8192 1:-0.6 2:0.894585 3:-1 4:-1 5:-1 6:-1 7:-1 8:-1 9:-1 10:-1 11:-1 12:-0.794139 13:-1 14:-1 15:-1 16:-1 17:-1 18:-1 19:-1 20:-1 21:-1 
-2916.240429575277 -0 0 0 0 0 0 0 8192 1:-0.6 2:0.962289 3:-1 4:-1 5:-1 6:-1 7:-1 8:-1 9:-1 10:-1 11:-1 12:-0.904262 13:-1 14:-1 15:-1 16:-1 17:-1 18:-1 19:-1 20:-1 21:-1 
-8192 -0 0 0 0 0 0 0 8192 1:-0.6 2:0.962821 3:-1 4:-1 5:-1 6:-1 7:-1 8:-1 9:-1 10:-1 11:-1 12:-0.903125 13:-1 14:-1 15:-1 16:-1 17:-1 18:-1 19:-1 20:-1 21:-1 
-8192 -0 0 0 0 0 0 0 8192 1:-0.6 2:0.961071 3:-1 4:-1 5:-1 6:-1 7:-1 8:-1 9:-1 10:-1 11:-1 12:-0.901353 13:-1 14:-1 15:-1 16:-1 17:-1 18:-1 19:-1 20:-1 21:-1 
-0 -0 0 0 0 0 0 0 8192 1:-0.6 2:0.962227 3:-1 4:-1 5:-1 6:-1 7:-1 8:-1 9:-1 10:-1 11:-1 12:-0.905376 13:-1 14:-1 15:-1 16:-1 17:-1 18:-1 19:-1 20:-1 21:-1 
-0 -0 0 0 0 0 0 0 8192 1:-0.6 2:0.962755 3:-1 4:-1 5:-1 6:-1 7:-1 8:-1 9:-1 10:-1 11:-1 12:-0.907718 13:-1 14:-1 15:-1 16:-1 17:-1 18:-1 19:-1 20:-1 21:-1 
-8188.297189643517 -8192 8192 8192 8192 8192 8192 8192 8192 1:-1 2:-1 3:-1 4:-1 5:-1 6:-1 7:-1 8:-1 9:-1 10:-1 11:-1 12:-1 13:-1 14:-1 15:-1 16:-1 17:-1 18:-1 19:-1 20:-1 21:-1 
-8192 -0 0 0 0 0 0 0 8192 1:-0.6 2:0.967988 3:-1 4:-1 5:-1 6:-1 7:-1 8:-1 9:-1 10:-1 11:-1 12:-0.893541 13:-1 14:-1 15:-1 16:-1 17:-1 18:-1 19:-1 20:-1 21:-1 
-0 -0 8192 0 8192 8192 8192 0 1360.924258740716 1:-0.6 2:0.577036 3:-1 4:-1 5:-1 6:-1 7:-1 8:-1 9:-1 10:-1 11:-1 12:-0.780306 13:-1 14:-1 15:-1 16:-1 17:-1 18:-1 19:-1 20:-1 21:-1 
-0 -0.03558045880707057 0.2564967989691924 0.09291404487483562 0.05390253130826675 0 0 0.1709414736671322 0.2970243817931458 1:0.6 2:0.990872 3:0.966313 4:0.928457 5:0.864696 6:0.840989 7:0.836875 8:0.92432 9:0.806706 10:0.821758 11:0.539187 12:-0.667767 13:-0.615311 14:-0.623424 15:-0.605822 16:-0.567758 17:-0.618617 18:-0.674723 19:-0.76432 20:-0.74541 21:-0.664006 
-0 -0.4843465068376129 3.477463450371975 1.267976034573456 0.7357933131159357 0 0 2.330401291162813 4.034354588159912 1:1 2:0.996854 3:0.970411 4:0.955029 5:0.945748 6:0.863198 7:0.853159 8:0.842255 9:0.821493 10:0.792443 11:0.589016 12:-0.660547 13:-0.607616 14:-0.608382 15:-0.60914 16:-0.483968 17:-0.476778 18:-0.437471 19:-0.433723 20:-0.368761 21:-0.206311 
-0 -0 0 0 2123.227197226326 0 0 0 0 1:-0.2 2:0.954227 3:0.709114 4:0.511263 5:-1 6:-1 7:-1 8:-1 9:-1 10:-1 11:-1 12:-0.673243 13:-0.739989 14:-0.792315 15:-1 16:-1 17:-1 18:-1 19:-1 20:-1 21:-1 
-0 -0.1850885068704967 1.330557206417763 0.4863263230736931 0.2726939668649906 0 0 0.8912479822376282 1.917064661514629 1:0.6 2:0.992704 3:0.990029 4:0.967467 5:0.952328 6:0.917394 7:0.867718 8:-0.537352 9:-0.56492 10:-0.682654 11:-0.683684 12:-0.023814 13:0.17043 14:0.158682 15:0.186369 16:-0.532754 17:-0.635961 18:-0.637813 19:-0.788545 20:-0.739106 21:-0.671206 
-0 -0 0 0 0 0 0 0 8192 1:-0.2 2:0.992374 3:0.990371 4:0.967477 5:-1 6:-1 7:-1 8:-1 9:-1 10:-1 11:-1 12:-0.825791 13:-0.883166 14:-0.891422 15:-1 16:-1 17:-1 18:-1 19:-1 20:-1 21:-1 
-0 -0 0 0 0 0 0 0 8192 1:-0.2 2:0.992026 3:0.990555 4:0.967591 5:-1 6:-1 7:-1 8:-1 9:-1 10:-1 11:-1 12:-0.825606 13:-0.882711 14:-0.890704 15:-1 16:-1 17:-1 18:-1 19:-1 20:-1 21:-1 
-0 -0 3914.163832185102 0 8192 8192 8075.32594345358 0 8192 1:-0.6 2:0.966432 3:-1 4:-1 5:-1 6:-1 7:-1 8:-1 9:-1 10:-1 11:-1 12:-0.824964 13:-1 14:-1 15:-1 16:-1 17:-1 18:-1 19:-1 20:-1 21:-1 
-0 -0.4011281308701931 2.877991141511568 1.04783972691632 0.6231673094374198 0 0 1.92846837567965 5.353994606727305 1:0.6 2:0.991186 3:0.991283 4:0.968153 5:0.95243 6:0.911038 7:0.867782 8:-0.686983 9:-0.712415 10:-0.814736 11:-0.839528 12:-0.0411869 13:0.145043 14:0.135667 15:0.163085 16:-0.530379 17:-0.63546 18:-0.635487 19:-0.778761 20:-0.739589 21:-0.675782 
-0 -0 0 0 0 0 0 0 8192 1:-0.6 2:0.99151 3:-1 4:-1 5:-1 6:-1 7:-1 8:-1 9:-1 10:-1 11:-1 12:-0.914803 13:-1 14:-1 15:-1 16:-1 17:-1 18:-1 19:-1 20:-1 21:-1 
-0 -0 0 0 0 0 0 0 2758.498448714337 1:-0.2 2:0.993796 3:0.988818 4:0.969466 5:-1 6:-1 7:-1 8:-1 9:-1 10:-1 11:-1 12:-0.823655 13:-0.887562 14:-0.896205 15:-1 16:-1 17:-1 18:-1 19:-1 20:-1 21:-1 
